#include "od_defs.h"
#include "od_intra.h"

double NE_PRED_OFFSETS_4x4[OD_INTRA_NMODES][4][4]={
/* Mode 0 */
  {
    { 20.951696010574054, -1.4183811443365997, -0.61626915159258622, 0.10387037494594024 },
    { -10.402677449809133, 0.14676251684595351, 0.088705553039918658, 0.10341812958180858 },
    { -0.58916443688814601, 0.51986152823681298, 0.17119340346040873, 0.091534950988949454 },
    { -0.23073319659494282, 0.09926477324108976, -0.13649316999150685, -0.22945613987168151 }
  },
/* Mode 1 */
  {
    { -44.134239577400955, 14.079828687382111, 1.7019631711989471, -1.0734389095407262 },
    { 9.8053250275421178, 2.0960327199625239, -1.0008839116695272, -0.14608381763927059 },
    { -0.11165290349767165, 1.867336394128416, 0.26524326911526963, 0.1674948327680692 },
    { 0.035930418236817523, 0.0069536913744581682, 0.11589457915973608, -0.44452582446612904 }
  },
/* Mode 2 */
  {
    { -127.18579022662311, 26.151680335041817, 3.2869420638318321, 2.2393422438398862 },
    { 14.632137458274665, -2.0952969915381465, -0.83019141216358161, 0.49346975532569487 },
    { 0.85180845103663372, -1.9511954835372023, 0.14554133378267542, 0.23872661500811351 },
    { -0.63510409907881293, -0.63389625144185968, 0.23692885280054177, -0.0081456343775285801 }
  },
/* Mode 3 */
  {
    { 18.383911228997643, 0.25101575611172966, 1.831712927674729, 1.4147695974841683 },
    { -6.2241045678147673, 0.11953445463296106, -0.26535746464474474, 0.075171570456906811 },
    { 2.8012526644013955, -0.44563286303007871, 0.12642928885824636, 0.16087614049495053 },
    { -0.4513251060624961, 0.10050537271128816, 0.022236594632688799, -0.18953248470159148 }
  },
/* Mode 4 */
  {
    { 2.6132483954922674, 0.15221984033785674, 1.1588157274599205, 0.80297246654705101 },
    { 0.52714250230733417, 0.79910587537665434, -0.0057322420617058733, -0.076201533649602485 },
    { 0.37222460366501342, 0.59070979229086451, 0.15688561540349452, 0.00018689189767271468 },
    { -0.64576008782230943, -0.36627731364821181, -0.14455745702886239, -0.39403341987404422 }
  },
/* Mode 5 */
  {
    { -407.46825325484059, 79.60459822736162, 1.0608962143555865, 0.689007848076712 },
    { 100.00271988068671, -20.88414667056475, -0.96805156040679241, 0.3439508445564044 },
    { 4.9268839593536926, -3.5394093915836322, 0.066940982544696631, 0.23591867713076758 },
    { 1.0588940379177336, -1.0281162316553885, -0.31350861698554006, -0.87278364499564043 }
  },
/* Mode 6 */
  {
    { -40.408000729964861, 2.6173148980288814, -1.2024747449793631, -1.4387942337419297 },
    { 11.352925741844235, -5.7810009460359097, 0.50864971324935782, 1.0940674098198391 },
    { -1.7348096239197057, 1.1050558151012209, -0.15740045950691595, -0.31002243835738047 },
    { -0.51879477258775741, -0.26505710314667208, -0.11117127849677724, -0.084663247440092793 }
  },
/* Mode 7 */
  {
    { -7.629461613854005, -1.1202165607056047, -1.4607500657912182, -1.5422169179684602 },
    { 2.6216117000505763, 1.4820890942860683, -0.44336943077392932, 0.04368952379948788 },
    { 1.5456641513222376, -0.3798555518814915, -0.11217011907938197, -0.095427173710361343 },
    { 1.0745322422014743, 0.18014410705403883, 0.026117874671772581, -0.013491428007326766 }
  },
/* Mode 8 */
  {
    { -17.915744847545717, -0.73573003869175468, -0.93494475471034399, 0.27530006602778201 },
    { -0.96502908871650561, 0.83486609669634271, 0.49400168095215469, 0.036356243924402384 },
    { -1.0955667846678869, 0.46598454512582199, -0.11552040872047303, 0.074895829759393712 },
    { -0.31247773507077564, -0.0063078385943328517, -0.056483949162303239, 0.17350707790382139 }
  },
/* Mode 9 */
  {
    { -35.752993992726594, 0.47936056087410983, 2.2017009422536411, -0.52390634799527058 },
    { 9.759294070980399, 1.3509327330066347, 1.6547412965062391, -0.1899080542794476 },
    { 0.28291892363479543, -0.63355658381178781, -0.084464277672279778, -0.065852810878403528 },
    { -1.982830732110719, 0.11435659187236091, 0.11132460622136384, -0.73170721964118612 }
  }
};
int NE_PRED_MULTS_4x4[OD_INTRA_NMODES][4][4]={
/* Mode 0 */
  {
    { 15, 4, 3, 2 },
    { 11, 5, 3, 2 },
    { 3, 6, 4, 0 },
    { 2, 2, 1, 1 }
  },
/* Mode 1 */
  {
    { 12, 6, 6, 5 },
    { 6, 1, 0, 1 },
    { 6, 1, 4, 4 },
    { 4, 0, 4, 4 }
  },
/* Mode 2 */
  {
    { 19, 5, 3, 0 },
    { 14, 3, 2, 0 },
    { 9, 2, 1, 0 },
    { 4, 1, 1, 0 }
  },
/* Mode 3 */
  {
    { 11, 4, 3, 0 },
    { 11, 6, 6, 2 },
    { 5, 5, 3, 0 },
    { 2, 4, 2, 0 }
  },
/* Mode 4 */
  {
    { 10, 4, 3, 1 },
    { 13, 5, 1, 1 },
    { 12, 4, 0, 0 },
    { 5, 3, 2, 0 }
  },
/* Mode 5 */
  {
    { 23, 5, 1, 0 },
    { 15, 7, 2, 0 },
    { 4, 2, 1, 0 },
    { 1, 2, 1, 0 }
  },
/* Mode 6 */
  {
    { 10, 17, 10, 5 },
    { 5, 8, 1, 0 },
    { 2, 2, 0, 1 },
    { 3, 0, 0, 0 }
  },
/* Mode 7 */
  {
    { 9, 11, 6, 4 },
    { 3, 5, 6, 3 },
    { 3, 5, 3, 0 },
    { 3, 2, 1, 0 }
  },
/* Mode 8 */
  {
    { 17, 13, 8, 5 },
    { 5, 3, 3, 5 },
    { 2, 0, 1, 2 },
    { 0, 0, 0, 0 }
  },
/* Mode 9 */
  {
    { 18, 9, 3, 0 },
    { 9, 10, 6, 1 },
    { 2, 3, 3, 0 },
    { 0, 0, 0, 0 }
  }
};
double NE_PRED_WEIGHTS_4x4_DATA[640]={
0.20204782987878592,
-0.20070438416200545,
-0.094214960484913471,
0.33338309153163487,
-0.19849404029764162,
0.32477227837986555,
-0.1808581830858447,
0.2038762851444752,
-0.11628844341765709,
0.25667676174677045,
-0.18671226278053007,
0.47976081524157815,
0.76656691369378782,
-0.34399458217349216,
-0.63611177113785566,
-0.048064187734489103,
-0.2378884920340919,
0.23719927064750579,
0.045781468004606266,
-0.11782573744127686,
0.15299797553549604,
0.12699864885394563,
-0.11546810545156337,
0.14009472372863016,
-0.099726895115700209,
0.20957287588700257,
-0.057482789480504684,
0.10571964613398259,
-0.20381976321171771,
-0.17222108580614601,
0.046526941113634736,
-0.10059396744842682,
-0.19541790408907475,
0.21440780435466042,
-0.32529508757825354,
-0.14628580379475162,
0.14679191389487697,
-0.14267875903694294,
0.088047849094981395,
0.2270554011736329,
-0.13061847377064464,
0.13131220721722464,
0.16338321711322398,
-0.10554958892962819,
0.13603065390095159,
0.10700625881189116,
-0.18809329784542467,
0.20158770815345828,
0.08354799941389264,
-0.21211195540477312,
-0.17005732974260171,
-0.1333778086840065,
0.17298833552702461,
0.18363502089321462,
-0.11362360728670691,
-0.08190453011435779,
0.3080009336398461,
-0.15361187136545737,
-0.29641953211793065,
0.16257393644787926,
-0.20785617555703201,
0.30892386699339081,
0.24117255001641311,
0.085038354910284331,
-0.52449031707193194,
-0.10002770235530656,
0.24826525028291041,
0.22466856053902221,
0.59221914845518531,
0.12449468524249754,
-0.28847918460257732,
0.055924289913656222,
0.8191104208795652,
0.27966265019873887,
-0.34295223415943721,
-0.1511746503981464,
0.035954160604744129,
-0.058005591727403959,
0.5059561267543603,
0.16052928888259244,
-0.29710438649400883,
0.027078905980025002,
-0.1726964853664997,
0.49684544303253098,
-0.17494043145188168,
-0.11830558825355658,
-0.059884895790466665,
-0.13561580144343385,
-0.11455561185652004,
0.34825893073943426,
-0.11376682062870126,
-0.12244184409648314,
-0.3310585279764941,
0.062345485401013263,
-0.054653311897324468,
0.77225921181676727,
0.36290535976643945,
-0.46958760062629484,
0.27248102438663835,
0.064219358394676823,
-0.15782919548250399,
-0.072126501294680373,
-0.042494052447409177,
-0.084490050465652292,
0.74124126510082344,
0.13019790184082286,
-0.22068834369236898,
-0.051401990957221096,
0.16729498926464831,
-0.18397836970061415,
0.12602149323882614,
-0.29619557121568124,
0.14688268790070805,
-0.14184925661398157,
0.14726347806124232,
-0.38976789609101775,
-0.058025812790701521,
0.86799110603679519,
0.12539885265757522,
-0.2095905075120624,
0.15601128621640883,
-0.29945408831563325,
0.17892825808213425,
-0.17935454862696029,
0.19536716542500349,
-0.18395735965398302,
0.17042589454950091,
-0.29320130541971773,
0.13718204533014233,
0.096036945954344408,
-0.17880234938717005,
0.22739489298873328,
0.15775331122949623,
-0.1788341028566276,
-0.15759930851277132,
0.85770281069605736,
-1.1371721206422665,
0.75186748123805747,
-0.71606903998282323,
1.8765192212805795,
-1.7960393057940505,
0.93363719679738844,
-0.84521693565760792,
0.90233611608501119,
-0.63730552207030167,
0.54045456139823178,
-0.53847922775239265,
0.026606702925944969,
-0.24481713195788238,
0.61205959583743197,
-0.54316845743099484,
0.080399288322699478,
-0.082294223479270193,
0.19704154487492875,
-0.20733064530175488,
-0.03657274215180803,
-0.12031516185571958,
0.18199193788664322,
0.24493957989993212,
0.049995384639234024,
-0.16167097063706418,
0.3365084963469766,
0.44930981074923271,
-0.44429075320898304,
-0.8819108288703601,
1.2886957093405511,
-0.95620569056430627,
-0.56824741224526554,
0.59392784212624605,
0.06531499397969058,
-0.21107847122544629,
0.37842054765781646,
-0.079532980436342035,
0.16353137826618294,
-0.099283454675421698,
0.23106330521511234,
-0.18563825694963534,
-0.15962966069563342,
-0.060583517104929048,
0.17507110502659415,
-0.16384016183162378,
-0.37329504145599468,
0.35885129194262394,
-0.17304580310162446,
0.2682995721330933,
0.14638297131709246,
0.09503789813570597,
0.11078474935813691,
-0.20853534640793661,
0.14502130075819997,
0.22225722815663526,
0.14986764758261184,
0.040995429398114069,
0.22912530384995142,
-0.24238729627699618,
-0.042114557782679488,
1.0107711608609611,
-1.7673470271783718,
1.8842388213283521,
-1.199628479346692,
0.34973925987739907,
-0.63275850216670171,
0.45675594999363123,
-0.069814038443952162,
-0.13317444425714547,
0.38229621610960118,
-0.38644580482394186,
-0.078846967202711851,
0.17900967024685793,
-0.15833734246468167,
0.043609107797602922,
-0.11034603262067104,
0.116620235407649,
-0.046604862270141954,
0.12712261410171666,
-0.11785737095314884,
0.87825692891913776,
-1.0848425902812742,
0.81644804695672901,
-0.40389826954312702,
0.24906160632008656,
-0.055550212707625092,
0.14287802256266161,
-0.13799132208277073,
-0.13186445812615949,
0.2956061539622194,
-0.24608714088452352,
-0.075621533641276856,
0.098572950182890529,
-0.12493391122550307,
-0.067840629846375913,
0.16039009906400012,
-0.12014949706103263,
-0.078842911007217964,
0.0738076676998001,
-0.014303576808844636,
0.016497978208632833,
0.68452145143165766,
-0.66536159329035838,
0.27368507505639872,
-0.034581526460838792,
0.07094681876792118,
-0.11226591738847323,
0.21929708654985941,
-0.21229597867148173,
-0.05588276575621931,
0.12485757624963548,
-0.10416261559955098,
0.5806314707664687,
-0.67100774470939129,
0.052884922756238378,
-0.12962387050091639,
0.18212583391181897,
-0.16887363868380173,
-0.051190488772046482,
0.089451108023712422,
0.33488446802430605,
-0.29698850545030747,
-0.32375200524251746,
0.35429603476422727,
-0.25224576449757513,
-0.10086802609088713,
0.76055650576223399,
-0.70385901762857483,
0.54773671489835019,
-0.528472323917755,
-0.04064729478558371,
-0.17736507493685422,
0.17803778664676581,
0.039653279865644084,
-0.12387033212237383,
-0.060008144121769878,
0.11603006499056159,
-0.11596715074412191,
0.20574605298603571,
-0.15984580315324456,
-0.35798535006679155,
0.297453448093282,
0.34534895553420952,
-0.24161375780895977,
0.11893950951868805,
-0.27567682150564349,
-0.20584093088341715,
0.24466182814655382,
0.18681038155309024,
0.58989439128427212,
-0.38340365862680093,
-0.12818765396679155,
0.13750944000874535,
0.11384664723289302,
-0.2339772780075397,
0.23206500436548588,
-0.11332238451574195,
0.12813216766456811,
-0.09926158820684039,
0.23837838843883341,
-0.18318100436308365,
-0.19659735349383997,
-0.086478328356447365,
0.16100240248570805,
0.16668095190598339,
-0.14716611926986728,
0.12355312428421907,
-0.2972252978717248,
0.17136719714583945,
0.21301357176743646,
0.088729907046843845,
0.12822666895676083,
-0.2196822446980809,
0.25390163011357275,
-0.018674287074425481,
0.018516179505768619,
-0.13735053491210827,
-0.47909891346367572,
0.32093763283276372,
-0.15121239596594324,
-0.29474321290217748,
0.43719859410167206,
-0.09806873661081178,
0.22036787428061,
0.25023325435254101,
-0.24679299577565889,
-0.24687748700202633,
0.3125981230822189,
0.11955738585425311,
0.25194471740568186,
0.21137036007573326,
-0.62378477004836874,
-0.87364528070665992,
0.69926798990980632,
0.65134629015572376,
1.3360552326447064,
0.26767512434551888,
-0.614187664154344,
-0.44702655840635003,
0.73959373031118947,
0.24554435420430945,
-1.7745797403303238,
2.3635077123160566,
0.50920725903822039,
-0.80128707885432016,
0.97264081002430913,
0.82313374491137281,
-0.082187265873350318,
-0.19498900385718071,
0.26751231367413303,
0.16402548799742542,
-0.38742452408264511,
0.19810278760425684,
-0.21416473186776097,
0.24155483015358001,
0.29476793560373299,
-0.41670188791630763,
0.21254964561432674,
-0.45859273916504584,
-0.33950148825442145,
0.35660747437067852,
0.37265564601528933,
-0.10235639289879572,
-0.32710375091222954,
0.24279909561246454,
-0.52539960893038573,
0.59133679507086234,
0.47693265812652796,
0.072745245665394073,
-0.12585538042828071,
0.2270521953122871,
-0.053183786984120789,
0.13588070833376117,
-0.044422626197808741,
-0.19392981031676981,
-0.10730457839777374,
0.25107283260408436,
-0.092132647454068767,
0.20969819114941915,
-0.20898596985874945,
0.20823397391937798,
0.21860917865723312,
0.32261236958141482,
0.28517367389491655,
0.18137473213615166,
-0.16484910500016339,
0.25070696851850038,
0.17709921636647699,
0.3130137984420423,
-0.3384161422089435,
-0.47310668328935451,
0.5030340627739075,
0.67718545686215159,
0.63496701020178581,
-0.54718409330112128,
-0.66352512813425313,
0.31670786284557823,
-0.32882766543510655,
0.13369091535158545,
-0.23730911627377446,
0.3578320334820802,
-0.14842303918763802,
0.22490592259139408,
-0.30199890653770739,
-0.23588595495008247,
0.55406614724046899,
0.22716213684899667,
-0.37496312447292635,
0.041971952154152482,
0.059260523097350533,
-0.17327757993414006,
0.23244612657780334,
0.14031189740914463,
-0.33854774986802788,
0.3923639123573458,
0.15972948985726407,
0.029429178764293237,
-0.098039581852508273,
-0.30065398158896989,
0.16568636228369513,
-0.02933142013044162,
-0.10207765823992396,
0.2276501469987384,
-0.19896786802186894,
0.15097524447596763,
-0.28329660964333553,
0.18871599063055627,
0.016950532343596832,
-0.017033452805892274,
0.085224271004147756,
0.048608488543953034,
-0.097123855718909732,
-0.046619438340135509,
-0.31049519258872527,
0.23662717957068963,
0.043097566982954236,
-0.083068551439731228,
-0.18059827042598053,
0.23735613315102455,
-0.043779039939217286,
0.090045912073008105,
-0.11689601866167298,
0.16351390301533053,
-0.13574223367619725,
-0.11785833320192861,
0.14160922752294253,
-0.088904901143809903,
0.11634099693025705,
0.14288618699929831,
0.22279102271238191,
0.36054640111238412,
0.17177266057941595,
0.025479335144025436,
0.17606115363644512,
0.9990153215355424,
-1.3694493180209741,
1.2129012293572858,
-0.62563905265943154,
0.094680919072461317,
0.19773402645475277,
-0.031236713564981467,
0.026192837193287636,
-0.11026080586580947,
0.1195065795825779,
0.14100781609671661,
0.93266580474777738,
-0.89637908938919997,
0.56127213588969693,
-0.21661946342575428,
-0.02458654206737566,
0.12178035256698207,
-0.11942271515716231,
0.0200496795856458,
0.78564666845083242,
-0.51385316087495636,
0.14724901877824653,
-0.020782890684113535,
0.064946738817116476,
0.011357974440431896,
0.73234075647355101,
-0.43871716042846093,
-0.012440338668208433,
-0.17649356170217287,
0.40932735702480716,
-0.33531092886235891,
-0.1278640596646578,
0.25013477164015691,
-0.18677643123499207,
0.13395837221055309,
-0.11688482644376023,
-0.092020470167470794,
0.19526520557563601,
-0.14771916499012405,
-0.02391207438718964,
0.080229590685902047,
-0.081846090835784896,
-0.10139651711765624,
0.12799361168931778,
-0.12030125589417606,
-0.064945150460659282,
0.16335303028929224,
-0.14186916816009648,
-0.06129024616468904,
0.1268219184510494,
-0.094864335835211047,
0.090273877740540825,
-0.11042778468732971,
-0.045142671925232448,
0.068482221535847251,
0.0555049406032797,
-0.068431433456766541,
-0.093728728671289646,
0.082314428779056398,
-0.045548666755858204,
-0.11433078190360267,
0.062465054093292449,
0.71791307631799661,
-0.60349600847149132,
-1.1411244067484683,
0.94655102977260908,
0.96395787003342948,
-0.94426116515264291,
-0.53297926470385804,
0.65271964347634648,
0.28284591894312816,
0.39240268415783142,
-0.69750115801244583,
-0.81114409057206971,
-0.32351325749679138,
0.75682291240739263,
0.66546505394542099,
-0.17467381648692204,
0.23746539326812979,
0.20583349920090319,
-0.56829882233547824,
-0.21442803847020961,
0.43191694458139102,
-0.20417883540610623,
-0.40596023798215503,
-0.30950802572575142,
0.17621800698806189,
0.38972563761372947,
0.2874004634123124,
-0.10780933708569398,
0.21060507089524108,
-0.11815955415442297,
-0.025005317607944624,
0.1427954641256545,
-0.45361909355754065,
0.20655597102285222,
0.025720849571643507,
0.14583377808927842,
0.15238860437167634,
0.16799718554962198,
-0.36298702174491909,
-0.12929808660567338,
0.30716150040910156,
0.016824196530820124,
-0.016550411356085939,
0.042791816426256117,
-0.14982218833988231,
0.40759761712226927,
-0.29995122325894813,
-0.045674510498958931,
0.094573996021310225,
-0.1816195141683859,
0.27271974364670831,
-0.17901606673589182,
-0.1589275544758246,
0.12527019640832832,
0.14003290224206039,
-0.29983579418585199,
0.39773763467546996,
-0.10490635015488593,
-0.15724919711053895,
-0.077883117852142664,
0.15639056628721559,
0.16102464564079005,
-0.10982634497104089,
0.17241900312332625,
-0.10894632535560925,
0.35710624220322712,
-0.26330753475090179,
0.16044752059168446,
-0.42278236150232812,
0.55260567601612565,
0.48522278569916821,
-1.8546363509638368,
1.947419552874603,
0.71992297157229179,
0.41401364030279497,
-0.76557747444960256,
0.15452856148630295,
0.63437294115350296,
-0.17673612797146726,
0.30753080399047511,
-0.38416070166324329,
0.49311664925153992,
0.10351649858178437,
-0.34393882879633542,
0.36272362796748497,
-0.34953970730177791,
-0.15693395847543165,
0.15783436471855281,
0.053228286462593068,
-0.2550596526271966,
0.48762876692933449,
0.21459815988979361,
-0.098656205651417347,
0.23856416698342767,
0.13183610353424208,
-0.17664500903059138,
-0.23338749350198554,
0.26825093846233805,
0.28370393301022306,
-0.12130131294867508,
0.12691950181443434,
-0.28545974243656141,
-0.14818585193836223,
0.06282344503303397,
-0.11476747577183781,
0.30242146712038243,
-0.060356749811766766,
-0.19559401510081753,
0.29108558873046886,
0.29014861832970329,
-0.32014766102840897,
-0.099613334274197676,
0.26336480504317927,
-0.14487537122960154,
-0.10138912059149251,
0.25267169175032428,
-0.11449105196597346,
0.20779458799685915,
-0.20743721253133357,
0.21957985567049637,
-0.093946198384519924,
0.16766173353636124,
-0.091051786907303325,
0.23052541793629847,
0.15744800149943905,
0.16973109239512962,
-0.11386614750970306,
0.16397464511820808
};
double *NE_PRED_WEIGHTS_4x4[OD_INTRA_NMODES][4][4]={
/* Mode 0 */
  {
    { NE_PRED_WEIGHTS_4x4_DATA+0, NE_PRED_WEIGHTS_4x4_DATA+15, NE_PRED_WEIGHTS_4x4_DATA+19, NE_PRED_WEIGHTS_4x4_DATA+22    },
    { NE_PRED_WEIGHTS_4x4_DATA+24, NE_PRED_WEIGHTS_4x4_DATA+35, NE_PRED_WEIGHTS_4x4_DATA+40, NE_PRED_WEIGHTS_4x4_DATA+43    },
    { NE_PRED_WEIGHTS_4x4_DATA+45, NE_PRED_WEIGHTS_4x4_DATA+48, NE_PRED_WEIGHTS_4x4_DATA+54, NULL    },
    { NE_PRED_WEIGHTS_4x4_DATA+58, NE_PRED_WEIGHTS_4x4_DATA+60, NE_PRED_WEIGHTS_4x4_DATA+62, NE_PRED_WEIGHTS_4x4_DATA+63    }
  },
/* Mode 1 */
  {
    { NE_PRED_WEIGHTS_4x4_DATA+64, NE_PRED_WEIGHTS_4x4_DATA+76, NE_PRED_WEIGHTS_4x4_DATA+82, NE_PRED_WEIGHTS_4x4_DATA+88    },
    { NE_PRED_WEIGHTS_4x4_DATA+93, NE_PRED_WEIGHTS_4x4_DATA+99, NULL, NE_PRED_WEIGHTS_4x4_DATA+100    },
    { NE_PRED_WEIGHTS_4x4_DATA+101, NE_PRED_WEIGHTS_4x4_DATA+107, NE_PRED_WEIGHTS_4x4_DATA+108, NE_PRED_WEIGHTS_4x4_DATA+112    },
    { NE_PRED_WEIGHTS_4x4_DATA+116, NULL, NE_PRED_WEIGHTS_4x4_DATA+120, NE_PRED_WEIGHTS_4x4_DATA+124    }
  },
/* Mode 2 */
  {
    { NE_PRED_WEIGHTS_4x4_DATA+128, NE_PRED_WEIGHTS_4x4_DATA+147, NE_PRED_WEIGHTS_4x4_DATA+152, NULL    },
    { NE_PRED_WEIGHTS_4x4_DATA+155, NE_PRED_WEIGHTS_4x4_DATA+169, NE_PRED_WEIGHTS_4x4_DATA+172, NULL    },
    { NE_PRED_WEIGHTS_4x4_DATA+174, NE_PRED_WEIGHTS_4x4_DATA+183, NE_PRED_WEIGHTS_4x4_DATA+185, NULL    },
    { NE_PRED_WEIGHTS_4x4_DATA+186, NE_PRED_WEIGHTS_4x4_DATA+190, NE_PRED_WEIGHTS_4x4_DATA+191, NULL    }
  },
/* Mode 3 */
  {
    { NE_PRED_WEIGHTS_4x4_DATA+192, NE_PRED_WEIGHTS_4x4_DATA+203, NE_PRED_WEIGHTS_4x4_DATA+207, NULL    },
    { NE_PRED_WEIGHTS_4x4_DATA+210, NE_PRED_WEIGHTS_4x4_DATA+221, NE_PRED_WEIGHTS_4x4_DATA+227, NE_PRED_WEIGHTS_4x4_DATA+233    },
    { NE_PRED_WEIGHTS_4x4_DATA+235, NE_PRED_WEIGHTS_4x4_DATA+240, NE_PRED_WEIGHTS_4x4_DATA+245, NULL    },
    { NE_PRED_WEIGHTS_4x4_DATA+248, NE_PRED_WEIGHTS_4x4_DATA+250, NE_PRED_WEIGHTS_4x4_DATA+254, NULL    }
  },
/* Mode 4 */
  {
    { NE_PRED_WEIGHTS_4x4_DATA+256, NE_PRED_WEIGHTS_4x4_DATA+266, NE_PRED_WEIGHTS_4x4_DATA+270, NE_PRED_WEIGHTS_4x4_DATA+273    },
    { NE_PRED_WEIGHTS_4x4_DATA+274, NE_PRED_WEIGHTS_4x4_DATA+287, NE_PRED_WEIGHTS_4x4_DATA+292, NE_PRED_WEIGHTS_4x4_DATA+293    },
    { NE_PRED_WEIGHTS_4x4_DATA+294, NE_PRED_WEIGHTS_4x4_DATA+306, NULL, NULL    },
    { NE_PRED_WEIGHTS_4x4_DATA+310, NE_PRED_WEIGHTS_4x4_DATA+315, NE_PRED_WEIGHTS_4x4_DATA+318, NULL    }
  },
/* Mode 5 */
  {
    { NE_PRED_WEIGHTS_4x4_DATA+320, NE_PRED_WEIGHTS_4x4_DATA+343, NE_PRED_WEIGHTS_4x4_DATA+348, NULL    },
    { NE_PRED_WEIGHTS_4x4_DATA+349, NE_PRED_WEIGHTS_4x4_DATA+364, NE_PRED_WEIGHTS_4x4_DATA+371, NULL    },
    { NE_PRED_WEIGHTS_4x4_DATA+373, NE_PRED_WEIGHTS_4x4_DATA+377, NE_PRED_WEIGHTS_4x4_DATA+379, NULL    },
    { NE_PRED_WEIGHTS_4x4_DATA+380, NE_PRED_WEIGHTS_4x4_DATA+381, NE_PRED_WEIGHTS_4x4_DATA+383, NULL    }
  },
/* Mode 6 */
  {
    { NE_PRED_WEIGHTS_4x4_DATA+384, NE_PRED_WEIGHTS_4x4_DATA+394, NE_PRED_WEIGHTS_4x4_DATA+411, NE_PRED_WEIGHTS_4x4_DATA+421    },
    { NE_PRED_WEIGHTS_4x4_DATA+426, NE_PRED_WEIGHTS_4x4_DATA+431, NE_PRED_WEIGHTS_4x4_DATA+439, NULL    },
    { NE_PRED_WEIGHTS_4x4_DATA+440, NE_PRED_WEIGHTS_4x4_DATA+442, NULL, NE_PRED_WEIGHTS_4x4_DATA+444    },
    { NE_PRED_WEIGHTS_4x4_DATA+445, NULL, NULL, NULL    }
  },
/* Mode 7 */
  {
    { NE_PRED_WEIGHTS_4x4_DATA+448, NE_PRED_WEIGHTS_4x4_DATA+457, NE_PRED_WEIGHTS_4x4_DATA+468, NE_PRED_WEIGHTS_4x4_DATA+474    },
    { NE_PRED_WEIGHTS_4x4_DATA+478, NE_PRED_WEIGHTS_4x4_DATA+481, NE_PRED_WEIGHTS_4x4_DATA+486, NE_PRED_WEIGHTS_4x4_DATA+492    },
    { NE_PRED_WEIGHTS_4x4_DATA+495, NE_PRED_WEIGHTS_4x4_DATA+498, NE_PRED_WEIGHTS_4x4_DATA+503, NULL    },
    { NE_PRED_WEIGHTS_4x4_DATA+506, NE_PRED_WEIGHTS_4x4_DATA+509, NE_PRED_WEIGHTS_4x4_DATA+511, NULL    }
  },
/* Mode 8 */
  {
    { NE_PRED_WEIGHTS_4x4_DATA+512, NE_PRED_WEIGHTS_4x4_DATA+529, NE_PRED_WEIGHTS_4x4_DATA+542, NE_PRED_WEIGHTS_4x4_DATA+550    },
    { NE_PRED_WEIGHTS_4x4_DATA+555, NE_PRED_WEIGHTS_4x4_DATA+560, NE_PRED_WEIGHTS_4x4_DATA+563, NE_PRED_WEIGHTS_4x4_DATA+566    },
    { NE_PRED_WEIGHTS_4x4_DATA+571, NULL, NE_PRED_WEIGHTS_4x4_DATA+573, NE_PRED_WEIGHTS_4x4_DATA+574    },
    { NULL, NULL, NULL, NULL    }
  },
/* Mode 9 */
  {
    { NE_PRED_WEIGHTS_4x4_DATA+576, NE_PRED_WEIGHTS_4x4_DATA+594, NE_PRED_WEIGHTS_4x4_DATA+603, NULL    },
    { NE_PRED_WEIGHTS_4x4_DATA+606, NE_PRED_WEIGHTS_4x4_DATA+615, NE_PRED_WEIGHTS_4x4_DATA+625, NE_PRED_WEIGHTS_4x4_DATA+631    },
    { NE_PRED_WEIGHTS_4x4_DATA+632, NE_PRED_WEIGHTS_4x4_DATA+634, NE_PRED_WEIGHTS_4x4_DATA+637, NULL    },
    { NULL, NULL, NULL, NULL    }
  }
};
int NE_PRED_PARAMX_4x4_DATA[640]={
0,
2,
0,
4,
5,
8,
9,
10,
8,
9,
8,
0,
1,
2,
0,
4,
5,
5,
0,
6,
6,
2,
7,
7,
0,
0,
4,
8,
8,
9,
0,
1,
0,
1,
0,
5,
5,
5,
8,
2,
6,
6,
2,
7,
7,
4,
0,
1,
9,
9,
10,
0,
1,
2,
10,
1,
2,
3,
0,
1,
0,
1,
2,
2,
0,
1,
2,
0,
4,
4,
4,
8,
0,
1,
2,
1,
0,
4,
5,
5,
5,
0,
2,
6,
6,
10,
1,
2,
3,
7,
7,
11,
3,
4,
0,
0,
1,
2,
3,
5,
3,
0,
4,
8,
0,
1,
2,
5,
2,
6,
10,
2,
3,
7,
11,
3,
4,
0,
1,
2,
2,
6,
10,
2,
3,
7,
11,
3,
1,
0,
4,
5,
8,
9,
8,
0,
1,
3,
0,
1,
2,
3,
1,
2,
3,
1,
2,
0,
1,
2,
3,
0,
1,
2,
3,
0,
4,
5,
4,
8,
8,
8,
0,
1,
0,
1,
2,
1,
2,
0,
1,
2,
1,
2,
4,
4,
5,
4,
8,
8,
8,
0,
1,
1,
2,
2,
4,
0,
0,
1,
2,
2,
0,
1,
1,
4,
0,
1,
2,
3,
1,
2,
3,
5,
1,
2,
3,
1,
2,
3,
0,
0,
0,
4,
4,
4,
0,
1,
2,
3,
1,
5,
5,
5,
1,
2,
3,
6,
6,
6,
1,
2,
3,
7,
7,
4,
0,
0,
1,
2,
5,
5,
1,
2,
3,
1,
2,
3,
0,
1,
0,
1,
2,
3,
1,
2,
0,
1,
0,
1,
1,
4,
0,
1,
0,
1,
0,
5,
5,
0,
6,
1,
2,
7,
0,
1,
0,
1,
0,
1,
5,
5,
0,
1,
0,
0,
1,
5,
5,
0,
1,
2,
6,
7,
0,
0,
1,
0,
4,
4,
5,
0,
1,
0,
1,
0,
0,
5,
1,
2,
4,
0,
0,
0,
1,
0,
1,
2,
1,
2,
0,
1,
0,
1,
4,
5,
4,
5,
4,
5,
6,
4,
8,
8,
9,
8,
0,
2,
3,
0,
1,
2,
2,
4,
5,
5,
0,
1,
2,
0,
1,
0,
1,
4,
4,
5,
4,
5,
0,
0,
1,
2,
3,
0,
0,
0,
1,
4,
4,
0,
1,
1,
2,
4,
4,
0,
1,
5,
6,
2,
1,
0,
1,
2,
0,
1,
0,
1,
4,
5,
4,
5,
0,
1,
0,
1,
2,
0,
1,
2,
4,
6,
4,
6,
8,
0,
1,
2,
0,
1,
2,
2,
4,
5,
6,
6,
8,
1,
2,
3,
2,
7,
7,
8,
0,
2,
4,
4,
0,
0,
1,
0,
1,
5,
5,
0,
1,
0,
1,
2,
0,
1,
0,
1,
7,
0,
4,
8,
0,
2,
4,
4,
4,
4,
9,
10,
0,
0,
2,
3,
2,
5,
5,
5,
5,
0,
2,
3,
0,
6,
6,
6,
0,
2,
0,
7,
7,
0,
4,
4,
4,
5,
5,
5,
2,
3,
6,
6,
6,
0,
2,
3,
7,
7,
7,
4,
4,
4,
5,
5,
5,
2,
3,
6,
6,
2,
0,
4,
1,
0,
3,
10,
4,
5,
4,
5,
4,
5,
4,
5,
8,
9,
8,
9,
10,
8,
9,
0,
1,
4,
6,
4,
6,
8,
9,
10,
8,
9,
10,
1,
2,
0,
0,
5,
6,
6,
8,
9,
10,
2,
7,
6,
7,
8,
0,
4,
4,
4,
4,
8,
5,
5,
5,
7,
6,
10,
6,
7,
7,
10,
11,
4,
4,
6,
7,
7,
0,
0,
1,
4,
5,
4,
5,
4,
4,
8,
9,
8,
0,
3,
0,
1,
0,
0,
4,
5,
5,
5,
8,
8,
0,
1,
2,
6,
1,
2,
4,
5,
4,
5,
4,
8,
8,
9,
1,
4,
4,
6,
8,
9,
9,
10,
9,
1,
1,
6,
5,
6,
9,
2,
2,
7,
4,
4,
5,
5,
1,
6,
10,
10
};
int *NE_PRED_PARAMX_4x4[OD_INTRA_NMODES][4][4]={
/* Mode 0 */
  {
    { NE_PRED_PARAMX_4x4_DATA+0, NE_PRED_PARAMX_4x4_DATA+15, NE_PRED_PARAMX_4x4_DATA+19, NE_PRED_PARAMX_4x4_DATA+22    },
    { NE_PRED_PARAMX_4x4_DATA+24, NE_PRED_PARAMX_4x4_DATA+35, NE_PRED_PARAMX_4x4_DATA+40, NE_PRED_PARAMX_4x4_DATA+43    },
    { NE_PRED_PARAMX_4x4_DATA+45, NE_PRED_PARAMX_4x4_DATA+48, NE_PRED_PARAMX_4x4_DATA+54, NULL    },
    { NE_PRED_PARAMX_4x4_DATA+58, NE_PRED_PARAMX_4x4_DATA+60, NE_PRED_PARAMX_4x4_DATA+62, NE_PRED_PARAMX_4x4_DATA+63    }
  },
/* Mode 1 */
  {
    { NE_PRED_PARAMX_4x4_DATA+64, NE_PRED_PARAMX_4x4_DATA+76, NE_PRED_PARAMX_4x4_DATA+82, NE_PRED_PARAMX_4x4_DATA+88    },
    { NE_PRED_PARAMX_4x4_DATA+93, NE_PRED_PARAMX_4x4_DATA+99, NULL, NE_PRED_PARAMX_4x4_DATA+100    },
    { NE_PRED_PARAMX_4x4_DATA+101, NE_PRED_PARAMX_4x4_DATA+107, NE_PRED_PARAMX_4x4_DATA+108, NE_PRED_PARAMX_4x4_DATA+112    },
    { NE_PRED_PARAMX_4x4_DATA+116, NULL, NE_PRED_PARAMX_4x4_DATA+120, NE_PRED_PARAMX_4x4_DATA+124    }
  },
/* Mode 2 */
  {
    { NE_PRED_PARAMX_4x4_DATA+128, NE_PRED_PARAMX_4x4_DATA+147, NE_PRED_PARAMX_4x4_DATA+152, NULL    },
    { NE_PRED_PARAMX_4x4_DATA+155, NE_PRED_PARAMX_4x4_DATA+169, NE_PRED_PARAMX_4x4_DATA+172, NULL    },
    { NE_PRED_PARAMX_4x4_DATA+174, NE_PRED_PARAMX_4x4_DATA+183, NE_PRED_PARAMX_4x4_DATA+185, NULL    },
    { NE_PRED_PARAMX_4x4_DATA+186, NE_PRED_PARAMX_4x4_DATA+190, NE_PRED_PARAMX_4x4_DATA+191, NULL    }
  },
/* Mode 3 */
  {
    { NE_PRED_PARAMX_4x4_DATA+192, NE_PRED_PARAMX_4x4_DATA+203, NE_PRED_PARAMX_4x4_DATA+207, NULL    },
    { NE_PRED_PARAMX_4x4_DATA+210, NE_PRED_PARAMX_4x4_DATA+221, NE_PRED_PARAMX_4x4_DATA+227, NE_PRED_PARAMX_4x4_DATA+233    },
    { NE_PRED_PARAMX_4x4_DATA+235, NE_PRED_PARAMX_4x4_DATA+240, NE_PRED_PARAMX_4x4_DATA+245, NULL    },
    { NE_PRED_PARAMX_4x4_DATA+248, NE_PRED_PARAMX_4x4_DATA+250, NE_PRED_PARAMX_4x4_DATA+254, NULL    }
  },
/* Mode 4 */
  {
    { NE_PRED_PARAMX_4x4_DATA+256, NE_PRED_PARAMX_4x4_DATA+266, NE_PRED_PARAMX_4x4_DATA+270, NE_PRED_PARAMX_4x4_DATA+273    },
    { NE_PRED_PARAMX_4x4_DATA+274, NE_PRED_PARAMX_4x4_DATA+287, NE_PRED_PARAMX_4x4_DATA+292, NE_PRED_PARAMX_4x4_DATA+293    },
    { NE_PRED_PARAMX_4x4_DATA+294, NE_PRED_PARAMX_4x4_DATA+306, NULL, NULL    },
    { NE_PRED_PARAMX_4x4_DATA+310, NE_PRED_PARAMX_4x4_DATA+315, NE_PRED_PARAMX_4x4_DATA+318, NULL    }
  },
/* Mode 5 */
  {
    { NE_PRED_PARAMX_4x4_DATA+320, NE_PRED_PARAMX_4x4_DATA+343, NE_PRED_PARAMX_4x4_DATA+348, NULL    },
    { NE_PRED_PARAMX_4x4_DATA+349, NE_PRED_PARAMX_4x4_DATA+364, NE_PRED_PARAMX_4x4_DATA+371, NULL    },
    { NE_PRED_PARAMX_4x4_DATA+373, NE_PRED_PARAMX_4x4_DATA+377, NE_PRED_PARAMX_4x4_DATA+379, NULL    },
    { NE_PRED_PARAMX_4x4_DATA+380, NE_PRED_PARAMX_4x4_DATA+381, NE_PRED_PARAMX_4x4_DATA+383, NULL    }
  },
/* Mode 6 */
  {
    { NE_PRED_PARAMX_4x4_DATA+384, NE_PRED_PARAMX_4x4_DATA+394, NE_PRED_PARAMX_4x4_DATA+411, NE_PRED_PARAMX_4x4_DATA+421    },
    { NE_PRED_PARAMX_4x4_DATA+426, NE_PRED_PARAMX_4x4_DATA+431, NE_PRED_PARAMX_4x4_DATA+439, NULL    },
    { NE_PRED_PARAMX_4x4_DATA+440, NE_PRED_PARAMX_4x4_DATA+442, NULL, NE_PRED_PARAMX_4x4_DATA+444    },
    { NE_PRED_PARAMX_4x4_DATA+445, NULL, NULL, NULL    }
  },
/* Mode 7 */
  {
    { NE_PRED_PARAMX_4x4_DATA+448, NE_PRED_PARAMX_4x4_DATA+457, NE_PRED_PARAMX_4x4_DATA+468, NE_PRED_PARAMX_4x4_DATA+474    },
    { NE_PRED_PARAMX_4x4_DATA+478, NE_PRED_PARAMX_4x4_DATA+481, NE_PRED_PARAMX_4x4_DATA+486, NE_PRED_PARAMX_4x4_DATA+492    },
    { NE_PRED_PARAMX_4x4_DATA+495, NE_PRED_PARAMX_4x4_DATA+498, NE_PRED_PARAMX_4x4_DATA+503, NULL    },
    { NE_PRED_PARAMX_4x4_DATA+506, NE_PRED_PARAMX_4x4_DATA+509, NE_PRED_PARAMX_4x4_DATA+511, NULL    }
  },
/* Mode 8 */
  {
    { NE_PRED_PARAMX_4x4_DATA+512, NE_PRED_PARAMX_4x4_DATA+529, NE_PRED_PARAMX_4x4_DATA+542, NE_PRED_PARAMX_4x4_DATA+550    },
    { NE_PRED_PARAMX_4x4_DATA+555, NE_PRED_PARAMX_4x4_DATA+560, NE_PRED_PARAMX_4x4_DATA+563, NE_PRED_PARAMX_4x4_DATA+566    },
    { NE_PRED_PARAMX_4x4_DATA+571, NULL, NE_PRED_PARAMX_4x4_DATA+573, NE_PRED_PARAMX_4x4_DATA+574    },
    { NULL, NULL, NULL, NULL    }
  },
/* Mode 9 */
  {
    { NE_PRED_PARAMX_4x4_DATA+576, NE_PRED_PARAMX_4x4_DATA+594, NE_PRED_PARAMX_4x4_DATA+603, NULL    },
    { NE_PRED_PARAMX_4x4_DATA+606, NE_PRED_PARAMX_4x4_DATA+615, NE_PRED_PARAMX_4x4_DATA+625, NE_PRED_PARAMX_4x4_DATA+631    },
    { NE_PRED_PARAMX_4x4_DATA+632, NE_PRED_PARAMX_4x4_DATA+634, NE_PRED_PARAMX_4x4_DATA+637, NULL    },
    { NULL, NULL, NULL, NULL    }
  }
};
int NE_PRED_PARAMY_4x4_DATA[640]={
0,
0,
1,
1,
1,
0,
0,
0,
1,
1,
2,
4,
4,
4,
5,
0,
0,
1,
4,
0,
1,
4,
0,
1,
0,
1,
0,
0,
1,
1,
4,
4,
5,
5,
6,
0,
1,
2,
1,
5,
0,
1,
5,
0,
1,
2,
6,
6,
1,
2,
2,
6,
6,
6,
2,
6,
6,
6,
7,
7,
7,
7,
7,
7,
0,
0,
0,
2,
0,
1,
2,
0,
4,
4,
4,
5,
0,
0,
0,
1,
2,
4,
0,
0,
2,
0,
4,
4,
0,
0,
2,
0,
4,
0,
4,
5,
5,
5,
5,
0,
5,
2,
1,
2,
6,
6,
6,
1,
2,
2,
2,
6,
2,
2,
2,
6,
3,
7,
7,
7,
3,
3,
3,
7,
3,
3,
3,
7,
0,
1,
0,
1,
0,
0,
1,
4,
4,
4,
5,
5,
5,
5,
6,
6,
6,
7,
7,
4,
4,
4,
4,
5,
4,
4,
4,
0,
1,
1,
2,
0,
1,
2,
5,
5,
6,
6,
6,
7,
7,
5,
5,
5,
5,
5,
1,
2,
2,
3,
1,
2,
3,
7,
7,
6,
6,
6,
2,
6,
7,
7,
7,
7,
0,
2,
3,
0,
4,
4,
4,
4,
6,
6,
6,
0,
4,
4,
4,
4,
4,
4,
0,
2,
3,
0,
2,
3,
5,
5,
5,
5,
7,
0,
2,
3,
5,
5,
5,
0,
2,
3,
5,
5,
5,
0,
1,
0,
4,
6,
6,
6,
0,
2,
6,
6,
6,
6,
6,
6,
7,
7,
7,
7,
7,
7,
7,
7,
0,
0,
1,
1,
2,
0,
4,
4,
5,
5,
0,
0,
1,
4,
0,
4,
4,
0,
0,
0,
1,
1,
2,
2,
0,
1,
4,
4,
5,
6,
6,
0,
1,
5,
5,
5,
0,
1,
1,
2,
2,
3,
1,
2,
2,
5,
5,
6,
6,
7,
2,
3,
6,
6,
0,
4,
6,
7,
7,
7,
7,
7,
7,
7,
0,
0,
1,
1,
0,
0,
1,
1,
2,
2,
2,
3,
1,
2,
2,
3,
4,
4,
4,
5,
5,
5,
6,
0,
0,
1,
4,
4,
4,
1,
1,
2,
2,
0,
1,
1,
2,
2,
4,
5,
5,
5,
5,
6,
0,
1,
1,
0,
1,
4,
5,
5,
5,
1,
2,
6,
6,
2,
2,
6,
7,
7,
7,
7,
0,
0,
1,
1,
0,
0,
1,
1,
5,
5,
0,
0,
0,
1,
1,
1,
0,
0,
1,
1,
0,
4,
4,
4,
5,
5,
5,
0,
0,
0,
0,
1,
0,
4,
4,
4,
5,
0,
1,
0,
4,
4,
0,
1,
4,
5,
5,
0,
0,
1,
2,
4,
4,
5,
5,
1,
6,
6,
6,
6,
2,
3,
3,
3,
0,
1,
0,
1,
2,
3,
1,
1,
4,
0,
0,
0,
1,
0,
1,
2,
3,
4,
4,
4,
0,
0,
1,
2,
4,
4,
0,
0,
1,
4,
1,
2,
3,
1,
2,
3,
5,
5,
1,
2,
3,
5,
5,
5,
1,
2,
3,
1,
2,
3,
1,
2,
3,
6,
6,
1,
2,
6,
3,
3,
7,
7,
7,
3,
0,
0,
1,
1,
2,
2,
3,
3,
0,
0,
1,
1,
1,
2,
2,
5,
5,
0,
0,
1,
1,
0,
0,
0,
1,
1,
1,
4,
4,
5,
0,
0,
0,
1,
0,
0,
0,
4,
0,
1,
1,
0,
4,
0,
1,
2,
3,
0,
0,
1,
2,
0,
1,
0,
0,
0,
2,
0,
0,
1,
2,
2,
1,
2,
0,
1,
1,
0,
0,
1,
1,
2,
3,
0,
0,
1,
4,
4,
5,
5,
6,
7,
0,
0,
1,
2,
0,
1,
4,
4,
4,
1,
4,
4,
0,
0,
1,
1,
2,
0,
1,
1,
4,
0,
1,
1,
0,
0,
1,
1,
2,
4,
6,
0,
1,
1,
1,
5,
6,
1,
1,
2,
1,
2,
6,
2,
1,
2
};
int *NE_PRED_PARAMY_4x4[OD_INTRA_NMODES][4][4]={
/* Mode 0 */
  {
    { NE_PRED_PARAMY_4x4_DATA+0, NE_PRED_PARAMY_4x4_DATA+15, NE_PRED_PARAMY_4x4_DATA+19, NE_PRED_PARAMY_4x4_DATA+22    },
    { NE_PRED_PARAMY_4x4_DATA+24, NE_PRED_PARAMY_4x4_DATA+35, NE_PRED_PARAMY_4x4_DATA+40, NE_PRED_PARAMY_4x4_DATA+43    },
    { NE_PRED_PARAMY_4x4_DATA+45, NE_PRED_PARAMY_4x4_DATA+48, NE_PRED_PARAMY_4x4_DATA+54, NULL    },
    { NE_PRED_PARAMY_4x4_DATA+58, NE_PRED_PARAMY_4x4_DATA+60, NE_PRED_PARAMY_4x4_DATA+62, NE_PRED_PARAMY_4x4_DATA+63    }
  },
/* Mode 1 */
  {
    { NE_PRED_PARAMY_4x4_DATA+64, NE_PRED_PARAMY_4x4_DATA+76, NE_PRED_PARAMY_4x4_DATA+82, NE_PRED_PARAMY_4x4_DATA+88    },
    { NE_PRED_PARAMY_4x4_DATA+93, NE_PRED_PARAMY_4x4_DATA+99, NULL, NE_PRED_PARAMY_4x4_DATA+100    },
    { NE_PRED_PARAMY_4x4_DATA+101, NE_PRED_PARAMY_4x4_DATA+107, NE_PRED_PARAMY_4x4_DATA+108, NE_PRED_PARAMY_4x4_DATA+112    },
    { NE_PRED_PARAMY_4x4_DATA+116, NULL, NE_PRED_PARAMY_4x4_DATA+120, NE_PRED_PARAMY_4x4_DATA+124    }
  },
/* Mode 2 */
  {
    { NE_PRED_PARAMY_4x4_DATA+128, NE_PRED_PARAMY_4x4_DATA+147, NE_PRED_PARAMY_4x4_DATA+152, NULL    },
    { NE_PRED_PARAMY_4x4_DATA+155, NE_PRED_PARAMY_4x4_DATA+169, NE_PRED_PARAMY_4x4_DATA+172, NULL    },
    { NE_PRED_PARAMY_4x4_DATA+174, NE_PRED_PARAMY_4x4_DATA+183, NE_PRED_PARAMY_4x4_DATA+185, NULL    },
    { NE_PRED_PARAMY_4x4_DATA+186, NE_PRED_PARAMY_4x4_DATA+190, NE_PRED_PARAMY_4x4_DATA+191, NULL    }
  },
/* Mode 3 */
  {
    { NE_PRED_PARAMY_4x4_DATA+192, NE_PRED_PARAMY_4x4_DATA+203, NE_PRED_PARAMY_4x4_DATA+207, NULL    },
    { NE_PRED_PARAMY_4x4_DATA+210, NE_PRED_PARAMY_4x4_DATA+221, NE_PRED_PARAMY_4x4_DATA+227, NE_PRED_PARAMY_4x4_DATA+233    },
    { NE_PRED_PARAMY_4x4_DATA+235, NE_PRED_PARAMY_4x4_DATA+240, NE_PRED_PARAMY_4x4_DATA+245, NULL    },
    { NE_PRED_PARAMY_4x4_DATA+248, NE_PRED_PARAMY_4x4_DATA+250, NE_PRED_PARAMY_4x4_DATA+254, NULL    }
  },
/* Mode 4 */
  {
    { NE_PRED_PARAMY_4x4_DATA+256, NE_PRED_PARAMY_4x4_DATA+266, NE_PRED_PARAMY_4x4_DATA+270, NE_PRED_PARAMY_4x4_DATA+273    },
    { NE_PRED_PARAMY_4x4_DATA+274, NE_PRED_PARAMY_4x4_DATA+287, NE_PRED_PARAMY_4x4_DATA+292, NE_PRED_PARAMY_4x4_DATA+293    },
    { NE_PRED_PARAMY_4x4_DATA+294, NE_PRED_PARAMY_4x4_DATA+306, NULL, NULL    },
    { NE_PRED_PARAMY_4x4_DATA+310, NE_PRED_PARAMY_4x4_DATA+315, NE_PRED_PARAMY_4x4_DATA+318, NULL    }
  },
/* Mode 5 */
  {
    { NE_PRED_PARAMY_4x4_DATA+320, NE_PRED_PARAMY_4x4_DATA+343, NE_PRED_PARAMY_4x4_DATA+348, NULL    },
    { NE_PRED_PARAMY_4x4_DATA+349, NE_PRED_PARAMY_4x4_DATA+364, NE_PRED_PARAMY_4x4_DATA+371, NULL    },
    { NE_PRED_PARAMY_4x4_DATA+373, NE_PRED_PARAMY_4x4_DATA+377, NE_PRED_PARAMY_4x4_DATA+379, NULL    },
    { NE_PRED_PARAMY_4x4_DATA+380, NE_PRED_PARAMY_4x4_DATA+381, NE_PRED_PARAMY_4x4_DATA+383, NULL    }
  },
/* Mode 6 */
  {
    { NE_PRED_PARAMY_4x4_DATA+384, NE_PRED_PARAMY_4x4_DATA+394, NE_PRED_PARAMY_4x4_DATA+411, NE_PRED_PARAMY_4x4_DATA+421    },
    { NE_PRED_PARAMY_4x4_DATA+426, NE_PRED_PARAMY_4x4_DATA+431, NE_PRED_PARAMY_4x4_DATA+439, NULL    },
    { NE_PRED_PARAMY_4x4_DATA+440, NE_PRED_PARAMY_4x4_DATA+442, NULL, NE_PRED_PARAMY_4x4_DATA+444    },
    { NE_PRED_PARAMY_4x4_DATA+445, NULL, NULL, NULL    }
  },
/* Mode 7 */
  {
    { NE_PRED_PARAMY_4x4_DATA+448, NE_PRED_PARAMY_4x4_DATA+457, NE_PRED_PARAMY_4x4_DATA+468, NE_PRED_PARAMY_4x4_DATA+474    },
    { NE_PRED_PARAMY_4x4_DATA+478, NE_PRED_PARAMY_4x4_DATA+481, NE_PRED_PARAMY_4x4_DATA+486, NE_PRED_PARAMY_4x4_DATA+492    },
    { NE_PRED_PARAMY_4x4_DATA+495, NE_PRED_PARAMY_4x4_DATA+498, NE_PRED_PARAMY_4x4_DATA+503, NULL    },
    { NE_PRED_PARAMY_4x4_DATA+506, NE_PRED_PARAMY_4x4_DATA+509, NE_PRED_PARAMY_4x4_DATA+511, NULL    }
  },
/* Mode 8 */
  {
    { NE_PRED_PARAMY_4x4_DATA+512, NE_PRED_PARAMY_4x4_DATA+529, NE_PRED_PARAMY_4x4_DATA+542, NE_PRED_PARAMY_4x4_DATA+550    },
    { NE_PRED_PARAMY_4x4_DATA+555, NE_PRED_PARAMY_4x4_DATA+560, NE_PRED_PARAMY_4x4_DATA+563, NE_PRED_PARAMY_4x4_DATA+566    },
    { NE_PRED_PARAMY_4x4_DATA+571, NULL, NE_PRED_PARAMY_4x4_DATA+573, NE_PRED_PARAMY_4x4_DATA+574    },
    { NULL, NULL, NULL, NULL    }
  },
/* Mode 9 */
  {
    { NE_PRED_PARAMY_4x4_DATA+576, NE_PRED_PARAMY_4x4_DATA+594, NE_PRED_PARAMY_4x4_DATA+603, NULL    },
    { NE_PRED_PARAMY_4x4_DATA+606, NE_PRED_PARAMY_4x4_DATA+615, NE_PRED_PARAMY_4x4_DATA+625, NE_PRED_PARAMY_4x4_DATA+631    },
    { NE_PRED_PARAMY_4x4_DATA+632, NE_PRED_PARAMY_4x4_DATA+634, NE_PRED_PARAMY_4x4_DATA+637, NULL    },
    { NULL, NULL, NULL, NULL    }
  }
};
double NE_PRED_OFFSETS_8x8[OD_INTRA_NMODES][8][8]={
/* Mode 0 */
  {
    { -372.16171715842978, 30.75268933370679, -14.375352528636999, 5.7381802258097334, -0.049473335233386706, 11.155875589265424, -3.5116578665526821, -0.83822276920051508 },
    { -76.104564445112629, -30.703031116807374, 5.8522641901816153, -3.6908610716839383, -0.096242243470057068, 4.5309733955784344, -0.41435954139432152, 1.9724004786766494 },
    { 34.018065601455149, 7.149520134439471, -3.2448401800628512, -0.70642034916647178, 2.5885092758420298, -0.066033760519609505, -2.0811556864188492, 2.3547567023176752 },
    { 26.163379369886986, 3.0030942760349988, -1.7086013682062555, -2.0438998596406619, -1.45268873592202, -0.42109147970173155, -0.39589762464256473, -1.3910819948920357 },
    { -0.6217467198432749, 4.7207873651501675, 0.58405263160798992, 0.71809236853313352, 0.090951255881462592, -1.2083442096854984, 1.2235788043799747, 0.69777186376376799 },
    { -3.3028285663957675, 4.9812581164059075, -0.23901014367822551, -1.7941079544553424, -0.8146694220986378, -0.77950569766436717, 0.81949534143969183, -1.5558539561980418 },
    { 3.1176556323977747, 0.54153963911861813, 0.31515245887715315, -0.0038685845948221095, 1.3922318208926834, 0.70557779853772951, -1.4546377346736141, -0.61162927907251152 },
    { -0.9454131908053951, 4.4369098834693421, 1.5797684097279265, 0.23749059388207738, -0.3951030840220161, 1.7230241316551851, -1.5261130252647044, -1.2705472664986865 }
  },
/* Mode 1 */
  {
    { -352.13316821584453, 55.311303850784149, 13.070326982037894, 10.186280231783861, -3.5877895731388119, 11.254112155911493, 13.005272853577697, -1.8146305913964431 },
    { -3.950316247418173, 22.732043215569366, -8.0544675433648401, -2.8533829119787466, -0.44695904585736579, -0.055998044721675549, 0.37437533893066249, -1.0054570027906795 },
    { 9.2431416101772363, -1.3554290117358614, -0.93014290215558026, -4.8329947358876177, 1.4289580604568894, 0.30837951550423859, 0.13126800208108774, -0.70982153592307562 },
    { -3.2761702414921432, -9.2004606814401182, 4.7544730826245312, 1.1963460533170767, 0.34572610466419523, 0.033768823179494437, -0.35763633674945261, 0.6287965110135405 },
    { -3.9291933659011118, 3.8662291520304266, -3.019941540558535, 2.2194978397733021, -0.36920118676818314, -0.76899067793664311, 2.1851967255765699, 0.66975267433216523 },
    { 4.184855874077992, -0.44886439719004273, -2.5730728597112313, 1.2800427349004397, -0.61600184933141988, -0.15371154662036773, 3.2324140200197102, -0.33237701807553183 },
    { -4.3628071900519005, -1.3203095870456325, -2.3364595110559159, -0.45434394556046953, -0.17960885515776226, -2.5542040471146992, 0.29735800605966367, 0.89240764071572243 },
    { 7.4741715099508905, -1.7009247437113664, -0.53058269943390401, 1.1860322873612195, 0.96625724533168922, 0.77103111125913726, 0.19508796138766565, 1.0808666802587406 }
  },
/* Mode 2 */
  {
    { -1964.6558091353643, 233.0028298952862, -32.222524950862827, 10.630440827817816, 5.8048906281571284, -27.396911323636253, 5.1391098009487841, 28.102038006573274 },
    { 662.53095853747686, -52.177330672703725, -5.7686983067356605, -7.4374174099489512, -3.2795038455292254, -2.608455745558341, -1.4148501802974198, -3.13775078539582 },
    { -119.14778506522643, 14.521088371653166, 7.0409319709575033, 4.5777861862211342, -1.0354022379865464, 1.2506804912910019, 3.3591698925983051, -3.1463457228512395 },
    { 25.427754463921069, -11.603599108176025, -4.251640961087908, 0.50411852024333381, -1.0233670871326024, 0.46147559324861931, -0.17073667665977976, 0.77888057746601902 },
    { 6.7869594432489677, -3.4945608853315568, 4.4901745061026599, -0.33157726227550854, 1.2330111710055975, -0.56764164024435815, 0.24941060045987623, 0.62604418313589927 },
    { -46.04970334612036, 3.8240161658730618, 3.4691246860817424, 2.4430682223192788, 0.18340948958163017, -0.96360820879031328, 0.38648470362820669, 0.27473295107256257 },
    { 3.1884403702619672, 6.5129337222787793, 0.69848752490334465, -3.3802418107584749, -1.3923649927014949, 1.0558088136049455, -1.4778356666763701, 1.8077247722443739 },
    { 19.834045728782062, -1.3189701076028204, -3.3251739092470252, 1.0046129671568744, -1.6621940215967625, 1.3011524257248199, -0.61955351165701311, -0.20781791192479027 }
  },
/* Mode 3 */
  {
    { 69.261363990246664, 3.0019846585454948, 2.3689161087081954, 1.7159328919670027, 3.9211806517710164, 1.1515176121140627, 0.68061609996545014, -0.99685552454641768 },
    { -3.165071116477514, -2.4032407060236354, -0.12498075740085093, 0.37993061949191537, 0.072094070125795051, -0.24789244115909803, -0.21529520246645112, 0.36045681676379338 },
    { 4.0374566621633408, -2.5904578899735062, 0.90672539193589319, 0.8370458423791316, -1.3359722368347957, -0.19993046231381451, -0.16590885058686783, 0.028695885913473704 },
    { 0.71396685561856332, -0.69279202617969315, 2.6875092683226667, 0.26089979141818831, 1.1014610524373163, 0.20391348491216607, -0.29151258026325183, -0.52477202538890133 },
    { 1.7738855786356555, 0.39591868755674331, -0.67757381162967112, 9.5084316360214555e-05, -0.84643138196787782, 0.32743553082972154, -0.4302016143244865, 0.30502978393430141 },
    { 0.61530253749537545, 0.044530817316843628, 0.93554929621485272, -0.10983248855629085, -0.86838673293151458, 1.0180912966910014, -0.46141306263438187, 0.54876170280104763 },
    { 1.8490393157905665, -0.3025096048782242, -1.3689771245285678, -0.055372475609969912, -0.37652808355843959, 0.19091864542348633, 0.39072468365584384, 0.27377139768911951 },
    { 1.9551601655329018, -1.7169846683908652, 0.61896774566915225, -1.0455946187575251, 0.14016060780028616, -0.50696133375630026, -0.36057530390981718, -0.29223502872651702 }
  },
/* Mode 4 */
  {
    { 51.767371087283607, -9.9378051877388902, 1.6501169363464263, 0.40314567109084631, -0.90123629095922231, -0.92610465387528507, -2.5569224142704106, 2.5340716578429543 },
    { -1.0240438479407998, -2.5930699659873673, 0.53572973343319608, -0.4777269377819402, 0.73699288065908297, -0.45787225647471658, -0.76391641452464132, 0.58246139399316199 },
    { -8.376515509014494, 5.6613752366882073, -0.94526003837193273, -0.4537052898451448, -0.37350109634095974, -1.0147920378237667, -1.4531656845278893, -0.44171406057283935 },
    { 2.7297985982558277, 4.421207832010956, 1.2960459343511852, 0.4195816774016724, 0.019082199606904778, 0.0045994929423038844, 0.44917431821296533, -0.96485713306838372 },
    { 0.33657413169904821, 0.08708742726719354, -1.438073689382197, -0.2451778127997763, 0.52652335533876948, 0.43620666027134425, -0.22811600657804426, 0.067322187200221456 },
    { -5.701868770487879, 0.65687637536887, 0.19911180751583046, 0.96531014084670563, -1.1559444350094614, -0.49527202960120631, 0.36094456626010568, 0.05500548170480983 },
    { -1.7053200928453782, -0.66880092783270395, 0.23606516404307709, 0.95077149222890955, -0.60701096921398046, 0.60580546800054802, -0.90361621214197851, -0.320825339180486 },
    { 2.4301645229140902, 1.070821345385496, 0.31163197267545978, -0.44443099749182691, -0.86509503930082454, -1.1388327394819779, -0.027537001507470737, -1.3031765838911809 }
  },
/* Mode 5 */
  {
    { -936.886698934528, 150.67662307517344, -17.340908581740447, 33.286544473764991, 3.6958986963751248, -7.9048783275895573, -1.1632559709601549, 8.4098278883802884 },
    { 124.77973536281687, -8.853617434906857, 4.8721472436372313, -3.6586455838733931, -0.17055173180329664, 1.8263160025136402, 0.762706622507348, -1.1846852368332779 },
    { 14.013418138523793, -15.350601646649363, 0.66142859641300566, -6.7422693298366418, 0.98844918163769735, -0.5160194984798796, 1.4405812166632652, 0.75287109266608221 },
    { -1.0323855143894134, -2.7640458860327302, 1.5257262275906309, 1.8369741050342983, -0.2633853405351137, -2.5619624609364289, 1.0537306241737308, 4.5789473684210531 },
    { 3.2570172602221676, 0.91805364083757979, -1.140919461143423, -3.0701631876030833, -0.92114452792285051, 1.7276837447968298, 1.6672814702588752, 1.5955031508684077 },
    { -31.154634214187283, -1.1478926666690903, 1.4424101611289379, -1.2894129114362052, 2.3732251824241395, -0.18118798738881634, 0.49171113014074325, -0.38466943328283609 },
    { -4.4902865396939173, 1.1893551770580306, 2.7677158609518204, -1.5275529356074118, 2.1282647980648308, 0.88369740844308031, 0.91798959225347421, 0.078145928024064143 },
    { 21.930114662038456, -2.1687576011486427, -0.37383686786096965, -1.4244560086072491, 0.077990979889073636, -0.79200893232922098, 0.043277781437322249, -1.6212370726566114 }
  },
/* Mode 6 */
  {
    { -318.77682175340226, 0.99305437906056282, 4.2322207808969852, 5.2162663997580418, 0.39411927907296823, -5.1926150502338482, -3.5702271808108783, 5.7607720720504867 },
    { 40.277636041460021, -20.787803488439248, 0.72729141237957928, -0.32610261387030315, 3.0997539245659684, 0.78452118290272499, -0.47420999904108557, 0.97058478896316491 },
    { 7.317548484362864, -8.688684144951063, 1.2906613587656661, 1.0092004521534745, -0.20790549901827263, -0.44810106021905749, 1.8814165605095523, -1.277248407643309 },
    { 5.1844645063586094, -0.72009732434922369, -1.9837433807443539, -1.6522089171974552, -0.87839442304652882, -0.9955589819924191, -0.25185222929936435, 0.76937579617834695 },
    { 0.90837551513812853, 0.48008434819629853, 1.9704074668626974, 1.8638980891719696, 0.49090285954920709, -0.11026751592356526, 0.26388789808917168, 0.47986660914163881 },
    { -9.4546764040482056, 0.8997594810698798, -0.98851939618255047, -0.11676942675159097, 0.45314678363329924, 0.32059615313683221, 0.63657579617834359, -0.073433758633331014 },
    { -2.2622907037117868, 1.4530487995278945, 1.3881443287183162, 0.88803924560799619, -0.56136869321858895, 0.018262420382165495, -1.2584458598726109, 0.41540891719745254 },
    { 6.6137669229408091, -1.9782811482239793, -1.102228495442543, -0.38742525316921772, -0.022450955414010987, 0.63532229299362841, -0.48445350318471325, -0.28783694267515969 }
  },
/* Mode 7 */
  {
    { -68.496702327716278, -21.34935895022452, -5.595648086524827, -6.6787314911778726, 6.8149070285790891, -6.6621543194585762, 2.2019125479621176, 5.6119912734646178 },
    { 10.900740051717804, 4.0927310758932256, -3.4838793550153855, 0.13667467136062686, -3.2655561064044032, 2.6486830972682625, -1.1132796968917456, 0.75073058975836282 },
    { 7.4858078637231991, 1.6000349310848359, 4.3178056864913703, -0.66034135887369227, 1.5857916265285259, -0.87586079553373497, -0.29590476413218991, -0.59649389887528015 },
    { -1.6099301376655917, 1.8288578484015598, -1.2340569816993674, 0.052832358426891053, -0.60490423240763347, 0.1886094353003788, -0.39946783237180611, 0.79526798131714371 },
    { 4.7651700885771922, 0.69603368078640737, -0.0607077654983154, 0.87329853312774097, -0.27952739645629654, 0.49862180753660534, -0.48779735270517477, -0.97284905822446888 },
    { -0.37982112731788997, -2.1502519277376999, 0.31817012419018936, -0.7025498119763508, -1.0014119311096341, -1.0355937259571923, 0.18681151624295456, -0.08075016901247549 },
    { 0.26552706606335819, 0.12966895307679452, -1.6568748976775696, 0.10154900782497524, 1.8407451123791958, 0.26723330319068739, -0.3338869410291207, 0.28698224852071075 },
    { -2.3913996793162804, -0.58431997561269478, 0.1219397179125591, 0.082359314764022418, -0.12723233545277443, -0.32072203440591607, 0.043443178894685575, -0.57080711930210049 }
  },
/* Mode 8 */
  {
    { 126.50192594603639, -8.0106946954990992, 5.0650711964230748, 2.6506237059848714, 0.40653342771817524, 0.79867119028289135, -0.48638067184423472, -0.18370670983383017 },
    { -12.412378850720764, 4.2959894638699616, -7.5707156963565101, -0.35807234274589728, 0.00079283190994644537, -0.74862495225439163, -2.1622496875110557, 0.10751976830055959 },
    { -4.6529585615209097, -1.8698199554373935, 3.6717943703896898, -3.134387491983718, -0.29756865420427703, -0.49130803765654274, 0.29879959811049883, 1.9405215308259154 },
    { -0.55655427106666866, -2.4989397211522522, -0.72750382948212455, 1.2581451183608721, 2.5292398613781781, 0.99991511185224569, 0.91829414101815954, 1.519880944337344 },
    { 4.4112486846884806, -2.0203286406837564, 2.622950819672127, 0.18536866234288002, 1.3028831299820296, 0.70183721614184447, -0.62068490120733411, -0.1120526678410807 },
    { -0.4837913890603166, -0.019157696460553653, 0.86105226564112636, -1.0668013775271865, -1.0930569636973784, 0.01872915512390208, -0.085291529511454939, -0.21013807863203188 },
    { 0.81930009663753978, 0.74312283431482984, -2.2714423839476785, 0.31495181913980724, 0.28561299871622692, 0.85890123738443691, -0.23113776358243945, -0.11666612347771242 },
    { -2.1504018692654099, 0.24512740125435969, 1.1090071592304032, 0.80512553096720108, 0.028106781782669815, -0.81662894421274046, -0.28955230366435181, -0.69908418342404355 }
  },
/* Mode 9 */
  {
    { -214.03920027840815, -34.315328529192392, -6.7696618765879037, 8.7790092825246546, 0.45399739304218278, -7.7765533866901464, 0.72217911093091591, 6.2513876176544514 },
    { 3.7132453076679797, -7.8872637442380729, 13.515930385697818, 1.3521760888557735, -0.95373228407952026, -0.18532381290451133, -1.6919956963811291, -1.5392090678905135 },
    { -11.11740906539953, 2.066416656710826, -2.2073928506564573, 1.0785620398126208, -0.85690101306116351, 0.6560090673441914, -1.2153387261099602, -1.286054476045513 },
    { -1.3837932684701888, -2.6813081673411423, 1.9059081678530694, 1.458866964119665, -0.68026016080361618, -0.024878864229837316, 2.5835259161409398, 2.6432613858312992 },
    { -2.1907898388830667, -0.18786475756253931, 0.83062722637689779, -0.10246868482841461, 0.94350970628906272, 2.0100302679275486, 0.99851626375720548, -0.43028465513643466 },
    { -9.2878720916932451, 0.94469192299878069, 0.20106300710717395, 0.067752386142386253, -0.33144160402381018, 0.0022340334123036251, -0.54832017872266869, -0.051124995396908568 },
    { 1.90636931981226, -0.8442476384149411, 0.81676016055580791, -1.61512023273227, 0.5701487069712653, -0.12098093752273617, 0.6469245215854269, 0.04077724722893683 },
    { 7.4465072540350512, -0.46200469976386482, 0.21573152319344052, -0.72165416671781579, 0.66764934238314755, 0.97661629862398325, 1.2366111431622644, -0.23494175555746472 }
  }
};
int NE_PRED_MULTS_8x8[OD_INTRA_NMODES][8][8]={
/* Mode 0 */
  {
    { 43, 8, 2, 5, 3, 5, 4, 6 },
    { 14, 6, 2, 4, 3, 3, 3, 4 },
    { 6, 3, 0, 3, 1, 2, 0, 2 },
    { 4, 3, 1, 3, 3, 2, 0, 2 },
    { 5, 4, 5, 9, 3, 2, 2, 0 },
    { 7, 4, 4, 8, 4, 6, 4, 1 },
    { 8, 3, 0, 1, 2, 5, 4, 1 },
    { 7, 3, 0, 1, 1, 1, 1, 0 }
  },
/* Mode 1 */
  {
    { 26, 9, 7, 6, 4, 7, 7, 5 },
    { 11, 4, 2, 2, 2, 1, 3, 2 },
    { 13, 2, 0, 1, 3, 0, 1, 1 },
    { 12, 2, 1, 1, 1, 5, 3, 1 },
    { 6, 3, 1, 2, 4, 4, 5, 1 },
    { 10, 2, 0, 5, 3, 6, 6, 4 },
    { 11, 2, 0, 3, 3, 5, 7, 5 },
    { 5, 1, 1, 0, 1, 2, 3, 0 }
  },
/* Mode 2 */
  {
    { 41, 9, 4, 6, 4, 5, 2, 3 },
    { 28, 12, 4, 3, 5, 4, 2, 3 },
    { 16, 10, 1, 0, 2, 1, 0, 0 },
    { 11, 9, 2, 0, 3, 1, 0, 0 },
    { 8, 8, 1, 0, 2, 1, 0, 0 },
    { 7, 7, 3, 1, 1, 1, 1, 0 },
    { 3, 5, 1, 1, 3, 1, 0, 0 },
    { 6, 2, 0, 1, 0, 1, 0, 0 }
  },
/* Mode 3 */
  {
    { 24, 7, 8, 5, 6, 3, 4, 6 },
    { 20, 6, 4, 5, 5, 2, 3, 4 },
    { 12, 5, 2, 4, 5, 1, 0, 5 },
    { 9, 4, 3, 5, 4, 3, 2, 3 },
    { 10, 5, 2, 2, 2, 3, 0, 0 },
    { 10, 4, 2, 1, 0, 2, 0, 2 },
    { 8, 0, 0, 1, 2, 1, 0, 1 },
    { 11, 2, 1, 2, 2, 0, 1, 0 }
  },
/* Mode 4 */
  {
    { 26, 7, 3, 2, 4, 4, 2, 4 },
    { 25, 9, 2, 2, 3, 3, 2, 3 },
    { 18, 13, 0, 0, 0, 0, 0, 0 },
    { 17, 13, 3, 0, 1, 0, 0, 0 },
    { 8, 15, 5, 0, 1, 0, 0, 0 },
    { 6, 7, 3, 1, 2, 0, 0, 0 },
    { 2, 6, 5, 4, 3, 0, 0, 0 },
    { 5, 3, 5, 5, 3, 0, 0, 1 }
  },
/* Mode 5 */
  {
    { 25, 12, 3, 3, 3, 4, 2, 4 },
    { 18, 20, 8, 2, 5, 2, 2, 3 },
    { 4, 11, 10, 5, 4, 2, 2, 1 },
    { 3, 5, 8, 8, 4, 3, 3, 0 },
    { 3, 3, 4, 5, 3, 2, 0, 0 },
    { 3, 3, 1, 6, 5, 2, 0, 0 },
    { 2, 2, 3, 5, 3, 3, 0, 0 },
    { 3, 3, 1, 0, 1, 1, 0, 0 }
  },
/* Mode 6 */
  {
    { 38, 29, 16, 10, 6, 7, 2, 6 },
    { 7, 9, 14, 15, 11, 9, 4, 4 },
    { 2, 2, 3, 5, 7, 2, 0, 0 },
    { 3, 2, 1, 0, 3, 1, 0, 0 },
    { 3, 3, 1, 0, 1, 0, 0, 1 },
    { 4, 2, 2, 0, 1, 1, 0, 1 },
    { 2, 2, 1, 2, 1, 0, 0, 0 },
    { 4, 2, 3, 1, 0, 0, 0, 0 }
  },
/* Mode 7 */
  {
    { 30, 20, 9, 10, 9, 6, 4, 9 },
    { 8, 6, 4, 4, 4, 3, 0, 2 },
    { 6, 4, 1, 2, 3, 2, 0, 3 },
    { 6, 5, 2, 4, 5, 3, 2, 4 },
    { 5, 5, 1, 4, 3, 1, 1, 3 },
    { 3, 2, 0, 2, 2, 4, 0, 3 },
    { 7, 3, 0, 2, 1, 3, 2, 0 },
    { 6, 4, 2, 3, 2, 2, 0, 0 }
  },
/* Mode 8 */
  {
    { 26, 21, 16, 9, 7, 6, 2, 8 },
    { 9, 7, 10, 14, 15, 10, 5, 5 },
    { 2, 2, 0, 4, 7, 9, 8, 6 },
    { 3, 2, 0, 0, 0, 1, 5, 6 },
    { 3, 3, 0, 0, 1, 1, 2, 2 },
    { 2, 2, 0, 0, 1, 0, 0, 0 },
    { 3, 2, 0, 0, 1, 0, 0, 0 },
    { 3, 2, 0, 0, 2, 1, 0, 0 }
  },
/* Mode 9 */
  {
    { 31, 14, 5, 4, 3, 4, 2, 4 },
    { 17, 19, 9, 6, 5, 3, 2, 3 },
    { 4, 9, 9, 10, 5, 3, 0, 0 },
    { 3, 5, 9, 7, 7, 5, 1, 1 },
    { 3, 3, 4, 5, 3, 2, 1, 0 },
    { 4, 2, 0, 3, 3, 0, 0, 0 },
    { 2, 2, 0, 0, 1, 1, 0, 0 },
    { 4, 3, 0, 0, 1, 0, 0, 0 }
  }
};
double NE_PRED_WEIGHTS_8x8_DATA[2560]={
0.14362852505413132,
0.26232652659921069,
-0.063126459351766154,
0.15001023944747291,
-0.49569512255069376,
0.36846655321846739,
-0.58665611576125631,
0.21890513094038033,
-0.24270836833094225,
-0.23107318947294131,
-0.27957183781238581,
0.49900430937306101,
0.15172376699976681,
0.36439043510087121,
0.44927619324635187,
-0.33413908157401673,
-0.52788296798198819,
-0.23296627832357386,
0.97666795600474998,
0.18180122220729011,
-0.12812980541974098,
-0.2492741223607548,
-0.25019035878399115,
-0.38651194268380784,
0.1569586860789608,
-0.20373954263549776,
-0.32065268960960081,
0.88702389406690896,
0.47974811555543256,
0.38104311274287289,
-0.81014640952952832,
0.28871161771925635,
-0.37737165037952725,
-0.52887876530275668,
0.25230120897697622,
-0.19169881007967654,
0.53543325211020343,
0.61597505168185995,
-0.32081456318429946,
-0.3443630660487913,
-0.89620778441225291,
0.93795147208716712,
0.45218112483902256,
-0.1123243695136846,
-0.041306859911278436,
-0.079426945865347445,
0.18110102231143071,
-0.18670397062989627,
0.25786070080481505,
0.028193851802356586,
0.17934780578734377,
-0.099508590842095679,
0.20569891035240837,
-0.12296668364939872,
0.20982492421376678,
-0.0083731643059150474,
0.010868919397616283,
-0.029169401870079215,
-0.14584943804116388,
0.19156908012768517,
0.094769430015447742,
0.21139233945177402,
0.22628315252303996,
0.21866826752486401,
0.026295564485728617,
0.1931037580901647,
0.16827570936121486,
0.17246303288952911,
0.23174630179346956,
0.22051281864679492,
-0.058755136096228539,
-0.14512013707198559,
0.19914800212182146,
-0.0053215014364483334,
0.0060697039645877891,
-0.020153669223863295,
-0.041358967426919073,
0.091453206714172661,
-0.089014457159397306,
-0.036234989934817705,
0.25465681486245328,
-0.1819744354190416,
0.21001541003002774,
0.040535434456470114,
-0.15684332095518919,
-0.069879366415375052,
0.16306620951911119,
-0.16915187234130658,
0.19400171896453353,
0.17766805341504413,
-0.12321516400666957,
-0.040216219468380325,
0.18539992805928868,
0.047245464860787734,
0.095505425467088553,
-0.10016266408124139,
-0.11678181981718687,
0.17075799811021128,
-0.12580075777889108,
0.17534149161704118,
0.020937702027634852,
0.10004442894255891,
-0.14507027277699025,
0.16264276742986974,
0.082690849485673235,
-0.069580057082408886,
0.17642938501658284,
-0.012069200206213359,
-0.063902310937773071,
0.19395310066164215,
0.089699815431188587,
-0.12636810686964722,
0.17105704767249894,
0.010863109821647392,
-0.015539660002556932,
0.011489343155337402,
0.045645026476817729,
-0.12691697867618545,
0.18015499527492526,
-0.36984863914193677,
-0.14325633269877999,
-0.068795977256112181,
0.12015879563048042,
0.22335676359295883,
0.029815276293353055,
0.10639021760424981,
-0.10957941407577135,
0.091998007273826177,
-0.015723826715480161,
-0.044888664967994409,
-0.071568670031959269,
0.012263513166990392,
0.0069871577803055848,
-0.10169235525211899,
-0.15722914600749394,
0.19442082416340692,
0.028279523167416498,
-0.11303039141118515,
0.13648968595988512,
0.03770200789302338,
0.039654462811901194,
0.11139841152524299,
0.14096608744463471,
0.038211562300396372,
0.070540995450224839,
-0.075803603486467433,
0.077520222389041771,
0.02813695485488224,
0.040978944431739425,
0.014731371082126014,
-0.049692864167538042,
0.10199191554808694,
0.081684721872879798,
-0.15200356749726288,
0.19509311077248292,
-0.051741022514823549,
0.10410342695948392,
-0.13560899358770359,
0.14482710180813727,
-0.07950153633831214,
-0.093280201487895328,
0.10825920146738507,
-0.077562010154998917,
0.12865601741944729,
0.13390579250637313,
-0.10208761645937442,
-0.12883526749810767,
-0.064316486827743449,
-0.082760504556756417,
0.10257761816252016,
-0.10842528252161103,
0.17221003175881869,
0.16053584169393745,
-0.10618955905590974,
0.10319243618137519,
-0.075652314999909057,
0.091566743692578723,
0.028761401236956571,
0.081188227956564718,
0.070900729894508435,
0.13082593414311713,
0.073737920325201115,
0.24778640769507493,
0.16850024487384799,
-0.076292543821926059,
0.2108540448179011,
0.29299484958416694,
0.053686273058064012,
-0.048039980994518283,
-0.06435686322081581,
0.13570438480046074,
0.084882523239200841,
-0.065970991577327165,
-0.074558036073996525,
0.13431803278212681,
0.11020810273278846,
0.034681933954578664,
0.10227073174510318,
-0.0841628959844654,
-0.11205902676277034,
-0.12008187245670528,
-0.080393749342491883,
0.14183042715260816,
-0.029841812892016501,
-0.059964122152803064,
-0.085189174436569995,
0.11060669639972262,
0.027336769482225923,
0.15664266379346398,
-0.032814562167851967,
0.1478355133289917,
0.17405427144381946,
0.16732242900886987,
0.14420689334549297,
0.16936449044683533,
0.13819001001512946,
0.21318292057412691,
-0.063329408764984094,
0.11672871437401335,
0.077078665572280644,
0.29483795162364385,
0.11223006483393111,
0.25567618813000653,
-0.070973288818664895,
0.18615817993969508,
0.20788006863212879,
0.04628436596080017,
-0.048442619159007945,
0.12498094765587756,
0.079983744434728846,
0.068468606318394798,
0.12325164585742768,
0.022010378608417647,
0.16344320416269797,
0.18870156587951756,
0.20440532603374795,
0.13282188734951747,
0.13264042942047971,
0.17514743062663721,
0.17418628397128369,
0.21754527446184055,
-0.0619209674195218,
-0.089303935716456256,
-0.016110520257329654,
0.1154553664088924,
0.14696480184929966,
-0.22418888133881376,
0.14239216594566981,
0.20675112078157529,
0.015407651638775171,
-0.076899907699721243,
0.15600435980627742,
-0.099641571045694433,
0.085510099773269566,
-0.056009399845378963,
0.073904304434906753,
-0.50022292766599497,
-0.16682939087739393,
0.16561131869902143,
-0.13034631248648545,
-0.17601572374974903,
0.24402306138277419,
0.94060196816655095,
0.62335378533703512,
-0.10381471600805561,
0.1869674393880757,
-0.36184680498957938,
0.7724157721806264,
0.18829684789540194,
-0.42204981913798462,
0.10210819041088132,
-0.23204362946955243,
0.77727775161989188,
0.41669090340984699,
-0.43140924653605395,
-0.30951547503721355,
0.27933716011586113,
-1.3176537137481619,
-0.2761805989829933,
0.21962482389513729,
-0.3449977899937301,
-0.16703483842253022,
0.043180552134705175,
-0.056468260230487323,
0.51936839198904616,
0.36812351300125223,
-0.31620610835724683,
0.29888402164440936,
0.15248346550499003,
0.019021432517461898,
-0.30747958535431691,
-0.036228602470871243,
0.37717728299281572,
0.21243895398667775,
-0.1631382043517953,
-0.080972649503718089,
0.097481858304235433,
-0.1365574294758036,
0.25215467629209432,
0.17865683862464982,
-0.032440984323592513,
0.058891190252703875,
-0.091606962580950801,
0.21596586550528932,
0.21853439847421491,
0.16948347315678033,
0.11045216679581761,
0.13639557776846187,
0.18174470492819902,
0.35147643700538334,
-0.081921366497890835,
0.17941820506169218,
0.17984246771185691,
-0.052504352517269787,
0.23911277208363144,
0.16793947704444445,
-0.11418703648812581,
0.23307476122006116,
0.20079473317165236,
0.17938500465575385,
0.38308347700156359,
-0.14699885164904383,
0.15905187510250024,
0.2425844364673985,
-0.0038351797480866731,
0.004949715352599385,
-0.097594363296235512,
-0.18109547263664005,
0.064533298396473565,
-0.22508072325697409,
0.2264191931397585,
-0.056031699149861662,
0.7405942141656483,
0.53496060793195988,
-0.42818468542792903,
-0.36350883424007974,
-0.72341752220876754,
0.10302867880932741,
0.05326204089679059,
0.25298469028004805,
-0.23957118882388909,
0.34521722144051786,
0.21945689403112947,
-0.054465674466270472,
0.09152365633087195,
-0.041942401321548722,
0.094985853351720606,
0.12525278424273406,
0.12114663201706125,
0.10936981075756254,
0.085618783750421576,
0.11328803828016826,
0.11380761774217718,
-0.018289362669949186,
0.014003295163926784,
0.14532738642829165,
-0.06786449822272779,
0.09081211285218263,
0.098200964097602636,
-0.17052299294190931,
-0.018097891352965269,
-0.078185958370584493,
-0.070573525184889074,
0.58733281152137096,
0.27999669403086835,
-0.29167801582725433,
0.12297051590867361,
-0.064727416323682369,
-0.30257847137125549,
0.089721524453974688,
-0.061471811052263535,
0.11904714953818331,
0.11690392794115406,
0.097903522090695735,
0.0092697301202181604,
0.010799877915862104,
-0.040912316464496473,
0.055390344660510356,
-0.0090702480190260806,
-0.025748320295501458,
-0.076946480499319458,
0.44883473313903394,
0.16535056036160306,
-0.17773926702885456,
0.35019360260815363,
-0.41759789358172439,
0.1941638262640196,
0.10855848947904233,
0.088963018619263867,
-0.044850051801705024,
0.1401422771996049,
0.10476066305839472,
0.077076565188687454,
-0.098308115010145983,
0.12938504704827125,
0.079153235221075202,
0.083689302714429703,
0.1396499002593781,
0.092078054065072149,
0.19371231856953142,
-0.022135300361975759,
-0.06229553823241385,
0.14924002234901923,
0.38309991945179223,
0.14915796550329302,
-0.38008389228660816,
0.058793986463236296,
-0.06772849248139369,
0.094868180587031184,
0.09201054776163213,
0.10647915343029397,
-0.061518241800155853,
0.095972102528109601,
0.080796657967316957,
-0.058648130014246035,
0.10779916300708201,
0.10819158792125033,
0.086950557204036868,
0.14718409476630145,
0.098174496100472325,
0.12440098585127153,
0.076375144162263958,
0.14458702369330667,
-0.044170725711547905,
0.099663523285209277,
0.18493724869993486,
0.079416359283411786,
0.098063129868945234,
0.067313724692294741,
0.15293963748700104,
0.18018388573524804,
-0.08112369894397721,
0.476471831897336,
0.12959975548027031,
-0.39595124449833202,
0.072220197489860902,
0.076239043169747611,
-0.059679306237651941,
0.13820704307749862,
-0.091903955297502143,
-0.056944563233345756,
0.070940051195485729,
0.021174408693261565,
0.13074586926776641,
-0.068010778417411724,
0.094601579742782216,
0.15053251142034482,
0.17965545963058518,
0.25731094226569307,
-0.067865209673130672,
0.21093432088428007,
0.26148859393144552,
0.083049196659590013,
0.15439799444434466,
0.24562629044791789,
0.19727880820012322,
0.33284441412875904,
-0.10861804691852261,
0.10712217139751644,
-0.060892090606906681,
-0.04592095729401334,
-0.067529062842100973,
0.060700788890098313,
0.079785867699782964,
-0.081536998483461062,
0.16409631630666738,
0.08250179011094283,
0.10023275310224988,
-0.063660618221673002,
0.52502043890908956,
0.13584135351563309,
-0.22586986565940756,
0.19754124018812649,
0.064444471981389528,
0.083713829874367471,
0.12340263236381313,
0.079756403181920649,
0.087443744837429574,
0.097910536585088748,
0.13719889738709809,
-0.084040552365574728,
0.16010726507456802,
0.16560297700133847,
-0.080409507604402325,
0.26227060189270679,
0.22011468335532386,
0.28614955250714869,
-0.078180900917670021,
0.16437473043227147,
0.24590347423728157,
-0.096112738648846202,
0.2258838181627697,
0.29699902352211477,
-0.10717521454135676,
-0.054142342933776712,
-0.053368625960840695,
0.088049251674655687,
-0.060191271586367633,
0.064895917531403099,
0.09097004904949399,
0.098979961130503585,
0.10214018046063165,
0.65354187733097102,
0.16578362298817698,
-0.17119974417784847,
-0.10729514851512778,
0.11533219714525673,
-0.10392651450739077,
-0.056499843223220228,
-0.073555365850673404,
-0.047456272176438032,
0.084216740601679163,
0.15423896286611374,
-0.29262043263036597,
-0.22073805904013921,
-0.87883495538999279,
-1.409901088161321,
-0.87362139932796512,
-0.28000969441003287,
0.49818985940898813,
1.0675275028754261,
0.80793802969994577,
0.58576254903273339,
-2.1288911715507299,
0.15370537965065886,
-0.19863335224262532,
0.60020637864483217,
1.136894331885314,
0.69028480151983229,
-0.85834238332170576,
0.25790257135429751,
-0.1843375648997751,
0.56226163669023088,
0.49553762874364055,
0.87930866196388857,
-1.6589326097870485,
-0.94439624000514022,
0.49968983516789056,
-0.33077183103626029,
2.2785821008272031,
1.2067635940029646,
-5.6553940477254505,
-0.3301051881399229,
0.86948812747982651,
-0.69527181894315837,
0.4944087727887187,
1.5880015220185706,
-0.44276733241713617,
1.1445233524412728,
0.46635919036355589,
-0.62492882177564157,
0.44057579585406759,
-0.88563400132929848,
0.038407760813047483,
-0.13599039608406996,
0.26020423381766222,
0.035178083947318077,
-0.22461557161000686,
0.35440672950452418,
-0.23346203831068801,
0.73805927284733108,
-1.5880021731128247,
-0.17370516404262507,
0.25032609467500594,
-0.070066745831305927,
0.14556166564712095,
-0.22329643106370009,
0.19637221653683951,
-0.094033283622542582,
0.17052304852417483,
-0.15674987587294992,
0.26377100512384538,
-0.18966272776830853,
0.22925810756460782,
-0.082563779405393778,
0.17815919477913478,
-0.17988188110963041,
0.23447377007864692,
-0.0056548870443958498,
-0.048969580933645181,
0.095002757647118546,
-0.1533384342797032,
0.27458655907277824,
-0.18622371369736729,
0.24355366153559702,
0.0049759642329813714,
-0.17820526788081625,
-0.052548470882089526,
-0.10557143782054522,
-0.13311673322546977,
0.15883805220239974,
0.24573860456925131,
-0.20149104369729245,
0.19799070633386506,
0.28129037816875851,
-0.63655345569876465,
0.51454735393897799,
0.51391658383774685,
-1.1557084644821904,
0.13201281013603344,
-0.228887059467625,
-0.18610721232568514,
0.39360642794761536,
0.089917547725654967,
0.10785284770164513,
-0.43470202887447795,
1.479778686440669,
-2.7777284582042419,
-0.55375067346065421,
0.59058200314208575,
0.23184095728849177,
-0.40460298789969334,
0.48847505601906183,
-0.41182532382881382,
-0.091297162419814809,
-0.051550913743529776,
0.12407292643232368,
-0.023826851641227657,
0.048373124077165847,
-0.091061100596712685,
0.068838908165495441,
-0.088790402338185151,
0.16414100129096573,
-1.0087233296223337,
-0.088769171794628163,
0.25462769391599172,
-0.12122443838464901,
0.15405200024834118,
-0.054238217866731185,
0.10258408483738997,
-0.12695016256774908,
0.17745622581687617,
0.16205058316547608,
-0.15832300457101248,
0.15835935697969358,
-0.083338144423979424,
0.11932384712727134,
-0.10850928397633899,
-0.15816015954460777,
0.18057131154923362,
-0.011332543274475308,
0.082999263276966787,
-0.18496188404777358,
0.19137950501264989,
-0.14958564681848971,
0.1788205379392537,
0.0088868392778987428,
-0.090044027817334379,
-0.11521962141481143,
0.14341222252993235,
-0.26665557688765418,
-0.10725262903052628,
0.18799121073676164,
0.23716166290626803,
-0.12659511084053909,
-0.016763245763432407,
0.11652544044512493,
-0.18280732732868643,
0.23437155822560995,
0.55853632074046811,
-0.95525061982561121,
-0.25958528238635542,
0.23573813296385479,
-0.07038934233035174,
0.075437843273380323,
-0.14993415833767273,
-0.10390336558060309,
0.073675782204823417,
-0.083071921364330822,
-0.49006879634205874,
-0.1424628635182664,
0.21044861820231245,
-0.19342844664431258,
-0.061883296082579899,
-0.060898847915103929,
0.11944854453863228,
0.07929358042972523,
0.071667559281550705,
-0.12538684922226709,
0.2697268995729189,
-0.21167741411138002,
0.3149578537187448,
0.15616257927633265,
0.18057475712472643,
0.12440058405199178,
-0.30076568203460147,
0.28296984683186915,
-0.18499394723836263,
-0.047152598381388765,
-0.069551251699022876,
-0.089365579674296119,
0.092829073229630674,
0.051685750211376287,
-0.1002877183110102,
-0.16513413535659058,
0.23784528358865764,
-0.18929370357935218,
0.084622750363918336,
0.084180365172694657,
-0.062021349128210009,
0.13650523445246551,
-0.10778100281235835,
0.049109266826974377,
-0.10797130208957197,
0.18999509986700364,
-0.135680201310238,
-0.10941276555382896,
0.10899463202111791,
0.075090742135320743,
-0.28890899117165791,
0.29856995943071657,
-0.091773500998652405,
0.15848850503725376,
-0.16270230845441586,
0.055531966045257987,
-0.12347505493321644,
0.14313208352135953,
-0.1352605776133475,
0.144122818005361,
0.1050915290993658,
0.10556648982707825,
-0.1186172356187065,
0.091774267974328416,
-0.010759050760806296,
-0.058289804641654668,
0.08911487706406615,
-0.11897912737030376,
0.084197306527493632,
-0.31833010072855494,
0.28578319271876501,
-0.057175908203028716,
0.091655786014152904,
0.078349824659297282,
-0.086402626681344852,
-0.17004821443620377,
0.16248730010304505,
0.1387754385744159,
-0.065653609523429537,
-0.059686869697857921,
0.086671116309694832,
0.15778153914413562,
0.17022369881433153,
0.076809064844014938,
-0.043033361899872669,
-0.07626530730964233,
-0.28114930046622233,
0.28743126073614794,
0.075369158762486316,
-0.081898352714028691,
-0.22051042282560951,
0.19782166917796642,
0.093599801926670056,
0.091664790408059207,
0.13661898459392635,
-0.1291103358368634,
0.17463670304960446,
-0.17295952062576983,
-0.1330376540520358,
0.012181059757372102,
-0.013151616270938317,
-0.0082632863973464699,
0.023500683588301652,
-0.24823546716207875,
0.25884264523900019,
-0.2146347789934778,
0.23654697104648664,
0.056653148440724152,
0.11731940150712937,
0.099867791791753521,
-0.18222956713671401,
0.19088829040369246,
-0.28582661638899093,
-0.059439726467877284,
0.10866710981580219,
-0.091537690035754002,
0.16655732623375813,
0.14654506914023285,
-0.236946596025185,
0.352953553692473,
-0.11456498731555773,
0.075593812275067174,
0.08840762064313254,
-0.15386362604468279,
1.016826162877924,
-1.7283185563595989,
2.0969362834304244,
-2.2087403539738117,
1.3392387569700475,
-0.089690597970068564,
0.42946222577141324,
-0.5091037989360635,
0.39522702385228253,
-0.13003591448325655,
0.09864207597355551,
-0.18073087678394822,
-0.099477409721117807,
0.33975055527177295,
-0.4036728594817518,
0.23387257691046154,
-0.12596723670954724,
0.13261131081364136,
-0.1474146131193905,
-0.038089049394692084,
0.10357941792603159,
-0.15681431468641505,
0.14546618413619294,
-0.13661539263394459,
-0.14088705466819032,
0.14300678294315722,
-0.1120196676632845,
0.11515937928194163,
-0.096553395381019314,
-0.14269322805483967,
0.16479553903044322,
-0.10773323903533609,
-0.048288095135715768,
0.11948920000284201,
-0.12304958055308365,
-0.12572676602793073,
0.17247525174248637,
-0.11299023045434076,
-0.13520122489004271,
0.1959058100296539,
-0.10838947777571496,
0.066299533286019077,
-0.11799417458911461,
0.16079269493759496,
-0.10230627210050826,
-0.018301017231962657,
0.041724402420109018,
-0.042320103781489933,
0.078357338036443888,
-0.099257971482540341,
0.12307619885164028,
-0.061183603881431646,
-0.077407625386720844,
0.16749458778016749,
-0.20168922262030695,
-0.10111404900847908,
0.073211714832054159,
0.081826291599094533,
-0.1647694451007666,
0.023021204483373921,
0.84724482222712993,
-1.0113906649478388,
1.0474121888231718,
-1.1720761270741331,
0.53265022318108279,
-0.58418332669435735,
-0.15482076325873773,
0.26976827182577401,
-0.11853845222112729,
0.083651828671220133,
0.093376595154344974,
-0.15389977077492031,
0.22361457819446576,
-0.24451650457333177,
-0.13206219424982837,
0.12635565245369013,
-0.13389975494947498,
0.059978440409381703,
-0.13814591870024442,
0.12772556801472179,
-0.095005016856267444,
0.1045262503054484,
-0.11384886737600312,
-0.13634744615663411,
0.14764693356867353,
-0.044549466510366925,
0.10620871989540666,
-0.11586810512587166,
-0.12361275447543289,
0.13593741277718915,
-0.14863514506224626,
0.12907132414155592,
-0.080212238692607227,
-0.14983471503870127,
0.16553758281744096,
0.031885082760061065,
-0.039690252766282255,
0.015660466308474418,
0.065402628912403685,
-0.024693582805889191,
-0.064023056786082971,
0.011918195886298987,
0.63928467304302139,
-0.54598262115529939,
0.41596060213219244,
-0.58356095097612204,
-0.74908475402414598,
-0.15640343372673537,
0.1969644766722512,
-0.027703762507186366,
-0.062364375735707633,
0.090265601720247515,
0.17419799072451136,
-0.2139364264858683,
-0.03325156430917519,
0.036982543756809899,
-0.046434495561992986,
0.05007743282241222,
0.10820211646261094,
-0.11632734410823466,
-0.040648966351861049,
0.045110734089455831,
-0.048916508924738852,
0.09402027430082624,
-0.081335450298685871,
-0.063952076783994713,
-0.034294695554937533,
0.040254650799113945,
-0.0544232497867084,
0.0073477004562745845,
0.031687583500887337,
0.11588323962158709,
-0.10247579506927253,
0.050740689476659905,
0.49276791239762946,
-0.36162554749667497,
0.26096450768858748,
-0.44050774490403605,
-0.59002516677696948,
-0.2134789675129222,
0.1112794184611736,
-0.11142562890978848,
0.1357960018509794,
-0.16416768950991584,
-0.046761431869499659,
0.098214897341892149,
-0.1263101348962597,
-0.049273293280673564,
0.075377189348072263,
-0.13119278576087559,
0.10526032901800289,
-0.10259535325783513,
-0.056102022296351972,
-0.04572430084272365,
0.096663757590767438,
-0.095444369297839129,
-0.055608925692210334,
-0.0782254317916838,
-0.0098726805137132976,
-0.053566650595611581,
0.061135784694762156,
-0.069997290709957333,
-0.072279996061846569,
0.0083566427417779039,
-0.0057735865022226981,
0.01953731520126557,
0.087370785879176363,
-0.082669149586502691,
0.0063163981222244111,
0.34210340856954818,
-0.19427724761211812,
-0.34367802734429287,
-0.45347036058896439,
-0.13744217210807375,
0.0248847938627169,
-0.028795676167566762,
0.06490849479169028,
-0.097777748814304302,
-0.12702747632775813,
0.065451594469232086,
-0.064886308127011058,
0.055873178982612438,
-0.065142908817823017,
-0.060262287188728468,
0.077533865634530102,
-0.039435121427525789,
0.053827222515352616,
-0.057069393164061337,
-0.0079000572916122537,
0.014313126159969446,
-0.05899016303856542,
0.0069731117963091208,
0.076361137885539901,
0.26540047639394593,
-0.14009370414066052,
-0.26641940418810089,
-0.40660795566259378,
-0.094187592466222658,
-0.013122536863215999,
0.019740141911840092,
0.10023068310988761,
-0.13491938393826042,
-0.015792070354441988,
0.021095358580973868,
-0.10135658128870355,
-0.042818082091648411,
0.064804876686334376,
0.0099246655407628052,
0.03364828200988966,
0.073926397468805957,
-0.060407012163757143,
0.26041982534896452,
-0.13664921228916915,
-0.24492587605143293,
0.31241333726185971,
-0.40664279216140925,
-0.083048559772759017,
-0.10720249839750373,
0.078994673522393227,
-0.077353989984034699,
-0.04261918718210192,
0.033271253110048513,
0.0085370659718835736,
-0.013519258179889179,
0.032372285956005206,
-0.13201176017250521,
-0.14760716063198007,
-0.0074870263660128016,
-0.014411840062998166,
0.25090123152568006,
-0.148250314919599,
0.18779321930672577,
-0.32373655975438048,
0.011492744305994156,
0.028923776354521653,
0.013424528099718221,
0.096822527779269141,
-0.11771655200078544,
0.10103108039538521,
-0.091477427019356752,
0.039360254069388999,
0.31809733790113925,
-0.36410171834235155,
0.22197648288493618,
-0.35054691562777379,
0.43153450998139004,
-0.21718685217090186,
0.11419636117147353,
-0.2359222920427497,
-0.068149612572081117,
0.11129260886377726,
0.068567074614353865,
-0.27830732650177309,
0.27117528208532771,
0.067403407114988489,
0.74829596925479713,
-0.86598540852303352,
0.66965429761701301,
-0.46496923042179489,
0.60037126963168286,
-1.189418224510896,
0.60268305152396473,
-0.73883032197099985,
0.51352353350249891,
-0.4154145991724284,
-0.25678202948524093,
0.18113438206071306,
-0.023707930271584569,
-0.19895706416016978,
0.23931258759687052,
0.02275837184963022,
-0.13426420030958158,
0.25648584786746903,
-0.18338622276418939,
-0.18368657433567681,
0.19493231418788048,
0.069885356038622073,
-0.14999767603094141,
0.2212247646293013,
-0.19436389616541982,
0.2188907432236494,
0.10614942580088982,
-0.090067473686812907,
-0.16678366287184859,
0.20704752993886039,
0.0047798273883301549,
-0.0051279742765722638,
-0.16975939951368108,
0.21424665702276352,
-0.16657934443160197,
0.20417050164486766,
-0.0044241134038234776,
0.0046726413718625147,
0.1586015931197837,
-0.14271602345415627,
-0.27402547244071507,
0.27661309921684046,
0.23745325035576509,
-0.35968595681133159,
0.28371804144023305,
0.14668165967465394,
-0.37570213568982463,
0.45404986669727693,
-0.19212615805606653,
-0.36564952109799309,
0.089088546612570096,
-0.1120380471816378,
-0.16097245465798976,
0.22223084740294377,
-0.16834755176717356,
0.19090437194944848,
-0.12987070565201658,
0.47869709881744338,
-0.60516047468285261,
0.8159903688525616,
-0.65961297423914989,
0.30027688505495148,
-0.31003653170012091,
-0.016963957017802865,
-0.17485517265074529,
0.038714913839330518,
0.22830308551877412,
0.016337431279686149,
0.069623855831394479,
-0.16692464169911397,
0.16970889286637655,
-0.19365782356704656,
-0.15781316037524953,
0.16755271143502296,
-0.1699946707845871,
0.18703239487223794,
-0.16084196191832204,
0.15905206855728624,
0.080778028670954294,
-0.15311332842721609,
0.19536133715105944,
-0.010418332366226394,
-0.16073066048797974,
0.20046135279735766,
-0.16129797938769752,
0.20944512938053217,
0.0087926973195315613,
-0.075126211241123925,
0.083843334399707189,
0.24102771610821952,
-0.21342537564685252,
-0.24304002030519997,
0.16005701583374793,
-0.067124391694311128,
-0.14311318537693146,
0.15125985947993636,
0.29265364610589434,
-0.24273138361766858,
-0.1627762968017894,
0.16809596335883006,
-0.21188214301317038,
0.26826601973223158,
0.41296046624501126,
0.40758383980125407,
-0.23860805829281462,
0.015482973434632641,
-0.042874847328212784,
0.052784717083713892,
-0.015337825806422272,
0.046810255908683214,
-0.10387465814110527,
0.15090743027701262,
0.099386638281320369,
-0.21610015634431293,
-0.15310731669622368,
0.17378229046671562,
0.099171548704361373,
-0.10441100601872706,
0.068947668662492814,
-0.11818894190024166,
0.17314109756985147,
-0.14275676440698065,
0.013049658316540095,
-0.03454457345100246,
0.062770008309540368,
0.09759503778606321,
-0.083945924275340464,
-0.17652588374770467,
0.19048339074553713,
-0.011389286776525183,
-0.14807780725160025,
0.14494610332985425,
-0.34483285424026627,
0.37683096761224077,
0.25680216923656185,
0.048434689312312693,
-0.11997623812511789,
-0.071075282530367628,
0.12043094130251138,
0.035173531989275572,
0.088943658595184605,
-0.19878651635632144,
-0.14367152569421648,
0.24222750225515394,
-0.078122340641162663,
0.13112128220277799,
0.18985142170073943,
-0.2524074213360703,
0.05190180476689607,
-0.071607108429949648,
-0.060636831847668458,
0.11189085720043095,
0.091799250665711429,
-0.078196807257857062,
0.16730778288907194,
0.095421387969345267,
-0.11502030214316154,
-0.37004036959344749,
0.28355598627811168,
0.13956282304677584,
-0.089126990130314054,
0.070131955965124157,
-0.06526018019803137,
-0.10294670445078855,
-0.1181681874279346,
0.1045168270797923,
0.15777955233747376,
0.098823391441382955,
-0.14929771924025836,
-0.074135480508414509,
0.10973956699807824,
-0.1294239005577677,
0.13086021093929881,
0.1036226125426342,
-0.14468285764050362,
0.04416609585640735,
-0.057424065392114927,
0.063247041928430156,
-0.061067220708495504,
0.092976490655624397,
0.10025414201352585,
-0.0087009202789071552,
0.074791975913342135,
0.0074880925925552141,
0.030437266692216913,
-0.34148799708902194,
0.26569575684439367,
-0.13380152333331946,
-0.11420728617773079,
0.13627091067525449,
-0.19626184001483493,
0.24471964479595479,
0.12896157547011095,
-0.10571313327896126,
0.06039099243973383,
-0.088471715030913486,
0.088810022830046978,
-0.10041071904644884,
0.13994448411807131,
-0.1074543526594974,
-0.31588563363451105,
0.23665404871748938,
-0.073386521791568321,
0.10132958779134375,
-0.25627382312831598,
0.32542700028580523,
-0.11020906910675644,
0.080461524292577996,
-0.076421713144724152,
0.065997508889632545,
-0.087520329221272716,
-0.10920821429152705,
0.16185585564187663,
0.053997304752693272,
-0.056708729239876784,
-0.10331713891119487,
0.19562401241661212,
-0.076145912982879996,
0.10907013103021834,
-0.10411558947073417,
0.0066836044328227586,
-0.0055855190383872003,
-0.03460151254218366,
-0.29106389118480847,
0.25183079754122872,
-0.28225162767912515,
0.32738852704232591,
-0.13132310640615769,
0.086216399889188361,
0.078894771604030092,
0.066263806175948389,
-0.16882236551993643,
0.086746920832570684,
-0.092659033053921383,
0.065832621820108128,
-0.065293190058087716,
-0.10801068666948674,
0.18750443654027593,
-0.084596611824179754,
0.12261526875552115,
-0.10740521318487281,
-0.025165397639362558,
0.5146968422841669,
-0.40646110529053547,
-0.36790469187864211,
0.3449951081843099,
0.49692721649734833,
0.36416139465349556,
-0.52075872080300023,
-0.36398437152830415,
-0.74258469351421885,
0.32234650384466679,
0.98279223254953429,
-2.0540955992459633,
0.063864641680569004,
0.23849867627447585,
-0.26636061258963195,
0.17937146203680523,
0.297670729869288,
-0.79770882725203263,
-0.80712937128378148,
1.9948295365162909,
-0.72398676663011508,
-1.7494912272753491,
0.70593243241235637,
-0.66584836804274194,
0.38327074080157042,
-0.090750458549888349,
-0.088774449489215007,
-0.45501414216178038,
0.39044015061934179,
0.10406347628862989,
-0.19320327600980863,
-0.91701568593308247,
0.86778173092668764,
-1.123354197846187,
-0.11352868290096604,
-0.14117956515653868,
0.16910559927499888,
-0.26561272945361591,
0.28687936361644023,
-0.061798872438415434,
-0.20670689127002889,
0.247107952770906,
0.0073967627650647853,
-0.19502456428632167,
0.25943073814868228,
0.10798747158528614,
-0.22591831987314062,
0.25783301612849091,
0.0063451660277649632,
-0.008379223405592981,
-0.21078707200204119,
0.24743623988071614,
-0.26015885444497083,
0.24569661528288425,
-0.0056608403640480351,
0.0073907419228321945,
0.05140755720838517,
-0.15388748222428481,
0.17757725771848606,
0.1000371284587466,
0.16803093819314499,
-0.10910601770523379,
-0.25690907430837545,
0.19069849583115553,
-0.63606362296247032,
0.48153458750964029,
-0.77150359264945079,
-0.12706896493918157,
-0.51422679051171649,
0.4359802321735885,
-0.29222946597839294,
0.68560298652470586,
-0.81868641773457151,
0.32767478106322001,
0.091790650954668082,
-0.089880224965025429,
-0.10105855272888536,
0.14914722875085998,
0.15292578099399035,
-0.16180358532996064,
-0.054723760985999452,
-0.12129356143870161,
0.16884909557996788,
0.078172203159482465,
0.1329157709369102,
-0.35548060938792136,
0.24941354106778546,
-0.30020260881870847,
-0.0400816370676347,
0.088138987790305351,
-0.4964420950876236,
-0.71195337491819011,
0.27709129706965435,
-0.34456560856205931,
-0.063651560664074555,
-0.22400293215470313,
0.077250499239596482,
0.27212208399408772,
-0.13402442164335535,
-0.13296540058242523,
-0.087304183861882073,
0.12945267330186372,
-0.23372715872955252,
0.27964240719050598,
-0.19767800496172766,
0.24124906351674577,
-0.065087198030577748,
0.10866254844156756,
-0.12223400152331716,
-0.19548135941378764,
0.22790542225984609,
-0.18607780633869636,
0.2192673916170296,
-0.21862366662840779,
0.22363311636782673,
0.011730921865922804,
-0.077057823060616565,
0.12799073129951108,
-0.31902220381105656,
0.3231537929137851,
-0.15492832076117211,
-0.077704907902290579,
-0.12055406097096276,
0.11586499360744759,
0.2086159576779569,
-0.18935366324827871,
-0.060627993937199788,
0.093763746390632688,
-0.21228067992776223,
0.18041644235832943,
-0.23856182399960607,
0.03871812304633216,
0.1269487516290059,
0.044982670763669505,
-0.10508994453991688,
-0.074484214084912209,
0.15595010552344876,
-0.16770816864881194,
-0.092855410019886078,
-0.095362806778405654,
0.15873198031776928,
-0.11795566695902647,
0.14138952368424745,
0.12511808980153724,
0.044683663633435101,
-0.047735003861462143,
-0.065666405507313008,
0.11527123746367589,
-0.069879644294789725,
0.14578612162092019,
-0.10337397659308131,
0.1031298240072793,
-0.094744868973854465,
0.10776189178405825,
0.017257520859578407,
0.14292269011651415,
-0.20874499045221295,
0.26878738657772433,
0.033987549881630844,
0.16447725799486188,
0.10306284853079989,
-0.24047338627669948,
0.30569384274157341,
-0.0506276887399498,
0.056338199454926574,
-0.06086953201866032,
0.10959056729263926,
-0.14542114243387821,
0.070755874636710875,
-0.10749679809532484,
-0.10547892088881386,
-0.12471016179774173,
0.10023289584184392,
-0.17403534520099806,
-0.070196511757377025,
0.057263477058573632,
-0.073520821967141201,
0.14213335303357177,
-0.13272188696505383,
0.061824554390723534,
-0.10633379265917961,
-0.086788989212604473,
0.16072848217611743,
0.069438987663155288,
0.090959495050161557,
0.08846243850334902,
0.064665466529796031,
-0.093274837969859178,
0.10027303417557129,
0.10417497829289318,
-0.17894249078138971,
0.2388176986776418,
0.10726543776621997,
-0.18341676203029986,
0.26411483597858904,
-0.075334101670546022,
0.12865597637379761,
0.070732826773860266,
0.091341865642831185,
0.16537219879940337,
0.14732553359624576,
-0.13216315498738895,
0.093755898826298714,
0.13733850778091769,
-0.076961049221479852,
0.20200423382025356,
0.15452663653010756,
0.067669279018682804,
0.091158293853147859,
-0.0050950999982762347,
-0.22784923641171315,
0.268070776065709,
-0.17289197922958724,
0.24716560871237089,
-0.11541107356872604,
0.12804642620420253,
0.13939705983188652,
-0.09284703427920811,
-0.1341541962047012,
0.067705716943359348,
0.1310621403517705,
0.1438421144468674,
-0.13712256695900105,
0.091141660139593267,
-0.14041523642382608,
0.13403748823145159,
0.14877009122826423,
-0.0823113987395587,
0.12868607714907754,
-0.21090290493629296,
0.25755075056853011,
-0.19435906116897014,
0.20442421612713937,
0.090213762681710441,
-0.15236639831127982,
0.11046207927004298,
-0.10042632656891451,
0.077586443318192963,
-0.10678580051387077,
0.10322689427158963,
0.12524313511886426,
0.069624566335246191,
0.15310976991036662,
0.1084869309480934,
-0.069212051133828958,
0.081627776172165697,
-0.10345457087882839,
0.0042857934091881525,
-0.20623065943569469,
0.27330698608540566,
0.016867617502084452,
-0.14034823306376534,
0.24070252020955651,
-0.12856171478361758,
0.11795170221009706,
0.086912605042454516,
0.35693399875361909,
-0.37292053138262155,
-0.50039985182291369,
0.42950992860245685,
-0.19364902140741005,
0.42925698497452774,
-0.42488385784428784,
-0.43138451367466712,
0.27983575903679864,
0.38593789020432734,
-0.73949091195644134,
0.68015005145999874,
0.60951708484801936,
-0.21521014487493664,
-0.80349810944420375,
-0.99329119485879025,
0.71928163974513581,
0.70429924647256292,
-0.95458444334840076,
-0.61242831604674697,
1.380043385305233,
-1.1342285995092509,
-0.11362120579898834,
-0.19303865742438242,
0.11441558712743351,
-0.20075260331141026,
-0.30900079493046062,
0.34045741038366623,
-0.6494914784683018,
-0.054638034339716306,
0.089417994770413067,
-0.26922078061494992,
-0.43844203742378945,
0.29095487578119633,
-0.40727475930573631,
0.20454141797868652,
0.22408564332068129,
-0.29962428052774576,
0.12558732036913875,
-0.22644256474902563,
0.33713874128740906,
-0.24480508439019724,
-0.15817311070398787,
0.30666283420451734,
-0.35356034309050033,
0.2884655480962342,
0.13576778328965913,
-0.15845584299496704,
-0.15783164163703778,
0.072872943843986446,
0.65122462687915927,
0.18816791298637939,
0.10005601440006014,
-0.60974304577024829,
0.30615219412522882,
0.56033432347761569,
-0.63316868408492344,
0.030231732906045937,
0.078611390424249403,
0.14120595437287331,
-0.08688036458539157,
0.16800287611548559,
-0.50959680221562209,
0.21426338228036254,
-0.4082448642389106,
0.37329970427836429,
-0.31823537490551046,
-0.05295406915622676,
0.17997390339181504,
-0.14892106512629349,
-0.12550045155302811,
-0.12038612752367812,
-0.2673014738003891,
0.26458220140233552,
0.10055547713901625,
0.29273420131902528,
-0.15722263371290146,
-0.071724236963745067,
-0.061798257122043912,
0.15343119499159422,
-0.11051399677778349,
0.1686976696405999,
-0.19063796868756383,
-0.10186364390962516,
-0.29822090000462109,
0.12718703947799401,
0.083158280796074069,
0.26129692095278945,
-0.13374900856042185,
-0.0095257899592847833,
0.010737650372531469,
-0.077301033815369763,
0.16254866362653245,
-0.28151046880515856,
0.24426531156834508,
-0.1648636551016974,
-0.080933872906010493,
0.13914367893686685,
-0.11484691378367815,
-0.27088969467456531,
0.27231818041678946,
0.0084355089796873516,
-0.0092303917564170081,
0.07758179355912645,
-0.088587627998049784,
0.12214293015566594,
-0.22733512964240399,
0.22747312941006922,
-0.026116650822987725,
-0.23364741670039249,
0.2391020890996014,
-0.0076891537403361359,
0.008177997902185298,
-0.010862325693935925,
-0.030975929625662313,
0.033174956662821498,
-0.15856758149869041,
0.31584253709387977,
-0.32701525747519428,
-0.25303250976811015,
0.27899877879836293,
0.035471847306789095,
-0.04735674359533374,
-0.1180455548052106,
0.21958253966594915,
-0.16941951125158333,
-0.036306856041863414,
0.068745596145535603,
-0.19902986563971253,
0.26647685809987143,
-0.037809720170841561,
0.049525917208292601,
-0.031775012515186295,
0.12433117202176333,
-0.14920233963371329,
0.12654138225146888,
0.23458350205098583,
0.035525541181440835,
-0.09805989621768052,
0.08396609091350983,
-0.086359542369946016,
0.13757160492654721,
-0.18945257846014019,
0.19411478453492934,
0.043032996826523853,
-0.082565176845330782,
-0.11585961974167619,
0.13413610911740195,
0.09110398915507148,
0.11291861437746407,
-0.13881247792127349,
-0.044670321847327013,
0.07885582045577591,
-0.094473557479309536,
0.031271083370257656,
-0.047027154599739544,
0.10133589265776896,
-0.18507254937362477,
0.17846338054357866,
0.098642192224744643,
-0.047043766469534405,
-0.15253664642486026,
0.085486793002821457,
0.053274537971161343,
0.1401496375248259,
-0.11552373610076681,
-0.060861687488576725,
0.13223747019089155,
-0.12155985883486554,
0.10808641680505075,
0.098934998650437395,
-0.075917662077334455,
-0.19108552554036959,
0.082183621602981205,
0.2029155907867228,
-0.017932700032162272,
0.024741885829900636,
0.079909967252148786,
-0.077414485029458524,
-0.053354838356986581,
-0.18168678261467897,
0.25269630709280411,
-0.085727119998337459,
-0.19430006571010108,
0.21841580839800342,
0.015983613982406591,
-0.020235824508269155,
-0.19390218844027338,
0.21195462564849965,
-0.16096131149849613,
0.16880604421926973,
0.035553340645748076,
-0.052434196124675508,
0.063491079127868916,
0.025470759085867409,
0.05986946596009237,
-0.092578580733999799,
-0.092187712174359018,
0.13293505165418137,
-0.060099585919717181,
0.10140060751480291,
0.046446847432141128,
-0.060041171213530989,
0.073627872371060943,
0.10038728930806926,
0.095570907639879008,
0.047269449190394323,
0.069690122168338656,
0.1071651854790836,
-0.22544794688686101,
0.22421281132555979,
-0.17300509062822039,
0.17548355787950751,
-0.10797487570452924,
0.040035876977113624,
0.050042713779262726,
-0.072737975297230653,
0.071393834346577256,
-0.07931492387236086,
-0.21245874117665692,
0.23877253656127306,
0.075140892668690729,
-0.17666856257192168,
0.19547493853564979,
0.099676629034484709,
0.095131834008207253,
0.088930951442813086,
-0.0056074719466602981,
0.004789368693059624,
-0.21763539030582232,
0.23603188327934821,
-0.17578390288491941,
0.22873493055591251,
0.055338531877754879,
-0.073424642833661097,
0.085493276040280133,
0.10539966033882257,
0.074617769828301789,
-0.21726230674323357,
0.24046569263312398,
-0.17327751583333301,
0.21962843201426233,
-0.14046498260629547,
0.061378781894162251,
-0.10782235289280381,
-0.10661802551136472,
0.0051111948783923852,
-0.0044269370306769217,
-0.26112196276518623,
0.27140373620495278,
-0.17019502768923203,
0.21552811736745542,
0.11975297830376755,
-0.1208475512167075,
0.097069867893625372,
0.057361306912502345,
0.078656446168247462,
-0.068362981895965014,
-0.099442776416547224,
0.15233944924494727,
-0.13632084445009404,
0.26004698199710757,
-0.26673079497768171,
0.18873243623313862,
0.33254357355288955,
-0.24606884809324187,
-0.40196606105151522,
0.22915050950260629,
1.0001751463438575,
-1.572483113075573,
0.28418241195541288,
1.9967253355602661,
-0.42653695824588311,
-2.0871374418476831,
1.5320496369631114,
-0.58955764410569766,
0.43697936373204815,
-0.62021635629789118,
-0.093797993018900641,
0.21744098996045497,
0.17544253473448077,
-0.14482931391434928,
-0.084724019975870299,
0.071679950305248943,
0.10889576005350486,
-0.15222337259883115,
0.070485094169418991,
-0.065669259028619781,
-0.092577015679617389,
0.15945533386126975,
-0.084046611829678319,
0.13862831351015614,
-0.22337588329043384,
0.10432064031550761,
-0.13837863330188607,
0.91225553784577496,
-0.92030101700943523,
0.90551204886692471,
-1.0972943941571736,
0.56573986818454547,
-0.409673391499013,
-0.040089191890908184,
-0.070401840875053898,
0.047998824916750886,
0.10180249446301287,
-0.16478638809104648,
0.014987741976117979,
0.060601442138039238,
0.7968724594569726,
-0.53197454063158067,
0.44545373453371556,
-0.54144891042035903,
0.35339940719116603,
-0.01448481180864886,
-0.063193518608863034,
-0.076910671591415347,
0.099976962870468436,
0.6882582914121893,
-0.30986378476219323,
0.13591864740109127,
0.22573660988770589,
-0.37921964732127939,
0.29637410218433019,
0.10963449654120401,
-0.12911384877245893,
0.061557664793483728,
0.5681175838914605,
-0.20061874171962715,
-0.23007972916619016,
0.24879583209088402,
-0.32343081741396018,
0.013484474349058436,
0.078860314043644505,
-0.067058842828140661,
0.54689598733749401,
-0.12637945419115834,
-0.30969993702856008,
0.25384175577808427,
0.0045666186167815301,
-0.0052208554613845885,
0.49814190297332273,
-0.14872402604443719,
-0.28072102827290479,
0.067832302767302302,
-0.0055728313027916289,
-0.0098265307709633262,
0.47417173236157817,
-0.2099093904603295,
0.22596148615915271,
-0.0038591947762060151,
0.0097664435382079466,
-0.0084018397990664948,
-0.033224016893580836,
-0.10818935607824895,
0.35866573828031711,
-0.41097000968904884,
0.32827307671184258,
-0.082885536085176847,
0.073589449312156996,
0.11571727533002561,
-0.21176336824937006,
0.17632394600807111,
-0.19476537893098636,
-0.079355674430135734,
0.055926396304847754,
0.11200240383032713,
-0.16404756297795275,
0.12051416070764277,
-0.15326105895856845,
0.055450454665139266,
-0.081053247621749272,
0.10016178834720488,
-0.15458338363525445,
0.11028664352707453,
-0.12225964687140424,
-0.11851564156940331,
-0.041721251917281356,
0.082359475438526231,
-0.099616197055173245,
-0.10786592706261074,
-0.0092820476066116722,
0.01430224591298312,
0.011332711475490745,
-0.014546372573654142,
0.096278963157335376,
-0.12159599226638011,
0.11808953834161172,
-0.098456772943526102,
0.09964290704729703,
-0.17881485796288615,
-0.077026427428652733,
-0.1063173047829276,
0.10202185224739423,
-0.13295999552151788,
-0.024993473764633661,
0.10373069436341627,
-0.1194107451352978,
0.020264448262592102,
0.080481585142387041,
-0.087813622506141997,
-0.015342429272406725,
0.018952528221451454,
0.012355248647336085,
-0.013234820207382132,
0.028578511674965952,
-0.033583339786763033,
-0.046283371343140617,
0.15343909503085554,
-0.13397860821812357,
-0.11110037899253218,
0.15082592310857462,
0.12708300997147365,
-0.12345816724711253,
-0.12493146566083659,
0.12260433120270507,
-0.11286173286461845,
0.10271154338790553,
-0.089652201436950157,
0.09163089307894548,
-0.10126673705083808,
0.080977305007232117,
-0.081915467351134308,
-0.096244798700396414,
0.021664198202859555,
-0.031828638910859998,
0.074674849224675002,
-0.08667489040915273,
0.070991721390812154,
-0.017222105268287546,
0.018695511870023069,
0.069309336932973267,
-0.093667634515004469,
-0.090196605025125109,
0.015840204317293029,
-0.018042523720921286,
-0.035875013177931576,
0.015650671252184514,
0.086139259502206952,
-0.083775062966453706,
-0.12720577863052066,
0.16878655727013445,
0.065584333827118216,
-0.063496232795831498,
-0.13495342433603749,
0.12651750410045695,
-0.084415369381141719,
0.0579963623815078,
0.079818261248719921,
-0.052682314364067069,
0.06687872059159046,
-0.078182326517113418,
0.076275584590317483,
0.070958134070308931,
-0.067533059226262931,
0.065642972631884136,
-0.06206275531365326,
0.06789006925806057,
0.026853380398372963,
-0.035399247350664631,
-0.13160049419937511,
0.14710010130972465,
-0.12827328585104625,
-0.12500414435157642,
0.17839459099143304,
-0.054499035839384147,
-0.087771316281033462,
-0.010981544027584691,
0.059788610933859371,
0.024139372660444344,
0.061006197188106438,
-0.023769138730321999,
0.031196084920016059,
-0.042067219475676418,
0.050806675090437042,
0.031267815150674984,
0.062451085849308065,
0.025932171989034622,
0.13975386923420119,
-0.11224396207325084,
-0.12849440178659025,
0.17880455517265814,
-0.096497830761625505,
-0.094395277936561717,
0.1648353951108345,
-0.090152508458199929,
-0.050612881415467825,
-0.071312617961752478,
-0.059885784902695506,
0.074566546677314882,
-0.019848724317232856,
0.028000249732950424,
0.056467954280025774,
0.052944284022543697,
-0.02084519240091378,
0.038073958270812759,
-0.044046205374371025,
-0.14136775804574508,
0.17212352913318568,
-0.10023349934931053,
0.029234009722190719,
-0.042747033239731946,
-0.1232485997026356,
0.16191038228075094,
0.056278262099611294,
-0.065547924042740513,
0.033434905998444391,
0.026368052653508816,
-0.065325544295093518,
-0.034120454955757669,
0.052580471181143014,
0.054963859591769505,
-0.020745376084417209,
-0.16739359144793273,
0.71830259147161413,
-0.61623532973435902,
-0.20836646495342073,
-0.87758222136368536,
0.97939992203105197,
0.47151583531215563,
-0.73951731733407766,
-0.38094791873281603,
0.39271062371488902,
0.37996957151868638,
-0.75999600271703793,
0.32349102582305744,
0.52765691470459564,
0.21056655464613769,
-0.31003192627620135,
-0.86443576464609528,
-0.25576537889393597,
0.44618265080632408,
-0.049224300818576767,
0.15880126399129707,
0.44147934230480945,
-0.63844055878855033,
0.12809392972530262,
0.3682787609068528,
-0.23883948117129944,
0.20568733888394347,
-0.58146879684498443,
-0.15249606891121786,
0.5057266787058351,
-0.32363264764452887,
0.40246876186513497,
-0.59605148976376277,
-0.1674355486608938,
-0.41320346215765852,
-0.31245888943926198,
0.14122531451364165,
0.44520184988676803,
0.31732789346858947,
0.20679480220151542,
-0.25526651853799942,
-0.2938789414477942,
-0.041966141821504613,
-0.5178118796771386,
-0.07764133292276984,
0.16462187776836923,
-0.15826003701231886,
-0.018073292484130601,
0.18053422117102402,
-0.42240362399805631,
-0.14197862971088884,
-0.12300303421674012,
0.39759248337633185,
0.018846825253722079,
0.11879333246739954,
0.18981579886972152,
0.11866451831075771,
-0.1121609511185933,
-0.14288939367561798,
-0.039550369729300941,
0.10563071704800339,
0.084020387828163692,
-0.15922986471590903,
0.132066555932015,
-0.38953334577616278,
-0.11349480707105569,
0.42023073513689096,
-0.011183994913979008,
0.011696757638192041,
-0.10008311383612364,
0.147220323844205,
-0.17956702744795436,
-0.28533512901416697,
0.27003582821800481,
0.08994073718929213,
-0.081414943801142767,
0.1465456290153295,
-0.11954076322272264,
-0.086007778844235439,
