/* This file is generated automatically by intra_pred */
#include "stats_tools.h"

/*double NE_PRED_OFFSETS_4x4[OD_INTRA_NMODES][4][4];
double NE_PRED_WEIGHTS_4x4[OD_INTRA_NMODES][4][4][2*4][3*4];*/

double NE_PRED_OFFSETS_8x8[OD_INTRA_NMODES][8][8];
double NE_PRED_WEIGHTS_8x8[OD_INTRA_NMODES][8][8][2*8][3*8];

double NE_PRED_OFFSETS_16x16[OD_INTRA_NMODES][16][16];
double NE_PRED_WEIGHTS_16x16[OD_INTRA_NMODES][16][16][2*16][3*16];

double NE_PRED_OFFSETS_4x4[OD_INTRA_NMODES][4][4]={
/* Mode 0 */
  {
    {   2.49882862950816387    ,   0.483377217982441265   ,  -0.884012683912382635   ,  -1.28683400378572887      },
    {  -0.594777737175111509   ,   0.592239464345083011   ,  -0.369197497004213893   ,  -0.358190292713996383     },
    {  -0.0239629920392036184  ,  -0.0850191231950852416  ,  -0.161258313638246581   ,  -0.0741026481778346846    },
    {  -1.32322130249911663    ,  -0.139952430345510692   ,   0.276134892364839624   ,   0.153562064447217622     }
  },
/* Mode 1 */
  {
    {  -193.337401580549482    ,   37.6050234800769871    ,  -0.606203283134873372   ,   2.56215104843096997      },
    {   6.40669791908830533    ,  -0.337408991841964823   ,   2.88729750713644995    ,  -0.0585825413654594562    },
    {  -11.6967908050582547    ,  -4.81300325206570001    ,  -0.727937652041116046   ,   0.130636879010986195     },
    {   1.98218383640591478    ,   5.42327183377062561    ,   5.55496784870740701    ,  -0.00437904751460929664   }
  },
/* Mode 2 */
  {
    {  -436.701366179564786    ,   18.2323149126255366    ,  -0.988432923673224439   ,  -3.04982853357514028      },
    {   126.57970300923165     ,   13.1191553805055605    ,   2.71913077964187133    ,  -4.35571936807608484      },
    {   2.86445343054047052    ,  -10.7651213891313269    ,   4.69160146994295779    ,  -2.44403611344266558      },
    {  -7.53968265384789582    ,   10.5851733222516025    ,   2.19401279297519647    ,   1.45353993489622457      }
  },
/* Mode 3 */
  {
    {  -12.1476391774529304    ,   11.2840683775835817    ,  -5.17700952055653119    ,  -4.92192275033253779      },
    {  -9.4844146073489064     ,   14.1076880521184886    ,   6.24882756889063984    ,  -8.77054292717089723      },
    {  -9.16790550863849241    ,   1.51298981192185167    ,   2.67459736880408094    ,   1.18090089075362026      },
    {   9.09027498464972616    ,   2.58752841533261968    ,  -3.17657372815343209    ,   0.810069802161210384     }
  },
/* Mode 4 */
  {
    {   12.4348988816747852    ,   6.24353808895378481    ,  -1.18260522655730016    ,  -7.07834260904493551      },
    {  -35.1876049455949058    ,   3.74661296458222459    ,   8.70643935229586852    ,   6.80511337761385349      },
    {   18.0209336055436218    ,  -0.0792878503331213569  ,  -0.605163102271755737   ,   0.293523460709565809     },
    {  -5.12945902557980915    ,  -5.00703673869813137    ,   0.214152633437509898   ,   0.59643897367019405      }
  },
/* Mode 5 */
  {
    {   4.02452206846535532    ,  -2.55398654309749551    ,   3.89738825556207358    ,   0.337423014973498969     },
    {  -31.7877333164719325    ,  -9.80248952069188206    ,  -0.200023926619389669   ,   5.7860388766305082       },
    {   3.06687935984170013    ,   6.34585314828738145    ,  -4.14135797024873042    ,   2.39639880254957216      },
    {   6.81520399876839189    ,  -1.86870451323913356    ,  -0.161399411680896498   ,   3.02140279480711627      }
  },
/* Mode 6 */
  {
    {   17.2330166180775421    ,   7.52235172319929113    ,  -5.91610713631434137    ,   7.50652832409968163      },
    {  -11.1853679037406444    ,  -9.82528264553990383    ,   2.11124772100984792    ,   1.59867508100210287      },
    {   2.089359467848384      ,  -1.13353436516485062    ,  -4.84947349052728693    ,  -1.22717167274587324      },
    {   4.90900356951139383    ,  -1.68517503508577771    ,   0.838862913289848078   ,   3.35832648209236462      }
  },
/* Mode 7 */
  {
    {   14.5055140366112187    ,   21.4119934294517833    ,  -3.25446434276308594    ,  -1.98552941277238393      },
    {  -11.7352557149037473    ,  -15.8511025471031406    ,  -2.51351792010232122    ,   1.1411494671291984       },
    {  -0.157456655773677123   ,  -1.08634385140876377    ,   2.53327674790514923    ,   0.977780803343251792     },
    {   1.23969267828919216    ,   6.06392188506420382    ,   1.55855905667752803    ,   2.07834335606879739      }
  },
/* Mode 8 */
  {
    {   11.6711667342988328    ,   27.3049314718466256    ,  -0.985011114136692845   ,  -4.2104248078530766       },
    {   0.6615486983942378     ,  -7.28850703504487285    ,  -8.63804491998794788    ,   1.04844399236868591      },
    {   9.13579885491378363    ,   1.20646488777529215    ,   1.02550565507522928    ,  -0.64075238822259184      },
    {  -1.66586472099530991    ,  -0.504486615353121226   ,  -1.64353752454727808    ,   0.826983221595226858     }
  },
/* Mode 9 */
  {
    {  -86.2385176038262244    ,   26.0602220465101553    ,   5.27121195776353257    ,  -4.44555415494647832      },
    {   2.2306648365989199     ,  -31.8436772120528602    ,   7.35323079250874923    ,   0.825397878653704509     },
    {   14.0728313495695261    ,   18.7036296872237457    ,  -2.2919522414374689     ,  -0.256641483919146207     },
    {  -5.25536182213475644    ,  -2.97068889373224065    ,  -1.17254775784236021    ,  -0.712860116806539712     }
  }
};
double NE_PRED_WEIGHTS_4x4[OD_INTRA_NMODES][4][4][2*4][3*4]={
  {
    {
/* Mode 0 (0,0) */
      {
        {   0.0782941684042164215  ,  -0.19197601738159864    ,  -0.0527105016554981071  ,   0.0772181071585019418  ,   0.425375513476172529   ,  -0.0306633563726292427  ,   0.0183295527153582404  ,   0.0329987028720503811  ,   0.0270260089932471345  ,   0.0266055148089540637  ,   0.128251187730069077   ,  -0.29403131643325614      },
        {  -0.147416471692234985   ,   0.105590259919152954   ,   0.0197129808364530125  ,  -0.237398732188142531   ,  -0.720214135615678042   ,  -2.38970254514497772E-05,  -0.17146583716807412    ,  -0.0225943040816262673  ,  -0.0972784731373106948  ,   0.0253250061443019703  ,   0.0244004206645468437  ,   0.171268352487451037     },
        {  -0.0836661001967137635  ,   0.219152677811871727   ,  -0.0670766456571509073  ,  -0.195402992881103826   ,   0.817961298797172165   ,  -0.0044437840310467408  ,   0.129591609520834622   ,   0.413813326417608762   ,   0.202615091104766248   ,  -0.189773419477738736   ,   0.0462927584349957996  ,  -0.352792867332027027     },
        {  -0.0715965466800592837  ,  -0.32448631442142789    ,   0.339776288286868622   ,  -0.151800900360315544   ,  -0.772122534715752429   ,  -0.132804381348457651   ,   0.02488797514314528    ,   0.276238826263777548   ,  -0.214026685461396443   ,   0.0742629251453181816  ,  -0.16638245977374938    ,   0.15650385623977825      },
        {   0.472432502262439602   ,  -0.669872591636482495   ,   0.751804366311936589   ,  -0.649771390613684496   ,   0                      ,   0                      ,   0                      ,   0                        },
        {  -0.0804140869075852943  ,   0.0573523489919491314  ,  -0.0942191908957296792  ,   0.189718933440231496   ,   0                      ,   0                      ,   0                      ,   0                        },
        {   0.127136134947528845   ,  -0.242035198690080444   ,   0.112467735502060198   ,   0.0835565688225483327  ,   0                      ,   0                      ,   0                      ,   0                        },
        {   0.286552606321892389   ,   0.144716820725560413   ,  -0.081662641706015407   ,   0.0116730064200598598  ,   0                      ,   0                      ,   0                      ,   0                        }
      },
/* Mode 0 (0,1) */
      {
        {   0.00764741904159652389 ,  -0.0396216899738360759  ,   0.0380025099055324306  ,   0.131319875683014592   ,  -0.0342192897063315904  ,  -0.113396734322069981   ,   0.0279475415368301075  ,   0.0222346847325788216  ,   0.0500296743254188547  ,   0.00476663910649605116 ,  -0.052883410913869687   ,  -0.18741711254390736      },
        {  -0.00447640282640750838 ,   0.0805444143175603061  ,  -0.0618090802762313873  ,  -0.0284718840847100474  ,   0.0250973302032544698  ,   0.203436492026681265   ,  -0.0520345907022518109  ,  -0.0910374209652243804  ,   0.00192187182100800932 ,  -0.0231736686489713364  ,   8.18446262041933281E-05,  -0.226930188865559823     },
        {  -0.0623115159200020169  ,   0.0627476227224595812  ,  -0.109782394176532003   ,   0.153846472208134272   ,  -0.060868206317774981   ,  -0.112073410718026373   ,  -0.0619414405554312361  ,  -0.196122110181205428   ,   0.0862429274675303587  ,   0.0624508547105176379  ,  -0.0391588198909148602  ,   0.0565277348874021132    },
        {   0.119119859763197417   ,  -0.155846646113394993   ,  -0.162582127409312716   ,  -0.186685034733158423   ,   0.100581676083619939   ,  -0.00619883928410107452 ,   0.0203777937462927897  ,   0.0682933042432946752  ,  -0.0518028025271308618  ,  -0.0935533898384301593  ,   0.0956810823183796011  ,  -0.00792278716715667103   },
        {  -0.0234361276624814041  ,  -4.39902488498097473E-05,   0.131272745364914373   ,  -0.0689345780680070269  ,   0                      ,   0                      ,   0                      ,   0                        },
        {   0.0316430195052329749  ,   0.0401969663557088658  ,   0.00761694507357290468 ,   0.213704495006842299   ,   0                      ,   0                      ,   0                      ,   0                        },
        {   0.0394088759609620073  ,  -0.00747727293277299348 ,   0.0188882533595366546  ,   0.298687474348709625   ,   0                      ,   0                      ,   0                      ,   0                        },
        {  -0.0678284848652264127  ,   0.00408523637541196357 ,  -0.0609124819824396826  ,   0.284037220549952119   ,   0                      ,   0                      ,   0                      ,   0                        }
      },
/* Mode 0 (0,2) */
      {
        {  -0.00202346128108664858 ,  -0.00516168274010003671 ,   0.017378522099087787   ,   0.0340138924241192506  ,   0.0216813487859819631  ,  -0.00239519052174404137 ,  -0.140057168404117915   ,  -0.102113818977070406   ,  -0.0203139941209696077  ,   0.0139732083908758239  ,   0.0684352967092209941  ,   0.0372879742995438634    },
        {  -0.0134217323861966289  ,  -0.000654268723796968491,   0.00145519292438371205 ,  -0.00539667731018405542 ,  -0.0134193308797708032  ,   0.010356881097564892   ,   0.167759325723491004   ,   0.00181421713460145012 ,   0.0116986196492622884  ,  -0.00474864533340296421 ,  -0.0142322384731528757  ,   0.0790837501711075808    },
        {   0.031979187358423318   ,   0.0479341408515516001  ,  -0.116917440379922868   ,  -0.0131270344525378571  ,  -0.0267247633674285757  ,   0.043388482467551448   ,  -0.0618183494491625074  ,  -0.012116542875425948   ,   0.0282698851359396743  ,   0.0537699106387475451  ,   0.148814799601855063   ,   0.11500806060819331      },
        {  -0.0409273818483195245  ,  -0.115019798952685215   ,   0.00892581023163516347 ,   0.0177792910996233157  ,  -0.0611155318402003198  ,   0.138105106767035413   ,  -0.0532311346580710207  ,   0.128208786254327356   ,  -0.0261131758023821284  ,  -0.0670985213305185652  ,   0.0248756542800856531  ,   0.0105495997704723385    },
        {   0.001664606854239894   ,  -0.0537375730000246854  ,   0.104575923519433817   ,  -0.0823430244849311099  ,   0                      ,   0                      ,   0                      ,   0                        },
        {   0.0327521115744487182  ,  -0.00296752592990642307 ,   0.137150254396116056   ,  -0.0253135178216545263  ,   0                      ,   0                      ,   0                      ,   0                        },
        {   0.000463937545471366467,  -0.00671828263206117327 ,  -0.177090029832696588   ,  -0.00810895212417627603 ,   0                      ,   0                      ,   0                      ,   0                        },
        {   0.05415348433122711    ,   0.0751776758876637197  ,  -0.142858485824022219   ,  -0.0239234291379218783  ,   0                      ,   0                      ,   0                      ,   0                        }
      },
/* Mode 0 (0,3) */
      {
        {  -0.00615734981820719503 ,   0.034720712288092842   ,   0.0416610782881722055  ,   0.0308198600572623833  ,   0.00604618342240454982 ,  -0.0100276722790481436  ,  -0.00640284848185203141 ,  -0.113960357222558609   ,  -0.00104710620860039446 ,  -0.0211103224884015041  ,  -0.0155098752569700158  ,   0.0197078105095788506    },
        {  -0.00242008284265084889 ,  -0.00762769016176556743 ,   0.0119178437068593341  ,  -0.0749144048818838337  ,   0.003768572818995535   ,   0.0193189994033562892  ,   0.00543208066131537631 ,   0.158738451968763877   ,  -0.00473004114903980213 ,  -0.0127642644520660764  ,  -0.0502353092084404027  ,   0.0345470474653106485    },
        {   0.0122919182036347677  ,  -0.0203730931211853379  ,  -0.0861998413020019644  ,  -0.0247351842211482736  ,   0.00219018095079547524 ,  -0.0124190519995924335  ,  -0.025749672251319241   ,  -0.154314216868185666   ,  -0.0136809771348998591  ,   0.0193390901161301608  ,   0.151694743313932789   ,  -0.0380296002025622762    },
        {  -0.0487270466241813208  ,  -0.00831125329170472049 ,   0.0699987303177307396  ,  -0.0771938405604646743  ,  -0.0196380690152661262  ,   0.0270367205176266188  ,   0.12060617085156683    ,  -0.0453533062049292432  ,  -0.0143495143863981607  ,   0.0332880677706126962  ,  -0.0143780327488735177  ,  -0.0825005220987868465    },
        {   0.00143047865610343244 ,  -0.027416859664639439   ,   0.0366057314721897481  ,   0.00402654633811775058 ,   0                      ,   0                      ,   0                      ,   0                        },
        {   0.0268861073106237483  ,  -0.0145435323308814451  ,   0.0308984680501924007  ,   0.00383249382272890515 ,   0                      ,   0                      ,   0                      ,   0                        },
        {  -0.0308612150396016839  ,   0.0146795940695242308  ,  -0.0199164528974830439  ,  -0.0174780421667883636  ,   0                      ,   0                      ,   0                      ,   0                        },
        {   0.00358532783571109291 ,   0.0651177590942107476  ,   0.0349077563728806897  ,  -0.015204448130357753   ,   0                      ,   0                      ,   0                      ,   0                        }
      }
    },
    {
/* Mode 0 (1,0) */
      {
        {   0.00203279200423722587 ,   0.0382532216253687746  ,  -0.0394346917830824331  ,   0.114363833937430825   ,  -0.0346976071500591718  ,  -0.0401159021249222411  ,   0.0838656275069100815  ,   0.208798345587774131   ,  -0.00533444522559771775 ,  -0.0406483975427227515  ,   0.0757410526541587165  ,  -0.102792180576918746     },
        {  -0.0433639609510251406  ,   0.0245318280058435464  ,   0.0781853336004938448  ,   0.146089606385261306   ,   0.0212615662788920197  ,  -0.00118230319135751252 ,   0.0486108143175660104  ,   0.0199505628089222398  ,   0.0498593172899378725  ,   0.01922556375441941    ,   0.0753912470109691785  ,  -0.127484350000851981     },
        {  -0.0639388547496302223  ,   0.116786959202198823   ,   0.0777457852639105162  ,   0.0552415091445863995  ,  -0.0092942834604125401  ,  -0.0111494287688888652  ,  -0.192251477420162131   ,   0.0319564193971772076  ,  -0.0218286325674261587  ,   0.0168855678166506123  ,   0.112398023881599432   ,  -0.226767780530173102     },
        {  -0.0422113955373700916  ,  -0.0176589587228158616  ,  -0.0736746911544907679  ,  -0.0959096344293432906  ,  -0.0338074990798913344  ,  -0.0978058215263092334  ,   0.0921777431056777785  ,  -0.108489741529669864   ,  -0.0767010348657442415  ,  -0.000297510998180917387,   0.193766386643883903   ,  -0.266831955184960001     },
        {   0.0362638521128996541  ,  -0.0238962260779933613  ,   0.0910429523975214705  ,   0.0115268641566544615  ,   0                      ,   0                      ,   0                      ,   0                        },
        {  -0.105701068671004692   ,   0.0642225750692398401  ,   0.00561111484524566898 ,  -0.0934068073545142041  ,   0                      ,   0                      ,   0                      ,   0                        },
        {   0.0954701225879553694  ,  -0.0654462966602578911  ,  -0.099774189849963793   ,   0.00200755055304874339 ,   0                      ,   0                      ,   0                      ,   0                        },
        {  -0.141873903728055695   ,  -0.0398505176433359143  ,   0.152936022902208535   ,  -0.246292063754914831   ,   0                      ,   0                      ,   0                      ,   0                        }
      },
/* Mode 0 (1,1) */
      {
        {  -0.00517711737978944746 ,  -0.0144847742660598865  ,   0.0433251859053181976  ,  -0.0507386580926257671  ,  -0.00230797518368167391 ,  -0.133872404260855227   ,  -0.0106929518493215827  ,   0.0172040526477921472  ,   0.00713912735032487273 ,  -0.0101306287327358278  ,  -0.0237814508270161595  ,  -0.0614915846506026292    },
        {   0.00778814373434033678 ,  -0.0229218512598496557  ,  -0.0904147596129993153  ,   0.0593167481971493618  ,  -0.00535849095674685062 ,   0.0579723781195817037  ,  -0.0226732957603659573  ,  -0.119360853637309264   ,  -0.029867227942587983   ,   0.0368080234135768417  ,  -0.0237645505971713807  ,  -0.00195877775231745668   },
        {   0.0748290254372214747  ,  -0.0431577718097277199  ,  -0.0358964290640324951  ,  -0.0710496585798366664  ,   0.000284812453822572305,   0.101827295108494018   ,   0.0942320191019014736  ,   0.0901077954209523607  ,   0.0108241524494428424  ,   0.0386512212727596755  ,   0.0908276061609246121  ,   0.102195278366353323     },
        {  -0.246437857406882482   ,   0.0474887240133711475  ,   0.0326120202986834584  ,   0.134673847851802697   ,  -0.11038442424297816    ,   0.0105348713532135811  ,  -0.0997356127980846552  ,  -0.254138682018928197   ,  -0.0406170771441578121  ,  -0.0291248329998696175  ,  -0.00271407071726113619 ,  -0.00289743962219818135   },
        {   5.79079646306503206E-05,   0.00835034260374890522 ,   0.0924119448031406193  ,  -0.0206852319038338846  ,   0                      ,   0                      ,   0                      ,   0                        },
        {  -0.105776469961312514   ,   0.0631798816176750294  ,   0.108884826957577133   ,  -0.135607924044266054   ,   0                      ,   0                      ,   0                      ,   0                        },
        {   0.0534871482934501929  ,   0.0195159632783037384  ,   0.0518456681627708429  ,  -0.0727474574709866262  ,   0                      ,   0                      ,   0                      ,   0                        },
        {  -0.0420105164539912937  ,  -0.0607156769971717025  ,  -0.00330553081847988813 ,   0.038126819200425148   ,   0                      ,   0                      ,   0                      ,   0                        }
      },
/* Mode 0 (1,2) */
      {
        {  -0.00227289541009863868 ,  -0.0147987727146064799  ,  -0.00174709999628959185 ,   0.00365342563597090405 ,   0.00898851608154068241 ,  -0.0305233985842849019  ,  -0.180059729259958473   ,   0.0227315313645554927  ,  -0.0140594876856703407  ,  -0.028792863909463659   ,   0.0516388202014507053  ,  -0.0936115772152411735    },
        {   0.0139839883280849109  ,  -0.0138170566230912673  ,  -0.0726889282321453861  ,   0.0115271419005572567  ,   0.0149071808394864013  ,   0.0103658231781013164  ,   0.0724757443328315903  ,  -0.0869518590540774711  ,   0.0202219874194332801  ,   0.0139896917726851037  ,   0.0277916521303844428  ,   0.104342932622009305     },
        {  -0.0370934260876371949  ,  -0.00994911165621244209 ,  -0.0525272835591744092  ,   0.0802593335759359816  ,  -0.0758204158484111906  ,  -0.0584163003554594856  ,  -0.017946831430806446   ,   0.0469871804316208258  ,   0.00067660765680946464 ,   0.0173892125149834147  ,  -0.0504512554185634204  ,   0.0256378294522691154    },
        {  -0.00393217518072054226 ,   0.0307655640965776023  ,   0.0879872389454885162  ,   0.060639066282400525   ,   0.00306801500306959612 ,   0.0144360757604108589  ,  -0.108287014575450466   ,   0.0492381933076566428  ,   0.0249210331900289843  ,   0.0391314889525373397  ,  -0.0202271054492772599  ,   0.0730867586270868702    },
        {   0.00737503074693522838 ,   0.0325045414244316544  ,   0.00518070532012965702 ,   0.112182338080293056   ,   0                      ,   0                      ,   0                      ,   0                        },
        {  -0.0353742527133256088  ,   0.00459890831260764948 ,  -0.0309985544066520777  ,  -0.0190322611196207699  ,   0                      ,   0                      ,   0                      ,   0                        },
        {   0.0265059029490126927  ,  -0.0377475016065275878  ,   0.0391029814288281     ,  -0.0402356671554048514  ,   0                      ,   0                      ,   0                      ,   0                        },
        {   0.0571331549089702309  ,  -0.0880350213047965263  ,  -0.106592663653790554   ,  -0.0399725818060031601  ,   0                      ,   0                      ,   0                      ,   0                        }
      },
/* Mode 0 (1,3) */
      {
        {   0.00227690976003129585 ,  -0.0153684271321313914  ,  -0.0315780428328262669  ,  -0.0657901291402356453  ,   0.00112492486297079662 ,  -0.0219540443415208279  ,  -0.0306051981527034542  ,  -0.185305620772720642   ,  -0.000234762740897934136,   0.00728166374865107935 ,  -0.0201882796977870781  ,   0.0146793555669193099    },
        {  -0.00747698850438971441 ,   0.0106859181240295774  ,  -0.042534380069471675   ,  -0.0645776261861573109  ,   0.00109050263778285032 ,   0.00517225225056202643 ,  -0.00702479568241547864 ,   0.127186701192262774   ,  -0.000686450700102031594,  -0.000877733425047674473,   0.0143909576491985589  ,  -0.0213383191850853547    },
        {   0.00621958951316400627 ,   0.0161650871145495832  ,   0.0658294873406463921  ,   0.0390197947443527426  ,  -0.00774910806124720544 ,   0.0310578249714233284  ,   0.0130587263942268748  ,  -0.00183221046882572815 ,  -0.00456422254084858266 ,   0.00566588454838608344 ,   0.0401509001505170535  ,   0.0661359269371482733    },
        {   0.0156437004553244968  ,  -0.0654385076171552227  ,   0.0401322732649296576  ,  -0.0712325924381493614  ,   0.0282689407124876516  ,   0.0336553197329888323  ,   0.0483842601474532355  ,   0.0393969675766996305  ,   0.0851249706336259654  ,  -0.0257576772534501806  ,  -0.0279600327495248269  ,  -0.0632976538499795821    },
        {  -0.00334712055885625455 ,  -0.00101511573946171064 ,   0.0262679722793581066  ,  -0.0527354188502165214  ,   0                      ,   0                      ,   0                      ,   0                        },
        {   0.0127657617195241768  ,   0.0038975053098769287  ,  -0.0635875730553792373  ,   0.0606407060660470315  ,   0                      ,   0                      ,   0                      ,   0                        },
        {  -0.0200413828889185637  ,  -0.0101567278693029117  ,   0.0245373604611433399  ,  -0.0960207165774706328  ,   0                      ,   0                      ,   0                      ,   0                        },
        {  -0.0106042343445705706  ,   0.0760735779173398047  ,  -0.0508346528866745889  ,  -0.065507712077298802   ,   0                      ,   0                      ,   0                      ,   0                        }
      }
    },
    {
/* Mode 0 (2,0) */
      {
        {  -0.00376501264236711554 ,  -0.0105626446464746997  ,  -0.00448858754953409926 ,  -0.00552417669461023175 ,  -0.0119931772797351368  ,   0.0246588172131503268  ,  -0.0535329883683600891  ,   0.0258281249581125763  ,   0.007265791037263436   ,   0.030693904861696767   ,   0.0186704667697827204  ,   0.0144316171960293445    },
        {  -0.0169900756189645605  ,  -0.00592377558726549756 ,   0.0439284940252578915  ,   0.16023693030770586    ,  -0.0311985339521317351  ,  -0.0150397277852038023  ,  -0.0174028369134364182  ,   0.0146278720551833857  ,  -0.0103192911383501104  ,   0.00288319870610397695 ,  -0.0325010730891802449  ,  -0.0492150762907984443    },
        {   0.02600833562769388    ,  -0.0310657306753717478  ,  -0.0206752812519164185  ,   0.0402719449751406458  ,   0.116682705586358348   ,   0.140382549083038238   ,   0.0742624313471857284  ,  -0.0340120579266490891  ,  -0.0471327243057064055  ,  -0.00998269077350409997 ,   0.154763257451271646   ,   0.0809668891228991355    },
        {  -0.121920499886850039   ,   5.85428613727263027E-06,   0.0510370060943943771  ,   0.0435074203203560175  ,  -0.109352260975826468   ,  -0.0129264243101408199  ,  -0.00163230013480013562 ,   0.00052689669296025342 ,   0.0602366094102722363  ,  -0.0397696489450401064  ,   0.0248746722931492033  ,  -0.0260258325378262302    },
        {   0.00938178936155103019 ,   0.0055364735559196819  ,  -0.00292341348851462082 ,  -0.15093647981030231    ,   0                      ,   0                      ,   0                      ,   0                        },
        {   0.0260508741008411739  ,   0.0315181447351057936  ,  -0.108217827347752732   ,  -0.0480445924427249718  ,   0                      ,   0                      ,   0                      ,   0                        },
        {  -0.0254151917158412718  ,   0.161212837773815371   ,  -0.0208577475121145689  ,  -0.075769954850806745   ,   0                      ,   0                      ,   0                      ,   0                        },
        {   0.0109454256953317904  ,  -0.0875049215147925136  ,  -0.119981249614283553   ,  -0.0861613753905733359  ,   0                      ,   0                      ,   0                      ,   0                        }
      },
/* Mode 0 (2,1) */
      {
        {  -0.0113272636278432138  ,   0.00793008366675022891 ,   0.018327192314465706   ,  -0.008630615542426473   ,   0.00372470377275384247 ,  -0.0265283187232785191  ,   0.0354063393121106934  ,  -0.017790888425591591   ,  -0.00225791146977511901 ,   0.0148420535115884305  ,   0.0180418209343911479  ,   0.0252923418474739828    },
        {  -0.00942198740711658669 ,  -0.0193042168117840973  ,  -0.0239757173299559208  ,   0.0563680904348554043  ,   0.0229822874109170197  ,   0.0252235697510893413  ,  -0.0137331790567769702  ,   0.0620365955389809431  ,   0.0388921221898937963  ,  -0.00453056194069050878 ,  -0.0309117103207714045  ,  -0.0619894479182420619    },
        {   0.0284075517702126433  ,   0.00792141186749719707 ,   0.0311970552487031358  ,  -0.0470443960969565214  ,  -0.0399189115240066242  ,  -0.0326148418818314884  ,   0.196031986307166783   ,   0.0170026834381014624  ,  -0.0320242984584521925  ,   0.0176109217120017265  ,   0.00685600183568870012 ,   0.00745384135280509081   },
        {   0.0189951897557325278  ,  -0.0389618709238910704  ,   0.0262275218724661169  ,  -0.0255559250711487156  ,   0.0956116508569851697  ,   0.0163127029807343428  ,  -0.0377590557303260563  ,   0.0373467000174826369  ,   0.0718984909733083044  ,   0.00648673496060742007 ,  -0.0629884000521062498  ,  -0.0323835816398292953    },
        {   0.00994027714045751104 ,  -0.0280084091864662259  ,   0.0536487444234412109  ,  -0.093491989867782066   ,   0                      ,   0                      ,   0                      ,   0                        },
        {  -0.00254414267016638126 ,  -0.0120014399569455133  ,   0.0466602434961536777  ,  -0.0369626080355897196  ,   0                      ,   0                      ,   0                      ,   0                        },
        {  -0.142868452369730753   ,   0.13842904153866839    ,   0.044198614178924088   ,  -0.112169429861350284   ,   0                      ,   0                      ,   0                      ,   0                        },
        {   0.0427278104472337897  ,   0.0422845639889441807  ,   0.0408708139793663647  ,  -0.0500657550162047146  ,   0                      ,   0                      ,   0                      ,   0                        }
      },
/* Mode 0 (2,2) */
      {
        {  -0.00161988040462163283 ,   0.00123390062366451696 ,   0.00113696912415753499 ,   0.0419610221860032065  ,   0.00262172838471579463 ,  -0.0122590770040503713  ,  -0.0280860524192785913  ,   0.00933482503328878811 ,   0.000493052316930398058,  -0.00748860090663172606 ,  -0.00343736300924094322 ,   0.00412576511122420952   },
        {   0.006636937428285479   ,  -0.015789556611321396   ,  -0.0688514086440959461  ,  -0.0237154559631312205  ,  -0.0055801112654057395  ,   0.0112612796219858126  ,   0.0181091893837551816  ,  -0.0417248196276472638  ,   0.00337173750667101252 ,  -0.0047504772767720492  ,   0.0278239714729965823  ,   0.0251745119648749578    },
        {  -0.0309093081836253579  ,  -0.000600626582591006191,   0.0621339322583830816  ,  -0.0222358520098257136  ,  -0.0168633969460278803  ,   0.023441010137661495   ,   0.0156368362075889021  ,   0.141803858674488331   ,  -0.0100340938911066963  ,   0.00254125236533354112 ,  -0.0621495657895657014  ,   0.0132348398136070654    },
        {  -0.0183730202919473798  ,  -0.0168230323235922033  ,  -0.064963125454678694   ,  -0.0270061791001978066  ,  -0.00581984920863650498 ,   0.00382403660708901128 ,   0.0211547795761203687  ,  -0.0766717575255746187  ,   0.0114427566035099106  ,  -0.0199186202125634162  ,  -0.0116917423265253933  ,   0.038267924147163325     },
        {  -0.00117772236108645194 ,  -0.0112397758102356377  ,   0.00776974936577389235 ,   0.0308966411673826311  ,   0                      ,   0                      ,   0                      ,   0                        },
        {  -0.00562285459685527879 ,  -0.0127149691064058004  ,   0.0184754714348231326  ,  -0.00196562451458097637 ,   0                      ,   0                      ,   0                      ,   0                        },
        {   0.00348057903530586557 ,   0.00195093085807913512 ,  -0.0130722343003441734  ,   0.05800170193699037    ,   0                      ,   0                      ,   0                      ,   0                        },
        {   0.0304386004629155944  ,   0.0171137338109938579  ,  -0.00327253592885190514 ,  -0.0570973027574155911  ,   0                      ,   0                      ,   0                      ,   0                        }
      },
/* Mode 0 (2,3) */
      {
        {  -0.000196850326721457873,  -0.00637428742921441506 ,  -0.0187172595236425529  ,   0.0123843026990488048  ,  -0.000761079082269438016,  -0.0044602139323897368  ,   0.0250885836378516233  ,  -0.0405246829173834811  ,   0.000229903924474260624,  -0.00869517239416944983 ,  -0.033626205986522606   ,  -0.0324056287316786193    },
        {   0.01335435370641176    ,   0.0121245229863341832  ,   0.00827683536879507409 ,   0.0285272149268457134  ,  -0.00464806183863860755 ,   0.00172521972600312703 ,   0.0113377187519734888  ,  -0.034475320334361452   ,  -0.0137002527880854975  ,  -0.00777442118675487556 ,   0.0238815212508779323  ,  -0.0245208525000948883    },
        {  -0.0133168164835510625  ,   0.018720629844305111   ,   0.0244743035159411537  ,  -0.0558571710443007199  ,   0.00958727033475014617 ,   0.010873456208783782   ,  -0.0555435283739212499  ,  -0.0121428701571800971  ,   0.0218343049444625105  ,   0.0318304807958086286  ,   0.0267833863213771881  ,   0.0157324165583132038    },
        {  -0.0289357205063529577  ,   0.0102901871959037751  ,   0.0480405119896345073  ,   0.00909279810960200718 ,   0.0160916254346230962  ,   0.000762232904238499564,   0.0212156041119395018  ,   0.0142710825768010471  ,  -0.00735112403974323616 ,  -0.0111366727477888328  ,  -0.0196988390351032459  ,   0.0155959958675047482    },
        {   0.000612885485024181487,   0.00307243231563670335 ,  -0.00709716791166202596 ,   0.00780830367966080068 ,   0                      ,   0                      ,   0                      ,   0                        },
        {   0.0203363629779612053  ,  -0.0079907041254755496  ,  -0.0196589675249364687  ,   0.0366605230114953676  ,   0                      ,   0                      ,   0                      ,   0                        },
        {   0.00534315893908630848 ,  -0.0472433034358346535  ,   0.0186211184570763237  ,  -0.00689414451135708824 ,   0                      ,   0                      ,   0                      ,   0                        },
        {   0.0274706983352142643  ,  -0.046243554160457126   ,   0.00993866912593359755 ,   0.00850664547486102221 ,   0                      ,   0                      ,   0                      ,   0                        }
      }
    },
    {
/* Mode 0 (3,0) */
      {
        {  -0.00272993921598299908 ,   0.00991842908395817666 ,   0.00141235577765611475 ,  -0.01975060254523461    ,   0.0050123092749789688  ,  -0.0224877213747519157  ,  -0.0100811660530427047  ,   0.0551338425287497477  ,  -0.00558136201276213453 ,   0.00569348032820080931 ,   0.038061577752672722   ,  -0.0358853748891103871    },
        {   0.00956287720533985364 ,  -0.0267251640663245076  ,  -0.00460969010615703591 ,  -0.0414078801486298526  ,  -0.0326663541153456652  ,   0.0134039544250751617  ,  -0.0177426794249352371  ,  -0.0389116229704973837  ,   0.0226046821096970788  ,   0.0307869627907816391  ,  -0.0253683619288457146  ,  -0.021781995720812547     },
        {   0.026080858383570351   ,   0.0450981492357952762  ,   0.00692988701374363733 ,   0.00737769436818657212 ,   0.00590901063186818204 ,   0.115502442693856455   ,   0.038027748667295809   ,  -0.0125241106670940794  ,   0.00712955558415240363 ,  -0.0440440211219025671  ,  -0.0356375710199086856  ,   0.0589184791089161983    },
        {   0.0395067932756381635  ,   0.0660453145472075093  ,  -0.0115571096319311648  ,   0.0604081018926743429  ,   0.00727700099669170101 ,  -0.0251376071922954671  ,  -0.0627401831093392509  ,  -0.0602032691659760769  ,  -0.00644593492064495042 ,  -0.0127753778159782113  ,   0.0525551596999275922  ,  -0.0844893465731598875    },
        {   0.00352967413272491657 ,   0.0191217359913708335  ,  -0.0129988196146230365  ,   0.122696738785520537   ,   0                      ,   0                      ,   0                      ,   0                        },
        {  -0.0288733309981899014  ,  -0.0204838187881246359  ,   0.0178424463535806557  ,   0.0951571679350557836  ,   0                      ,   0                      ,   0                      ,   0                        },
        {  -0.0554362912818742865  ,   0.0512478218962703347  ,  -0.0292601458449636732  ,  -0.0497311500131403586  ,   0                      ,   0                      ,   0                      ,   0                        },
        {  -0.232556920528980193   ,   0.252279091410486378   ,  -0.124549229415643142   ,   0.0107462563903244854  ,   0                      ,   0                      ,   0                      ,   0                        }
      },
/* Mode 0 (3,1) */
      {
        {  -0.00130642649630355085 ,  -0.00167006739642585993 ,  -0.0229689142249399243  ,  -0.00358461936748558476 ,  -0.00816652349856360031 ,   0.0234712539010415513  ,   0.0156286956459126929  ,   0.0470629293139513752  ,   0.00933633224053352639 ,   0.0215916241553316332  ,   0.0128135528892927824  ,  -0.00996115890554632663   },
        {   0.00257715795201089466 ,  -0.00393144284026196097 ,   0.0115210505366646846  ,  -0.0433626124753979311  ,  -0.0156608872858042293  ,  -0.0178789689292760748  ,  -0.000735170231165475159,   0.00233653373376794182 ,  -0.0209348933751001762  ,  -0.0166722966914454873  ,  -0.0126808700897732812  ,  -0.0466653378088112691    },
        {  -0.00154354660858063643 ,   0.0272388978195425395  ,  -0.00760545399437845531 ,   0.0384092647895257003  ,   0.0442699066192250926  ,  -0.0127427119575997238  ,   0.0352117902145095141  ,  -0.0602653340432906873  ,   0.0146325434804719778  ,   0.0883602143894859221  ,  -0.0243098289531694864  ,   0.0979293014848195975    },
        {  -0.0377061190125483683  ,   0.0962979713285507244  ,   0.0354618548758250454  ,   0.0236868485184758629  ,  -0.126222953935606202   ,   0.00544888515101608819 ,  -0.00819285630185240428 ,   0.0491810107005963768  ,  -0.0109639558849974478  ,  -0.0370015450164269469  ,  -0.0166237307075378822  ,   0.014426700601882305     },
        {   7.60043346679638868E-05,   0.0222159599497664603  ,   0.0127047078669085458  ,   0.00942752350375369169 ,   0                      ,   0                      ,   0                      ,   0                        },
        {   0.0137897021758129016  ,   0.0439562833260602054  ,  -0.0266657805075789962  ,  -0.0155502065689949107  ,   0                      ,   0                      ,   0                      ,   0                        },
        {   0.01584813512896803    ,   0.0851022156301259741  ,  -0.0131736543876575726  ,   0.0580301224324308376  ,   0                      ,   0                      ,   0                      ,   0                        },
        {  -0.0995765235886125061  ,   0.0743315546657486448  ,  -0.0238835810676848968  ,  -0.0722601704972760939  ,   0                      ,   0                      ,   0                      ,   0                        }
      },
/* Mode 0 (3,2) */
      {
        {  -0.00278508103950117492 ,  -0.00177422798410498714 ,  -0.0338888590396863379  ,   0.0023614838044730903  ,  -0.0014906074936675822  ,  -0.00127048857049306225 ,   0.0327574520225748581  ,   0.0359836782300228045  ,   0.000143196868021102346,   0.00675598632278321017 ,  -0.0307959324945600785  ,  -0.0188473036949507906    },
        {   0.00912837756174642197 ,  -0.0158934951087986755  ,   0.000375555291997750759,  -0.00774959553558512027 ,  -0.000278642617981815683,   0.0241794229045353345  ,  -0.0361110072942466553  ,  -0.016847634492081983   ,  -0.00076654089950769339 ,   0.0120709462183753256  ,   0.0163884053070678035  ,   0.0429113026627770192    },
        {  -0.00254486304006930862 ,  -0.00617128134520304045 ,   0.0545830376118968327  ,  -0.0385345054288011996  ,  -0.0063256888543197845  ,   0.00314927450785119304 ,   0.0190619197574098918  ,   0.0104102316960574589  ,  -0.0123378977505326469  ,  -0.0095542070246147897  ,  -9.87490094865705725E-05,  -0.0233441166283086705    },
        {   0.0207580710806607796  ,   0.00822218290501593348 ,   0.0192664111116911466  ,  -0.024871598227904048   ,   0.0135275706258810302  ,  -0.00674400653358091847 ,   0.0149100611532641345  ,  -0.026343237370228572   ,  -0.0249187710156675464  ,   0.017985060515424256   ,   0.0104057400333384276  ,  -0.00266172049803515415   },
        {   0.0039912385670061775  ,  -0.00262662889805734051 ,  -0.00676805443395988096 ,  -0.00620314935347407882 ,   0                      ,   0                      ,   0                      ,   0                        },
        {   0.00496642049745806349 ,   0.00862961735173149898 ,   0.00744467169235170628 ,   0.0173710349844003673  ,   0                      ,   0                      ,   0                      ,   0                        },
        {   0.0232336942910373739  ,   0.0834637887837033771  ,  -0.00718363382253594737 ,   0.00828897964120250096 ,   0                      ,   0                      ,   0                      ,   0                        },
        {   0.0168662268657721222  ,  -0.0233452210468035187  ,  -0.0381139410738860832  ,  -0.0466408304989148273  ,   0                      ,   0                      ,   0                      ,   0                        }
      },
/* Mode 0 (3,3) */
      {
        {   0.00235656803512808693 ,  -0.00517345928955715781 ,   0.0206372027751801079  ,  -0.0408876472414896747  ,   0.00325736580012651877 ,  -0.0020719387467241189  ,  -0.00203402265237997287 ,   0.0197541577713844785  ,  -0.00165016521680112901 ,  -0.00626462074502334102 ,   0.0125921387495836843  ,  -0.0232725633042223171    },
        {   0.00274477121077231932 ,   0.00349091863948239149 ,  -0.00644873397624729471 ,  -0.00225907954054982343 ,  -0.00506942716137247923 ,  -0.00547616272988653199 ,   0.0211506556901985381  ,  -0.0151423129587049034  ,   0.00754814202138162551 ,   0.00943422056225721832 ,   0.00202960487574091247 ,   0.0110943704725764963    },
        {  -0.020285168828208789   ,  -0.00618327241295217687 ,   0.000533985912525359696,   0.0266583406447311842  ,  -0.00524345469269555525 ,   0.0311398887105892759  ,   0.0204055614376813209  ,   0.0242121522618747309  ,   0.0155111264320316137  ,  -0.0166076193909142598  ,   0.00606290448173619177 ,  -0.0128037767689532529    },
        {   0.0208475465904337     ,  -0.0400698188283867898  ,  -0.032602653281269621   ,  -0.0271133695293951892  ,  -0.00207772819975414122 ,   0.0266740468767026062  ,  -0.0209231897954163734  ,   0.0449700002244689742  ,  -0.0255888555554836354  ,  -0.0102343082186761216  ,  -0.0116954524611874531  ,   0.0140517176442112469    },
        {  -0.00395959750890693355 ,  -0.00162779576971453215 ,   0.0126099528417046355  ,  -0.00127755449884125799 ,   0                      ,   0                      ,   0                      ,   0                        },
        {   0.00342261633334797711 ,  -0.0153614054875058238  ,   0.0172151984378252493  ,   0.0142327730517156983  ,   0                      ,   0                      ,   0                      ,   0                        },
        {   0.0124279336506288619  ,  -0.0165606026821994365  ,   0.00279347054133752661 ,   0.0452349159655863406  ,   0                      ,   0                      ,   0                      ,   0                        },
        {   0.0671170301648430223  ,  -0.0452135316950087185  ,   0.0150809947714468668  ,   0.102727476593771447   ,   0                      ,   0                      ,   0                      ,   0                        }
      }
    }
  },
  {
    {
/* Mode 1 (0,0) */
      {
        {  -0.771214711325107105   ,   1.15559168363517428    ,  -1.6671593546898591     ,   1.63232875782224696    ,   0.75883134800848373    ,  -0.190947788761300752   ,  -0.124934386677595363   ,   0.601238968776478644   ,   0.0718882129845232892  ,  -0.0378049318946897181  ,  -0.348211270346050816   ,  -0.142770511664517707     },
        {   0.731302709201823609   ,  -0.199704955555518204   ,   3.28730277070936205    ,  -1.76505832246373773    ,  -1.44640325658594016    ,   0.736835453764065229   ,  -0.302710547668107011   ,  -0.525268898088252167   ,   0.0606615670798641149  ,   0.160845338738807603   ,   0.725745123871314068   ,   0.721283562927677591     },
        {  -0.744468157737045666   ,   3.20293056380236552    ,  -3.49795216640266737    ,   0.167884898396623294   ,  -0.890128226296141745   ,  -1.02857560741730159    ,  -1.02594016303198843    ,   1.63916052584456273    ,   0.545824246212778363   ,   1.26445908848404898    ,   0.265868657326308599   ,   0.962820661247354881     },
        {  -0.120487162689404029   ,  -2.73293677109083388    ,   2.81691751216617181    ,  -3.25094769903647407    ,  -2.13263164558143581    ,   0.256933126395912925   ,   0.637053191401344865   ,  -2.53885769571651165    ,   0.717473242177418036   ,   0.819234765178592395   ,   0.923444862601478622   ,  -0.590167167492402722     },
        {   0.83868111096190523    ,  -1.20166638600038289    ,  -0.580595892829536164   ,   0.0969834523210033744  ,   0                      ,   0                      ,   0                      ,   0                        },
        {  -0.562602452155025912   ,   1.19827294688362485    ,  -2.08866792861468209    ,  -0.167491961159523139   ,   0                      ,   0                      ,   0                      ,   0                        },
        {  -0.490670892081180254   ,   1.172231566851621      ,  -1.72127539179264999    ,  -2.22397648550071825    ,   0                      ,   0                      ,   0                      ,   0                        },
        {   0.308470821455706368   ,  -2.05471615892302539    ,   1.61539760317004588    ,  -2.18653068510187287    ,   0                      ,   0                      ,   0                      ,   0                        }
      },
/* Mode 1 (0,1) */
      {
        {   0.0942883800381270898  ,  -0.227514339070317928   ,   0.12787910883498893    ,  -0.616670570763403258   ,  -0.0567058675282395425  ,   0.396978890426591569   ,   0.26731943703004396    ,  -0.264086754893995024   ,  -0.0257038948472182935  ,  -0.149076715398954202   ,   0.276433439794947389   ,  -0.495056600658182022     },
        {  -0.260756351345032777   ,   0.559366178893491384   ,  -0.605206830162497655   ,   0.26651383997997935    ,   0.0356770170840103387  ,  -0.38263785668396133    ,  -0.0532070886994618214  ,   0.12826273311092054    ,  -0.0569455174525316798  ,  -0.102353448243183709   ,  -0.493245046682271204   ,  -0.498799705026419682     },
        {  -0.0360168589585365129  ,   0.21571975437742677    ,   1.11360683536850091    ,  -0.736933452630422203   ,  -0.092655656365193434   ,  -0.376173608722157438   ,   0.989032286827986939   ,  -1.59632186139643406    ,   0.232283779135831314   ,  -0.369853002376092144   ,   1.26809616852776297    ,  -1.42192635118679589      },
        {  -0.0538570932513962319  ,   0.665436750709860303   ,   0.934047751547856353   ,   0.516548626665878086   ,   0.149341821252398255   ,  -0.460971683479625194   ,  -1.63785167197789239    ,  -0.738648249076217955   ,   0.545487817668608987   ,   0.265137406909595252   ,  -0.548668150050030556   ,  -0.213751425382525423     },
        {  -0.0124309809629823426  ,  -0.187410079493178117   ,  -0.0151678406054354675  ,   0.358441506593684178   ,   0                      ,   0                      ,   0                      ,   0                        },
        {  -0.0156236146405474736  ,  -0.0737655286056498605  ,  -0.122756078550574257   ,  -0.576048906307841668   ,   0                      ,   0                      ,   0                      ,   0                        },
        {  -0.186613040653006573   ,  -0.2040274597904152     ,  -0.188853397231776021   ,   0.938736184900205606   ,   0                      ,   0                      ,   0                      ,   0                        },
        {   0.102714250134782872   ,  -0.584668155382087051   ,   0.284668373861197144   ,  -2.50279656375943871    ,   0                      ,   0                      ,   0                      ,   0                        }
      },
/* Mode 1 (0,2) */
      {
        {  -0.00435162758407241484 ,  -0.00884890611483633328 ,   0.10222075380840677    ,   0.00366289287211624907 ,  -0.0108519368166861696  ,  -0.0201873159304494683  ,   0.196169575297509446   ,  -0.11184095611484024    ,   0.0105488187591914282  ,   0.0963971063834055952  ,   0.163820619904382819   ,   0.0591880871369660916    },
        {   0.0213823982622986589  ,   0.16503691154693742    ,  -0.299121623542142057   ,  -0.154916593990119478   ,   0.0173345151294844943  ,   0.0574242131345899104  ,  -0.482955950478690776   ,   0.371352353975513083   ,  -0.0280365267732552402  ,  -0.0181859011302654867  ,  -0.118411293171482204   ,   0.224471231032226548     },
        {   0.122848397448913987   ,  -0.258577458309086849   ,  -0.309028899248143807   ,   0.0383536058624638701  ,  -0.102390980946880275   ,  -0.184851482089689684   ,  -0.0685950388991125731  ,  -0.665258124837697751   ,   0.0840746138801210102  ,  -0.0525225053586918511  ,  -0.177095374030135477   ,  -0.142910108722342444     },
        {  -0.299477517386512848   ,   0.364548642453113414   ,   0.294635718267414082   ,  -0.0650206751177433151  ,   0.168377958892322266   ,   0.212705894985474431   ,  -0.196634008478269978   ,   0.639820834858743859   ,  -0.0441029003902070615  ,   0.270098370349712569   ,  -0.285525989948157533   ,  -0.436226783138992991     },
        {   0.00597879949158536001 ,  -0.120487161672010346   ,   0.586404041404449794   ,  -0.084881144083168325   ,   0                      ,   0                      ,   0                      ,   0                        },
        {  -0.00616284896456614252 ,   0.157399679398925463   ,   0.0056246279664099192  ,  -0.248967797591398476   ,   0                      ,   0                      ,   0                      ,   0                        },
        {  -0.0501865772111117422  ,   0.265505449612345457   ,  -0.644672622024107911   ,  -0.102968277486377879   ,   0                      ,   0                      ,   0                      ,   0                        },
        {  -0.114196493099512561   ,  -0.120462862143183982   ,  -0.0179111655262879921  ,  -0.0479055406368233752  ,   0                      ,   0                      ,   0                      ,   0                        }
      },
/* Mode 1 (0,3) */
      {
        {   0.00801394981063115706 ,  -0.0652921753101535635  ,   0.00406828047566073266 ,  -0.266374618288505505   ,  -0.00477929671127334636 ,  -0.0691637972633477593  ,  -0.0322597518980787604  ,   0.401513697847701578   ,   0.00160618151705917145 ,  -0.0313398171164642608  ,  -0.155694238877383512   ,  -0.0107093144926088818    },
        {  -0.00223639993799210762 ,  -0.114462666184376463   ,   0.0780424750357218977  ,   0.0947074905025655361  ,  -0.013789670386014247   ,   0.0730691885889506731  ,   0.195089423166788206   ,  -0.0463647320456020626  ,   0.0218483642147045548  ,   0.0604336012232430317  ,   0.0317102499530072107  ,   0.0771924803342126375    },
        {  -0.10111729904038827    ,   0.0592556882467838927  ,  -0.118283170338340224   ,   0.065479152931422549   ,   0.0995113935773609126  ,   0.124453772957990733   ,  -0.0495005564967886877  ,   0.4022310912789413     ,  -0.0148029333873655432  ,   0.0182674484506149572  ,  -0.384906057453970218   ,   0.491631214081843737     },
        {  -0.0611236265680719509  ,  -0.193179716430646381   ,   0.268731359525931301   ,   0.410876205206088196   ,   0.207093306406342575   ,   0.127094754057002574   ,   0.30151693190850809    ,  -0.0203040774008026413  ,  -0.0634485196242820099  ,   0.0861765837622502084  ,  -0.0322118193696236746  ,   0.248873700538972453     },
        {  -0.00416919493738584189 ,  -0.0510074611090583149  ,   0.0525583405947764107  ,  -0.182033000952797397   ,   0                      ,   0                      ,   0                      ,   0                        },
        {  -0.0156971620840034229  ,   0.0031367515016048125  ,   0.161246938429575964   ,  -0.0284679788520733924  ,   0                      ,   0                      ,   0                      ,   0                        },
        {  -0.0332570859781333994  ,  -0.106067359339381662   ,   0.24828750669659036    ,  -0.275104976960836967   ,   0                      ,   0                      ,   0                      ,   0                        },
        {   0.0620157523440288128  ,  -0.0175971426669322278  ,  -0.288417883579046852   ,   0.19458459894217256    ,   0                      ,   0                      ,   0                      ,   0                        }
      }
    },
    {
/* Mode 1 (1,0) */
      {
        {   0.0518754031002587948  ,  -0.240385935834459691   ,  -0.0948082735271475324  ,   0.0750324487002641399  ,  -0.0249336491092963623  ,  -0.0392743201393990354  ,  -0.379171754362273628   ,   0.133797518039847851   ,   0.00216193655535235106 ,   0.137250813910841402   ,  -0.0921973698002618997  ,  -0.0749677238994536782    },
        {  -0.0425968901799270369  ,   0.18153152160523961    ,   0.627073484613689835   ,   0.252000838259239524   ,  -0.0375395079968258161  ,  -0.0294850118349178555  ,  -0.747363204015587868   ,  -0.934447120493093641   ,  -0.146192929308505776   ,   0.0313578445412332971  ,  -0.201788258528816156   ,   0.790838558050722673     },
        {   0.488428031508414739   ,   0.20931191578373326    ,  -0.594511681711012319   ,  -0.825200885215897628   ,   0.641210396228813928   ,  -0.313556294643417777   ,   0.438525986227263187   ,  -0.357067637953751127   ,   0.52865814746930273    ,   0.238280043615743786   ,   0.661231925193417003   ,  -0.522382640806881016     },
        {  -0.367913342476664795   ,  -0.446668493428583446   ,  -0.716910627428801073   ,   0.233523154727658555   ,  -0.760053811981457494   ,   0.51694349094521197    ,   1.11055115730248577    ,  -1.2093478695227311     ,  -0.195495072934956604   ,  -0.0619214034651418624  ,   0.397862339170981072   ,   0.707720051569620479     },
        {  -0.019695359689081815   ,   0.00107931245743449981 ,  -0.132226416964344951   ,   0.111038512029776784   ,   0                      ,   0                      ,   0                      ,   0                        },
        {   0.570538688188147347   ,  -0.431001911771270785   ,   0.0505215620917038241  ,  -0.751102045483330705   ,   0                      ,   0                      ,   0                      ,   0                        },
        {  -0.0488746739924127704  ,  -0.575379623262493811   ,  -0.319877706088887159   ,  -0.739400125653811968   ,   0                      ,   0                      ,   0                      ,   0                        },
        {  -0.277065632823858043   ,   0.887050595235727046   ,  -0.394026717573246976   ,   1.01096618589900134    ,   0                      ,   0                      ,   0                      ,   0                        }
      },
/* Mode 1 (1,1) */
      {
        {  -0.00167694131508754171 ,  -0.0773962641551783487  ,   0.212168795513120956   ,  -0.136344495852055575   ,  -0.0112618156967496212  ,  -0.0642583680481110531  ,  -0.0113476556840593525  ,  -0.0288998049119528547  ,   0.00387056614365733969 ,  -0.0648228028178276933  ,   0.0189228124370169094  ,   0.0509300529252545431    },
        {  -0.011544794095899813   ,   0.10333075640036074    ,  -0.240668697627818062   ,   0.413193897913633479   ,   0.026631340969534973   ,   0.0267310488674857016  ,  -0.12021734369489176    ,   0.124724354576993324   ,   0.0420361840644611143  ,  -0.0519276737182224266  ,   0.19536191408779921    ,   0.0575030519362071113    },
        {   0.109164493054205919   ,  -0.102089439294096446   ,   0.172651716161007551   ,   0.164722373203303574   ,  -0.00711593835303713645 ,  -0.00719749623630280746 ,   0.0686961641888272079  ,   0.215056469991222465   ,  -0.00923221268865434021 ,   0.279580076524505394   ,  -0.181053934634481578   ,   0.0642213693287662785    },
        {  -0.0709643282642686696  ,  -0.28432492412875976    ,  -0.632691839752770213   ,   4.60659717654395541E-05,   0.0329064414309751044  ,  -0.227406087691366776   ,  -0.385613871321662305   ,   0.158740977499297525   ,   0.0276692489682206326  ,  -0.349414576865569204   ,   0.33240464662919178    ,  -0.330135143274706278     },
        {   0.0104413250118775315  ,   0.0796929292127537825  ,  -0.234202818473135843   ,   0.492066386887328067   ,   0                      ,   0                      ,   0                      ,   0                        },
        {  -0.00300932624521040894 ,  -0.0811457889526704251  ,   0.0308346262760170846  ,  -0.146792353897407885   ,   0                      ,   0                      ,   0                      ,   0                        },
        {  -0.189669817954373182   ,  -0.172938954045916915   ,   0.419756879312624953   ,  -0.139974855989993902   ,   0                      ,   0                      ,   0                      ,   0                        },
        {  -0.127608695183428072   ,   0.0380506200171761358  ,   0.103575774143023699   ,   0.425123548517211292   ,   0                      ,   0                      ,   0                      ,   0                        }
      },
/* Mode 1 (1,2) */
      {
        {  -0.00421700302942059138 ,  -0.0148000509093881502  ,   0.0522059374604669779  ,  -0.10532135664272424    ,   0.00508780437253128406 ,  -0.0257520285598543258  ,  -0.0713395140695629454  ,  -0.0835165146297499744  ,  -0.00518502931511170828 ,   0.0196063618507396238  ,  -0.00691322727418580609 ,   0.090557044317913199     },
        {   0.0123137856072511355  ,   0.131557099165421076   ,  -0.133767128753835229   ,   0.0951557143687131041  ,   0.0139168568091774351  ,  -0.0316011586068322692  ,   0.267118465643139236   ,   0.0772914984998035876  ,  -0.0399554337394057851  ,  -0.0296904340205070838  ,   0.0792184547209916073  ,   0.135934953136163356     },
        {   0.0218840274945213409  ,   0.185889560221078526   ,  -0.0364727905878396708  ,   0.100158567387446371   ,  -0.0834871150134727374  ,   0.0618116403980474988  ,   0.304181513307217322   ,   0.185714272227002819   ,   0.0709353718937405231  ,  -0.0524616300968856267  ,   0.025063204891029086   ,  -0.252239753758435326     },
        {  -0.202842908208759748   ,  -0.0633844362825920077  ,  -0.114680804570938322   ,  -0.299062125239742183   ,  -0.115491051150972218   ,   0.22300316378288304    ,   0.338342414808583125   ,   0.268290597619180782   ,  -0.0830176386941035432  ,  -0.108321109878925029   ,  -0.293645387437983518   ,   0.259825298464152976     },
        {   0.00334703253630042486 ,   0.00701841620724019156 ,  -0.0887159873461822596  ,   0.0247975671935152485  ,   0                      ,   0                      ,   0                      ,   0                        },
        {   0.0060118037556574919  ,  -0.09124948366071918    ,   0.15572995546739718    ,  -0.0916430942310291902  ,   0                      ,   0                      ,   0                      ,   0                        },
        {  -0.0323422400918886785  ,  -0.0483898323774081332  ,   0.198371213917526074   ,  -0.0370828241889603546  ,   0                      ,   0                      ,   0                      ,   0                        },
        {   0.0484837501189964715  ,  -0.169651978425866823   ,   0.177194850040229251   ,   0.0650162812327742118  ,   0                      ,   0                      ,   0                      ,   0                        }
      },
/* Mode 1 (1,3) */
      {
        {   0.00558835183793930136 ,   0.00878671952465053668 ,  -0.0617777067648738326  ,   0.00690981090514576363 ,  -0.0031537969571750965  ,  -0.00149009663651654477 ,   0.0189224284131237971  ,  -0.0924833812344781486  ,   0.00111772390223227559 ,  -0.0138292811694330116  ,  -0.028435308531178316   ,  -0.0678168084887877248    },
        {   0.0149463518764325533  ,  -0.0771732348418271014  ,   0.103021251348596521   ,  -0.065611218620053563   ,   0.0118950580933974721  ,  -0.00385864295626722796 ,  -0.065581309154434636   ,   0.180030388117067786   ,  -0.00182399201564839206 ,   0.0622117548277745028  ,  -0.0107272115308806853  ,  -0.0422741823009429862    },
        {  -0.105312873976705759   ,   0.169040456242117859   ,  -0.0474125735522563652  ,   0.00601607770109012334 ,   0.00937354500050804201 ,   0.0227051986912767262  ,  -0.0525322724296253263  ,  -0.187997073206259302   ,  -0.103446168062742136   ,   0.0900918067366320713  ,  -0.0318344581674245841  ,   0.0488117127797111569    },
        {   0.0420877223528341726  ,  -0.220754431625172609   ,   0.126567303137166298   ,   0.156443535724412774   ,   0.0591109637758878981  ,   0.0697903814407248163  ,   0.102364521658537461   ,  -0.182310554815681092   ,   0.0109806843632425533  ,   0.169292769031136242   ,  -0.331631798142327905   ,  -0.00340718994547941755   },
        {  -0.00226964632709865432 ,  -0.00631828527851770096 ,   0.0146254852563300463  ,   0.015638810825571333   ,   0                      ,   0                      ,   0                      ,   0                        },
        {   0.0221393669563768707  ,  -0.075369689020989436   ,   0.0823701948433577108  ,  -0.0034242741745612584  ,   0                      ,   0                      ,   0                      ,   0                        },
        {   0.0431414535145032557  ,  -0.187595410532374968   ,   0.141004631844078604   ,  -0.134061908202558672   ,   0                      ,   0                      ,   0                      ,   0                        },
        {   0.00529193997785889093 ,  -0.278016370398832313   ,   0.289485575212335866   ,   0.0571893120528015123  ,   0                      ,   0                      ,   0                      ,   0                        }
      }
    },
    {
/* Mode 1 (2,0) */
      {
        {   0.0107773983135503338  ,  -0.030491527204057664   ,  -0.386210566368590968   ,  -0.320204917333889505   ,  -0.01012923873420064    ,  -0.0266685636043476892  ,   0.0377178549913101194  ,   0.0741888036070137286  ,   3.92476389194661404E-05,   0.000207303049002187877,  -0.0511835814796989252  ,   0.0199469531601627059    },
        {  -0.109078692499225416   ,  -0.206328960271034673   ,   0.0943422095008138728  ,  -0.316328317647576518   ,  -0.130508668022574797   ,   0.027913798159414159   ,  -0.112523193338092686   ,   0.126742177815368312   ,   0.0103030699295165173  ,   0.0290805042922536935  ,   0.0866951785051300466  ,   0.0580273932411038487    },
        {  -0.0140106039765217245  ,   0.0836324895481600078  ,  -0.20578900774400094    ,   0.00336997504658475373 ,   0.193519837812355433   ,  -0.210987442736629754   ,   0.00210852736580970871 ,  -0.536812835417454948   ,   0.277271019077310776   ,  -0.167267177966043207   ,  -0.438124278906127318   ,  -0.416531834950733759     },
        {  -0.185734878709630208   ,   0.224437535307956487   ,   0.287161723628375498   ,  -0.35177781011703485    ,  -0.0667602606523647196  ,  -0.169638332823952687   ,   0.375555674749963542   ,   0.262858389040526608   ,  -0.0709463681997869883  ,   0.319534551535714251   ,   0.684896729550981354   ,   0.185089114059418025     },
        {  -0.00847642905709552509 ,  -0.0378934022203052598  ,  -0.059975395071649569   ,  -0.00273845949394077625 ,   0                      ,   0                      ,   0                      ,   0                        },
        {  -0.0393100298204663856  ,   0.08444280106389708    ,   0.108624215997046664   ,   0.024999632461874307   ,   0                      ,   0                      ,   0                      ,   0                        },
        {   0.0372809691033341231  ,  -0.132698827504785483   ,   0.0884725246817659045  ,  -0.0479543756101329516  ,   0                      ,   0                      ,   0                      ,   0                        },
        {   0.0367469054513303583  ,   0.146379345687608492   ,  -0.0814052131498592124  ,  -0.123549436818200617   ,   0                      ,   0                      ,   0                      ,   0                        }
      },
/* Mode 1 (2,1) */
      {
        {   0.00187764454079314479 ,   0.0299978726657695906  ,   0.0386711004194233848  ,   0.105080602925803901   ,  -0.00374406908097982922 ,   0.0305187402283242405  ,   0.0200720041947361864  ,   0.0980650810098768477  ,   0.000532111192993755676,   0.0160149641917604682  ,  -0.0226449400476779091  ,   0.0842204764283562002    },
        {  -0.0117062427159779544  ,   0.0846783403289411291  ,  -0.00820016231244637302 ,   0.0543647978532788706  ,  -0.016811077526577109   ,  -0.095294387342105269   ,  -0.18569729220820072    ,  -0.244296492744889626   ,  -0.0590097931028698008  ,   0.0402554619381345485  ,  -0.0132783027013746516  ,   0.0359687044415589671    },
        {   0.0920181239800669237  ,  -0.234951764813661701   ,   0.0876642026308782629  ,  -0.352453521979804452   ,   0.0122388583765772954  ,   0.0436396707314254811  ,   0.0352039750314086658  ,   0.190234541529629042   ,   0.0626713139692497007  ,   0.0290243145071506399  ,   0.0205285446413966816  ,  -0.0747965107305341714    },
        {  -0.214766508919356114   ,  -0.060592984745218223   ,   0.288605910211211181   ,  -0.0062987730910938405  ,  -0.182852385075290558   ,  -0.144737200743879552   ,   0.0686943577701197849  ,   0.00796881088280406401 ,  -0.184865286037867366   ,  -0.0334480464073572542  ,  -0.228185927209059086   ,  -0.195593230050102679     },
        {  -0.00095973788268668796 ,  -0.00935008881909319897 ,  -0.031624023572936151   ,  -0.00294131806315453418 ,   0                      ,   0                      ,   0                      ,   0                        },
        {  -0.0328850114158951365  ,   0.119703672939914296   ,  -0.119583667454794859   ,  -0.0645655235549782436  ,   0                      ,   0                      ,   0                      ,   0                        },
        {  -0.0218635037895821456  ,   0.185796177191004885   ,  -0.318677636036412859   ,   0.123030385278283319   ,   0                      ,   0                      ,   0                      ,   0                        },
        {  -0.0939288457490969064  ,  -0.0386449794387075662  ,  -0.0375224087804873693  ,   0.0857260398530147877  ,   0                      ,   0                      ,   0                      ,   0                        }
      },
/* Mode 1 (2,2) */
      {
        {   0.00335735410850475455 ,  -0.0180300167660876025  ,   0.00776651933019869081 ,  -0.051501197483586475   ,  -0.00308290585521815144 ,  -0.00433567803025613867 ,   0.0113054541571857431  ,   0.00655180470527722773 ,   0.00039504305219059308 ,   6.51532256745746132E-05,   0.0270650110687127958  ,   0.00873576404032594227   },
        {  -0.011645657111166571   ,   0.0126818518854270833  ,  -0.129707736169094812   ,   0.0417404277289289208  ,   0.0180087171894306418  ,   0.0275100787414626277  ,  -0.0667684476720962067  ,  -0.0449542245754443529  ,  -0.00597435693006231634 ,  -0.00742849217812032239 ,   0.0422834170255141917  ,   0.0164993721703177859    },
        {  -0.0404101860174469751  ,  -0.00228798881042317727 ,  -0.0567639955658156489  ,  -0.0593456601485848056  ,  -0.0165384534552435979  ,  -0.0861570320396803369  ,  -0.0173164158722099622  ,   0.0157725861048239914  ,   0.0128934894384552679  ,   0.0104924784007565421  ,  -0.208372567981369966   ,  -0.10108883963782897      },
        {   0.0315264968013658914  ,   0.000215570669366017147,  -0.0891077558423894051  ,   0.0889688907685756147  ,   0.0680452949879082197  ,   0.154554129847306043   ,  -0.0131895782947444758  ,   0.00829089845661960118 ,   0.0330721435911375677  ,   0.122561517303724665   ,   0.049507154523248581   ,   0.144328025735445231     },
        {  -0.000622275544805319823,   0.00110077219836253785 ,  -0.0610866707053439456  ,   0.0467607924969547367  ,   0                      ,   0                      ,   0                      ,   0                        },
        {   0.00935746705920505011 ,   0.0117021201256968296  ,  -0.0927118702643856263  ,  -0.0241219260754844886  ,   0                      ,   0                      ,   0                      ,   0                        },
        {   0.010622460641794779   ,  -0.0952226489413408039  ,   0.251563378749578126   ,  -0.185943146604238968   ,   0                      ,   0                      ,   0                      ,   0                        },
        {   0.00574620063809853487 ,   0.0137987190047486313  ,   0.0789083783168321035  ,  -0.133513826354693138   ,   0                      ,   0                      ,   0                      ,   0                        }
      },
/* Mode 1 (2,3) */
      {
        {  -0.00188342084551992991 ,  -0.00580351878158567348 ,   0.00144081406150475128 ,  -0.0524640959719296571  ,  -0.000344436075159693295,  -0.00243533361776809279 ,   0.0106286070571734743  ,  -0.0121010583206923768  ,   0.000858564508054117143,  -0.00440025347340018951 ,  -0.0206956846579755653  ,   0.0149161183250187557    },
        {   0.0143480295906164082  ,  -0.0132399690928093894  ,  -0.0115436606769912641  ,  -0.0915312218716962667  ,   0.0011586171537408443  ,   0.00512877859794195253 ,   0.0819866219273405472  ,   0.0360677006499233663  ,  -0.00965381735378359994 ,   0.024021518660917545   ,  -0.00874904332818868778 ,   0.0167214132561013772    },
        {  -0.000713049935794469038,  -0.0468119214179146328  ,  -0.111682886799478048   ,   0.0535170139322737048  ,   0.0748888623582355528  ,   0.0902549680450039082  ,  -0.095348095536911176   ,   0.161551146858232741   ,  -0.0303438638290668729  ,   0.0470279249240874858  ,   0.0417926656063773716  ,   0.0963288805858760616    },
        {  -0.0570791817811410265  ,   0.0339843563454240924  ,  -0.135995142406778263   ,  -0.0686776813974036421  ,  -0.0279587577277731862  ,   0.160196510791497104   ,  -0.118824633926076437   ,   0.0703651356953769319  ,  -0.02527387375413866    ,  -0.105033150406280515   ,   0.00820687398786838426 ,  -0.121141436884608281     },
        {   0.00148099484016513518 ,   0.00747531982600229371 ,  -0.0113670314785848988  ,  -0.0329600864286128323  ,   0                      ,   0                      ,   0                      ,   0                        },
        {  -0.00224268436046139207 ,  -0.0102518100543744252  ,  -0.0387777941193773457  ,  -0.0151267582440242666  ,   0                      ,   0                      ,   0                      ,   0                        },
        {   0.00814819523577576567 ,  -0.0465789458614099885  ,   0.0332139696585502658  ,   0.092026067267685599   ,   0                      ,   0                      ,   0                      ,   0                        },
        {  -0.0263709782318888863  ,   0.0160796325491392306  ,   0.114199126862952208   ,  -0.223223384071542519   ,   0                      ,   0                      ,   0                      ,   0                        }
      }
    },
    {
/* Mode 1 (3,0) */
      {
        {   0.000600411560042006282,   0.0497954782739301258  ,  -0.105460690761943407   ,   0.040637526825967378   ,   0.00953184896708398656 ,  -0.0155330964120393156  ,   0.0949997698759171699  ,  -0.0920189482397892611  ,  -0.00673698268198691299 ,  -0.00353689431026528835 ,  -0.0386083965451949063  ,   0.0567745169371364419    },
        {  -0.0130499325932845883  ,  -0.0448398188383267449  ,   0.0889618864168752049  ,  -0.347288940345345132   ,  -0.0594391457356336361  ,  -0.0769118817244570235  ,   0.040892484117392755   ,   0.145620131485111548   ,   0.0199284852468990976  ,   0.0881143036280527397  ,   0.0799688175545373581  ,  -0.167865255110757228     },
        {  -0.0694184899771699282  ,  -0.0117033841968785732  ,  -0.175960245529438841   ,  -0.168490574139030097   ,   0.0495379596387488588  ,   0.146644886927243007   ,   0.00623394023587552169 ,  -0.101350758360938403   ,   0.135516301087661217   ,  -0.0644196397668387183  ,   0.00849389005026038833 ,   0.372159443095880782     },
        {  -0.0166620357125239447  ,   0.140123884696444795   ,  -0.00337173311465245856 ,   0.304695805431076217   ,   0.179354621320999358   ,  -0.174897380712946415   ,  -0.0290572636642421368  ,   0.0332510422948435122  ,   0.0945425694792463162  ,  -0.00971011393960953886 ,  -0.171314347254063415   ,   0.188885058503013348     },
        {  -0.00337915638616190488 ,  -0.00774318420719045247 ,   0.0907740987387107429  ,  -0.106907995888409699   ,   0                      ,   0                      ,   0                      ,   0                        },
        {  -0.091449326238739706   ,   0.0789422753566934865  ,  -0.164688947700581179   ,   0.332653393453519186   ,   0                      ,   0                      ,   0                      ,   0                        },
        {   0.0371394628868113724  ,   0.00950428719597259594 ,  -0.0894196513310791807  ,   0.50322518964300722    ,   0                      ,   0                      ,   0                      ,   0                        },
        {   0.147691312467551128   ,  -0.472266482632349049   ,   0.00237441495583773062 ,  -0.290663179324654963   ,   0                      ,   0                      ,   0                      ,   0                        }
      },
/* Mode 1 (3,1) */
      {
        {  -0.000276802843090337273,   0.0280050556599095793  ,  -0.0628786349832124725  ,  -0.0102611189498014316  ,   0.00593443600109275389 ,   0.00635202567409095045 ,   0.0488084459881408667  ,  -0.031082069838708936   ,  -0.00268415684345193507 ,   5.13223322667646537E-05,  -0.00307639499148658563 ,   0.0578624267715901128    },
        {   0.0245422998793520981  ,  -0.0556351196160282183  ,   0.104442347543561909   ,  -0.125983325523925077   ,  -0.0348320558106851377  ,  -0.077336909305265919   ,   0.068512200689528957   ,   0.049631554859569417   ,   0.0112318018389835732  ,  -0.0335643164232434579  ,   0.0300983616544042015  ,  -0.104029364508930217     },
        {  -0.0066221619341357953  ,  -0.0324504919846255527  ,  -0.173279380210136169   ,  -0.0443945768402140908  ,  -0.117713960770480366   ,   0.104074194329578568   ,  -0.0538139132207424917  ,  -0.00258871169033679299 ,  -0.00931796341452490774 ,  -0.0886799865952856425  ,   0.0197388706224567514  ,  -0.120325002155080005     },
        {   0.178178112970145713   ,   0.13054058034260177    ,  -0.0697072093772604512  ,  -0.0594728606163259996  ,   0.153352763230069716   ,  -0.079774313582599482   ,  -0.226431854745151234   ,  -0.109807610089342686   ,  -0.00188823937002559426 ,  -0.0754824245914572645  ,  -0.317695996682174242   ,   0.143459153982892829     },
        {  -0.00138505717590520997 ,  -0.0248615236286332635  ,   0.0459254048408296311  ,  -0.108637283826946901   ,   0                      ,   0                      ,   0                      ,   0                        },
        {   0.00719637130525937769 ,   0.0117313585205617629  ,   0.126217520201239386   ,   0.138357939018758647   ,   0                      ,   0                      ,   0                      ,   0                        },
        {   0.0232518329630200214  ,   0.0737044429402813339  ,  -0.156624142279593814   ,   0.344071009549365314   ,   0                      ,   0                      ,   0                      ,   0                        },
        {  -0.0299908311060811984  ,  -0.104772196846887738   ,  -0.132863156482007194   ,   0.100558028466472313   ,   0                      ,   0                      ,   0                      ,   0                        }
      },
/* Mode 1 (3,2) */
      {
        {   0.000607785930253252151,   0.00716021209252629739 ,   0.0224298371752094904  ,   0.072002600481892845   ,  -9.98612208458365979E-05,  -0.00746090864218165381 ,   0.0531525316982501966  ,   0.00490038615400991643 ,   0.000542487461259339235,  -0.00381096882562932887 ,  -0.0349604183912350167  ,   0.00792976218860004696   },
        {  -0.00722494833784788435 ,   0.0680009351845602822  ,   0.0404041849150072463  ,   0.0207455408913137691  ,   0.00446604720049446208 ,  -0.0209006899727198006  ,  -0.0563804206031430014  ,  -0.053603776307985046   ,  -0.01311103004364037    ,  -0.0441157124757579761  ,  -0.00110995728896073464 ,  -0.0616719384216279642    },
        {   0.00249338149665443397 ,  -0.0531219512160797519  ,   0.041612213547918997   ,  -0.178816278628209979   ,   0.0134059090220275574  ,  -0.104067976389996056   ,   0.0645099887810806766  ,  -0.10025341099713822    ,  -0.0381926635134964484  ,   0.0509327356266515777  ,   0.0768190426968128753  ,   0.0498071588605324758    },
        {  -0.0269574855966389845  ,   0.0687358137990433798  ,   0.0403670158610915861  ,  -0.227855453615713383   ,  -0.0239018504508164073  ,  -0.0887609792503068068  ,   0.0268963451748496715  ,   0.0440988739655873777  ,   0.0819159023451767609  ,   0.0244996818462001505  ,  -0.0884335802833440127  ,   0.109805475693580623     },
        {  -4.38905981681625936E-05,   0.0126749088959712489  ,   0.0109315126901021707  ,  -0.00395358366397580412 ,   0                      ,   0                      ,   0                      ,   0                        },
        {  -0.00305149494846169642 ,   0.013704686947287598   ,  -0.0131840096437956314  ,  -0.0338943854202884004  ,   0                      ,   0                      ,   0                      ,   0                        },
        {  -0.0533759676482052983  ,  -0.0262610922187458996  ,   0.0245340561985914543  ,  -0.0269115544114056672  ,   0                      ,   0                      ,   0                      ,   0                        },
        {   0.0340401834426385108  ,  -0.0343929785129946722  ,   0.0514067120972818842  ,   0.167429375404910707   ,   0                      ,   0                      ,   0                      ,   0                        }
      },
/* Mode 1 (3,3) */
      {
        {   0.00280376076184949731 ,  -0.0107768970807506966  ,  -0.00051073238122225056 ,  -0.0542590967148241371  ,  -0.00039250635820961495 ,  -0.00391956927694884442 ,  -0.0184734765851520821  ,   0.0357855359293879766  ,  -0.000743692473822337927,   0.00854591119475321508 ,  -0.0090431295718357025  ,   0.0236094541098360693    },
        {  -0.023429719665535878   ,   0.00468489006896067629 ,   0.0083904800321809303  ,  -0.104728598762533723   ,   0.00701222266096114717 ,   0.0158534713504212936  ,  -0.0462636987628922969  ,   0.0422999972079961886  ,   0.00889659791926457159 ,   0.0138615960292972785  ,  -0.0396056181783598985  ,   0.00101208297066426563   },
        {   0.0249986442312501514  ,  -0.026672911536812588   ,   0.0253603957850681641  ,  -0.108434886587252255   ,  -0.0178944122966929464  ,  -0.0260567392362307873  ,   0.010290568690326506   ,  -0.00351059753327929557 ,   0.00886684847784152165 ,  -0.059122876550761122   ,   0.0747358377439679422  ,  -0.0774740645677414741    },
        {   0.0205995054103047838  ,   0.00226756844003218015 ,  -0.0176997348843984104  ,   0.038972373294684351   ,  -0.0287696934389879803  ,   0.0525275465071597253  ,  -0.0993656294458327843  ,   0.0104519173102307298  ,  -0.0348147683193242782  ,   0.07441481057994416    ,  -0.0206787048809044249  ,  -0.0240418888342913382    },
        {  -0.00185282944132358104 ,  -0.00132808257042094568 ,   0.000742968600059542086,   0.0594755638298841288  ,   0                      ,   0                      ,   0                      ,   0                        },
        {  -0.00822186079505907337 ,   0.0185050611991213303  ,  -0.00854616522122251913 ,  -0.0564319691089566478  ,   0                      ,   0                      ,   0                      ,   0                        },
        {  -0.017929177300524516   ,  -0.0260685417944780014  ,  -0.124150916028095443   ,   0.0382372333689853725  ,   0                      ,   0                      ,   0                      ,   0                        },
        {   0.0640610058718015796  ,  -0.0142280092024096513  ,   0.0833593735815007231  ,  -0.0654487439867970644  ,   0                      ,   0                      ,   0                      ,   0                        }
      }
    }
  },
  {
    {
/* Mode 2 (0,0) */
      {
        {  -0.119312621237024991   ,  -0.0424505972636163922  ,   0.173394658069873392   ,  -0.487347295556827542   ,  -0.273906774761771499   ,   0.214408696787157627   ,  -0.824168648340733445   ,  -0.631798391139703486   ,   0.220737540040614716   ,  -0.199789240919013261   ,  -0.780490838527711728   ,   1.03969246036520402      },
        {  -0.21284800274141874    ,  -0.325324798556996697   ,  -0.100111972417080267   ,  -0.199170385652759047   ,   0.490429482378376913   ,   0.166376317155994713   ,  -0.43840123793091601    ,  -0.113343876738599303   ,  -0.293735590422386228   ,   0.514529699918919281   ,   0.0312693595426800919  ,   1.42278486547778638      },
        {   0.191954477724882139   ,   0.0914131448514025474  ,  -1.21884789450669007    ,  -2.04087207017014238    ,  -0.805935104849509809   ,   0.910174641454153832   ,   0.172631530664293015   ,  -0.371542435832448836   ,  -1.15092499934947345    ,  -1.26144498929010784    ,   0.365988906268049752   ,   0.0712011556750874325    },
        {  -0.390522624100609173   ,  -0.796407129129171332   ,  -0.986387549283427978   ,  -1.08920023467848037    ,   0.311121658239704335   ,   1.80237080716265319    ,  -0.107194230776774105   ,   0.526918933804521816   ,   0.164706896524999202   ,   0.37357406801692955    ,  -1.16586715798726237    ,  -0.276553121627985288     },
        {   0.985688488768797222   ,  -1.43448691089834024    ,   0.285941191775110959   ,  -0.520265511455897278   ,   0                      ,   0                      ,   0                      ,   0                        },
        {  -0.888611200825012215   ,   2.04187726652941759    ,  -0.401013222876184128   ,   0.647874661152902709   ,   0                      ,   0                      ,   0                      ,   0                        },
        {   0.454785515744506652   ,  -2.41762428007401198    ,   2.34256934376616144    ,  -1.16503381746044377    ,   0                      ,   0                      ,   0                      ,   0                        },
        {  -0.883791397090533004   ,   2.53300464922086199    ,   0.110288668480338609   ,  -0.0906695619331985142  ,   0                      ,   0                      ,   0                      ,   0                        }
      },
/* Mode 2 (0,1) */
      {
        {   0.0149581899516951829  ,  -0.0494190260444973967  ,   0.222666938750982452   ,   0.110586827407355481   ,   0.0154299002118450171  ,  -0.151337249193053636   ,   0.146068597957120461   ,  -0.0309151681308245559  ,  -0.0128427651749366961  ,  -0.0538319451491917275  ,   0.0107486989831453248  ,  -0.178145178345909982     },
        {  -0.00606585583980316645 ,   0.2197790147205258     ,  -0.321157049549203766   ,  -0.044068309091354077   ,  -0.0544100245684207076  ,   0.18366633658022094    ,   0.177589416918834425   ,  -0.102323653909139542   ,  -0.0390180321821812434  ,  -0.0836004117443242545  ,   0.208226527191359784   ,  -0.142473446995112274     },
        {  -0.010544375911736523   ,  -0.032467023888059901   ,  -0.021235142825167759   ,  -0.141205266796633977   ,   0.105244498942826448   ,   0.175930831701360479   ,  -0.194218188373611822   ,   0.203106452514237951   ,   0.0373112728812312125  ,   0.116281063348914096   ,   0.110211058716763427   ,   0.23726486342344888      },
        {  -0.00637102912139683036 ,   0.107947088949451916   ,   0.28514442633894016    ,   0.489943611071724516   ,  -0.140856165441330283   ,  -0.162868818186545861   ,  -0.0549120300185136773  ,  -0.421516073742810471   ,  -0.154061539409171139   ,  -0.0968992253574041534  ,  -0.00737738158613252242 ,  -0.787147514555418315     },
        {  -0.00964541490225568482 ,  -0.178604432643446803   ,   0.443919980985376217   ,  -0.146710154796845405   ,   0                      ,   0                      ,   0                      ,   0                        },
        {   0.0488684794744270387  ,  -0.256108297191539158   ,   0.139739033401397317   ,   0.334512170281312859   ,   0                      ,   0                      ,   0                      ,   0                        },
        {   0.0767362995864537129  ,   0.412549858490814492   ,  -0.303589600400128834   ,   0.659223377447207382   ,   0                      ,   0                      ,   0                      ,   0                        },
        {  -0.0557936969746768777  ,  -0.00696020397015618617 ,   0.358549862261055841   ,   0.579306294516702902   ,   0                      ,   0                      ,   0                      ,   0                        }
      },
/* Mode 2 (0,2) */
      {
        {  -0.00490142480399452431 ,  -0.0451437347103201894  ,   0.114443423512761835   ,  -0.0750366502832041649  ,   0.00165727686948948395 ,   0.024151445097883098   ,  -0.296070546521505218   ,  -0.121461241477456336   ,   0.000209840177318447072,   0.0066413163971860709  ,   0.0129180312194696421  ,   0.120519654252097708     },
        {   0.0100376363072473308  ,   0.00444584392484829918 ,   0.0127536255269275547  ,   0.000912090474389170799,  -0.0101436722324906182  ,   0.0268889723817089324  ,   0.184032423891433927   ,  -0.0973305633679233118  ,   0.000250314360356138012,   0.017862375009353379   ,  -0.0634514860153461008  ,  -0.00783061959544572271   },
        {   0.0770597496270421095  ,   0.00950458424387861864 ,   0.181270309087881332   ,  -0.105640341269693863   ,  -0.0567822852119155494  ,  -0.0762299792187796782  ,   0.0435231825412133941  ,   0.0300213469761562365  ,  -0.0373377985559179768  ,  -0.0451857390771324627  ,  -0.143583647857100344   ,  -0.00335468027679538096   },
        {   0.0632438755057346952  ,   0.0937175973943939616  ,   0.276547770270358761   ,  -0.251777319519646381   ,  -0.109264882256493764   ,  -0.0449326320301781518  ,  -0.108516599077913778   ,   0.240627951358287157   ,  -0.00596589083252219935 ,  -0.0274587309831183755  ,  -0.0177102845718832454  ,   0.152529939765156553     },
        {   0.00261706460463702328 ,  -0.10766893209063523    ,   0.223712997233102312   ,  -0.24660320310335615    ,   0                      ,   0                      ,   0                      ,   0                        },
        {  -0.00889661289973873309 ,   0.00659902751676622393 ,  -0.0446643620941205299  ,  -0.0834117081923270859  ,   0                      ,   0                      ,   0                      ,   0                        },
        {   0.0174010712847651738  ,  -0.0293272832087594498  ,   0.00101890862188412732 ,   0.0992281873318887897  ,   0                      ,   0                      ,   0                      ,   0                        },
        {  -0.0255664209032288661  ,   0.0158249733855508092  ,  -0.0811536186341876853  ,  -0.443531686477954046   ,   0                      ,   0                      ,   0                      ,   0                        }
      },
/* Mode 2 (0,3) */
      {
        {  -0.00138736354923417069 ,  -0.00120495977678848512 ,   0.0572157304985922363  ,   0.0417843564631929718  ,   0.00185839030207652018 ,   0.00477500940230909075 ,  -0.0422909555228108136  ,  -0.248322337177020735   ,  -0.00095711454520871716 ,   0.00751979316326055729 ,  -0.00850132568158037775 ,   0.0223240115606192745    },
        {   0.000614226198101584233,  -0.0215799560711591454  ,  -0.0246170671253115869  ,   0.00293765339350863424 ,  -0.0111119350301703158  ,  -0.00625097367336072303 ,  -0.0109898964558243443  ,   0.10098648585485541    ,  -0.00571454186586597013 ,  -0.0438245087728345861  ,   0.0940801544728928074  ,   0.0197904399833306981    },
        {  -0.0103787804265902429  ,   0.00133613132928108846 ,  -0.000769382263654762289,   0.0721522148437656885  ,  -0.033863791040081255   ,   0.0326482711146012239  ,  -0.1222415309003997     ,   0.185009969327565277   ,   0.0158006777707259474  ,  -0.0294443148923484686  ,  -0.00148356966931568308 ,  -0.0868806812161472819    },
        {  -0.0952567646363446929  ,  -0.0329115510807425696  ,  -0.0417123464768886024  ,  -0.120003939604785823   ,   0.041883683538481313   ,   0.0873709891158711283  ,   0.0107371699182720829  ,   0.0825667807760917943  ,   0.0496438966925826716  ,   0.0390343505849027675  ,   0.0638409263973835628  ,  -0.0340684111517243482    },
        {  -0.00045395328147635253 ,  -0.015586880666531305   ,   0.036578253944586997   ,  -0.119104264872918128   ,   0                      ,   0                      ,   0                      ,   0                        },
        {  -0.00524248534180929947 ,   0.0335101658517862958  ,   0.0972868493511747784  ,  -0.00353526245236193692 ,   0                      ,   0                      ,   0                      ,   0                        },
        {  -0.0286317511279519966  ,  -0.0481325647357815772  ,   0.0104899863343143607  ,  -0.35369163032033285    ,   0                      ,   0                      ,   0                      ,   0                        },
        {   0.0119226592426044612  ,  -0.0115761117716455756  ,  -0.0820855462873062436  ,  -0.17602154436971354    ,   0                      ,   0                      ,   0                      ,   0                        }
      }
    },
    {
/* Mode 2 (1,0) */
      {
        {   0.0415272346724610761  ,  -0.0345438546671644753  ,  -0.222771851625699957   ,  -0.0803250783159834003  ,  -0.00604609529169694224 ,  -0.118867638262668066   ,   0.0329424129532306098  ,   0.392250370973989959   ,  -0.000613876561418518407,   0.0938786353843165805  ,   0.289657235095166721   ,  -0.586569847091963026     },
        {   0.104464178307441383   ,   0.128220955188278696   ,  -0.10332863266478641    ,  -0.126338814883307171   ,  -0.143156591285079876   ,   0.249089258782615397   ,   0.280099712903807252   ,   0.0870004227296047317  ,  -0.183338422252999761   ,  -0.497274199454760757   ,  -0.222814735625330412   ,  -0.667991771066808848     },
        {   0.0333927642820029749  ,  -0.418603489988215394   ,   1.06792157711476787    ,   0.0965624611767917224  ,   0.383248488230612361   ,  -0.741053151964497503   ,  -0.469612472452538454   ,  -0.136056365464940709   ,   0.632284216742387994   ,   0.590856087437490629   ,  -0.209987433534446793   ,  -0.145782043461593236     },
        {   0.16658014101527005    ,   0.211281706524840768   ,   0.404183935734817978   ,  -0.280082648404701928   ,  -0.0416510662687233704  ,  -0.565967966527308186   ,   0.240383635087873332   ,   0.543493892825074876   ,  -0.153393541781375459   ,  -0.135771496008178866   ,   0.0648253840808833831  ,  -0.44059482549100909      },
        {   0.0426452204150783304  ,  -0.0697586813805079614  ,   0.393203675494278204   ,  -0.950382694338835488   ,   0                      ,   0                      ,   0                      ,   0                        },
        {   0.163675859135953283   ,  -0.490068953740297408   ,  -0.235106243203842241   ,  -0.273773987228623228   ,   0                      ,   0                      ,   0                      ,   0                        },
        {  -0.480672244662555925   ,   0.945949179297168929   ,  -1.54510946289792228    ,   0.102501005602595244   ,   0                      ,   0                      ,   0                      ,   0                        },
        {   0.666333228555217261   ,  -1.15152271223385005    ,   0.361412880399671843   ,  -0.508969326173173697   ,   0                      ,   0                      ,   0                      ,   0                        }
      },
/* Mode 2 (1,1) */
      {
        {  -0.00298878896680369746 ,   0.017949282673826783   ,   0.212780196085198048   ,   0.353748409512582962   ,   0.0256113952723420434  ,  -0.129296375488244547   ,  -0.0324790513761306632  ,   0.216658670318707086   ,  -0.0211800188814091107  ,   0.0214290763797131099  ,   0.0139245737698262973  ,   0.0743561585919051971    },
        {  -7.01409557510925832E-05,   0.117268567651244424   ,  -0.091885603408471267   ,  -0.0688227334019888282  ,  -0.0153619334368428652  ,   0.0139995977542369081  ,   0.069001342689482062   ,  -0.106369757977669982   ,   0.016995192057388038   ,  -0.140715744412035354   ,  -0.300327849478105091   ,  -0.0637936039676532396    },
        {  -0.0662461426761292577  ,  -0.0286833693838103761  ,   0.120195514688794802   ,  -0.210706237610812586   ,   0.0242013717998829821  ,  -0.0186049940718564163  ,  -0.455896255756766289   ,  -0.114815219358720716   ,  -0.165699907853733147   ,   0.0616574225270168225  ,   0.128601123745255341   ,  -0.172258481123989865     },
        {   0.108896154818648672   ,  -0.243491480194590187   ,   0.234526931292148827   ,   0.226823864704317257   ,  -0.111904809627924623   ,  -0.206032773077945819   ,   0.153259922270317178   ,  -0.0799067052166290981  ,  -0.044484878330469331   ,  -0.175792351024465832   ,  -0.13582114036647111    ,  -0.316097989613610353     },
        {   0.00247502200118019126 ,   0.0705014361134475714  ,  -0.319040226234825308   ,   0.231003940932674123   ,   0                      ,   0                      ,   0                      ,   0                        },
        {   0.0396004554670853423  ,  -0.351419912508381949   ,   0.282521216581163859   ,  -0.480472841675406881   ,   0                      ,   0                      ,   0                      ,   0                        },
        {  -0.0468732273679423328  ,   0.00398571607942365107 ,   0.442115650202172583   ,   0.527049428074567672   ,   0                      ,   0                      ,   0                      ,   0                        },
        {   0.108079958165652912   ,   0.0884625171235631225  ,  -0.619708139620797849   ,   0.373440235083410788   ,   0                      ,   0                      ,   0                      ,   0                        }
      },
/* Mode 2 (1,2) */
      {
        {   0.000746863310395947614,  -0.0393101030374724617  ,   0.0663055854845846088  ,  -0.163311256187059467   ,   0.00215195543112166364 ,  -0.0562618403245505119  ,  -0.121800866886657533   ,  -0.0600160379270846533  ,  -0.00465499284584891971 ,  -0.00762030366725869029 ,  -0.14795598342989974    ,   0.0803633625285046643    },
        {   0.00980041999629909302 ,   0.0245665939044201059  ,  -0.055526238900413985   ,   0.109560661820272728   ,  -0.0185390888184746895  ,   0.0210657555291425963  ,   0.0910273544388337935  ,  -0.0676176237151398796  ,  -0.00371144938124980074 ,  -0.0288843932491687251  ,  -0.0410878237779454467  ,   0.0642317011456598891    },
        {   0.0208223615625935873  ,  -0.00697871392382305115 ,   0.06922871506582777    ,  -0.0543850908586645254  ,  -0.0375898201287346301  ,  -0.0730423389949762109  ,   0.0373164283234040384  ,   0.0566644658095553158  ,   0.0123853428335021411  ,   0.00783720162505741752 ,  -0.0503397606381273746  ,  -0.201469944588831273     },
        {   0.0127686868847290448  ,  -0.113868121192317234   ,   0.127120684487533525   ,   0.109765208898647132   ,   0.121331324430191581   ,   0.030332614520863669   ,  -0.0503181989214691108  ,  -0.0396003368097675723  ,   0.0196813764587242084  ,  -0.0405314087442389046  ,  -0.0901474741662349754  ,  -0.191867643732763493     },
        {   0.0041434686820000623  ,  -0.0221039407191964549  ,  -0.0378062231924224459  ,  -0.115299873556441779   ,   0                      ,   0                      ,   0                      ,   0                        },
        {   0.00294886375836539254 ,  -0.0976519789557956236  ,   0.077933323367734994   ,   0.071410151043197298   ,   0                      ,   0                      ,   0                      ,   0                        },
        {   0.0282229038308656824  ,  -0.00384170495437452823 ,   0.0760735970151848601  ,  -0.15080144706719964    ,   0                      ,   0                      ,   0                      ,   0                        },
        {  -0.0969737805740950587  ,  -0.0530192082970392525  ,  -0.00895791554371485124 ,  -0.0827499772947008633  ,   0                      ,   0                      ,   0                      ,   0                        }
      },
/* Mode 2 (1,3) */
      {
        {   0.001772109208611981   ,  -0.0305542288937430927  ,  -0.0050122920739354461  ,  -0.00776961813765493156 ,  -0.00663290531652354753 ,   0.0174877383082740374  ,   0.0319253882109310008  ,  -0.198960988234507391   ,   0.00428832289812342525 ,   0.0162893377677619348  ,  -0.061663850734814063   ,   0.0235345819099760795    },
        {   0.0184442603529077764  ,   0.000221361141061677825,  -0.0186662080495549505  ,  -0.0199323888127369252  ,  -0.0126501578684211375  ,   0.030098556187641453   ,   0.109400100570750211   ,   0.106555620994942798   ,  -0.00649192753667145357 ,   0.00287168912864356257 ,   0.10714140137467687    ,   0.0616242659823868777    },
        {  -0.041803753932187708   ,  -0.055566513757193646   ,  -0.222429147586625797   ,  -0.0958784374881878343  ,  -0.0104596404898918711  ,   0.051455722930883345   ,  -0.0664477155178697931  ,   0.398204597590110787   ,   0.00695221469388219299 ,   0.0392214424985112831  ,   0.00868259776082125866 ,   0.0755809658260659378    },
        {  -0.0302996334314433249  ,  -0.00156130162263298225 ,  -0.0486192146469704781  ,   0.170479921852387833   ,   0.0386150053222922146  ,   0.142076027485936313   ,   0.0808491649224881148  ,  -0.0683117570865846846  ,  -0.0214425261955881463  ,   0.0414483675454048878  ,   0.037904093148369955   ,   0.107030117116230575     },
        {  -0.00164573156290765549 ,   0.0112710053943024385  ,   0.00978679142914335755 ,   0.172138959555959759   ,   0                      ,   0                      ,   0                      ,   0                        },
        {   0.015656995950597663   ,  -0.00501897676292638144 ,   0.013395596278876756   ,  -0.0146635348380556307  ,   0                      ,   0                      ,   0                      ,   0                        },
        {   0.0248294877048470565  ,   0.0663317774976805719  ,   0.0270542253829560604  ,  -0.0644995440268694431  ,   0                      ,   0                      ,   0                      ,   0                        },
        {   0.0257865715969310648  ,   0.00920864780803888963 ,   0.105969730310591134   ,  -0.0128284473905178401  ,   0                      ,   0                      ,   0                      ,   0                        }
      }
    },
    {
/* Mode 2 (2,0) */
      {
        {  -0.00863356875698560906 ,  -0.030580539453025711   ,   0.0993215076065840918  ,  -0.100290475400530765   ,  -0.0254873458879275004  ,  -0.0232603725386575297  ,  -0.233208104366720237   ,  -0.114792129614553137   ,   0.00421783457674622993 ,   0.0253904044604268478  ,  -0.0830676326126620346  ,  -0.0791300312516442228    },
        {  -0.0132315989202808088  ,   0.101613990299572743   ,   0.00961431411220061219 ,   0.038176487154643661   ,  -0.0303296100492618723  ,   0.0447385692797617682  ,   0.0158867296697277199  ,  -0.0408082260653599635  ,  -0.0211299201213803849  ,  -0.0625301097785988524  ,   0.120332326955051624   ,  -0.0875253836286173786    },
        {   0.0298121717760566167  ,   0.00904428879362962485 ,   0.169692442722620407   ,   0.0147812235327946205  ,   0.0920142343002631619  ,  -0.224503584860185373   ,  -0.0667250203180930757  ,  -0.312420339285892024   ,  -0.0918626107550905152  ,   0.0811831230342905663  ,  -0.106912180474642932   ,   0.271044545473165699     },
        {  -0.132260434142277811   ,   0.156737041486837148   ,  -0.154948440215175981   ,  -0.109731480528945199   ,  -0.217006186619580294   ,  -0.155123671376896421   ,   0.00302062304686074928 ,  -0.0665085046203451741  ,   0.0513458096917383464  ,  -0.0291641173826151269  ,  -0.286357732191387271   ,   0.136482973689602605     },
        {   0.0289138838940497071  ,  -0.0229704152569826722  ,  -0.127213896885724737   ,  -0.268202587063005982   ,   0                      ,   0                      ,   0                      ,   0                        },
        {   0.0838660362046354108  ,  -0.109765659734315166   ,   0.154731545716945085   ,  -0.068232005664379855   ,   0                      ,   0                      ,   0                      ,   0                        },
        {  -0.286713180776259124   ,   0.17100237609468516    ,  -0.140035103141716938   ,  -0.0701180542220820741  ,   0                      ,   0                      ,   0                      ,   0                        },
        {  -0.0688433036298485845  ,   0.269064495878546084   ,  -0.0587745242384076355  ,   0.272254197615980742   ,   0                      ,   0                      ,   0                      ,   0                        }
      },
/* Mode 2 (2,1) */
      {
