#include "intra.h"

int OD_PRED_MULTS_4x4[OD_INTRA_NMODES][4][4]={
/* Mode 0 */
  {
    {  14,   4,   3,   2   },
    {  11,   6,   3,   2   },
    {   3,   6,   3,   0   },
    {   2,   2,   2,   1   }
  },
/* Mode 1 */
  {
    {  12,   6,   8,   4   },
    {   6,   1,   0,   2   },
    {   6,   1,   4,   4   },
    {   2,   0,   4,   4   }
  },
/* Mode 2 */
  {
    {  17,   6,   3,   0   },
    {  15,   3,   2,   0   },
    {   9,   2,   2,   0   },
    {   3,   1,   1,   0   }
  },
/* Mode 3 */
  {
    {  11,   4,   5,   0   },
    {  11,   6,   5,   2   },
    {   5,   5,   2,   0   },
    {   2,   4,   2,   0   }
  },
/* Mode 4 */
  {
    {  10,   6,   3,   0   },
    {  13,   4,   2,   1   },
    {  12,   2,   1,   0   },
    {   5,   3,   2,   0   }
  },
/* Mode 5 */
  {
    {  24,   5,   2,   0   },
    {  12,   7,   2,   0   },
    {   4,   4,   1,   0   },
    {   0,   2,   1,   0   }
  },
/* Mode 6 */
  {
    {  10,  17,  10,   5   },
    {   4,   8,   1,   1   },
    {   2,   2,   0,   1   },
    {   3,   0,   0,   0   }
  },
/* Mode 7 */
  {
    {   9,  11,   5,   4   },
    {   3,   5,   6,   3   },
    {   3,   5,   4,   0   },
    {   3,   2,   1,   0   }
  },
/* Mode 8 */
  {
    {  17,  11,  10,   5   },
    {   5,   3,   3,   5   },
    {   2,   0,   1,   2   },
    {   0,   0,   0,   0   }
  },
/* Mode 9 */
  {
    {  19,   8,   3,   0   },
    {   9,   9,   6,   1   },
    {   3,   3,   3,   0   },
    {   0,   0,   0,   0   }
  }
};
double OD_PRED_WEIGHTS_4x4[OD_INTRA_NMODES][4][4][4*4*4]={
/* Mode 0 */
  {
    {
      {  0.225025529443171807   ,-0.202533512871857696   ,-0.158481441650061394   , 0.353063217163828158   ,-0.193180989374312911   ,-0.179879497548045775   , 0.279791096312340948   ,-0.177654472815690523   ,
         0.241085105612000028   ,-0.236041510686164163   , 0.49787524765009844    , 0.74737037713983967    ,-0.345799974008026256   ,-0.695973390160933625   },
      { -0.0461562965884887225  ,-0.235560035451647859   , 0.234982615658593352   , 0.044752542387841078   },
      { -0.120697050839784839   , 0.149746411227502346   , 0.131632171972895617   },
      { -0.127564081991582118   , 0.150119409041138657   }
    },
    {
      { -0.104583443129015852   , 0.197164257743181665   ,-0.0696783504398875014  , 0.11555187400524046    ,-0.220679822954496285   ,-0.154190953339577136   , 0.0557815803922588199  ,-0.105300061794844621   ,
        -0.160716366058273774   , 0.214513964668314044   ,-0.314584295981331918   },
      {  0.107471318145968747   ,-0.143723839670549108   , 0.149156830808304691   ,-0.130265524694250456   , 0.0900833346646170291  , 0.200792154518062593   },
      { -0.13017704492472984    , 0.13091090429536073    , 0.152189331586247673   },
      { -0.115003649688243378   , 0.134502003469070319   }
    },
    {
      {  0.105625325809440784   ,-0.189350628006613536   , 0.201120669560731685   },
      {  0.0836257827470835019  ,-0.220119401896591099   ,-0.170301585369643821   ,-0.125826245089732947   , 0.16182272557109359    , 0.185320081388114954   },
      { -0.124744858860065061   ,-0.0813850896540322111  , 0.311211340572575379   },
      {  0  }
    },
    {
      { -0.290841885691625501   , 0.146406813969444549   },
      { -0.212420282863031828   , 0.311808789908846862   },
      { -0.106723747149086487   , 0.23859930051523412    },
      {  0.0875213422466308982  }
    }
  },
/* Mode 1 */
  {
    {
      { -0.517915858413427133   ,-0.099914298891443834   , 0.232636888539744319   , 0.234805489139297524   , 0.549581039569011498   , 0.117169979517739109   ,-0.29316648846077431    , 0.0869926335911958004  ,
         0.813593300289547683   , 0.278890253696910617   ,-0.329523302959145004   ,-0.161235937095879522   },
      {  0.0321321376452292015  , 0.485674414178236813   , 0.162610934591525952   ,-0.279517720191552965   ,-0.0569706113896264049  , 0.0301913175783037717  },
      { -0.176017490931601933   ,-0.021500159250931912   , 0.491932336765060207   ,-0.167812394079362881   , 0.0215583985482707616  ,-0.11954665367620014    ,-0.0630667977146237846  ,-0.141673610457897697   },
      { -0.110897995921334411   , 0.334385349751770977   ,-0.135264786139312393   ,-0.334482484892704768   }
    },
    {
      {  0.066995633449947592   ,-0.0556557900067964073  , 0.776774099491886694   , 0.362413386452340114   ,-0.471749659913985708   , 0.266808057954154687   },
      {  0.0632459213753971544  },
      {  0  },
      {  0.0646304425628349416  ,-0.156940685690848708   }
    },
    {
      { -0.0698683987688698965  ,-0.043648311287931757   ,-0.0869728406591320363  , 0.741362112333275536   , 0.123604161957219877   ,-0.219528499056727638   },
      { -0.0563376670758633583  },
      {  0.171861814086910814   ,-0.178358206313918105   , 0.124824156197589783   ,-0.301158892633337172   },
      {  0.14924181885063767    ,-0.146384950048355861   , 0.14789690251808213    ,-0.386752751154640362   }
    },
    {
      {  0.887214608325574527   ,-0.222864943882265631   },
      {  0  },
      {  0.161583173820538994   ,-0.296091004791818324   , 0.178887582064082284   ,-0.180303112981664543   },
      {  0.197730643677483331   ,-0.181597442058866076   , 0.168993189525861398   ,-0.293452881237486196   }
    }
  },
/* Mode 2 */
  {
    {
      {  0.114016479439519536   ,-0.182075424513173184   , 0.214118740414025621   , 0.151771341055142839   ,-0.196824430386988158   ,-0.171384768916249652   , 0.851289666689622693   ,-1.10966303387462473    ,
         0.825245404285092632   ,-0.705214670514500375   , 1.90694115860363311    ,-1.75771622953912443    , 1.01996680753967195    ,-0.825044145928333639   , 0.89019282340366801    ,-0.821519435261991338   ,
         0.53568716071650857    },
      {  0.0277317237736460151  ,-0.248040908699026147   , 0.61493660609447931    ,-0.490795055385231938   , 0.08395109589861037    , 0.3227707250074765     },
      { -0.0846319275169204743  , 0.195440650729937937   ,-0.194117853317670508   },
      {  0  }
    },
    {
      { -0.0392836284731691646  ,-0.122295095791063804   , 0.19465820431813724    , 0.230354584434184106   ,-0.261831595530038597   , 0.0514065270209334707  ,-0.148273044436454698   , 0.339226454029233737   ,
         0.463392925098037867   ,-0.438776855830721235   ,-0.873752081531910862   , 1.3058596080406879     ,-0.918741950658379047   ,-0.564830467813435377   , 0.62119280301954094    },
      {  0.065815495937122756   ,-0.211299637845557164   , 0.369689300946588695   },
      { -0.0782450984430979601  , 0.169950473642854483   },
      {  0  }
    },
    {
      { -0.100214363198385836   , 0.23709746998884107    ,-0.184127458216729323   ,-0.165876156469259128   ,-0.0612675169942305115  , 0.177938920049392074   ,-0.165476089891340883   ,-0.377437605889486438   ,
         0.350355391990236187   },
      { -0.175544486075667194   , 0.266638810511175883   },
      { -0.0659635624941609794  , 0.146058613540924809   },
      {  0  }
    },
    {
      {  0.0966439293749468964  , 0.103137037300391143   ,-0.204603105977324146   },
      {  0.225731739678452781   },
      {  0.153018407545099044   },
      {  0  }
    }
  },
/* Mode 3 */
  {
    {
      {  0.0410213675988322923  , 0.220317764165110258   ,-0.237661872061324941   ,-0.0412759474171845719  , 1.01072306347664886    ,-1.77219172244032941    , 1.85313387967156773    ,-1.18789188736120899    ,
         0.351192167885816142   ,-0.644273438262673803   , 0.467656371218141131   },
      { -0.0695316744613842658  ,-0.130215206200856387   , 0.377490720009136249   ,-0.367884458510718493   },
      {  0.010696606803284027   ,-0.0104370779780422474  ,-0.0800302205061340227  , 0.173637428040781694   ,-0.147801260863925144   },
      {  0  }
    },
    {
      {  0.0430225240208944246  ,-0.110557534936676027   , 0.1176469779382944     ,-0.0462282288403823086  , 0.13065701773567262    ,-0.114779058319585042   , 0.873943115048147701   ,-1.078220230587569      ,
         0.794524903256700998   ,-0.386203567739087372   , 0.240512947309086761   },
      { -0.0569775807301363679  , 0.142620035364126874   ,-0.13481352297728777    ,-0.137344792172345687   , 0.292478128974098861   ,-0.246602730122838315   },
      { -0.0740101153774522375  ,-0.118507329344462245   ,-0.0681912361580732929  , 0.156729676818015334   ,-0.111918612327908173   },
      { -0.0823139135478660328  , 0.0719395023655499261  }
    },
    {
      { -0.0142262370959390025  , 0.016543174028991782   , 0.689292901601777475   ,-0.664887710440232094   , 0.264783059288981826   },
      { -0.034710743209902313   , 0.0733998057029715961  ,-0.118482628977266594   , 0.222188283029908257   ,-0.216993218757946082   },
      { -0.0553697776139311579  , 0.114745204347205379   },
      {  0  }
    },
    {
      {  0.566999353544094697   ,-0.667062823049075826   },
      {  0.053760051512593672   ,-0.135247963978552321   , 0.179049533525898336   ,-0.17212158046508283    },
      { -0.0532328725506711203  , 0.0928741134521023914  },
      {  0  }
    }
  },
/* Mode 4 */
  {
    {
      {  0.336316055466336583   ,-0.29896365077599546    ,-0.329744139711627748   , 0.366982823003618119   ,-0.260066963447274591   ,-0.095939174720035561   , 0.752854714830040406   ,-0.703584817342711277   ,
         0.555936783099165499   ,-0.56843878756005084    },
      { -0.0422631609959621402  ,-0.170855396080446975   , 0.168068928836380999   , 0.0413626221318234635  ,-0.109785444904417481   , 0.193454209469655802   },
      { -0.124625818712195857   ,-0.0592294529902998926  , 0.111476000273602383   },
      {  0  }
    },
    {
      {  0.205580478555835555   ,-0.167266233418533361   ,-0.351713494432737972   , 0.308370336796142841   , 0.345828219284858518   ,-0.243424841823414007   , 0.131293147071790628   ,-0.285271983693146713   ,
        -0.205861781508593772   , 0.242653575938184235   , 0.174888048400279217   , 0.60794087424516563    ,-0.405195302188754769   },
      { -0.127764173948113818   , 0.139083386794587843   , 0.119943299587870325   ,-0.227609229795103757   },
      { -0.111648925390326711   , 0.122084814557126706   },
      {  0.134761969127504738   }
    },
    {
      { -0.10127819016524589    , 0.24226983844654662    ,-0.173166280130678835   ,-0.196767745755562162   ,-0.0861127824018856208  , 0.164076827765110428   , 0.163095699447178666   ,-0.143286503623051953   ,
         0.124299227602045523   ,-0.312652437110915282   , 0.182270406971374144   , 0.213327935130954549   },
      { -0.227821758329153329   , 0.272248237118239533   },
      {  0.127487352040953572   },
      {  0  }
    },
    {
      { -0.019781587309664752   , 0.0199513071294301104  ,-0.140411780148092719   ,-0.48160334865540988    , 0.316602551592233883   },
      { -0.154761026192145462   ,-0.287436644401129537   , 0.418825252389668889   },
      { -0.0997041129708478441  , 0.225923074480043479   },
      {  0  }
    }
  },
/* Mode 5 */
  {
    {
      {  0.260047204010725785   ,-0.253506189664926884   ,-0.237261132010758297   , 0.326682152978518825   , 0.122826563633933322   , 0.203457812166742691   , 0.26692281039083815    ,-0.569471366067771601   ,
        -1.08154195245695584    , 0.720505433503808357   , 1.68050934933159946    ,-0.585063489500531553   , 0.258516264096253556   ,-0.720060554818303777   ,-0.480485285147570995   , 0.875756087060500454   ,
         0.523334359770584179   , 0.235805534344800782   ,-1.91982199590014924    , 2.51416157583006949    , 0.461479124831578325   ,-0.757545525129928232   , 0.854161653871511106   , 0.738998539802247945   },
      { -0.0820806924279791489  ,-0.200076362538212121   , 0.261188439486316315   , 0.161198797498841612   ,-0.387114805151413222   },
      { -0.0802193404170514907  , 0.195218542292709712   },
      {  0  }
    },
    {
      { -0.194970101553634062   , 0.268429264494328967   ,-0.319007031399371088   , 0.216345870341661306   ,-0.440174932675331365   ,-0.349170695013687582   ,-0.10636483405553894    ,-0.294784035698443247   ,
         0.255943866559303568   ,-0.555853376958604706   , 0.650994269265723347   , 0.548843689655447942   },
      {  0.0695021657894151906  ,-0.135715387115132285   , 0.228145157004917831   ,-0.0490382247707787239  , 0.131661516530242245   ,-0.0430022089763564749  ,-0.190266619119217911   },
      { -0.110162644125684703   , 0.257337048640742805   },
      {  0  }
    },
    {
      { -0.0943720350168641003  , 0.211277624115440793   ,-0.197185851084202224   , 0.203572223712468969   },
      { -0.109154479432502102   , 0.217845847799947534   , 0.32653399200000488    , 0.34227072712274359    },
      {  0.293708098666655926   },
      {  0  }
    },
    {
      {  0  },
      { -0.158491861252144761   , 0.241269845042030306   },
      {  0.171912989240165348   },
      {  0  }
    }
  },
/* Mode 6 */
  {
    {
      {  0.31728126235158266    ,-0.332895033731707868   ,-0.479545185475026003   , 0.487630756360955153   , 0.674301984142893884   , 0.632420361592953673   ,-0.517365091085704054   ,-0.684230130462132657   ,
         0.346747268292983801   ,-0.337122158583788301   },
      {  0.134572876008528047   ,-0.24205358777612096    , 0.354601614980136925   ,-0.147084461106562314   , 0.215916249593585241   ,-0.296883081526854054   ,-0.241014049590019569   , 0.548008497176356579   ,
         0.231152031202600916   ,-0.364707115902484558   , 0.0445181130232746788  , 0.0611992995310605761  ,-0.173329508053546216   , 0.22578335900074778    , 0.144514283091272649   ,-0.327919289203813025   ,
         0.376469286466920405   },
      { -0.0588408556475673097  , 0.154311905513418973   , 0.0305382860570457479  ,-0.112650203500649929   ,-0.314445356940169396   , 0.18437888155954521    ,-0.0308715211383815864  ,-0.0907407655541458275  ,
         0.22492756095026803    ,-0.198981717805987141   },
      { -0.288289088265356652   , 0.191775961377849746   , 0.0176247203806353496  ,-0.0176624390452196391  , 0.0848687369351386195  }
    },
    {
      {  0.0479271375509814843  ,-0.046575418261191423   ,-0.313064459577732157   , 0.243920724472267314   },
      {  0.0431610122804927665  ,-0.0809198584590296033  ,-0.186068019227603298   , 0.230296377881737263   ,-0.043616815949371647   , 0.0900827824790342568  ,-0.113963887033257411   , 0.16048399344953887    },
      { -0.137219479508882997   },
      { -0.113258991404578888   }
    },
    {
      { -0.114276359381310352   , 0.146861866585919015   },
      { -0.0989181099158375349  , 0.128550159969048644   },
      {  0  },
      {  0.139765666249322601   }
    },
    {
      {  0.199507299916625608   , 0.346789462231976486   , 0.162682115965639196   },
      {  0  },
      {  0  },
      {  0  }
    }
  },
/* Mode 7 */
  {
    {
      {  0.168333940621737482   , 0.994529958213896115   ,-1.35498899773390846    , 0.149635297218821017   , 1.16882686287308646    ,-0.592566369991124553   , 0.0534485715706971148  , 0.107346992299759775   ,
         0.189020948476754214   },
      {  0.0256263221866355265  ,-0.107797755056129776   , 0.109899395309176265   , 0.14186789081291018    , 0.930137044407203017   ,-0.900470818900570125   , 0.54437077093346109    ,-0.206080150130851236   ,
        -0.0238854053982486408  , 0.116044092235540519   ,-0.111882555008321144   },
      {  0.0198110186341733177  , 0.783122560252657363   ,-0.49504103047412884    ,-0.0204171812716302768  , 0.063828350456957797   },
      {  0.0113038426171760444  , 0.735687398381410174   ,-0.443949211085628459   ,-0.0125576254904957735  }
    },
    {
      { -0.176340878603311879   , 0.395544694157195509   ,-0.32585859497723324    },
      { -0.124533668472382078   , 0.249930990670207215   ,-0.175708731079114      , 0.125966172791675463   ,-0.115458555423895701   },
      { -0.0931536421837783624  , 0.181743555786961553   ,-0.153389422126361918   ,-0.0249052016350700955  , 0.0760319643147400331  ,-0.0749486639822273676  },
      { -0.106819344194604954   , 0.120690711219924779   ,-0.121325977418909395   }
    },
    {
      { -0.0635947282359914517  , 0.16464523787442184    ,-0.14227636973973129    },
      { -0.0621134141581267049  , 0.122967328349222249   ,-0.0933887453404705081  , 0.0887233623031035284  ,-0.107418908677924627   },
      { -0.0400111623181959725  , 0.0704692709298110759  ,-0.023912532602668797   , 0.0577525712777619687  },
      {  0  }
    },
    {
      { -0.068196421554968481   ,-0.0899179497561287261  , 0.0695027928373863485  },
      { -0.0451370046629221422  ,-0.109645110562922407   },
      {  0.0577503475464345023  },
      {  0  }
    }
  },
/* Mode 8 */
  {
    {
      {  0.719794409626988818   ,-0.594505063206104412   ,-1.17516347932423959    , 0.924919319879099477   , 0.976228069862577708   ,-0.920187081054480105   ,-0.570113811989778063   , 0.645934822952535792   ,
         0.280308796319988895   , 0.401863320070103336   ,-0.663229598788406149   ,-0.832071609884453833   ,-0.3198061558657736     , 0.722457601082120315   , 0.674420827536050038   ,-0.175953451257953475   ,
         0.22747971673461817    },
      {  0.217464516088704485   ,-0.493372994841120849   ,-0.230616198124270616   , 0.360589004684727377   ,-0.214676109614422544   ,-0.433791933207728519   ,-0.323614567928569075   , 0.189767866463099039   ,
         0.388996082274624455   ,-0.130078130914995427   , 0.194014670164622871   },
      { -0.0203326071351180269  , 0.12781391697006253    ,-0.475888469050601781   , 0.223491514214608722   , 0.0209340144409357713  , 0.144257112669931187   , 0.169107216277335715   ,-0.121212057572287327   ,
        -0.0628432947220729232  , 0.165478010899876848   },
      { -0.364019312196214306   ,-0.131913339009244873   , 0.307331498215915822   , 0.0175718318932328414  ,-0.0172132179468732806  }
    },
    {
      {  0.0429027768341393098  ,-0.149945536514080574   , 0.424088845807349346   ,-0.313425015725059319   ,-0.0460123249378104823  },
      {  0.0954969607232782208  ,-0.179115850388199632   , 0.274344613892852918   },
      { -0.178771384339077216   ,-0.164745643878008052   , 0.125036934416186657   },
      {  0.147205593687167985   ,-0.307021166028820625   , 0.404760076548054459   ,-0.107347206680160401   ,-0.161481572131914275   }
    },
    {
      { -0.0783684470849314585  , 0.155170750729436702   },
      {  0  },
      {  0.164957489235959043   },
      { -0.113618074686354945   , 0.175665015934548613   }
    },
    {
      {  0  },
      {  0  },
      {  0  },
      {  0  }
    }
  },
/* Mode 9 */
  {
    {
      { -0.101361375597143727   , 0.307748265328831094   ,-0.233441460948469626   , 0.138821029464231749   ,-0.375075626274697982   , 0.394854745893760628   , 0.467395791859560872   ,-1.30112605702683726    ,
         1.40551699864309443    , 0.745686943908434041   , 0.463751231342106551   ,-0.898623847129977671   , 0.387334379192129596   , 0.170078525636873562   , 0.410523760182781472   ,-0.141878285452595926   ,
         0.285914711534922872   ,-0.326211771289449393   , 0.414506798041099023   },
      {  0.0908381678725009578  ,-0.335321639117454384   , 0.341810501287425406   ,-0.148487384849536691   , 0.159342126875614831   , 0.0569133222961842739  ,-0.25895735443169432    , 0.496282031583336392   },
      {  0.203833160902378629   ,-0.0979461777868984307  , 0.251904526531340323   },
      {  0  }
    },
    {
      {  0.126520432543663491   ,-0.164350752053490617   ,-0.209739026590320121   , 0.252894442643528061   , 0.310635870119816693   ,-0.119752129489175033   , 0.14794171589669447    ,-0.289438408335223996   ,
        -0.137210365202191709   },
      {  0.060563017043792404   ,-0.117866962225770824   , 0.293537346072667016   ,-0.0581828713648007076  ,-0.203259331829953233   , 0.301589668561796254   , 0.29346883144842939    ,-0.317081472038114154   ,
         0.238205926836248777   },
      { -0.158251470212140644   , 0.288382615111282103   ,-0.105422669334888516   ,-0.0863293808779927591  , 0.214842595106330664   ,-0.21491711614369402    },
      {  0.219160220491837254   }
    },
    {
      { -0.0866021310689417123  , 0.150295245798921923   , 0.174978054054381715   },
      { -0.088450320319251291   , 0.220272898173151349   , 0.163595010104154975   },
      {  0.158033830513315821   ,-0.116690236301621966   , 0.156820246031953076   },
      {  0  }
    },
    {
      {  0  },
      {  0  },
      {  0  },
      {  0  }
    }
  }
};
int OD_PRED_PARAMX_4x4[OD_INTRA_NMODES][4][4][4*4*4]={
/* Mode 0 */
  {
    {
      {  0,  2,  0,  4,  5,  4,  8,  9,  9,  8,  0,  1,  2,  0   },
      {  4,  5,  5,  0   },
      {  6,  6,  2   },
      {  7,  7   }
    },
    {
      {  0,  0,  4,  8,  8,  9,  0,  1,  0,  1,  0   },
      {  1,  5,  5,  5,  8,  2   },
      {  6,  6,  2   },
      {  7,  7   }
    },
    {
      {  4,  0,  1   },
      {  9,  9, 10,  0,  1,  2   },
      { 10,  1,  2   },
      {  0   }
    },
    {
      {  0,  1   },
      {  0,  1   },
      { 10,  2   },
      {  2   }
    }
  },
/* Mode 1 */
  {
    {
      {  0,  1,  2,  0,  4,  4,  4,  8,  0,  1,  2,  1   },
      {  0,  5,  5,  5,  8,  0   },
      {  2,  4,  6,  6,  8, 10,  1,  2   },
      {  3,  7, 11,  3   }
    },
    {
      {  4,  0,  0,  1,  2,  3   },
      {  5   },
      {  0   },
      {  2,  3   }
    },
    {
      {  0,  4,  8,  0,  1,  2   },
      {  5   },
      {  2,  6, 10,  2   },
      {  3,  7, 11,  3   }
    },
    {
      {  0,  2   },
      {  0   },
      {  2,  6, 10,  2   },
      {  3,  7, 11,  3   }
    }
  },
/* Mode 2 */
  {
    {
      {  0,  4,  5,  8,  9,  8,  0,  1,  3,  0,  1,  2,  3,  1,  2,  3,  1   },
      {  0,  1,  2,  3,  0,  3   },
      {  1,  2,  3   },
      {  0   }
    },
    {
      {  0,  4,  5,  4,  5,  8,  8,  8,  0,  1,  0,  1,  2,  1,  2   },
      {  0,  1,  2   },
      {  1,  2   },
      {  0   }
    },
    {
      {  4,  4,  5,  4,  8,  8,  8,  0,  1   },
      {  1,  2   },
      {  1,  2   },
      {  0   }
    },
    {
      {  4,  0,  0   },
      {  2   },
      {  2   },
      {  0   }
    }
  },
/* Mode 3 */
  {
    {
      {  0,  1,  1,  4,  0,  1,  2,  3,  1,  2,  3   },
      {  5,  1,  2,  3   },
      {  4,  8,  1,  2,  3   },
      {  0   }
    },
    {
      {  0,  0,  0,  4,  4,  4,  0,  1,  2,  3,  1   },
      {  5,  5,  5,  1,  2,  3   },
      {  6,  6,  1,  2,  3   },
      {  7,  7   }
    },
    {
      {  4,  0,  0,  1,  2   },
      {  5,  5,  1,  2,  3   },
      {  1,  2   },
      {  0   }
    },
    {
      {  0,  1   },
      {  0,  1,  2,  3   },
      {  1,  2   },
      {  0   }
    }
  },
/* Mode 4 */
  {
    {
      {  0,  1,  0,  1,  1,  4,  0,  1,  0,  1   },
      {  0,  5,  5,  0,  1,  2   },
      {  6,  1,  2   },
      {  0   }
    },
    {
      {  0,  1,  0,  1,  0,  1,  5,  5,  0,  1,  0,  0,  1   },
      {  5,  5,  0,  1   },
      {  6,  2   },
      {  7   }
    },
    {
      {  0,  0,  1,  0,  4,  4,  5,  0,  1,  0,  1,  0   },
      {  1,  2   },
      {  2   },
      {  0   }
    },
    {
      {  0,  0,  0,  0,  1   },
      {  0,  1,  2   },
      {  1,  2   },
      {  0   }
    }
  },
/* Mode 5 */
  {
    {
      {  0,  1,  0,  1,  4,  5,  4,  5,  4,  5,  4,  5,  8,  8,  9,  8,  9,  0,  2,  3,  0,  1,  2,  2   },
      {  4,  5,  5,  0,  1   },
      {  1,  2   },
      {  0   }
    },
    {
      {  0,  1,  1,  4,  4,  5,  0,  0,  1,  2,  3,  0   },
      {  0,  0,  1,  4,  4,  0,  1   },
      {  1,  2   },
      {  0   }
    },
    {
      {  4,  4,  0,  1   },
      {  5,  5,  6,  2   },
      {  2   },
      {  0   }
    },
    {
      {  0   },
      {  0,  1   },
      {  2   },
      {  0   }
    }
  },
/* Mode 6 */
  {
    {
      {  0,  1,  0,  1,  4,  5,  4,  5,  0,  1   },
      {  0,  1,  2,  0,  1,  2,  4,  6,  4,  6,  8,  0,  1,  2,  0,  1,  2   },
      {  1,  2,  4,  5,  6,  6,  8,  1,  2,  3   },
      {  7,  7,  8,  0,  2   }
    },
    {
      {  4,  0,  0,  1   },
      {  0,  1,  5,  5,  0,  1,  0,  1   },
      {  2   },
      {  7   }
    },
    {
      {  0,  1   },
      {  0,  1   },
      {  0   },
      {  7   }
    },
    {
      {  0,  4,  8   },
      {  0   },
      {  0   },
      {  0   }
    }
  },
/* Mode 7 */
  {
    {
      {  2,  4,  4,  6,  4,  4,  8,  9, 10   },
      {  0,  2,  3,  2,  5,  5,  5,  5,  0,  2,  3   },
      {  0,  6,  6,  0,  2   },
      {  0,  7,  7,  0   }
    },
    {
      {  4,  4,  4   },
      {  5,  5,  5,  2,  3   },
      {  6,  6,  6,  0,  2,  3   },
      {  7,  7,  7   }
    },
    {
      {  4,  4,  4   },
      {  5,  5,  5,  2,  3   },
      {  6,  6,  0,  2   },
      {  0   }
    },
    {
      {  0,  4,  1   },
      {  0,  3   },
      { 10   },
      {  0   }
    }
  },
/* Mode 8 */
  {
    {
      {  4,  5,  4,  5,  4,  5,  4,  5,  8,  9,  8,  9, 10,  8,  9,  0,  1   },
      {  4,  6,  4,  6,  8,  9, 10,  8,  9,  0,  1   },
      {  0,  5,  6,  6,  8,  9, 10,  9,  1,  2   },
      {  7,  6,  7,  8,  0   }
    },
    {
      {  4,  4,  4,  4,  8   },
      {  5,  5,  5   },
      {  7,  6, 10   },
      {  6,  7,  7, 10, 11   }
    },
    {
      {  4,  4   },
      {  0   },
      {  6   },
      {  7,  7   }
    },
    {
      {  0   },
      {  0   },
      {  0   },
      {  0   }
    }
  },
/* Mode 9 */
  {
    {
      {  0,  0,  1,  4,  5,  4,  5,  4,  4,  8,  9,  8,  8,  0,  3,  0,  1,  0,  0   },
      {  4,  5,  5,  8,  8,  0,  1,  2   },
      {  6,  1,  2   },
      {  0   }
    },
    {
      {  4,  5,  4,  5,  4,  8,  9,  9,  1   },
      {  4,  4,  6,  8,  9,  9, 10,  9,  1   },
      {  6,  6,  9,  1,  2,  3   },
      {  7   }
    },
    {
      {  4,  4,  1   },
      {  5,  5,  1   },
      {  6, 10, 10   },
      {  0   }
    },
    {
      {  0   },
      {  0   },
      {  0   },
      {  0   }
    }
  }
};
int OD_PRED_PARAMY_4x4[OD_INTRA_NMODES][4][4][4*4*4]={
/* Mode 0 */
  {
    {
      {  0,  0,  2,  1,  1,  2,  0,  0,  1,  2,  4,  4,  4,  5   },
      {  0,  0,  1,  4   },
      {  0,  1,  4   },
      {  0,  1   }
    },
    {
      {  0,  1,  0,  0,  1,  1,  4,  4,  5,  5,  6   },
      {  1,  0,  1,  2,  1,  5   },
      {  0,  1,  5   },
      {  0,  1   }
    },
    {
      {  2,  6,  6   },
      {  1,  2,  2,  6,  6,  6   },
      {  2,  6,  6   },
      {  0   }
    },
    {
      {  7,  7   },
      {  7,  7   },
      {  3,  7   },
      {  7   }
    }
  },
/* Mode 1 */
  {
    {
      {  0,  0,  0,  2,  0,  1,  2,  0,  4,  4,  4,  5   },
      {  0,  0,  1,  2,  0,  4   },
      {  0,  0,  0,  2,  0,  0,  4,  4   },
      {  0,  0,  0,  4   }
    },
    {
      {  0,  4,  5,  5,  5,  5   },
      {  0   },
      {  0   },
      {  5,  5   }
    },
    {
      {  2,  1,  2,  6,  6,  6   },
      {  1   },
      {  2,  2,  2,  6   },
      {  2,  2,  2,  6   }
    },
    {
      {  7,  7   },
      {  0   },
      {  3,  3,  3,  7   },
      {  3,  3,  3,  7   }
    }
  },
/* Mode 2 */
  {
    {
      {  1,  0,  1,  0,  0,  1,  4,  4,  4,  5,  5,  5,  5,  6,  6,  6,  7   },
      {  4,  4,  4,  4,  5,  5   },
      {  4,  4,  4   },
      {  0   }
    },
    {
      {  0,  1,  1,  2,  2,  0,  1,  2,  5,  5,  6,  6,  6,  7,  7   },
      {  5,  5,  5   },
      {  5,  5   },
      {  0   }
    },
    {
      {  1,  2,  2,  3,  1,  2,  3,  7,  7   },
      {  6,  6   },
      {  6,  6   },
      {  0   }
    },
    {
      {  2,  6,  7   },
      {  7   },
      {  7   },
      {  0   }
    }
  },
/* Mode 3 */
  {
    {
      {  0,  2,  3,  0,  4,  4,  4,  4,  6,  6,  6   },
      {  0,  4,  4,  4   },
      {  0,  0,  4,  4,  4   },
      {  0   }
    },
    {
      {  0,  2,  3,  0,  2,  3,  5,  5,  5,  5,  7   },
      {  0,  2,  3,  5,  5,  5   },
      {  0,  3,  5,  5,  5   },
      {  0,  1   }
    },
    {
      {  0,  4,  6,  6,  6   },
      {  0,  2,  6,  6,  6   },
      {  6,  6   },
      {  0   }
    },
    {
      {  7,  7   },
      {  7,  7,  7,  7   },
      {  7,  7   },
      {  0   }
    }
  },
/* Mode 4 */
  {
    {
      {  0,  0,  1,  1,  2,  0,  4,  4,  5,  5   },
      {  0,  0,  1,  4,  4,  4   },
      {  0,  4,  4   },
      {  0   }
    },
    {
      {  0,  0,  1,  1,  2,  2,  0,  1,  4,  4,  5,  6,  6   },
      {  0,  1,  5,  5   },
      {  0,  5   },
      {  1   }
    },
    {
      {  1,  2,  2,  3,  1,  2,  2,  5,  5,  6,  6,  7   },
      {  6,  6   },
      {  6   },
      {  0   }
    },
    {
      {  0,  4,  6,  7,  7   },
      {  7,  7,  7   },
      {  7,  7   },
      {  0   }
    }
  },
/* Mode 5 */
  {
    {
      {  0,  0,  1,  1,  0,  0,  1,  1,  2,  2,  3,  3,  1,  2,  2,  3,  3,  4,  4,  4,  5,  5,  5,  6   },
      {  0,  0,  1,  4,  4   },
      {  4,  4   },
      {  0   }
    },
    {
      {  1,  1,  2,  0,  1,  1,  4,  5,  5,  5,  5,  6   },
      {  0,  1,  1,  0,  1,  4,  5   },
      {  5,  5   },
      {  0   }
    },
    {
      {  1,  2,  6,  6   },
      {  1,  2,  2,  7   },
      {  6   },
      {  0   }
    },
    {
      {  0   },
      {  7,  7   },
      {  7   },
      {  0   }
    }
  },
/* Mode 6 */
  {
    {
      {  0,  0,  1,  1,  0,  0,  1,  1,  5,  5   },
      {  0,  0,  0,  1,  1,  1,  0,  0,  1,  1,  0,  4,  4,  4,  5,  5,  5   },
      {  0,  0,  0,  0,  0,  1,  0,  4,  4,  4   },
      {  0,  1,  0,  4,  4   }
    },
    {
      {  0,  4,  5,  5   },
      {  0,  0,  1,  2,  4,  4,  5,  5   },
      {  1   },
      {  0   }
    },
    {
      {  6,  6   },
      {  6,  6   },
      {  0   },
      {  2   }
    },
    {
      {  3,  3,  3   },
      {  0   },
      {  0   },
      {  0   }
    }
  },
/* Mode 7 */
  {
    {
      {  1,  0,  1,  1,  2,  3,  1,  1,  1   },
      {  0,  0,  0,  1,  0,  1,  2,  3,  4,  4,  4   },
      {  0,  0,  1,  4,  4   },
      {  0,  0,  1,  4   }
    },
    {
      {  1,  2,  3   },
      {  1,  2,  3,  5,  5   },
      {  1,  2,  3,  5,  5,  5   },
      {  1,  2,  3   }
    },
    {
      {  1,  2,  3   },
      {  1,  2,  3,  6,  6   },
      {  1,  2,  6,  6   },
      {  0   }
    },
    {
      {  3,  3,  7   },
      {  7,  7   },
      {  3   },
      {  0   }
    }
  },
/* Mode 8 */
  {
    {
      {  0,  0,  1,  1,  2,  2,  3,  3,  0,  0,  1,  1,  1,  2,  2,  5,  5   },
      {  0,  0,  1,  1,  0,  0,  0,  1,  1,  5,  5   },
      {  0,  0,  0,  1,  0,  0,  0,  1,  4,  4   },
      {  0,  1,  1,  0,  4   }
    },
    {
      {  0,  1,  2,  3,  0   },
      {  0,  1,  2   },
      {  0,  1,  0   },
      {  0,  0,  2,  0,  0   }
    },
    {
      {  1,  2   },
      {  0   },
      {  2   },
      {  1,  2   }
    },
    {
      {  0   },
      {  0   },
      {  0   },
      {  0   }
    }
  },
/* Mode 9 */
  {
    {
      {  0,  1,  1,  0,  0,  1,  1,  2,  3,  0,  0,  1,  2,  4,  4,  5,  5,  6,  7   },
      {  0,  0,  1,  0,  1,  4,  4,  4   },
      {  1,  4,  4   },
      {  0   }
    },
    {
      {  0,  0,  1,  1,  2,  0,  0,  1,  4   },
      {  0,  1,  1,  0,  0,  1,  1,  2,  6   },
      {  0,  1,  1,  5,  5,  5   },
      {  1   }
    },
    {
      {  1,  2,  6   },
      {  1,  2,  6   },
      {  2,  1,  2   },
      {  0   }
    },
    {
      {  0   },
      {  0   },
      {  0   },
      {  0   }
    }
  }
};

int OD_PRED_MULTS_8x8[OD_INTRA_NMODES][8][8]={
/* Mode 0 */
  {
    {  51,  11,   3,   2,   3,   4,   4,   3   },
    {  15,  10,   3,   2,   2,   0,   2,   0   },
    {   6,   4,   2,   1,   1,   0,   1,   0   },
    {   4,   2,   2,   3,   1,   1,   3,   0   },
    {   1,   2,   7,  11,   3,   3,   3,   0   },
    {   5,   2,   2,   9,   3,   7,   5,   4   },
    {   5,   3,   2,   0,   4,   6,   5,   3   },
    {   5,   2,   1,   1,   1,   2,   3,   0   }
  },
/* Mode 1 */
  {
    {  36,  10,   6,   4,   3,   6,   4,   3   },
    {  17,   8,   6,   4,   4,   3,   3,   1   },
    {  13,   6,   4,   1,   1,   0,   1,   0   },
    {   6,   3,   3,   0,   0,   3,   3,   0   },
    {   6,   2,   2,   2,   2,   3,   5,   0   },
    {  11,   2,   1,   1,   3,   6,   5,   2   },
    {   8,   2,   0,   2,   3,   5,   5,   3   },
    {   5,   1,   1,   0,   0,   2,   3,   1   }
  },
/* Mode 2 */
  {
    {  36,  14,   3,   2,   1,   0,   0,   0   },
    {  24,  13,   2,   2,   3,   0,   0,   0   },
    {  23,  16,   4,   0,   0,   0,   0,   0   },
    {  15,  16,   4,   1,   1,   0,   0,   0   },
    {  13,  13,   5,   2,   0,   0,   0,   0   },
    {   8,  10,   4,   0,   0,   0,   0,   0   },
    {   5,   4,   3,   1,   3,   1,   0,   0   },
    {   2,   2,   0,   0,   0,   0,   0,   0   }
  },
/* Mode 3 */
  {
    {  24,   7,   7,   5,   5,   4,   2,   1   },
    {  19,   6,   6,   6,   4,   2,   3,   3   },
    {  17,   8,   7,   5,   3,   2,   0,   0   },
    {  15,   9,   7,   6,   3,   2,   0,   0   },
    {   6,   7,   4,   3,   4,   2,   0,   0   },
    {   5,   4,   0,   2,   2,   1,   1,   0   },
    {   7,   3,   2,   0,   0,   1,   0,   0   },
    {   5,   3,   3,   0,   2,   1,   0,   0   }
  },
/* Mode 4 */
  {
    {  19,  10,   3,   3,   0,   0,   0,   0   },
    {  27,   9,   3,   0,   0,   0,   0,   0   },
    {  22,  15,   4,   1,   0,   0,   0,   0   },
    {  17,  19,   4,   0,   0,   0,   0,   0   },
    {   8,  16,   7,   0,   1,   0,   0,   0   },
    {   2,  12,   7,   3,   2,   0,   0,   0   },
    {   2,   6,   7,   7,   1,   0,   0,   0   },
    {   4,   4,   5,   3,   2,   1,   0,   0   }
  },
/* Mode 5 */
  {
    {  35,  18,   5,   4,   1,   2,   1,   1   },
    {  23,  23,   9,   2,   1,   0,   0,   0   },
    {   7,  10,  16,   5,   2,   0,   0,   0   },
    {   4,   5,  11,   8,   4,   2,   1,   0   },
    {   2,   2,   5,   8,   7,   2,   0,   0   },
    {   1,   0,   1,   3,   8,   6,   0,   0   },
    {   2,   0,   1,   1,   3,   2,   1,   0   },
    {   1,   0,   0,   0,   0,   0,   0,   0   }
  },
/* Mode 6 */
  {
    {  20,  26,  23,  16,   5,   5,   3,   4   },
    {  11,  16,  19,  17,   9,   8,   2,   2   },
    {   3,   6,   8,  10,  11,   4,   2,   0   },
    {   4,   1,   1,   2,   3,   2,   1,   1   },
    {   1,   0,   0,   0,   1,   1,   0,   0   },
    {   2,   0,   0,   0,   0,   1,   0,   0   },
    {   0,   0,   0,   0,   1,   0,   0,   0   },
    {   2,   0,   0,   1,   0,   1,   0,   0   }
  },
/* Mode 7 */
  {
    {  23,  23,  16,  17,   8,   3,   3,   4   },
    {   7,   8,   8,   9,   8,   5,   3,   3   },
    {   7,   7,   7,   5,   3,   1,   0,   0   },
    {   4,   6,   5,   4,   5,   2,   1,   0   },
    {   5,   4,   0,   3,   1,   1,   0,   0   },
    {   4,   3,   1,   1,   1,   0,   0,   0   },
    {   2,   3,   2,   2,   0,   4,   2,   0   },
    {   6,   0,   2,   1,   1,   2,   0,   0   }
  },
/* Mode 8 */
  {
    {  26,  22,  20,  13,  10,   6,   2,   4   },
    {  10,   7,  11,  18,  17,  13,   8,   4   },
    {   3,   2,   2,   3,  10,  10,   8,   6   },
    {   1,   0,   0,   0,   1,   0,   4,   5   },
    {   1,   0,   0,   0,   1,   1,   2,   1   },
    {   0,   0,   0,   0,   0,   0,   0,   0   },
    {   1,   1,   0,   0,   0,   0,   0,   0   },
    {   1,   0,   1,   0,   0,   0,   0,   0   }
  },
/* Mode 9 */
  {
    {  27,  17,   9,   2,   0,   0,   1,   2   },
    {  17,  23,  16,   3,   0,   0,   0,   0   },
    {   6,  10,  16,   8,   6,   0,   0,   0   },
    {   4,   3,   9,   8,   8,   6,   1,   0   },
    {   1,   1,   3,   7,   6,   7,   3,   0   },
    {   0,   0,   0,   4,   6,   3,   3,   1   },
    {   0,   0,   0,   2,   4,   1,   0,   0   },
    {   0,   0,   0,   0,   2,   0,   0,   0   }
  }
};
double OD_PRED_WEIGHTS_8x8[OD_INTRA_NMODES][8][8][4*8*8]={
/* Mode 0 */
  {
    {
      {  0.120801114414997024   , 0.0980345148288041257  , 0.445673716289823663   , 0.107974597959903176   , 0.465157261307634573   , 0.362214593410364549   , 0.395433954236471874   , 0.500165589231869823   ,
         0.629600395299530158   , 0.308965664609795132   , 0.35153577162378763    ,-0.210714492455564922   ,-0.171300916082833071   , 0.333331308177385155   ,-0.292720638757436202   , 0.230240015010397675   ,
         0.344489174645080443   , 0.351432273688907393   ,-0.6082789989914833     , 0.118743062453682838   ,-0.151259317345177557   ,-0.314087389811556872   ,-0.197698284362282789   ,-0.059561749489198991   ,
         0.152299607964114986   ,-0.191204597249501701   ,-0.15788874295338659    , 0.267907869115666442   ,-0.405823027583561036   ,-0.457826560066000754   , 0.137827836922435915   , 0.382919918994945818   ,
         0.472570165896218031   ,-0.265682980784155809   , 0.317593365372276892   , 0.694520282611668205   , 0.554499622206849452   ,-0.318557553655533621   , 0.162082360717763913   ,-0.347193491144972999   ,
        -0.38117250266860403    , 0.320746236883436231   ,-0.588758882642416159   , 0.438464823134227188   , 0.123349729502097077   ,-0.233403889943458565   , 0.354287055637348192   , 0.508150103097498418   ,
         0.539584504403875953   ,-0.443018186514849754   ,-0.412134146598347906   },
      { -0.147244205371566461   ,-0.129416959471062826   , 0.164314069195250656   ,-0.142372898653303548   ,-0.126580472895497204   , 0.163849818782964174   , 0.0769798556389726801  , 0.120591269691609021   ,
        -0.122677446350793695   , 0.298963082514500988   ,-0.351069078363871578   },
      {  0.10398897720776433    ,-0.0583550272413081023  , 0.0751538004829252759  },
      {  0.0585357747024453645  ,-0.064801843605864537   },
      {  0.0744816684020016273  ,-0.0613975965597273188  , 0.0838293750697369083  },
      {  0.190245708934265956   , 0.23130864166988846    , 0.190653825626146772   , 0.210480428699213129   },
      {  0.167426148042833817   , 0.209160841418788879   , 0.200900894328791074   , 0.276913960187329944   },
      { -0.0410896037697016658  ,-0.0428971010637377512  ,-0.0576905823336018586  }
    },
    {
      { -0.0416457574470571953  , 0.145325748421712808   ,-0.112494065202385057   , 0.0798172093141816114  , 0.161663269823078409   ,-0.160892915201284681   ,-0.164332786222821547   , 0.0278784264041630932  ,
        -0.275786018274327749   , 0.117949106690907288   ,-0.0805657242290633568  , 0.165367883771344065   ,-0.147460378565708594   , 0.280090663498658909   , 0.213817201728482204   },
      { -0.0450074790155881865  , 0.0542062173325366659  , 0.0818519958089202609  ,-0.0635169536510226812  , 0.00700030957647798571 , 0.113300759830337341   ,-0.11504525539051029    ,-0.203294952625806213   ,
        -0.0769728995038058278  ,-0.101143286365642085   },
      {  0.0489044774719795544  ,-0.051584674535892952   , 0.102315904887036582   },
      { -0.0791921409215758654  , 0.103290988569634187   },
      { -0.0468253822074758616  , 0.074869261791272318   },
      {  0  },
      { -0.053511614993116817   , 0.091973243683654976   },
      {  0  }
    },
    {
      {  0.0943889680330448899  , 0.0200477275511010411  ,-0.0688230435088836162  , 0.120419626264987381   ,-0.0158307374519139621  ,-0.0722999861719688386  },
      { -0.0484369187100693599  , 0.0819601100695665774  ,-0.0922139333422792168  , 0.0706878758220799847  },
      { -0.0703666240387206404  , 0.101546106524017729   },
      {  0.0789144438882679322  },
      {  0.0661590419532331192  },
      {  0  },
      {  0.0892239495987539183  },
      {  0  }
    },
    {
      { -0.00889532942039946567 , 0.0575436925598011295  ,-0.0622315349884144595  , 0.00948056397605890125 },
      { -0.0779995128480650696  , 0.0880930652511581896  },
      { -0.0596883557085514382  , 0.062838840149475314   },
      { -0.0811617364026430144  , 0.106462523487808061   , 0.0687085317952936814  },
      { -0.0464733326353961793  },
      { -0.080111968188893809   },
      {  0.0647301290625533904  ,-0.0619737042289757109  , 0.107932952455342804   },
      {  0  }
    },
    {
      {  0.1174878272566309     },
      { -0.0457265600026354191  , 0.0695007043835048216  },
      { -0.0933280926638931918  ,-0.0575931350059839531  ,-0.0885486987352701316  ,-0.0699631215355251551  , 0.0873288455682248443  , 0.112174696857686801   , 0.073652808904163633   },
      {  0.138090171746325402   ,-0.107666845311443174   , 0.0551473694675543094  ,-0.115392504016063255   ,-0.0640060007236942785  ,-0.124991493961428252   , 0.134666405703102121   ,-0.057841828429130257   ,
        -0.0926819596183013211  , 0.137960062847921228   , 0.171925876425020829   },
      {  0.0438593023322602915  ,-0.0888663434095516153  , 0.0901148420753900004  },
      {  0.0512658719129553478  , 0.0980654463380303265  , 0.0949932902759410558  },
      {  0.0730282128000636632  , 0.0606781670613477098  , 0.103780228191005394   },
      {  0  }
    },
    {
      {  0.149252672392028773   , 0.227312664313842866   ,-0.135844659360618708   , 0.207071865621577478   , 0.178327869408788225   },
      { -0.0398052642967228337  , 0.0605783296134723148  },
      {  0.0642169027828433658  ,-0.0714672792229818082  },
      {  0.115528669559804523   , 0.0539924331552324513  , 0.0837329776772390288  ,-0.0932463955248354209  ,-0.127441250393972694   , 0.0884894175047284959  ,-0.102351525225993195   , 0.0742530149620380109  ,
         0.0673177726431261891  },
      {  0.0585712126224454885  ,-0.0536646577472251682  , 0.1547025820051732     },
      {  0.189241829089336094   , 0.0291721824762183057  , 0.19875929985725016    ,-0.0764390230691389394  , 0.213332564519089413   ,-0.0629212011976882785  , 0.180555925215433094   },
      {  0.158760212176315835   , 0.0792770466329616869  , 0.185217471319433891   , 0.20965187516378167    , 0.271065418767746258   },
      { -0.0457912935752778777  ,-0.0407114917263759341  ,-0.0567236304141839204  , 0.043705063730002304   }
    },
    {
      {  0.38813092233084151    ,-0.0635467923536894852  , 0.294191403492372661   , 0.0811972682189923134  , 0.146019863476016309   },
      {  0.0480830449598755177  ,-0.0501763432830846789  , 0.0720832778049111389  },
      { -0.087364045085888839   ,-0.0700981977197450146  },
      {  0  },
      {  0.0668180241150908294  , 0.0725540951288730362  ,-0.0581621522162107732  , 0.107377643720305338   },
      { -0.0543897462954659183  , 0.201175382595539104   , 0.0258632524730169795  , 0.239571908801198497   , 0.191037756459366548   , 0.191329654221035705   },
      { -0.0472561898743309727  , 0.16489013147668119    , 0.212566358556307178   , 0.201875129853775037   , 0.270989095990697759   },
      { -0.0446875207926626938  ,-0.0484461313243245428  ,-0.0593253028363992935  }
    },
    {
      { -0.112941059912549324   ,-0.114039052049075454   , 0.0517300887216099042  ,-0.20223551778419574    ,-0.0668058332752710649  },
      {  0.0554960094910525517  , 0.0512937527301527904  },
      {  0.0603471089779240369  },
      {  0.0993930147847574691  },
      {  0.0866527817054924682  },
      { -0.0610104559891023052  ,-0.0735819003612344646  },
      { -0.0583783772033721962  ,-0.0526705574367897708  , 0.0842962059927233887  },
      {  0  }
    }
  },
/* Mode 1 */
  {
    {
      { -0.727276019413080843   , 0.167953362441819909   , 0.158955491504813418   ,-0.252936680358836097   , 0.448696183616326794   , 0.292859741895991121   ,-0.174338353364719201   ,-0.468484223040300629   ,
         0.308709804349441008   ,-0.406962820480087528   , 0.774088039438427078   , 0.18507555263640818    ,-0.353408831513453925   ,-0.222557959456297111   , 0.516954512504570363   ,-0.734988012386331713   ,
        -0.460770175076396671   , 0.039500108358784515   ,-0.288998041833058605   , 0.398166311198063838   ,-0.946566725597402514   , 0.492426314261238507   , 0.833417798493174877   ,-0.0822961128272636511  ,
        -0.434803058857339442   , 0.47074966049113165    ,-0.417146960351157559   , 0.237504881278105873   ,-0.472925512406864368   ,-0.101265691739733127   , 0.182686558677289085   ,-0.363857189757973376   ,
        -0.175744397993561008   , 0.309635661175552968   , 0.841716622733034936   , 0.789123340670632722   },
      {  0.122823109598143007   , 0.232139202097473768   , 0.709387965969094036   ,-0.289658139394332881   , 0.403042769530012113   ,-0.373945530572362905   ,-0.0242523421146104735  , 0.0315016611008874861  ,
        -0.219408842608281474   ,-0.294084045565494223   },
      {  0.0438215286065334539  ,-0.0412648035895259238  , 0.551122811340488128   , 0.221377200187454187   ,-0.0760190216362521126  , 0.150422266550273326   },
      {  0.459359455270366868   , 0.163499346642028726   , 0.0564380814771928557  ,-0.0778805431653020741  },
      {  0.41943186535974436    ,-0.0628703791240704662  , 0.0672923702852497863  },
      {  0.123288388408706484   , 0.55551537912998239    ,-0.092623303795228637   , 0.161002161101279129   , 0.146620783453801112   ,-0.106830331107138299   },
      {  0.422034202432623629   , 0.166030664509424525   , 0.379450674615115502   ,-0.0849591864781997497  },
      { -0.0471315475901454145  , 0.382837844271493921   ,-0.058142548897967751   }
    },
    {
      {  0.11901143645883204    ,-0.184977691715464576   , 0.223001032477624705   ,-0.251036950542837367   , 0.0762044261296831449  ,-0.217368819066217411   , 0.218335085936596174   ,-0.357967090525204423   ,
         0.267165452019644534   , 0.0552767740040768923  ,-0.0635813215147567751  , 0.108612764492168695   , 0.805856336572614573   ,-0.321390996004215002   , 0.271540164736178646   , 0.240987779680699454   ,
         0.0971351732638596477  },
      { -0.00673561771135113875 , 0.0819098141014510117  ,-0.174570856472955033   , 0.195006975443657193   ,-0.298450415722936457   , 0.0365887647117562539  ,-0.150037106152712596   ,-0.248233453588579733   },
      {  0.0889508135130192695  ,-0.109517549324052471   , 0.175979482869022735   ,-0.206732644645748892   ,-0.0885386819365714395  , 0.111269425581536963   },
      {  0.0997649674096820066  ,-0.0730316350938166187  ,-0.157411328694259667   ,-0.0726153753843605532  },
      {  0.0807455824658527138  ,-0.082678832666370855   ,-0.0629250454268633214  , 0.0846912097408089731  },
      {  0.0629384121745277109  ,-0.0879745002636066475  ,-0.0584285082665120248  },
      {  0.0697905176846457392  ,-0.0516198423472146659  , 0.13306525231267316    },
      {  0.0650157232090120829  }
    },
    {
      {  0.0256316187505817444  , 0.134145073265371562   ,-0.143066849423516579   ,-0.0735597650203562159  , 0.1188981791638557     ,-0.195169815514189549   , 0.165886611771282777   ,-0.0286742093862445285  ,
        -0.108041712795641023   , 0.706226610687489043   ,-0.259961244529562541   , 0.272164696908693216   ,-0.157748932102059564   },
      { -0.0908172058247974368  , 0.108114300820901163   ,-0.144387026946320773   , 0.0419992656866727682  ,-0.108688065924365709   ,-0.188580066666318324   },
      { -0.07565571979544293    , 0.0724880080900547757  ,-0.120669493594336236   ,-0.0507211777395516414  },
      { -0.0631606583697691404  },
      {  0.0708058516687780359  },
      {  0  },
      {  0.0802638690369926189  },
      {  0  }
    },
    {
      {  0.069115205472698546   ,-0.094171705991936569   , 0.586796614676346695   ,-0.104853535821910704   , 0.189737949704498282   , 0.112125854501782099   },
      {  0.0558060982175016262  , 0.0598721143789781168  ,-0.102297666834166093   },
      { -0.0573766300871172905  , 0.0835604810819394056  ,-0.101448466039346291   },
      {  0  },
      {  0  },
      {  0.0766594914197818583  , 0.0727852348379236652  , 0.0721395664024288424  },
      {  0.0718172412787232151  , 0.0691450163425281344  , 0.142227454953110455   },
      {  0  }
    },
    {
      { -0.071326258178822613   , 0.0802199982942429363  ,-0.0563264375144087517  , 0.49733313478868707    ,-0.129482946089323953   , 0.0555056002538293972  },
      { -0.0685914468915020531  , 0.0643354590165369916  },
      {  0.0741303582922851201  ,-0.0629653746454141572  },
      { -0.0704340959349292195  , 0.08482863503718098    },
      { -0.072422541107589819   , 0.0769577997914535489  },
      {  0.134996387734714979   , 0.0606076703936525227  , 0.113755778694098794   },
      {  0.077196760475768858   , 0.0773056197791860827  , 0.0546524517048564418  , 0.0847213786954489623  , 0.164252500513910688   },
      {  0  }
    },
    {
      {  0.0981911787583945594  ,-0.0601201953876032286  , 0.0593174943199403365  , 0.104741465633458167   , 0.161312485489950003   , 0.169850223673859907   ,-0.0742919979457332402  , 0.55804952482437653    ,
        -0.12133163331766636    , 0.0841213367821379981  , 0.0822836927853028283  },
      {  0.0336493301270587783  ,-0.0984284469379320959  },
      { -0.0589301988668348431  },
      { -0.0819539954295214201  },
      { -0.0858920305390310362  , 0.0860475923240810459  , 0.113627700045898963   },
      {  0.168881565512225357   , 0.109587735218584503   , 0.256446223138211804   ,-0.0620374065723515097  , 0.205704895443482527   , 0.246522050360210992   },
      {  0.134341879736465081   , 0.103872787255955043   , 0.234411233062925023   , 0.213691290523122301   , 0.307576500168753098   },
      { -0.0632314239299915926  ,-0.0825416140955048255  }
    },
    {
      {  0.115420859084852986   ,-0.0920608617025426706  , 0.13053190271247947    , 0.127734595111090171   ,-0.101206368496281729   , 0.637809330117128592   ,-0.130993526250960751   , 0.138509614297060629   },
      {  0.0355545301630811605  ,-0.0818858557045412522  },
      {  0  },
      {  0.060120267498929833   , 0.10393073792703085    },
      {  0.112018530717542614   , 0.0490279944802393883  , 0.111480839967606812   },
      {  0.1706696858501765     ,-0.073749477522295534   , 0.284030269579682138   , 0.236249134417525902   , 0.20733451144705986    },
      { -0.0787594004420169858  , 0.161534525860844602   , 0.256021394630274679   , 0.206984010203205365   , 0.261249075857807211   },
      { -0.0572102247120369889  , 0.0814917804766364384  ,-0.0715504526801446217  }
    },
    {
      { -0.0695472694919026108  , 0.177282311894063155   , 0.0627822837133803074  , 0.777914907013665391   ,-0.206042752986807298   },
      { -0.142892365154102058   },
      { -0.0830292219313649715  },
      {  0  },
      {  0  },
      { -0.0517437512509927588  ,-0.0963188186084809467  },
      { -0.0864500012894234837  ,-0.0547145384370810797  , 0.0834135906422349971  },
      {  0.0303516292499439594  }
    }
  },
/* Mode 2 */
  {
    {
      { -0.0646008025554836718  , 0.158028359626663867   , 0.129841301206101517   ,-0.145180981595032482   , 0.27084780370346917    , 0.0837915577814630219  , 0.322988210120084329   ,-0.192113752433373586   ,
        -0.321844238478619094   , 0.41828746290475588    , 0.0917181801350187703  ,-0.114723230595217371   ,-0.193920984413023217   , 0.200439797058938662   ,-0.219525054864046582   , 0.261618426505454305   ,
        -0.503816756650282693   , 0.847815304079074683   ,-0.981838053490479812   , 0.340669105035342534   , 0.396797106646846309   ,-0.647820836232164798   , 0.687108553384692566   ,-0.642459953468675571   ,
         1.49210482334739969    ,-1.33198197650243255    , 0.740005220399149732   , 0.138027133977032895   ,-0.711676685520511443   , 0.951459192811582977   ,-0.52148453526723626    , 0.627947043968747343   ,
        -0.552106149522999523   , 0.608130720312148432   ,-0.795026197390779288   ,-0.253321124608833104   },
      {  0.0386764638663779428  ,-0.0814274956986990456  , 0.0870148445263824732  ,-0.038871061040442384   , 0.0470892841152484656  , 0.0233089361172265329  ,-0.207367296918011285   , 0.403726765352554362   ,
        -0.273261244552075178   , 0.0973785832333018964  ,-0.127129460140588846   , 0.262416169593652604   ,-0.0788712732181723747  , 0.163327574000392245   },
      { -0.0596246302787102819  , 0.152435057979486366   ,-0.184718416165177451   },
      { -0.0989229573828883657  , 0.138693494446181509   },
      {  0.110939761499184594   },
      {  0  },
      {  0  },
      {  0  }
    },
    {
      { -0.0631891139254130568  , 0.0993726619078302287  ,-0.143234898728127641   ,-0.132324303512344171   , 0.0446675881313740933  ,-0.142669290103751234   , 0.096129862595169438   ,-0.274582513959185648   ,
         0.181165394880528297   ,-0.31620402119892177    , 0.333455529579726573   , 0.0512147583930358183  ,-0.148519621150205838   ,-0.121748128469297168   , 0.279030421007178397   ,-0.162736074059679131   ,
         0.542381153655588477   ,-0.552801307604423697   ,-0.608536494826668717   , 1.14084192768663639    ,-0.701209916877204797   , 0.309278148491816396   ,-0.608736933414924297   , 0.663827989223618076   },
      {  0.0171564097211789474  ,-0.0536388089573725801  , 0.109285608083035557   , 0.099966503244895949   ,-0.18488551723574792    , 0.135587417320364473   ,-0.0237039087236154099  , 0.058143198165415938   ,
        -0.0697410009234483846  , 0.0804520096413603586  ,-0.203427968419051863   , 0.23032643469146899    ,-0.173633500744530295   },
      { -0.0492752389878120534  , 0.141653800843400429   },
      { -0.0919395967387915403  , 0.13923342955528592    },
      { -0.0541649207561321483  , 0.0788309514108942733  ,-0.0911332417819094159  },
      {  0  },
      {  0  },
      {  0  }
    },
    {
      { -0.0187374844697983864  , 0.0595136216625889378  ,-0.0945209226259577512  , 0.123323956472639842   , 0.0186041814894016069  ,-0.120453754255373413   , 0.124219897534273288   , 0.149141315216065551   ,
        -0.231663745712805319   , 0.229058055929087345   ,-0.173292978688621507   , 0.165269054630035467   , 0.156556455278574314   , 0.14284406494734625    ,-0.194349387389692013   , 0.0932903557742072176  ,
        -0.0782223337852085004  , 0.139039352209014727   ,-0.163415554679291808   ,-0.305176404947307467   , 0.436792352925209071   ,-0.257871804883072875   ,-0.206194970282531587   },
      { -0.0572764091505588921  , 0.0849550999651231403  , 0.085593039775973434   ,-0.122251445828440941   ,-0.132001129072403578   , 0.138049424012004568   , 0.107993265956527862   ,-0.0789451630079306549  ,
        -0.0748125937248214218  , 0.0780051762301012669  , 0.0834364960989417842  ,-0.208444708667388123   , 0.22013429942138571    ,-0.0924629365453523422  , 0.206214192432135873   ,-0.252745970743386117   },
      { -0.0587603087332101148  ,-0.0647206742542280056  , 0.132936190783757291   ,-0.107180942849510741   },
      {  0  },
      {  0  },
      {  0  },
      {  0  },
      {  0  }
    },
    {
      { -0.0702505846092294078  , 0.0935470396734296578  ,-0.00631980572414271666 , 0.0973838648481776953  ,-0.12194022781558668    ,-0.128622614550905068   , 0.203063726128769634   ,-0.185690889437882173   ,
        -0.109945638188365502   ,-0.10703727265018452    , 0.162063305327631579   , 0.115567196759411892   ,-0.107137163010916719   ,-0.166139216893718134   , 0.241467143457273908   },
      {  0.041758944204946552   , 0.0739997006923526629  ,-0.106699976176395386   , 0.146384184814314477   , 0.120297340381938733   ,-0.0895887787606881453  ,-0.0399273963203857427  ,-0.0897875452424498344  ,
         0.0834533582983846278  , 0.104867777807678281   , 0.0555822217583182704  ,-0.124907710161055757   , 0.15304481639088105    ,-0.144371898023123529   , 0.200569900305473336   ,-0.218425779106438095   },
      { -0.0610115497714466132  ,-0.0755082843033502704  , 0.127486950952408029   ,-0.0845752776945522255  },
      { -0.0754731779378100126  },
      {  0.0849712940076798456  },
      {  0  },
      {  0  },
      {  0  }
    },
    {
      { -0.100815262551727167   , 0.0991046873255303912  , 0.117451460283493986   ,-0.156821036896436339   , 0.088536126619428071   , 0.124302374492189574   ,-0.10135189501552154    , 0.098299651931174209   ,
        -0.0756196919994840816  ,-0.144275263062084214   , 0.105107734373842243   ,-0.133710956151892574   , 0.108104040202561522   },
      { -0.096281209418058622   , 0.114060366080751957   , 0.0909147289773374612  , 0.102923775031760784   ,-0.15494423583928213    ,-0.118299422079328365   , 0.130552840351436467   ,-0.0802383977079491606  ,
        -0.0614452237141908247  ,-0.0786412140842437518  ,-0.124780316460144772   , 0.152499460194742337   ,-0.149970066662610702   },
      {  0.0774082066109394867  ,-0.0540870511675026339  , 0.135105332158581531   ,-0.0891681877177896015  , 0.102332008762401935   },
      {  0.0654495041272912664  ,-0.0887641821619493537  },
      {  0  },
      {  0  },
      {  0  },
      {  0  }
    },
    {
      {  0.0761139349053807091  ,-0.116205134346754349   , 0.108285527090949463   , 0.0712601033818858476  ,-0.0732413673070779203  ,-0.18549016973282037    , 0.127593553779796615   ,-0.10009162002033381    },
      {  0.0666762773337950948  ,-0.0963700994029303704  ,-0.069690708455230857   , 0.11557533343322661    , 0.0922403082693598053  , 0.055776496898566591   ,-0.0987556750196433852  , 0.092995542866593478   ,
        -0.114952507874619289   , 0.139970007410820996   },
      { -0.07643342593404856    , 0.0900049161718894652  , 0.0967035977563251298  , 0.117063193085289716   },
      {  0  },
      {  0  },
      {  0  },
      {  0  },
      {  0  }
    },
    {
      { -0.0814546946159402235  , 0.0778059689048869324  ,-0.182854799303815235   , 0.127016955010272992   ,-0.0936223798668557594  },
      {  0.0652971116501325638  ,-0.110636803439179032   , 0.0820809051694162822  , 0.106145115885235591   },
      { -0.0885080886741032025  , 0.0935825773618267492  , 0.0898669787502818368  },
      {  0.0554314391173834284  },
      {  0.115637220180967767   ,-0.124033222888107239   ,-0.0825132753834128541  },
      { -0.092655385856535058   },
      {  0  },
      {  0  }
    },
    {
      { -0.173308422269869145   , 0.114311874744335226   },
      { -0.0909823647359424142  , 0.0768978517369950099  },
      {  0  },
      {  0  },
      {  0  },
      {  0  },
      {  0  },
      {  0  }
    }
  },
/* Mode 3 */
  {
    {
      {  0.0356547742937696338  ,-0.0698807882821901177  ,-0.107181742757758658   , 0.182700506694788462   , 0.112273343714324514   ,-0.20391764348515054    ,-0.041250414295431248   , 0.12340129728579001    ,
        -0.126007470042296427   , 1.0022214126277651     ,-1.61164632091876059    , 1.76111769373530724    ,-1.56775418300175629    , 1.15411290128020072    ,-0.762122706098322777   , 0.308244026026094797   ,
        -0.0441307979872972433  ,-0.152509520642549412   , 0.287728239287846466   , 0.284329560680525228   ,-0.456935375472154293   , 0.446563073783010411   ,-0.387518834156175884   , 0.874275896659613139   },
      { -0.0335358797399955694  , 0.0976662096218215148  ,-0.0973974919721163901  ,-0.0798111560266973885  , 0.24006431796734029    ,-0.268603696856162311   , 0.119333745136916414   },
      {  0.0650558770554514332  ,-0.0934312505590837034  ,-0.0515993133424846873  , 0.134484774059128676   ,-0.187774671957724848   , 0.142953418625127643   ,-0.132154550851000224   },
      {  0.0647189500373055449  ,-0.0697287137606926594  ,-0.094825270761574168   , 0.158066567102666367   ,-0.12508375242128128    },
      { -0.0424506498499302998  , 0.0137715016986643488  ,-0.0218281959798012487  , 0.0722004815878452694  ,-0.080629363099708376   },
      { -0.0198363102475209441  ,-0.0436566848778561709  , 0.117095050487525582   ,-0.067347864117676487   },
      {  0.0673603329971531883  ,-0.0445672649474220736  },
      {  0.0137180666613798651  }
    },
    {
      {  0.0204113179700781203  ,-0.107135787964079979   , 0.172638953549633406   ,-0.159670425849344266   , 0.165242825993494991   ,-0.235086533962784505   , 0.194337759010739713   ,-0.0803110751029800368  ,
        -0.0189286366725467149  , 0.139238095621741415   ,-0.152279079433951137   , 0.896903409545750097   ,-1.12100552723359459    , 0.877824411533276838   ,-0.59813645961112949    , 0.252831362767443169   ,
         0.371246207611693413   , 0.211128034024382571   ,-0.218343728340204685   },
      { -0.0311490493214927923  , 0.139800643524120888   ,-0.135334590305490887   ,-0.096150694764445932   , 0.22498306880490121    ,-0.125339309666402388   },
      { -0.039654824620774333   , 0.106812768819370033   ,-0.116664355482369905   ,-0.034404419958357163   , 0.082583014062122026   ,-0.0921198238416569837  },
      { -0.0375413132578585745  , 0.0702929424151508137  ,-0.078782806592367069   ,-0.0735461773652348466  , 0.098610751340535846   ,-0.0786578300306947642  },
      { -0.0495642194932479352  ,-0.0658754534750316534  , 0.0646197588120021177  ,-0.0939378346626715544  },
      {  0.0511213465404810191  ,-0.0591514860156289526  },
      {  0.0778441963455600849  ,-0.0649609612568642636  , 0.0505211027030418452  },
      { -0.0486330598807607484  , 0.0546925916411353796  ,-0.0560855913340891354  }
    },
    {
      {  0.0142374275752926993  ,-0.0469994074451637947  , 0.0853563372168530538  ,-0.11426052567804687    ,-0.0912475191967603988  , 0.156603112294228769   ,-0.0222288668689817372  , 0.0553696723183883105  ,
        -0.0997701628064081303  , 0.105792989828018782   , 0.00960998693828473728 , 0.0218894533779589     , 0.749426243187108709   ,-0.779575732830824375   , 0.428674501266101793   ,-0.173072758807480742   ,
        -0.0640944051333342951  },
      { -0.0243484026840990186  , 0.0503018077596119328  ,-0.0950179291597606918  , 0.112949036808318803   , 0.0368014424477314459  ,-0.0948851874164258619  , 0.189409455622747941   ,-0.118115991794456254   },
      { -0.0293061258477064664  , 0.0610749092611397384  ,-0.0953587304834250388  , 0.0805570841021730488  ,-0.0360277360162519281  , 0.0742529699519989816  ,-0.0760816875136610393  },
      { -0.0412946228625558631  ,-0.0626784291786756653  , 0.0634640666770926037  ,-0.0803035319854824986  , 0.0796720391602298156  },
      { -0.0316864484164584015  , 0.0590940428886145702  ,-0.0654452224509250169  },
      { -0.0687482671400514722  , 0.0753077954484922402  },
      {  0  },
      {  0  }
    },
    {
      {  0.0144374332245951111  ,-0.0234560193527433673  , 0.0487429266943983711  ,-0.0847531436778896363  ,-0.0238560958704156084  , 0.0366751881193680893  ,-0.0481954435805484194  , 0.107034388647715459   ,
         0.00900672988941427465 ,-0.0289827363179399021  , 0.0368709841382068373  , 0.650952835141239361   ,-0.612626854086973482   , 0.217073582559089456   ,-0.0810072376409662204  },
      { -0.0288561084688709509  , 0.0339255282888038245  ,-0.0498428472318959009  , 0.0999949109104365103  ,-0.0737199408355179581  , 0.0529955206585696059  ,-0.112803041703400164   , 0.149492011021236076   ,
        -0.0835296259131706881  },
      { -0.0224457666569080269  , 0.0347795176189142907  ,-0.0545433196984432475  , 0.0875455021695466656  ,-0.0749648803764593058  , 0.0570243355896574364  ,-0.0644178029737783181  },
      { -0.0442870305733275779  , 0.0679056045203985104  ,-0.0587821739765001031  ,-0.0498509453333761954  , 0.077576897068310266   , 0.0641460226185801702  },
      {  0.0554756941376679941  , 0.0677214658056230073  ,-0.0594842023254034888  },
      {  0.0680019231828190296  ,-0.0623132052618758162  },
      {  0  },
      {  0  }
    },
    {
      { -0.00752957390442382784 , 0.0218885003254906015  , 0.00783677995491567463 , 0.54158794658826015    ,-0.533647135243454307   , 0.167624945222975025   },
      { -0.0120254144351755431  , 0.0322816064331288358  ,-0.0347930296622041557  ,-0.0758447774452589984  , 0.0716517061100495345  ,-0.127177265698883518   , 0.113036584956712385   },
      {  0.0260260179073063744  ,-0.0270795948938992864  , 0.0521178529438081767  ,-0.0533949451039218703  },
      { -0.0606603413834736274  , 0.106309186614681472   , 0.0758421001867253392  },
      {  0.0283460183996047908  ,-0.0332466147422570829  ,-0.0660856344583192895  , 0.100171898062862322   },
      { -0.0348809414231697687  ,-0.0538809970571434288  },
      {  0  },
      {  0  }
    },
    {
      { -0.0497379723977524058  , 0.0517593662780173949  , 0.457304190676202482   ,-0.4631236816586905     , 0.143067719776911156   },
      { -0.024471816773739493   , 0.0739039663803309349  ,-0.138660794513548541   , 0.129836992097851489   },
      {  0  },
      { -0.06822760111951022    , 0.0650402803046447597  },
      { -0.0437869823758243668  , 0.0925217031928165373  },
      {  0.0646280334661106931  },
      {  0.0564742101159494414  },
      {  0  }
    },
    {
      { -0.0504808238621749852  , 0.0695917111230384133  ,-0.0486058771258362152  , 0.062081162189645496   , 0.453778269404509715   ,-0.51712330408583429    , 0.172939025453736545   },
      {  0.0828664061939943797  ,-0.132955170893424263   , 0.121205239857707536   },
      { -0.0431656643539149523  , 0.0696704987477709953  },
      {  0  },
      {  0  },
      { -0.0544600419422540602  },
      {  0  },
      {  0  }
    },
    {
      { -0.101692629250737965   , 0.0490159940988924292  , 0.440652090801189167   ,-0.504120988145039806   , 0.207275284763865142   },
      {  0.104988270196070599   ,-0.187287020909012392   , 0.106430169042853226   },
      { -0.0578766946805959678  , 0.0565743750092831815  ,-0.0610748430068497397  },
      {  0  },
      { -0.0426337772453911565  , 0.0565776193769738436  },
      { -0.0654266903038693698  },
      {  0  },
      {  0  }
    }
  },
/* Mode 4 */
  {
    {
      {  0.133486594725413604   ,-0.151540477734221857   ,-0.167193876012654202   , 0.172358808397133467   , 0.0709589157137607424  , 0.156924334737202603   , 0.160766652535993759   ,-0.0637955841013386621  ,
        -0.348886467554655799   , 0.32031769869810145    , 0.779926250639287333   ,-1.01760212375312986    , 0.631695203952026829   ,-0.21061712435989341    , 0.452316394885378004   ,-0.724911247849960083   ,
         0.56238019137753481    ,-0.414192166891411584   ,-0.180600405082492282   },
      { -0.049678547345906314   ,-0.07741720570492229    , 0.0674959832420658351  , 0.137779037416487199   , 0.0532923564338466521  ,-0.204238115938681797   , 0.375443376597858147   ,-0.18940023054083896    ,
        -0.0749319222001973845  , 0.111851005968973044   },
      { -0.0419435239580640551  , 0.12294643909471463    ,-0.107907783595846282   },
      {  0.0058765817771702037  ,-0.00706587814033729587 , 0.100267342101231019   },
      {  0  },
      {  0  },
      {  0  },
      {  0  }
    },
    {
      {  0.0679066069378372883  ,-0.149079539587356119   , 0.163204977746994689   , 0.192818604005903782   ,-0.258255551070945388   , 0.16524408683917699    , 0.13268596696748261    , 0.112834413758869392   ,
        -0.240844211591650065   ,-0.309659084084824454   , 0.138860717571880343   , 0.41392074767328485    ,-0.294824001448705741   ,-0.198958281296896133   , 0.0812452009727743507  ,-0.133953585350117782   ,
         0.151035575703818203   ,-0.202899101003039761   , 0.268763712948978606   ,-0.188231727054919501   , 0.312195925749602254   ,-0.323818732077535143   , 0.229140332939938379   , 0.616941839370551248   ,
        -0.510273917046818348   , 0.392817091340988855   ,-0.172940378151680535   },
      { -0.0393385284987085929  , 0.0815743918080516911  ,-0.112618924890661401   ,-0.108604435215631678   , 0.210749874592059849   , 0.0398458827969577628  , 0.160470997335386195   ,-0.309958171630291157   ,
         0.269332227487359577   },
      { -0.0444363477522032244  , 0.101760138642245548   ,-0.127144985416729611   },
      {  0  },
      {  0  },
      {  0  },
      {  0  },
      {  0  }
    },
    {
      { -0.0537695386172735504  , 0.175235924659958353   ,-0.164685414080409348   ,-0.20302006728479921    , 0.143043255473686237   , 0.0308302873005061387  ,-0.119110715758997024   ,-0.105075278771450994   ,
         0.217331814213002267   , 0.260387423421681086   ,-0.284854342775645586   , 0.178866565376749276   ,-0.0904411807382060201  , 0.119195793596718447   ,-0.0306584031418600314  ,-0.177435033044157225   ,
         0.25650452528513823    ,-0.132921456930261306   ,-0.103322573223444375   , 0.347748906007282033   ,-0.252591570828448464   , 0.218373853512093041   },
      {  0.017772655313437604   ,-0.037532156453805969   ,-0.0984572098482781183  , 0.0882578052183318335  ,-0.0177082952452737898  , 0.0488442583776379918  ,-0.113674677481667985   , 0.143852547085992377   ,
         0.124414994588423825   ,-0.17857798225246671    , 0.144101605745732525   ,-0.314261518757320835   , 0.222180244895470225   , 0.0740973097551758109  ,-0.118568014284351625   },
      { -0.049117386952357199   , 0.0604610531961677911  ,-0.0537847047981445531  , 0.0990659474727655642  },
      {  0.104034329158975924   },
      {  0  },
      {  0  },
      {  0  },
      {  0  }
    },
    {
      {  0.0620708452000476654  ,-0.106961550833109043   , 0.120492603003366852   ,-0.138919783333221553   ,-0.0120220376065377048  , 0.0970650852117089236  , 0.0998700702551924696  ,-0.144150765882221032   ,
        -0.197547897032128938   , 0.19020388193591839    , 0.0114987453934294395  ,-0.0962062856810315115  , 0.131606454027380138   ,-0.206368883660534436   , 0.164298857134455745   , 0.226809796211626197   ,
        -0.141757691696203197   },
      {  0.0489308448454001399  ,-0.104067134194836472   ,-0.0897234357668269672  , 0.112733816269253537   ,-0.0491885686548961323  , 0.0722644393701825372  , 0.133182231148690683   , 0.139891899138796127   ,
        -0.201897608482844909   ,-0.136080541190988835   , 0.212641272452601476   ,-0.0728160172088293256  , 0.132607561571236043   ,-0.120404120752480456   ,-0.151974545285423979   , 0.164096716640915602   ,
         0.140625975063784714   ,-0.14835984594615112    , 0.156220718429510991   },
      {  0.0764144195321276032  ,-0.0742761356948563045  ,-0.0923299614656848538  , 0.136260950401743491   },
      {  0  },
      {  0  },
      {  0  },
      {  0  },
      {  0  }
    },
    {
      { -0.0876851054721308476  ,-0.0853614638076279769  ,-0.0654696579310649479  , 0.131010503640395792   , 0.132036361067272873   ,-0.241980131421745348   , 0.132642279151203385   , 0.13149322585938425    },
      {  0.077638998797214212   , 0.0752729777978692061  ,-0.109633506831713828   , 0.0676485340145757119  ,-0.0931676907474546789  ,-0.105265982731246904   ,-0.129533338854293689   , 0.144867346339692477   ,
         0.0962350808541693747  ,-0.128345015812821983   ,-0.071447350049647626   , 0.135421038367852464   ,-0.119779611600057706   , 0.112657647555340773   ,-0.172988427753747093   , 0.120533823108738836   },
      {  0.046809014227267659   , 0.0524402414090788527  ,-0.0812972086840070968  , 0.0698069104988724293  ,-0.120245453735027083   ,-0.0837361785771405798  , 0.145012636357753522   },
      {  0  },
      {  0.082242907518519287   },
      {  0  },
      {  0  },
      {  0  }
    },
    {
      { -0.244297466106262129   , 0.141681203808314615   },
      { -0.0731466194226203514  ,-0.0658154670369448941  ,-0.127964835997328108   , 0.0942511735114136412  ,-0.0887072814134697019  , 0.122937865429313384   ,-0.107138426311822493   ,-0.082693284712621315   ,
         0.0982873722138131733  , 0.13955509567041835    ,-0.125673039981853057   , 0.118954471491345748   },
      { -0.0820720751144696364  , 0.0731400106173009656  ,-0.0766960730062852258  ,-0.0805606150437182117  , 0.10215330941988858    ,-0.0980912188664518903  , 0.126697958790738946   },
      {  0.0651890638541130357  ,-0.0844069680773796016  ,-0.09302066160572664    },
      {  0.169480643110218043   ,-0.0951549172493403594  },
      {  0  },
      {  0  },
      {  0  }
    },
    {
      { -0.201164591714674268   , 0.142349049064028094   },
      { -0.084740327021713191   ,-0.0759260103302419331  , 0.118583065551312108   ,-0.122866035782524322   , 0.178817578523003645   , 0.126930889069619829   },
      { -0.10053208822380813    , 0.114199365963423283   , 0.0748027974353737551  ,-0.123426458017585949   ,-0.117245323924681205   , 0.182310365348102549   ,-0.106158593804041024   },
      { -0.091785580746705564   , 0.0627257965352783081  ,-0.0827508278207308434  , 0.0909338316625484949  , 0.0679249363577971305  ,-0.14475262346311174    , 0.149002587128398006   },
      {  0.134546656909268758   },
      {  0  },
      {  0  },
      {  0  }
    },
    {
      { -0.00507551584790436744 , 0.0048472679612861962  ,-0.245050831384178824   , 0.171000402590537059   },
      {  0.0728842827789744907  ,-0.192767961960160661   , 0.1989828079474939     ,-0.0930894560979272923  },
      {  0.106168626218625509   , 0.0838181467713627476  , 0.0760580984060729159  ,-0.208413026349434455   , 0.0985830513955409937  },
      { -0.0603054739548012503  , 0.115208697221690679   ,-0.146687931214589173   },
      { -0.0919104678359236732  , 0.121538127228117757   },
      {  0.0649186022935207552  },
      {  0  },
      {  0  }
    }
  },
/* Mode 5 */
  {
    {
      {  0.23657255948967415    ,-0.103999953068248774   ,-0.213261214683328593   , 0.201542940775475354   ,-0.207449716210959589   , 0.106426207987927846   , 0.331342938688970023   , 0.242182096327177604   ,
        -0.467323803200935917   ,-0.229428885838640712   ,-0.599709419302006719   , 0.535923930881524457   , 1.18109033414283626    ,-0.3777339740213847     ,-0.510131764019690404   , 0.61192704542327836    ,
         0.0609956528515158899  , 0.235333793458063295   ,-0.533640800314683528   ,-0.388984425808003409   , 0.662849464413366229   , 0.57659143491185838    ,-0.388261280678715237   , 0.240006815402398571   ,
        -0.884653275729689881   , 1.77422330722808441    ,-0.963672487918849852   ,-0.80333916235757119    , 2.09379458467650359    , 0.379660987315498522   ,-0.611216063183425473   , 0.535398554880766708   ,
        -0.456020770233051487   ,-1.0919629287714423     , 0.376599174475372667   },
      { -0.086759807360708957   , 0.10197121904035332    ,-0.112549621159513627   ,-0.204367055030929723   , 0.209874893412498292   ,-0.197663597309065742   , 0.304768375479626763   , 0.169132488545933074   ,
         0.171790440966319624   ,-0.210178137504144102   ,-0.232768166386043168   , 0.213874149363199373   ,-0.37467166903541238    , 0.56885116815929071    ,-1.23104942765262781    , 0.40379651054937088    ,
         0.476565825760166262   , 0.193895564367578516   },
      {  0.138862966941467103   ,-0.0825252453142400061  , 0.20748425554534411    ,-0.229245093475327122   , 0.410032011424229403   },
      { -0.00937160601943942857 , 0.0796434926933369952  ,-0.123733595202603477   ,-0.219949371804611382   },
      {  0.107668249075209221   },
      {  0.0038371576005337177  ,-0.089510335565495841   },
      { -0.0783386629989362288  },
      { -0.00337618445913171221 }
    },
    {
      {  0.0418490321596501902  ,-0.11818988101587713    ,-0.158117711560183949   , 0.14713634825529387    , 0.228511161026651366   ,-0.399843089384796901   ,-0.165041542273902053   , 0.185559619783028928   ,
         0.356557514807234965   , 0.686891334794016206   ,-0.321936676915525077   ,-0.887578910260564791   , 0.415710416017074647   ,-0.131987687650052782   , 0.102314523655405137   ,-0.33335667266421326    ,
        -0.202377363690365075   , 0.222946959883935397   ,-0.498777969618304062   , 0.654503123902105632   , 0.922180103219161884   , 0.297642519407047335   ,-0.361423775143913384   },
      {  0.0854366931787188949  ,-0.087547360735911281   ,-0.0926036642155868006  , 0.131832807993514572   , 0.12532119908919126    ,-0.123295643326971197   , 0.209184656797978569   ,-0.0785410628755659618  ,
         0.0973029790866957872  ,-0.238563668411766239   ,-0.119822900357330328   , 0.264856111642266745   , 0.238687681094510024   , 0.201151591269183583   ,-0.401357040996417891   ,-0.0513584939034018514  ,
         0.0924581383189344436  , 0.133024434979983647   ,-0.253257166435190806   , 0.318863082060739267   ,-0.687464808180369369   ,-0.229234127924072273   , 0.235949462623241568   },
      { -0.0548959553917226298  , 0.0760532512244147252  ,-0.0826775232553002559  , 0.221312146873334142   , 0.032027167111772302   ,-0.1368862631038823     , 0.223145525179936077   , 0.244212033475499218   ,
         0.11352492398923103    },
      {  0.090948863111268638   ,-0.107288716320833241   },
      { -0.0799882013904335692  },
      {  0  },
      {  0  },
      {  0  }
    },
    {
      { -0.0789105684976207089  , 0.253811754919322341   ,-0.196172984483866719   , 0.249481902428569158   ,-0.158673905806755416   , 0.213286391248728724   , 0.173664136671357883   },
      { -0.15876694571888858    ,-0.153906590573920005   , 0.220590308250407263   , 0.174452410942833258   ,-0.140789600143471139   ,-0.200026692125870542   ,-0.0588301959614410883  , 0.124039319142314572   ,
        -0.232601405494947511   ,-0.239337936944138241   },
      {  0.0443362489328079576  , 0.140155441456123825   ,-0.11610384436953157    , 0.045952893058183085   ,-0.0903465306529163681  ,-0.106504889878042963   , 0.109803976705087888   , 0.186474126852222727   ,
         0.102980937169385681   ,-0.191607361831230227   ,-0.0742875973316351884  , 0.0521948757147992978  ,-0.172680845046196102   , 0.190167379024302974   , 0.118413014901216654   ,-0.165840804926219582   },
      { -0.081373443704306006   , 0.13081499271386518    , 0.108922851334645368   ,-0.126963980616687871   , 0.14638806748692329    },
      { -0.0831635432538579411  , 0.11249678256266353    },
      {  0  },
      {  0  },
      {  0  }
    },
    {
      { -0.00873876420120963011 , 0.0984526860300397877  ,-0.125508836792156242   , 0.125206499168063479   },
      {  0.0940745132199283934  ,-0.147268219746568729   , 0.0740654523594374281  , 0.0940343953978727554  , 0.135782151253563854   },
      {  0.121074867820738966   , 0.0895886587296150089  , 0.114654606084610824   ,-0.120068809950567054   ,-0.149179119211748951   , 0.133451700615699054   , 0.0609236897172258235  ,-0.0938206045898773433  ,
        -0.0871511884451575958  , 0.0842571084896196337  , 0.129754210570590417   },
      {  0.0676796931501900401  ,-0.0760868474358791375  , 0.115192909364163654   ,-0.0932871602763654523  , 0.152749065963670327   , 0.0842910896064592435  ,-0.150267344315105189   ,-0.142464191722746741   },
      { -0.063825880804409027   ,-0.0860967958222516178  ,-0.0941769749281319568  , 0.158740155176429004   },
      {  0.0710482893003222538  , 0.0735490732547267739  },
      {  0.0878587425081049089  },
      {  0  }
    },
    {
      { -0.0681604186806219342  , 0.0984213693948248342  },
      { -0.0852875819825608533  , 0.0967095165806728801  },
      { -0.0831808185256977806  , 0.0882039546865297647  , 0.128836358120512418   , 0.0721615369820877012  ,-0.0733413330519768064  },
      {  0.108181226102901276   ,-0.0731878163162938689  , 0.11714795544151671    , 0.144539718506431214   ,-0.12376693258257157    , 0.100962503217816316   ,-0.0931666464149989715  , 0.116377297853001882   },
      { -0.0963303666668279684  , 0.115642541674811555   ,-0.08432577020657403    , 0.111329109683688102   , 0.145846493635979874   ,-0.0993705791204489014  , 0.166502273343517138   },
      {  0.0829633649977018217  ,-0.106203088976733945   },
      {  0  },
      {  0  }
    },
    {
      {  0.0721801237108117832  },
      {  0  },
      {  0.114085751445929071   },
      {  0.0934961147637592555  ,-0.0954294272608777888  ,-0.116001511895674175   },
      {  0.0871471591280347097  ,-0.151127589919480498   , 0.0865524464633390667  ,-0.117791592682225138   , 0.0996828967177833813  , 0.0814530977335760908  ,-0.119552603798139589   , 0.219514546597910587   },
      {  0.118748619032906733   , 0.140543436515018799   ,-0.144641129492253911   , 0.109740719806095899   , 0.150083016657112767   ,-0.14618508430850069    },
      {  0  },
      {  0  }
    },
    {
      { -0.094449037675315109   , 0.105420226376381529   },
      {  0  },
      { -0.107149606085569615   },
      {  0.122668213261584044   },
      { -0.0803588732758549196  ,-0.0921514403717175884  , 0.111339226995353008   },
      { -0.090181282384510314   ,-0.108556066728169767   },
      {  0.152934380824763599   },
      {  0  }
    },
    {
      { -0.00387408369015606376 },
      {  0  },
      {  0  },
      {  0  },
      {  0  },
      {  0  },
      {  0  },
      {  0  }
    }
  },
/* Mode 6 */
  {
    {
      {  0.101346341617061603   ,-0.149470707688728138   ,-0.185045421707749708   , 0.263586092333607913   , 0.746725451702350385   , 0.466954012104652483   ,-0.13916723724120808    ,-0.921200842686211385   ,
        -0.833322244405039103   , 0.536898844538021502   , 0.403370972966784924   ,-0.0730559528537724212  ,-0.140528473903053702   ,-0.145696282074377542   , 0.195359972192166026   , 0.139704639262812819   ,
        -0.150537754174227739   , 0.290911115186989255   ,-0.525469266161557313   , 0.374838803146661681   },
      {  0.0493558327150392939  ,-0.111315344790019463   , 0.208809590021961117   ,-0.0774884572425628831  , 0.184070140557047263   ,-0.201554763906462792   , 0.191577411686996046   ,-0.227932621349211467   ,
         0.290683031253204938   , 0.506868892234331181   , 0.31380753988209148    ,-0.0928804059548398314  ,-0.542565469860755045   ,-0.23412590400407185    , 0.356828457397247889   , 0.038068206195349133   ,
         0.0917121811287572308  , 0.112033182744541146   , 0.139284224685068209   ,-0.246099767441030876   , 0.246800003475391411   ,-0.226384354128190801   , 0.152289013717963689   ,-0.292642939322855566   ,
         0.373178887306638341   ,-0.353444487246216188   },
      { -0.0551689543620710598  , 0.139242475319306364   ,-0.13596586333718455    ,-0.0865114874248899962  , 0.146317346275559923   ,-0.181907001620197101   ,-0.0916200443968705064  , 0.226622334852518148   ,
         0.152991367193125227   , 0.0953604901825525486  ,-0.207585254141153391   ,-0.026408397816287503   ,-0.0595895077020867844  ,-0.0767454040147955568  , 0.115095187889187101   , 0.0265774932450947229  ,
        -0.100723666470455067   , 0.19917952085229193    ,-0.16363736162752901    ,-0.0839827165184057478  , 0.171246703924699262   ,-0.196934622803629639   , 0.151379010696179511   },
      {  0.0536021428265611513  ,-0.070290044981378752   ,-0.0829891484405321372  ,-0.171020109750491367   , 0.0992242802852121852  , 0.0792326580218250254  , 0.0870906876268031094  ,-0.14143907944773404    ,
         0.0135817125086226172  , 0.0287959604085765673  ,-0.0132510162781835916  , 0.0829191906983115373  ,-0.143877812715876852   , 0.147355694996252257   ,-0.103879969366506855   , 0.126903658572508043   },
      { -0.157173662188384994   , 0.100488482429851256   ,-0.0786235148527612837  , 0.133337996851664781   ,-0.101393378293154535   },
      { -0.146784641459315912   , 0.144694982112130804   , 0.0587532523096938111  ,-0.097692313707678502   , 0.109628229057371018   },
      { -0.10910862388241245    , 0.0888714105234730545  ,-0.0857270484033892388  },
      { -0.0997873735046627131  , 0.0862450196385133316  , 0.00427583027096879037 ,-0.00430782395082446572 }
    },
    {
      {  0.0964683997804576948  , 0.068072201390928011   ,-0.0474361273336586092  ,-0.23153012931189057    , 0.359954490052379839   ,-0.298155466678228898   ,-0.0648537144527775583  , 0.0786744696733277654  ,
        -0.137909183899029758   , 0.16873269854080869    ,-0.142586932181442749   },
      {  0.0265211199998895905  ,-0.0543172685005641614  , 0.0710019522397534047  , 0.0299000304010506347  , 0.122081716306781302   ,-0.27771988667822195    ,-0.104819694200384381   , 0.267045577386797739   ,
         0.113083902996941765   ,-0.154836188339007336   ,-0.0554841427515642555  , 0.113333677272550934   ,-0.138951005504425767   , 0.113084924140635562   ,-0.16422364983479143    , 0.205995229917087685   },
      {  0.0508101919062901308  ,-0.0932583932331022547  , 0.109645717471974352   , 0.119104117585234801   , 0.0612685939786576095  ,-0.15200256611302318    ,-0.138847377066441735   ,-0.101006096363873241   ,
         0.155936471198790061   , 0.159458041373917142   , 0.0280518744575603239  ,-0.0986709313427099194  , 0.126364785900882876   ,-0.0852387180387842863  , 0.134789082293922946   ,-0.0863508879548399166  ,
         0.1691522571621073     ,-0.21557191666915157    , 0.160041833775676434   },
      { -0.0818389564449222146  ,-0.0616357367529594066  , 0.0839166031990841443  ,-0.0602495871242506587  , 0.117694253315445946   , 0.100703050842973693   ,-0.162612489924314318   ,-0.0939382468689173161  ,
         0.144579590291777665   ,-0.0402179611925346722  , 0.0889134570028142363  ,-0.103378951675527173   , 0.0817435361264284982  ,-0.116878869432799931   , 0.0812629898518228144  ,-0.152420604936181342   ,
         0.177613153120718126   },
      {  0.0862670371062999458  , 0.0596301154019206886  ,-0.144905497432946145   , 0.107982106475877443   ,-0.0785429868678635956  , 0.105207822157841149   ,-0.0786078837027584243  , 0.125523266752209428   ,
        -0.116282590162217148   },
      {  0.104489224682127596   ,-0.0798105808380877163  , 0.0836955883550082602  , 0.0776232620066251433  ,-0.104418191802647414   ,-0.0729584332710116606  , 0.0623865634735305749  ,-0.0924182629338911044  },
      {  0.0635732275296276156  , 0.102266644804658066   },
      { -0.10057294644116066    , 0.0994685536844120699  }
    },
    {
      { -0.0389106516762797588  , 0.0823682744880961659  ,-0.115090209656219841   },
      { -0.0528955655482312992  , 0.105242741937369072   ,-0.0968735116841571847  , 0.0467240302532312968  ,-0.0714909778997564888  ,-0.0554289361650026693  },
      { -0.0805580870864586324  , 0.12115387737459872    , 0.108054423168243721   , 0.0447909390401530424  ,-0.0751652769085971034  , 0.0816011742545861007  , 0.111423896577689904   ,-0.101934858675026788   },
      { -0.0604480961312982221  ,-0.0624113339244362075  , 0.105048010223313629   , 0.0940373317162672695  ,-0.122053043302981432   ,-0.0462982596869604135  , 0.0885783401624738731  ,-0.0927919144683893998  ,
        -0.107360542279899565   , 0.114661207752087213   },
      { -0.0648408529819172047  , 0.101569865842261478   ,-0.061015354208366443   ,-0.0810741136518719208  , 0.102618697392644703   ,-0.108481407560356943   , 0.0554772095468874862  ,-0.0925611822245009375  ,
         0.0892127885602619908  ,-0.0750408845187283957  , 0.121055013650347709   },
      { -0.0737682205208501363  , 0.0771197215247503703  ,-0.110659278122849258   , 0.0692591973430470992  },
      { -0.0714422654587349576  , 0.0932505797969050282  },
      {  0  }
    },
    {
      { -0.00848919657736530928 ,-0.0759445671735136524  , 0.116377443086974439   , 0.00744032212212099916 },
      { -0.079860997268669312   },
      { -0.0587042357114025276  },
      { -0.0522262398087486382  , 0.0731767350821761475  },
      {  0.0776971271237700545  , 0.0565388664870427951  ,-0.0927062298635682874  },
      {  0.0886646773498877272  ,-0.0976932295738632273  },
      {  0.0688239481361656025  },
      {  0.0798652543003598864  }
    },
    {
      {  0.0872909926573628425  },
      {  0  },
      {  0  },
      {  0  },
      {  0.0786798221876881809  },
      {  0.0867672590502252677  },
      {  0  },
      {  0  }
    },
    {
      { -0.077125839120094325   , 0.0898042699960568958  },
      {  0  },
      {  0  },
      {  0  },
      {  0  },
      { -0.0665628465726050833  },
      {  0  },
      {  0  }
    },
    {
      {  0  },
      {  0  },
      {  0  },
      {  0  },
      { -0.097882864135753242   },
      {  0  },
      {  0  },
      {  0  }
    },
    {
      { -0.148506183780763551   , 0.0814953818887819287  },
      {  0  },
      {  0  },
      { -0.0840332295480677588  },
      {  0  },
      {  0.0661475556734098941  },
      {  0  },
      {  0  }
    }
  },
/* Mode 7 */
  {
    {
      { -0.110344291614383666   , 0.115472808106986111   ,-0.0956826362076011877  , 0.224248015683226304   ,-0.235807914944847319   ,-0.208543934930803476   , 0.25190148119880662    ,-0.278277472440867368   ,
         0.996928211799883335   ,-1.59419910906681017    , 0.160571726252495189   , 1.80583353448783335    ,-0.250605745981754169   ,-1.7804798471719776     , 0.291755480874577311   , 1.40976680906055507    ,
        -1.14977622198010399    , 0.634993512705149143   , 0.182744042880565644   , 0.17215038531524085    , 0.517167631111728698   , 0.123414081468865719   ,-0.103905166663765106   },
      {  0.0332147036220261649  ,-0.129387817327923427   , 0.127163213008286646   , 0.144115822803166926   ,-0.224558998482346256   ,-0.141358013868708776   , 0.166965194355960328   ,-0.233625853307093012   ,
         0.928304536670959246   ,-1.02411386921566305    , 0.105782750033649064   , 0.867934501209174925   ,-0.743077592679832311   , 0.260424668714766494   , 0.555977803586439889   ,-0.40517927067436188    ,
         0.232469039348168982   ,-0.00702458213246970158 ,-0.0287131437716302215  , 0.00851211491683235948 ,-0.0583677204246190739  , 0.150733028993727425   ,-0.131111590476211376   },
      {  0.0155403763565220582  ,-0.0672820596442867958  , 0.101255900031169715   ,-0.0908348704464918277  , 0.0684228068850571136  ,-0.131845908999357386   , 0.853214189011603508   ,-0.752962273126503101   ,
         0.0994239012651430415  , 0.420140787790569348   ,-0.189913432624386064   , 0.0174960946119556496  ,-0.0153568597858462792  , 0.0849316544444506799  ,-0.107305329145307868   , 0.0897872303907510522  },
      {  0.0150050256420700169  ,-0.0253259773656121859  , 0.0491008584929282579  ,-0.0844533676810735462  , 0.0804870925493593042  , 0.776645099175435116   ,-0.0214423447986752044  ,-0.540714569901930453   ,
         0.100682717105528563   , 0.201904636977996571   , 0.00474196892126252378 ,-0.0288152826317400572  ,-0.0196750197856635327  , 0.0242399807353647773  ,-0.0747385216592885565  , 0.0935725933830809792  ,
        -0.0771458199483975315  },
      { -0.0151445274094628834  , 0.0052750774770473673  , 0.682509287260931852   ,-0.440141237523657358   , 0.152488572348788792   ,-0.00477427109740440146 , 0.0251220440667347562  , 0.0480541615749023321  },
      {  0.64307550028774485    ,-0.388517620952531562   , 0.133216634451109012   },
      {  0.621512643641076723   ,-0.475005907405052497   , 0.0579531302677889978  },
      {  0.0471982131898961849  , 0.604318601539808986   ,-0.346112328634675614   , 0.142929125476060626   }
    },
    {
      { -0.0897527478026659137  , 0.299415174242926352   ,-0.342518173916956825   , 0.319236314823374501   ,-0.183965196922859675   , 0.112837506002055762   ,-0.119807699096100312   },
      { -0.0830056729984847141  ,-0.0978109599043199829  , 0.200795458339295435   ,-0.186782765254238592   , 0.154214608520263696   ,-0.0499089107464648976  , 0.165470890237634616   ,-0.139266152194845227   },
      {  0.0260158721796202065  ,-0.10545872686972893    , 0.159191841726459477   ,-0.138174354716237291   ,-0.0179940471704515131  , 0.0766701639757861736  ,-0.127300386035660296   , 0.0920845405949010237  },
      {  0.0356247960337534308  ,-0.102821459291195946   , 0.110070102397561459   ,-0.0983897942603404185  ,-0.022072005444089722   , 0.0281231322068553266  ,-0.0542003673440119016  , 0.112461190661712437   ,
        -0.0854640511697251359  },
      {  0.0439712497830618901  ,-0.107385429400091548   , 0.0997899286872608593  , 0.0226271503316467851  ,-0.0243341340721969501  , 0.056433956277118176   ,-0.0778574154191544465  , 0.0619482175942673505  },
      {  0.0565355130157591257  ,-0.119697232078137303   , 0.0931310376735388357  ,-0.0213258927005683142  , 0.0512336637045688048  },
      {  0.0643276468206675917  ,-0.113099727660075408   , 0.0879739442741004213  },
      {  0.0601093729945665206  ,-0.12845346271070604    , 0.123698344407213542   }
    },
    {
      { -0.0480743600927551959  , 0.151876177015661917   ,-0.219171004947133041   , 0.208181350063719933   ,-0.152226415636269152   , 0.0937662148619910485  ,-0.0964555597681161503  },
      {  0.0724849557331598421  ,-0.112950199302074492   , 0.103221295790904777   ,-0.0145913115000372712  ,-0.043157247766006171   , 0.122959363411193082   ,-0.113966073354668393   },
      {  0.0616688229939096957  ,-0.0857530565395255295  , 0.0884021313052460733  ,-0.0211396275596087355  , 0.0614864218225321113  ,-0.116359706103099703   , 0.0710051412884702138  },
      { -0.0196856471618270558  , 0.0259318595293277082  ,-0.0737540390801657147  , 0.0948271711673933926  ,-0.0663915845988242437  },
      {  0.0248018058122081789  , 0.0583362248624948385  ,-0.0677757025212715608  },
      {  0.0680744180266220217  },
      {  0  },
      {  0  }
    },
    {
      { -0.118036585038591713   , 0.183684060696322482   ,-0.146032060934165042   , 0.060777546594435454   },
      { -0.0595236988531407524  , 0.132789262237935829   ,-0.105942529519526735   ,-0.0307655834168448217  , 0.111317936620524083   ,-0.0994697556540742045  },
      { -0.0456439363405852713  , 0.0742856429095996862  , 0.0403845646758961424  ,-0.0717012195129687196  , 0.0725016785839762007  },
      { -0.0560352080946014131  , 0.0656123317958219182  ,-0.0448006619294974706  , 0.09134615625906084    },
      {  0.071557755839413123   , 0.02418238069146076    ,-0.0365056930181172634  , 0.0607137478925763099  ,-0.0663953933194957879  },
      {  0.0573617520028305086  ,-0.0545559416079819254  },
      {  0.0447072683250646502  },
      {  0  }
    },
    {
      {  0.0140171207148150918  ,-0.0323570300334492314  , 0.10078116337377907    ,-0.130152734944965154   , 0.0761206349443357272  },
      {  0.0543306659056098859  ,-0.0639327443051570521  , 0.110079178307935843   ,-0.0610606490873759761  },
      {  0  },
      {  0.023093742139127113   ,-0.0437533840567090188  , 0.0638525613250603419  },
      {  0.0698749213118058377  },
      { -0.0427781595250336724  },
      {  0  },
      {  0  }
    },
    {
      {  0.0103759511302970887  ,-0.0287995713951928918  , 0.0362900377724293052  , 0.0740913490008357212  },
      { -0.0462946908041123456  , 0.0795611168021227583  , 0.0435138663754481986  },
      {  0.0501775816620986179  },
      {  0.056411873382140848   },
      {  0.0590640383298173047  },
      {  0  },
      {  0  },
      {  0  }
    },
    {
      {  0.0571677469202524699  , 0.110730510716643582   },
      {  0.0477661829360021759  ,-0.0674635438752125699  , 0.0554439444166334311  },
      {  0.0490814423959592197  , 0.061626571449460453   },
      {  0.0593244870596444027  , 0.0521611689376498266  },
      {  0  },
      {  0.0449992378904626594  , 0.0461927065802792552  , 0.0470069258976979348  , 0.0481823994010688317  },
      {  0.060821323970993886   , 0.0679361194409060648  },
      {  0  }
    },
    {
      {  0.113176970501423071   ,-0.071631582519791473   ,-0.0303147084826960629  , 0.0449316687479368732  , 0.153763902889398757   , 0.0651580934252406485  },
      {  0  },
      {  0.0440097297480803867  ,-0.0840874293924979976  },
      { -0.0859516945995557197  },
      { -0.039337195093863582   },
      {  0.0533323614363381202  ,-0.0520993672838752503  },
      {  0  },
      {  0  }
    }
  },
/* Mode 8 */
  {
    {
      { -0.0356346673897914579  , 0.0911222706237007629  , 0.713638831285294262   ,-0.537272010419069801   ,-0.123030401075566106   ,-0.870873785709728288   , 0.915955931212011021   , 0.474267549382417608   ,
        -0.691739302053733129   , 0.480612643991883581   ,-0.321497521051329616   ,-0.356141693068603105   , 0.247456064782148294   , 0.313989688699804426   ,-0.280363311459865316   ,-0.635461502254496935   ,
        -0.167778976323889356   , 0.1571251321071295     , 0.404108352344698718   ,-0.245878969028945737   ,-0.319312135230903626   , 0.0677366339033840387  ,-0.110129265651230906   ,-0.167673128896482865   ,
         0.239862036328385458   ,-0.213131103035107239   },
      { -0.042134789591838806   , 0.0624132600424452469  , 0.226291510864654766   , 0.109225056407852877   ,-0.489648942969481527   ,-0.200056304893545145   , 0.443865772068945508   ,-0.217305552204357377   ,
        -0.227146249832249875   ,-0.355548308741378383   ,-0.274712129155827378   , 0.227633798177776986   , 0.494524032618108234   , 0.30101183662809744    ,-0.259917940456930951   , 0.0443707122963659106  ,
        -0.0993868476266451667  , 0.167413694941651592   , 0.293120504009433236   ,-0.0818052228057326719  , 0.161263680669260417   ,-0.277105713871602322   },
      { -0.0168123383887637777  , 0.0474867189986630175  ,-0.0331960160258459799  , 0.209340717664413811   ,-0.248627737845770663   ,-0.126533070264960634   ,-0.169893558443239001   , 0.199057270556440347   ,
         0.0503284847758900603  , 0.138342130849644696   , 0.164313472445025921   ,-0.152209987257514362   ,-0.207465576992297257   ,-0.138515437465083546   ,-0.0626158412745634468  , 0.141929493542914176   ,
        -0.105396725962982926   , 0.0891380494514676519  ,-0.205116457689195869   , 0.194924321771329956   },
      {  0.0874623388461354817  ,-0.215468864589193954   ,-0.125160332178501865   , 0.20702428048793628    , 0.0159920165590601883  , 0.10424571433141594    ,-0.0160366929072689145  , 0.0722401482274776519  ,
        -0.146444262596304497   , 0.0994438462560974928  ,-0.101983359477006555   , 0.13543231277244222    ,-0.130778050091845899   },
      {  0.0514530464947550725  ,-0.168994803319154646   ,-0.0654161022194715558  , 0.157536354071333234   ,-0.0621195732208144821  , 0.124617131206674017   ,-0.0925419157287471622  ,-0.0452529480185787161  ,
         0.0637295154227180277  ,-0.117191900105336949   },
      { -0.161598892073566008   , 0.123994136037067937   ,-0.00472481001321651932 , 0.00487251781465957313 ,-0.0972841835133991945  , 0.0849037380969705074  },
      { -0.0775737724909701387  , 0.153413755598233226   },
      { -0.116130541118641462   , 0.143793874926522652   , 0.00437462974881056271 ,-0.0044884673471267825  }
    },
    {
      {  0.0626355496719342014  , 0.0547952198129676646  ,-0.181047173289683172   ,-0.0925452724916199093  , 0.333828802764552901   ,-0.190287434707589465   , 0.186941468832235808   ,-0.0618604922183373096  ,
        -0.0626373454524065676  , 0.11217474125357331    },
      { -0.0310121671312697765  , 0.15759339686209925    ,-0.0934793124298457234  ,-0.249665207232328268   , 0.229892032916536371   , 0.0313077650869927684  , 0.0646392802110087317  },
      {  0.115445103120650983   ,-0.161035232280450746   ,-0.25884986783576186    , 0.244179031551102294   , 0.193706354274644166   ,-0.176297109418501213   , 0.074309808009604808   ,-0.121252000281179259   ,
         0.0793209999139665167  ,-0.146407477478980197   , 0.115000620820191232   },
      {  0.0705192767277669635  ,-0.123981509864303591   ,-0.0889098819396889756  ,-0.0953967369245513758  , 0.264469361747747544   , 0.126524758730845399   ,-0.161430698656864685   ,-0.0651528674567396077  ,
        -0.0951317639118893499  , 0.0772871419058431403  , 0.201636849818929625   , 0.187523140255393295   ,-0.132427603724774384   ,-0.101873589743497528   , 0.128583190682601239   ,-0.107519724743542974   ,
         0.14814078371354153    ,-0.178274965509847394   },
      {  0.0587686937556293199  ,-0.127145296967673044   ,-0.180410083484144557   , 0.113454163673330971   , 0.179309115922252099   , 0.121746798507436207   ,-0.174428277530191272   ,-0.138025128537986985   ,
        -0.22934093138754913    ,-0.118415471883301732   , 0.119563802859221413   , 0.116972311210514074   , 0.0976928655370531279  , 0.0789869764099169341  , 0.131932914458743944   ,-0.16717695898628851    ,
         0.147456194535458551   },
      {  0.0811751252337758189  ,-0.117937091902187957   ,-0.123940539998023      , 0.210349943861183247   , 0.167328582733667464   ,-0.115383351892509048   , 0.0617456496607386648  ,-0.103872178466920317   ,
        -0.154694931094703364   ,-0.0871890516599477666  ,-0.088790332554366358   , 0.0889866328020270103  ,-0.0900888821410542329  },
      { -0.124628723962750709   ,-0.0861665408226790913  , 0.161126733943795369   , 0.133803201014524337   ,-0.149852349154472514   ,-0.0703410319237321863  , 0.0797715441175594064  ,-0.0882655549250532939  },
      { -0.135270321540776395   , 0.16392096955333299    ,-0.0814457991765017708  , 0.0636945637999040831  }
    },
    {
      { -0.0412174393264150909  , 0.119580936570473417   ,-0.113562042371127769   },
      { -0.0473821623564029196  , 0.104209819327839501   },
      { -0.0571656547336935605  , 0.0906495211698800651  },
      { -0.0829639861921413063  , 0.122714198220285717   ,-0.061021997962659176   },
      { -0.0828176433286187397  ,-0.113293990922166105   , 0.117927335590510926   , 0.13559757951585602    ,-0.0898730832711377714  , 0.109075645176198777   ,-0.0833688887669379597  ,-0.0421611309991179947  ,
         0.0888401818912848695  ,-0.0916041133986369022  },
