/* This file is generated automatically by init_intra_xform */
#include "intra.h"

const double OD_INTRA_PRED_WEIGHTS_4x4[OD_INTRA_NMODES][4][4][2*4][2*4]={
  {
    {
      /*OD_INTRA_DC (0,0)*/
      {
        {-0.0476025356863500268  , 0.158547881464731671   ,-0.237536626913613935   , 0.0468751062866132745  ,    0.547561028890603874   ,-0.488924654900274758   ,-0.0960023969953180956  ,-0.04138421296538633    },
        { 0.0742040726101428766  ,-0.165970185227098777   , 0.294006017260194763   ,-0.110665792166981358   ,   -0.222785218851021399   , 0.0969635623371428862  , 0.0341169331852952534  ,-0.00971899566462882183 },
        {-0.210473760401819532   , 0.185464706275146135   ,-0.177011366770798956   , 0.207305190377817861   ,    0.0433444397250221311  ,-0.0143988674389780441  , 0.00993117089068204333 ,-0.0981206950443368475  },
        { 0.0757575290528260115  ,-0.0842388225663429496  , 0.158106239819451294   ,-0.211002443520470567   ,   -0.34163161645872625    , 0.0222681964204190369  ,-0.0987145984351184558  ,-0.00137205335604691225 },

        { 0.506025230343492782   ,-0.356735003647957682   , 0.194038870103326433   ,-0.51084366440178508    ,    0                      , 0                      , 0                      , 0                      },
        {-0.394289918065365952   , 0.389846560230358186   ,-0.202681929830354018   , 0.0577286665970168089  ,    0                      , 0                      , 0                      , 0                      },
        { 0.0331244050661566661  ,-0.0787100602619980189  , 0.0204246249807750156  , 0.0527573780996374517  ,    0                      , 0                      , 0                      , 0                      },
        {-0.121179422565723963   , 0.011537766849587159   ,-0.0728991474990360183  , 0.0036000264860146119  ,    0                      , 0                      , 0                      , 0                      }
      },
      /*OD_INTRA_DC (0,1)*/
      {
        {-0.0238300074799170022  , 0.0575379211434773746  ,-0.0417671256167492511  , 0.00539130405229768916 ,    0.0306455161256827605  ,-0.2002186733675278     ,-0.149332313048465393   , 0.0699533365243877325  },
        { 0.0406723946087969163  ,-0.0523367304748086765  , 0.0170482357055709889  , 0.00713660643290972042 ,   -0.0226112405748807865  , 0.31463095907727795    , 0.103877015021711983   ,-0.0237628785698086459  },
        {-0.0325560892655344936  , 0.0677715998761626998  ,-0.000516741328556772207,-0.0183686503453170565  ,   -0.0152620464693800431  ,-0.0850349104509481174  ,-0.0148174623430871732  , 0.0425877718872832017  },
        {-0.000633711649034448383, 0.0302343011836812316  , 0.0108442822733579095  ,-0.00279643357721614041 ,   -0.0223591283569952136  ,-0.0810146266178057711  , 0.0254347215340132264  ,-0.0376022606961732217  },

        {-0.00886407124429224556 ,-0.0130411838829749688  , 0.13168200725884821    ,-0.16255519024421311    ,    0                      , 0                      , 0                      , 0                      },
        {-0.0489876487376432329  , 0.0916918234907801999  ,-0.0860459701470185356  , 0.0559166770856082962  ,    0                      , 0                      , 0                      , 0                      },
        { 0.0110074070286295695  ,-0.0801427758940140289  , 0.0782503302908702236  ,-0.0393495773849038971  ,    0                      , 0                      , 0                      , 0                      },
        {-0.0212343357374382702  , 0.0262429026832427525  ,-0.000802952492202851508, 0.00452517630184068233 ,    0                      , 0                      , 0                      , 0                      }
      },
      /*OD_INTRA_DC (0,2)*/
      {
        {-0.00623712517166962691 ,-0.0006357684347080779  ,-0.00961930426670358669 ,-0.00492901521134212622 ,    0.00967966799542286337 ,-0.0125789270399132829  ,-0.176974483956368583   ,-0.0753481472316542139  },
        { 0.00600227190447606002 , 0.00444356888911435523 ,-0.0112748012609290883  ,-0.00464576569156521096 ,   -0.00693714527124258268 ,-0.0152793056992472295  , 0.230608855102277521   , 0.0163190918072023024  },
        {-0.00393467411099338547 , 0.00499109665472915499 ,-0.0204492522353537549  ,-0.00680014538392387322 ,    0.00168817792174837957 , 0.00507560830062224553 ,-0.0398377720904401142  , 0.00749431757279424033 },
        { 4.94046286793568067E-05,-0.0104071297054673297  , 0.0397429452278843659  ,-0.013402821273844118   ,    0.00224724718012377176 , 0.00296836056708833611 ,-0.104257032031441196   , 0.00326388314379304429 },

        {-0.00287575861378425515 ,-0.0812808279429953623  , 0.173764646981393128   ,-0.0982215518488323697  ,    0                      , 0                      , 0                      , 0                      },
        {-0.00853332072585273257 , 0.0153170008953426376  ,-0.0397975376236214262  , 0.0127411388590272599  ,    0                      , 0                      , 0                      , 0                      },
        {-0.00278483613983636531 ,-0.00430431096840806597 ,-0.00799269104954798519 , 0.00158732400081942763 ,    0                      , 0                      , 0                      , 0                      },
        { 0.00289529292623592026 ,-0.00957807923001649693 , 0.00424840867290990527 ,-0.0104922744539356176  ,    0                      , 0                      , 0                      , 0                      }
      },
      /*OD_INTRA_DC (0,3)*/
      {
        { 0.0032968620392805543  ,-0.0125317240506255933  , 0.0152478649586249206  ,-0.0286548254171969351  ,   -0.00718242450017222544 , 0.00243658678411055787 , 0.0143670117609510858  ,-0.239236199588792053   },
        {-0.00258845621743852752 , 0.014883328096186834   ,-0.0113909206322832853  , 0.0127051408476437921  ,    0.00246187276285076122 ,-0.00596571284031284163 ,-0.017594881779109655   , 0.247760515526484232   },
        { 0.00336419928480071427 ,-0.00800267193839149411 , 0.00779687388088429363 , 0.00856150848032363916 ,    0.00109179406940086449 , 0.00410005427586448458 ,-0.00465728633278716074 ,-0.0207217196971518185  },
        {-0.0015568128784930644  ,-0.00351375509766300087 ,-0.0010302844163901021  ,-0.00142675379433217361 ,    0.00115784915111947378 ,-0.00213732442394655225 ,-0.0137262890073189484  ,-0.0951683206223848804  },

        { 0.0041520135023125149  ,-0.0403452422481557632  , 0.0572043471120005781  ,-0.0183843575350828466  ,    0                      , 0                      , 0                      , 0                      },
        { 0.00612178329519442836 ,-0.00924443124742456608 ,-0.000714470343848950867,-0.0155786347433398177  ,    0                      , 0                      , 0                      , 0                      },
        { 0.000596049532271991102, 0.0107184602103145028  ,-0.00686878641623547576 , 4.83184607279899599E-05,    0                      , 0                      , 0                      , 0                      },
        { 0.00330382402100659134 , 0.00401889683286961539 ,-0.00650419666810008075 , 0.0014556517047422128  ,    0                      , 0                      , 0                      , 0                      }
      }
    },
    {
      /*OD_INTRA_DC (1,0)*/
      {
        {-0.0285889284767209817  , 0.0631467108581090369  ,-0.0497665001578857721  , 0.021194624445015367   ,   -0.0453639118735983046  ,-0.0287938400372767835  , 0.0127107744379425427  , 0.000709531479704945045},
        { 0.0617306265666490578  ,-0.0704021515242376356  , 0.0557105530540674548  , 0.00159718126147607477 ,    0.0789766280159023698  , 0.0450156908620324286  , 0.0130830000532945728  , 0.0201171351051176762  },
        {-0.0252975086234177513  , 0.0216979349531259275  , 0.032518189822306795   , 0.0431988590161013833  ,    0.122261771911614053   , 0.00235707266492516223 ,-0.0169737176851693546  , 0.077273566091254034   },
        { 0.0315741966860548159  , 0.0373486379474597119  ,-0.0141479463496479736  , 0.00583922940848076444 ,   -0.144231900901904658   , 0.0159086625823067727  , 0.0774909542431684584  , 0.0106318669781423208  },

        { 0.071416127067870025   ,-0.0710555303894384455  , 0.0186217856796370568  ,-0.0257127302680396977  ,    0                      , 0                      , 0                      , 0                      },
        {-0.23518827238382034    , 0.350147460191204296   ,-0.228582725730577085   ,-0.00865678818589964497 ,    0                      , 0                      , 0                      , 0                      },
        {-0.0540149989827644894  ,-0.0390406117226173993  , 0.124339354283393905   ,-0.0965619367581786875  ,    0                      , 0                      , 0                      , 0                      },
        { 0.0486417075661216003  ,-0.0328112069714778937  , 0.0444634932831679125  ,-0.0138182073071376286  ,    0                      , 0                      , 0                      , 0                      }
      },
      /*OD_INTRA_DC (1,1)*/
      {
        {-0.0108349091782735125  , 0.00306381807917928406 , 0.0138890396580020354  ,-0.00982935320176347126 ,    0.0115292299511620504  ,-0.121854616397615259   ,-0.0290277739322023498  , 0.018246572194759586   },
        { 0.0114648750803933112  , 0.0145317578155746505  ,-0.0331832510588528709  , 0.0115083481710271905  ,   -0.0530206686381271275  , 0.12975000451957433    , 0.00568384117830106166 ,-0.0291093502565825148  },
        {-0.00649888171000277595 ,-0.0896304574341853788  ,-0.07270272106764325    ,-0.00927725330535784237 ,    0.0527456643661170441  ,-0.0265174089979274587  , 0.00391354541301869481 ,-0.0426781844748681249  },
        {-0.0130334835449907541  ,-0.0070822089019768053  , 0.00565419975142999586 ,-0.0334164978367759921  ,   -0.0264487792246085179  ,-0.134561851649934616   ,-0.0540684636260308632  ,-0.0297253714375577266  },

        {-0.00080651344350154378 ,-0.0319199168572909878  , 0.0387030895436968891  ,-0.0141101759485138308  ,    0                      , 0                      , 0                      , 0                      },
        {-0.0615290703466062419  , 0.02619620017154866    , 0.203855234533078106   ,-0.209147407494409771   ,    0                      , 0                      , 0                      , 0                      },
        {-0.0978195582633616251  , 0.205604403901198357   ,-0.20808347015613099    , 0.109887511941739513   ,    0                      , 0                      , 0                      , 0                      },
        { 0.0213045848255790544  ,-0.0445685244718064671  , 0.064023913299834756   ,-0.0295907594536925396  ,    0                      , 0                      , 0                      , 0                      }
      },
      /*OD_INTRA_DC (1,2)*/
      {
        {-0.00575506446828724389 , 0.000241164599944123606, 0.0105267460258821922  , 0.00225900812958535098 ,    0.00364053796829695315 , 0.00319554629805907792 ,-0.149778542275689763   ,-0.0269681159849116982  },
        { 0.00433643650713880571 , 0.000472696662116362486, 0.00468309672820539126 , 0.00176114534322161192 ,    0.00127592885146269892 ,-0.0120894332602761775  , 0.148410398123689335   , 0.0377729653925981679  },
        { 0.00280600077873734578 , 0.0199735572957013413  ,-0.0144859713856425425  , 0.0189364716494442135  ,    0.00584054994097119549 , 0.0314768894357330548  , 0.0208028379244022919  , 0.000949190569779690915},
        { 0.000355024634730250572,-0.0204328032222419881  , 0.0140647296289161151  ,-0.00445865375619203599 ,    0.00337891726664636379 ,-0.0115306513484709546  ,-0.124392657085128436   , 0.00255681341395285833 },

        { 0.00229681912326697678 ,-0.0142428505109300288  , 0.0211770720870762194  ,-0.0283972658930212798  ,    0                      , 0                      , 0                      , 0                      },
        {-0.0194433505468705574  ,-0.0482386792301066555  , 0.149556537136257717   ,-0.0785947529193979227  ,    0                      , 0                      , 0                      , 0                      },
        {-0.0101358990178487349  , 0.0364474553253717609  ,-0.0248395400556169071  , 0.0365061202707916282  ,    0                      , 0                      , 0                      , 0                      },
        {-0.0037081255782502316  , 0.0061955790129770115  , 0.00927566736539692759 ,-0.00131703387607015913 ,    0                      , 0                      , 0                      , 0                      }
      },
      /*OD_INTRA_DC (1,3)*/
      {
        { 0.00117347343693064137 ,-0.00118847229337246878 ,-0.000303195899263505376, 0.00467737117242119846 ,   -0.000874368676719673721, 0.000735453584737345519, 0.00135150895569472991 ,-0.155478162509090134   },
        {-0.00127230274050314351 ,-0.00253344264647154547 , 0.00219409701719682198 ,-0.00916992725875125612 ,    0.00591943869498319942 ,-0.00537838992120070244 ,-0.0138067918624420385  , 0.165648879125293719   },
        { 0.000194739690192888986, 0.013099412580490832   ,-0.00797287896509643254 ,-0.00570183577775964286 ,   -0.00579780642447920956 , 0.00652918263037694045 , 0.0210914852698818218  , 0.0372983426380931876  },
        { 0.000717499208923429361,-0.00255181954950679194 , 0.00954041938559286457 ,-0.0105035537511476307  ,    0.00227570216648142684 ,-0.00231894947603592276 ,-0.00479865335230495686 ,-0.1033591858148947     },

        {-0.000279243755138055313,-0.000926535556429274   , 0.00905761436197529725 ,-0.0187334561028412727  ,    0                      , 0                      , 0                      , 0                      },
        { 0.0147977052022992758  ,-0.0333114369688105524  , 0.0278271229987057077  , 0.0186623160340257839  ,    0                      , 0                      , 0                      , 0                      },
        { 0.00732717278802921292 ,-0.0153104613233773622  ,-0.000573814368563028802,-0.00364957658753748857 ,    0                      , 0                      , 0                      , 0                      },
        {-0.00260599242986683105 , 0.00381094400411960714 ,-0.0123633901294591207  , 0.00165284003702296655 ,    0                      , 0                      , 0                      , 0                      }
      }
    },
    {
      /*OD_INTRA_DC (2,0)*/
      {
        {-0.00575333885983568029 , 0.00308432290330897972 ,-0.000473224240734265267,-0.0042564353681836635  ,    0.00307195027259952926 ,-0.0172892756309515443  , 7.79036200204976742E-05, 0.00429285901599467216 },
        {-0.00230060171126651551 , 0.00150711915231178397 , 0.00384660597933149514 ,-0.00445524392851647921 ,   -0.078756340088448798   , 0.0116916643701070883  ,-0.0335194943357106437  , 0.0049422060017668178  },
        {-0.030431407809195607   ,-0.0444861360012135457  ,-0.0168273752775880692  , 0.00891123506672111647 ,    0.130180105591147316   ,-0.0581651800281246245  , 0.0413844621933232709  ,-0.04694876638193278    },
        { 0.0363862134040319682  ,-0.0132433699950097461  , 0.0184011242371819768  , 0.0080088467212247709  ,   -0.0516926303717567329  , 0.0469548428891282538  ,-0.00236762156947321889 , 0.0161415244860167485  },

        { 0.00327488644008366251 ,-0.010829082599726151   , 0.0158294743290338727  ,-0.0160433753179677549  ,    0                      , 0                      , 0                      , 0                      },
        { 0.0179646486898707054  ,-0.0164644138451545581  , 0.0140646262315556846  ,-0.014445643654774968   ,    0                      , 0                      , 0                      , 0                      },
        {-0.20677610210348657    , 0.289423457908105974   ,-0.0954504538062967006  ,-0.0698082968784069363  ,    0                      , 0                      , 0                      , 0                      },
        { 0.0163217730659417741  ,-0.0311430408276201151  , 0.0181857214603262547  ,-0.0145926274131834895  ,    0                      , 0                      , 0                      , 0                      }
      },
      /*OD_INTRA_DC (2,1)*/
      {
        {-0.00558892059604753841 , 0.00265920569394354498 , 0.00214297180205741573 , 0.00206489739223938897 ,    0.000394917988503360601,-0.0134687170173655585  ,-0.0224911516059411246  ,-0.00419727364377942957 },
        {-0.00337627875743624212 , 0.00356419998678262056 , 0.021948598805913936   ,-0.00457013605719530387 ,   -0.0174127384661492204  ,-0.020292866179188962   , 0.0558979629960060301  ,-0.00956217808437803858 },
        { 0.0245269806231731315  , 0.105334554215146606   ,-0.0564107771554481288  , 0.0418605154289935222  ,    0.0414993531568960614  , 0.1114738319640068     ,-0.13390725249809271    , 0.0592998530756433037  },
        { 0.00129513815164581411 ,-0.0315923422124359601  , 0.00566664691112663509 ,-0.0331046246995715526  ,   -0.0177285273195828506  ,-0.0387378778544135022  , 0.0390504493743139627  ,-0.021841622346220179   },

        { 0.00542482328644312579 , 0.00187767602700218824 ,-0.0046297275970486702  , 0.00204663615106902416 ,    0                      , 0                      , 0                      , 0                      },
        { 0.00167200829332880374 ,-0.0333174280171877057  , 0.0376539214307327896  ,-0.0141338184047238302  ,    0                      , 0                      , 0                      , 0                      },
        {-0.157898612755458578   , 0.141973364467841728   , 0.172819497818664208   ,-0.139596610441036634   ,    0                      , 0                      , 0                      , 0                      },
        {-0.0403651645584615984  , 0.111391135045605758   ,-0.0623632728490325153  , 0.0492042733918792996  ,    0                      , 0                      , 0                      , 0                      }
      },
      /*OD_INTRA_DC (2,2)*/
      {
        {-0.000527821566316318534, 0.00109028241145756825 ,-0.00583580872969675923 , 0.0027978207888457291  ,    0.000406289265119827946,-0.00052933182231900181 ,-0.0101852395650692054  ,-0.00643710064988584248 },
        { 0.000394143426143029078,-0.0111796329037398539  , 0.0127964031612030089  ,-0.0102368092238889208  ,    0.00156566611704841226 ,-0.0110349470944479267  ,-0.0159742104448331625  , 0.00846929402227380307 },
        {-0.00375301801016206032 , 0.0171982819375753673  ,-0.00031914614650285745 , 0.0192702574150530256  ,   -0.00318325075864414869 , 0.0412267600491015851  , 0.0605121095509164666  ,-0.00451130836378900273 },
        { 0.00386135701963186834 ,-0.00446222066127745752 , 0.0110089296725213569  ,-0.0142931645799406239  ,    0.0014948347450141591  ,-0.00723102611419777948 ,-0.0202613062654323842  , 0.00896858147695526325 },

        { 0.000178796799487266321,-0.0014754652831893587  , 0.000726158344975084058, 0.00148817940574526341 ,    0                      , 0                      , 0                      , 0                      },
        { 0.000457648827713325946,-0.00371081285353059729 , 0.00167789203448012584 ,-0.00638889280296143971 ,    0                      , 0                      , 0                      , 0                      },
        {-0.01072862421447493    ,-0.0653005947037205992  , 0.135422775027765147   ,-0.0630366447865943896  ,    0                      , 0                      , 0                      , 0                      },
        {-0.00703148964463684491 , 0.0171902569818291884  ,-0.00256319517685471175 , 0.00319412796872330703 ,    0                      , 0                      , 0                      , 0                      }
      },
      /*OD_INTRA_DC (2,3)*/
      {
        { 0.00083387783798158832 ,-6.04216886061993881E-05,-0.000276147337666744525, 0.00109593310410091203 ,    0.000565658333306262714,-0.000858460790701047515, 0.00494993391793280887 ,-0.0090804114198127072  },
        { 0.00139670323273923826 ,-0.00272283829607740608 , 0.00218915058915045493 ,-0.00745652507542256347 ,    0.000197411651828119432, 0.00065621910329098491 ,-0.00909931253203495084 ,-0.0190604454211255672  },
        {-0.00324539649810429978 ,-0.00567513025628089626 ,-0.00778928106120240459 , 0.00765067067139671864 ,   -0.00459841637317739711 ,-0.00975123535270676703 , 0.0315404082322793475  , 0.024803591464260779   },
        { 9.87184721493123899E-05,-0.00171979280316590785 , 0.00486187499833531152 ,-0.00141925066268936448 ,   -1.93433011288040594E-05, 0.000542878332098616187,-0.0119781684686511292  ,-0.0185273063887287856  },

        {-0.00139577527060292346 ,-0.00141856212045876292 , 0.00205750712493439581 ,-0.00186841089837436322 ,    0                      , 0                      , 0                      , 0                      },
        {-0.00146523240379943455 , 0.000275666499853456843, 0.00448657902469472292 ,-0.00520610549176610867 ,    0                      , 0                      , 0                      , 0                      },
        { 0.0311863895713297874  ,-0.0485083320556116138  , 0.0292345261018127633  , 0.0115007933782276701  ,    0                      , 0                      , 0                      , 0                      },
        { 0.00429286110555010189 ,-0.00739297144506900327 ,-0.00363189409701079229 , 0.000544740258016329594,    0                      , 0                      , 0                      , 0                      }
      }
    },
    {
      /*OD_INTRA_DC (3,0)*/
      {
        { 0.00184458052710001984 ,-0.00660622832775875895 , 0.00495291660732612073 , 0.00109725678689923936 ,    0.00902232172692830903 , 0.00511141498202532987 ,-0.00899621592717446926 ,-0.000898795176094007516},
        {-0.0146737565439581906  , 0.0166683479019390339  ,-0.00547149439418865256 ,-0.00737837884231105998 ,   -0.0472627828094385818  , 0.0062677083178377304  , 0.00311582268438013012 , 0.00251127611141621545 },
        { 0.0209888511606120196  ,-0.00907139324909089426 ,-0.00501225285160712512 , 0.0122776797537781784  ,    0.0443948248356334438  ,-0.0232021365802526601  , 0.0233052296439295037  ,-0.0226323069396632062  },
        {-0.0576543331925831321  , 0.00329986500030911376 , 0.00451329503288974612 ,-0.0154589876422451394  ,    0.0132821364769151566  ,-0.00467388419336645447 ,-0.0300376254230269174  , 0.0195671918062555773  },

        {-0.0105266187588309006  , 0.00736884408779961159 ,-0.000198783023076090718, 0.00883140667795509829 ,    0                      , 0                      , 0                      , 0                      },
        {-0.00293365480928097985 ,-0.0129730942699955182  , 0.0286950608176787247  ,-0.0192778007427176663  ,    0                      , 0                      , 0                      , 0                      },
        { 0.0284716595926245118  , 0.00444229219034883265 ,-0.025915197528969286   , 0.0167451017213852762  ,    0                      , 0                      , 0                      , 0                      },
        {-0.326611047051964032   , 0.311510468159521325   ,-0.0353208806810603321  ,-0.0630412710154356071  ,    0                      , 0                      , 0                      , 0                      }
      },
      /*OD_INTRA_DC (3,1)*/
      {
        { 0.00127648972915711534 ,-0.000183250691978448346,-0.00663231695410950936 , 0.00187273580587264394 ,   -0.00220395133978896823 , 0.0274620399472658497  , 0.00265038418719830806 ,-0.00682326241281014639 },
        {-0.00249095424554550806 ,-0.012533951814276004   , 0.022681739743865021   ,-0.00714728799949966315 ,   -0.00114747012621168893 ,-0.0546954012775473022  , 0.0235776450953814401  , 0.00203653447477194788 },
        {-0.0026790864975309624  , 0.0393776283242040712  ,-0.00616324650673156539 , 0.0190069908013471983  ,    0.0183262003648924331  , 0.0559881858507162086  ,-0.0470609088177852616  , 0.00957344376211622869 },
        { 0.0255946465468853065  ,-0.0615419947039419005  , 0.0361463344210654278  ,-0.0150252551160741047  ,   -0.0334307597495488787  , 0.0456334701900111966  , 0.0879646975575381906  ,-0.00868539903526487425 },

        { 0.001014880571466272   , 0.00603910631619578985 ,-0.00648525643900069951 , 0.0019295952601908748  ,    0                      , 0                      , 0                      , 0                      },
        {-0.00904917937304920185 , 0.0103869797387414562  ,-0.0221568971069888224  , 0.00753503584404417465 ,    0                      , 0                      , 0                      , 0                      },
        { 0.0291418086132236333  ,-0.119762711101674593   , 0.0904178405584322303  ,-0.0525208081552244604  ,    0                      , 0                      , 0                      , 0                      },
        {-0.158834464984533491   , 0.124662479966055603   , 0.0823295233646229446  ,-0.125383009905360637   ,    0                      , 0                      , 0                      , 0                      }
      },
      /*OD_INTRA_DC (3,2)*/
      {
        { 0.000696366389483891231, 0.000714797825218030933,-0.00479764509541426559 ,-0.000526037529266848154,   -0.00030779380266635699 ,-0.00309961540252451373 , 0.0428848363733770818  , 0.00248023439532153462 },
        {-0.000129939687660732126,-0.00586132371520356986 , 0.00873418949345203255 ,-0.00547878504444060301 ,    0.00013133344028089033 ,-0.00295756706502044164 ,-0.0616884163122573478  , 0.000971844688501818628},
        {-0.000492541024372381486,-0.00396276406504067653 ,-0.0104818331837076336  , 0.00938014408059134608 ,   -0.00452266036847831596 , 0.00487531357602427433 , 0.0277225735722653327  ,-0.0135346600212761115  },
        {-0.00229750989718539985 , 0.00598742473130582219 , 0.0278145961373037626  ,-0.000205562699181860122,    0.00132671811340307616 ,-0.0145653031218248262  , 0.037005523014012838   , 0.00579504354749446355 },

        {-0.000396672347229056529, 8.72961481351015829E-06,-0.00231265833147440911 , 0.00226998789695820455 ,    0                      , 0                      , 0                      , 0                      },
        { 0.00109393961785287318 , 0.00245168204591782787 ,-0.00517844984786710108 , 0.00622692481145353544 ,    0                      , 0                      , 0                      , 0                      },
        { 0.0031088271070393329  ,-0.0112355617725113949  , 0.00584685959803773071 ,-0.0129081248862581745  ,    0                      , 0                      , 0                      , 0                      },
        {-0.0060462986294705914  ,-0.0513690708113609465  , 0.0885598554104794211  ,-0.0426624036877370633  ,    0                      , 0                      , 0                      , 0                      }
      },
      /*OD_INTRA_DC (3,3)*/
      {
        {-0.000225615813654262402, 0.000653315113105661246,-0.000805994017970171556,-0.00175096071290539506 ,    0.000404904707075093772,-0.000303041256324920207,-0.000520501025672592561, 0.0428588617635029881  },
        { 0.00163159010203019444 ,-0.0020854599474297666  , 0.00179557237409439527 ,-0.000370408450653802004,   -0.000306230149794677964, 0.00278871264838686898 ,-0.0041808020345734118  ,-0.0593304452935913759  },
        {-0.000342953177920017811, 0.00374272547217864484 ,-0.0089856082373751759  , 0.0110085789629254058  ,   -0.00296053407896409602 ,-0.00253452949309854658 , 0.0141655265781175238  , 0.0142089566922927457  },
        { 0.000230414937991140048, 0.00273117858467801468 , 0.00257163968194020062 , 0.00359324180408304196 ,    0.00320760386611633691 , 0.00503124928326495122 ,-0.0182718672546200445  , 0.0265576596516823304  },

        {-0.000180813182995488681, 0.000141775746898923505,-0.0018683914060900848  , 0.000220622954488273402,    0                      , 0                      , 0                      , 0                      },
        { 0.00152658276998201919 ,-0.0038170390174137492  , 0.00567654168573697958 ,-0.00358446739329111889 ,    0                      , 0                      , 0                      , 0                      },
        {-0.00114282784989156567 , 0.00713302197585227466 ,-0.00199716150269054361 , 0.00144634751077885883 ,    0                      , 0                      , 0                      , 0                      },
        { 0.0296189052940553678  ,-0.0534416594226470101  , 0.0318014859567541663  , 0.0136351427000865454  ,    0                      , 0                      , 0                      , 0                      }
      }
    }
  },
  {
    {
      /*OD_INTRA_TM (0,0)*/
      {
        {-0.290791715409789375   ,-0.0366483406821589627  , 0.118560505241917233   , 0.0769324519556553732  ,    0.525104409387129212   ,-0.126954078420604161   ,-0.16444291258881652    , 0.0485228297403644954  },
        {-0.0197760029644087655  ,-0.122333024502356849   , 0.0332852664394667624  , 0.0169126731665179171  ,    0.318047530437053916   , 0.039870115221792686   ,-0.00433740189995535878 ,-0.0634673746809032713  },
        { 0.157139225078504474   , 0.0250144143875849281  , 0.0384820465808875245  ,-0.0459039155318365644  ,   -0.255736728228095678   , 0.0275600295538246422  ,-0.0532089292060036259  ,-0.0108352611914463159  },
        { 0.0810508940392742211  , 0.0324360252861660703  ,-0.0719320379289628969  ,-0.113952432563926676   ,   -0.0468493973938336888  , 0.0622561868691778458  ,-0.00629969257095316839 , 0.0390568769322412329  },

        { 0.577539660672110267   , 0.36623745705603572    ,-0.174007468280061667   ,-0.0344354995625090129  ,    0                      , 0                      , 0                      , 0                      },
        {-0.112214321966606204   ,-0.0308808440971849937  ,-0.0189518842639775226  ,-0.0965666105998752439  ,    0                      , 0                      , 0                      , 0                      },
        {-0.139800159409383618   , 0.0964381305812487127  ,-0.100088130716487755   , 0.0476647391466090906  ,    0                      , 0                      , 0                      , 0                      },
        {-0.0237790178534765702  , 0.128678975227054071   ,-0.114873961795509558   ,-0.0417386245987402607  ,    0                      , 0                      , 0                      , 0                      }
      },
      /*OD_INTRA_TM (0,1)*/
      {
        { 0.0457056879732371871  , 0.00342337839473129098 , 0.00413418159216054956 ,-0.0490812583839350253  ,   -0.0493742882823363857  , 0.460119290176064177   ,-0.0549092654689580517  ,-0.0635835711727800318  },
        { 0.012789474990332764   ,-0.0370424716382937447  , 0.00368327219645080617 , 0.0840052106892801437  ,    0.00881025893415745935 , 0.320811467233753977   ,-0.0572656407529620534  , 0.0996688455726652545  },
        { 0.000409640808999659053, 0.0389939043975159952  , 0.0810714440088509541  ,-0.0662642801122948766  ,    0.0062443424549639406  ,-0.166393384084052881   , 0.0376796324787158424  ,-0.0503078548694786964  },
        {-0.00377549504859711182 , 0.0221506877197040451  , 0.0202225234334624353  , 0.0332189193064997071  ,   -0.000499067468877401272,-0.0422108416439869391  , 0.0183425129021143885  , 0.0591782852242250246  },

        {-0.00167297453785502856 , 0.179492122044407731   ,-0.0592584314153578665  , 0.0373850535052968336  ,    0                      , 0                      , 0                      , 0                      },
        {-0.00637374679377090015 , 0.0396820899393749704  , 0.00162512784433067469 ,-0.0061032161134422936  ,    0                      , 0                      , 0                      , 0                      },
        { 0.00203822964820551565 ,-0.0644330944720818422  ,-0.00728240637944689746 ,-0.0360651194704157407  ,    0                      , 0                      , 0                      , 0                      },
        {-6.34394956318069315E-05,-0.0377633453767625762  , 0.00896139743939129881 ,-0.0264553796740249689  ,    0                      , 0                      , 0                      , 0                      }
      },
      /*OD_INTRA_TM (0,2)*/
      {
        { 0.0088392795399743606  , 0.0470155527576157639  ,-0.0936447080273348775  , 0.0415757611620378303  ,   -0.0162729214153789839  ,-0.0381704539026484213  , 0.626407688226174098   ,-0.029438751272852403   },
        {-0.0132400453812759385  ,-0.0116746627383203603  , 0.108323547016286451   ,-0.0148743758284697394  ,    0.00513278900903452358 ,-0.00734000732724009522 , 0.270356917603624125   , 0.0352443569120508352  },
        { 0.00468669652112245656 , 0.00383257068400068984 ,-0.0853067566961116658  , 0.0549634835550895373  ,   -0.00635571873856489392 , 0.00386513721975798984 , 0.0286553984294101935  , 0.0134141203462372037  },
        { 0.0170936724336841726  ,-0.0270715851385277158  ,-0.00243298829878874729 ,-0.0365854563148639705  ,   -0.0230854305000178714  , 0.0235826136868669094  ,-0.0435447870466397977  , 0.0135627154813073095  },

        { 0.00919284244741913094 ,-0.0560348163056840765  ,-0.282028750445181109   ,-0.0532227007551463599  ,    0                      , 0                      , 0                      , 0                      },
        {-0.000534671977228993382, 0.0335371180796702195  , 0.0417762445513963909  , 0.0308128742857185153  ,    0                      , 0                      , 0                      , 0                      },
        {-0.000360443219439709735, 0.00291046913938675057 , 0.0682006206430379319  , 0.00640564760366446953 ,    0                      , 0                      , 0                      , 0                      },
        { 0.00827096206819106367 , 0.0180001430654467658  , 0.0644987259489016723  ,-0.0406916644766833202  ,    0                      , 0                      , 0                      , 0                      }
      },
      /*OD_INTRA_TM (0,3)*/
      {
        {-0.00799544776375016135 , 0.0183651696398461559  ,-0.100091054043180902   , 0.11450356428638564    ,    0.00529660448256175174 , 0.0139399395877253009  ,-0.0233761711714505042  , 0.618059629167917568   },
        { 0.00291827746664285233 , 0.00732469211729678844 ,-0.00157770022971164122 , 0.13769233573656886    ,   -0.00142104403667318293 ,-0.0151808772974861127  , 0.00532872804676951233 , 0.250511933193383551   },
        { 0.00329214128353024675 , 0.00122190830463314126 ,-0.026635347627824147   ,-0.0742245015384757345  ,   -0.0100719204529336782  , 0.044871169400150665   ,-0.0129755629221410384  , 0.00218069810916147284 },
        { 0.00484191125593096735 ,-0.0225564828960987049  , 0.00929326994304269759 ,-0.0681793944292486409  ,   -0.00152695938358076225 ,-0.0118704112142346274  , 0.0110908330001586643  ,-0.101153738880526478   },

        { 0.00812276227549848726 ,-0.0951173917667954144  , 0.0747132506647472661  ,-0.511771881513178872   ,    0                      , 0                      , 0                      , 0                      },
        { 0.00317123431744289769 , 0.000896869488763528356,-0.0247353262992623564  , 0.0624045222214871034  ,    0                      , 0                      , 0                      , 0                      },
        { 0.000415862491964244865, 0.0127983896726910889  ,-0.000230476675197472687, 0.077321315720082065   ,    0                      , 0                      , 0                      , 0                      },
        {-0.000818548206132938623, 0.00702797803449590076 ,-0.00533008182715077883 , 0.0519848555470044868  ,    0                      , 0                      , 0                      , 0                      }
      }
    },
    {
      /*OD_INTRA_TM (1,0)*/
      {
        { 0.0265029197969460298  , 0.019434837196032409   ,-0.033019594736155039   , 0.00154259969513285489 ,   -0.0052528362168126402  , 0.00292259574141923639 ,-0.00332120566705274662 , 3.40974863293699526E-05},
        { 0.0107829352083100086  ,-0.066459893690339375   , 0.0909278571545045627  , 0.00922078372851582728 ,    0.213901996183541165   , 0.0300270829291560265  ,-0.081996983031581594   ,-0.0274941847020494824  },
        {-0.0350189744620797161  , 0.0224459999512755005  ,-0.0401189291307215215  ,-0.00178886941549940572 ,   -0.028682253536924357   , 0.00613094560705669013 , 0.0372361879455732486  , 0.0451963028535575656  },
        { 0.0212652061265931683  , 0.0374411334482645519  ,-0.032561076190037834   , 0.0578358848846534795  ,   -0.0667676770378125423  ,-0.0212251799864025363  ,-0.0208192943741606247  ,-0.00861243501606264415 },

        {-0.0326799642935785492  ,-0.0177861300709108751  , 0.0300652494769242558  ,-0.00403215913573984688 ,    0                      , 0                      , 0                      , 0                      },
        { 0.520364475193565879   , 0.376860771331161026   ,-0.218276400537592841   ,-0.00992080491856115083 ,    0                      , 0                      , 0                      , 0                      },
        {-0.0406600472383493172  , 0.0246859397811143161  ,-0.0647778758349718126  ,-0.00031843764626474189 ,    0                      , 0                      , 0                      , 0                      },
        {-0.110432518328913765   , 0.0910353716971075838  ,-0.0306916389295536045  , 0.0464367663490665855  ,    0                      , 0                      , 0                      , 0                      }
      },
      /*OD_INTRA_TM (1,1)*/
      {
        { 0.0100135165620033745  , 0.00610649830905151195 ,-0.0105290165460192806  ,-0.00809854398501973563 ,   -0.00264096859653266012 ,-0.0312009838415066784  ,-0.0138328730067864385  ,-0.00577885804002513902 },
        { 0.015253261164430371   ,-0.0296898780803122563  ,-0.000493834868300008028, 0.0419894971915389728  ,   -0.00528283490811469036 , 0.121690357808476965   ,-0.00372372573086729441 ,-0.00754553803303884083 },
        { 0.00217734173006402807 ,-0.0204097162476160332  , 0.0379227310689103647  , 0.0680712496344717116  ,    0.00282467060595535148 , 0.0916221953303272274  , 0.0436051570803155028  , 0.0780569235093976632  },
        {-0.00392280333768247474 , 0.0511691650527962907  ,-0.0363754918859252041  , 0.0449025377836868786  ,    0.00636187938492671634 ,-0.0933441060953636992  ,-0.0453048483628450543  ,-0.000309204294883214136},

        {-0.00670286883631654971 ,-0.00684555445136277984 , 0.000128623502249997199,-0.00822853191790139105 ,    0                      , 0                      , 0                      , 0                      },
        {-0.0188982862182882627  , 0.14410401116361965    ,-0.0356746904849483543  , 0.00946154515470458944 ,    0                      , 0                      , 0                      , 0                      },
        { 0.0115952863042239965  ,-0.0387338321594498589  ,-0.0174155007161841263  ,-0.00580833600745194693 ,    0                      , 0                      , 0                      , 0                      },
        {-0.00107553357068975461 ,-0.0242233459726349867  , 0.00468435204888312945 ,-0.00333745650374522342 ,    0                      , 0                      , 0                      , 0                      }
      },
      /*OD_INTRA_TM (1,2)*/
      {
        { 0.000578627203309563915, 0.00417182964696956315 ,-0.0225017592890191555  , 0.0109944251457375301  ,    0.000339308252935262495,-0.0103194230464723272  ,-0.0113332972753328615  ,-0.0109754203203377455  },
        { 0.00963080740129402049 , 0.0146121492163384572  ,-0.114970280049749185   , 0.0743070125046862012  ,   -0.00296206868340175749 ,-0.00641310712043426188 , 0.328485269243059264   ,-0.00844865554532757759 },
        {-0.00227958381484348778 ,-0.0112138263352785528  , 0.062435620783347287   ,-0.0121222110566108071  ,    0.00157463405858963065 , 0.0163552921082328086  ,-0.0164507032472250049  , 0.0311924670695894642  },
        {-0.00386708129756889755 ,-0.00406756009165207266 , 0.0243477646832077829  , 0.0315689533581601234  ,    0.0038274220987418203  , 0.00971430980085388925 , 0.0369354435851908525  ,-0.00113740508785814391 },

        { 0.000230049382865758566, 0.004231760249561573   , 0.0168913854570689574  ,-0.00552786397274209352 ,    0                      , 0                      , 0                      , 0                      },
        { 0.00917731293455378502 ,-0.0640331172764689732  ,-0.149315552492946202   ,-0.0786297585373719743  ,    0                      , 0                      , 0                      , 0                      },
        { 0.000239570258208362879, 0.0136504722295939813  , 0.0453147893611595201  ,-0.0560893249595779547  ,    0                      , 0                      , 0                      , 0                      },
        {-0.000595746796927626183, 0.00259725525728366066 , 0.0525470696463375894  , 0.0277995281606521032  ,    0                      , 0                      , 0                      , 0                      }
      },
      /*OD_INTRA_TM (1,3)*/
      {
        { 0.000759839594580248535,-0.006411999680404009   , 0.00769506252501649547 ,-0.0345789635572303425  ,   -0.00220251469043482263 , 0.000936333837705189418, 0.00238990252453192067 ,-0.0213051319646626915  },
        {-0.0060219516753777895  , 0.0129297205116642167  ,-0.0309666605849483224  ,-0.057109499414718011   ,   -0.0034232761725022532  , 0.0109414535132619437  ,-0.009001698793156045   , 0.281129376455916069   },
        { 0.00320554201203285304 ,-0.000981953398897818241,-0.00619520765569330119 , 0.0160737932728302231  ,   -0.0027972571768898561  ,-0.0105166329946500044  ,-0.0158809403913942812  ,-0.0769360313175039695  },
        { 3.15119367591726023E-05,-0.0164704199604293264  , 0.00449416256500043132 ,-0.0426288386421358745  ,   -0.00118828716804155127 ,-0.00857789107474266586 , 0.00108721095824009092 ,-0.0248930971646489779  },

        { 0.00246493472316949543 ,-0.00027254119615840349 ,-0.00405224283915243001 , 0.0200733404844914143  ,    0                      , 0                      , 0                      , 0                      },
        { 0.010742728188456091   ,-0.0876335639018290258  , 0.105548015823853147   ,-0.374969201091693571   ,    0                      , 0                      , 0                      , 0                      },
        {-0.000123951102908594399, 0.0118265785244614403  , 0.0197379981695636406  , 0.0852742340245515318  ,    0                      , 0                      , 0                      , 0                      },
        {-0.000441718795685183826, 0.0131294773686313117  , 0.00254180788355129732 , 0.0266298208921944106  ,    0                      , 0                      , 0                      , 0                      }
      }
    },
    {
      /*OD_INTRA_TM (2,0)*/
      {
        { 0.00733668675146066911 , 0.00095255356152852081 ,-0.00609492833336112028 , 0.00421675784583096843 ,    0.00498489539801958825 ,-0.00305223314773505434 ,-0.0142534952804730143  ,-0.0123688291228922897  },
        { 0.0515406960713171367  ,-0.0122668944331428623  , 0.0169744660255737624  , 0.0132838322465803124  ,   -0.0545217591539706656  , 0.00972755031259901412 , 0.0108179676555175495  ,-0.017108510117588141   },
        {-0.153483100775833659   , 0.0798427155419748485  ,-0.0437938871995395898  , 0.0427838512035455254  ,   -0.0946499577923049784  , 0.00747921279995033411 , 0.0689646327183862928  , 0.0299413560526974216  },
        { 0.0171566139816764635  , 0.027036489645950925   , 0.028330899119627613   ,-0.0245901950752822583  ,   -0.0593874546710272677  ,-0.0425370621305240643  ,-0.0572887419171890094  , 0.0159258275331282326  },

        {-0.0122172351003133044  , 0.00286479587325465983 ,-0.00621078729131356849 ,-0.010049287822461379   ,    0                      , 0                      , 0                      , 0                      },
        { 0.0349162569802506442  , 0.00268256711781276374 , 0.0251461889863945284  , 0.00925301175734223602 ,    0                      , 0                      , 0                      , 0                      },
        { 0.72108858282293109    , 0.247774669802164837   , 0.102587276260606139   ,-0.083158489383690401   ,    0                      , 0                      , 0                      , 0                      },
        { 0.0257323983659149096  , 0.0209116201895741434  , 0.0228846849976015697  , 0.0181498648075853163  ,    0                      , 0                      , 0                      , 0                      }
      },
      /*OD_INTRA_TM (2,1)*/
      {
        { 0.000694537111879387436,-0.000598825716307933745,-0.00398791975910858191 ,-0.00509887049502139641 ,    0.000596546186214470483, 0.00888642976589218946 , 0.0019449474522795396  ,-0.00571474600120107801 },
        {-0.00279852366715057374 , 0.016916728334786333   ,-0.0110415671268173261  ,-0.0260997889470268168  ,    0.00167505097926876653 ,-0.078993397386268302   ,-0.000802462298604238763,-0.0278288331041434203  },
        {-0.0262108793962739436  ,-0.115347746984090671   ,-0.00474356218932894466 , 0.0217780106629033958  ,   -0.00414754933773164337 ,-0.0189384089687696204  , 0.0317210114109652067  , 0.0149766969643213618  },
        { 0.000711623514197801295, 0.0479542094843176947  , 0.00464183617209912129 ,-0.0269016319088040204  ,   -0.00455244201899955223 ,-0.121422981381368852   ,-0.0147746856364950399  ,-0.00271049549779401374 },

        {-0.00257978499623357296 , 1.80236478028454474E-05, 0.00609811844009340142 , 0.00264551632406036632 ,    0                      , 0                      , 0                      , 0                      },
        { 0.00360130904801758168 ,-0.0107908907948340918  , 0.0329268440071964277  , 0.00820052909513671949 ,    0                      , 0                      , 0                      , 0                      },
        {-0.00484966960571431901 , 0.241368425304761214   ,-0.0169209174337641398  , 0.0415844947985466659  ,    0                      , 0                      , 0                      , 0                      },
        { 0.00214325082216429257 ,-0.00483452354208105482 , 0.0206390292010707223  ,-0.0114610968670326666  ,    0                      , 0                      , 0                      , 0                      }
      },
      /*OD_INTRA_TM (2,2)*/
      {
        { 0.00120771792348374788 , 0.00398379582725950834 ,-0.0122714251065529044  ,-0.00426291001909748224 ,   -0.00228751607231919519 , 0.00215092925965196984 , 0.0272881078985854966  , 0.0030522147780249532  },
        {-0.00224481330456099146 , 0.00425888947992249505 ,-0.029958662860158386   , 0.0226265449236785418  ,    0.00353921983652962738 ,-0.00124921255647201341 ,-0.0319249558881869802  ,-0.00952401799346732497 },
        {-0.00180282308935456612 ,-0.00671540311526714478 , 0.0134424352940521845  ,-0.0103429199955430533  ,    0.00707193518023667943 , 0.020945651701911653   ,-0.350359498002037639   , 0.0195767610001345155  },
        { 0.00430985171968002734 ,-0.00432656738343544303 ,-0.0305128369652467833  , 0.0265991593420712019  ,    0.00776770243409619261 ,-0.0165726623455968308  ,-0.116598633003115085   ,-0.00223412799652104041 },

        {-0.000193088250304003088,-0.00557867669981854455 , 0.0175984025798575673  , 0.00541120737689655077 ,    0                      , 0                      , 0                      , 0                      },
        { 0.00302347950658616313 ,-0.00780241057502810333 ,-0.00710750836195164076 , 0.0225549285410701107  ,    0                      , 0                      , 0                      , 0                      },
        { 0.0157396248911726572  ,-0.00379728672519309305 ,-0.531172170622416728   , 0.00035677843918726081 ,    0                      , 0                      , 0                      , 0                      },
        {-0.0038272389858313694  ,-0.0158665243158094341  , 0.0104758053392685398  , 0.03288004344562101    ,    0                      , 0                      , 0                      , 0                      }
      },
      /*OD_INTRA_TM (2,3)*/
      {
        {-0.000432128236090549664, 0.00201669778268099556 ,-0.00359073388598939083 ,-0.0019191340665542895  ,   -0.000463551728221111973,-0.000185933625532166887, 0.00322859900484074366 , 0.0207858989782113805  },
        {-0.000188532857915333735,-0.00980023591660295415 , 0.00309844695796460731 ,-0.0338947858518218251  ,   -0.00135362740347907788 ,-0.00201642180711666475 , 0.0118809640440575275  ,-0.0112328581119167659  },
        { 0.000694329684093250837, 0.0201926754420823917  , 0.0610526199944695716  , 0.0155279482893057354  ,    0.00848627579599363878 ,-0.0136166515886857534  , 0.00324309179341756822 ,-0.244800007451370871   },
        { 0.00362864921596945528 ,-0.00672424537040036772 , 0.000740840328774824194, 0.0422830628831004432  ,   -0.00369543426971046408 , 0.0140005699910916021  , 0.0179355438141722869  ,-0.0222893099923197786  },

        { 0.00146706908803639121 , 0.0024732705814296185  ,-0.000421917156856572008, 0.0147341902115417835  ,    0                      , 0                      , 0                      , 0                      },
        {-0.000112375846840277041,-0.000303648451344051221,-0.01248450389256015    ,-0.0116091382158708886  ,    0                      , 0                      , 0                      , 0                      },
        { 0.00944544789150152456 ,-0.14535348599719039    , 0.0667909273264787745  ,-0.693244344484521324   ,    0                      , 0                      , 0                      , 0                      },
        {-0.000222619351345870628, 0.00812128683535866432 ,-0.0201812492883856748  ,-0.0206834219698305496  ,    0                      , 0                      , 0                      , 0                      }
      }
    },
    {
      /*OD_INTRA_TM (3,0)*/
      {
        {-0.00991442902301531252 ,-0.013896062726652815   ,-0.00185644805173323588 ,-0.0227629228135399451  ,    0.00556360975003235541 ,-4.6253636188310812E-05 ,-0.00273454171663888501 ,-0.00545847680201962462 },
        { 0.0504920809901881554  , 0.0256794266014231699  ,-0.0158078743030718623  ,-0.021281198092310296   ,   -0.0962863062510221218  , 0.0100115677850332613  , 0.0368692187242875835  , 0.0344759835620081848  },
        {-0.0777351126317730873  , 0.0182922066908624247  ,-0.0190798976443260285  , 0.0277634757059259454  ,    0.10848974360703606    , 0.00280251648174900062 , 0.011717487813015218   ,-0.0127207060183460157  },
        { 0.167864992496522175   ,-0.0345244143325536337  ,-0.00511181069946039547 , 0.000108088666908379946,   -0.169482472961807906   , 0.0939478174903660146  , 0.186624571639740833   , 0.0825733832408490076  },

        { 0.00835373485010821974 , 0.010583653333220696   ,-0.0127905922466008473  , 0.0100420287385318916  ,    0                      , 0                      , 0                      , 0                      },
        { 0.0379275482888054849  ,-0.022510702376419129   , 0.0382060432133218761  , 0.000275583396282407314,    0                      , 0                      , 0                      , 0                      },
        { 0.00414683971059254253 ,-0.04980885814667705    , 0.013255934437596123   ,-0.0334410774455875456  ,    0                      , 0                      , 0                      , 0                      },
        { 0.980111373454559898   , 0.156860760115562436   , 0.0511070798912304294  ,-0.131140766948152743   ,    0                      , 0                      , 0                      , 0                      }
      },
      /*OD_INTRA_TM (3,1)*/
      {
        {-0.00190791974898462638 ,-0.00186726452224839036 , 0.00328031011649904721 , 0.011890109938542932   ,    0.00151237208636675197 , 0.0142215858251681839  , 0.00282455125267005351 , 0.00270410308999859995 },
        {-0.00724894308777660444 , 0.00448433906718526468 , 0.00362944832923056595 ,-0.0163842118914836118  ,    0.00417588145751912436 ,-0.0727692851338617858  , 0.00299706303015633696 , 0.00382466057027941149 },
        { 0.0110436953344114561  ,-0.0135150394573508355  ,-0.00996650061050012061 ,-0.0387892027570140158  ,   -0.00683015326529628434 , 0.0822148213672768968  , 0.00709975715229846111 ,-0.0168866265320820226  },
        {-0.018648996225887636   ,-0.0760252804700851104  ,-0.00271021690169348083 ,-0.0479964872357508884  ,    0.00519498344141721812 ,-0.211174933271988524   , 0.0076492022667325665  , 0.00544438888530541544 },

        { 0.000983610597612216654,-0.00109021473886627474 ,-0.000108202354464435212,-0.00818714554954265254 ,    0                      , 0                      , 0                      , 0                      },
        { 0.00118711995690703813 , 0.00250811674447356603 , 0.00417292347238125763 ,-0.00994116577044255878 ,    0                      , 0                      , 0                      , 0                      },
        {-0.00721983950816454476 ,-0.00400953607366533269 ,-0.0017907697373796762  ,-0.0137482162962645101  ,    0                      , 0                      , 0                      , 0                      },
        {-0.00789727354246514204 , 0.216916306840560708   ,-0.00903054534630028279 ,-0.00618523106671307193 ,    0                      , 0                      , 0                      , 0                      }
      },
      /*OD_INTRA_TM (3,2)*/
      {
        {-0.00116392032783335956 ,-0.00179176035936965674 , 0.00507538044315939459 , 0.00358718746723995542 ,    0.000346839836351574521, 0.00133984143003674627 , 0.00828067870341401766 , 0.00340345015453685611 },
        { 0.000203701071859163836,-0.0103768394643530583  , 0.0359176029910263719  ,-0.0260945835192269993  ,    0.00192294246529503381 , 0.00304020831437928256 ,-0.154054463509171097   ,-0.00580271951521331344 },
        {-0.00068886153492899642 , 0.000869608098580086381, 0.0434960248217565459  ,-0.00660397474546264938 ,   -0.00637589885489235359 ,-0.00474118479535008859 , 0.0629344080697918778  , 0.023105229511548607   },
        {-0.00571884856360013911 ,-0.0146794727335316615  , 0.0648203266340468542  ,-0.00971094340172141794 ,    0.0155179229646854062  , 0.0246480155484195759  ,-0.576261648913995672   , 0.0195884453525246686  },

        {-0.000122376117682097677,-2.78783988397645153E-05, 0.00345764062943108852 , 0.00273942880614976752 ,    0                      , 0                      , 0                      , 0                      },
        { 0.000944316295588889685, 0.0108259436168081803  ,-0.00762929236523408796 , 0.012740440323250812   ,    0                      , 0                      , 0                      , 0                      },
        { 0.00695470764828778204 ,-0.00235843374315047611 , 0.0429150728224234126  ,-0.0165875319486816081  ,    0                      , 0                      , 0                      , 0                      },
        { 0.00809485122126176078 ,-0.00761831937841478575 ,-0.314517757072261428   ,-0.0220919850059168137  ,    0                      , 0                      , 0                      , 0                      }
      },
      /*OD_INTRA_TM (3,3)*/
      {
        {-0.00034212513417009369 , 0.00185922381411974483 , 0.00080794664467060968 , 0.00953383438187928485 ,    5.81180378884144872E-05,-0.00139725821008269079 ,-0.00253344617417009151 , 0.0166878378943422015  },
        { 0.00209581825426356783 ,-0.0140531541604318102  , 0.0131688300964107937  ,-0.0108516357903164738  ,    0.0005087713969266158  ,-0.00275823827215909614 ,-0.00151781627026158672 ,-0.138257176574896473   },
        {-0.00790952930117138318 , 0.0142098311208766967  , 0.00866125697264973245 , 0.0122999972422820139  ,    0.00875697338617690765 ,-0.00627863288339251379 ,-0.00889774275146618457 , 0.0583024564739429707  },
        { 0.00376441913602833635 ,-0.000444538264046188199, 0.0308575338321890463  , 0.118909716353037473   ,    0.00066484532623824514 ,-0.0138974252906503247  ,-0.00523391715755706748 ,-0.379480320721102216   },

        {-4.51651667608747543E-05, 0.00152034853676685853 ,-0.00321566513577296095 , 0.00757150220309787351 ,    0                      , 0                      , 0                      , 0                      },
        {-0.00149153820313869243 ,-0.00150589227128222541 ,-0.0081801725596829418  , 0.00638568014533460668 ,    0                      , 0                      , 0                      , 0                      },
        {-0.00110249092722474688 , 0.00328319463067562123 , 0.00714260702990209429 , 0.0111731314403192474  ,    0                      , 0                      , 0                      , 0                      },
        { 0.00519130582018291573 ,-0.139038756530091484   , 0.0309510434276346301  ,-0.486156991815746786   ,    0                      , 0                      , 0                      , 0                      }
      }
    }
  },
  {
    {
      /*OD_INTRA_HU (0,0)*/
      {
        { 0.0481209022279283222  , 0.132469096812286774   ,-0.224544287266973203   , 0.0335011114980869537  ,   -0.289100786082895189   ,-0.150928003217773082   ,-0.112271053536268733   ,-0.199114178280164533   },
        { 0.090503244979461564   ,-0.33764920896987427    , 0.478547029147694536   ,-0.0234785909412915696  ,    0.434554715191040053   , 0.423199263503875156   , 0.0713988743269288323  ,-0.136580328480952168   },
        {-0.132645246729066746   , 0.245859190126444915   ,-0.0787854157357190804  ,-0.019338013850889374   ,   -0.237201251762970688   ,-0.302215759440232212   ,-0.648020359929934675   , 0.57997516717921449    },
        { 0.00132853741273738037 , 0.0299247859700703667  ,-0.152088235483167356   ,-0.073254268046278867   ,   -0.128091695044976223   ,-0.061243342409920333   , 0.468192755172451902   ,-0.699705043158025175   },

        { 0.878351938550597011   ,-0.825147953023425806   , 0.128052243947904015   ,-1.18793815890157095    ,    0                      , 0                      , 0                      , 0                      },
        {-0.774473371988333104   , 1.93014822580777912    ,-1.90560869108363851    , 1.45432155894267301    ,    0                      , 0                      , 0                      , 0                      },
        { 0.578297899192814602   ,-1.28605203491323539    , 0.637418676385973604   ,-1.05329417584941964    ,    0                      , 0                      , 0                      , 0                      },
        {-0.538281500367263743   , 0.971517163916486681   ,-0.731231156649731706   , 0.499073915789693012   ,    0                      , 0                      , 0                      , 0                      }
      },
      /*OD_INTRA_HU (0,1)*/
      {
        { 0.00931596066723535364 ,-0.0252032106145577556  , 0.0655212453712210596  ,-0.0357466011893033328  ,   -0.0121347495269849854  ,-0.135494192954072695   ,-0.0155750720876989754  , 0.0432106233572604748  },
        { 0.00665701868418639136 , 0.0247842319569606083  ,-0.0739989257512879695  , 0.0658803529681606798  ,   -0.011623921673702034   , 0.194776968189553534   , 0.0247486189272776019  , 0.00706628562720524548 },
        { 0.00335243256480092806 , 0.0268838308976068335  ,-0.0487501677634317038  , 0.103691555913673683   ,   -0.0123538023755255539  ,-0.0135701421661365701  ,-0.00839773874291399082 ,-0.0944396613286130615  },
        { 0.00359431994491575969 ,-0.0504620947754616245  , 0.124601169235257853   ,-0.111039775980047342   ,   -0.00070702528200605329 ,-0.168639894013155434   , 0.0226919914967805732  ,-0.0102421072918081821  },

        {-0.0201370308341936588  ,-0.197788660364171753   , 0.621300763132841105   ,-0.644887141107324369   ,    0                      , 0                      , 0                      , 0                      },
        { 0.0415210931370813552  , 0.00397310878109881447 ,-0.139631906284319096   , 0.0443551119185555814  ,    0                      , 0                      , 0                      , 0                      },
        {-0.0272312404574004095  , 0.108404227212836726   , 0.0688532458594453001  ,-0.0237041171522649474  ,    0                      , 0                      , 0                      , 0                      },
        { 0.0290558378489758594  ,-0.0659149649006656735  , 0.0653789893981023967  , 0.0245089352141237005  ,    0                      , 0                      , 0                      , 0                      }
      },
      /*OD_INTRA_HU (0,2)*/
      {
        {-0.000665486536844781917,-0.0249450490665813762  , 0.056967950022405997   ,-0.0512838033005630842  ,   -0.00600789318624311841 ,-0.00951714528304065631 ,-0.175967764303926383   , 0.0104334082040244656  },
        { 0.00713665759090510807 , 0.00669946001750342836 ,-0.0368557337676975877  , 0.0143187979432568384  ,    0.00911397960011084245 , 0.00944917116264155227 , 0.220394291659956387   ,-0.036006684922045909   },
        { 0.00806738042065014913 , 0.00765453219742942299 ,-0.0137316102674733941  , 0.0110309805166109755  ,   -0.00101069253152137042 , 0.000649225304685892854, 0.00674532255832295709 , 0.0207710463641296861  },
        {-0.00463031549952069507 ,-0.0115098589122350492  , 0.0207903736319106185  ,-0.0810581910976646697  ,    0.00278869103649358576 , 0.00661935114342761602 ,-0.144548057638856448   ,-0.0320565600677463827  },

        { 0.00281360063569309005 ,-0.109067569081897769   , 0.282361327953599528   ,-0.256869488575490745   ,    0                      , 0                      , 0                      , 0                      },
        {-0.017089237659606165   , 0.0432842386321719008  ,-0.0828077151738049189  , 0.0503685012234663318  ,    0                      , 0                      , 0                      , 0                      },
        { 0.0170679132517892566  ,-0.0395769001502593656  , 0.0110971544656379931  , 0.0030596336467068521  ,    0                      , 0                      , 0                      , 0                      },
        {-0.013688024875781267   , 0.0449954032672407259  ,-0.0475277950962196133  , 0.00896995032864314305 ,    0                      , 0                      , 0                      , 0                      }
      },
      /*OD_INTRA_HU (0,3)*/
      {
        { 1.56240045500947385E-05,-0.00660076612919420144 , 0.0283109135113890423  , 0.02035383160803712    ,   -0.00150255619124401493 ,-0.00776485385529912531 ,-0.00195437356982298104 ,-0.184585493271992418   },
        {-0.00640427057051074985 , 0.00571775660137201387 ,-0.0249420057104547191  , 0.0171340341350115742  ,    0.000565144603044832883, 0.0035741870035049415  ,-0.00931079072441201062 , 0.170778160502947862   },
        { 0.00321647871919675385 ,-0.00107588026633285289 , 0.0153074030673885659  ,-0.00376545809895267695 ,    0.00246983156684166391 , 0.0114473367712974762  ,-0.00797233649559289832 , 0.0533308952236438011  },
        {-0.00219089790270430478 ,-0.0110307167335234133  , 0.00845265233231579267 , 0.0274259957271976787  ,   -0.00841992777075528144 ,-0.00207712389830299292 ,-0.025299439190736274   ,-0.129452641080195108   },

        { 0.00218083294804517769 ,-0.0136744703779338121  , 0.0279857020292787577  , 0.0256903596876759122  ,    0                      , 0                      , 0                      , 0                      },
        {-0.000144130959184942428,-0.0102828268117062544  , 0.045215270691090971   ,-0.0379282091990813044  ,    0                      , 0                      , 0                      , 0                      },
        { 0.003714929833026999   ,-0.0141244322061718254  ,-0.026264859227768042   , 0.0159927372552558199  ,    0                      , 0                      , 0                      , 0                      },
        {-0.00256540612606706792 , 0.00612499808523650057 ,-0.00302484134647833854 ,-0.037226627656716374   ,    0                      , 0                      , 0                      , 0                      }
      }
    },
    {
      /*OD_INTRA_HU (1,0)*/
      {
        { 0.00132799878575977966 , 0.0119374789057187878  , 0.0126227532397777484  , 0.0424537414007758809  ,   -0.105129143542050371   ,-0.0583721152694646472  ,-0.0821836044652436426  ,-0.0269439744665331375  },
        { 0.031967177813613093   ,-0.00292127676698920825 ,-0.0190372289377944877  , 0.0246751522640105553  ,   -0.00985099024451347241 , 0.211106038692239678   ,-0.0312712893599278591  ,-0.0514563938816006428  },
        {-0.0624637365710866976  , 0.0574906451401868898  , 0.0592251194140908377  , 0.0728440521478658232  ,    0.231827760676717065   ,-0.326507340804005952   , 0.00969531953334309103 ,-0.0808749271360373612  },
        { 0.201402398265549593   ,-0.0823651942514267432  ,-0.0474573601439060994  , 0.0053925849683369876  ,   -0.144328740797378174   , 0.174658103467185771   ,-0.132627907707132842   , 0.0992640969539395901  },

        { 0.165301048962503555   ,-0.273902650599022524   , 0.362345244628863139   ,-0.207973205140657147   ,    0                      , 0                      , 0                      , 0                      },
        { 0.395063588342431826   ,-0.251522057952925149   , 0.0867212416868630986  ,-0.5424374710935157     ,    0                      , 0                      , 0                      , 0                      },
        {-0.996012527010452509   , 1.50229643397855162    ,-1.43700134678252645    , 0.975753495329709231   ,    0                      , 0                      , 0                      , 0                      },
        { 0.452957482054695049   ,-0.789373544918259951   , 0.868084721507288548   ,-0.688705952852279091   ,    0                      , 0                      , 0                      , 0                      }
      },
      /*OD_INTRA_HU (1,1)*/
      {
        {-0.00278379599173210869 ,-0.0101068062102481447  , 0.0526615868533299725  ,-0.0697505693122680154  ,    0.0114678852259593005  ,-0.154806550559331874   ,-0.00352713968028046422 ,-0.0343807797032634338  },
        { 0.0167411073961548501  , 0.0248643515974485384  ,-0.0527240820404293042  , 0.0486449136937851037  ,   -0.046382795085359689   , 0.143813605003236672   , 0.111306785776236622   , 0.109004758808727176   },
        {-0.0340201814036052083  , 0.0453544010058805902  ,-0.0506684881116588604  ,-0.114226991054619614   ,    0.058408906866702151   , 0.0761482176814190087  ,-0.0823648049730889148  ,-0.0311343761183273497  },
        { 0.0124476449815528484  ,-0.0464002250743813724  , 0.170371324505207783   ,-0.136494353874036828   ,   -0.0365472061129200054  ,-0.070255506619683869   , 0.0827090791191063962  , 0.0891860773283762731  },

        {-0.00429399218898954792 , 0.00761327263810167819 ,-0.0186046106187602034  , 0.0312972583539243288  ,    0                      , 0                      , 0                      , 0                      },
        { 0.00845515157995310219 ,-0.227436569911021819   , 0.655101092307874389   ,-0.529020701202380983   ,    0                      , 0                      , 0                      , 0                      },
        {-0.0450219282576878113  , 0.112002016081671277   ,-0.2547342816949133     , 0.212927013081890326   ,    0                      , 0                      , 0                      , 0                      },
        {-0.0284715246817324602  , 0.112513788264283141   ,-0.227701107359890659   , 0.154233246493012538   ,    0                      , 0                      , 0                      , 0                      }
      },
      /*OD_INTRA_HU (1,2)*/
      {
        {-0.000507179915657971826,-0.0218639000931219879  , 0.049356563452092099   ,-0.0306356835714749684  ,   -0.0030805733728119216  ,-0.00353780682349793575 ,-0.161775256485649888   , 0.00894772167202539243 },
        { 0.000614494581903731298, 0.0158117999253717806  ,-0.0286700004283642618  , 0.0102014353578031187  ,   -0.00102297195576868719 , 0.00185950227248907174 , 0.0895119670922628202  , 0.0293927316999598696  },
        { 0.00232824720156916791 , 0.0170238486706959929  ,-0.0235093336909816576  , 0.0746140112158471813  ,   -0.00185116138090444518 , 0.000258466246296576777, 0.0802286798249147171  ,-0.0109903258168791394  },
        { 0.00201544414882031493 ,-0.0126346119448460005  , 0.0440362554914232665  ,-0.0310185597371215351  ,   -0.00156825225662126115 , 0.000680595867838281691,-0.152460447801228638   , 0.0337674117829252843  },

        { 0.00700572662100136783 ,-0.0307291489070754681  , 0.0559920804438722441  ,-0.0219124514883990325  ,    0                      , 0                      , 0                      , 0                      },
        { 0.00251674635766975388 ,-0.0965095097907272825  , 0.241731128644347981   ,-0.202153382073504501   ,    0                      , 0                      , 0                      , 0                      },
        {-0.019823795223580909   , 0.0464294854569936438  ,-0.0788770706914518061  , 0.0604879049085359222  ,    0                      , 0                      , 0                      , 0                      },
        { 0.0164793535289758132  ,-0.0221959595510160812  , 0.000514738130670063356,-0.00751387111737081281 ,    0                      , 0                      , 0                      , 0                      }
      },
      /*OD_INTRA_HU (1,3)*/
      {
        { 0.00257049121482213257 ,-0.00363276084794589369 , 0.00151109624552213124 ,-0.0160107307484444392  ,   -0.00345822019112502392 , 0.000476926340752138441,-0.00492584824430627403 ,-0.116890419978713245   },
        {-0.00625296908504844109 , 0.0058578230375593305  , 0.0034477561147023255  , 0.00843058871714192672 ,    0.0049607981383599847  ,-0.00396923777475216826 ,-0.016991641674730433   , 0.131365586681812196   },
        {-0.000351943390918122703, 0.00190123138064063552 , 0.00327616288510784639 , 0.0368783898847681521  ,   -0.00149634858874908615 ,-0.01482303761924679    , 0.00610119676422935919 , 0.0769878206607970822  },
        {-0.0045833882016605319  ,-0.00720859627812170563 , 0.0118420292239240447  , 0.0178749806047135383  ,    0.00695677106947753011 ,-0.000938057831117267735,-0.028764531394007864   ,-0.150895567248467366   },

        { 0.00096531070860896343 ,-0.0103030800112041496  , 0.0270112311654375388  , 0.00133166738833008589 ,    0                      , 0                      , 0                      , 0                      },
        { 0.00224757250760428823 ,-0.0190693944583414758  , 0.00686162704861856092 , 0.0283998602185552146  ,    0                      , 0                      , 0                      , 0                      },
        { 0.00388684528424767736 ,-0.0116611490814515304  ,-0.00844420763548622832 , 0.0233093703997580143  ,    0                      , 0                      , 0                      , 0                      },
        { 0.00592018117392698745 ,-0.0100853521076223734  , 0.00579572250812902551 , 0.0189804757770990415  ,    0                      , 0                      , 0                      , 0                      }
      }
    },
    {
      /*OD_INTRA_HU (2,0)*/
      {
        {-0.0102079445979187146  , 0.0218980158451260731  ,-0.0143468766801084311  ,-0.00893403326613797025 ,   -0.0299739985379603238  ,-0.0349112304831449213  ,-0.00814037140063469597 , 0.00606521911254677415 },
        { 0.0443163037523527023  ,-0.0447417223464381883  , 0.0244216078584938885  ,-0.0216181662528926767  ,   -0.0356425936864322654  , 0.123436195120040851   ,-0.0219376861651246861  , 0.0664135588658897325  },
        {-0.0835294332108246634  , 0.056910885118448773   ,-0.0825701707251465522  , 0.0296475708788795887  ,    0.128808106970882713   ,-0.170780435065555708   , 0.0565481953387068359  ,-0.0139547654910393872  },
        { 0.0614561274236579136  ,-0.0833966454098306192  , 0.0415972041351770003  , 0.0224664992755300164  ,   -0.063529388469610315   , 0.13819166915313319    ,-0.0199690521398093734  ,-0.0229762638959508554  },

        { 0.044301803557066366   ,-0.0468059203723981063  ,-0.0317363759724088521  ,-0.0272917814168355949  ,    0                      , 0                      , 0                      , 0                      },
        { 0.1040388188057145     , 0.0104277118351089118  ,-0.010192272497546586   , 0.0121323669797924107  ,    0                      , 0                      , 0                      , 0                      },
        {-0.174284591374503806   , 0.211472948733800792   ,-0.0564364307334468129  ,-0.19993903088465273    ,    0                      , 0                      , 0                      , 0                      },
        {-0.299349911364192256   , 0.312575172482738362   ,-0.385280207284014908   , 0.197259298763293567   ,    0                      , 0                      , 0                      , 0                      }
      },
      /*OD_INTRA_HU (2,1)*/
      {
        {-0.00246274530132088634 ,-0.00813539526125712197 , 0.0153848037836020989  ,-0.0294337332972541832  ,    0.00195607474349200052 ,-0.00652476028576180148 ,-0.0120395670791056311  , 0.0095166223422564495  },
        { 0.00880653632908414384 ,-0.00754639987827898824 ,-0.0236975897066851529  , 0.00271924512173895086 ,   -0.030882042020928941   ,-0.0422283688271174601  , 0.0651215442956055157  ,-0.0172972073567874626  },
        {-0.0229420033896627316  , 0.0250209112337458038  ,-0.0475625728953065763  , 0.0643355589676719714  ,    0.0676424972084691545  , 0.075992581521651989   ,-0.0738630251062367404  , 0.00584593714385329109 },
        { 0.0239368305546084764  ,-0.0418172438132055485  , 0.114671677960402216   ,-0.0782334238137472326  ,   -0.0642561205136378266  , 0.0297541741580263606  , 0.0657054808867480467  ,-0.0186663874015724658  },

        {-0.00151041674464379118 ,-0.013958423492479527   , 0.0357594650341334711  ,-0.0266962990318697808  ,    0                      , 0                      , 0                      , 0                      },
        {-0.00631004617091796439 , 0.0180192640451881415  , 0.0229773919120258747  , 0.0033604074970731198  ,    0                      , 0                      , 0                      , 0                      },
        { 0.0186444337672875202  ,-0.231698486841149603   , 0.466741367765328874   ,-0.448434396331241492   ,    0                      , 0                      , 0                      , 0                      },
        {-0.0943098593116028505  , 0.205463814166891523   ,-0.212414587304225966   , 0.203803636681550271   ,    0                      , 0                      , 0                      , 0                      }
      },
      /*OD_INTRA_HU (2,2)*/
      {
        { 0.00071138407557329612 ,-0.00447309461231435151 , 0.00586773181116420368 ,-0.0104929288629811452  ,   -0.00270748270371697075 , 0.00367562709317355253 ,-0.0221006750889185845  , 0.00756577479705082545 },
        {-0.000176106995010585519,-0.0117144633734901985  , 0.00553757631380145336 ,-0.0222518471012126302  ,    0.001183510400017368   ,-0.0119859959863685816  ,-0.0177647586562584212  ,-0.00359303132632482697 },
        { 0.00109414700164581972 , 0.00370592154654492221 ,-0.0427288258824562658  , 0.0269133048177062663  ,   -0.00486802297720742225 , 0.0112551857783458383  , 0.0300061065806016374  ,-0.0220662901655354106  },
        { 0.000595969671726340254,-0.0212860942112386292  , 0.0417906464981415149  ,-0.0170767296113790296  ,   -0.000732483672439054336,-0.0184923086397662736  ,-0.0216576067279505846  , 0.0174903056429135187  },

        { 0.00137996965708068542 ,-0.00332445370843534663 , 0.00817972126203037053 ,-0.00404450811613956979 ,    0                      , 0                      , 0                      , 0                      },
        { 0.00551094824018938997 ,-0.0209207937128908193  , 0.0360030916145218233  ,-0.0197891583623746453  ,    0                      , 0                      , 0                      , 0                      },
        {-0.0223560028232732341  ,-0.0642579349813235112  , 0.206375403962323817   ,-0.177576090804584086   ,    0                      , 0                      , 0                      , 0                      },
        { 0.00334261426060907365 ,-0.00940718296300814029 , 0.0328719155309456154  , 0.0166480556130038648  ,    0                      , 0                      , 0                      , 0                      }
      },
      /*OD_INTRA_HU (2,3)*/
      {
        { 0.000212418949021001647,-0.00525110062902888614 ,-0.00127407364342081828 , 0.00129798623011376344 ,   -0.000668722863409197286,-0.00156789329570275861 , 0.00257107162668264964 ,-0.0178099621324971716  },
        {-0.00168420011733871628 ,-0.000390483126278224864, 0.00739256606112371779 ,-0.00979634648524641861 ,    0.00305351445882689468 ,-0.00104099060770929293 ,-0.00564837081486098489 ,-0.011637011912509175   },
        { 0.00128170077226378264 , 0.0121584720361191147  ,-0.0190575214509844104  , 0.0238105346190119818  ,   -0.0039513131847869953  , 0.00352637310548775023 , 0.0140893763328343562  , 0.0455912460663485397  },
        {-0.00261967141707925661 ,-0.00308142334162304432 ,-0.00371869200413400911 , 0.00195026470172906022 ,    0.00678755109842682589 , 0.00701375343165668973 ,-0.0113106990066385634  ,-0.00445778676913189797 },

        { 0.000905865547559107378,-0.000907614787953814665,-0.000881829472550986395,-0.00538893598918962439 ,    0                      , 0                      , 0                      , 0                      },
        { 0.00143713074222360875 ,-0.00932393018865359906 , 0.0124937659301957837  ,-0.0125510431918746217  ,    0                      , 0                      , 0                      , 0                      },
        { 0.000685168917662905947,-0.0170426890918335891  , 0.0538971205897540023  , 0.0124447339626720162  ,    0                      , 0                      , 0                      , 0                      },
        { 0.00755486417693642352 ,-0.00956392145135224504 , 0.0203216271559054883  ,-0.0192720617129560658  ,    0                      , 0                      , 0                      , 0                      }
      }
    },
    {
      /*OD_INTRA_HU (3,0)*/
      {
        {-0.00501962667642721991 ,-0.00608253446075543002 ,-0.00790314119923406222 ,-0.0172381689332586664  ,    0.0106594805112597488  ,-0.0024710248551232843  , 0.0092422637161841837  , 0.0197507178412323313  },
        { 0.0260962984246644256  ,-0.0106387269309950339  , 0.00315695441045279069 ,-0.0395614010822321616  ,   -0.0439331640080853209  , 0.0226363862794629854  ,-0.0154022944677653251  , 0.0112328664393718785  },
        {-0.0844220463423039219  , 0.0541521943935156722  ,-0.0375145653033493384  ,-0.044545798804079384   ,    0.0385317592134407083  ,-0.094543596602717217   , 0.0228482432407700539  ,-0.0728888318352422931  },
        { 0.0907982282034499322  ,-0.058194206090741378   , 0.0549852846247444599  , 0.0995913799542842981  ,    0.0936247649276085031  , 0.22397245539312638    ,-0.0914179531464908157  , 0.113979457170161752   },

        {-0.00887662893776799966 , 0.033264475723369609   ,-0.0402115552722192085  , 0.0436797029696237779  ,    0                      , 0                      , 0                      , 0                      },
        {-0.0375745897093113443  , 0.0279922797835996211  ,-0.0178691346230915593  , 9.37455327048630679E-05,    0                      , 0                      , 0                      , 0                      },
        { 0.284399498644265392   ,-0.191551765676118951   , 0.224465933147230956   ,-0.128577352746265305   ,    0                      , 0                      , 0                      , 0                      },
        {-0.545687998571545374   , 0.470119635562997518   ,-0.315539697818619957   , 0.0254616351204774403  ,    0                      , 0                      , 0                      , 0                      }
      },
      /*OD_INTRA_HU (3,1)*/
      {
        { 0.00216994610238286549 ,-0.0052054150974422779  ,-0.00338193413556969876 , 0.0140906652929945007  ,   -0.00282681996232507374 , 0.0419436777910042607  ,-0.000632603834820141212, 0.00687219105905585454 },
        { 0.00333927364744653369 ,-0.0230218193957806815  , 0.0158493680217827587  ,-0.0348862130346991317  ,   -0.00495823886680655818 ,-0.0818413149894671038  , 0.0270081572836940904  ,-0.0285128049265131953  },
        {-0.0139740123114535132  , 0.0321417318651700465  ,-0.0119022045234738628  , 0.110034997925769554   ,    0.0547179082430479385  , 0.0357566316935907166  ,-0.121039214301720655   , 0.0548670456314294674  },
        { 0.0400089725790314307  ,-0.0263197171204691063  , 0.0116888119761092996  ,-0.0480824149828864914  ,   -0.08472004671972648    ,-0.0579019868823311482  , 0.0972366473844741563  ,-0.0908904835580725545  },

        {-0.00275312964453295044 , 0.00628285061287743238 , 0.00969248221844004436 ,-0.0439031618660237974  ,    0                      , 0                      , 0                      , 0                      },
        {-0.0101842597619140017  , 0.00421844044461006703 , 0.00867772541228259246 , 0.0260941074498319964  ,    0                      , 0                      , 0                      , 0                      },
        { 0.0266765266085248927  ,-0.0198707048659433581  , 0.0435910120371947804  , 0.0336078823189973966  ,    0                      , 0                      , 0                      , 0                      },
        {-0.0975662645713129273  ,-0.201188365086818616   , 0.560244153765499187   ,-0.405605889439594691   ,    0                      , 0                      , 0                      , 0                      }
      },
      /*OD_INTRA_HU (3,2)*/
      {
        { 0.000980502254351336934, 0.000877436587435636477,-0.00556849443040717627 , 0.00530737903722339893 ,   -0.00089440912415536338 , 0.00164548402609812194 , 0.0395524331449593897  ,-0.00298540771120066935 },
        {-0.00371157478162941314 ,-0.0115708545552087195  , 0.0312933079584227433  ,-0.0205148869706986009  ,    0.002916152696500265   ,-0.00528496294845266345 ,-0.0551423977269648938  ,-0.00516234410139011085 },
        {-0.00248421662769492775 , 0.0121600840023220816  ,-0.05081227013045303    ,-0.00976448021460342951 ,   -0.000621568906698509644, 0.0196970497767716517  , 2.66920649967114953E-05,-0.00217113436357149053 },
        { 0.00271338430547585262 ,-0.024327335883613601   , 0.00902267548268037047 , 0.0227361900486644369  ,    0.00326035220099100617 ,-0.0235658333915492943  , 0.0540558304497792061  , 0.0507630964412641439  },

        { 0.00140488347564297119 , 0.0061164522507195819  ,-0.00648498761665257471 , 0.0144716342084835331  ,    0                      , 0                      , 0                      , 0                      },
        {-0.0019092102858792653  ,-0.00957123254658370087 , 0.00711185741202768288 ,-0.00165186104338609151 ,    0                      , 0                      , 0                      , 0                      },
        { 0.00854941313284920956 ,-0.0102580918034093065  , 0.0478460491515160305  ,-0.0165860711443472399  ,    0                      , 0                      , 0                      , 0                      },
        {-0.0319864328763469208  ,-0.0780010570031453021  , 0.285039953909372867   ,-0.181702421634416217   ,    0                      , 0                      , 0                      , 0                      }
      },
      /*OD_INTRA_HU (3,3)*/
      {
        {-0.000372255080138275782,-0.000785103224948279182,-0.0039442435404254397  , 0.00340597691999579028 ,    0.000220222354324169268, 0.000266157700505339166, 0.00206981224299488623 , 0.0271407635450188582  },
        { 0.000138415590389381719,-0.0013821870530533614  , 0.00321012420231709924 ,-0.0100823027809472249  ,    0.00207984158610110929 ,-0.0002660378864472832  ,-0.00144142533842987427 ,-0.0495553414755728477  },
        { 0.00267961869283240813 , 0.00252706053202448764 ,-0.0239044211172133522  , 0.0020123981310459808  ,   -0.00419809498265793276 , 0.00234953768199282773 , 0.0142919515906382282  ,-0.00535780872286395829 },
        {-0.00329924429118036867 , 0.00549303535382411699 , 0.00850039535879463723 ,-0.00576504165747417693 ,    0.00396952683916202299 , 0.0126259352617760119  , 0.00141848200369642662 , 0.0648662855190112464  },

        { 0.000417346963714978884,-0.000477179684145158378,-0.00526671808617366986 , 0.00618545017073817566 ,    0                      , 0                      , 0                      , 0                      },
        { 0.00153696600998914218 ,-0.00676083075223146267 , 0.00478448661980800365 ,-0.0117675562109033956  ,    0                      , 0                      , 0                      , 0                      },
        {-7.70815898512245074E-05,-0.0100746051756140115  , 0.031561997276915589   ,-0.0376617555870037701  ,    0                      , 0                      , 0                      , 0                      },
        { 0.00798103802800774476 ,-0.0166936686686276169  , 0.0344178999023402529  ,-0.0189226959571202544  ,    0                      , 0                      , 0                      , 0                      }
      }
    }
  },
  {
    {
      /*OD_INTRA_HE (0,0)*/
      {
        { 0.227811235065430884   ,-0.275460838727498714   , 0.274631185465396832   ,-0.141433453281988808   ,   -0.204462488313422924   , 0.0466430588571633345  ,-0.0152943406878866452  ,-0.0494878008890069707  },
        {-0.213076491265765278   , 0.206968468602519551   ,-0.265605339142065799   , 0.108537413675398764   ,    0.184730564607283931   , 0.0276309685402124014  , 0.0504014418160238509  , 0.0216371264971163615  },
        {-0.0251898916295314676  , 0.0621368264022886529  ,-0.0598664559829450785  , 0.0774723674927668415  ,    0.0176870331021943619  , 0.0422140280555849887  ,-0.0540410255462080089  , 0.00209339325030770754 },
        { 0.11716840881449736    ,-0.144631054902837675   , 0.00606774162589904069 ,-0.00462832732862680785 ,   -0.14928568873474557    ,-0.00796770605454536103 , 0.0396225756803932835  , 0.253687837849669029   },

        { 0.985854606596786476   ,-1.22477100450666465    , 1.26580348936786158    ,-0.789359990528229805   ,    0                      , 0                      , 0                      , 0                      },
        { 0.061320994397544959   ,-0.421320699349055083   , 0.46270397127477092    ,-0.295608325300299402   ,    0                      , 0                      , 0                      , 0                      },
        { 0.110775591839911106   , 0.289726037707964457   ,-0.248394078133550938   , 0.239466565749456267   ,    0                      , 0                      , 0                      , 0                      },
        { 0.0267969101559340644  ,-0.266769688532150551   , 0.226622624066790401   ,-0.221382119767122271   ,    0                      , 0                      , 0                      , 0                      }
      },
      /*OD_INTRA_HE (0,1)*/
      {
        {-0.00372632943116949725 ,-0.0336196958598871942  , 0.0302097908442091022  ,-0.069579111647996697   ,    0.00350262836614374101 ,-0.187602355700104778   , 0.091662063602156757   ,-0.0387628975587645183  },
        { 0.00510123982255085082 , 0.00500273404347508985 ,-0.031203648890841304   , 0.0850309571482006227  ,   -0.00095179085083934396 , 0.137935374260455268   ,-0.119113968956463367   , 0.0748477124490590229  },
        { 0.0027437502274022408  , 0.00296731684290332852 ,-0.0246981092130191641  ,-0.0184869173862681757  ,   -0.00070494789256127894 , 0.0682752110658079447  , 0.0499781290309386297  ,-0.0966418140649223517  },
        {-0.00245819347133779172 ,-0.0819415097281535054  , 0.00119778683943464392 ,-0.0973652288438684593  ,    0.00732125488682433372 ,-0.162488509746033183   ,-0.0744274379300726707  , 0.129042719084158292   },

        {-0.00909097200842560495 ,-0.195682386429842675   , 0.430121423101036293   ,-0.451077770285121082   ,    0                      , 0                      , 0                      , 0                      },
        {-0.0048965514739954764  ,-0.0209711962246745126  , 0.0396272993348089075  , 0.0412905407802876684  ,    0                      , 0                      , 0                      , 0                      },
        {-0.00132244721510068881 , 0.0191999404098923236  ,-0.0647160363686352796  ,-0.0612490912361840431  ,    0                      , 0                      , 0                      , 0                      },
        { 0.00563346850094416981 ,-0.0366858512169972936  ,-0.0161660776886012256  ,-0.00533766562986630246 ,    0                      , 0                      , 0                      , 0                      }
      },
      /*OD_INTRA_HE (0,2)*/
      {
        { 0.00299504099800064006 ,-0.0101086880250617298  , 0.0409817269031060721  ,-0.0365576940249968743  ,   -0.00325188925257684095 , 0.010499841566818954   ,-0.17237911751111798    ,-0.00494805747754470133 },
        {-0.00304245508879452285 , 0.0259182073381767734  ,-0.0459992500288288891  , 0.0451635532570882764  ,    0.00279634191519787141 , 0.0058867045428543912  , 0.169682361470898824   , 0.000646781973005739375},
        { 0.00239752156821654077 , 0.015373946988618447   ,-0.0135082437743692593  , 0.0114563770338273665  ,   -0.00430194312180311091 , 0.00140437501407011294 , 0.0734863091233516896  , 0.0338568473711788956  },
        { 0.00415444739340746234 ,-0.00327958473806684104 , 0.0515172440320056518  ,-0.0198568276032369574  ,   -0.00228839317084603621 ,-0.00675938313711198224 ,-0.136824095590058759   ,-0.00400349877660617203 },

        { 0.00229702978038485084 ,-0.0830129762072332605  , 0.241486011127041683   ,-0.177802041949448708   ,    0                      , 0                      , 0                      , 0                      },
        {-0.00128341607352134841 ,-0.00236839801511497207 , 0.00498557749765586849 , 0.00790579551344552239 ,    0                      , 0                      , 0                      , 0                      },
        { 0.00617427690232448707 ,-0.00310322441562339325 , 0.0196243061305028596  , 0.0420881619217826283  ,    0                      , 0                      , 0                      , 0                      },
        {-0.00250691399354196478 ,-0.0154682898819767777  ,-0.0310429317922016959  , 0.0100746586441276143  ,    0                      , 0                      , 0                      , 0                      }
      },
      /*OD_INTRA_HE (0,3)*/
      {
        {-0.000977057938138452915,-0.00603808107912176886 , 0.0125633714765735344  ,-0.0316700448888080424  ,    0.00105362597961658889 , 0.000427001881527489934,-0.0143472748595213639  ,-0.143225011177802564   },
        {-0.000106996461291724765, 0.00665885393773447704 ,-0.00714010158645416414 ,-0.000255628299960496965,    0.000678366813521766136, 0.00289631049181624271 , 0.00740478132394611389 , 0.149011089823576054   },
        {-0.000301080356287989465, 0.00650710684822633327 , 0.00737314477232933752 ,-0.0140998228770573188  ,    0.000763783797487787262,-0.0101510496229944326  , 0.00247683128701806999 , 0.0773669651767161792  },
        {-0.000354011773357946146, 0.00155894578307014774 , 0.0199040392347876634  , 0.0354960936992780307  ,    0.00124777641052048385 , 0.00791175277538276253 ,-0.0022091546027219397  ,-0.172167361444316436   },

        {-0.000301935190762305287,-0.0109701347656576947  , 0.0204619033787589132  , 0.00912887427472854063 ,    0                      , 0                      , 0                      , 0                      },
        { 0.00138999895545424256 , 0.00227283875600426755 ,-0.00916744932558623618 ,-0.0423642027422125658  ,    0                      , 0                      , 0                      , 0                      },
        {-0.00459597828930789504 ,-0.00331543854614249189 ,-0.00085976419098673072 , 0.0115032440705000287  ,    0                      , 0                      , 0                      , 0                      },
        {-3.13793155067885543E-05, 0.0220334390265036206  , 0.0129340267652335028  , 0.0131243936601959515  ,    0                      , 0                      , 0                      , 0                      }
      }
    },
    {
      /*OD_INTRA_HE (1,0)*/
      {
        { 0.158482234441846392   ,-0.193334277565179236   , 0.158283117976690396   ,-0.168130904860944536   ,   -0.118197820414535595   , 0.0138440553306586368  ,-0.0380752500173210939  ,-0.00493271973418741346 },
        {-0.167599269353176955   , 0.157370033945289978   ,-0.102407991761907083   , 0.108034601751542877   ,    0.0415635904713171286  ,-0.0601977125339820882  , 0.0651536817370923643  , 0.0292070389942081544  },
        { 0.00395747109644702545 ,-0.0294506110805169037  ,-0.0712135523642491303  ,-0.00794470078571698872 ,    0.17012290822478407    , 0.143471226070913865   , 0.00842243138834035919 , 0.0457700623447363994  },
        { 0.0729758004658076359  ,-0.112741232043851933   , 0.217528084633353574   ,-0.133524144634943553   ,   -0.185855302247520116   ,-0.0447469366350658967  , 0.0584428769396963047  , 0.0537721106350385614  },

        {-0.0502230167568337854  , 0.00319922935944770993 , 0.0159193940004674211  ,-0.0581882490477240097  ,    0                      , 0                      , 0                      , 0                      },
        { 0.880092505803060754   ,-0.863464156529659355   , 0.741421300473987022   ,-0.678539235173080568   ,    0                      , 0                      , 0                      , 0                      },
        { 0.0929257218055268425  ,-0.338752729670636243   , 0.29794733362770226    ,-0.212291702836392676   ,    0                      , 0                      , 0                      , 0                      },
        { 0.088688268909530521   , 0.198127201196188429   ,-0.269049538764731311   , 0.259958264014006568   ,    0                      , 0                      , 0                      , 0                      }
      },
      /*OD_INTRA_HE (1,1)*/
      {
        {-0.00774414521994518882 ,-0.0176721335377066253  , 0.0550585799891589109  ,-0.0170677517462863755  ,    0.00403818497235377671 ,-0.12867083191657111    ,-0.0277328950118214609  ,-0.0297221105968835837  },
        { 0.0108357016089395165  , 0.00208483486292165409 , 0.0258988899482939551  ,-0.00594760247966381189 ,   -0.00208104207259997937 , 0.0230070248517393987  ,-0.0251375777047968436  , 0.0183197292580301041  },
        {-0.00586831364433164707 , 0.0828887590716856915  ,-0.0504975166938212636  , 0.0398211182656946425  ,   -0.00321053781814685827 , 0.218938239049090655   , 0.0145332314347334079  ,-0.0371392417019045587  },
        { 7.87335423757063655E-05,-0.0443865938461266221  , 0.120698021394663346   ,-0.0752556179616027804  ,    0.00200214773742165425 ,-0.226683726645613426   ,-0.0604047066979036609  , 0.0326801387817230587  },

        { 0.00356759883143271039 ,-0.0171341572195121     , 0.0332173745831031014  ,-0.0475446697587055891  ,    0                      , 0                      , 0                      , 0                      },
        {-0.0120422494650976319  ,-0.098742245348586985   , 0.24092439413694855    ,-0.305250687996911019   ,    0                      , 0                      , 0                      , 0                      },
        {-0.000593261694251510539,-0.0354627946658323603  , 0.0616562098593913255  ,-0.0292961084379915263  ,    0                      , 0                      , 0                      , 0                      },
        {-0.0192351075417136128  , 0.0615051838154355227  ,-0.0890880525504065685  ,-0.0338173660551846708  ,    0                      , 0                      , 0                      , 0                      }
      },
      /*OD_INTRA_HE (1,2)*/
      {
        { 0.00231842880900966133 ,-0.0173877475805608549  , 0.0402140386151757373  ,-0.035458243416064357   ,   -0.00139065907117501947 ,-0.00677426117909213452 ,-0.128572132474282785   ,-0.0302690908548940638  },
        {-0.00605310016441997032 , 0.0105767289508052319  ,-0.0425286631413215113  , 0.0251482366854422941  ,    0.00387827266814223586 , 0.0180582615132107091  , 0.0687695860148115901  ,-0.0217737810090044802  },
        { 0.000135061477672707337, 0.00224080885701962145 ,-0.0397278217882552562  , 0.0211231813294005845  ,   -0.00182433451686354691 ,-0.0154043746316149723  , 0.170563449177265625   , 0.0145946483956998496  },
        {-0.00233077228088093055 ,-0.0104416480843108513  , 0.0201013176751332311  ,-0.016219691827455248   ,    0.00214988551801380138 , 0.0153266650354591822  ,-0.224974377219827382   ,-0.0135878996715311975  },

        {-0.00121026550737701635 , 0.00627426884771339032 ,-0.0244755404423201359  ,-0.00554895154785393658 ,    0                      , 0                      , 0                      , 0                      },
        { 0.00561672472800071269 ,-0.0908413412866677927  , 0.246190201480000592   ,-0.169011190704666775   ,    0                      , 0                      , 0                      , 0                      },
        { 0.00205168458135025723 ,-0.00393987245746847681 , 0.0611488300818350053  ,-0.00566232387729393143 ,    0                      , 0                      , 0                      , 0                      },
        { 0.00652279525147624224 , 0.000740175462548548651, 0.00374746375282238421 ,-0.0211545416696963182  ,    0                      , 0                      , 0                      , 0                      }
      },
      /*OD_INTRA_HE (1,3)*/
      {
        { 0.00105267790952400008 ,-0.00840423128915648854 , 0.0141040056179319064  ,-0.0234139333309012244  ,   -0.00106501874046390312 ,-0.00262850278523798228 ,-0.00193609218777783857 ,-0.114573231237851056   },
        { 0.0012392870728583109  , 0.00848135814931399654 ,-0.0216664638797444409  , 0.0221293976019607576  ,   -0.00108760298567075553 , 0.00814945216641113114 , 0.0160643852746324041  , 0.0710292123086066624  },
        {-0.00107691416021068694 ,-0.00518126646969805944 ,-0.00473338344882540552 , 0.0127526182659327796  ,    0.000732004643547226543, 0.000727118543189683459,-0.00265764136405470704 , 0.160038930082975844   },
        { 0.00460261675049256341 , 0.00646577774753805037 ,-0.0100992049328671712  , 0.00443573749876191147 ,   -0.00255166536839048419 , 0.00536346423328761934 , 0.0308472577253270409  ,-0.207023827343795513   },

        {-0.000236319628913472758, 0.0061998664626485853  , 8.29356359736551317E-05, 0.00652213900213037198 ,    0                      , 0                      , 0                      , 0                      },
        { 0.0020347883978694861  ,-0.0280678457045738308  , 0.0585171101318166728  , 0.0076794691933915419  ,    0                      , 0                      , 0                      , 0                      },
        { 0.000423339956036675831, 0.000276518051836518541,-0.0050581266868328879  ,-0.0196952184415659856  ,    0                      , 0                      , 0                      , 0                      },
        {-0.000198970212960253599,-0.0015840336942945924  , 0.0125148899902541074  , 0.0119800170703066935  ,    0                      , 0                      , 0                      , 0                      }
      }
    },
    {
      /*OD_INTRA_HE (2,0)*/
      {
        { 0.0278753114732891195  ,-0.030867207315733048   , 0.0621215783547049011  ,-0.0139719012857742429  ,   -0.0214389092730947091  , 0.0157944698997124558  , 0.00134963892620734499 ,-0.00121987049833388399 },
        {-0.0579995047539660358  , 0.0921289596507588737  ,-0.107437076511359808   , 0.0549847822254560525  ,   -0.0368777513049449029  ,-0.043699318165925094   , 0.0244486945587340798  ,-0.0213778538876056405  },
        { 0.160137286722157435   ,-0.168650606939723863   , 0.137974198310993307   ,-0.0923242539762590547  ,    0.138947781275928522   , 0.108591084177128469   ,-0.0105242635352595804  ,-0.0456756160382520635  },
        {-0.0521887386853767538  , 0.113031216202770096   ,-0.167581381023467729   , 0.0806293884317568349  ,    0.0378528695718294353  ,-0.0622683409012212627  , 0.00714258053226967705 , 0.00772755126662651778 },

        { 0.00272644037469028542 , 0.00127809427474749084 , 0.0223000200917947873  , 0.0257521724924874192  ,    0                      , 0                      , 0                      , 0                      },
