#include "intra.h"

int OD_PRED_MULTS_4x4[OD_INTRA_NMODES][4][4]={
/* Mode 0 */
  {
    {  14,   4,   3,   2   },
    {  11,   6,   3,   2   },
    {   3,   6,   3,   0   },
    {   2,   2,   2,   1   }
  },
/* Mode 1 */
  {
    {  12,   6,   8,   4   },
    {   6,   1,   0,   2   },
    {   6,   1,   4,   4   },
    {   2,   0,   4,   4   }
  },
/* Mode 2 */
  {
    {  17,   6,   3,   0   },
    {  15,   3,   2,   0   },
    {   9,   2,   2,   0   },
    {   3,   1,   1,   0   }
  },
/* Mode 3 */
  {
    {  11,   4,   5,   0   },
    {  11,   6,   5,   2   },
    {   5,   5,   2,   0   },
    {   2,   4,   2,   0   }
  },
/* Mode 4 */
  {
    {  10,   6,   3,   0   },
    {  13,   4,   2,   1   },
    {  12,   2,   1,   0   },
    {   5,   3,   2,   0   }
  },
/* Mode 5 */
  {
    {  24,   5,   2,   0   },
    {  12,   7,   2,   0   },
    {   4,   4,   1,   0   },
    {   0,   2,   1,   0   }
  },
/* Mode 6 */
  {
    {  10,  17,  10,   5   },
    {   4,   8,   1,   1   },
    {   2,   2,   0,   1   },
    {   3,   0,   0,   0   }
  },
/* Mode 7 */
  {
    {   9,  11,   5,   4   },
    {   3,   5,   6,   3   },
    {   3,   5,   4,   0   },
    {   3,   2,   1,   0   }
  },
/* Mode 8 */
  {
    {  17,  11,  10,   5   },
    {   5,   3,   3,   5   },
    {   2,   0,   1,   2   },
    {   0,   0,   0,   0   }
  },
/* Mode 9 */
  {
    {  19,   8,   3,   0   },
    {   9,   9,   6,   1   },
    {   3,   3,   3,   0   },
    {   0,   0,   0,   0   }
  }
};
double OD_PRED_WEIGHTS_4x4[OD_INTRA_NMODES][4][4][4*4*4]={
/* Mode 0 */
  {
    {
      {  0.225025529443171807   ,-0.202533512871857696   ,-0.158481441650061394   , 0.353063217163828158   ,-0.193180989374312911   ,-0.179879497548045775   , 0.279791096312340948   ,-0.177654472815690523   ,
         0.241085105612000028   ,-0.236041510686164163   , 0.49787524765009844    , 0.74737037713983967    ,-0.345799974008026256   ,-0.695973390160933625   },
      { -0.0461562965884887225  ,-0.235560035451647859   , 0.234982615658593352   , 0.044752542387841078   },
      { -0.120697050839784839   , 0.149746411227502346   , 0.131632171972895617   },
      { -0.127564081991582118   , 0.150119409041138657   }
    },
    {
      { -0.104583443129015852   , 0.197164257743181665   ,-0.0696783504398875014  , 0.11555187400524046    ,-0.220679822954496285   ,-0.154190953339577136   , 0.0557815803922588199  ,-0.105300061794844621   ,
        -0.160716366058273774   , 0.214513964668314044   ,-0.314584295981331918   },
      {  0.107471318145968747   ,-0.143723839670549108   , 0.149156830808304691   ,-0.130265524694250456   , 0.0900833346646170291  , 0.200792154518062593   },
      { -0.13017704492472984    , 0.13091090429536073    , 0.152189331586247673   },
      { -0.115003649688243378   , 0.134502003469070319   }
    },
    {
      {  0.105625325809440784   ,-0.189350628006613536   , 0.201120669560731685   },
      {  0.0836257827470835019  ,-0.220119401896591099   ,-0.170301585369643821   ,-0.125826245089732947   , 0.16182272557109359    , 0.185320081388114954   },
      { -0.124744858860065061   ,-0.0813850896540322111  , 0.311211340572575379   },
      {  0  }
    },
    {
      { -0.290841885691625501   , 0.146406813969444549   },
      { -0.212420282863031828   , 0.311808789908846862   },
      { -0.106723747149086487   , 0.23859930051523412    },
      {  0.0875213422466308982  }
    }
  },
/* Mode 1 */
  {
    {
      { -0.517915858413427133   ,-0.099914298891443834   , 0.232636888539744319   , 0.234805489139297524   , 0.549581039569011498   , 0.117169979517739109   ,-0.29316648846077431    , 0.0869926335911958004  ,
         0.813593300289547683   , 0.278890253696910617   ,-0.329523302959145004   ,-0.161235937095879522   },
      {  0.0321321376452292015  , 0.485674414178236813   , 0.162610934591525952   ,-0.279517720191552965   ,-0.0569706113896264049  , 0.0301913175783037717  },
      { -0.176017490931601933   ,-0.021500159250931912   , 0.491932336765060207   ,-0.167812394079362881   , 0.0215583985482707616  ,-0.11954665367620014    ,-0.0630667977146237846  ,-0.141673610457897697   },
      { -0.110897995921334411   , 0.334385349751770977   ,-0.135264786139312393   ,-0.334482484892704768   }
    },
    {
      {  0.066995633449947592   ,-0.0556557900067964073  , 0.776774099491886694   , 0.362413386452340114   ,-0.471749659913985708   , 0.266808057954154687   },
      {  0.0632459213753971544  },
      {  0  },
      {  0.0646304425628349416  ,-0.156940685690848708   }
    },
    {
      { -0.0698683987688698965  ,-0.043648311287931757   ,-0.0869728406591320363  , 0.741362112333275536   , 0.123604161957219877   ,-0.219528499056727638   },
      { -0.0563376670758633583  },
      {  0.171861814086910814   ,-0.178358206313918105   , 0.124824156197589783   ,-0.301158892633337172   },
      {  0.14924181885063767    ,-0.146384950048355861   , 0.14789690251808213    ,-0.386752751154640362   }
    },
    {
      {  0.887214608325574527   ,-0.222864943882265631   },
      {  0  },
      {  0.161583173820538994   ,-0.296091004791818324   , 0.178887582064082284   ,-0.180303112981664543   },
      {  0.197730643677483331   ,-0.181597442058866076   , 0.168993189525861398   ,-0.293452881237486196   }
    }
  },
/* Mode 2 */
  {
    {
      {  0.114016479439519536   ,-0.182075424513173184   , 0.214118740414025621   , 0.151771341055142839   ,-0.196824430386988158   ,-0.171384768916249652   , 0.851289666689622693   ,-1.10966303387462473    ,
         0.825245404285092632   ,-0.705214670514500375   , 1.90694115860363311    ,-1.75771622953912443    , 1.01996680753967195    ,-0.825044145928333639   , 0.89019282340366801    ,-0.821519435261991338   ,
         0.53568716071650857    },
      {  0.0277317237736460151  ,-0.248040908699026147   , 0.61493660609447931    ,-0.490795055385231938   , 0.08395109589861037    , 0.3227707250074765     },
      { -0.0846319275169204743  , 0.195440650729937937   ,-0.194117853317670508   },
      {  0  }
    },
    {
      { -0.0392836284731691646  ,-0.122295095791063804   , 0.19465820431813724    , 0.230354584434184106   ,-0.261831595530038597   , 0.0514065270209334707  ,-0.148273044436454698   , 0.339226454029233737   ,
         0.463392925098037867   ,-0.438776855830721235   ,-0.873752081531910862   , 1.3058596080406879     ,-0.918741950658379047   ,-0.564830467813435377   , 0.62119280301954094    },
      {  0.065815495937122756   ,-0.211299637845557164   , 0.369689300946588695   },
      { -0.0782450984430979601  , 0.169950473642854483   },
      {  0  }
    },
    {
      { -0.100214363198385836   , 0.23709746998884107    ,-0.184127458216729323   ,-0.165876156469259128   ,-0.0612675169942305115  , 0.177938920049392074   ,-0.165476089891340883   ,-0.377437605889486438   ,
         0.350355391990236187   },
      { -0.175544486075667194   , 0.266638810511175883   },
      { -0.0659635624941609794  , 0.146058613540924809   },
      {  0  }
    },
    {
      {  0.0966439293749468964  , 0.103137037300391143   ,-0.204603105977324146   },
      {  0.225731739678452781   },
      {  0.153018407545099044   },
      {  0  }
    }
  },
/* Mode 3 */
  {
    {
      {  0.0410213675988322923  , 0.220317764165110258   ,-0.237661872061324941   ,-0.0412759474171845719  , 1.01072306347664886    ,-1.77219172244032941    , 1.85313387967156773    ,-1.18789188736120899    ,
         0.351192167885816142   ,-0.644273438262673803   , 0.467656371218141131   },
      { -0.0695316744613842658  ,-0.130215206200856387   , 0.377490720009136249   ,-0.367884458510718493   },
      {  0.010696606803284027   ,-0.0104370779780422474  ,-0.0800302205061340227  , 0.173637428040781694   ,-0.147801260863925144   },
      {  0  }
    },
    {
      {  0.0430225240208944246  ,-0.110557534936676027   , 0.1176469779382944     ,-0.0462282288403823086  , 0.13065701773567262    ,-0.114779058319585042   , 0.873943115048147701   ,-1.078220230587569      ,
         0.794524903256700998   ,-0.386203567739087372   , 0.240512947309086761   },
      { -0.0569775807301363679  , 0.142620035364126874   ,-0.13481352297728777    ,-0.137344792172345687   , 0.292478128974098861   ,-0.246602730122838315   },
      { -0.0740101153774522375  ,-0.118507329344462245   ,-0.0681912361580732929  , 0.156729676818015334   ,-0.111918612327908173   },
      { -0.0823139135478660328  , 0.0719395023655499261  }
    },
    {
      { -0.0142262370959390025  , 0.016543174028991782   , 0.689292901601777475   ,-0.664887710440232094   , 0.264783059288981826   },
      { -0.034710743209902313   , 0.0733998057029715961  ,-0.118482628977266594   , 0.222188283029908257   ,-0.216993218757946082   },
      { -0.0553697776139311579  , 0.114745204347205379   },
      {  0  }
    },
    {
      {  0.566999353544094697   ,-0.667062823049075826   },
      {  0.053760051512593672   ,-0.135247963978552321   , 0.179049533525898336   ,-0.17212158046508283    },
      { -0.0532328725506711203  , 0.0928741134521023914  },
      {  0  }
    }
  },
/* Mode 4 */
  {
    {
      {  0.336316055466336583   ,-0.29896365077599546    ,-0.329744139711627748   , 0.366982823003618119   ,-0.260066963447274591   ,-0.095939174720035561   , 0.752854714830040406   ,-0.703584817342711277   ,
         0.555936783099165499   ,-0.56843878756005084    },
      { -0.0422631609959621402  ,-0.170855396080446975   , 0.168068928836380999   , 0.0413626221318234635  ,-0.109785444904417481   , 0.193454209469655802   },
      { -0.124625818712195857   ,-0.0592294529902998926  , 0.111476000273602383   },
      {  0  }
    },
    {
      {  0.205580478555835555   ,-0.167266233418533361   ,-0.351713494432737972   , 0.308370336796142841   , 0.345828219284858518   ,-0.243424841823414007   , 0.131293147071790628   ,-0.285271983693146713   ,
        -0.205861781508593772   , 0.242653575938184235   , 0.174888048400279217   , 0.60794087424516563    ,-0.405195302188754769   },
      { -0.127764173948113818   , 0.139083386794587843   , 0.119943299587870325   ,-0.227609229795103757   },
      { -0.111648925390326711   , 0.122084814557126706   },
      {  0.134761969127504738   }
    },
    {
      { -0.10127819016524589    , 0.24226983844654662    ,-0.173166280130678835   ,-0.196767745755562162   ,-0.0861127824018856208  , 0.164076827765110428   , 0.163095699447178666   ,-0.143286503623051953   ,
         0.124299227602045523   ,-0.312652437110915282   , 0.182270406971374144   , 0.213327935130954549   },
      { -0.227821758329153329   , 0.272248237118239533   },
      {  0.127487352040953572   },
      {  0  }
    },
    {
      { -0.019781587309664752   , 0.0199513071294301104  ,-0.140411780148092719   ,-0.48160334865540988    , 0.316602551592233883   },
      { -0.154761026192145462   ,-0.287436644401129537   , 0.418825252389668889   },
      { -0.0997041129708478441  , 0.225923074480043479   },
      {  0  }
    }
  },
/* Mode 5 */
  {
    {
      {  0.260047204010725785   ,-0.253506189664926884   ,-0.237261132010758297   , 0.326682152978518825   , 0.122826563633933322   , 0.203457812166742691   , 0.26692281039083815    ,-0.569471366067771601   ,
        -1.08154195245695584    , 0.720505433503808357   , 1.68050934933159946    ,-0.585063489500531553   , 0.258516264096253556   ,-0.720060554818303777   ,-0.480485285147570995   , 0.875756087060500454   ,
         0.523334359770584179   , 0.235805534344800782   ,-1.91982199590014924    , 2.51416157583006949    , 0.461479124831578325   ,-0.757545525129928232   , 0.854161653871511106   , 0.738998539802247945   },
      { -0.0820806924279791489  ,-0.200076362538212121   , 0.261188439486316315   , 0.161198797498841612   ,-0.387114805151413222   },
      { -0.0802193404170514907  , 0.195218542292709712   },
      {  0  }
    },
    {
      { -0.194970101553634062   , 0.268429264494328967   ,-0.319007031399371088   , 0.216345870341661306   ,-0.440174932675331365   ,-0.349170695013687582   ,-0.10636483405553894    ,-0.294784035698443247   ,
         0.255943866559303568   ,-0.555853376958604706   , 0.650994269265723347   , 0.548843689655447942   },
      {  0.0695021657894151906  ,-0.135715387115132285   , 0.228145157004917831   ,-0.0490382247707787239  , 0.131661516530242245   ,-0.0430022089763564749  ,-0.190266619119217911   },
      { -0.110162644125684703   , 0.257337048640742805   },
      {  0  }
    },
    {
      { -0.0943720350168641003  , 0.211277624115440793   ,-0.197185851084202224   , 0.203572223712468969   },
      { -0.109154479432502102   , 0.217845847799947534   , 0.32653399200000488    , 0.34227072712274359    },
      {  0.293708098666655926   },
      {  0  }
    },
    {
      {  0  },
      { -0.158491861252144761   , 0.241269845042030306   },
      {  0.171912989240165348   },
      {  0  }
    }
  },
/* Mode 6 */
  {
    {
      {  0.31728126235158266    ,-0.332895033731707868   ,-0.479545185475026003   , 0.487630756360955153   , 0.674301984142893884   , 0.632420361592953673   ,-0.517365091085704054   ,-0.684230130462132657   ,
         0.346747268292983801   ,-0.337122158583788301   },
      {  0.134572876008528047   ,-0.24205358777612096    , 0.354601614980136925   ,-0.147084461106562314   , 0.215916249593585241   ,-0.296883081526854054   ,-0.241014049590019569   , 0.548008497176356579   ,
         0.231152031202600916   ,-0.364707115902484558   , 0.0445181130232746788  , 0.0611992995310605761  ,-0.173329508053546216   , 0.22578335900074778    , 0.144514283091272649   ,-0.327919289203813025   ,
         0.376469286466920405   },
      { -0.0588408556475673097  , 0.154311905513418973   , 0.0305382860570457479  ,-0.112650203500649929   ,-0.314445356940169396   , 0.18437888155954521    ,-0.0308715211383815864  ,-0.0907407655541458275  ,
         0.22492756095026803    ,-0.198981717805987141   },
      { -0.288289088265356652   , 0.191775961377849746   , 0.0176247203806353496  ,-0.0176624390452196391  , 0.0848687369351386195  }
    },
    {
      {  0.0479271375509814843  ,-0.046575418261191423   ,-0.313064459577732157   , 0.243920724472267314   },
      {  0.0431610122804927665  ,-0.0809198584590296033  ,-0.186068019227603298   , 0.230296377881737263   ,-0.043616815949371647   , 0.0900827824790342568  ,-0.113963887033257411   , 0.16048399344953887    },
      { -0.137219479508882997   },
      { -0.113258991404578888   }
    },
    {
      { -0.114276359381310352   , 0.146861866585919015   },
      { -0.0989181099158375349  , 0.128550159969048644   },
      {  0  },
      {  0.139765666249322601   }
    },
    {
      {  0.199507299916625608   , 0.346789462231976486   , 0.162682115965639196   },
      {  0  },
      {  0  },
      {  0  }
    }
  },
/* Mode 7 */
  {
    {
      {  0.168333940621737482   , 0.994529958213896115   ,-1.35498899773390846    , 0.149635297218821017   , 1.16882686287308646    ,-0.592566369991124553   , 0.0534485715706971148  , 0.107346992299759775   ,
         0.189020948476754214   },
      {  0.0256263221866355265  ,-0.107797755056129776   , 0.109899395309176265   , 0.14186789081291018    , 0.930137044407203017   ,-0.900470818900570125   , 0.54437077093346109    ,-0.206080150130851236   ,
        -0.0238854053982486408  , 0.116044092235540519   ,-0.111882555008321144   },
      {  0.0198110186341733177  , 0.783122560252657363   ,-0.49504103047412884    ,-0.0204171812716302768  , 0.063828350456957797   },
      {  0.0113038426171760444  , 0.735687398381410174   ,-0.443949211085628459   ,-0.0125576254904957735  }
    },
    {
      { -0.176340878603311879   , 0.395544694157195509   ,-0.32585859497723324    },
      { -0.124533668472382078   , 0.249930990670207215   ,-0.175708731079114      , 0.125966172791675463   ,-0.115458555423895701   },
      { -0.0931536421837783624  , 0.181743555786961553   ,-0.153389422126361918   ,-0.0249052016350700955  , 0.0760319643147400331  ,-0.0749486639822273676  },
      { -0.106819344194604954   , 0.120690711219924779   ,-0.121325977418909395   }
    },
    {
      { -0.0635947282359914517  , 0.16464523787442184    ,-0.14227636973973129    },
      { -0.0621134141581267049  , 0.122967328349222249   ,-0.0933887453404705081  , 0.0887233623031035284  ,-0.107418908677924627   },
      { -0.0400111623181959725  , 0.0704692709298110759  ,-0.023912532602668797   , 0.0577525712777619687  },
      {  0  }
    },
    {
      { -0.068196421554968481   ,-0.0899179497561287261  , 0.0695027928373863485  },
      { -0.0451370046629221422  ,-0.109645110562922407   },
      {  0.0577503475464345023  },
      {  0  }
    }
  },
/* Mode 8 */
  {
    {
      {  0.719794409626988818   ,-0.594505063206104412   ,-1.17516347932423959    , 0.924919319879099477   , 0.976228069862577708   ,-0.920187081054480105   ,-0.570113811989778063   , 0.645934822952535792   ,
         0.280308796319988895   , 0.401863320070103336   ,-0.663229598788406149   ,-0.832071609884453833   ,-0.3198061558657736     , 0.722457601082120315   , 0.674420827536050038   ,-0.175953451257953475   ,
         0.22747971673461817    },
      {  0.217464516088704485   ,-0.493372994841120849   ,-0.230616198124270616   , 0.360589004684727377   ,-0.214676109614422544   ,-0.433791933207728519   ,-0.323614567928569075   , 0.189767866463099039   ,
         0.388996082274624455   ,-0.130078130914995427   , 0.194014670164622871   },
      { -0.0203326071351180269  , 0.12781391697006253    ,-0.475888469050601781   , 0.223491514214608722   , 0.0209340144409357713  , 0.144257112669931187   , 0.169107216277335715   ,-0.121212057572287327   ,
        -0.0628432947220729232  , 0.165478010899876848   },
      { -0.364019312196214306   ,-0.131913339009244873   , 0.307331498215915822   , 0.0175718318932328414  ,-0.0172132179468732806  }
    },
    {
      {  0.0429027768341393098  ,-0.149945536514080574   , 0.424088845807349346   ,-0.313425015725059319   ,-0.0460123249378104823  },
      {  0.0954969607232782208  ,-0.179115850388199632   , 0.274344613892852918   },
      { -0.178771384339077216   ,-0.164745643878008052   , 0.125036934416186657   },
      {  0.147205593687167985   ,-0.307021166028820625   , 0.404760076548054459   ,-0.107347206680160401   ,-0.161481572131914275   }
    },
    {
      { -0.0783684470849314585  , 0.155170750729436702   },
      {  0  },
      {  0.164957489235959043   },
      { -0.113618074686354945   , 0.175665015934548613   }
    },
    {
      {  0  },
      {  0  },
      {  0  },
      {  0  }
    }
  },
/* Mode 9 */
  {
    {
      { -0.101361375597143727   , 0.307748265328831094   ,-0.233441460948469626   , 0.138821029464231749   ,-0.375075626274697982   , 0.394854745893760628   , 0.467395791859560872   ,-1.30112605702683726    ,
         1.40551699864309443    , 0.745686943908434041   , 0.463751231342106551   ,-0.898623847129977671   , 0.387334379192129596   , 0.170078525636873562   , 0.410523760182781472   ,-0.141878285452595926   ,
         0.285914711534922872   ,-0.326211771289449393   , 0.414506798041099023   },
      {  0.0908381678725009578  ,-0.335321639117454384   , 0.341810501287425406   ,-0.148487384849536691   , 0.159342126875614831   , 0.0569133222961842739  ,-0.25895735443169432    , 0.496282031583336392   },
      {  0.203833160902378629   ,-0.0979461777868984307  , 0.251904526531340323   },
      {  0  }
    },
    {
      {  0.126520432543663491   ,-0.164350752053490617   ,-0.209739026590320121   , 0.252894442643528061   , 0.310635870119816693   ,-0.119752129489175033   , 0.14794171589669447    ,-0.289438408335223996   ,
        -0.137210365202191709   },
      {  0.060563017043792404   ,-0.117866962225770824   , 0.293537346072667016   ,-0.0581828713648007076  ,-0.203259331829953233   , 0.301589668561796254   , 0.29346883144842939    ,-0.317081472038114154   ,
         0.238205926836248777   },
      { -0.158251470212140644   , 0.288382615111282103   ,-0.105422669334888516   ,-0.0863293808779927591  , 0.214842595106330664   ,-0.21491711614369402    },
      {  0.219160220491837254   }
    },
    {
      { -0.0866021310689417123  , 0.150295245798921923   , 0.174978054054381715   },
      { -0.088450320319251291   , 0.220272898173151349   , 0.163595010104154975   },
      {  0.158033830513315821   ,-0.116690236301621966   , 0.156820246031953076   },
      {  0  }
    },
    {
      {  0  },
      {  0  },
      {  0  },
      {  0  }
    }
  }
};
int OD_PRED_PARAMX_4x4[OD_INTRA_NMODES][4][4][4*4*4]={
/* Mode 0 */
  {
    {
      {  0,  2,  0,  4,  5,  4,  8,  9,  9,  8,  0,  1,  2,  0   },
      {  4,  5,  5,  0   },
      {  6,  6,  2   },
      {  7,  7   }
    },
    {
      {  0,  0,  4,  8,  8,  9,  0,  1,  0,  1,  0   },
      {  1,  5,  5,  5,  8,  2   },
      {  6,  6,  2   },
      {  7,  7   }
    },
    {
      {  4,  0,  1   },
      {  9,  9, 10,  0,  1,  2   },
      { 10,  1,  2   },
      {  0   }
    },
    {
      {  0,  1   },
      {  0,  1   },
      { 10,  2   },
      {  2   }
    }
  },
/* Mode 1 */
  {
    {
      {  0,  1,  2,  0,  4,  4,  4,  8,  0,  1,  2,  1   },
      {  0,  5,  5,  5,  8,  0   },
      {  2,  4,  6,  6,  8, 10,  1,  2   },
      {  3,  7, 11,  3   }
    },
    {
      {  4,  0,  0,  1,  2,  3   },
      {  5   },
      {  0   },
      {  2,  3   }
    },
    {
      {  0,  4,  8,  0,  1,  2   },
      {  5   },
      {  2,  6, 10,  2   },
      {  3,  7, 11,  3   }
    },
    {
      {  0,  2   },
      {  0   },
      {  2,  6, 10,  2   },
      {  3,  7, 11,  3   }
    }
  },
/* Mode 2 */
  {
    {
      {  0,  4,  5,  8,  9,  8,  0,  1,  3,  0,  1,  2,  3,  1,  2,  3,  1   },
      {  0,  1,  2,  3,  0,  3   },
      {  1,  2,  3   },
      {  0   }
    },
    {
      {  0,  4,  5,  4,  5,  8,  8,  8,  0,  1,  0,  1,  2,  1,  2   },
      {  0,  1,  2   },
      {  1,  2   },
      {  0   }
    },
    {
      {  4,  4,  5,  4,  8,  8,  8,  0,  1   },
      {  1,  2   },
      {  1,  2   },
      {  0   }
    },
    {
      {  4,  0,  0   },
      {  2   },
      {  2   },
      {  0   }
    }
  },
/* Mode 3 */
  {
    {
      {  0,  1,  1,  4,  0,  1,  2,  3,  1,  2,  3   },
      {  5,  1,  2,  3   },
      {  4,  8,  1,  2,  3   },
      {  0   }
    },
    {
      {  0,  0,  0,  4,  4,  4,  0,  1,  2,  3,  1   },
      {  5,  5,  5,  1,  2,  3   },
      {  6,  6,  1,  2,  3   },
      {  7,  7   }
    },
    {
      {  4,  0,  0,  1,  2   },
      {  5,  5,  1,  2,  3   },
      {  1,  2   },
      {  0   }
    },
    {
      {  0,  1   },
      {  0,  1,  2,  3   },
      {  1,  2   },
      {  0   }
    }
  },
/* Mode 4 */
  {
    {
      {  0,  1,  0,  1,  1,  4,  0,  1,  0,  1   },
      {  0,  5,  5,  0,  1,  2   },
      {  6,  1,  2   },
      {  0   }
    },
    {
      {  0,  1,  0,  1,  0,  1,  5,  5,  0,  1,  0,  0,  1   },
      {  5,  5,  0,  1   },
      {  6,  2   },
      {  7   }
    },
    {
      {  0,  0,  1,  0,  4,  4,  5,  0,  1,  0,  1,  0   },
      {  1,  2   },
      {  2   },
      {  0   }
    },
    {
      {  0,  0,  0,  0,  1   },
      {  0,  1,  2   },
      {  1,  2   },
      {  0   }
    }
  },
/* Mode 5 */
  {
    {
      {  0,  1,  0,  1,  4,  5,  4,  5,  4,  5,  4,  5,  8,  8,  9,  8,  9,  0,  2,  3,  0,  1,  2,  2   },
      {  4,  5,  5,  0,  1   },
      {  1,  2   },
      {  0   }
    },
    {
      {  0,  1,  1,  4,  4,  5,  0,  0,  1,  2,  3,  0   },
      {  0,  0,  1,  4,  4,  0,  1   },
      {  1,  2   },
      {  0   }
    },
    {
      {  4,  4,  0,  1   },
      {  5,  5,  6,  2   },
      {  2   },
      {  0   }
    },
    {
      {  0   },
      {  0,  1   },
      {  2   },
      {  0   }
    }
  },
/* Mode 6 */
  {
    {
      {  0,  1,  0,  1,  4,  5,  4,  5,  0,  1   },
      {  0,  1,  2,  0,  1,  2,  4,  6,  4,  6,  8,  0,  1,  2,  0,  1,  2   },
      {  1,  2,  4,  5,  6,  6,  8,  1,  2,  3   },
      {  7,  7,  8,  0,  2   }
    },
    {
      {  4,  0,  0,  1   },
      {  0,  1,  5,  5,  0,  1,  0,  1   },
      {  2   },
      {  7   }
    },
    {
      {  0,  1   },
      {  0,  1   },
      {  0   },
      {  7   }
    },
    {
      {  0,  4,  8   },
      {  0   },
      {  0   },
      {  0   }
    }
  },
/* Mode 7 */
  {
    {
      {  2,  4,  4,  6,  4,  4,  8,  9, 10   },
      {  0,  2,  3,  2,  5,  5,  5,  5,  0,  2,  3   },
      {  0,  6,  6,  0,  2   },
      {  0,  7,  7,  0   }
    },
    {
      {  4,  4,  4   },
      {  5,  5,  5,  2,  3   },
      {  6,  6,  6,  0,  2,  3   },
      {  7,  7,  7   }
    },
    {
      {  4,  4,  4   },
      {  5,  5,  5,  2,  3   },
      {  6,  6,  0,  2   },
      {  0   }
    },
    {
      {  0,  4,  1   },
      {  0,  3   },
      { 10   },
      {  0   }
    }
  },
/* Mode 8 */
  {
    {
      {  4,  5,  4,  5,  4,  5,  4,  5,  8,  9,  8,  9, 10,  8,  9,  0,  1   },
      {  4,  6,  4,  6,  8,  9, 10,  8,  9,  0,  1   },
      {  0,  5,  6,  6,  8,  9, 10,  9,  1,  2   },
      {  7,  6,  7,  8,  0   }
    },
    {
      {  4,  4,  4,  4,  8   },
      {  5,  5,  5   },
      {  7,  6, 10   },
      {  6,  7,  7, 10, 11   }
    },
    {
      {  4,  4   },
      {  0   },
      {  6   },
      {  7,  7   }
    },
    {
      {  0   },
      {  0   },
      {  0   },
      {  0   }
    }
  },
/* Mode 9 */
  {
    {
      {  0,  0,  1,  4,  5,  4,  5,  4,  4,  8,  9,  8,  8,  0,  3,  0,  1,  0,  0   },
      {  4,  5,  5,  8,  8,  0,  1,  2   },
      {  6,  1,  2   },
      {  0   }
    },
    {
      {  4,  5,  4,  5,  4,  8,  9,  9,  1   },
      {  4,  4,  6,  8,  9,  9, 10,  9,  1   },
      {  6,  6,  9,  1,  2,  3   },
      {  7   }
    },
    {
      {  4,  4,  1   },
      {  5,  5,  1   },
      {  6, 10, 10   },
      {  0   }
    },
    {
      {  0   },
      {  0   },
      {  0   },
      {  0   }
    }
  }
};
int OD_PRED_PARAMY_4x4[OD_INTRA_NMODES][4][4][4*4*4]={
/* Mode 0 */
  {
    {
      {  0,  0,  2,  1,  1,  2,  0,  0,  1,  2,  4,  4,  4,  5   },
      {  0,  0,  1,  4   },
      {  0,  1,  4   },
      {  0,  1   }
    },
    {
      {  0,  1,  0,  0,  1,  1,  4,  4,  5,  5,  6   },
      {  1,  0,  1,  2,  1,  5   },
      {  0,  1,  5   },
      {  0,  1   }
    },
    {
      {  2,  6,  6   },
      {  1,  2,  2,  6,  6,  6   },
      {  2,  6,  6   },
      {  0   }
    },
    {
      {  7,  7   },
      {  7,  7   },
      {  3,  7   },
      {  7   }
    }
  },
/* Mode 1 */
  {
    {
      {  0,  0,  0,  2,  0,  1,  2,  0,  4,  4,  4,  5   },
      {  0,  0,  1,  2,  0,  4   },
      {  0,  0,  0,  2,  0,  0,  4,  4   },
      {  0,  0,  0,  4   }
    },
    {
      {  0,  4,  5,  5,  5,  5   },
      {  0   },
      {  0   },
      {  5,  5   }
    },
    {
      {  2,  1,  2,  6,  6,  6   },
      {  1   },
      {  2,  2,  2,  6   },
      {  2,  2,  2,  6   }
    },
    {
      {  7,  7   },
      {  0   },
      {  3,  3,  3,  7   },
      {  3,  3,  3,  7   }
    }
  },
/* Mode 2 */
  {
    {
      {  1,  0,  1,  0,  0,  1,  4,  4,  4,  5,  5,  5,  5,  6,  6,  6,  7   },
      {  4,  4,  4,  4,  5,  5   },
      {  4,  4,  4   },
      {  0   }
    },
    {
      {  0,  1,  1,  2,  2,  0,  1,  2,  5,  5,  6,  6,  6,  7,  7   },
      {  5,  5,  5   },
      {  5,  5   },
      {  0   }
    },
    {
      {  1,  2,  2,  3,  1,  2,  3,  7,  7   },
      {  6,  6   },
      {  6,  6   },
      {  0   }
    },
    {
      {  2,  6,  7   },
      {  7   },
      {  7   },
      {  0   }
    }
  },
/* Mode 3 */
  {
    {
      {  0,  2,  3,  0,  4,  4,  4,  4,  6,  6,  6   },
      {  0,  4,  4,  4   },
      {  0,  0,  4,  4,  4   },
      {  0   }
    },
    {
      {  0,  2,  3,  0,  2,  3,  5,  5,  5,  5,  7   },
      {  0,  2,  3,  5,  5,  5   },
      {  0,  3,  5,  5,  5   },
      {  0,  1   }
    },
    {
      {  0,  4,  6,  6,  6   },
      {  0,  2,  6,  6,  6   },
      {  6,  6   },
      {  0   }
    },
    {
      {  7,  7   },
      {  7,  7,  7,  7   },
      {  7,  7   },
      {  0   }
    }
  },
/* Mode 4 */
  {
    {
      {  0,  0,  1,  1,  2,  0,  4,  4,  5,  5   },
      {  0,  0,  1,  4,  4,  4   },
      {  0,  4,  4   },
      {  0   }
    },
    {
      {  0,  0,  1,  1,  2,  2,  0,  1,  4,  4,  5,  6,  6   },
      {  0,  1,  5,  5   },
      {  0,  5   },
      {  1   }
    },
    {
      {  1,  2,  2,  3,  1,  2,  2,  5,  5,  6,  6,  7   },
      {  6,  6   },
      {  6   },
      {  0   }
    },
    {
      {  0,  4,  6,  7,  7   },
      {  7,  7,  7   },
      {  7,  7   },
      {  0   }
    }
  },
/* Mode 5 */
  {
    {
      {  0,  0,  1,  1,  0,  0,  1,  1,  2,  2,  3,  3,  1,  2,  2,  3,  3,  4,  4,  4,  5,  5,  5,  6   },
      {  0,  0,  1,  4,  4   },
      {  4,  4   },
      {  0   }
    },
    {
      {  1,  1,  2,  0,  1,  1,  4,  5,  5,  5,  5,  6   },
      {  0,  1,  1,  0,  1,  4,  5   },
      {  5,  5   },
      {  0   }
    },
    {
      {  1,  2,  6,  6   },
      {  1,  2,  2,  7   },
      {  6   },
      {  0   }
    },
    {
      {  0   },
      {  7,  7   },
      {  7   },
      {  0   }
    }
  },
/* Mode 6 */
  {
    {
      {  0,  0,  1,  1,  0,  0,  1,  1,  5,  5   },
      {  0,  0,  0,  1,  1,  1,  0,  0,  1,  1,  0,  4,  4,  4,  5,  5,  5   },
      {  0,  0,  0,  0,  0,  1,  0,  4,  4,  4   },
      {  0,  1,  0,  4,  4   }
    },
    {
      {  0,  4,  5,  5   },
      {  0,  0,  1,  2,  4,  4,  5,  5   },
      {  1   },
      {  0   }
    },
    {
      {  6,  6   },
      {  6,  6   },
      {  0   },
      {  2   }
    },
    {
      {  3,  3,  3   },
      {  0   },
      {  0   },
      {  0   }
    }
  },
/* Mode 7 */
  {
    {
      {  1,  0,  1,  1,  2,  3,  1,  1,  1   },
      {  0,  0,  0,  1,  0,  1,  2,  3,  4,  4,  4   },
      {  0,  0,  1,  4,  4   },
      {  0,  0,  1,  4   }
    },
    {
      {  1,  2,  3   },
      {  1,  2,  3,  5,  5   },
      {  1,  2,  3,  5,  5,  5   },
      {  1,  2,  3   }
    },
    {
      {  1,  2,  3   },
      {  1,  2,  3,  6,  6   },
      {  1,  2,  6,  6   },
      {  0   }
    },
    {
      {  3,  3,  7   },
      {  7,  7   },
      {  3   },
      {  0   }
    }
  },
/* Mode 8 */
  {
    {
      {  0,  0,  1,  1,  2,  2,  3,  3,  0,  0,  1,  1,  1,  2,  2,  5,  5   },
      {  0,  0,  1,  1,  0,  0,  0,  1,  1,  5,  5   },
      {  0,  0,  0,  1,  0,  0,  0,  1,  4,  4   },
      {  0,  1,  1,  0,  4   }
    },
    {
      {  0,  1,  2,  3,  0   },
      {  0,  1,  2   },
      {  0,  1,  0   },
      {  0,  0,  2,  0,  0   }
    },
    {
      {  1,  2   },
      {  0   },
      {  2   },
      {  1,  2   }
    },
    {
      {  0   },
      {  0   },
      {  0   },
      {  0   }
    }
  },
/* Mode 9 */
  {
    {
      {  0,  1,  1,  0,  0,  1,  1,  2,  3,  0,  0,  1,  2,  4,  4,  5,  5,  6,  7   },
      {  0,  0,  1,  0,  1,  4,  4,  4   },
      {  1,  4,  4   },
      {  0   }
    },
    {
      {  0,  0,  1,  1,  2,  0,  0,  1,  4   },
      {  0,  1,  1,  0,  0,  1,  1,  2,  6   },
      {  0,  1,  1,  5,  5,  5   },
      {  1   }
    },
    {
      {  1,  2,  6   },
      {  1,  2,  6   },
      {  2,  1,  2   },
      {  0   }
    },
    {
      {  0   },
      {  0   },
      {  0   },
      {  0   }
    }
  }
};

const unsigned char OD_INTRA_PRED_PROB_4x4[3][OD_INTRA_NMODES][OD_INTRA_NCONTEXTS]={
{{48, 96, 70, 112, 97, 149, 114, 246, },
{6, 29, 20, 48, 36, 83, 56, 211, },
{9, 33, 29, 41, 49, 64, 60, 83, },
{11, 51, 43, 70, 73, 110, 94, 158, },
{6, 26, 28, 65, 39, 76, 84, 160, },
{6, 31, 28, 83, 31, 65, 82, 156, },
{7, 40, 30, 75, 29, 65, 59, 135, },
{9, 75, 34, 92, 49, 134, 66, 198, },
{4, 33, 18, 48, 23, 79, 35, 119, },
{4, 23, 18, 35, 22, 45, 29, 65, },
},
{{69, 120, 89, 130, 125, 174, 135, 247, },
{3, 31, 17, 41, 38, 66, 46, 103, },
{5, 30, 23, 34, 49, 55, 57, 79, },
{6, 46, 33, 58, 70, 107, 76, 133, },
{4, 31, 30, 66, 44, 83, 85, 162, },
{4, 36, 29, 89, 37, 72, 87, 173, },
{4, 49, 32, 87, 33, 83, 68, 149, },
{5, 74, 29, 81, 47, 130, 58, 166, },
{3, 37, 16, 40, 21, 75, 31, 71, },
{2, 23, 16, 33, 20, 47, 26, 54, },
},
{{67, 124, 90, 134, 127, 179, 137, 248, },
{3, 29, 16, 40, 39, 72, 46, 110, },
{4, 30, 22, 32, 48, 56, 48, 69, },
{5, 46, 35, 58, 72, 114, 77, 135, },
{3, 30, 27, 70, 45, 78, 86, 167, },
{3, 36, 30, 92, 37, 79, 87, 168, },
{4, 51, 31, 83, 35, 82, 69, 143, },
{5, 78, 31, 86, 50, 135, 60, 167, },
{2, 40, 15, 34, 24, 79, 26, 66, },
{2, 23, 15, 26, 21, 39, 21, 43, },
},
};
