const int OD_PRED_MULTS_8x8[OD_INTRA_NMODES][8][8]={
/* Mode 0 */
  {
    {  42,  16,   5,   3,   4,   5,   4,   2   },
    {  18,  12,   6,   3,   5,   6,   5,   2   },
    {   8,   9,   2,   1,   1,   2,   1,   2   },
    {   9,  11,   1,   2,   3,   4,   2,   4   },
    {   6,   6,   2,   1,   1,   0,   0,   0   },
    {   4,   5,   3,   2,   1,   0,   0,   0   },
    {   6,   4,   3,   2,   0,   0,   0,   0   },
    {   4,   2,   2,   2,   0,   0,   0,   0   }
  },
/* Mode 1 */
  {
    {  36,  16,  11,  13,   9,   9,   7,   4   },
    {  14,   7,   2,   1,   6,   6,   3,   1   },
    {  15,   7,   1,   0,   0,   0,   0,   0   },
    {  17,   7,   0,   0,   0,   0,   1,   0   },
    {  12,  10,   0,   0,   0,   0,   0,   0   },
    {   9,   8,   0,   0,   0,   0,   0,   0   },
    {   9,   8,   0,   0,   0,   0,   0,   0   },
    {   3,   2,   2,   0,   0,   0,   0,   0   }
  },
/* Mode 2 */
  {
    {  26,   8,   6,   3,   3,   4,   2,   2   },
    {  17,  12,   5,   4,   3,   4,   2,   2   },
    {   9,  14,   5,   2,   2,   1,   0,   0   },
    {   7,  14,  13,   2,   2,   0,   1,   0   },
    {   5,  11,  11,   3,   2,   0,   0,   0   },
    {   3,   6,   8,   4,   2,   0,   0,   0   },
    {   3,   5,   6,   3,   1,   0,   0,   0   },
    {   2,   2,   2,   2,   0,   0,   0,   0   }
  },
/* Mode 3 */
  {
    {  12,   9,   4,   6,   7,   5,   6,   4   },
    {  13,   6,   6,   6,   6,   5,   4,   2   },
    {  14,   8,   6,   4,   5,   6,   2,   4   },
    {  11,   4,   2,   3,   5,   6,   3,   4   },
    {   8,   7,   4,   3,   1,   0,   1,   1   },
    {   9,   4,   2,   2,   2,   2,   1,   2   },
    {   5,   3,   1,   0,   0,   0,   0,   0   },
    {   6,   4,   0,   0,   0,   0,   0,   0   }
  },
/* Mode 4 */
  {
    {  20,   9,   9,   4,   5,   4,   3,   2   },
    {  18,  11,   6,   4,   4,   4,   2,   2   },
    {  15,  13,   5,   3,   1,   1,   0,   0   },
    {  12,  17,   5,   1,   0,   1,   0,   0   },
    {   9,  13,   6,   1,   0,   0,   0,   0   },
    {   9,  10,   6,   1,   0,   0,   0,   0   },
    {   6,   8,   1,   0,   0,   0,   0,   0   },
    {   2,   2,   1,   0,   0,   0,   0,   0   }
  },
/* Mode 5 */
  {
    {  23,  12,   4,   3,   2,   2,   2,   2   },
    {  17,  15,  10,   3,   2,   2,   2,   2   },
    {   6,  15,  14,   5,   2,   1,   1,   0   },
    {   3,   7,  15,   9,   5,   3,   1,   2   },
    {   2,   4,   7,   9,   3,   2,   0,   0   },
    {   2,   3,   4,   7,   3,   0,   0,   0   },
    {   2,   2,   2,   4,   0,   0,   0,   0   },
    {   2,   2,   1,   3,   0,   0,   0,   0   }
  },
/* Mode 6 */
  {
    {  18,  16,  12,   8,   4,   4,   2,   2   },
    {   7,  17,  15,  13,  10,   4,   4,   2   },
    {  10,   6,  10,  12,  14,   7,   3,   2   },
    {   4,   2,   3,   4,   6,   4,   2,   1   },
    {   4,   3,   2,   1,   2,   2,   0,   0   },
    {   3,   2,   0,   1,   0,   0,   0,   0   },
    {   2,   2,   0,   0,   0,   0,   0,   0   },
    {   2,   2,   0,   0,   0,   0,   0,   0   }
  },
/* Mode 7 */
  {
    {  12,  13,  12,  11,  10,   9,   5,   2   },
    {   4,   6,   7,   6,   8,   6,   4,   2   },
    {   6,   6,   7,   2,   4,   2,   1,   0   },
    {   5,   6,   6,   3,   6,   2,   0,   0   },
    {   4,   6,   6,   2,   2,   2,   0,   0   },
    {   5,   5,   3,   6,   4,   2,   0,   0   },
    {   5,   3,   2,   4,   2,   2,   0,   0   },
    {   4,   4,   2,   4,   0,   2,   2,   0   }
  },
/* Mode 8 */
  {
    {  26,  24,  13,  12,   8,   6,   6,   3   },
    {  12,  11,  10,  12,  11,   9,   7,   2   },
    {   9,   6,   3,   3,   7,   5,   2,   2   },
    {   6,   4,   1,   0,   1,   0,   0,   0   },
    {   6,   4,   1,   0,   1,   0,   0,   0   },
    {   5,   4,   1,   1,   0,   0,   0,   0   },
    {   4,   4,   0,   0,   0,   0,   0,   0   },
    {   2,   2,   0,   0,   0,   0,   0,   0   }
  },
/* Mode 9 */
  {
    {  13,  10,   9,   4,   3,   4,   2,   2   },
    {  10,  19,  17,   9,   4,   2,   2,   2   },
    {   8,  13,  17,  10,   6,   3,   1,   1   },
    {   4,   5,   9,  10,   7,   4,   1,   1   },
    {   3,   3,   3,   5,   5,   3,   0,   0   },
    {   2,   2,   3,   2,   3,   0,   0,   0   },
    {   2,   2,   0,   1,   0,   0,   0,   0   },
    {   2,   2,   0,   1,   0,   0,   0,   0   }
  }
};
const double OD_PRED_WEIGHTS_8x8[]={
/* Mode 0 (0 0) */
   0.383069391871842524   , 0.624586384263279393   ,-0.187134760036409803   ,-0.265257467257308255   , 0.341215132741684746   , 0.45213572116030859    , 0.213358056409945179   , 0.19757563571409642    ,
   0.699644972561525025   ,-0.22984547138808159    , 1.12151298712701464    ,-0.834106741545349917   , 0.417821048075067036   ,-0.406624124173523505   ,-1.40054215173809937    , 0.447324635616449584   ,
   0.575701400941374564   ,-0.346090849393743016   , 0.128210800743136288   , 0.170319744248295851   ,-0.410338298087370656   , 0.697577137699825767   ,-0.484109972600827942   , 0.436608723897455531   ,
  -0.547952369379854809   , 0.311993719611184606   ,-0.579647617011808225   ,-0.376161764799137321   , 1.07805355637686406    ,-0.738224544967232443   , 0.167008914599733715   ,-0.170092528045737934   ,
   0.964967980047290341   ,-0.346746225300213151   , 1.51469434835229677    , 1.3192703858905348     ,-1.06869066323761341    , 0.551651526798559111   ,-0.359387365454738539   ,-0.74874563355465229    ,
  -0.272523418982073662   , 0.466441555364375038   ,
/* Mode 0 (1 0) */
  -0.0258206989196926341  , 0.0986123230904481923  ,-0.172635792360556761   ,-0.0641986161323214455  ,-0.0940255249416208916  , 0.129347336098261545   , 0.0980163012886616503  ,-0.165813098705224454   ,
  -0.126509027572291488   , 0.189901532018440733   ,-0.0972644849440043729  ,-0.0837598763056401491  , 0.048763322352484928   , 0.125692973703807942   ,-0.478013689832348876   ,-0.229751267161636297   ,
/* Mode 0 (2 0) */
  -0.149354460855835869   , 0.0578047070888367681  ,-0.178913019998731548   , 0.0117839986628492134  ,-0.116714928919220667   ,
/* Mode 0 (3 0) */
  -0.130139497298849549   ,-0.127831159859321392   ,-0.0337681061959253792  ,
/* Mode 0 (4 0) */
  -0.157503045278926557   ,-0.130942139286539666   , 0.0523645085935733681  , 0.0735581809635514894  ,
/* Mode 0 (5 0) */
  -0.154208968357078563   , 0.154294021065952691   , 0.0411591631578947445  , 0.0458611981041184072  ,-0.0597378960212003249  ,
/* Mode 0 (6 0) */
  -0.157501950206960756   , 0.148284502978139193   , 0.0302060411899754133  ,-0.0450138016110781247  ,
/* Mode 0 (7 0) */
  -0.157025341918784062   ,-0.163766225439810925   ,
/* Mode 0 (0 1) */
  -0.0815688019282533316  , 0.0817487274645419398  , 0.140966299930350758   ,-0.161364953759847801   , 0.208531391150860584   , 0.121166122069100296   ,-0.534696150931719738   ,-0.552531300506747813   ,
   0.0453783518149849935  , 0.0608659464869041947  ,-0.170348479792932439   ,-0.128430999649682132   , 0.123141794980994951   ,-0.332289064285443414   ,-0.274097737468737834   , 0.232285896298156103   ,
   0.39443662415455566    , 0.235608921376108865   ,
/* Mode 0 (1 1) */
   0.0186129214271008973  ,-0.0360143334277627722  , 0.0541508721349023628  ,-0.0623687313575657515  ,-0.239638101523244634   , 0.219911584537986232   ,-0.0357208260916681078  , 0.0153624753903763567  ,
  -0.216802060622698634   ,-0.0668413100042031111  , 0.167856812709861136   , 0.0931863870180753839  ,
/* Mode 0 (2 1) */
  -0.0967018928055830701  , 0.0673092822642832322  ,-0.127410051950320985   ,-0.0638913883165752178  ,-0.0724423740239136804  , 0.0787516801885925349  ,
/* Mode 0 (3 1) */
  -0.103730258279715548   ,-0.106836247021416517   ,-0.0387166108484725685  ,
/* Mode 0 (4 1) */
  -0.126834778972620299   ,-0.113735055684330524   ,-0.0197694566859374678  , 0.0593888717832321764  ,-0.0495676367445034849  ,
/* Mode 0 (5 1) */
  -0.130218632761767122   , 0.133519756011168833   , 0.0435230524852634471  ,-0.0486861660517056288  ,-0.0337556332611140542  , 0.0449023786486618809  ,
/* Mode 0 (6 1) */
  -0.135661584870350349   , 0.129059116079451586   , 0.0239613144246350086  ,-0.042692193501551054   , 0.0376836895086601759  ,
/* Mode 0 (7 1) */
  -0.135226799197369962   ,-0.139033336560890342   ,
/* Mode 0 (0 2) */
   0.0428803596702095058  ,-0.0637485214766345953  ,-0.307280888392366114   ,-0.229146246610665655   ,-0.060121177323397737   ,-0.232437921674723019   , 0.117998244381078657   ,-0.0179014128980514338  ,
/* Mode 0 (1 2) */
   0.0100380740551459392  ,-0.053311730500306978   ,-0.114090045688827219   , 0.143016757354018365   ,-0.00911288342025678468 , 0.0469938507038651365  ,-0.110476376910464164   ,-0.142310400542739357   ,
   0.0771950908159586419  ,
/* Mode 0 (2 2) */
  -0.0674518053975975557  , 0.0624161742055356489  ,
/* Mode 0 (3 2) */
   0.0350119466642675042  ,
/* Mode 0 (4 2) */
  -0.0645064468474697977  ,
/* Mode 0 (5 2) */
  -0.0451807798951902873  , 0.0579783721097520618  ,
/* Mode 0 (6 2) */
   0.0532193954128450525  ,
/* Mode 0 (7 2) */
   0.0445052426411958885  , 0.0442655803551226384  ,
/* Mode 0 (0 3) */
  -0.0379230823929488439  ,-0.0851434842636088901  ,-0.0618466293720636023  , 0.117358361046548496   , 0.165401671226740155   ,-0.033470511032056352   ,-0.163056998786202556   ,-0.205295134016477809   ,
  -0.0737843054365536904  ,
/* Mode 0 (1 3) */
   0.0133313232199321185  ,-0.0133294296091659888  ,-0.0474978317127915037  , 0.0905101000175756176  ,-0.080588426165023791   , 0.0390745590803931661  ,-0.0800934468437654451  ,-0.0590440669779606769  ,
   0.0863358536395791992  ,-0.126860350268743316   ,-0.0594873084770044316  ,
/* Mode 0 (2 3) */
   0.0260569542569426445  ,
/* Mode 0 (3 3) */
   0.0205963902546531658  , 0.0214702510873012592  ,
/* Mode 0 (4 3) */
   0.0239450737915066457  , 0.0226306202718067201  , 0.0449839207624115542  ,
/* Mode 0 (5 3) */
   0.0255179373955966744  ,-0.023591759456038322   , 0.0308371087768092404  ,-0.0440651289067201316  ,
/* Mode 0 (6 3) */
   0.0269306291224281139  ,-0.0273611433225284077  ,
/* Mode 0 (7 3) */
   0.0278319103193023498  , 0.0308833996977157799  , 0.0345926159028797781  , 0.0381779070160388201  ,
/* Mode 0 (0 4) */
  -0.0243875408223852286  ,-0.0381590767651322285  , 0.0829007162418857607  , 0.0677326662977279365  ,-0.203925702357740268   ,-0.158108981249767105   ,
/* Mode 0 (1 4) */
  -0.0334061455632739326  , 0.0198699002599825279  , 0.0687060436043588629  ,-0.0370083243232715853  ,-0.172469319667659798   ,-0.083366650013924945   ,
/* Mode 0 (2 4) */
  -0.0466529096515500286  ,-0.0484911202567163344  ,
/* Mode 0 (3 4) */
   0.0255932913785123436  ,
/* Mode 0 (4 4) */
   0.0453112989386433851  ,
/* Mode 0 (5 4) */
/* Mode 0 (6 4) */
/* Mode 0 (7 4) */
/* Mode 0 (0 5) */
   0.0448914751355394478  , 0.0579075877253134863  ,-0.176361147274375685   , 0.193268357145571307   ,
/* Mode 0 (1 5) */
   0.0561637912512700857  ,-0.0391010216796395874  ,-0.12180999513052948    , 0.164606479119669441   , 0.0479070431172152478  ,
/* Mode 0 (2 5) */
  -0.0491585799818803834  , 0.0501478233082541802  , 0.0228231288775411767  ,
/* Mode 0 (3 5) */
   0.0279404984610214548  ,-0.0186443671917003867  ,
/* Mode 0 (4 5) */
   0.0358086371765573216  ,
/* Mode 0 (5 5) */
/* Mode 0 (6 5) */
/* Mode 0 (7 5) */
/* Mode 0 (0 6) */
   0.0309584099622467711  , 0.0397927598646682784  ,-0.0501371167291438866  ,-0.197969603684480439   , 0.00240525648376555727 , 0.166880142318477559   ,
/* Mode 0 (1 6) */
   0.0356047811131251779  ,-0.0316847979049496575  ,-0.160742459334892618   , 0.127818869317083195   ,
/* Mode 0 (2 6) */
  -0.0365629560104354309  , 0.0451776510087053343  , 0.0611745441964796147  ,
/* Mode 0 (3 6) */
   0.0255435483217063518  , 0.0293523731170672875  ,
/* Mode 0 (4 6) */
/* Mode 0 (5 6) */
/* Mode 0 (6 6) */
/* Mode 0 (7 6) */
/* Mode 0 (0 7) */
   0.0263577199454420284  , 0.0262301064478788482  ,-0.194798498331638092   ,-0.186495405482305365   ,
/* Mode 0 (1 7) */
  -0.143591159999415602   ,-0.169375494711992508   ,
/* Mode 0 (2 7) */
  -0.0298389108157178819  , 0.0431360251586766497  ,
/* Mode 0 (3 7) */
   0.0288765863197817108  , 0.0369000820350617251  ,
/* Mode 0 (4 7) */
/* Mode 0 (5 7) */
/* Mode 0 (6 7) */
/* Mode 0 (7 7) */
/* Mode 1 (0 0) */
  -1.1454388677099252     ,-0.423519079027734113   , 0.484597750351888401   ,-0.436233838027897836   , 0.4347100121325424     ,-0.964201453563373612   , 0.812982052194027083   , 0.313312694785001122   ,
   1.00676173463706964    ,-0.245534353384488813   , 0.21362202101384753    , 0.277542243551102741   , 0.286252697057225336   , 0.147998121948293537   , 0.530643386464598965   ,-0.331763804571302334   ,
   0.950753297457615165   , 0.298010064072856073   ,-0.0739933225870177402  , 0.240820058541249715   , 0.141613914360351423   ,-0.1170944077377922     ,-0.239799097226907842   ,-0.338607761487219383   ,
   0.238928781436502008   , 0.383207320809033303   ,-0.332491814059090229   , 0.247025036708040074   , 0.556703079981602289   , 1.5274766153869006     , 0.445821991252765837   ,-0.403124205042526829   ,
   0.371842690424841582   , 0.116999291263299596   ,-0.293952850078373795   , 1.51377863051788486    ,
/* Mode 1 (1 0) */
   0.134970177117398393   , 0.340257143209147184   , 0.32354200062389149    ,-0.29217810115795817    ,-0.514621474988246952   ,-0.497036482133511093   ,-0.256922361568054036   ,-0.0986984592381286163  ,
   0.0380020495569081754  , 0.163743017720372253   ,-0.0652799529811226853  , 0.118980312108014616   , 0.112684050618823015   ,-0.226048635269087306   , 0.161558197548156257   ,-0.32432529244618008    ,
/* Mode 1 (2 0) */
   0.0181928152426764737  ,-0.190852088390700725   ,-0.112412013403550046   , 0.44150641200588836    , 0.0858832706000988155  , 0.122971486822371703   ,-0.0194102825080231696  ,-0.109708518131263422   ,
   0.0226548187584943578  ,-0.127173209068907944   ,-0.253212675316073055   ,
/* Mode 1 (3 0) */
  -0.122099527702615548   , 0.138542567513448539   ,-0.018794275053060451   ,-0.10256780052379541    , 0.300024214675978618   , 0.0201713831697834245  , 0.139819313379772353   , 0.224172423437562079   ,
   0.0521498596482037405  , 0.0683387980396906458  ,-0.122990141565396047   , 0.074164185178377029   , 0.122609247825141141   ,
/* Mode 1 (4 0) */
  -0.0389136440189761373  , 0.161886556050220509   ,-0.0900693198235164721  , 0.117162652625351638   ,-0.0768280371826513542  ,-0.242529201132101302   ,-0.0641469394290034578  ,-0.0544805034273843844  ,
   0.128303062182733713   ,
/* Mode 1 (5 0) */
   0.0843778659968715122  ,-0.110237727493213131   ,-0.218142760542363312   , 0.166914358710174793   ,-0.0277570435923624598  ,-0.100096284713693057   , 0.0441672696506159868  , 0.10820963546834797    ,
  -0.117105351715423231   ,
/* Mode 1 (6 0) */
  -0.0691433572056741608  ,-0.0835780574145611604  ,-0.0984572255194636342  , 0.0723236006183674701  , 0.227016954210305877   , 0.0530000989298993891  ,-0.089256081221309555   ,
/* Mode 1 (7 0) */
  -0.0046623136434581075  ,-0.263138914035562166   , 0.0046523072770632886  ,-0.139764840937760426   ,
/* Mode 1 (0 1) */
  -0.112048238072006368   , 0.266824527445718385   , 0.0230003980218336686  ,-0.18883740111433267    , 0.0439799218328290401  ,-0.136011602743627141   ,-0.185436961073065676   ,-0.216151776480519198   ,
   0.647161101645934433   , 0.243614912545408846   ,-0.586249094197193732   ,-0.535424203643014796   ,-0.288625459749051017   , 0.86704899536079072    ,
/* Mode 1 (1 1) */
   0.0304201110948105827  ,-0.0308659491346581771  , 0.0220793798841138131  ,-0.115363732493333593   ,-0.0323805443952615152  , 0.175367951257627247   ,-0.0467128907151216632  ,
/* Mode 1 (2 1) */
   0.0450495096397603365  , 0.117619480847229507   ,
/* Mode 1 (3 1) */
   0.034294328514782868   ,
/* Mode 1 (4 1) */
  -0.0198370367220906396  , 0.050920384206463977   ,-0.056266734963606381   ,-0.0216712992856939041  , 0.0214299789696878358  ,-0.0470526490665969035  ,
/* Mode 1 (5 1) */
   0.0325496695573426476  ,-0.0591789968982365175  , 0.0464544395726718753  ,-0.0798235077915074587  ,-0.0391384968047304785  , 0.0507820642143296391  ,
/* Mode 1 (6 1) */
  -0.0424300426703308198  , 0.0873251096706977314  , 0.0422639680813938282  ,
/* Mode 1 (7 1) */
  -0.103263816129308614   ,
/* Mode 1 (0 2) */
  -0.0362058579525984803  , 0.210044112035887298   ,-0.130222886013894756   , 0.0636519720673344308  ,-0.179469362876358091   ,-0.144915412638776692   , 0.0132567410986000871  ,-0.20232815045682051    ,
  -0.128690486244621982   , 0.0795117633934031148  ,-0.169715704689087088   , 0.127722816565457004   , 0.0894457351276236601  ,-0.056679826030015916   ,-0.646674165225250897   ,
/* Mode 1 (1 2) */
   0.0333172893783152124  , 0.0110991200346443851  ,-0.0109295798491419287  ,-0.0495808605017221196  , 0.0325289960277391071  ,-0.0774717901291660238  , 0.127493674590077682   ,
/* Mode 1 (2 2) */
  -0.0194460154326565084  ,
/* Mode 1 (3 2) */
/* Mode 1 (4 2) */
/* Mode 1 (5 2) */
/* Mode 1 (6 2) */
/* Mode 1 (7 2) */
/* Mode 1 (0 3) */
   0.151276310619345072   ,-0.13607415412463314    , 0.0642911697332681498  ,-0.154327778905896551   ,-0.0758801792347962439  , 0.128715514346128934   , 0.111573976869468253   ,-0.151208236542219404   ,
  -0.04956904346836144    , 0.199324448492513906   , 0.078533544885460882   ,-0.0271844847939132564  , 0.14852831623809265    ,-0.279904700898436221   , 0.0201229574763074244  ,-0.142648374424236946   ,
  -0.415289006915466385   ,
/* Mode 1 (1 3) */
  -0.0462757210747159684  , 0.0700416189313427529  , 0.0560369991275583082  , 0.0363178823199884135  , 0.0359913545581897337  ,-0.119428499855640247   , 0.035178270401855824   ,
/* Mode 1 (2 3) */
/* Mode 1 (3 3) */
/* Mode 1 (4 3) */
/* Mode 1 (5 3) */
/* Mode 1 (6 3) */
  -0.0205363028147956643  ,
/* Mode 1 (7 3) */
/* Mode 1 (0 4) */
   0.0684493231664234786  ,-0.125920272529909505   , 0.0312513922107701403  ,-0.076584589957730459   , 0.211800853990048943   ,-0.0573473987337419638  , 0.241771547544933019   ,-0.0832569340417235043  ,
   0.111551035787707212   ,-0.379998961465005003   , 0.139585566292542068   , 0.150909940738057996   ,
/* Mode 1 (1 4) */
  -0.0477009859849228043  ,-0.0230126373702046264  , 0.077584424270829927   , 0.0412883933573713682  ,-0.065491906512243736   , 0.0241846170369926679  ,-0.0862023349841880698  ,-0.0798414162937690075  ,
  -0.0473969832728315318  , 0.119527467440784185   ,
/* Mode 1 (2 4) */
/* Mode 1 (3 4) */
/* Mode 1 (4 4) */
/* Mode 1 (5 4) */
/* Mode 1 (6 4) */
/* Mode 1 (7 4) */
/* Mode 1 (0 5) */
  -0.082433432731790629   , 0.153236592711114616   ,-0.133203454671797672   , 0.11347365836588269    ,-0.134108852538137341   ,-0.0289637095067834631  ,-0.159873203268667163   , 0.323768671620052795   ,
   0.227526943039991547   ,
/* Mode 1 (1 5) */
  -0.0340214818956779547  , 0.0505251272433483584  ,-0.0692030740903325781  ,-0.0801466494483845937  , 0.049504806823663379   , 0.0302659988946063427  ,-0.13035450456895839    , 0.089287348995572613   ,
/* Mode 1 (2 5) */
/* Mode 1 (3 5) */
/* Mode 1 (4 5) */
/* Mode 1 (5 5) */
/* Mode 1 (6 5) */
/* Mode 1 (7 5) */
/* Mode 1 (0 6) */
  -0.00395123039017510579 , 0.0682010682237457616  ,-0.125266711402303693   ,-0.0924394323539329404  , 0.0954770900475623158  ,-0.365023399765506962   , 0.0045155938698647818  ,-0.106154014969819313   ,
   0.140022982824391656   ,
/* Mode 1 (1 6) */
   0.0313461815105029254  ,-0.0513651978377512933  ,-0.0351946017027056426  , 0.0648832441853585684  , 0.0267384063068556825  ,-0.117026057966109709   ,-0.0576757890976347873  , 0.076259953468386335   ,
/* Mode 1 (2 6) */
/* Mode 1 (3 6) */
/* Mode 1 (4 6) */
/* Mode 1 (5 6) */
/* Mode 1 (6 6) */
/* Mode 1 (7 6) */
/* Mode 1 (0 7) */
   0.02891282677620979    ,-0.21821485214628214    ,-0.375094381325734749   ,
/* Mode 1 (1 7) */
  -0.0799340147268120388  ,-0.126115563489064442   ,
/* Mode 1 (2 7) */
   0.0231460272947575721  ,-0.0471936553021208571  ,
/* Mode 1 (3 7) */
/* Mode 1 (4 7) */
/* Mode 1 (5 7) */
/* Mode 1 (6 7) */
/* Mode 1 (7 7) */
/* Mode 2 (0 0) */
   0.243802888524612571   , 0.723277804730789287   ,-0.700211247321292474   ,-0.24884076757455309    ,-0.440857476707679108   , 0.39417766758696865    , 0.800493904555004243   , 0.852576246847255637   ,
  -0.795157957513856539   , 0.593430264900634441   , 1.09032077511531322    , 0.89152126971054968    , 0.781655433539245603   , 0.134558351153318684   , 0.424396715819149339   , 0.63404387373504989    ,
   0.693748177434952096   , 0.316158963053320974   , 1.15413945719227251    , 1.13538513620630166    , 0.514093447250417279   ,-0.428799894961764461   , 1.53049551367274517    ,-0.721107489389320233   ,
  -0.474201690504289175   , 0.757280846851321021   ,
/* Mode 2 (1 0) */
  -0.232850359233722604   , 0.319870418786963095   , 0.189431743429535615   ,-0.0362527428701758456  ,-0.470466392373601772   , 0.096307171107953865   ,-0.299084575156258969   ,-0.735218763378013729   ,
/* Mode 2 (2 0) */
  -0.244279377313690205   ,-0.0177039180897011483  , 0.15818499936146363    , 0.0203130344178378587  ,-0.184802057285955001   ,-0.241881944577578833   ,
/* Mode 2 (3 0) */
  -0.206481835304094835   ,-0.22161426627169109    ,-0.0922596994215423433  ,
/* Mode 2 (4 0) */
  -0.195034951908207521   ,-0.176272751088359353   , 0.113066507291417401   ,
/* Mode 2 (5 0) */
  -0.181757291862735371   , 0.20822621036066799    , 0.0726078632995787732  ,-0.0960601449562537152  ,
/* Mode 2 (6 0) */
  -0.205757449823989774   , 0.18607441530319821    ,
/* Mode 2 (7 0) */
  -0.188335968395259179   ,-0.195245308148286417   ,
/* Mode 2 (0 1) */
  -0.124277120021734952   , 0.136123007751895564   ,-0.269240983392164512   , 0.22300580824774488    , 0.210525926344988651   ,-0.337143404448157824   ,-0.623097903479391424   ,-0.739644530962773494   ,
  -0.934642885671381096   , 0.354815566662065096   ,-0.579049343126974647   ,-0.373361008503412639   , 0.256175749089965266   ,-0.261333341010043296   ,-0.35704904651340813    , 0.431077921210123116   ,
  -0.586734918616692025   ,
/* Mode 2 (1 1) */
  -0.0465722710618637903  ,-0.0737435886152600084  ,-0.11426382038562953    , 0.199791825988439392   ,-0.194754462977602988   ,-0.077438808738914483   ,-0.052360222988447197   , 0.0421635230137947098  ,
  -0.151246054455613316   ,-0.159265215888770545   , 0.203276302869041164   ,-0.313444275908662029   ,
/* Mode 2 (2 1) */
  -0.160512672367180753   , 0.0827858944792178031  ,-0.130589605861326563   , 0.12413421063153128    , 0.0796724559497195145  ,
/* Mode 2 (3 1) */
  -0.120456290916552397   ,-0.164802108893235766   ,-0.063970799007002685   , 0.0471148808141877012  ,
/* Mode 2 (4 1) */
  -0.156346409928048685   ,-0.126982401414436508   , 0.0798513762707446784  ,
/* Mode 2 (5 1) */
  -0.13905756366671021    , 0.164403417100906862   , 0.0552693367218085665  ,-0.0534604896410805636  ,
/* Mode 2 (6 1) */
  -0.172233460631463942   , 0.147522110058139783   ,
/* Mode 2 (7 1) */
  -0.152900507482468806   ,-0.164226430883893965   ,
/* Mode 2 (0 2) */
  -0.0362189883359219575  ,-0.0725194422600033556  , 0.0661995854341888568  ,-0.30273977604499458    ,-0.245457541742631402   , 0.100315372806869821   ,-0.371946363462538232   , 0.1774385610174469     ,
  -0.0719442361491061666  ,
/* Mode 2 (1 2) */
  -0.134170512181025908   , 0.148008679957746109   ,-0.151793622087099289   , 0.162170614444885175   ,-0.0575040868720658668  , 0.0319258066332168133  , 0.234664801445904875   ,-0.082662506286222695   ,
   0.0414584653701738776  ,-0.20590003006432564    , 0.160597648714013136   ,-0.0390289764797057126  ,-0.128946751359185263   , 0.272027175566267432   ,
/* Mode 2 (2 2) */
  -0.0515467208523219395  , 0.0827397844791195464  , 0.0534634390926394878  ,-0.0455462779151869362  , 0.166801406408325109   ,
/* Mode 2 (3 2) */
   0.0580700480755005563  , 0.0788260281383043049  ,
/* Mode 2 (4 2) */
   0.0856856260806282688  ,-0.106349110221804224   ,
/* Mode 2 (5 2) */
  -0.071636521472695322   ,
/* Mode 2 (6 2) */
/* Mode 2 (7 2) */
/* Mode 2 (0 3) */
  -0.186718147392481798   , 0.167772638661670997   ,-0.0146123664274275394  ,-0.0836478564075587294  , 0.135872026746811647   ,-0.200094911394746389   ,-0.301800701966989326   ,
/* Mode 2 (1 3) */
   0.060747134981421716   ,-0.081628711556010175   , 0.126232565985834766   ,-0.12588370827274642    , 0.116110969113643145   , 0.161209749046595407   , 0.103633700741923823   , 0.122319148257013746   ,
  -0.0583389415659270813  ,-0.118599475794169407   ,-0.124108101259033723   ,-0.167649847639574773   ,-0.160927680993476846   , 0.158314435899397504   ,
/* Mode 2 (2 3) */
  -0.0393339113355579209  ,-0.0476209888060416253  , 0.0461453806266999694  , 0.0730308994356904245  ,-0.0687345576732402291  ,-0.0511152382082455808  ,-0.0849778021725678956  , 0.0389435036429488096  ,
   0.0311888752326594     ,-0.109125149902514151   ,-0.0746687673471538166  , 0.135058890607701987   , 0.135930469882494492   ,
/* Mode 2 (3 3) */
   0.0554212173899118477  ,-0.0726122914684535908  ,
/* Mode 2 (4 3) */
   0.0404113320900038875  , 0.077276900304896548   ,
/* Mode 2 (5 3) */
/* Mode 2 (6 3) */
   0.0435296398649842806  ,
/* Mode 2 (7 3) */
/* Mode 2 (0 4) */
  -0.0572368276710367094  , 0.178303064490424573   , 0.0905279888570288266  ,-0.253576953189189769   ,-0.21249887586368002    ,
/* Mode 2 (1 4) */
  -0.0452190094171204052  ,-0.0806595059254327507  , 0.151166857430923868   ,-0.0663926120097279027  , 0.161744530347193299   ,-0.102122350318913452   ,-0.113509083264318689   , 0.0537603331061349901  ,
  -0.269257422035727223   , 0.125090194736925509   , 0.0529336272894649768  ,
/* Mode 2 (2 4) */
   0.0561973431701804638  , 0.0658265578141899593  ,-0.0691585632742900552  ,-0.111018324129341303   , 0.148660033158571514   ,-0.0586471694620631506  ,-0.050041047741394222   , 0.099424004198228999   ,
  -0.0610042073483769293  , 0.0607512051799911565  ,-0.132994288893167362   ,
/* Mode 2 (3 4) */
   0.0725126769226436402  ,-0.0615107447096728543  ,-0.107039149644670206   ,
/* Mode 2 (4 4) */
  -0.0433629490144435623  , 0.077753138150069262   ,
/* Mode 2 (5 4) */
/* Mode 2 (6 4) */
/* Mode 2 (7 4) */
/* Mode 2 (0 5) */
   0.105943116614562502   ,-0.204775602423993591   , 0.232385509261324924   ,
/* Mode 2 (1 5) */
   0.0827741764838130917  , 0.106064703102413241   ,-0.124003988065895521   ,-0.0907693592653057296  , 0.241771606060803973   ,-0.0803756262568712937  ,
/* Mode 2 (2 5) */
   0.0681237998800630906  ,-0.0946596809968957981  , 0.0945418210788536301  , 0.0374430704019376864  ,-0.0632006656932918576  , 0.105535324531982111   ,-0.100748597558134159   ,-0.0943280526950052711  ,
/* Mode 2 (3 5) */
   0.0569041156991903913  ,-0.0759230179741478828  ,-0.0689841612030254736  ,-0.0877591424500700767  ,
/* Mode 2 (4 5) */
  -0.0394134613978987594  , 0.0669806746162419503  ,
/* Mode 2 (5 5) */
/* Mode 2 (6 5) */
/* Mode 2 (7 5) */
/* Mode 2 (0 6) */
   0.0515624010775377478  ,-0.216053719924198612   , 0.195131716665795596   ,
/* Mode 2 (1 6) */
   0.0398949495359154777  , 0.0397040698053797644  ,-0.225025116371192491   ,-0.0417217514684264865  , 0.150053714662718635   ,
/* Mode 2 (2 6) */
  -0.0572041927493175395  , 0.0306540019111036406  ,-0.0617695763888610264  , 0.0888773141525181914  ,-0.0340954836316534476  , 0.0556707506369681221  ,
/* Mode 2 (3 6) */
  -0.0516203245208213951  , 0.0602841916004568656  ,-0.0449782752066065564  ,
/* Mode 2 (4 6) */
  -0.0700720766279827739  ,
/* Mode 2 (5 6) */
/* Mode 2 (6 6) */
/* Mode 2 (7 6) */
/* Mode 2 (0 7) */
  -0.210143791496091831   ,-0.218817906583324978   ,
/* Mode 2 (1 7) */
  -0.158154314855805445   ,-0.216045981255303915   ,
/* Mode 2 (2 7) */
  -0.0455413258151793135  , 0.0900354866239571061  ,
/* Mode 2 (3 7) */
   0.0394063330939208242  , 0.0698959907644529921  ,
/* Mode 2 (4 7) */
/* Mode 2 (5 7) */
/* Mode 2 (6 7) */
/* Mode 2 (7 7) */
/* Mode 3 (0 0) */
   0.12540748233506796    , 0.247816130476951307   ,-0.130888002691530281   ,-0.110525113622314139   ,-0.144949626689410471   , 0.0406947901146750973  , 0.0867388838174947135  ,-0.0278284273688426571  ,
   1.01817483413990439    ,-0.393930116468862834   , 0.97891347118043881    ,-0.263939404627028806   ,
/* Mode 3 (1 0) */
  -0.0705621421727016668  , 0.058022221467836893   ,-0.112022286017239778   , 0.117847972738921863   ,-0.0803223159509267037  , 0.018986917611128265   ,-0.00898161409417680932 ,-0.0907270062145270617  ,
  -0.0797589347030341206  ,
/* Mode 3 (2 0) */
  -0.102504152759459441   ,-0.0857913269886132757  , 0.0890207172643392997  ,-0.0542944876456790751  ,
/* Mode 3 (3 0) */
  -0.0729413923262085817  ,-0.0593453174154517579  ,-0.057943145946358264   ,-0.0649311058028426563  , 0.0486296264030976061  , 0.0612657627892327986  ,
/* Mode 3 (4 0) */
  -0.0903969859840569323  ,-0.0556035607087673606  ,-0.062261731063815981   ,-0.0637135127299187226  , 0.00270940253278615078 ,-0.00347831877953450877 , 0.0438702789591746758  ,
/* Mode 3 (5 0) */
  -0.0931555653340327555  , 0.0838724871729505106  ,-0.0534349877947959337  , 0.0582283632712733215  ,-0.0414784736696232198  ,
/* Mode 3 (6 0) */
  -0.113366350248245498   , 0.0891386882687933146  ,-0.0508242840249334207  , 0.0533575203319210795  ,-0.0372188713428675336  ,-0.0370726866638324479  ,
/* Mode 3 (7 0) */
  -0.106204238950755342   ,-0.103787057706601737   ,-0.0495373260582451999  ,-0.0487818101167869847  ,
/* Mode 3 (0 1) */
   0.163265307364520246   , 0.210489864259035736   ,-0.0720854039535570312  ,-0.0897705153914065135  ,-0.0563750432772582508  ,-0.144423947949841813   ,-0.133009869090549182   , 0.0486758794227282396  ,
   0.894455964409735405   ,-0.107577298394238755   ,-0.907654427938992314   , 0.224852390874739683   ,-0.0954345341552537418  ,
/* Mode 3 (1 1) */
  -0.0730659364597654459  , 0.0709854475260205259  ,-0.121176043402079797   , 0.126700734605758897   ,-0.0643585280200059673  , 0.0733349992194739092  ,
/* Mode 3 (2 1) */
  -0.0888331637609182517  , 0.0756223854306564969  ,-0.108577620227078314   , 0.0776386844763943818  ,-0.0407356931971962211  , 0.0424893084995108944  ,
/* Mode 3 (3 1) */
  -0.0953063927110866654  ,-0.0855895982029059449  ,-0.0542225609258369587  ,-0.0603379208789424012  , 0.0510085388631347642  ,-0.051966788272884111   ,
/* Mode 3 (4 1) */
  -0.101320544748902966   ,-0.0872402736533624129  ,-0.0506518540525863759  ,-0.0493197689500424682  , 0.0368020292942792815  ,-0.0346850084495736177  ,
/* Mode 3 (5 1) */
  -0.0991935171062561655  , 0.0948179655375779168  ,-0.0501624287011414385  , 0.0493647733615434139  ,-0.0423080556177604927  ,
/* Mode 3 (6 1) */
  -0.112020952242413777   , 0.0936629150554331713  ,-0.0466030927581013582  , 0.0481539423561979929  ,
/* Mode 3 (7 1) */
  -0.108637885510102603   ,-0.107913174852779847   ,
/* Mode 3 (0 2) */
   0.0600447721788944996  ,-0.106859047165847085   ,-0.0386044773671193608  ,-0.0255414780669328927  ,-0.0525294655015861034  ,-0.0415064024465987072  , 0.121903873022147946   , 0.0302793255149538254  ,
  -0.0581645394027165905  ,-0.0123794023346513234  , 0.761434752600929854   , 0.0224113389848769953  ,-0.739011847021951329   , 0.117360231976087359   ,
/* Mode 3 (1 2) */
  -0.0238176814530180643  , 0.0234524063990275144  ,-0.0505987846004816652  , 0.0576392645968021936  , 0.0675513491040432845  ,-0.0777141048291165454  ,-0.0595839027042388281  , 0.0707502907607733406  ,
/* Mode 3 (2 2) */
  -0.0280027701657673891  , 0.0255615945357058581  ,-0.0518024692477268428  , 0.0315536805202303594  , 0.0771635287007290949  , 0.0402008427536233656  ,
/* Mode 3 (3 2) */
  -0.0327304189329846035  ,-0.0255354549643372446  , 0.0506152837723977053  ,-0.0486455123631120354  ,
/* Mode 3 (4 2) */
  -0.0301421077546120894  ,-0.0263436700255675303  , 0.0501824793163681629  , 0.0392730690291527504  ,-0.044068726353769766   ,
/* Mode 3 (5 2) */
  -0.0274383681285980327  , 0.0258047122256206442  , 0.0364644990940291014  ,-0.0351791001421524127  ,-0.0395705816874629343  , 0.0429373982167922455  ,
/* Mode 3 (6 2) */
  -0.0295774776969690394  , 0.0193329564518721908  ,
/* Mode 3 (7 2) */
  -0.0262824580942903931  ,-0.0231298286228362078  , 0.0395339705820133974  , 0.0354172286310262679  ,
/* Mode 3 (0 3) */
   0.0117223336908890887  ,-0.0509703449049302842  ,-0.0891555441729227488  ,-0.0153589273249565856  , 0.0872083308736547047  , 0.0684940691717526307  ,-0.0191691668603144842  , 0.603304176101088219   ,
   0.0224762969682278275  , 0.668156624952313982   , 0.0661107925083863623  ,
/* Mode 3 (1 3) */
   0.0781103858131683981  ,-0.0874336499820669577  ,-0.0536546522953653543  ,-0.047081154770354329   ,
/* Mode 3 (2 3) */
   0.0854137618878682003  ,-0.0612686037452419355  ,
/* Mode 3 (3 3) */
   0.0566551245293226216  , 0.0617319388674685693  , 0.0367844384701787666  ,
/* Mode 3 (4 3) */
   0.0359552451797831088  , 0.0536416542332043     , 0.0466892738798282969  , 0.0316898809268333428  , 0.0339202884305572147  ,
/* Mode 3 (5 3) */
   0.0388477874537737355  ,-0.0330924248845934216  , 0.0391227914310247962  ,-0.0455851001328212019  ,-0.0401172765376104148  ,-0.0444689560712888676  ,
/* Mode 3 (6 3) */
   0.0371824175384005487  ,-0.0322909461524307217  , 0.0434606781908292925  ,
/* Mode 3 (7 3) */
   0.0323007525843321749  , 0.0352859492604663053  , 0.038075714859288505   , 0.0350146777827014186  ,
/* Mode 3 (0 4) */
  -0.0423808174041537949  , 0.0318964937626498649  , 0.0861225978192890484  ,-0.0510725198258646651  ,-0.0333007056916904895  , 0.545771323558420507   ,-0.0632401418075564381  , 0.504195254829665873   ,
/* Mode 3 (1 4) */
   0.0208759750244140833  ,-0.016052319806390089   , 0.0396104661060663124  ,-0.0513571042661396943  ,-0.0325383425888951458  , 0.039259574587437826   ,-0.058585709096179342   ,
/* Mode 3 (2 4) */
  -0.0229283883329131494  , 0.0515362436204067353  ,-0.035415860722096737   ,-0.0460896602505718803  ,
/* Mode 3 (3 4) */
   0.0183149779215659482  , 0.0317858953436593664  , 0.0450313339328102941  ,
/* Mode 3 (4 4) */
   0.0374063320569793939  ,
/* Mode 3 (5 4) */
/* Mode 3 (6 4) */
   0.0248387326561329766  ,
/* Mode 3 (7 4) */
   0.0204162022179898671  ,
/* Mode 3 (0 5) */
   0.0341348236252548634  ,-0.0731904730227947303  , 0.00908773350542931187 ,-0.0216928627826329413  , 0.41649338560153143    ,-0.00923100149451925797 ,-0.0219967177994955555  ,-0.452271211669570961   ,
  -0.0810637962311596266  ,
/* Mode 3 (1 5) */
  -0.0515187833423688055  , 0.0562396633348038466  , 0.0203612290936971731  ,-0.018086262218761015   ,
/* Mode 3 (2 5) */
  -0.0535521209352236363  , 0.049385893891067803   ,
/* Mode 3 (3 5) */
  -0.0435465129533207582  ,-0.0446969436471066697  ,
/* Mode 3 (4 5) */
  -0.0488268070513023511  ,-0.0434852076975438401  ,
/* Mode 3 (5 5) */
  -0.0354224521543126808  , 0.0387469478298663808  ,
/* Mode 3 (6 5) */
  -0.0439907963554740031  ,
/* Mode 3 (7 5) */
  -0.0312110922308004718  ,-0.0363284073649386557  ,
/* Mode 3 (0 6) */
   0.0267333192063861115  ,-0.0571937996335424859  ,-0.0416520292616691379  , 0.37586218824509815    ,-0.349210250882671547   ,
/* Mode 3 (1 6) */
   0.0211763017474052261  ,-0.0233443078345817838  , 0.0534398710898316698  ,
/* Mode 3 (2 6) */
  -0.0360635542303463438  ,
/* Mode 3 (3 6) */
/* Mode 3 (4 6) */
/* Mode 3 (5 6) */
/* Mode 3 (6 6) */
/* Mode 3 (7 6) */
/* Mode 3 (0 7) */
  -0.00444227350379294925 ,-0.0363320069775990226  , 0.340323018856340531   , 0.00471418224839519322 , 0.0335818232016561469  , 0.353412115129305371   ,
/* Mode 3 (1 7) */
   0.0324454812013969321  ,-0.0510065763530356264  , 0.0345175439402288092  ,-0.0468995936608822203  ,
/* Mode 3 (2 7) */
/* Mode 3 (3 7) */
/* Mode 3 (4 7) */
/* Mode 3 (5 7) */
/* Mode 3 (6 7) */
/* Mode 3 (7 7) */
/* Mode 4 (0 0) */
   0.575063187909565565   ,-0.918333746591783351   , 0.690085439434730441   ,-0.299797214954403812   , 0.274137492224082069   , 0.30415882132387545    ,-0.403125320758489891   ,-0.274856317857699539   ,
  -0.341157311646222761   , 0.134560145496230688   ,-0.0494634954627679105  , 1.34493647485694146    ,-2.97466140748359509    , 2.55561188237753001    ,-0.749836084252110791   , 0.212092553739970879   ,
  -1.22012537609607485    , 1.07885064225140881    , 0.258551640737883059   ,-0.332494744517306817   ,
/* Mode 4 (1 0) */
  -0.187405402970702323   ,-0.246189330990960742   , 0.182899327286497992   , 0.0397067666056544755  ,-0.624169303813612797   , 0.506870280349376201   , 0.0299215781746988256  ,-0.389842696642226261   ,
   0.217889810831586817   ,
/* Mode 4 (2 0) */
  -0.0979726367938000553  ,-0.11979631244161365    , 0.205329488022970769   ,-0.011424385755047976   , 0.0131478715031382223  ,-0.24289610120179847    , 0.279541809066438329   ,-0.136959195610312889   ,
   0.206509252671736809   ,
/* Mode 4 (3 0) */
  -0.160282526639683787   ,-0.152474525343314377   , 0.159816163977386683   , 0.152472344671466725   ,
/* Mode 4 (4 0) */
  -0.146533530953132485   ,-0.173549849533504191   , 0.103506188098141244   , 0.0864125636698931526  ,-0.109353251398379231   ,
/* Mode 4 (5 0) */
  -0.169570188987661408   , 0.160191896231998032   ,-0.100938363297415706   ,-0.0786718448949051408  ,
/* Mode 4 (6 0) */
  -0.170122206296336009   , 0.18156085818983711    ,-0.0603309240858068904  ,
/* Mode 4 (7 0) */
  -0.179749161179946437   ,-0.174796059220614919   ,
/* Mode 4 (0 1) */
   0.37336255116211825    ,-0.161721060633798458   ,-0.384516506797271895   , 0.247092840060034763   ,-0.235830885589214528   ,-0.472234142977779714   , 0.297558013688669132   ,-0.0960521634215989184  ,
   0.200684350274963952   , 0.133946022291853012   , 0.298557324952188174   , 0.663332286188118125   ,-0.463160813677039929   ,-0.439793764244230556   , 0.394059834942493914   ,-0.319953066438733058   ,
  -0.652199931827722179   , 0.482626125814374862   ,
/* Mode 4 (1 1) */
   0.0267781237117295443  ,-0.152687041028116782   ,-0.200027702959529236   , 0.110269840935615468   , 0.178146664638448415   , 0.0462376036386632008  ,-0.0874770600678627108  , 0.0679109011400084034  ,
  -0.258928877056212536   ,-0.0498509948426766603  , 0.232837226968250738   ,
/* Mode 4 (2 1) */
  -0.121476936635400878   , 0.017251902818173407   , 0.161899071044045162   ,-0.0169378626253401561  ,-0.0744356339839560149  , 0.0890739961113999473  ,
/* Mode 4 (3 1) */
  -0.151068786465988952   ,-0.138418003182037397   , 0.0969721179879779599  ,-0.10077296439974337    ,
/* Mode 4 (4 1) */
  -0.135175703226645183   ,-0.149012351961444828   , 0.0593397526370562714  ,-0.0714266051075687219  ,
/* Mode 4 (5 1) */
  -0.152876268685438327   , 0.143311788957682956   ,-0.0724270658382995119  , 0.0729852687014466289  ,
/* Mode 4 (6 1) */
  -0.153290541782866052   , 0.158754176922793699   ,
/* Mode 4 (7 1) */
  -0.165087293656616285   ,-0.156076524863887428   ,
/* Mode 4 (0 2) */
   0.0569852031550539956  ,-0.363767710630276797   , 0.0850323916377155042  ,-0.0735595757883628631  ,-0.366946924289462739   , 0.160037363792044585   ,-0.161995903957013826   ,-0.0557780283109760369  ,
   0.162587676705720718   ,-0.128658363801898351   , 0.274814709703369242   ,-0.182580281676180872   , 0.121619950294544962   , 0.428504442653735107   ,-0.187488667353073457   ,
/* Mode 4 (1 2) */
   0.030219001795672721   ,-0.0861839622997253169  ,-0.0509764859633926593  , 0.0682790708770818489  , 0.0607880924377445647  ,-0.162152013505964893   , 0.0790410198520800633  , 0.135364797854254898   ,
   0.0211783328547345967  ,-0.0907050864806802359  ,-0.112465895010653683   , 0.119280795603405779   ,-0.261800090945506492   ,
/* Mode 4 (2 2) */
   0.0350149518990578376  ,-0.0431744960888433074  , 0.0329776271460421738  , 0.0852111966525111869  ,-0.111496862834932611   ,
/* Mode 4 (3 2) */
  -0.0324994414094223749  , 0.0545787185016797308  , 0.097300717410290824   ,
/* Mode 4 (4 2) */
   0.0843534700757386374  ,
/* Mode 4 (5 2) */
  -0.0828092665046826076  ,
/* Mode 4 (6 2) */
/* Mode 4 (7 2) */
/* Mode 4 (0 3) */
  -0.175196705011384152   , 0.241105509602332541   ,-0.17196036929593872    , 0.0813408411553994265  , 0.261396028860587215   ,-0.140790952045211304   , 0.123171604068620988   ,-0.142413038756597971   ,
  -0.345945608803585158   , 0.289559987068352287   ,-0.0957755992933152778  , 0.233120849029626709   ,
/* Mode 4 (1 3) */
   0.0114993105007950153  ,-0.108367011496693769   , 0.083365662728565465   ,-0.0127412193884784367  , 0.0505876018864853255  ,-0.109583448987667725   , 0.071388684990968454   , 0.102507556255640994   ,
   0.159738058759846396   ,-0.0785787072241190127  ,-0.0712714045334288393  , 0.0927584538991068352  ,-0.0581437798282916918  , 0.108540339207256198   , 0.0474710985005536157  ,-0.132031681118911837   ,
   0.139717006963573143   ,
/* Mode 4 (2 3) */
   0.0459976160358617006  ,-0.0467973647208287657  , 0.0247904816939773336  , 0.0723779292498206578  ,-0.0673673406325016738  ,
/* Mode 4 (3 3) */
   0.0626740275302125061  ,
/* Mode 4 (4 3) */
/* Mode 4 (5 3) */
   0.0535873034839657314  ,
/* Mode 4 (6 3) */
/* Mode 4 (7 3) */
/* Mode 4 (0 4) */
  -0.0381697475898011424  , 0.210058971253042792   , 0.22283899904213339    , 0.0499555570333096721  ,-0.104584693153846969   ,-0.0759404716717350659  ,-0.102650470605089042   ,-0.0733620192836080681  ,
  -0.419365939089078932   ,
/* Mode 4 (1 4) */
  -0.0480934149854927578  , 0.13100524291897292    , 0.0474123278113159144  , 0.148489235965468869   ,-0.109456187179398465   ,-0.140042881657576224   ,-0.0339628988325422557  , 0.0915216537769968919  ,
  -0.0785365645143244751  , 0.0716584725886110219  ,-0.155963288489833818   ,-0.0556814100315667429  ,-0.19043587518571567    ,
/* Mode 4 (2 4) */
   0.0289192627179986513  ,-0.0251935562098350718  ,-0.0513170988036839165  , 0.0577730370068818347  ,-0.0850233519442433888  ,-0.109119137092628007   ,
/* Mode 4 (3 4) */
   0.058396186404630894   ,
/* Mode 4 (4 4) */
/* Mode 4 (5 4) */
/* Mode 4 (6 4) */
/* Mode 4 (7 4) */
/* Mode 4 (0 5) */
   0.10109619261503458    ,-0.119252631197514156   , 0.12735234287042746    ,-0.147595728081191035   ,-0.0634055077920419735  ,-0.351053461415340495   , 0.130723580281159907   , 0.217758404391111854   ,
  -0.0924473974010679017  ,
/* Mode 4 (1 5) */
   0.0915097196324615308  ,-0.073697155215988186   , 0.106593028112439009   ,-0.0773051002778411961  , 0.071187480266476269   , 0.0514010353068118583  ,-0.188033290334927772   , 0.122941389560782752   ,
   0.0935459964057817478  ,-0.141708939148585567   ,
/* Mode 4 (2 5) */
   0.0320394470086290545  ,-0.0658366531198460586  ,-0.0421025774737575978  , 0.0482272018879855088  ,-0.0311967877615042799  , 0.0786492345036765572  ,
/* Mode 4 (3 5) */
  -0.0524479112103903994  ,
/* Mode 4 (4 5) */
/* Mode 4 (5 5) */
/* Mode 4 (6 5) */
/* Mode 4 (7 5) */
/* Mode 4 (0 6) */
  -0.0723624667543312089  ,-0.0974427981830413292  ,-0.0480932560948588786  ,-0.232838067476272892   , 0.049552398035592464   , 0.332952094924314101   ,
/* Mode 4 (1 6) */
   0.0384840955179548971  ,-0.0701408402192346958  ,-0.0379217324982182094  , 0.0681226939977241513  ,-0.0920721931952037109  ,-0.0774343913974319398  , 0.0670388021912676074  , 0.236013610344357166   ,
/* Mode 4 (2 6) */
  -0.0801095589232366095  ,
/* Mode 4 (3 6) */
/* Mode 4 (4 6) */
/* Mode 4 (5 6) */
/* Mode 4 (6 6) */
/* Mode 4 (7 6) */
/* Mode 4 (0 7) */
  -0.324101040803012552   ,-0.252586494084028557   ,
/* Mode 4 (1 7) */
  -0.25681010077277433    ,-0.103424484222197327   ,
/* Mode 4 (2 7) */
  -0.0699215170754830528  ,
/* Mode 4 (3 7) */
/* Mode 4 (4 7) */
/* Mode 4 (5 7) */
/* Mode 4 (6 7) */
/* Mode 4 (7 7) */
/* Mode 5 (0 0) */
   0.814164006471098434   ,-0.697409728855478472   , 0.764662641994966696   , 0.211319640185872903   , 0.321737303604285707   ,-0.340706096633413502   ,-0.479697276756680169   , 0.892907019818500514   ,
   1.37947359833982852    , 0.39656494272422399    , 0.582671826230233503   , 0.835050028893615681   , 0.152894241561229299   , 0.623088680865303224   , 0.235326898183402577   , 0.738799232694242747   ,
   1.15581818970727146    ,-0.9943555732119983     , 1.06442098143290287    ,-0.430523271560081411   , 1.75931097834950334    ,-0.665410102648683721   , 1.32404367434731962    ,
/* Mode 5 (1 0) */
   0.0581171428360837891  ,-0.471903279810575227   , 0.159139690095995906   , 0.289455188946473818   ,-0.373194375830533664   ,-0.191611721782789568   , 0.136039710896960597   ,-0.567381816224172164   ,
  -0.19370757105206346    , 0.068133326720299453   , 0.353726114606273956   ,-0.849698890445478194   ,
/* Mode 5 (2 0) */
  -0.216082371609809726   , 0.23359641380445903    ,-0.111012966358925533   ,-0.319710891744537817   ,
/* Mode 5 (3 0) */
  -0.203490438444451416   ,-0.209531282892454596   ,-0.0756621443662660598  ,
/* Mode 5 (4 0) */
  -0.209175571170745728   ,-0.210022136373931939   ,
/* Mode 5 (5 0) */
  -0.206570172200632118   , 0.20200365308470114    ,
/* Mode 5 (6 0) */
  -0.201715312693905136   , 0.222581086050519822   ,
/* Mode 5 (7 0) */
  -0.22824792135309277    ,-0.223419701077498145   ,
/* Mode 5 (0 1) */
   0.198635919273114026   ,-0.231852333912647562   , 0.297250880166977205   ,-0.256597848058686573   ,-0.10033933501721426    , 0.494262829621644306   ,-0.599086877543694718   ,-0.448221937371088341   ,
  -0.591195651225919772   ,-0.0578762916647828918  , 0.254591458285694294   ,-0.498061326972488616   , 0.285607890460657043   , 0.274263065352631286   , 0.23235442457285424    ,-0.499245475724274912   ,
  -0.378991880638447243   ,
/* Mode 5 (1 1) */
   0.189252892316870008   ,-0.175874007587570713   , 0.249078357082527901   ,-0.165021973926527371   , 0.178503920217739864   ,-0.337572427640507822   , 0.271161091097623652   , 0.0549206270334892388  ,
  -0.120311547470245805   , 0.135029253104219232   , 0.265729651939638489   ,-0.26352688151670689    ,-0.0837849639237814303  , 0.440078622227249805   ,-0.201532368318557892   ,
/* Mode 5 (2 1) */
  -0.0775853355598571659  ,-0.0445014505663359622  ,-0.141057001049237962   , 0.0577938578077553042  , 0.261979583047246223   ,-0.174953084180866497   ,-0.134725113992520629   ,-0.0156630750226452974  ,
   0.101489061325011981   ,-0.0815910795674005679  ,
/* Mode 5 (3 1) */
  -0.201334608171817947   ,-0.16342256913289796    , 0.0667939881117930317  ,
/* Mode 5 (4 1) */
  -0.147119671999319773   ,-0.180918860689909672   ,
/* Mode 5 (5 1) */
  -0.17772838210182193    , 0.15840033591954486    ,
/* Mode 5 (6 1) */
  -0.162406952327289383   , 0.179306956023831926   ,
/* Mode 5 (7 1) */
  -0.189419028528837324   ,-0.167521217221200919   ,
/* Mode 5 (0 2) */
   0.0249413758019331779  ,-0.164002315071022031   ,-0.326411816933706189   ,-0.0234655897367264388  ,-0.220460830892249299   , 0.376061126806396806   ,
/* Mode 5 (1 2) */
   0.0351271343108057257  ,-0.190251470481839713   , 0.15179679314406419    ,-0.0402764636705181464  ,-0.109224423385203329   ,-0.216123610639744751   , 0.142655264210267863   , 0.204173194530580221   ,
  -0.203498234157814872   , 0.165716164172507674   , 0.0196410992385335874  ,-0.086585708048849408   , 0.0769510866645608943  , 0.298810717334785592   ,-0.14103194141687786    ,
/* Mode 5 (2 2) */
   0.0174646386569768698  , 0.173275838138902349   ,-0.0189045325921902638  , 0.0675526523715749838  , 0.0833320821065921119  ,-0.156555783344236449   ,-0.0860957123307356936  ,-0.143670866960691562   ,
   0.154339898188958269   , 0.108982792960554645   , 0.0535520602276561564  , 0.0627509300706939471  ,-0.207286053538970783   , 0.177689580989228602   ,
/* Mode 5 (3 2) */
   0.0984332253565326359  , 0.0454362079272209798  , 0.127360515964344834   ,-0.162540062310142008   ,-0.128528359877241399   ,
/* Mode 5 (4 2) */
   0.126001244989222855   , 0.108350466962248607   ,
/* Mode 5 (5 2) */
   0.0888359191108305246  ,
/* Mode 5 (6 2) */
  -0.0881769478333604972  ,
/* Mode 5 (7 2) */
/* Mode 5 (0 3) */
  -0.0928762343415605318  ,-0.208356056206688151   ,-0.223866928760243555   ,
/* Mode 5 (1 3) */
  -0.073804075491599952   , 0.10081775623314812    , 0.136482748794014452   ,-0.281538851504978871   , 0.119512550240735274   , 0.134042972240492553   ,-0.152378448016502605   ,
/* Mode 5 (2 3) */
  -0.0416913086161360621  , 0.135156426494554754   ,-0.1184452427878665     ,-0.0557966898219317692  , 0.0515429118835023445  ,-0.13893730286036135    ,-0.0503916386681431891  , 0.121018703507037237   ,
   0.117296708221160881   , 0.0896634923272957574  ,-0.172711980470656112   , 0.0546124110374134261  ,-0.128000029533273246   , 0.0756557193980006565  ,-0.126894308728261629   ,
/* Mode 5 (3 3) */
   0.0881418870107654184  , 0.0384133407718208267  , 0.0487942185255614003  ,-0.11431608986281637    ,-0.0919927168632715953  , 0.0328270118120867899  ,-0.106141221148411805   , 0.0346066411931723744  ,
  -0.0890803379609759471  ,
/* Mode 5 (4 3) */
   0.0401220883755891641  , 0.0562670118637683195  , 0.0666289716045428693  , 0.0492285892696038424  , 0.0849050471189256029  ,
/* Mode 5 (5 3) */
   0.0469366261611654997  ,-0.0503373246041114719  , 0.0864348654535750938  ,
/* Mode 5 (6 3) */
  -0.057944872943549941   ,
/* Mode 5 (7 3) */
   0.0547517457940950025  , 0.0588386737724730796  ,
/* Mode 5 (0 4) */
  -0.195266842717218031   ,-0.208361507062116785   ,
/* Mode 5 (1 4) */
  -0.0902067743403774658  ,-0.153304515059302177   ,-0.239659286468037247   , 0.110541453937953893   ,
/* Mode 5 (2 4) */
  -0.136805608672635387   ,-0.0655289649610991815  , 0.170674526758286649   , 0.0625567250335921643  ,-0.0925748682732114442  , 0.0774583506928690629  , 0.126999406693327543   ,
/* Mode 5 (3 4) */
   0.0432314266016985693  ,-0.108754837992313627   ,-0.053863771013586921   , 0.114721559896312372   , 0.09640134635927812    , 0.0597681182876704728  , 0.0540156684047657654  ,-0.0925058758117109081  ,
   0.0570993199535760956  ,
/* Mode 5 (4 4) */
   0.0940996605535925623  ,-0.0645846517911578544  , 0.11268771363932252    ,
/* Mode 5 (5 4) */
   0.0559612714067780764  , 0.0709963254976965219  ,
/* Mode 5 (6 4) */
/* Mode 5 (7 4) */
/* Mode 5 (0 5) */
  -0.207351592497017817   , 0.198030052081276109   ,
/* Mode 5 (1 5) */
  -0.0610740104146530183  ,-0.191459610724017237   , 0.163132088322708341   ,
/* Mode 5 (2 5) */
  -0.0696427906217125248  , 0.109156040216115205   , 0.132483292506313466   ,-0.108570092227656734   ,
/* Mode 5 (3 5) */
  -0.0851720795858627033  , 0.0829537582626942299  , 0.0449142704827476466  , 0.0861540217169914357  ,-0.0523717500040855322  , 0.0656880539803167962  , 0.0955555430621925078  ,
/* Mode 5 (4 5) */
   0.0736799843439300411  , 0.0524881089382364385  ,-0.0838608754477266488  ,
/* Mode 5 (5 5) */
/* Mode 5 (6 5) */
/* Mode 5 (7 5) */
/* Mode 5 (0 6) */
  -0.19297264206410944    , 0.215284035203136298   ,
/* Mode 5 (1 6) */
  -0.153488125550872101   , 0.184391147363015456   ,
/* Mode 5 (2 6) */
   0.0519789560338751733  ,-0.118372502038857672   ,
/* Mode 5 (3 6) */
   0.0637518331577890812  , 0.0529279862470616938  ,-0.0488114120291352829  ,-0.0838814018862134581  ,
/* Mode 5 (4 6) */
/* Mode 5 (5 6) */
/* Mode 5 (6 6) */
/* Mode 5 (7 6) */
/* Mode 5 (0 7) */
  -0.211163887387381038   ,-0.219039757160584075   ,
/* Mode 5 (1 7) */
  -0.181009306460754166   ,-0.170558948439171493   ,
/* Mode 5 (2 7) */
   0.0950739839450998325  ,
/* Mode 5 (3 7) */
   0.0447215217194797954  , 0.0890634779506912361  , 0.054294420009810225   ,
/* Mode 5 (4 7) */
/* Mode 5 (5 7) */
/* Mode 5 (6 7) */
/* Mode 5 (7 7) */
/* Mode 6 (0 0) */
   0.79537035625034147    ,-0.686311701853909439   , 0.328186024183761194   , 1.29309775897522972    ,-0.0699849595958960402  ,-1.62521610792832583    ,-0.302955737014328264   , 0.936537130012011665   ,
  -0.126875932397580132   ,-0.252214316892920565   , 0.0635028013183142753  , 0.165810064001750718   , 0.497435738164766439   , 0.362282075169908568   ,-0.505503598860887138   ,-0.515748252845224298   ,
   0.325845759121157819   ,-0.217608651136722425   ,
/* Mode 6 (1 0) */
   0.290106040221301376   ,-0.558049260813445525   , 0.228813957571510074   ,-0.270994412692281805   , 0.677919731823131699   ,-0.170950589476247611   ,-0.386494756580751553   , 0.196374200618992079   ,
  -0.326017560957837682   , 0.3473008443074736     , 0.0976890162360528475  , 0.185446743000479974   , 0.322436929115810234   ,-0.573807023548890571   ,-0.273717796339073061   , 0.243458235159517838   ,
/* Mode 6 (2 0) */
   0.022210606426190712   ,-0.267891510112583886   ,-0.0543508931460571776  ,-0.0795696518659434193  , 0.0914906682858840636  , 0.426119133945316253   ,-0.164480162862836149   ,-0.0516877526540771015  ,
  -0.108483898801682938   , 0.0653312707737455922  ,-0.317558701429541734   ,-0.0687342363064727679  ,
/* Mode 6 (3 0) */
  -0.0791615409289779803  , 0.189795736130567438   ,-0.310391914624023046   , 0.124377403789714888   ,-0.220610470777176548   , 0.0687501928679641466  ,-0.124263854975189908   , 0.234727270266660765   ,
/* Mode 6 (4 0) */
   0.1084638691500351     ,-0.197359133137795378   ,-0.292702845150888624   , 0.184022178380585405   ,
/* Mode 6 (5 0) */
  -0.238644585671260262   , 0.218804158973228524   , 0.0686863679196020732  ,-0.101645045396492217   ,
/* Mode 6 (6 0) */
  -0.205365432538845316   , 0.232569476784919155   ,
/* Mode 6 (7 0) */
  -0.228551655179356633   ,-0.211113763066754029   ,
/* Mode 6 (0 1) */
  -0.257793230517186778   , 0.0670669560506018808  ,-0.518787629414438456   ,-0.281864926351034273   ,-0.328391499053299729   , 0.151861902543778848   , 0.27464728248655812    ,
/* Mode 6 (1 1) */
   0.0941312546486575974  ,-0.159269848561145261   , 0.0539355740012888857  , 0.131162876849183652   ,-0.0577237435685673955  ,-0.165277475963798048   ,-0.126380051364021251   ,-0.20714563331451924    ,
   0.213484719745840407   , 0.0237556826804285852  ,-0.226978996935982669   , 0.115335881608614688   , 0.133107394202390206   ,-0.250214648553635455   , 0.112003474887379717   ,-0.13694680332198042    ,
   0.228822961500571465   ,
/* Mode 6 (2 1) */
   0.0501086589873552049  ,-0.166838857198953805   , 0.151774308223993182   ,-0.0601589464946785044  , 0.12052730521078546    , 0.0447952997908495354  , 0.180893109560219867   ,-0.201242064684613642   ,
  -0.079228833352437314   ,-0.0345966790981691169  ,-0.121227667210045811   , 0.0950206157325270279  ,-0.212674487802437862   , 0.167922521052819462   , 0.201800818050069219   ,
/* Mode 6 (3 1) */
  -0.111830736784141876   , 0.0970823839824714735  ,-0.189181648179610473   , 0.177485328297490252   , 0.120734825108765695   ,-0.17866403156859148    ,-0.0903571083793326263  , 0.0713953474966543405  ,
  -0.129178930210330944   , 0.205468116801579226   , 0.112025775548984463   ,-0.109288334582560154   , 0.118085668002716943   ,
/* Mode 6 (4 1) */
   0.1061125262637716     ,-0.0645961733554995116  ,-0.0673325810525784718  ,-0.289696174642219362   , 0.09858134638337189    ,-0.0701955375028749801  , 0.122341898516855063   , 0.0434752280508112487  ,
  -0.130236502079652483   ,-0.118508044763347906   ,
/* Mode 6 (5 1) */
  -0.251810450439817146   , 0.10447036664876895    , 0.132570506005870198   ,-0.0725403416440773274  ,
/* Mode 6 (6 1) */
  -0.0489297737792328408  ,-0.163229033218145497   , 0.0465775035765254308  , 0.239457290235509684   ,
/* Mode 6 (7 1) */
  -0.247339757609551236   ,-0.176642386876650154   ,
/* Mode 6 (0 2) */
  -0.0822739639708849196  , 0.0227282180766989785  ,-0.0233877020031619809  ,-0.181955612831872782   ,-0.0756959667525179819  , 0.141266493711165952   , 0.0262558477069177627  ,-0.151900599417291282   ,
  -0.0246165520894575454  , 0.208964884184944466   ,
/* Mode 6 (1 2) */
  -0.0129535015414267377  ,-0.0553605017958748169  , 0.0782297708044193685  ,-0.129324898884930317   , 0.0129855975853750191  , 0.196720112154301352   ,
/* Mode 6 (2 2) */
   0.0942568778998166545  ,-0.152258624763564943   ,-0.0367862906224238478  ,-0.022459290508498965   , 0.0636776277428714038  ,-0.0944445871420197119  , 0.021506819022492997   ,-0.073829096945557518   ,
   0.0423877478837784219  ,-0.121882661308090556   ,
/* Mode 6 (3 2) */
  -0.0378433982930175411  , 0.0996506311727439337  , 0.0319592033583127946  , 0.0742812092305436961  ,-0.123432554146955462   ,-0.105238623120729791   ,-0.106679305018728465   , 0.051718648473880996   ,
  -0.0879504994510881127  , 0.115931490948371116   ,-0.0553372622675681672  ,-0.0625889140405557626  ,
/* Mode 6 (4 2) */
   0.05069555267538077    ,-0.113421466091434026   ,-0.0268066831618252663  , 0.0594241661647173375  ,-0.0568040775490848762  , 0.0672327529009044272  ,-0.109147798583699274   , 0.0635459536024982202  ,
   0.0950442832582917563  , 0.0312354591546172185  ,-0.0625869306263182185  , 0.141736904747596898   ,-0.0232214267295793968  , 0.0587355297602240589  ,
/* Mode 6 (5 2) */
  -0.0698526612148658022  , 0.0637428347533832568  , 0.0818987381762549399  ,-0.104877525651060247   , 0.0958511673957025412  , 0.0984216063453884626  ,-0.0973210005139256568  ,
/* Mode 6 (6 2) */
   0.0663564015692904019  ,-0.054866788100006815   ,-0.0857346886007393644  ,
/* Mode 6 (7 2) */
  -0.051038676608605095   , 0.0883638201401925477  ,
/* Mode 6 (0 3) */
   0.122086835072395469   , 0.0940962845992705382  ,-0.185725213706897901   ,-0.184065686584545779   ,
/* Mode 6 (1 3) */
  -0.16805928667094025    ,-0.149803937364526768   ,
/* Mode 6 (2 3) */
   0.0993787703300483827  ,-0.0383795777123014104  , 0.0822628389469250154  ,
/* Mode 6 (3 3) */
   0.0477455552049122975  ,-0.0482677364113059601  , 0.090054959219492095   , 0.0778410131901385166  ,
/* Mode 6 (4 3) */
  -0.0725889452737562696  ,-0.0698356142223147958  , 0.0920117908079621655  , 0.0995513113081849393  ,-0.0395063543916151991  , 0.105688458850102737   ,
/* Mode 6 (5 3) */
  -0.0635510922932694539  ,-0.0796136450191645834  , 0.0515717481566168728  , 0.0737107187423538396  ,
/* Mode 6 (6 3) */
   0.0448492121941461777  , 0.0458215837347719368  ,
/* Mode 6 (7 3) */
   0.0637020882162712965  ,
/* Mode 6 (0 4) */
   0.0713382839334692626  , 0.066532653959200494   ,-0.170843389208800989   ,-0.196974539519209207   ,
/* Mode 6 (1 4) */
  -0.0627527598651412694  ,-0.144671824231477925   ,-0.175257830374069196   ,
/* Mode 6 (2 4) */
   0.0868751027845106327  , 0.0711122537304752639  ,
/* Mode 6 (3 4) */
   0.0613200769331311013  ,
/* Mode 6 (4 4) */
   0.0789506598851711927  , 0.0737302666906772958  ,
/* Mode 6 (5 4) */
  -0.0408607827963257397  ,-0.0406042631614196431  ,
/* Mode 6 (6 4) */
/* Mode 6 (7 4) */
/* Mode 6 (0 5) */
  -0.0903525110379339996  ,-0.19031928303669482    , 0.181018975960549944   ,
/* Mode 6 (1 5) */
  -0.166156655829168137   , 0.158418643947729615   ,
/* Mode 6 (2 5) */
/* Mode 6 (3 5) */
   0.058785989087425064   ,
/* Mode 6 (4 5) */
/* Mode 6 (5 5) */
/* Mode 6 (6 5) */
/* Mode 6 (7 5) */
/* Mode 6 (0 6) */
  -0.179262635283158112   , 0.193076252509005147   ,
/* Mode 6 (1 6) */
  -0.154104355359294842   , 0.162908822700412376   ,
/* Mode 6 (2 6) */
/* Mode 6 (3 6) */
/* Mode 6 (4 6) */
/* Mode 6 (5 6) */
/* Mode 6 (6 6) */
/* Mode 6 (7 6) */
/* Mode 6 (0 7) */
  -0.196789982349265008   ,-0.194339657220385931   ,
/* Mode 6 (1 7) */
  -0.166636200229492382   ,-0.166990267065071335   ,
/* Mode 6 (2 7) */
/* Mode 6 (3 7) */
/* Mode 6 (4 7) */
/* Mode 6 (5 7) */
/* Mode 6 (6 7) */
/* Mode 6 (7 7) */
/* Mode 7 (0 0) */
   0.161662268932459774   , 0.225300980359858988   , 0.987050133166676003   , 0.991486684852254996   ,-0.272919032001333495   ,-0.190577218079398758   , 0.0233008976956310572  ,-0.0608981718358115529  ,
  -0.108569571021587388   ,-0.127636513732066192   ,-0.0551157447493907521  ,-0.128105101721762649   ,
/* Mode 7 (1 0) */
   0.182037953338465619   , 0.231492284008012944   ,-0.130973659026964451   , 0.926873467608782309   ,-0.907712523060938747   ,-0.118800836964742765   , 0.175292478928227496   ,-0.0255136879610528486  ,
  -0.103744178183790378   ,-0.149419095360520421   , 0.116107410565388522   ,-0.0708536907821639833  ,-0.109221707406650201   ,
/* Mode 7 (2 0) */
   0.0801003344812219742  , 0.0510331410479129208  ,-0.156587651396221633   , 0.00769397511165464867 , 0.776848756695686427   ,-0.807310155535494678   , 0.11637301313508143    , 0.0299911648424696191  ,
  -0.0490949409265414236  ,-0.0989723877175552047  , 0.143581008004639521   ,-0.0343866088641755427  ,
/* Mode 7 (3 0) */
   0.0249476696800880783  ,-0.0366568544443322958  ,-0.144704617140190034   ,-0.00877340583120053349 , 0.686506345352889236   , 0.0125940491601680624  , 0.664234908284994985   ,-0.0428837493803987252  ,
  -0.0282545068441933493  , 0.122878573761962054   , 0.0552890436577308172  ,
/* Mode 7 (4 0) */
   0.00793976191748576449 ,-0.0457748975911286618  ,-0.0550293601747580824  , 0.0689156602686203656  , 0.566737149074661106   , 0.591138597502914198   ,-0.00978448853385804201 , 0.0958867123296291146  ,
  -0.0807385072734270876  , 0.0389271694898174619  ,
/* Mode 7 (5 0) */
  -0.0215499413807675282  , 0.0616169804205127167  ,-0.0236197041136343641  , 0.520618201337059938   ,-0.0171977437629487993  ,-0.496125994355664512   , 0.0369638087284321279  ,-0.0941775199521416029  ,
   0.0197818076262394511  ,
/* Mode 7 (6 0) */
   0.0240563516297259347  , 0.459800487947294334   ,-0.0428303612097885311  ,-0.449174376695490485   ,-0.0531065928880595853  ,
/* Mode 7 (7 0) */
   0.456750712491763022   , 0.418462200971743914   ,
/* Mode 7 (0 1) */
  -0.0455884933768060385  ,-0.128124392641617763   , 0.0418468919969680678  , 0.133508480080443387   ,
/* Mode 7 (1 1) */
  -0.0472963747320457525  , 0.0601890201045866755  ,-0.0721198500162934519  ,-0.126381192924237967   , 0.070397007234204792   , 0.134937889157979773   ,
/* Mode 7 (2 1) */
   0.0703895171929760644  ,-0.0279707288397248177  ,-0.049979234098970475   , 0.0914566458201360594  , 0.0273431825176953351  , 0.0606622556278600122  ,-0.0951336596617043673  ,
/* Mode 7 (3 1) */
  -0.0503272752969501358  ,-0.0572686370017871371  ,-0.00932003758060235415 , 0.0920586443092906159  , 0.00867441947340738193 ,-0.0982748674062074168  ,
/* Mode 7 (4 1) */
   0.0210758293052881913  ,-0.0578916822349480331  , 0.0308150714995846196  , 0.0491060340965298325  ,-0.0468877099452781401  ,-0.0243959776256511378  ,-0.0576926427418017265  , 0.0499045936462301776  ,
/* Mode 7 (5 1) */
   0.0190946166897804567  ,-0.0207447966007790058  , 0.0167720878443237791  ,-0.0613860555483037862  ,-0.0134328752954817852  , 0.0669027122457886148  ,
/* Mode 7 (6 1) */
   0.0213611281322514633  ,-0.0218146734989935198  ,-0.0234978446222754954  , 0.0288530969188655166  ,
/* Mode 7 (7 1) */
   0.0275929480325540974  , 0.0281337887361353435  ,
/* Mode 7 (0 2) */
  -0.015057051062889756   ,-0.0584071510868430371  ,-0.109594754533145072   , 0.0145687190453677711  , 0.0671313803305812334  , 0.0693047390472970037  ,
/* Mode 7 (1 2) */
  -0.00994977091023820093 ,-0.087210071216457602   ,-0.115015875664870829   , 0.0102638255254073503  , 0.0720779181689553405  , 0.101670055026634926   ,
/* Mode 7 (2 2) */
  -0.00643377156465158723 ,-0.0300858068564158615  ,-0.0587640346333808822  , 0.0905097349777902321  , 0.00618869275904173569 , 0.0262996890550587538  , 0.0312559049848794637  ,
/* Mode 7 (3 2) */
   0.103166334848222269   ,-0.0616884833869454016  ,
/* Mode 7 (4 2) */
   0.0559147701841740188  ,-0.0604030824654869791  ,-0.0238490232407229281  ,-0.0376657422033319228  ,
/* Mode 7 (5 2) */
  -0.0652211262956257642  , 0.0503875216210802057  ,
/* Mode 7 (6 2) */
  -0.0310564767525299962  ,
/* Mode 7 (7 2) */
/* Mode 7 (0 3) */
   0.0608269097668755337  ,-0.0831779030002661596  ,-0.0593733236857639374  ,-0.0623544888387775054  ,-0.067921817608224952   ,
/* Mode 7 (1 3) */
   0.0463591231265180342  ,-0.0542778862825991984  ,-0.107652903904912903   ,-0.0736669592078277591  ,-0.0972092728532742562  ,-0.0792206048046798506  ,
/* Mode 7 (2 3) */
  -0.0273162090492841091  ,-0.0283326835800625232  , 0.0534765259299207971  ,-0.0209091348881470414  ,-0.0520693913524133967  , 0.0529064644048495361  ,
/* Mode 7 (3 3) */
   0.0209665274882334177  , 0.0603713108484535549  , 0.0718350496374668829  ,
/* Mode 7 (4 3) */
   0.0256181708944377938  , 0.0365360045953806237  ,-0.0351258046430678386  , 0.0167583062698449733  , 0.0462175352874993409  ,-0.0363101099827720097  ,
/* Mode 7 (5 3) */
  -0.0467099816697282358  ,-0.0609868092536050496  ,
/* Mode 7 (6 3) */
/* Mode 7 (7 3) */
/* Mode 7 (0 4) */
   0.0523978705517408189  ,-0.0679390104452380211  ,-0.0783243758384891409  ,-0.0809257204634734051  ,
/* Mode 7 (1 4) */
   0.0398521469069078108  ,-0.0496714099850907587  ,-0.0989493660843846073  ,-0.0489635087637170716  ,-0.106350353775512038   ,-0.046086048539174515   ,
/* Mode 7 (2 4) */
   0.0440082670207963475  ,-0.0547152646726725769  , 0.0337639826517678807  ,-0.0285816074746686709  , 0.0594267405502131307  ,-0.0255000951285346937  ,
/* Mode 7 (3 4) */
   0.075277532930429103   , 0.0493074144745123052  ,
/* Mode 7 (4 4) */
   0.0252832100057651422  , 0.0532115313045010904  ,
/* Mode 7 (5 4) */
  -0.051208976470598716   ,-0.0410449394013516905  ,
/* Mode 7 (6 4) */
/* Mode 7 (7 4) */
/* Mode 7 (0 5) */
  -0.0628405029326496861  ,-0.109773102999851227   ,-0.0510768155770698548  , 0.0862221593279571819  , 0.0507896636167207843  ,
/* Mode 7 (1 5) */
   0.0419682814472444876  ,-0.105894372235133954   ,-0.0576712148328255639  , 0.0980067962379641555  , 0.0576196655872626348  ,
/* Mode 7 (2 5) */
   0.0536972463792137755  ,-0.0273809048697545368  , 0.0230293481709380118  ,
/* Mode 7 (3 5) */
  -0.044332394759792941   ,-0.0368612598569437386  , 0.0428493601908567084  , 0.0614144795315833963  ,-0.0273559359205050728  ,-0.0557457389129953906  ,
/* Mode 7 (4 5) */
   0.0242429882408577331  , 0.0309473124266143734  ,-0.0184699112972607424  ,-0.0303959393382286433  ,
/* Mode 7 (5 5) */
  -0.0397367457602936652  , 0.0524370512719101733  ,
/* Mode 7 (6 5) */
/* Mode 7 (7 5) */
/* Mode 7 (0 6) */
  -0.0535352438116782833  ,-0.0338916300807276874  ,-0.0933799986734966253  ,-0.0614780660687509542  , 0.094403742641347807   ,
/* Mode 7 (1 6) */
  -0.111752628710675275   ,-0.058201634619178072   , 0.103074046508089684   ,
/* Mode 7 (2 6) */
  -0.0271061047933699242  , 0.0255693950982684992  ,
/* Mode 7 (3 6) */
   0.0342234039155305675  , 0.0516037686323045641  ,-0.0339609800014401136  ,-0.0406646551886055418  ,
/* Mode 7 (4 6) */
  -0.0382946091934513524  ,-0.0226749617979664295  ,
/* Mode 7 (5 6) */
  -0.0372057629599211667  , 0.0529634211355481666  ,
/* Mode 7 (6 6) */
/* Mode 7 (7 6) */
/* Mode 7 (0 7) */
  -0.0916146943386561413  ,-0.0597843738057492885  ,-0.0920044021883884983  ,-0.0557177188507662069  ,
/* Mode 7 (1 7) */
  -0.118197182691523392   ,-0.040167657540135758   ,-0.107125988466699837   ,-0.0474153948208177745  ,
/* Mode 7 (2 7) */
  -0.034689992425439381   ,-0.0251106721027474222  ,
/* Mode 7 (3 7) */
   0.0321401308732468111  , 0.0554589372944060757  , 0.0318969205494478228  , 0.0473780122143274418  ,
/* Mode 7 (4 7) */
/* Mode 7 (5 7) */
  -0.0446801959613496447  ,-0.0331744990589618732  ,
/* Mode 7 (6 7) */
  -0.0290452402513413574  ,-0.0323386139764454128  ,
/* Mode 7 (7 7) */
/* Mode 8 (0 0) */
  -0.136318838532403147   , 0.258041108606293756   ,-0.405690871785421903   , 0.26958548325258147    , 0.165134403698783044   ,-0.179980724823933985   , 1.30549794750608661    ,-0.7624973378159422     ,
  -3.4981550028288293     , 1.24950699181359393    , 3.31767220154260345    ,-1.46684818053208077    , 0.714069849311950167   , 0.155602821057924529   ,-0.260312936984123555   ,-0.236248038369072683   ,
  -1.485775379853711      , 1.19930128864733887    ,-0.603608778591950834   ,-0.462693590266361532   , 0.108344765112838484   ,-0.312214393888207487   ,-0.196721730879570289   , 0.247146717852806563   ,
   0.0722772894865157112  , 0.161859178188165281   ,
/* Mode 8 (1 0) */
  -0.0931025366908757174  , 0.252154935465743246   , 0.321981812857763006   ,-0.493727330455008717   , 0.524954152930860674   ,-0.297244232008953613   , 0.434811607052734472   , 0.235385740254298287   ,
  -0.557822382317352927   , 0.415280948148728124   ,-0.415392166529123474   , 0.361510954948466634   ,-0.537070528580129158   ,-0.430179685188436189   , 0.213174853752576138   , 0.216118263685360662   ,
   0.339760732863218284   , 0.257368746437253881   ,-0.122962326344215375   ,-0.228655702966948093   ,-0.409622076078914155   , 0.0887339097586460207  ,-0.109737978037597814   ,-0.349611494643576826   ,
/* Mode 8 (2 0) */
  -0.0413960004981490798  , 0.139313312059613142   , 0.113202824234754765   ,-0.348057095271911809   ,-0.120974007775915923   , 0.122516709746037927   , 0.328631232599597312   ,-0.111077751944592781   ,
  -0.141129921812119724   ,-0.245964399482758944   , 0.0388739632705257035  ,-0.221524308479348925   ,-0.195312854415625486   ,
/* Mode 8 (3 0) */
   0.0817537174416930051  ,-0.0236781370065014228  ,-0.116617502944269286   ,-0.157296577452098713   ,-0.372622429014541567   ,-0.147976676065305207   , 0.108658411542952582   ,-0.131470196969768666   ,
  -0.110450422210872201   , 0.0136193362272985091  , 0.0097059452161381253  ,-0.146944852874864557   ,
/* Mode 8 (4 0) */
   0.0349067899923937094  , 0.0690075945288679271  ,-0.351222692490429811   , 0.069615634132385959   ,-0.15157714336186795    , 0.0951772811807518881  ,-0.0617663822412533453  , 0.138753607808454082   ,
/* Mode 8 (5 0) */
  -0.193184864609991985   ,-0.071624775200494567   , 0.306854219002893169   , 0.098793078988812566   , 0.112808917549589049   ,-0.089993558426850459   ,
/* Mode 8 (6 0) */
   0.0436163472765536617  ,-0.288118839091541956   ,-0.0333178470519169267  , 0.199118195336496717   , 0.0647529888036301737  ,-0.0779284113128868722  ,
/* Mode 8 (7 0) */
  -0.229363710428923062   ,-0.280439611865506755   , 0.0286293384880583167  ,
/* Mode 8 (0 1) */
   0.0507494267657174758  ,-0.295001805470024303   ,-0.541472154933115624   , 0.215463852609669881   , 0.521996260678223911   ,-0.290028189616224008   ,-0.0641295616543706565  , 0.037304489840190809   ,
  -0.112824353352919848   ,-0.0637011831281977803  , 0.0598711323224200981  ,-0.179848701816885559   ,
/* Mode 8 (1 1) */
   0.0594764369287935912  ,-0.0947519276282989958  ,-0.0569621029141740287  , 0.0703178046287621372  ,-0.20323085794748677    , 0.182036669251054634   , 0.184945952283521259   ,-0.147278284050818664   ,
   0.0165600648227372908  ,-0.0184631525859572446  ,-0.0866586879151988732  ,
/* Mode 8 (2 1) */
   0.0474538848537115338  ,-0.0883573125980518931  ,-0.0141067301992225131  ,-0.144084914873692488   , 0.263601754059151261   , 0.0320998327134440972  , 0.119101406847231778   ,-0.0149795623139200619  ,
  -0.0881674981234856908  , 0.111205441237261018   ,
/* Mode 8 (3 1) */
   0.0352867178304175147  ,-0.132947691508171789   ,-0.103212321387121317   ,-0.116064092734154703   ,-0.108370450438745644   , 0.115599017352439742   , 0.121814266453322731   ,-0.116477150280513184   ,
  -0.101157951744832664   , 0.0843777296045442327  ,-0.0537497446754800975  , 0.107788952438560195   ,
/* Mode 8 (4 1) */
   0.056434115647079508   ,-0.207842586436662341   , 0.0775435872173748236  ,-0.0903045914601791899  , 0.0494530690370900902  , 0.111014604020452323   , 0.0285374234966808277  ,-0.0882077717770723829  ,
  -0.0237192499763088267  , 0.112788336533147723   , 0.0934160562230301889  ,
/* Mode 8 (5 1) */
  -0.0566414637660685658  ,-0.102120239956594097   , 0.21086490615235412    , 0.103286791733594729   ,-0.0746656101682878076  ,-0.0680725375586321013  , 0.0694669218057899912  ,-0.0782537369633388019  ,
  -0.0671664396625169802  ,
/* Mode 8 (6 1) */
   0.0550761506059744346  ,-0.209289907313988027   ,-0.0765930833474053885  , 0.100464900546376856   , 0.040235706330621103   ,-0.0624000437295272603  ,-0.030370134758569093   ,
/* Mode 8 (7 1) */
  -0.111685919273730033   ,-0.234346995645087541   ,
/* Mode 8 (0 2) */
  -0.12887884233315533    ,-0.249786026102451569   , 0.163746067769691583   , 0.365019021117833908   ,-0.204859356259541658   ,-0.0949757809372090006  , 0.124489125651052163   ,-0.059248806732123252   ,
   0.158948082834469956   ,
/* Mode 8 (1 2) */
   0.010999017206239553   ,-0.0958390415241983096  , 0.0688704499854017743  ,-0.00906126242785694654 ,-0.0551476935922301098  , 0.0789057591927517232  ,
/* Mode 8 (2 2) */
   0.00860675416017474271 ,-0.00861250470870378489 , 0.105091876424668898   ,
/* Mode 8 (3 2) */
  -0.0444258407680334089  ,-0.0602673873228125948  , 0.0737965380083261541  ,
/* Mode 8 (4 2) */
  -0.0352620465562738447  , 0.0415900777108010114  ,-0.112725758934835135   , 0.0331597804882369368  ,-0.0583920921447944261  , 0.0327363290605098001  ,-0.0329516344813133924  ,
/* Mode 8 (5 2) */
   0.0309479014751999001  ,-0.0656550131844558654  , 0.0868405363905301458  ,-0.0757358750104146078  , 0.0534610758791422974  ,
/* Mode 8 (6 2) */
  -0.0241181503894541058  , 0.0488549527110073503  ,
/* Mode 8 (7 2) */
  -0.0400795006919465804  , 0.0498428191299895781  ,
/* Mode 8 (0 3) */
  -0.0526297639892308669  , 0.144325188692948497   , 0.20387657606524906    ,-0.103834204885053016   ,-0.124696895035914079   ,-0.120147536308939151   ,
/* Mode 8 (1 3) */
   0.0974062223740381622  ,-0.101573587201282817   ,-0.097558037160397848   ,-0.0941895206526142809  ,
/* Mode 8 (2 3) */
  -0.0999329563653674063  ,
/* Mode 8 (3 3) */
/* Mode 8 (4 3) */
   0.0799155962734913045  ,
/* Mode 8 (5 3) */
/* Mode 8 (6 3) */
/* Mode 8 (7 3) */
/* Mode 8 (0 4) */
   0.0980005019498595836  , 0.123756546786232574   ,-0.089332032803413286   ,-0.112681142008057997   ,-0.113129027764195769   ,-0.151086125182907927   ,
/* Mode 8 (1 4) */
   0.0795644370182744809  ,-0.0709648497393999128  ,-0.0984634273001793736  ,-0.12621605374791256    ,
/* Mode 8 (2 4) */
  -0.0630497427783375947  ,
/* Mode 8 (3 4) */
/* Mode 8 (4 4) */
   0.0597667141113042907  ,
/* Mode 8 (5 4) */
/* Mode 8 (6 4) */
/* Mode 8 (7 4) */
/* Mode 8 (0 5) */
   0.0448224573078901886  ,-0.0824765596870741247  ,-0.111740605353793709   ,-0.144385200357727117   , 0.143350751725444425   ,
/* Mode 8 (1 5) */
  -0.0752053865366036772  , 0.0807402114072860583  ,-0.125433920461324372   , 0.120926774725514011   ,
/* Mode 8 (2 5) */
  -0.0715389644159368926  ,
/* Mode 8 (3 5) */
  -0.0524638238831912976  ,
/* Mode 8 (4 5) */
/* Mode 8 (5 5) */
/* Mode 8 (6 5) */
/* Mode 8 (7 5) */
/* Mode 8 (0 6) */
  -0.049647596248876269   ,-0.0569579688309615542  ,-0.135685911172964441   , 0.165887314107772549   ,
/* Mode 8 (1 6) */
  -0.0467515233857581716  , 0.0435438592900859248  ,-0.119804244172446894   , 0.129533813189717045   ,
/* Mode 8 (2 6) */
/* Mode 8 (3 6) */
/* Mode 8 (4 6) */
/* Mode 8 (5 6) */
/* Mode 8 (6 6) */
/* Mode 8 (7 6) */
/* Mode 8 (0 7) */
  -0.142106670813589353   ,-0.150049952991542807   ,
/* Mode 8 (1 7) */
  -0.129199620439596041   ,-0.131682690626710119   ,
/* Mode 8 (2 7) */
/* Mode 8 (3 7) */
/* Mode 8 (4 7) */
/* Mode 8 (5 7) */
/* Mode 8 (6 7) */
/* Mode 8 (7 7) */
/* Mode 9 (0 0) */
  -0.0720972197455426456  ,-0.277068508083673892   , 0.164857057044482419   , 0.591177393605248902   , 0.395155018989369278   ,-0.306803950798578695   , 1.06676962692882782    , 0.189113608064707894   ,
   0.571725802404276506   ,-0.365506696708577272   , 0.106527281462578324   ,-0.404367004837329458   , 0.269352326814412568   ,
/* Mode 9 (1 0) */
  -0.078051103423601928   ,-0.132944221124269873   , 0.431737750304732382   ,-0.157293017394409873   ,-0.0634892280222195404  ,-0.139725801410576028   , 0.137070682700256324   ,-0.144864415737205515   ,
   0.127605669328238663   ,-0.444088697795620491   ,
/* Mode 9 (2 0) */
  -0.0323481269627289014  , 0.033151144868597833   ,-0.211078223204096888   , 0.224322369606717947   , 0.0205116048623722388  ,-0.0433922709409700486  , 0.0271017848134632588  ,-0.237131344329858468   ,
   0.156362383651455272   ,
/* Mode 9 (3 0) */
  -0.183366969985224837   ,-0.194846822371933959   ,-0.0732445895610575048  , 0.189140251097984102   ,
/* Mode 9 (4 0) */
  -0.200190535348359122   ,-0.175910425437235257   , 0.1357275055095159     ,
/* Mode 9 (5 0) */
  -0.185150876404440418   , 0.198572455306657625   , 0.0530303486062668125  ,-0.0993110238872276646  ,
/* Mode 9 (6 0) */
  -0.183588465755156471   , 0.194638802933412985   ,
/* Mode 9 (7 0) */
  -0.191395397792839234   ,-0.197212757197185812   ,
/* Mode 9 (0 1) */
  -0.0752024229614156742  ,-0.0996661837643643966  , 0.145061659974115853   ,-0.334596273902205477   , 0.120912011663368804   ,-0.26438312400172409    ,-0.190260084772852611   , 0.132696439975690722   ,
  -0.168888345194831646   , 0.336676306212876586   ,
/* Mode 9 (1 1) */
  -0.0659524370697855966  ,-0.154343598248271763   , 0.0823594724218975616  , 0.231778793654257104   ,-0.172026505204444929   ,-0.195531515745799883   ,-0.263988910564971868   ,-0.229617526573145631   ,
   0.158303341277690607   , 0.250648202561537081   , 0.237740270976974366   ,-0.155938839528092565   ,-0.0528446714885382821  ,-0.177258637911436423   ,-0.119058301940067973   , 0.175849911692888716   ,
   0.14214212911032631    , 0.144169157825072974   ,-0.231260117801089266   ,
/* Mode 9 (2 1) */
  -0.0227906641648604989  , 0.0737490467335048805  ,-0.256299732421518822   ,-0.074898334271593231   , 0.151228667529148958   ,-0.0941188921456221489  , 0.086217652352401572   , 0.0516955527525914393  ,
   0.113930436247956166   ,-0.0495622999629148353  ,-0.113520563621258064   ,-0.175601987857402247   ,-0.0987091649909895702  , 0.156606959095977466   , 0.0214539494958386374  , 0.0608145626874761966  ,
  -0.215930069113044854   ,
/* Mode 9 (3 1) */
  -0.155741199983605499   ,-0.241466921951154823   , 0.0892482874337558879  ,-0.0822669673875913998  , 0.138291287785371309   , 0.0876133634820393942  ,-0.0861190943200803444  ,-0.0950213090477265154  ,
   0.154615607320837817   ,
/* Mode 9 (4 1) */
  -0.201923720152957842   ,-0.148959667622012321   , 0.113848467483628799   ,-0.0722217039718283382  ,
/* Mode 9 (5 1) */
  -0.152514085097901764   , 0.18938330393684491    ,
/* Mode 9 (6 1) */
  -0.178427367220769489   , 0.160513118353718454   ,
/* Mode 9 (7 1) */
  -0.161411889457786201   ,-0.186769629477649385   ,
/* Mode 9 (0 2) */
  -0.0318603269319632856  ,-0.0425048209984931688  , 0.031701075932545314   ,-0.155476147660592146   , 0.0219819277398604317  , 0.0256382994613249329  ,-0.206291784426567815   , 0.21360651598658667    ,
/* Mode 9 (1 2) */
  -0.024438968684336343   , 0.0202109097899263145  ,-0.077250129486418101   , 0.101212684884055867   ,-0.144059011836181916   , 0.147560738518104168   ,-0.196859597273452563   , 0.146028635249163458   ,
   0.0491847876507209847  ,-0.0602924111675270449  ,-0.215881594835147794   ,-0.0426352118775940592  , 0.115460349410513224   ,
/* Mode 9 (2 2) */
  -0.106314783840748966   ,-0.0736603508003619567  ,-0.0620780639560011699  ,-0.0688297023119312373  , 0.0969318835980660376  , 0.0722758291900882643  , 0.157141423171049177   , 0.0228454295153947065  ,
   0.0830089481424672454  ,-0.019189965186334132   ,-0.21989204248250338    , 0.0191328812725810003  ,-0.079302010783870211   ,-0.0472512663699677024  ,-0.0219662719899407256  , 0.0638312171500942521  ,
   0.139857153725897104   ,
/* Mode 9 (3 2) */
  -0.0840509377244997996  ,-0.0625232443268086413  , 0.13144897543220016    , 0.123941026707191509   ,-0.0449589245521999151  , 0.124376177309492492   ,-0.0412134594214302388  , 0.0402716743324423865  ,
   0.100963053367413777   ,-0.167551068283923965   ,
/* Mode 9 (4 2) */
  -0.0580390314255461517  ,-0.0623680647407866481  , 0.121411211435045199   ,-0.0564184828674592631  ,-0.0448741922542272437  ,-0.167152373574158103   ,
/* Mode 9 (5 2) */
  -0.115354841930104562   ,-0.083165897000927122   , 0.11146139566011494    ,
/* Mode 9 (6 2) */
   0.0888817578073999998  ,
/* Mode 9 (7 2) */
   0.07356307443117302    ,
/* Mode 9 (0 3) */
  -0.0605469827648324049  , 0.103657893333535533   ,-0.177137727243690757   ,-0.202701363547703184   ,
/* Mode 9 (1 3) */
  -0.0773981535266660137  ,-0.102753966138576833   , 0.0855913985326586801  ,-0.143529725217882875   ,-0.188669161272915137   ,
/* Mode 9 (2 3) */
  -0.0847885144606164431  ,-0.041415361772669225   , 0.0378272239956803716  , 0.0987937786191767087  ,-0.15100838161684299    ,-0.0924043100178518484  ,-0.0494913952085710984  , 0.0908567420064254755  ,
   0.108650989647262247   ,
/* Mode 9 (3 3) */
  -0.0606229519813202486  ,-0.0582011474266566978  , 0.120511695091928897   , 0.0518192662914840688  , 0.0932374386688326895  , 0.0942306082520582566  ,-0.087522130919817559   , 0.105697535595654882   ,
   0.10905064576677502    , 0.0636996194772385116  ,
/* Mode 9 (4 3) */
   0.0477434189978358653  ,-0.0484606227048113569  , 0.094612924976271412   ,-0.0492869116438936355  ,-0.0777944907674828767  , 0.117954243941778558   ,-0.0951775843742633243  ,
/* Mode 9 (5 3) */
   0.0842266419289699614  ,-0.105079356180677208   , 0.065165541933032492   ,-0.0787698587686275209  ,
/* Mode 9 (6 3) */
   0.0831292275557839605  ,
/* Mode 9 (7 3) */
   0.0826280429733869393  ,
/* Mode 9 (0 4) */
   0.0987084587279789399  ,-0.18884703119266022    ,-0.177740923786686128   ,
/* Mode 9 (1 4) */
   0.0816532955387871129  ,-0.192436424162353181   ,-0.130966180651543834   ,
/* Mode 9 (2 4) */
  -0.14757093369224325    ,-0.0487947757814613595  , 0.085032551000128645   ,
/* Mode 9 (3 4) */
   0.106536500171513865   ,-0.106103482057071555   ,-0.0460097169535004305  , 0.0832902265893407101  ,-0.0410152251101452148  ,
/* Mode 9 (4 4) */
   0.0561102984672244912  , 0.0539907924187493088  , 0.0805913184113055403  , 0.0977826848221450828  , 0.107429406856742113   ,
/* Mode 9 (5 4) */
   0.0692078183672421438  , 0.067359110907951561   ,-0.084942690293441106   ,
/* Mode 9 (6 4) */
/* Mode 9 (7 4) */
/* Mode 9 (0 5) */
  -0.181721503426435088   , 0.202086724979086918   ,
/* Mode 9 (1 5) */
  -0.149479018202290426   , 0.180778209685126395   ,
/* Mode 9 (2 5) */
  -0.0754250371399108471  , 0.0985277334959235862  ,-0.0698209134343786564  ,
/* Mode 9 (3 5) */
   0.0608424172031234653  ,-0.0793509591863088559  ,
/* Mode 9 (4 5) */
   0.0660082973440095505  , 0.0685623203041828416  , 0.071109635896582632   ,
/* Mode 9 (5 5) */
/* Mode 9 (6 5) */
/* Mode 9 (7 5) */
/* Mode 9 (0 6) */
  -0.189720596536727876   , 0.187433917148889406   ,
/* Mode 9 (1 6) */
  -0.171386953390217256   , 0.155826767399384614   ,
/* Mode 9 (2 6) */
/* Mode 9 (3 6) */
   0.0695754940051175885  ,
/* Mode 9 (4 6) */
/* Mode 9 (5 6) */
/* Mode 9 (6 6) */
/* Mode 9 (7 6) */
/* Mode 9 (0 7) */
  -0.183368573399148749   ,-0.199984772243856634   ,
/* Mode 9 (1 7) */
  -0.151146406511993181   ,-0.175297937198921588   ,
/* Mode 9 (2 7) */
/* Mode 9 (3 7) */
   0.059428653372331719   ,
/* Mode 9 (4 7) */
/* Mode 9 (5 7) */
/* Mode 9 (6 7) */
/* Mode 9 (7 7) */
};
const ogg_uint16_t OD_PRED_INDEX_8x8[]={
/* Mode 0 (0 0) */
  0x24,0x25,0x26,0x27,0x2d,0x64,0x65,0x66,0x68,0x69,0x6c,0x70,0x71,0x72,0x74,0x7c,
  0x7e,0xa1,0xa4,0xa5,0xa7,0xa8,0xb0,0xb1,0xb3,0xb5,0xb7,0xc4,0xc5,0xc6,0xcc,0xcd,
  0xcf,0xdc,0xe4,0xe5,0xe6,0xe7,0xec,0xee,0xf5,0xfd,
/* Mode 0 (1 0) */
  0x24,0x25,0x26,0x60,0x61,0x65,0x68,0x6c,0x70,0x74,0xa5,0xa8,0xc4,0xc5,0xc6,0xe6,
/* Mode 0 (2 0) */
  0x61,0x65,0xc6,0xe4,0xe6,
/* Mode 0 (3 0) */
  0x61,0x65,0xc5,
/* Mode 0 (4 0) */
  0x62,0x66,0xc6,0xe6,
/* Mode 0 (5 0) */
  0x62,0x66,0xc6,0xe6,0xe7,
/* Mode 0 (6 0) */
  0x63,0x67,0xc6,0xe7,
/* Mode 0 (7 0) */
  0x63,0x67,
/* Mode 0 (0 1) */
  0x24,0x2c,0x2d,0x34,0x68,0x6c,0x70,0x74,0xa0,0xa4,0xb0,0xc4,0xc5,0xcc,0xe5,0xe6,
  0xec,0xf4,
/* Mode 0 (1 1) */
  0x24,0x60,0x64,0x6c,0x70,0x74,0xa4,0xc4,0xc6,0xcc,0xe6,0xec,
/* Mode 0 (2 1) */
  0x61,0x65,0x71,0xc5,0xc6,0xe6,
/* Mode 0 (3 1) */
  0x61,0x65,0xc5,
/* Mode 0 (4 1) */
  0x62,0x66,0xc5,0xc6,0xe6,
/* Mode 0 (5 1) */
  0x62,0x66,0xc6,0xc7,0xe6,0xe7,
/* Mode 0 (6 1) */
  0x63,0x67,0xc6,0xc7,0xe7,
/* Mode 0 (7 1) */
  0x63,0x67,
/* Mode 0 (0 2) */
  0x64,0x6c,0x70,0x74,0xa8,0xcc,0xcd,0xe4,
/* Mode 0 (1 2) */
  0x60,0x68,0x70,0x74,0xa0,0xa8,0xcc,0xce,0xed,
/* Mode 0 (2 2) */
  0x71,0xed,
/* Mode 0 (3 2) */
  0xed,
/* Mode 0 (4 2) */
  0xee,
/* Mode 0 (5 2) */
  0xee,0xef,
/* Mode 0 (6 2) */
  0x6b,
/* Mode 0 (7 2) */
  0x6b,0x6f,
/* Mode 0 (0 3) */
  0x68,0x6c,0x70,0x78,0x7c,0xa8,0xcc,0xec,0xf4,
/* Mode 0 (1 3) */
  0x60,0x64,0x68,0x78,0x7c,0xa8,0xcc,0xd4,0xd5,0xec,0xf4,
/* Mode 0 (2 3) */
  0x61,
/* Mode 0 (3 3) */
  0x61,0x65,
/* Mode 0 (4 3) */
  0x62,0x66,0xce,
/* Mode 0 (5 3) */
  0x62,0x66,0xce,0xcf,
/* Mode 0 (6 3) */
  0x63,0x67,
/* Mode 0 (7 3) */
  0x63,0x67,0x6b,0x6f,
/* Mode 0 (0 4) */
  0x68,0x6c,0x74,0x78,0xd4,0xf4,
/* Mode 0 (1 4) */
  0x68,0x6c,0x70,0x74,0xd4,0xf4,
/* Mode 0 (2 4) */
  0x75,0xf5,
/* Mode 0 (3 4) */
  0xd4,
/* Mode 0 (4 4) */
  0xf6,
/* Mode 0 (5 4) */
/* Mode 0 (6 4) */
/* Mode 0 (7 4) */
/* Mode 0 (0 5) */
  0x70,0x74,0xd4,0xf4,
/* Mode 0 (1 5) */
  0x70,0x74,0xd4,0xf4,0xfc,
/* Mode 0 (2 5) */
  0x75,0xdd,0xf4,
/* Mode 0 (3 5) */
  0xd4,0xf4,
/* Mode 0 (4 5) */
  0xd6,
/* Mode 0 (5 5) */
/* Mode 0 (6 5) */
/* Mode 0 (7 5) */
/* Mode 0 (0 6) */
  0x70,0x74,0x7c,0xdc,0xe4,0xfc,
/* Mode 0 (1 6) */
  0x70,0x74,0xdc,0xfc,
/* Mode 0 (2 6) */
  0x75,0x7d,0xdd,
/* Mode 0 (3 6) */
  0x71,0xdc,
/* Mode 0 (4 6) */
/* Mode 0 (5 6) */
/* Mode 0 (6 6) */
/* Mode 0 (7 6) */
/* Mode 0 (0 7) */
  0x70,0x74,0xdc,0xfc,
/* Mode 0 (1 7) */
  0xdc,0xfc,
/* Mode 0 (2 7) */
  0xfc,0xfd,
/* Mode 0 (3 7) */
  0xdc,0xfd,
/* Mode 0 (4 7) */
/* Mode 0 (5 7) */
/* Mode 0 (6 7) */
/* Mode 0 (7 7) */
/* Mode 1 (0 0) */
  0x24,0x26,0x2c,0x2d,0x2e,0x2f,0x37,0x3c,0x60,0x62,0x64,0x65,0x67,0x68,0x69,0x70,
  0x73,0x7c,0xa0,0xa2,0xa4,0xa8,0xb0,0xb1,0xbc,0xc6,0xcc,0xcd,0xd4,0xe4,0xe5,0xe6,
  0xe7,0xec,0xed,0xf7,
/* Mode 1 (1 0) */
  0x24,0x60,0x61,0x62,0x64,0x65,0x69,0x6c,0xa0,0xa1,0xa4,0xc4,0xc5,0xc6,0xe5,0xe6,
/* Mode 1 (2 0) */
  0x24,0x25,0x60,0x61,0x64,0x65,0xa0,0xa1,0xa4,0xc5,0xe6,
/* Mode 1 (3 0) */
  0x25,0x26,0x60,0x61,0x62,0x64,0x65,0x66,0xa1,0xa2,0xc5,0xc6,0xe7,
/* Mode 1 (4 0) */
  0x25,0x26,0x61,0x62,0x65,0x66,0xa2,0xc5,0xc6,
/* Mode 1 (5 0) */
  0x26,0x27,0x62,0x63,0x65,0x67,0xa2,0xc6,0xc7,
/* Mode 1 (6 0) */
  0x27,0x62,0x63,0x66,0x67,0xc6,0xc7,
/* Mode 1 (7 0) */
  0x60,0x63,0x64,0x67,
/* Mode 1 (0 1) */
  0x24,0x2c,0x64,0x74,0xa0,0xa8,0xac,0xb0,0xc4,0xc5,0xcc,0xe4,0xe5,0xec,
/* Mode 1 (1 1) */
  0x60,0x64,0xc4,0xc6,0xe4,0xe6,0xec,
/* Mode 1 (2 1) */
  0x61,0x75,
/* Mode 1 (3 1) */
  0xe5,
/* Mode 1 (4 1) */
  0x61,0x62,0x66,0xc5,0xe5,0xe6,
/* Mode 1 (5 1) */
  0x26,0x62,0x63,0x67,0xe6,0xe7,
/* Mode 1 (6 1) */
  0x62,0x67,0xe7,
/* Mode 1 (7 1) */
  0x63,
/* Mode 1 (0 2) */
  0x24,0x2c,0x34,0x68,0x6c,0x70,0xa4,0xa8,0xac,0xc4,0xcc,0xcd,0xd4,0xe4,0xec,
/* Mode 1 (1 2) */
  0x2c,0x60,0x64,0x68,0xac,0xec,0xee,
/* Mode 1 (2 2) */
  0xec,
/* Mode 1 (3 2) */
/* Mode 1 (4 2) */
/* Mode 1 (5 2) */
/* Mode 1 (6 2) */
/* Mode 1 (7 2) */
/* Mode 1 (0 3) */
  0x2c,0x34,0x68,0x6c,0x70,0x74,0x7c,0xa8,0xac,0xb0,0xb4,0xc4,0xcc,0xd4,0xe4,0xec,
  0xf4,
/* Mode 1 (1 3) */
  0x68,0x70,0x74,0xac,0xcc,0xd4,0xec,
/* Mode 1 (2 3) */
/* Mode 1 (3 3) */
/* Mode 1 (4 3) */
/* Mode 1 (5 3) */
/* Mode 1 (6 3) */
  0x67,
/* Mode 1 (7 3) */
/* Mode 1 (0 4) */
  0x2c,0x34,0x68,0x6c,0x74,0xa8,0xb0,0xb8,0xcc,0xd4,0xec,0xf4,
/* Mode 1 (1 4) */
  0x34,0x68,0x70,0x74,0x7c,0xa8,0xb0,0xd4,0xdc,0xf4,
/* Mode 1 (2 4) */
/* Mode 1 (3 4) */
/* Mode 1 (4 4) */
/* Mode 1 (5 4) */
/* Mode 1 (6 4) */
/* Mode 1 (7 4) */
/* Mode 1 (0 5) */
  0x34,0x74,0x7c,0xb0,0xb8,0xcc,0xdc,0xf4,0xfc,
/* Mode 1 (1 5) */
  0x34,0x70,0x78,0xb0,0xb8,0xd4,0xdc,0xfc,
/* Mode 1 (2 5) */
/* Mode 1 (3 5) */
/* Mode 1 (4 5) */
/* Mode 1 (5 5) */
/* Mode 1 (6 5) */
/* Mode 1 (7 5) */
/* Mode 1 (0 6) */
  0x24,0x74,0x7c,0xb8,0xd4,0xdc,0xe4,0xf4,0xfc,
/* Mode 1 (1 6) */
  0x70,0x78,0xb0,0xb8,0xd4,0xdc,0xf4,0xfd,
/* Mode 1 (2 6) */
/* Mode 1 (3 6) */
/* Mode 1 (4 6) */
/* Mode 1 (5 6) */
/* Mode 1 (6 6) */
/* Mode 1 (7 6) */
/* Mode 1 (0 7) */
  0x74,0xdc,0xfc,
/* Mode 1 (1 7) */
  0xdd,0xfc,
/* Mode 1 (2 7) */
  0xdc,0xdd,
/* Mode 1 (3 7) */
/* Mode 1 (4 7) */
/* Mode 1 (5 7) */
/* Mode 1 (6 7) */
/* Mode 1 (7 7) */
/* Mode 2 (0 0) */
  0x24,0x26,0x60,0x61,0x64,0x68,0x6a,0x6c,0x6e,0x70,0x74,0x78,0x7c,0xa0,0xa4,0xa8,
  0xb0,0xc4,0xc5,0xc6,0xe4,0xe5,0xe6,0xe7,0xec,0xed,
/* Mode 2 (1 0) */
  0x60,0x64,0x65,0xa0,0xc7,0xe4,0xe5,0xe7,
/* Mode 2 (2 0) */
  0x61,0x64,0x65,0xe4,0xe5,0xe7,
/* Mode 2 (3 0) */
  0x61,0x65,0xe5,
/* Mode 2 (4 0) */
  0x62,0x66,0xe6,
/* Mode 2 (5 0) */
  0x62,0x66,0xe6,0xe7,
/* Mode 2 (6 0) */
  0x63,0x67,
/* Mode 2 (7 0) */
  0x63,0x67,
/* Mode 2 (0 1) */
  0x24,0x2c,0x60,0x64,0x68,0x6c,0x74,0x78,0x7c,0xa0,0xa8,0xb0,0xc4,0xe5,0xe6,0xec,
  0xed,
/* Mode 2 (1 1) */
  0x24,0x60,0x61,0x64,0x6c,0xa0,0xa4,0xc4,0xc5,0xcc,0xec,0xed,
/* Mode 2 (2 1) */
  0x61,0x65,0xc5,0xcd,0xe5,
/* Mode 2 (3 1) */
  0x61,0x65,0xc5,0xe5,
/* Mode 2 (4 1) */
  0x62,0x66,0xc6,
/* Mode 2 (5 1) */
  0x62,0x66,0xc6,0xe6,
/* Mode 2 (6 1) */
  0x63,0x67,
/* Mode 2 (7 1) */
  0x63,0x67,
/* Mode 2 (0 2) */
  0x24,0x60,0x64,0x6c,0xa8,0xc4,0xcc,0xcd,0xe4,
/* Mode 2 (1 2) */
  0x68,0x69,0x6d,0x74,0xa0,0xa4,0xa8,0xac,0xc4,0xcc,0xcd,0xe4,0xec,0xed,
/* Mode 2 (2 2) */
  0x68,0x69,0x6c,0xec,0xed,
/* Mode 2 (3 2) */
  0x6d,0xed,
/* Mode 2 (4 2) */
  0x6a,0xee,
/* Mode 2 (5 2) */
  0xee,
/* Mode 2 (6 2) */
/* Mode 2 (7 2) */
/* Mode 2 (0 3) */
  0x6c,0x74,0xa0,0xa8,0xb0,0xcc,0xec,
/* Mode 2 (1 3) */
  0x2c,0x68,0x69,0x6d,0x70,0x75,0xa8,0xa9,0xac,0xb0,0xd4,0xec,0xf4,0xf5,
/* Mode 2 (2 3) */
  0x65,0x68,0x6c,0x70,0x74,0xa8,0xa9,0xac,0xcc,0xcd,0xd4,0xd5,0xf5,
/* Mode 2 (3 3) */
  0x6d,0xcd,
/* Mode 2 (4 3) */
  0x62,0xce,
/* Mode 2 (5 3) */
/* Mode 2 (6 3) */
  0x63,
/* Mode 2 (7 3) */
/* Mode 2 (0 4) */
  0x6c,0x74,0xb0,0xd4,0xf4,
/* Mode 2 (1 4) */
  0x68,0x6d,0x70,0x74,0x75,0xb0,0xb1,0xcc,0xd4,0xd5,0xec,
/* Mode 2 (2 4) */
  0x6d,0x70,0x74,0x75,0xb1,0xcd,0xd4,0xd5,0xed,0xf4,0xf5,
/* Mode 2 (3 4) */
  0x71,0xb1,0xf5,
/* Mode 2 (4 4) */
  0xf5,0xf6,
/* Mode 2 (5 4) */
/* Mode 2 (6 4) */
/* Mode 2 (7 4) */
/* Mode 2 (0 5) */
  0x74,0xd4,0xf4,
/* Mode 2 (1 5) */
  0x70,0x75,0xd4,0xdc,0xf4,0xf5,
/* Mode 2 (2 5) */
  0x35,0x75,0xb1,0xd4,0xd5,0xdd,0xf5,0xfd,
/* Mode 2 (3 5) */
  0x71,0xb1,0xd5,0xfd,
/* Mode 2 (4 5) */
  0xd5,0xd6,
/* Mode 2 (5 5) */
/* Mode 2 (6 5) */
/* Mode 2 (7 5) */
/* Mode 2 (0 6) */
  0x74,0xdc,0xfc,
/* Mode 2 (1 6) */
  0x70,0xd4,0xdc,0xf4,0xfc,
/* Mode 2 (2 6) */
  0x75,0xd4,0xd5,0xdd,0xf4,0xf5,
/* Mode 2 (3 6) */
  0xd5,0xf5,0xfc,
/* Mode 2 (4 6) */
  0xfe,
/* Mode 2 (5 6) */
/* Mode 2 (6 6) */
/* Mode 2 (7 6) */
/* Mode 2 (0 7) */
  0xdc,0xfc,
/* Mode 2 (1 7) */
  0xdc,0xfc,
/* Mode 2 (2 7) */
  0xfc,0xfd,
/* Mode 2 (3 7) */
  0xdc,0xfd,
/* Mode 2 (4 7) */
/* Mode 2 (5 7) */
/* Mode 2 (6 7) */
/* Mode 2 (7 7) */
/* Mode 3 (0 0) */
  0x24,0x2c,0x60,0x68,0x6c,0xa0,0xa1,0xa4,0xc4,0xc6,0xe4,0xe5,
/* Mode 3 (1 0) */
  0x60,0x64,0x68,0x6c,0xa1,0xa4,0xc4,0xc5,0xe5,
/* Mode 3 (2 0) */
  0x61,0x69,0x6d,0xe5,
/* Mode 3 (3 0) */
  0x61,0x65,0x69,0x6d,0xc6,0xe6,
/* Mode 3 (4 0) */
  0x62,0x66,0x6a,0x6e,0xa0,0xc4,0xc6,
/* Mode 3 (5 0) */
  0x62,0x66,0x6a,0x6e,0xe7,
/* Mode 3 (6 0) */
  0x63,0x67,0x6b,0x6f,0xc7,0xe7,
/* Mode 3 (7 0) */
  0x63,0x67,0x6b,0x6f,
/* Mode 3 (0 1) */
  0x24,0x2c,0x34,0x60,0x64,0x68,0x6c,0xa8,0xc4,0xc5,0xe4,0xe5,0xec,
/* Mode 3 (1 1) */
  0x60,0x64,0x68,0x6c,0xc5,0xe5,
/* Mode 3 (2 1) */
  0x61,0x65,0x69,0x6d,0xc5,0xe5,
/* Mode 3 (3 1) */
  0x61,0x65,0x69,0x6d,0xc6,0xe6,
/* Mode 3 (4 1) */
  0x62,0x66,0x6a,0x6e,0xc6,0xe6,
/* Mode 3 (5 1) */
  0x62,0x66,0x6a,0x6e,0xc7,
/* Mode 3 (6 1) */
  0x63,0x67,0x6b,0x6f,
/* Mode 3 (7 1) */
  0x63,0x67,
/* Mode 3 (0 2) */
  0x24,0x34,0x60,0x64,0x68,0x6c,0x70,0xa8,0xb0,0xc4,0xcc,0xe4,0xec,0xed,
/* Mode 3 (1 2) */
  0x60,0x64,0x68,0x6c,0x70,0x74,0xcd,0xed,
/* Mode 3 (2 2) */
  0x61,0x65,0x69,0x6d,0x71,0xed,
/* Mode 3 (3 2) */
  0x61,0x65,0xce,0xee,
/* Mode 3 (4 2) */
  0x62,0x66,0x72,0xce,0xee,
/* Mode 3 (5 2) */
  0x62,0x66,0x72,0x76,0xcf,0xef,
/* Mode 3 (6 2) */
  0x63,0x67,
/* Mode 3 (7 2) */
  0x63,0x67,0x73,0x77,
/* Mode 3 (0 3) */
  0x24,0x2c,0x34,0x60,0x70,0x74,0xc4,0xcc,0xe4,0xec,0xf4,
/* Mode 3 (1 3) */
  0x70,0x74,0xcd,0xed,
/* Mode 3 (2 3) */
  0x71,0x75,
/* Mode 3 (3 3) */
  0x71,0x75,0xce,
/* Mode 3 (4 3) */
  0x6e,0x72,0x76,0xce,0xee,
/* Mode 3 (5 3) */
  0x6a,0x6e,0x72,0x76,0xcf,0xef,
/* Mode 3 (6 3) */
  0x6b,0x6f,0x73,
/* Mode 3 (7 3) */
  0x6b,0x6f,0x73,0x77,
/* Mode 3 (0 4) */
  0x2c,0x6c,0x70,0x78,0xcc,0xd4,0xdc,0xf4,
/* Mode 3 (1 4) */
  0x68,0x6c,0x70,0x74,0x78,0x7c,0xf5,
/* Mode 3 (2 4) */
  0x6d,0x71,0x75,0x79,
/* Mode 3 (3 4) */
  0x69,0x75,0xf6,
/* Mode 3 (4 4) */
  0x72,
/* Mode 3 (5 4) */
/* Mode 3 (6 4) */
  0x6b,
/* Mode 3 (7 4) */
  0x6b,
/* Mode 3 (0 5) */
  0x34,0x78,0xc4,0xcc,0xd4,0xe4,0xec,0xf4,0xfc,
/* Mode 3 (1 5) */
  0x78,0x7c,0xd4,0xf4,
/* Mode 3 (2 5) */
  0x79,0x7d,
/* Mode 3 (3 5) */
  0x79,0x7d,
/* Mode 3 (4 5) */
  0x7a,0x7e,
/* Mode 3 (5 5) */
  0x7a,0x7e,
/* Mode 3 (6 5) */
  0x7b,
/* Mode 3 (7 5) */
  0x7b,0x7f,
/* Mode 3 (0 6) */
  0x34,0x78,0xd4,0xdc,0xfc,
/* Mode 3 (1 6) */
  0xdc,0xfc,0xfd,
/* Mode 3 (2 6) */
  0x79,
/* Mode 3 (3 6) */
/* Mode 3 (4 6) */
/* Mode 3 (5 6) */
/* Mode 3 (6 6) */
/* Mode 3 (7 6) */
/* Mode 3 (0 7) */
  0xc4,0xd4,0xdc,0xe4,0xf4,0xfc,
/* Mode 3 (1 7) */
  0xdc,0xdd,0xfc,0xfd,
/* Mode 3 (2 7) */
/* Mode 3 (3 7) */
/* Mode 3 (4 7) */
/* Mode 3 (5 7) */
/* Mode 3 (6 7) */
/* Mode 3 (7 7) */
/* Mode 4 (0 0) */
  0x24,0x25,0x26,0x2d,0x60,0x61,0x64,0x68,0x69,0x6c,0xa0,0xc4,0xc5,0xc6,0xc7,0xe4,
  0xe5,0xe6,0xec,0xed,
/* Mode 4 (1 0) */
  0x25,0x60,0x64,0xa0,0xc5,0xc6,0xe4,0xe5,0xe6,
/* Mode 4 (2 0) */
  0x25,0x61,0x65,0xa0,0xc4,0xc5,0xc6,0xe5,0xe6,
/* Mode 4 (3 0) */
  0x61,0x65,0xc6,0xe6,
/* Mode 4 (4 0) */
  0x62,0x66,0xc6,0xe6,0xe7,
/* Mode 4 (5 0) */
  0x62,0x66,0xc7,0xe7,
/* Mode 4 (6 0) */
  0x63,0x67,0xc7,
/* Mode 4 (7 0) */
  0x63,0x67,
/* Mode 4 (0 1) */
  0x24,0x25,0x2c,0x60,0x64,0x68,0x6c,0xa0,0xa8,0xc4,0xc6,0xcc,0xcd,0xe4,0xe5,0xe6,
  0xec,0xed,
/* Mode 4 (1 1) */
  0x24,0x25,0x60,0x64,0x6d,0xa0,0xa8,0xc4,0xc5,0xe4,0xe5,
/* Mode 4 (2 1) */
  0x61,0x64,0x65,0xa0,0xc5,0xe5,
/* Mode 4 (3 1) */
  0x61,0x65,0xc6,0xe6,
/* Mode 4 (4 1) */
  0x62,0x66,0xc6,0xe6,
/* Mode 4 (5 1) */
  0x62,0x66,0xc7,0xe7,
/* Mode 4 (6 1) */
  0x63,0x67,
/* Mode 4 (7 1) */
  0x63,0x67,
/* Mode 4 (0 2) */
  0x24,0x2c,0x60,0x64,0x68,0x6c,0x74,0xa0,0xa8,0xc4,0xcc,0xcd,0xe4,0xec,0xed,
/* Mode 4 (1 2) */
  0x24,0x2c,0x60,0x61,0x68,0x69,0x6c,0x6d,0xa0,0xa8,0xa9,0xcc,0xcd,
/* Mode 4 (2 2) */
  0x68,0x6c,0xa8,0xa9,0xcd,
/* Mode 4 (3 2) */
  0x61,0x69,0xce,
/* Mode 4 (4 2) */
  0xce,
/* Mode 4 (5 2) */
  0xcf,
/* Mode 4 (6 2) */
/* Mode 4 (7 2) */
/* Mode 4 (0 3) */
  0x2c,0x34,0x68,0x6c,0x70,0x74,0xa8,0xb0,0xcc,0xd4,0xec,0xf4,
/* Mode 4 (1 3) */
  0x24,0x2c,0x34,0x64,0x68,0x69,0x6c,0x6d,0x71,0x74,0xa8,0xb0,0xcc,0xd4,0xec,0xed,
  0xf4,
/* Mode 4 (2 3) */
  0x68,0x6c,0xa8,0xa9,0xed,
/* Mode 4 (3 3) */
  0x69,
/* Mode 4 (4 3) */
/* Mode 4 (5 3) */
  0x6a,
/* Mode 4 (6 3) */
/* Mode 4 (7 3) */
/* Mode 4 (0 4) */
  0x2c,0x34,0x70,0xa8,0xb0,0xcc,0xd4,0xec,0xf4,
/* Mode 4 (1 4) */
  0x2c,0x34,0x6c,0x71,0x74,0x75,0xa8,0xb0,0xcc,0xd4,0xd5,0xec,0xf4,
/* Mode 4 (2 4) */
  0x68,0x6c,0x70,0x74,0xb1,0xd5,
/* Mode 4 (3 4) */
  0x75,
/* Mode 4 (4 4) */
/* Mode 4 (5 4) */
/* Mode 4 (6 4) */
/* Mode 4 (7 4) */
/* Mode 4 (0 5) */
  0x34,0x3c,0x70,0x78,0xb0,0xd4,0xdc,0xf4,0xfc,
/* Mode 4 (1 5) */
  0x34,0x3c,0x71,0x74,0x7c,0xb0,0xd4,0xdc,0xf5,0xfc,
/* Mode 4 (2 5) */
  0x34,0x35,0x70,0x74,0xd4,0xf5,
/* Mode 4 (3 5) */
  0x71,
/* Mode 4 (4 5) */
/* Mode 4 (5 5) */
/* Mode 4 (6 5) */
/* Mode 4 (7 5) */
/* Mode 4 (0 6) */
  0x3c,0x78,0xd4,0xdc,0xf4,0xfc,
/* Mode 4 (1 6) */
  0x34,0x3c,0x74,0x7c,0xd4,0xdc,0xf4,0xfc,
/* Mode 4 (2 6) */
  0xdd,
/* Mode 4 (3 6) */
/* Mode 4 (4 6) */
/* Mode 4 (5 6) */
/* Mode 4 (6 6) */
/* Mode 4 (7 6) */
/* Mode 4 (0 7) */
  0xdc,0xfc,
/* Mode 4 (1 7) */
  0xdc,0xfc,
/* Mode 4 (2 7) */
  0xfd,
/* Mode 4 (3 7) */
/* Mode 4 (4 7) */
/* Mode 4 (5 7) */
/* Mode 4 (6 7) */
/* Mode 4 (7 7) */
/* Mode 5 (0 0) */
  0x24,0x26,0x27,0x2c,0x60,0x64,0x65,0x68,0x6c,0x6d,0x78,0x7c,0xa0,0xa8,0xac,0xc4,
  0xc5,0xc6,0xc7,0xe4,0xe5,0xe6,0xe7,
/* Mode 5 (1 0) */
  0x24,0x60,0x61,0x64,0x6c,0xa8,0xc4,0xc6,0xcc,0xe4,0xe5,0xe6,
/* Mode 5 (2 0) */
  0x61,0x65,0xc5,0xe6,
/* Mode 5 (3 0) */
  0x61,0x65,0xc5,
/* Mode 5 (4 0) */
  0x62,0x66,
/* Mode 5 (5 0) */
  0x62,0x66,
/* Mode 5 (6 0) */
  0x63,0x67,
/* Mode 5 (7 0) */
  0x63,0x67,
/* Mode 5 (0 1) */
  0x24,0x2c,0x60,0x61,0x64,0x6c,0x70,0x74,0x7c,0xa0,0xa8,0xc4,0xc5,0xcc,0xe4,0xe5,
  0xec,
/* Mode 5 (1 1) */
  0x24,0x60,0x61,0x65,0x68,0x69,0x74,0xa0,0xa8,0xc5,0xcc,0xcd,0xe4,0xe6,0xec,
/* Mode 5 (2 1) */
  0x25,0x60,0x61,0x64,0x65,0x6d,0xcd,0xe4,0xe5,0xec,
/* Mode 5 (3 1) */
  0x61,0x65,0xe5,
/* Mode 5 (4 1) */
  0x62,0x66,
/* Mode 5 (5 1) */
  0x62,0x66,
/* Mode 5 (6 1) */
  0x63,0x67,
/* Mode 5 (7 1) */
  0x63,0x67,
/* Mode 5 (0 2) */
  0x60,0x68,0x74,0xa0,0xcc,0xec,
/* Mode 5 (1 2) */
  0x24,0x2c,0x2d,0x64,0x65,0x69,0x6c,0x6d,0x70,0x74,0xa0,0xc4,0xe4,0xec,0xed,
/* Mode 5 (2 2) */
  0x24,0x2d,0x60,0x61,0x68,0x69,0x6c,0x6d,0x75,0xa9,0xc5,0xcc,0xcd,0xee,
/* Mode 5 (3 2) */
  0x2d,0x65,0x69,0x6a,0xcd,
/* Mode 5 (4 2) */
  0x6e,0xce,
/* Mode 5 (5 2) */
  0x6a,
/* Mode 5 (6 2) */
  0x6f,
/* Mode 5 (7 2) */
/* Mode 5 (0 3) */
  0x68,0xcc,0xec,
/* Mode 5 (1 3) */
  0x2c,0x6c,0x6d,0xcc,0xcd,0xd4,0xec,
/* Mode 5 (2 3) */
  0x2c,0x2d,0x35,0x65,0x68,0x69,0x6c,0x71,0x75,0xa9,0xd5,0xec,0xed,0xf4,0xf5,
/* Mode 5 (3 3) */
  0x2d,0x61,0x65,0x6a,0x6d,0xcc,0xd5,0xec,0xed,
/* Mode 5 (4 3) */
  0x2d,0x66,0x69,0x6d,0xee,
/* Mode 5 (5 3) */
  0x62,0x66,0x6a,
/* Mode 5 (6 3) */
  0x67,
/* Mode 5 (7 3) */
  0x63,0x67,
/* Mode 5 (0 4) */
  0xd4,0xf4,
/* Mode 5 (1 4) */
  0x74,0xd4,0xf4,0xf5,
/* Mode 5 (2 4) */
  0x35,0x69,0x71,0xcd,0xd5,0xed,0xf5,
/* Mode 5 (3 4) */
  0x2d,0x35,0x6d,0x72,0x75,0xcd,0xd4,0xd5,0xed,
/* Mode 5 (4 4) */
  0x72,0xd5,0xd6,
/* Mode 5 (5 4) */
  0x6e,0xd6,
/* Mode 5 (6 4) */
/* Mode 5 (7 4) */
/* Mode 5 (0 5) */
  0xd4,0xf4,
/* Mode 5 (1 5) */
  0x74,0xd4,0xf4,
/* Mode 5 (2 5) */
  0x35,0x71,0xd5,0xdd,
/* Mode 5 (3 5) */
  0x35,0x75,0xd4,0xd5,0xf4,0xf5,0xfd,
/* Mode 5 (4 5) */
  0x72,0xf5,0xf6,
/* Mode 5 (5 5) */
/* Mode 5 (6 5) */
/* Mode 5 (7 5) */
/* Mode 5 (0 6) */
  0xdc,0xfc,
/* Mode 5 (1 6) */
  0xdc,0xfc,
/* Mode 5 (2 6) */
  0x71,0xfd,
/* Mode 5 (3 6) */
  0xd5,0xdc,0xf5,0xfd,
/* Mode 5 (4 6) */
/* Mode 5 (5 6) */
/* Mode 5 (6 6) */
/* Mode 5 (7 6) */
/* Mode 5 (0 7) */
  0xdc,0xfc,
/* Mode 5 (1 7) */
  0xdc,0xfc,
/* Mode 5 (2 7) */
  0xdd,
/* Mode 5 (3 7) */
  0xdc,0xdd,0xfc,
/* Mode 5 (4 7) */
/* Mode 5 (5 7) */
/* Mode 5 (6 7) */
/* Mode 5 (7 7) */
/* Mode 6 (0 0) */
  0x24,0x2c,0x34,0x60,0x64,0x68,0x6d,0x70,0xa0,0xa1,0xa4,0xa8,0xc4,0xcc,0xcd,0xe4,
  0xe5,0xec,
/* Mode 6 (1 0) */
  0x24,0x25,0x2d,0x60,0x61,0x64,0x65,0x68,0x69,0x6d,0xa0,0xa1,0xc4,0xc5,0xe4,0xe5,
/* Mode 6 (2 0) */
  0x24,0x25,0x60,0x61,0x64,0x65,0x6d,0xa0,0xa1,0xc4,0xc5,0xe4,
/* Mode 6 (3 0) */
  0x25,0x26,0x61,0x62,0x65,0xa1,0xc5,0xc6,
/* Mode 6 (4 0) */
  0x26,0x62,0x66,0xc6,
/* Mode 6 (5 0) */
  0x62,0x66,0xc6,0xc7,
/* Mode 6 (6 0) */
  0x63,0x67,
/* Mode 6 (7 0) */
  0x63,0x67,
/* Mode 6 (0 1) */
  0x2c,0x60,0x68,0x6c,0xc4,0xcc,0xe4,
/* Mode 6 (1 1) */
  0x24,0x2c,0x60,0x61,0x64,0x65,0x68,0x69,0x6c,0xa0,0xc4,0xc5,0xcc,0xcd,0xe4,0xec,
  0xed,
/* Mode 6 (2 1) */
  0x24,0x25,0x2d,0x60,0x61,0x64,0x65,0x69,0xa1,0xc4,0xc6,0xcc,0xcd,0xe5,0xed,
/* Mode 6 (3 1) */
  0x25,0x26,0x61,0x62,0x66,0x6a,0x6d,0xa1,0xcd,0xce,0xe5,0xe6,0xed,
/* Mode 6 (4 1) */
  0x26,0x61,0x65,0x66,0x6e,0xa2,0xce,0xe5,0xe6,0xee,
/* Mode 6 (5 1) */
  0x62,0x63,0x66,0xe6,
/* Mode 6 (6 1) */
  0x62,0x63,0x66,0x67,
/* Mode 6 (7 1) */
  0x63,0x67,
/* Mode 6 (0 2) */
  0x2c,0x60,0x64,0x68,0x6c,0x70,0xc4,0xcc,0xe4,0xec,
/* Mode 6 (1 2) */
  0x60,0x65,0x6c,0xcc,0xe4,0xec,
/* Mode 6 (2 2) */
  0x2d,0x69,0xa1,0xc4,0xc5,0xcd,0xe4,0xe5,0xec,0xed,
/* Mode 6 (3 2) */
  0x25,0x2d,0x65,0x66,0x6a,0x6d,0x6e,0xc5,0xcd,0xce,0xe5,0xed,
/* Mode 6 (4 2) */
  0x2d,0x2e,0x61,0x62,0x66,0x69,0x6a,0x6d,0x6e,0xc5,0xc6,0xce,0xe5,0xe6,
/* Mode 6 (5 2) */
  0x2e,0x63,0x6a,0x6b,0x6f,0xce,0xcf,
/* Mode 6 (6 2) */
  0x6a,0x6e,0x6f,
/* Mode 6 (7 2) */
  0x63,0x6b,
/* Mode 6 (0 3) */
  0x70,0x74,0xcc,0xec,
/* Mode 6 (1 3) */
  0xcc,0xec,
/* Mode 6 (2 3) */
  0x71,0xcc,0xcd,
/* Mode 6 (3 3) */
  0x2d,0x6d,0xcd,0xee,
/* Mode 6 (4 3) */
  0x2e,0x6a,0x72,0xd6,0xed,0xee,
/* Mode 6 (5 3) */
  0x2e,0x6b,0x6e,0xee,
/* Mode 6 (6 3) */
  0x63,0x6a,
/* Mode 6 (7 3) */
  0x6b,
/* Mode 6 (0 4) */
  0x70,0x74,0xd4,0xf4,
/* Mode 6 (1 4) */
