#include "intra.h"

double OD_INTRA_PRED_WEIGHTS_4x4[OD_INTRA_NMODES][4][4][2*4][2*4]={
  {
    {
      /*OD_INTRA_DC (0,0)*/
      {
        { 0.122173358379597016   ,-0.357458011037460999   , 0.0433353001345814295  , 0.00106197017213093188 ,    0.416776963054912741   ,-0.126778662988877022   , 0.189915083136163759   ,-0.140883339614060993   },
        {-0.398210867565112647   , 0.430064491814705685   , 0.865356334163138285   ,-0.858814084846402759   ,   -1.68848514181906806    , 0.441586481089926541   ,-1.5410103510704698     ,-0.115177803960263739   },
        { 0.0358430551585215834  , 0.793211610997894501   ,-1.29829735917580491    , 1.62046617297245565    ,    1.54236784463055132    ,-0.628408835480921524   , 1.14588578774680871    , 0.177405883231085471   },
        { 0.0778001725995280113  ,-0.930724961817276042   , 1.61368187541698282    ,-1.6659571630360368     ,   -1.89841830859603977    , 0.103990794551958379   ,-1.1860554709636395     ,-0.329931799420634997   },

        { 0.458752315532143462   ,-1.84458675632964852    , 1.63727683988843231    ,-2.04655914266122085    ,    0                      , 0                      , 0                      , 0                      },
        {-0.296641602233311319   , 1.46019059149236363    ,-1.00062461636767908    , 0.802205042645758204   ,    0                      , 0                      , 0                      , 0                      },
        { 0.382578881630491141   ,-1.76481823153275919    , 1.26091072377444879    ,-1.07295518728770389    ,    0                      , 0                      , 0                      , 0                      },
        {-0.244078741198988175   , 0.435588269797131444   ,-0.299520455394904739   ,-0.107800546785509127   ,    0                      , 0                      , 0                      , 0                      }
      },
      /*OD_INTRA_DC (0,1)*/
      {
        {-0.00522528163381587828 , 0.029529129200846823   ,-0.0185118612705264286  ,-0.00327771282662335864 ,    0.00533088864312773834 ,-0.135702686237854975   ,-0.0266315838808784469  , 0.00465521422993941513 },
        { 0.0356135119811040041  ,-0.106832345240983895   , 0.0114505262615792868  , 0.0437264144967897325  ,    0.0280623268505733985  , 0.65500516972423628    , 0.069614392833245789   ,-0.0742584231359236652  },
        {-0.0201107716044738004  , 0.0429888468426913375  ,-0.0349038506031593351  , 0.0198545640802841525  ,   -0.0363501350806990642  ,-0.0592013625323476456  ,-0.0321269635277935187  ,-0.0240204950492188575  },
        {-0.00369705922884926977 , 0.0400143027127272052  , 0.0113839616757933255  ,-0.0406462931176484951  ,    0.0311314229050677037  ,-0.298216719066175084   ,-2.92249589610439892E-05,-0.0633916939698062898  },

        {-0.031009319364813135   , 0.0749817783272412747  , 0.0498649578370451707  ,-0.118418900384107947   ,    0.0296606116457129969  , 0                      , 0                      , 0                      },
        {-0.014608945149977369   , 0.105641257939901201   ,-0.135247023196182037   , 0.145833467946879819   ,    0                      , 0                      , 0                      , 0                      },
        {-0.0047555055257900913  ,-0.0331252394851790297  ,-0.0125422126062657967  ,-0.0594974631173078722  ,    0                      , 0                      , 0                      , 0                      },
        {-0.00168994488384120755 , 0.0521938320275915427  ,-0.0572405572013026664  , 0.0353766043951625336  ,    0                      , 0                      , 0                      , 0                      }
      },
      /*OD_INTRA_DC (0,2)*/
      {
        {-0.00446378692431819921 , 0.0244444803451037349  ,-0.0888832486110885944  , 0.0327526298144972874  ,    3.93255184094857632E-05, 0.000470085827650433563,-0.0482657880094439773  ,-0.0393894773011190316  },
        { 0.010461156505625218   ,-0.0288331244479240571  , 0.0567740299198471465  ,-0.0457530432926589459  ,   -0.0272689983858308282  , 0.0135911321867025238  , 0.647176063603070006   ,-0.00118460779869213875 },
        { 0.0267098534623986805  , 0.0143126278100788144  ,-0.122895552949592451   , 0.156797061427829509   ,    0.0335705800369580434  , 0.0374516610280665949  , 0.0550752154385427337  , 0.00167734774800562363 },
        {-0.0183822665731417367  ,-0.0316832162410303902  , 0.110364340584474724   ,-0.193631856806618124   ,   -0.033433340129012605   ,-0.0372623163396883575  ,-0.356706690540826266   ,-0.0146241837849513476  },

        {-0.012783883328290134   ,-0.0774363242476224234  , 0.092355212448348864   ,-0.128583671366987923   ,    0.0182056174512109231  ,-0.0596668124534905919  , 0                      , 0                      },
        {-0.00855689940097414427 , 0.0662398986280125085  ,-0.202556383288536229   , 0.0830113243100738946  ,    0                      , 0                      , 0                      , 0                      },
        {-0.0284051602170478923  ,-0.0389647124870484696  , 0.0533436475941064525  ,-0.117437275664981758   ,    0                      , 0                      , 0                      , 0                      },
        { 0.0165336410289591909  ,-0.0451983454378482238  ,-0.0160107176161546627  ,-0.0361432573294498335  ,    0                      , 0                      , 0                      , 0                      }
      },
      /*OD_INTRA_DC (0,3)*/
      {
        {-0.000508902346039066095, 0.000338030607862812237,-0.000969508373116093579,-0.0628614627004942389  ,    0.0029049248316005416  ,-0.0203011600489476848  ,-0.0202513058998141614  ,-0.113899711284969146   },
        { 0.00327741985925655279 , 0.0164817684735960521  ,-0.00603882620750073595 , 0.0887371412683648775  ,   -0.0141837820755049918  , 0.0991150967698831015  , 0.0201982045460670293  , 0.72951209673435724    },
        {-0.00697327677313872973 , 0.00686810678182552068 , 0.0175874142782306425  ,-0.0178392760517303017  ,    0.00957355854079092357 ,-0.0230453171946508294  ,-0.0379441735543270056  ,-0.0388844231690921929  },
        { 0.00640814216638742763 ,-0.0307305517343732792  , 0.00346482183906714767 ,-0.0630305409262234273  ,   -0.00913607800642554126 ,-0.015885623222250931   ,-0.0353083492506003974  ,-0.274291207355297051   },

        {-0.0020561067867441306  ,-0.0365527287088924929  , 0.0524499452948066075  ,-0.108353533133153102   ,   -0.000478233817044263247,-0.137494269588930046   ,-0.04350754847721508    , 0                      },
        {-0.00474127411210690988 , 0.0364653731607992165  ,-0.0514212303133366952  ,-0.0264226212876357072  ,    0                      , 0                      , 0                      , 0                      },
        { 0.0136207949977072279  ,-0.0167923240843132066  , 0.0251796158210107791  , 0.0122103596994180517  ,    0                      , 0                      , 0                      , 0                      },
        {-0.00461065370391033902 , 0.0042662338317097509  ,-0.0213615226138666146  , 0.0388124319903821527  ,    0                      , 0                      , 0                      , 0                      }
      }
    },
    {
      /*OD_INTRA_DC (1,0)*/
      {
        {-0.00586463560997968567 , 0.0439458301432536919  ,-0.0233613414135856456  ,-0.0111584046340939425  ,   -0.035180952990012164   ,-0.00847436438225987118 ,-0.0124164852004737692  , 0.0142026104534013504  },
        { 0.0214352337608286064  ,-0.119624696348797521   , 0.0866938374319722038  ,-0.000403212476975565396,    0.104686527252541364   , 0.0822651097753855504  , 0.0128942625942116244  , 0.0315375661407046107  },
        {-0.00635059578051975354 , 0.0218074416372183826  ,-0.0238597768504699055  , 0.0413252492702683091  ,    0.033281342231702267   ,-0.054984761014519698   , 0.0210822269339779773  , 0.0062853829466458476  },
        { 0.00451851282982284469 , 0.0770751681151684159  ,-0.0196803242356286372  , 0.00181168217739950373 ,   -0.0826328313934862752  , 0.107204931353576893   , 0.0174710984708630994  , 0.0211540801170892294  },

        { 0.00855740420961243788 , 0.00950014968865431179 ,-0.0345151843645419634  , 0.0333811269275569589  ,    0.0312316872478095205  , 0                      , 0                      , 0                      },
        {-0.147477083143615517   , 0.691558635144795653   ,-0.160124883050268368   ,-0.276269284518293856   ,    0                      , 0                      , 0                      , 0                      },
        {-0.0159747331992568554  ,-0.035228874099609328   , 0.0390328000854204618  ,-0.0543393904552477783  ,    0                      , 0                      , 0                      , 0                      },
        {-0.00393037069228612153 ,-0.0226043172739100531  , 0.0540470227078072019  ,-0.0176716538791452452  ,    0                      , 0                      , 0                      , 0                      }
      },
      /*OD_INTRA_DC (1,1)*/
      {
        {-0.00173927426068217644 , 0.00308845814614039978 , 0.00353536072223384389 ,-0.00568320963587415524 ,    0.0021289755108214411  ,-0.0519660214829876996  ,-0.00325625424208367611 ,-0.000950488650400806655},
        { 0.00380696775364779529 , 0.00446870038891242216 ,-0.0111733815534978426  , 0.0160487861331310537  ,   -0.0129741989105426545  , 0.140661700330060757   , 0.00212818815057797461 ,-0.00241647862005442589 },
        { 0.00326485726890807845 ,-0.0170266870779533577  ,-0.0200031412951461249  , 0.0196287241616106244  ,    0.0134021013298076374  , 0.02419529197488084    , 0.0021170483049584893  ,-0.00735332143359699458 },
        {-0.00371601579010783986 , 0.00224133682539038454 , 0.00487874782406801447 ,-0.0262005841357094392  ,   -0.0149966499285561928  ,-0.119513668159214909   , 0.00014510678772785231 ,-0.00348933939856389905 },

        { 0.00149450301288041256 ,-0.0101558349138529853  , 0.0117006780698932587  ,-0.0127383179878659391  ,   -0.0019871492048861108  ,-0.0194473047085422165  , 0                      , 0                      },
        {-0.0391250715592022097  , 0.0813549975350825322  , 0.0886307669917062307  ,-0.170209484975775732   ,   -0.0134092691685517278  , 0                      , 0                      , 0                      },
        {-0.0104652002301202692  , 0.064063693421669024   ,-0.0197718859832834333  , 0.028488433240954323   ,    0                      , 0                      , 0                      , 0                      },
        { 0.00754955416886722575 ,-0.0313806779667835795  , 0.0253342830068694277  ,-0.0143937417746130177  ,    0                      , 0                      , 0                      , 0                      }
      },
      /*OD_INTRA_DC (1,2)*/
      {
        {-0.00119134569477741216 , 0.00217857721544502045 ,-0.00345771424312553855 , 0.00300020087575850582 ,    0.000341679218998510901, 0.000853673820377306991,-0.045848832715581947   ,-0.00363544095729792602 },
        { 0.00324095234196181267 , 0.00473512804152971187 ,-0.0168390272054942634  , 0.0144020964636589321  ,   -0.00164098024367414445 , 0.00104145246843264272 , 0.157264483327566346   , 0.00307801757651680798 },
        { 0.00256678079207208138 , 0.0118241330702972183  ,-0.0075592889865990073  , 0.020512372987850646   ,    0.00228002854254900997 , 0.0130033538252596337  , 0.0356575581367612818  , 0.00667997923581908123 },
        {-0.00127701426560609585 ,-0.01231774256036673    , 0.000712114618414595919,-0.00705931259485697519 ,    0.00130437053921721581 ,-0.0163228131222064414  ,-0.102561645431874293   ,-0.00146454031706639903 },

        {-0.000334789491941421297, 0.00170788214043588469 ,-0.00397778565261926783 ,-0.000506231789172985856,    0.00122168433978207922 ,-0.00145526248812501255 ,-0.00942279933082572005 , 0                      },
        {-0.013589260164918137   ,-0.0434935397798318357  , 0.0990535726913309295  ,-0.0897334477344961801  ,    0.00736869341459710486 ,-0.0167408164854713354  , 0                      , 0                      },
        {-0.0051081925792221556  , 0.0266018173573774573  ,-0.0170356941659575468  , 0.0213758465317976445  ,    0                      , 0                      , 0                      , 0                      },
        {-0.00210569950378905208 , 0.026579772082348161   ,-0.0118066266428027561  , 0.0265542769864798023  ,    0                      , 0                      , 0                      , 0                      }
      },
      /*OD_INTRA_DC (1,3)*/
      {
        {-0.000221496921896732654, 0.000271122623098217822, 0.00127125811593211411 ,-0.00257913669930395035 ,    0.000251908900274644507,-0.00862171739069693063 ,-8.69985369981932907E-05,-0.050730409396481338   },
        { 0.000821058361007665979,-0.00347330336185017923 ,-0.00132506617315910073 ,-0.00501036226438559586 ,   -0.000600289192358316936, 0.0230114365580822884  ,-0.00317727339407958536 , 0.156869540512359101   },
        {-0.00133366246812802549 , 0.00228514380813146052 ,-0.00788108291322743224 , 0.0094531232690921365  ,   -0.000272492158790321542, 0.00275260969759436383 , 0.0049785552907307554  , 0.0387099052181491821  },
        { 0.000827339992757115082,-0.00778046648562363743 , 0.0102327717080062577  ,-0.0103212786449696954  ,   -0.000514664126840974211,-0.00957491302990218229 ,-0.00405223121968339376 ,-0.114725817991712012   },

        { 2.13716010222230206E-05,-0.00159452716762845028 , 0.00342558941534499986 ,-0.00686458460168073038 ,   -6.64007246080131601E-05,-0.00228019985711511337 ,-0.000225860396931839593,-0.0172487760448729877  },
        { 0.00125944275185408739 ,-0.0335856297798633671  , 0.0436797560509919608  ,-0.023374825102791489   ,    0.00238968388373706191 ,-0.130648930795983748   ,-0.00558059160052275845 , 0                      },
        {-0.000637513684101227523, 0.00798458568244740999 ,-0.00920911469102688764 , 0.00234602958835906537 ,    0                      , 0                      , 0                      , 0                      },
        {-0.000599516947947517707, 0.00107155096451648653 , 0.000918154365187193438, 0.00865787135191964374 ,    0                      , 0                      , 0                      , 0                      }
      }
    },
    {
      /*OD_INTRA_DC (2,0)*/
      {
        {-0.00413542770897877294 , 0.00368611666496343861 , 0.0358892912708339909  ,-0.0478718833233639091  ,   -0.00924444842264782185 ,-0.0182287571426883212  ,-0.0321184716445470086  , 0.041672413630556196   },
        { 0.00843017314453646353 ,-0.0272145467364622133  , 0.0268461031568221521  , 0.0167670363920655908  ,   -0.0842985297433929831  , 0.083438124994979504   ,-0.0889805556459268704  , 0.0622981233395418083  },
        {-0.0436756363322958335  , 0.00844636366770385588 ,-0.162618577980864154   , 0.0825061087016361883  ,    0.103634525347327394   ,-0.156480197415496125   , 0.185493000551947868   ,-0.0554685182372356145  },
        { 0.00847944732364738427 ,-0.0194738444929683369  , 0.0361401203498299822  ,-0.0481890983649426036  ,   -0.102453618452569659   , 0.105428179823610593   ,-0.0855925745497987389  , 0.114983356788518232   },

        { 0.000815403144577609676,-0.0284364742151467301  , 0.0480614788172205459  ,-0.0456913145059717474  ,    0.0135050477109061959  , 0                      , 0                      , 0                      },
        { 0.014767827008684278   ,-0.0522523333145720331  , 0.11692699311471276    ,-0.0711735504526126994  ,   -0.0258944246789900856  , 0                      , 0                      , 0                      },
        {-0.122352294718974505   , 0.786921666242696438   ,-0.101139416534074267   ,-0.255880703464755554   ,    0                      , 0                      , 0                      , 0                      },
        { 0.0346739540855813613  ,-0.0992803226863859384  , 0.10859593977416436    , 0.0132346667045128916  ,    0                      , 0                      , 0                      , 0                      }
      },
      /*OD_INTRA_DC (2,1)*/
      {
        {-0.00151412410050003055 , 0.00300953046673390224 , 0.00229997879667726175 ,-0.006203594745331064   ,   -0.000864448234666706397,-0.013127393213700345   ,-0.0058570726391018596  ,-0.000404787768453928188},
        { 0.00404355188372537006 ,-0.00648829643384004739 , 0.0147456804397588636  ,-0.000303710659649864304,    0.00172482143753399848 , 0.00919882167737021833 , 0.024422286775878644   , 0.00115208213193225811 },
        {-0.00288889253971371524 , 0.0379654551516580285  ,-0.0261790050159272994  , 0.00987579710073867821 ,    0.000791323503347424856, 0.026648088477995352   ,-0.0423258156289691087  , 0.00617495067139876321 },
        { 0.00152316313361124957 ,-0.0443230237811634425  , 0.0226130936114777858  ,-0.0356247457730832703  ,    0.000431743271721130733, 0.0029892606182825689  , 0.0410126599235492093  ,-0.0157454873458032288  },

        { 0.000341742509176570178,-0.000241184762444414218, 0.00152455289586514507 ,-0.00395555321654702217 ,    0.00206457613988502006 , 0.00449740988790001475 , 0                      , 0                      },
        { 0.000613044844908223877,-0.0345654897030768862  , 0.0312583724430183507  ,-0.0430680422448723038  ,   -0.00549254087998168449 ,-0.0239949962864153439  , 0                      , 0                      },
        {-0.0539416269114895153  , 0.18377093137805256    , 0.0653410247542837302  ,-0.134543657076504841   ,   -0.0191530417174474998  , 0                      , 0                      , 0                      },
        {-0.00394582376179076089 , 0.0252578374285395285  ,-0.0454158396487988891  , 0.015038903978589313   ,    0                      , 0                      , 0                      , 0                      }
      },
      /*OD_INTRA_DC (2,2)*/
      {
        {-0.000504311713641350566, 0.002086320902912683   , 0.000559926709579025182,-0.00320488933200007526 ,   -8.43690859836206326E-05,-0.000208562720191311698,-0.00626553790838074113 ,-0.00308954729019070458 },
        { 0.00112684500465071668 ,-0.0269685143073428446  , 0.0106484062236432194  ,-0.027962645611609202   ,   -0.00218494643246103888 ,-0.0124470138036983195  ,-0.0186083943067377987  ,-0.00573502902865766738 },
        {-0.00137826195911938719 , 0.00514083410346776598 , 0.0461578402060717555  ,-0.0053228536218172303  ,    0.00559465882730533857 , 0.0434645282354736082  ,-0.0288319924229777161  , 0.0342882900053243789  },
        {-0.000522370182903302395,-0.0214551514296789474  , 0.0381038590029373903  ,-0.032584219429087638   ,   -0.00307240568716366999 ,-0.040427032621538142   ,-0.0175812985750041298  ,-0.00766169760011894876 },

        {-0.000203636778825546901,-0.000640313411327916057, 0.00518740024871027286 ,-0.00401266219551556225 ,    0.000885185368430188623,-0.000811983057988855316, 0.00139382183440977712 , 0                      },
        {-0.00178763877230477854 ,-0.00478560222484590743 , 0.0134573968738377122  ,-0.0197139492722599972  ,    0.00160026000606486828 ,-0.0355835949061079279  ,-0.00629108262382546777 , 0                      },
        {-0.0127072600580734416  ,-0.0750867976084175354  , 0.0750131518792802737  ,-0.0794807068089325996  ,   -0.00175146421557525176 ,-0.0181039446708174574  , 0                      , 0                      },
        {-0.00190301088792581047 , 0.0402297464725281176  ,-0.0248136441189764217  ,-0.0166912385827993025  ,    0                      , 0                      , 0                      , 0                      }
      },
      /*OD_INTRA_DC (2,3)*/
      {
        {-6.00128461913586493E-05, 7.97807646819139387E-05,-0.00150817063299896496 ,-0.000286221518846750743,    0.000188782539197498793,-0.00106693847551241516 ,-0.000334107122748112772,-0.000611629212433270988},
        { 0.00105260883071956889 ,-0.00947549497762287252 , 0.0122270551158486177  ,-0.0199823006319277026  ,    0.000296494384957869249,-0.00268412297239620495 ,-0.00333937954156912197 ,-0.0345145748054092108  },
        { 9.82495934985987916E-05, 0.0140456505491094279  ,-0.01862466036959326    , 0.0739703835995399184  ,    0.00124875449916915385 ,-0.00132634730746108423 , 0.0136448576687362468  , 0.00793947546308622527 },
        { 0.00119088734693978252 ,-0.013108540583916287   , 0.0113705602168023851  , 0.0135541088332703438  ,    0.000447497584165394756, 0.00632274582041581802 , 0.00562322815605598332 ,-0.0369148294787146961  },

        {-3.51887450998217966E-05,-0.000125128976006601397,-0.000779910029902602399, 0.0031627420688815802  ,   -9.82085980637221274E-05, 0.00134452603978118222 ,-0.000630303550701591126, 0.00264175987138939297 },
        { 0.00101291848444299789 ,-0.00929450766482606966 , 0.00735563119733169402 ,-0.00797115688201729782 ,    0.000560007130429661599, 0.00719960592121213737 , 0.00200142517755005694 , 0.00375686089609408988 },
        { 0.00512544338520798393 ,-0.0521531471719912723  , 0.0454308970278951216  ,-0.0854284883933139061  ,    0.00254869118932186511 ,-0.120033997891722144   ,-0.0200717551016724345  , 0                      },
        { 0.000413855286910013462,-0.00310472226684985761 , 0.00199160663085392632 ,-0.0125506959106832672  ,    0                      , 0                      , 0                      , 0                      }
      }
    },
    {
      /*OD_INTRA_DC (3,0)*/
      {
        {-0.00141221171047230276 , 0.0039082295227604166  ,-0.0144079957979505891  , 0.0147628426997500339  ,   -0.00164476424473751514 ,-0.00392679450118234383 , 0.00780416198052094959 , 0.00163337463964496367 },
        {-0.00357042090947591118 , 0.0276229594328387465  , 0.00678500019019562164 ,-0.0322922433133876752  ,   -0.0385782601267186456  , 0.0521511496787941675  , 0.0104363928241976364  ,-0.00763191441936091237 },
        { 0.00953489739632076144 ,-0.0259169901657652774  ,-0.0210662710315736891  , 0.0597353468254468237  ,    0.0364413304884054212  ,-0.0277942058366784546  , 0.0697082194176658482  ,-0.0329601887568309118  },
        {-0.0505091677721039717  , 0.0352067695772675798  ,-0.0454225011666338704  ,-0.0804962612615002238  ,   -0.0690982979901432759  ,-0.0167297243402458745  ,-0.0159111174171839946  , 0.0985400969502957386  },

        { 0.00436445662899573837 ,-0.0185091560025227378  , 0.0100266878975704739  ,-0.009958373178825905   ,   -0.00137436663479619187 , 0                      , 0                      , 0                      },
        {-0.0398774798704184322  , 0.16040079316925393    ,-0.0448178664346043643  ,-0.0235046087299710868  ,   -0.165568656936152386   , 0                      , 0                      , 0                      },
        {-0.000233768394587034707,-0.0307410388233146058  ,-0.0201468059196908654  ,-0.0398325970563744788  ,   -0.0162738355342121645  , 0                      , 0                      , 0                      },
        {-0.186777476111765262   , 0.925086322457587262   ,-0.137751713940925585   ,-0.145536923532650991   ,    0                      , 0                      , 0                      , 0                      }
      },
      /*OD_INTRA_DC (3,1)*/
      {
        {-0.000393236853252993421, 0.000997742841810004546,-0.00203383188255643402 , 0.0023094055136638602  ,    0.000191961069870322622, 0.00303833104510534873 , 0.000569609188962327448,-0.00354051497757145546 },
        {-0.000770461239585671785,-0.0162226180831307951  , 0.0180793063753981395  ,-0.0226381453172949595  ,   -0.00218273639251937704 ,-0.0256942277484867587  , 0.012671610737421353   , 0.00964255891528044765 },
        { 0.000871773148636012843, 0.0194264185864169575  ,-0.0128381475590620409  , 0.00379274328855119802 ,    0.00301455776463708212 , 0.0102922939983646593  ,-0.0181539858149238342  , 0.00432248326673011305 },
        {-0.00759731507369693776 ,-0.0516159268671733396  , 0.0412328668224850453  ,-0.0265844736509050841  ,    0.00139058833598851208 , 0.048380426476247379   , 0.0180486931083424541  , 0.0272897041782964346  },

        { 0.000451908302473437949,-0.0010370558000677892  ,-0.00036702238539283689 , 0.000837297696195153478,   -0.000268171324060132506, 0.00379119946296769617 , 0                      , 0                      },
        {-0.00962900844002871105 , 0.018387878735653701   , 0.00801775741668649469 ,-0.0171131933670384817  ,   -0.00427103496526336137 ,-0.16506056438499539    , 0                      , 0                      },
        {-0.00154069203766086832 ,-0.0312988241428346844  , 0.026098748941151162   ,-0.00772829998564524175 ,   -0.000543705952571120845, 0.0017041078346556591  , 0                      , 0                      },
        {-0.0569582172073735682  , 0.145652595400674462   , 0.0659020714753467546  ,-0.132740835462651668   ,   -0.0279117343298611702  , 0                      , 0                      , 0                      }
      },
      /*OD_INTRA_DC (3,2)*/
      {
        {-5.75338671724778814E-05, 0.000957741421514634846,-0.000795929930671604251, 0.000289000128991958531,   -0.000164927727762308928,-0.000281958499239584148, 0.00910216339945532985 , 0.00134029421582831368 },
        { 0.000574398263998173093,-0.0155580648419757755  , 0.020062363116464775   ,-0.0109768867395002977  ,    9.33422140206518496E-06,-0.00973996840174882854 ,-0.0635282587679804472  , 0.00299944017128069571 },
        { 0.00063031483241397031 , 0.0184769540979107597  ,-0.0181384159832150803  , 0.00801339771085299128 ,    0.000771131793914718458, 0.0197770124703458318  , 0.0156340459755676502  ,-0.00152861877193122492 },
        {-3.81939669028116059E-05,-0.0215388980904002401  , 0.0543660754551291842  ,-0.0104080444418636203  ,   -0.000109748754698533655,-0.00791182193768435842 ,-0.0792032605207255574  , 0.0175023046613781742  },

        { 0.000358440344777742831,-0.000723842811454288027, 0.00146773672287454048 ,-0.000758600776150547052,   -0.000154867362337822391, 0.00208172849259639524 , 0.00199632787011356583 , 0                      },
        {-0.00227870436653806498 ,-0.0042727206453042595  , 0.0138469758850851624  ,-0.011900879220910562   ,    0.00134624432014521559 ,-0.00233923622364868265 ,-0.171011661192492725   , 0                      },
        { 3.07164219612653152E-05,-0.0162608450212069142  , 0.0186589096465914692  , 0.00298995376682662786 ,    0.00156201640419134126 ,-0.0288491317973599663  ,-0.00122928904831038537 , 0                      },
        {-0.00612801571461339852 ,-0.0708821179422533254  , 0.107625388076011033   ,-0.105304140670472349   ,    0.000530165122457059335,-0.0167845314891795321  , 0                      , 0                      }
      },
      /*OD_INTRA_DC (3,3)*/
      {
        {-0.000114500694539610006, 0.000418929731146790803,-0.000933129810156713298, 0.00150258813927360633 ,   -6.43132222546031009E-05, 0.000747647717987605506,-0.000489593066987073738, 0.00982162949175179913 },
        { 0.000351553499825828458,-0.00564205122387175396 , 0.0084933746481868945  ,-0.00107012074666959175 ,    0.00058900262200976849 ,-0.00320883825194040375 ,-0.000117734357345540428,-0.0592956871944507607  },
        {-0.000418977766061800539, 0.00541898723516828339 , 0.00125047958878499654 , 0.00341026976494913708 ,   -0.000832279664634019483, 0.00246172499872465917 ,-0.00265374806550948894 , 0.022751808778363615   },
        { 0.00184622445338143899 , 0.00151195880824805473 , 0.00233423758589174123 , 0.0534084225694115358  ,    0.00199971599964354329 , 0.00386686676519903526 , 0.000281213198097558044,-0.0357463456673180399  },

        {-8.53113397450310172E-07, 0.000338224761446590601,-0.000968102045833025833, 0.000557051358660240426,    0.00017740445101744828 , 0.000191866639439735302, 0.000174985792774496284, 0.00473898730547194034 },
        { 2.72561643197005071E-05,-0.00742628042595961085 , 0.00380779015803488653 ,-0.00459465870648355368 ,    0.000152979435649698011,-0.020216632359778091   ,-0.00133922157065852047 ,-0.157698635802732634   },
        {-0.000752884453754748182,-0.00307964930356887431 ,-0.000139258223714629138, 0.00459255761967348151 ,   -0.000891157875899030016, 0.00450773786814255562 , 0.000443652318136938289,-0.00868929987770142645 },
        { 0.00527985931896172555 ,-0.0567833681732460988  , 0.0485810685077147988  ,-0.072251979533487401   ,    0.00284722731492376147 ,-0.126803038922172845   ,-0.0101948734497642624  , 0                      }
      }
    }
  },
  {
    {
      /*OD_INTRA_TM (0,0)*/
      {
        {-0.528423743168414228   , 1.63374330197592177    ,-1.04080106924368287    , 1.47260778690270189    ,    0.727847325916014976   ,-0.291194045254792311   ,-0.372346656038639534   , 0.160487774026548596   },
        { 1.7277110735291914     ,-11.435116342575018     , 8.83512539888736192    ,-7.79722263053117359    ,   -0.879170301815561883   , 2.59672468753389696    , 1.61827821543432449    ,-2.23943019635384521    },
        {-1.27666935523917369    , 9.53000697185914092    ,-6.7247262096821947     , 6.24403628522911358    ,    0.391796633270224182   ,-2.18569667850724159    ,-1.152497798604317      , 1.89071998497198024    },
        { 1.33991039086244768    ,-8.27168698260169144    , 6.21960942346304968    ,-5.562805792743994      ,   -1.22064125646335175    , 2.33525560692846934    , 2.0901383082207472     ,-0.905918962902380387   },

        { 0.711764002118514649   ,-0.823318979865206524   , 0.280835774172285224   ,-1.25946251490877814    ,    0                      , 0                      , 0                      , 0                      },
        {-0.282087142834767546   , 1.10431190888100872    ,-1.26673135821180782    , 1.52862683034175317    ,    0                      , 0                      , 0                      , 0                      },
        {-0.572108160701598423   , 2.30434314151641972    ,-1.2342172413174457     , 1.86926504570665131    ,    0                      , 0                      , 0                      , 0                      },
        { 0.105830955931646278   ,-2.43356135318760058    , 1.76715850189686741    ,-1.56159060907073499    ,    0                      , 0                      , 0                      , 0                      }
      },
      /*OD_INTRA_TM (0,1)*/
      {
        { 0.0195141708859778613  ,-0.043828178134114118   ,-0.0662667469959472843  , 0.131305403856524311   ,   -0.0114868915209030489  , 0.718486236892710628   , 0.0267663491373596532  , 0.00128313453880539528 },
        {-0.0908967503075136102  , 0.253369848142656728   ,-0.121815472034514122   ,-0.0239579186530496056  ,    0.0570643837739012311  ,-1.27673135495839229    ,-0.122410850450637154   ,-0.038016520123440263   },
        { 0.0739327240223015408  ,-0.252395237803507089   ,-0.00720776819849348969 , 0.0305468456512668074  ,   -0.0519693537208981565  , 0.862862651412139248   ,-0.0844376103616270995  , 0.0316968107228280255  },
        {-0.0656107663567350036  , 0.221168735456169191   , 0.0237653946631372556  , 0.0283938751254765413  ,    0.0541780028236677758  ,-1.33498210052795785    , 0.0125711568477993394  ,-0.0288191352532199754  },

        {-0.012802182044228257   , 0.0416751838435981195  , 0.120282321426619154   ,-0.140704833389859341   ,    0.00577778166441047895 , 0                      , 0                      , 0                      },
        {-0.00309687920494371811 ,-0.0161976487216852448  ,-0.0748901833812329193  , 0.118884945804471259   ,    0                      , 0                      , 0                      , 0                      },
        { 0.00277573832087215852 ,-0.0585747407474292575  ,-0.0155512422820864599  ,-0.016731988425231558   ,    0                      , 0                      , 0                      , 0                      },
        {-0.0131790315600092724  , 0.0822738644706121902  , 0.022899341716409595   , 0.0560203233967787387  ,    0                      , 0                      , 0                      , 0                      }
      },
      /*OD_INTRA_TM (0,2)*/
      {
        { 0.00509842231222091755 , 0.0930197181239226095  ,-0.182889144501641454   , 0.185915549095723887   ,   -0.00817716514259659959 , 0.0577475027317600129  , 0.701796906222787897   ,-0.00298843164966579745 },
        {-0.00562542345763066606 ,-0.184926065214376267   , 0.282379362457067851   ,-0.470308924953666829   ,    0.0247507581385070577  ,-0.122908496883409254   ,-0.993432009532702165   ,-0.0275380274482173067  },
        { 0.00714043585573987619 , 0.155398992868999664   ,-0.25603524322073723    , 0.302815936775278183   ,   -0.0229359225082118971  , 0.148158955429087358   , 0.678937230400060487   , 0.00973569381508852978 },
        {-0.00910956214108120561 ,-0.174731387974255581   , 0.0584832935305079626  ,-0.197417888762147442   ,    0.0254062507406815005  ,-0.0484764931749593619  ,-1.05897451612155158    , 0.0133110414149242347  },

        {-0.00345036846836788494 ,-0.146487869078953836   , 0.171777993865748851   ,-0.140369989042879673   ,    0.00583094243253969632 ,-0.0721123987485420143  , 0                      , 0                      },
        { 0.00411361408202132357 , 0.055028599316187761   ,-0.119678538623037636   , 0.0809099209663634994  ,    0                      , 0                      , 0                      , 0                      },
        { 0.0013313803185950174  , 0.027227852472318511   ,-0.0614807464705163786  , 0.0669345019945375569  ,    0                      , 0                      , 0                      , 0                      },
        { 0.000786684488827722826,-0.0064898584982217896  , 0.326771812480297852   ,-0.061151118387494173   ,    0                      , 0                      , 0                      , 0                      }
      },
      /*OD_INTRA_TM (0,3)*/
      {
        {-0.00222083369482307122 , 0.0463705400328266737  ,-0.0594642342365590826  ,-0.00122497626871043239 ,    0.000959780989083905845, 0.0849369135937814435  , 0.0506463621395481095  , 0.67989250878994878    },
        { 0.00710917263531333273 ,-0.128357473274398087   , 0.17291116254016764    ,-0.16401638441923419    ,   -0.0109772025608255094  ,-0.145378276344646257   ,-0.0785444483202135668  ,-0.914656399472707271   },
        {-0.00902895825661082126 , 0.104876577126875883   ,-0.127832409444670864   , 0.227944678275382728   ,    0.00804312416348595439 , 0.119119450592888546   , 0.104792256778969015   , 0.766837455434788984   },
        { 0.00349807429862632408 ,-0.120818551292626156   , 0.108863298337644923   ,-0.31957981714264283    ,   -0.00178148788683776598 ,-0.145005648216399691   ,-0.0751004466323908632  ,-1.01375718959607086    },

        { 0.00289956815091059472 ,-0.0865419844836014945  , 0.0874785171095083108  ,-0.114950810380332141   ,   -0.00146087890367377609 ,-0.12760671270214527    ,-0.0701618906094865491  , 0                      },
        { 0.00123462316267275787 , 0.00686496773108123855 ,-0.0118362202317238603  ,-0.00210634010349392432 ,    0                      , 0                      , 0                      , 0                      },
        { 0.00097780007579259141 , 0.0221034188676216478  ,-0.0383823714990397316  , 0.000140168930946066197,    0                      , 0                      , 0                      , 0                      },
        {-0.00251973090194027418 , 0.0342665615462800499  , 0.0217507699181483313  , 0.209560573290121815   ,    0                      , 0                      , 0                      , 0                      }
      }
    },
    {
      /*OD_INTRA_TM (1,0)*/
      {
        { 0.0216597391712067891  ,-0.076112993659784467   , 0.0417071484011813098  ,-0.0598888385795421224  ,   -0.0130160229641321148  , 0.0014765451777256969  ,-0.000675987524279260594,-0.0132142477917226771  },
        {-0.0733541387230460806  , 0.342561329649710922   ,-0.254417531146933273   , 0.308930210564816454   ,    0.0441524765026927307  ,-0.0189749843118835956  , 0.041525443959650285   , 0.0775705948514831684  },
        {-0.0262904431170220589  ,-0.146958962982562308   , 0.124441770915124789   ,-0.138776432310438846   ,    0.0599383720842941239  , 0.0382062347369269487  ,-0.0410045105541088986  , 0.0311097431505688755  },
        { 0.0640790642730854898  , 0.00434711574353078417 ,-0.0730549900032351068  , 0.157784519147609714   ,   -0.1185472226181601     , 0.0646379993595604246  , 0.0718247132621095963  , 0.0322502567401695139  },

        {-0.0115624982205160837  , 0.0443183847205758305  ,-0.0229588260779186697  , 0.0418979731831594857  ,    0.0051344291386311771  , 0                      , 0                      , 0                      },
        { 0.644355718799412225   ,-0.830172385357110021   , 0.435920086538955254   ,-1.06512009181223455    ,    0                      , 0                      , 0                      , 0                      },
        { 0.0380207111751139568  ,-0.301997291469204121   , 0.172713988877002789   ,-0.0994080889912623972  ,    0                      , 0                      , 0                      , 0                      },
        {-0.0407512215798938454  , 0.27101469090475816    ,-0.172384067657548073   , 0.279089590041832869   ,    0                      , 0                      , 0                      , 0                      }
      },
      /*OD_INTRA_TM (1,1)*/
      {
        {-0.000313230446753912789,-0.000196273925787679356, 0.00393211659874720745 ,-0.00646285258791988015 ,    0.000140871876569111689,-0.022616661959098356   , 0.000400416651856106808,-0.00226708546030179566 },
        { 0.00111399226407835322 , 0.0174237992538652173  ,-0.0260100465106723223  , 0.0310047534204603743  ,   -0.00070628927219731452 , 0.0964559600352518365  , 0.00663224371611173275 , 0.00512695413553424656 },
        { 0.0012205164986450591  ,-0.0182047756227154238  , 0.00761885540917509301 ,-0.00291113245341661836 ,   -0.00132296824401172543 , 0.0469955814916671114  ,-0.00245964866759632332 , 0.00161295908825064395 },
        {-0.00298018670709258035 , 0.0167115554382839052  ,-0.0139725230276449962  ,-0.0175205683490976885  ,    0.00155217793000403653 ,-0.115730588761099151   , 0.00292104810001681718 , 0.00541421439486908067 },

        { 0.00011210232623294435 ,-0.00132878600536153108 ,-0.000670020086751650797, 0.00263902308770458524 ,   -1.34260216316930424E-05, 0.0072091625529641561  , 0                      , 0                      },
        {-0.0175707131765637271  , 0.0502067138682246658  , 0.092778822347294565   ,-0.14448388826519587    ,    0.00423479265894653734 , 0                      , 0                      , 0                      },
        {-0.00236369705393741367 , 0.017976707486476045   ,-0.014021917703850072   , 0.0188428158541361149  ,    0                      , 0                      , 0                      , 0                      },
        {-0.00127262698182655648 ,-0.000731426310826730104, 0.00143272288097347471 ,-0.0196143496394667362  ,    0                      , 0                      , 0                      , 0                      }
      },
      /*OD_INTRA_TM (1,2)*/
      {
        {-0.000115432003138494363,-0.00374239315573472861 , 0.00409663018371773154 ,-0.00253613355018697138 ,    0.000216097999654249516,-0.00279160007253687189 ,-0.0227734183125467282  ,-0.00322630454157414766 },
        { 0.00193732285083145087 , 0.0192484904991092227  ,-0.0393378773142537344  , 0.0332046010119729715  ,   -0.00159753555705482108 , 0.0181820380308148309  , 0.131000674877564727   ,-0.0160644127916835348  },
        {-0.000665144230961044669,-0.00694551434076530125 , 0.0245292491817764718  ,-0.015549927407077304   ,   -0.00156311856400116896 ,-0.0139410569901093229  , 0.0257507913300139418  ,-0.020776993673533941   },
        { 0.000562535878686597625,-0.014210863808853301   ,-0.00436451695321218077 ,-0.0101569869320019684  ,    0.000948017665082479108, 0.0135924980059559612  ,-0.0947530373590928232  , 0.0141390304934495108  },

        { 0.000168578356185632324, 0.00128886548210875346 ,-0.00432220821315863844 , 0.00566078514190041047 ,   -0.000239852138052703824, 0.000654680053973845616, 0.00884107424055279902 , 0                      },
        {-0.00434086895342405011 ,-0.13059286595759606    , 0.192702506974689158   ,-0.174398775782715593   ,    0.0102229690497184587  ,-0.0750989269836345591  , 0                      , 0                      },
        { 0.000426363230193983148, 0.00349582109396542971 ,-0.00268525497766205741 ,-0.00706961767836204649 ,    0                      , 0                      , 0                      , 0                      },
        {-0.000383063128630855264, 0.00814594126623653138 , 0.0202444222199546116  ,-0.0172486598326888688  ,    0                      , 0                      , 0                      , 0                      }
      },
      /*OD_INTRA_TM (1,3)*/
      {
        { 7.98816166590187056E-05,-0.00240300913373906388 , 0.00244900033576310201 ,-0.00405219778303996577 ,   -0.000105147957167642836,-0.00398388807377701888 ,-0.00144933472454931793 ,-0.02463490344141641    },
        { 0.000351740423825608794,-0.000805858226790984763,-0.00728866793601633603 ,-0.0108868388806606081  ,    0.000103736680344154885, 0.0174032320704228041  , 0.00911559803262904436 , 0.113790799675293597   },
        {-0.000211935527606196833, 0.00792277473580817355 ,-0.00708641576991517457 , 0.022163100648702163   ,    9.97086290365289349E-05, 0.00692754570136568451 ,-0.00373205754478649412 , 0.0251933918269364003  },
        { 0.000312361082320455072,-0.0151919815020990553  , 0.00660991886716946492 ,-0.0332714774441994765  ,   -4.53527993626284397E-05,-0.0178437683434090298  , 0.00642031783205089263 ,-0.0885115473980992579  },

        {-3.32895670440878782E-07, 0.000387068312729322162,-0.00108108314999091448 , 0.00103546779407193233 ,    4.95799985923070982E-05, 0.00152404349738621413 , 0.000430525835564059853, 0.0115775445452723311  },
        { 0.00412762220915849961 ,-0.0904237943599549565  , 0.0935165514462934361  ,-0.0916855048315445009  ,   -0.0023391322691986142  ,-0.125367636263111731   ,-0.070952328662103839   , 0                      },
        { 0.000197182337950085868,-0.00532056712269611022 , 0.0115685633217967529  ,-0.0147662488296954105  ,    0                      , 0                      , 0                      , 0                      },
        { 2.26222240749783678E-05,-0.00255822540749342433 ,-0.00586884798437302315 , 0.0167465730301353602  ,    0                      , 0                      , 0                      , 0                      }
      }
    },
    {
      /*OD_INTRA_TM (2,0)*/
      {
        { 0.00753409241394864451 ,-0.00714370186218926759 ,-0.00240360602607006361 ,-0.00513627906247963832 ,   -0.0023648266819360263  , 0.00514687952967312397 , 0.00336767900249136795 , 0.000318994503924971103},
        { 0.0841193720335181583  ,-0.183180903320368987   , 0.136978178063025119   ,-0.109113557881496029   ,   -0.143315269918817323   , 0.0643543619249781484  , 0.0948183710623347192  ,-0.106753511793035175   },
        {-0.182431104294335428   , 0.338229872838552714   ,-0.243693063734755189   , 0.0879349991759211386  ,    0.14280130055136725    ,-0.121403835108245428   ,-0.0804787054770003257  , 0.252804838055754211   },
        { 0.121308999733439768   ,-0.435610442725812508   , 0.307409048617016234   ,-0.241114937072924251   ,   -0.132670051123247063   , 0.0864150398193693076  , 0.00707477875980653918 ,-0.105686021553421564   },

        {-0.0110671007222086018  , 0.0275782850734607038  ,-0.0226314100464305307  , 0.022995765516819526   ,    0.00396140537003094283 , 0                      , 0                      , 0                      },
        { 0.0967239172356572779  ,-0.198345664531949878   , 0.209173314434131341   ,-0.186704534317865378   ,   -0.101019751865012788   , 0                      , 0                      , 0                      },
        { 0.632774282010091671   ,-0.666473462619706414   , 0.483068943649749116   ,-0.87936799926469067    ,    0                      , 0                      , 0                      , 0                      },
        { 0.0358594336106764985  ,-0.127117463231566724   , 0.157178786307925145   , 0.0159672272085425865  ,    0                      , 0                      , 0                      , 0                      }
      },
      /*OD_INTRA_TM (2,1)*/
      {
        {-0.000186857420827251861, 0.00161379676850860508 ,-0.0024433319101574663  , 0.00293849708264947882 ,    0.000198503516052273715,-0.0024900311796387754  , 0.00170035907357481858 , 0.000974783442319980347},
        {-0.00293023813371690338 , 0.00130531707163975301 , 0.0123170829611464645  ,-0.00944576388507621656 ,    0.000863878034161361347,-0.138815493822452646   , 0.0013463124349375427  ,-0.0173412371215685771  },
        { 0.000865894984718262634,-0.0137919350417766654  ,-0.00766556903561307727 ,-0.00277069888558797821 ,   -0.00453438218079039914 , 0.181664914817772749   ,-0.011726120531160707   , 0.0449293450570589781  },
        {-0.00302586345843170075 , 0.018738720017046781   , 0.00395665683717835292 ,-0.013329405751902848   ,    0.00202025020695985671 ,-0.165013109477688963   , 0.00649406481485119598 ,-0.0178368402029638676  },

        { 0.000329105575471991783,-0.00121314479551043789 , 0.00151419211128446009 , 0.000329932775934177057,   -0.00025985402866869991 , 0.00859912519188078817 , 0                      , 0                      },
        {-0.00199550147225387251 , 0.0180592564399265493  ,-0.00334819844294575314 ,-0.00270518113748767367 ,    0.000972277535630115689,-0.0860922067740948482  , 0                      , 0                      },
        {-0.0178999523400496657  , 0.0895863433665975151  , 0.0511931418145267145  ,-0.0838153654088356487  ,    0.00741106938531487652 , 0                      , 0                      , 0                      },
        { 0.000365740448548024656, 0.0194346537044175448  , 0.00536602166540206798 , 0.0112286219064035037  ,    0                      , 0                      , 0                      , 0                      }
      },
      /*OD_INTRA_TM (2,2)*/
      {
        { 0.000313054141040412803,-0.0022108745484171145  ,-0.00174720962826143615 ,-0.00269593900822825971 ,   -0.000234064100768007139,-0.000384319925440957473,-0.00151666506978224438 , 0.000751802149223098921},
        {-0.00135742748834952512 , 0.0112831485904215552  ,-0.0332346451467676676  , 0.0112944625751309948  ,    0.0032477613538454196  , 0.00438028243904760219 ,-0.0980279522783991386  ,-0.0203321091590409966  },
        {-0.00283925180381688468 ,-0.0226350372799345653  , 0.160943169142238385   ,-0.0498101846326411066  ,   -0.000626113761395559964,-0.00744955098100708556 ,-0.00514463778690165113 , 0.0118950096218297784  },
        {-0.000280784698000337936,-0.00755786309322531869 ,-0.0167987157934457211  , 0.0550193604418285145  ,    0.00673231227928409309 ,-0.00728761014679120498 ,-0.120970396838833219   ,-0.0540871496753629957  },

        {-0.000192076250920715773, 0.0018792428642080642  ,-0.00053869706922873991 , 0.004820948565883801   ,    5.94205083552895417E-05, 0.000143912161256879432, 0.0070749997659228063  , 0                      },
        { 0.000420317637884521701, 0.012867597055275723   ,-0.023314638304609614   ,-0.00264217052636905782 ,    0.000486630270367982662,-0.00948602944544841252 ,-0.0681612031312864297  , 0                      },
        {-0.00019244167274059016 ,-0.096432422920469954   ,-0.0393482556577043133  ,-0.0726065959201351863  ,    0.0105884444196376638  ,-0.0482624488460957971  , 0                      , 0                      },
        {-0.00337137682639473274 , 0.00573647284297394439 ,-0.0279917054070800593  ,-0.026839908164642455   ,    0                      , 0                      , 0                      , 0                      }
      },
      /*OD_INTRA_TM (2,3)*/
      {
        { 5.26227077146627711E-05,-0.000959705924732976215, 0.000260160921401048615,-0.0042306335850227526  ,   -6.0995875427101017E-05 ,-0.000593919698737374645,-0.00135211570392659484 ,-0.000622630972211012318},
        { 0.00112703581431506088 ,-0.0140224396429993216  , 0.00813664008907908666 ,-0.0378746617549819975  ,   -0.00107089689658868069 ,-0.0146532921915339953  , 0.0117879190687137422  ,-0.0635837626044180176  },
        {-0.000955105060493613412, 0.0257363332197053513  , 0.00664010273828748252 , 0.188654956335264024   ,    0.00131167458116357417 , 0.00172383469926940154 ,-0.0228251265791497293  ,-0.044943271270511613   },
        { 0.00188333377423284109 ,-0.0219874943760585348  , 0.00604929032669268563 ,-0.00506761954584567399 ,   -0.00162563314766201372 ,-0.00912090864468034952 , 0.0201815591440572713  ,-0.0873691757667000857  },

        {-2.89143561135546685E-05, 0.00176588827256102948 ,-0.00224041880796687189 , 0.00479547733957798577 ,    2.93971972894446416E-05, 0.00152353112081026138 , 0.00201170779077324436 , 0.00760455100688555135 },
        { 0.00111948033606471377 ,-0.0138063646597429562  , 0.0111228603474596115  ,-0.0399652681972223686  ,   -0.000933231123286554329,-0.00422456070486547635 ,-0.00231349605101492488 ,-0.058991998263894424   },
        { 0.0067427850803812809  ,-0.12611704429246956    , 0.0900798594462031421  ,-0.32446572200370033    ,   -0.00424772389405727712 ,-0.13791162483478836    ,-0.0521072891364495264  , 0                      },
        { 0.000120173827664030156,-0.00235328427225661328 , 0.00507057566497481037 ,-0.0479174117589010323  ,    0                      , 0                      , 0                      , 0                      }
      }
    },
    {
      /*OD_INTRA_TM (3,0)*/
      {
        {-0.00364866597922491051 , 0.0121611436650673581  ,-0.0156026087014339912  , 0.0118468943256322679  ,    0.00506137778427468224 , 0.00305171246367376024 ,-0.00132231756010045098 , 0.00110249681397431212 },
        { 0.0618137552599475545  ,-0.154292740276203377   , 0.121523430789861261   ,-0.149508460432932033   ,   -0.0966907384783653734  ,-0.00918745102097894006 , 0.0275377973359519773  , 0.0426183800660080575  },
        {-0.0624952293265408632  , 0.264722244838873744   ,-0.154925477375206067   , 0.106659780810688651   ,    0.0762985870333815208  ,-0.0232198319734960926  ,-0.0272015498168434976  , 0.0470222289631635898  },
        { 0.0564042464144971153  ,-0.35322226310811311    , 0.191362486025462325   ,-0.280627681382350835   ,   -0.0165837892161808734  , 0.0559153120585563976  , 0.0135832079069360297  , 0.161558393034466702   },

        { 0.00225519407977896715 ,-0.0149331791841617358  , 0.0169237449130061092  ,-0.0163769358528610756  ,   -0.00311817995474466831 , 0                      , 0                      , 0                      },
        { 0.0858028800256894902  ,-0.0871985520831210781  , 0.0455633730750758317  ,-0.0924230617091987561  ,   -0.136590757750831765   , 0                      , 0                      , 0                      },
        { 0.075331910097712132   ,-0.193073937744210389   , 0.127687714101333977   ,-0.137550935172925437   ,   -0.0860322176592677734  , 0                      , 0                      , 0                      },
        { 0.743942303877283329   ,-1.06318272941463388    , 0.618128781826677742   ,-0.961911893735286738   ,    0                      , 0                      , 0                      , 0                      }
      },
      /*OD_INTRA_TM (3,1)*/
      {
        { 3.85982828405349748E-05, 0.000536443425005428908,-0.00185838725001235064 , 0.00134959784764160351 ,    5.85258028045627628E-05, 0.00550769764378401371 , 0.000181373856777029911, 0.000129569213778079663},
        {-0.00119718014979386432 , 0.00106480289053147311 , 0.0176760950850929077  ,-0.0189709806190298327  ,   -3.27614686666122669E-05,-0.0911729858337629734  ,-0.00378600911270179745 , 0.00162376200281845852 },
        { 0.00157901469260774579 ,-0.00201571070947827386 ,-0.0114652009599643234  , 0.00880465971251719742 ,   -0.000590287517782183118, 0.0924052176201313608  , 0.00253391880209078053 , 0.00840741177338565591 },
        {-0.00335760669954062764 ,-0.00624686830090559215 , 0.0160512925532073775  ,-0.0379593460609825781  ,    0.00210987013225610908 ,-0.0744574114255686648  ,-0.00548924910724808528 , 0.0274423521592278181  },

        {-9.83942190622328109E-05,-0.00047784141183908758 , 0.00120275580337945564 ,-0.000755529214756122075,    4.97700083134920977E-06,-0.00350766511893374315 , 0                      , 0                      },
        {-0.0037840465361956557  , 0.015546285495494536   , 0.0063296245218097541  ,-0.00995268786223663798 ,    0.00195150470596736178 ,-0.12859572796296298    , 0                      , 0                      },
        {-0.00129585537336678026 , 0.00845935932902964864 ,-0.00277873344145230898 , 0.00254940718984302808 ,    0.000644935523303130339,-0.0837602265657624023  , 0                      , 0                      },
        {-0.0175294952558031417  , 0.0770914341898283895  , 0.0489460111751290616  ,-0.0903989548353792832  ,    0.0105665912739764042  , 0                      , 0                      , 0                      }
      },
      /*OD_INTRA_TM (3,2)*/
      {
        { 9.22622299643729077E-05, 0.000629359942212383435,-0.000614645436573964406, 0.00120248313130834664 ,   -5.9935120091456339E-05 , 0.001076638812978345   , 0.00740944678308972249 , 0.000441205248178668766},
        {-0.00151398817485864359 ,-0.0117086747000155113  , 0.0335991557680993119  ,-0.0215566687432350891  ,    0.00181970872757395634 ,-0.0131114320486231412  ,-0.123585244109171807   ,-0.0133034921079930243  },
        {-0.000575616204232398719,-0.00116286086966280156 , 0.0122053682285511566  ,-0.00640047540127270526 ,   -0.00236092751074473564 , 0.00813383748056432758 , 0.0648760831462861925  , 0.0251158118786994587  },
        {-0.00624693533392670433 ,-0.0307330626751097791  , 0.176893151678300081   ,-0.045571940245692201   ,    0.00459972779642796575 ,-0.0288529839569325597  ,-0.276859741043764485   ,-0.0226031011455052264  },

        {-5.05466272061225695E-05,-0.000321420894029438801, 0.00124624005844975938 ,-0.000520438875840199648,    3.27136519450151275E-05,-0.000887926021584721351,-0.00487574223228404505 , 0                      },
        {-0.00025706120702955154 ,-0.0136714851216812438  , 0.0096627697832065429  ,-0.0118050093281022554  ,    0.00141868310746996501 ,-0.00387536659167565323 ,-0.13757685078640336    , 0                      },
        {-0.000639227895815581895, 0.00685986636748049834 ,-0.0080263508118463469  , 3.82794767223968867E-05,    0.00205341480365343974 ,-0.00764428976895185734 ,-0.0642507509919715974  , 0                      },
        {-0.00332698028084716865 ,-0.0735998014623830132  ,-0.0207829540985898405  ,-0.0896299161242836151  ,    0.0105676400717891316  ,-0.0532523533804733079  , 0                      , 0                      }
      },
      /*OD_INTRA_TM (3,3)*/
      {
        {-8.95998614517291717E-05, 0.00113505202990158631 ,-0.000759356520334359569, 0.00278016682165762663 ,    8.41869953374617668E-05, 0.00105980671876081491 , 0.000756403451815197995, 0.00862228997542058284 },
        { 0.000732291651729308148,-0.00853133824858511546 , 0.00730822141015902149 , 0.00412585447845797027 ,   -0.000692379516874744197,-0.0168258972435825459  ,-0.00750265862906409134 ,-0.128841547051792571   },
        {-0.00100683253266271215 , 0.00434960959158418696 , 0.00962847595084512578 , 0.0194355633177667048  ,    0.00119754890628249186 , 0.0111751018390164585  ,-0.00778020889853656399 , 0.0620533644668614451  },
        { 0.000311636506814737919, 0.00620079844705175801 , 0.0268961394456433654  , 0.161766292940338979   ,   -0.000662971896286550992,-0.0241671370130411671  ,-0.0192990266111849988  ,-0.241101969406785993   },

        { 7.30209500455382811E-05,-0.000884200230665393603, 0.000977185929266186342,-0.000335033607610789091,   -7.00316618535942091E-05,-0.000930393098349719706,-0.000649294964086408058,-0.005397601084334268   },
        { 0.000419510605010771462,-0.0119102424507450937  , 0.00361718008664213509 ,-0.0177379973892684145  ,   -0.000254569764673884984,-0.0164278791529082029  ,-0.00602599433618937561 ,-0.137099490739133661   },
        { 0.000436294477260441827,-0.0043401204863011255  , 0.000139332345544977492,-0.0138649497024181962  ,   -0.000599580348191821894,-0.00793599179513121075 , 0.00484240560661839368 ,-0.0557704588539617296  },
        { 0.00618451416528562493 ,-0.116652805689904535   , 0.0638742769969505853  ,-0.24461428727518722    ,   -0.00418023424777975647 ,-0.13440983640675816    ,-0.0434356963434295237  , 0                      }
      }
    }
  },
  {
    {
      /*OD_INTRA_HU (0,0)*/
      {
        { 0.0984953264162096859  ,-0.0938950628443109281  ,-0.0422806094557452161  ,-0.0976086688135080205  ,   -0.102050036922811824   ,-0.0587294360274066632  ,-0.20160023277429226    ,-0.0954382193317263455  },
        {-0.0852736162256921421  ,-0.71412946828099888    , 0.574364875445232292   , 0.61350375312723826    ,    1.15755151727542915    , 0.470563053689799671   , 0.231120738848393792   ,-0.570887772953000416   },
        {-0.213611855406964674   , 0.568400025545599874   ,-0.0707337101711162236  ,-0.388001829656971498   ,   -0.691135875665285226   ,-0.279184895956570533   ,-0.214060417538134595   , 0.409766217183029413   },
        { 0.139004076511105606   ,-0.190972034260786655   , 0.0118960171049881294  ,-0.275777986636616235   ,   -0.0676780380019203903  ,-0.419021537296602964   , 0.396974940655860531   ,-0.603396934670721974   },

        { 0.948576971142192527   ,-2.27223787368686114    , 0.966212727105490887   ,-2.25942110312581557    ,    0                      , 0                      , 0                      , 0                      },
        {-1.8880574825776486     , 9.87634150143100342    ,-7.0450962011606304     , 7.09506165802109035    ,    0                      , 0                      , 0                      , 0                      },
        { 0.854488002649630096   ,-6.33312852093033918    , 4.66368493621189195    ,-4.97836163704989243    ,    0                      , 0                      , 0                      , 0                      },
        {-1.20681464023932272    , 6.39750572899469283    ,-4.69505242209130547    , 4.65459506362082731    ,    0                      , 0                      , 0                      , 0                      }
      },
      /*OD_INTRA_HU (0,1)*/
      {
        { 4.82661171411481084E-05,-0.0261098182106692042  , 0.0397329693063145917  ,-0.0439146342860230951  ,    0.00529267642404056791 ,-0.152619418592283951   ,-0.0201946252702840078  , 0.0186454980074426714  },
        { 0.0142536242827013913  , 0.036927206404688856   ,-0.101397411388602587   , 0.119991543949419577   ,   -0.0109196591251728894  , 0.664633813800931672   , 0.00838732178258425921 , 0.00327931282481496496 },
        {-0.0103837598639963669  , 0.0614017883717023275  ,-0.0269108432602960072  , 0.0440739285762861976  ,   -0.00488179514020562876 ,-0.0720100898689629287  ,-0.00815648410758959899 ,-0.000309211812395032801},
        { 0.00253306554204700248 ,-0.0712667549211071366  , 0.126501275159054682   ,-0.1500384523424656     ,    0.00536872944956604415 ,-0.30829944955635874    ,-0.0181071553669075562  , 0.0327091975617888678  },

        {-0.0102636282751305038  ,-0.0929038923667446503  , 0.212315395563393239   ,-0.271909176248870177   ,    0.00368254371904584103 , 0                      , 0                      , 0                      },
        { 0.0625156578122523093  ,-0.335892811982771489   , 0.240923446617257703   ,-0.300791079397258299   ,    0                      , 0                      , 0                      , 0                      },
        {-0.0420527395126100156  , 0.312809396692973196   ,-0.250566077468306336   , 0.259336902328576924   ,    0                      , 0                      , 0                      , 0                      },
        { 0.0522146350635154868  ,-0.318305050098692699   , 0.295174647348329044   ,-0.295366872522608792   ,    0                      , 0                      , 0                      , 0                      }
      },
      /*OD_INTRA_HU (0,2)*/
      {
        {-0.0018123586674926057  ,-0.017804802364820748   , 0.0282665826461315425  ,-0.0374535473081935508  ,    0.000317096415144597899,-0.0263414830609406334  ,-0.145570291413127023   ,-0.0104405761025476197  },
        { 0.00637463013268302087 , 0.0425712315199204619  ,-0.0995233511773971485  , 0.0799698005144104107  ,   -0.00587226764937625028 , 0.0623773899849655172  , 0.616983924300104958   ,-0.00535270084939320264 },
        {-0.0034790653930277032  , 0.0284630954721491816  ,-0.0110817953975510097  ,-0.0136173969999491724  ,   -0.00498423674685860747 ,-0.0212690936293269094  , 0.0449416536297439564  , 0.00227736828231400474 },
        {-0.00243896679564366888 ,-0.0282546396563964318  , 0.090204998675958159   ,-0.0761558952385770066  ,    0.00663326152365956243 ,-0.00165749001296960777 ,-0.333039370806351542   , 0.0934757112216202113  },

        {-0.00933649013892407648 ,-0.126675113357128805   , 0.231888483211557112   ,-0.242028221082878969   ,    0.0113884294545085769  ,-0.09116268717669683    , 0                      , 0                      },
        {-0.00428769794047343788 , 0.0146825967367086464  ,-0.072005332505613015   , 0.0826599747385249189  ,    0                      , 0                      , 0                      , 0                      },
        { 0.0102574164524298038  ,-0.0571997473293676395  , 0.0091689231970820493  ,-0.0397565451171144821  ,    0                      , 0                      , 0                      , 0                      },
        { 0.00223591647253606291 , 0.0385450695256029999  ,-0.0639629044887782411  , 0.0756230430823407462  ,    0                      , 0                      , 0                      , 0                      }
      },
      /*OD_INTRA_HU (0,3)*/
      {
        { 0.000313357649484523402,-0.00520250785964702402 , 0.00691146711749499043 ,-0.0295366621653217476  ,   -0.00132136164817950536 ,-0.0165402204719830859  ,-0.00969954238333440438 ,-0.160945344665367945   },
        {-0.00118867595179204442 , 0.0262510337285287235  ,-0.0451645012267121448  , 0.0595478008642905815  ,    0.00637558416136171837 , 0.078519648446976148   , 0.0301354566450537029  , 0.646556632559546096   },
        {-0.0010235904863699157  , 0.00812521823255051186 ,-0.0165033135351086088  ,-0.017797538440524268   ,   -0.00285279531594695088 ,-0.000544603773580302846, 0.0279296814816763043  , 0.0158876520002224908  },
        { 0.00116570631710358522 ,-0.0227058654373941231  , 0.0292092671910257513  ,-0.00292674993089116686 ,    0.00260079609950859304 ,-0.025174428087209863   ,-0.023258735400821344   ,-0.313590454734130886   },

        { 0.00219382102144850431 ,-0.0655734257493144901  , 0.0864243993182437914  ,-0.100255753543258719   ,   -0.00156583838046933698 ,-0.110774243709479872   ,-0.0480537755196512109  , 0                      },
        { 0.00167202880422795169 , 0.0178057276317324931  ,-0.0169480055585589859  ,-0.0109293251987033855  ,    0                      , 0                      , 0                      , 0                      },
        {-0.00218433242039972088 , 0.0103858103225854242  ,-0.00886555726460950752 , 0.00443132698917271615 ,    0                      , 0                      , 0                      , 0                      },
        {-0.00199605861435542481 ,-0.00516752002871935078 , 0.00820837792996834473 ,-0.00853926313496468185 ,    0                      , 0                      , 0                      , 0                      }
      }
    },
    {
      /*OD_INTRA_HU (1,0)*/
      {
        { 0.00261793044165818537 ,-0.0190760028966008056  , 0.0240630977361106085  ,-0.0416992638774221769  ,   -0.0506172945538031493  ,-0.0229542581926074768  , 0.00430074402227379349 , 0.00282241233250447735 },
        { 0.013116848662919017   ,-0.0336613584659232259  , 0.0343294746591722641  , 0.021939875785781271   ,    0.09108617999798857    , 0.231781578287215156   ,-0.0390188282182588955  ,-0.0318941606219111315  },
        {-0.0313147179412817667  , 0.124415710948426392   ,-0.067872985189221427   , 0.150532987090349984   ,    0.0917299877479768738  ,-0.230676921886764669   , 0.0373961519835396411  , 0.0214798548646045057  },
        { 0.039439615552854905   ,-0.158145688241378674   , 0.1812696406990916     ,-0.266516691930945904   ,   -0.173924021471061702   , 0.12330801823816348    ,-0.0532331541064952132  , 0.0750105871219887699  },

        { 0.0907979597995268034  ,-0.474359712189981964   , 0.372737811494990967   ,-0.383871254775197346   ,   -0.0433805051656637117  , 0                      , 0                      , 0                      },
        { 0.0086320103885474276  , 0.24628516854543403    ,-0.0694254592776334806  ,-0.462663934354209438   ,    0                      , 0                      , 0                      , 0                      },
        {-0.234090912784975791   , 1.10130110956271698    ,-0.787624458582256604   , 0.780263376328490077   ,    0                      , 0                      , 0                      , 0                      },
        { 0.15927271439737653    ,-0.739133526681102215   , 0.542040130962634481   ,-0.587593206324888206   ,    0                      , 0                      , 0                      , 0                      }
      },
      /*OD_INTRA_HU (1,1)*/
      {
        {-0.000169040650810561226,-0.00866887552033633602 , 0.0135666524525074675  ,-0.0201324690472980648  ,    0.000696133825230261009,-0.0505954810662938501  ,-0.00207207173295159523 ,-0.000515593383153355243},
        { 0.00216069366249118126 , 0.0111396568380588805  ,-0.0272092667552663453  , 0.0267114994499751505  ,   -0.00834804250709093171 , 0.127410414072527262   , 0.00791965897620493936 ,-0.00414362719960333515 },
        {-0.00253337745808042024 , 0.0109039243353937342  ,-0.0236460750944365791  , 0.0245090218354863977  ,    0.00895892582210848498 , 0.0412830716424250829  ,-0.0068412730268973352  , 0.000443630873413844754},
        { 0.000164878333976874479,-0.030095392762950899   , 0.0470752805096979129  ,-0.0427618761497907604  ,   -0.00637747607999248917 ,-0.114702012063001998   ,-0.00272181293981603066 , 0.00498795712443839568 },

        { 0.00294105938340132739 ,-0.020467258150968913   , 0.0169303030231141224  ,-0.0137341255240038054  ,   -0.00357404017919767591 ,-0.00723562624085159929 , 0                      , 0                      },
        {-0.00970551478232756226 ,-0.0889619983161846622  , 0.222519620380184302   ,-0.285782899474571583   ,    0.0045737930760327318  , 0                      , 0                      , 0                      },
        {-0.00163065684671913434 , 0.0155771928261481951  ,-0.0245624087588227936  ,-0.00235958256934284093 ,    0                      , 0                      , 0                      , 0                      },
        {-0.0074951440952723521  , 0.0527128766855613703  ,-0.0558785824921969598  , 0.0571923907457227224  ,    0                      , 0                      , 0                      , 0                      }
      },
      /*OD_INTRA_HU (1,2)*/
      {
        {-0.000300068199442936193,-0.00635393171931153064 , 0.0104506769880526491  ,-0.0146255711986443444  ,    0.000226173634554124609,-0.00449750470642352757 ,-0.0490486847613265317  ,-0.00425265883566404782 },
        { 0.00115313676824324129 , 0.0122867240789289647  ,-0.0307098321094917415  , 0.0159877530684087131  ,   -0.000814415263163155521, 0.0132612548323245722  , 0.133708881389002054   , 0.0168862779905489362  },
        {-0.000741939119504432336, 0.0147489818998357888  ,-0.014051456081357265   , 0.0310873392496352381  ,   -0.00194237205951307387 , 0.00583208576913257087 , 0.0521143360883424625  ,-0.00587428109074279985 },
        {-0.00134348678851224754 ,-0.0242956374732788451  , 0.0286928669306607577  ,-0.0347903718311492749  ,    0.00193515320312572696 ,-0.00549719590162306773 ,-0.132423208483980342   , 0.0211871338626015079  },

        {-1.77204735030362286E-05,-0.00568321318788758169 , 0.00719556555191865673 ,-0.00549488306900211901 ,    0.000122453923565655852,-0.00504599745702230193 ,-0.0141074742798832156  , 0                      },
        {-0.00447873458077451946 ,-0.127137188064130713   , 0.205998836989081169   ,-0.201602304815557576   ,    0.0129424031160653534  ,-0.0397862384413499443  , 0                      , 0                      },
        { 7.3442158806108352E-05 , 0.0116876573459874719  ,-0.00205862996371682745 , 0.0102902652638866571  ,    0                      , 0                      , 0                      , 0                      },
        {-0.00107651151553753458 , 0.000190338722743595352,-0.000826542829690134727,-0.00322447095001909866 ,    0                      , 0                      , 0                      , 0                      }
      },
      /*OD_INTRA_HU (1,3)*/
      {
        { 2.46402649336073616E-05,-0.00300595018162419601 , 0.00388797044178064346 ,-0.00476561819659327389 ,    3.60564480473867031E-05,-0.0074055386372446283  ,-0.0028879993006186099  ,-0.0528402612663851912  },
        { 0.000538841446928624832, 0.00522638678569953708 ,-0.00766211465625671675 , 0.00459313791464487867 ,    0.000470042378029530039, 0.0223163962643335954  , 0.00403418796070411766 , 0.149405621401134864   },
        {-0.000985202811815737373, 0.00604952644934261125 ,-0.0079239241250636458  , 0.00794857185391287767 ,   -0.000655235658212201212, 0.0024195785491074079  , 0.00365531084185403716 , 0.0433676288433970103  },
        { 6.01732856404092422E-05,-0.0123338742600942654  , 0.0190034443371051194  ,-0.0198868585671891154  ,    0.000571277256809031857,-0.0101891989574391661  ,-0.00731524740867983865 ,-0.117923681908431138   },

        {-0.000187982379233692738,-0.00236945443451152399 , 0.00388412784573022047 ,-0.00409791514177555889 ,    0.000121345753277406811,-0.00380086061613045664 ,-0.00218046665035957809 ,-0.0175151610254806848  },
        { 0.00369006501211422084 ,-0.0725557239592405229  , 0.0901136060943184131  ,-0.0656817695951495001  ,    0.00205242059405027523 ,-0.12133770248222453    ,-0.0340152043184158981  , 0                      },
        {-0.000739219998010908776, 0.0132761860729809413  ,-0.0176152271893586787  , 0.0299916039154040359  ,    0                      , 0                      , 0                      , 0                      },
        { 0.000154612689288138953,-0.00441472734087817488 , 0.0100614044516509678  ,-0.00691727513231810663 ,    0                      , 0                      , 0                      , 0                      }
      }
    },
    {
      /*OD_INTRA_HU (2,0)*/
      {
        {-0.00303473152477291581 ,-0.00796228895625239463 , 0.0236660504243796678  ,-0.0288754932072311753  ,   -0.0262005755083592681  ,-0.0186500062361526983  , 0.0123940926172973163  , 0.00344770784007074511 },
        { 0.0254695283107520265  ,-0.0289501132923336776  ,-0.0136586098500497584  ,-0.0209283562090034209  ,   -0.00984449809306088032 , 0.162861561675362809   ,-0.0296343873884152877  ,-0.0397971809921485384  },
        {-0.0447133007333586144  , 0.0833233223185527588  ,-0.0280464267246586206  , 0.109147883327506162   ,    0.100842496079582372   ,-0.218105902784187622   , 0.0423459765312247938  ,-0.0186059892903793073  },
        { 0.0534060738792533837  ,-0.178663949374885306   , 0.132271417098422828   ,-0.128278570671779613   ,   -0.0685912546828374575  , 0.267582394453624528   ,-0.0499455299463384614  , 0.0602106421579787221  },

        { 0.0186677599063864025  ,-0.102986096055678447   , 0.0820589450425722872  ,-0.0607384317506493646  ,    0.0123501903630087555  , 0                      , 0                      , 0                      },
        { 0.153729607488466785   ,-0.62089050950844038    , 0.515838064491047188   ,-0.543635263737875407   ,   -0.0743794001179284014  , 0                      , 0                      , 0                      },
        {-0.188195046584919368   , 0.977270528425585816   ,-0.452345691323748578   ,-0.0206973279273186712  ,    0                      , 0                      , 0                      , 0                      },
        {-0.0367128711534928862  , 0.291320343417286909   ,-0.146191494532111471   , 0.0614827031674747421  ,    0                      , 0                      , 0                      , 0                      }
      },
      /*OD_INTRA_HU (2,1)*/
      {
        {-5.57057356901338022E-05,-0.00402123962265814316 , 0.00724601695800181425 ,-0.008126500276070453   ,   -0.000690068994024104192,-0.010761446582922907   ,-0.00376620437279085937 ,-0.00305923223641883096 },
        { 0.00205053526598959106 ,-0.0101992776379347758  ,-0.000292298626424319235, 0.0024840333097891111  ,   -0.00501598914617353616 ,-0.0289374323347527072  , 0.0313111341319675107  ,-0.00475601888238507808 },
        {-0.00349359530048102759 , 0.0453306484043500546  ,-0.0268239062876188088  , 0.0391704823678521441  ,    0.0125967331771863165  , 0.0691159265023013891  ,-0.0444590294476538556  , 0.0219264914617082682  },
        { 0.00560156333252666543 ,-0.0623623278719045993  , 0.0432412557145915033  ,-0.0592770281104413183  ,   -0.0139016211773180243  ,-0.0268158535876708223  , 0.0346578619089224632  ,-0.028611068275886567   },

        {-0.000326929913194865158, 0.00333828349972207844 ,-0.00207598374531188989 , 0.00424669058156555874 ,    0.000941334626895169832, 0.00446993351294044591 , 0                      , 0                      },
        { 0.0212925396165190191  ,-0.101986037853996556   , 0.0733818683970792612  ,-0.0819206117857023824  ,   -0.0234791661355140055  , 0.0389259216237075115  , 0                      , 0                      },
        {-0.0264252664604313486  ,-0.0255850507253962967  , 0.198821596395542394   ,-0.263344264651023452   ,   -0.00775700232349971035 , 0                      , 0                      , 0                      },
        {-0.0134450331889021737  , 0.113059614993582705   ,-0.090747122674022157   , 0.076248840483259861   ,    0                      , 0                      , 0                      , 0                      }
      },
      /*OD_INTRA_HU (2,2)*/
      {
        { 0.000140921424584707875,-0.00216094530218534321 , 0.00146928933303316391 ,-0.00220084002315813852 ,    0.000139631666043628567,-0.000314117817629071749,-0.00760250769692737572 ,-0.00109635093973462806 },
        { 0.000996717862966345998,-0.00709455932226722881 , 0.0148260154110808375  ,-0.00466702674659799557 ,   -0.000265101421920773176,-0.0126313480686905052  ,-0.0226378594275954137  , 0.00243036083594800516 },
        {-0.00194810866405606235 , 0.0236705945470013675  ,-0.00880944700454299075 , 0.020146764400955107   ,   -0.00123950309201018168 , 0.0255055396715853297  , 0.0262458912747024903  ,-0.00463581841075012043 },
        { 0.002599034699888772   ,-0.0224237710183488835  , 0.0347265845474419299  ,-0.0099102297040312478  ,    0.000772275335703446596,-0.0300861284207940526  ,-0.0233695281078710945  , 0.00142599531313603706 },

        {-0.00020560231584126494 , 0.00122695802140008201 ,-0.0014752086565813366  , 0.00212794123449428245 ,   -6.72768547149910415E-05, 0.000781940087191447487, 0.00690303269478010316 , 0                      },
        { 0.00129479418953709494 ,-0.0221687093670781578  , 0.0114710870943212726  ,-0.0190010273042952385  ,    0.00155147450648827727 ,-0.0267470712994449973  , 0.0288694006132617746  , 0                      },
        {-0.000719131654932355334,-0.128900849152083441   , 0.207066193749510408   ,-0.197047917488040292   ,    0.0132928104548000487  ,-0.0322232307331014947  , 0                      , 0                      },
        {-0.00113689469077694872 , 0.0296434374976060587  ,-0.0225951938307061249  , 0.0235075411216558137  ,    0                      , 0                      , 0                      , 0                      }
      },
      /*OD_INTRA_HU (2,3)*/
      {
        { 7.95480202626537287E-05,-0.0010212393666593851  , 0.000504220160360069835,-0.000418728342165541987,    0.000218281860529315305,-0.00130522319968676723 ,-0.00109443428344879355 ,-0.00657649238736130425 },
        { 0.000548189491335976061,-0.00351797335985531371 , 0.00316290408394998218 ,-0.0101707413326049632  ,   -0.000214922145911063654, 0.0029741963554637714  , 0.00126629457540799973 ,-0.0264559027906579418  },
        {-0.000829158315515509314, 0.0104429788944614289  ,-0.0104655893725913839  , 0.0227720294614664753  ,   -0.000497360856019286998, 0.00368686970900356827 , 0.000160611855793155319, 0.0370913691360664904  },
        { 5.008641446071995E-05  ,-0.00870491089561357088 , 0.00904419032068677804 ,-0.00401283919966783156 ,    0.000520604373000038765, 0.00481262404447797745 , 0.00139046046430433071 ,-0.0301296555168805609  },

        {-0.000318729054345878997, 0.00208000498442017156 ,-0.00131074482755988279 , 0.00050621029609809623 ,   -2.38644333927855542E-05, 0.00199977701025266493 ,-0.00119812761720199373 , 0.00525296234338246733 },
        {-0.000507013394649098834,-0.00537502185426676476 , 0.0069300219481860572  ,-0.00349014826534752888 ,    0.00171778024562718105 ,-0.00129991239601332399 ,-0.00414946202351030181 , 0.00406164775378371843 },
        { 0.00658115692721589381 ,-0.0690790310251479245  , 0.0741578443320096981  ,-0.0629241706853670146  ,    0.00371228371564370644 ,-0.110843702043549361   ,-0.0186602475752230476  , 0                      },
        {-0.00328224540063824484 , 0.0230707137551657178  ,-0.0182834670978703727  , 0.0279435588774963051  ,    0                      , 0                      , 0                      , 0                      }
      }
    },
    {
      /*OD_INTRA_HU (3,0)*/
      {
        {-9.68504293891784385E-05,-0.00517714464987015493 , 0.0148296020275374158  ,-0.0189065095856618577  ,   -0.00254317285113181499 ,-0.00733595290146193436 , 0.000115716905610940731,-0.00351293036018539197 },
        { 0.0135043093639173172  , 0.00346294414021869942 ,-0.010115291478181597   , 0.0293458745620972516  ,   -0.0148492711483237672  , 0.0813318693050962271  , 0.00503031344220628441 , 0.0257419365322239108  },
        {-0.0216255627079301634  , 0.0374432962907048916  ,-0.0124721045724464023  , 0.00329901111832712687 ,    0.0171987120894994475  ,-0.108428400821450083   , 0.0254220378287224463  ,-0.0252179787597419762  },
        { 0.0222773249108127562  ,-0.0459404309933977087  , 0.045432792740015944   ,-0.0115821824479972919  ,   -0.00406820373864211909 , 0.0968236423094068627  ,-0.0608580082597435096  , 0.0345619475183228803  },

        { 0.00443850751045036292 ,-0.0277813728323112914  , 0.0285534141240277491  ,-0.0312019038173422004  ,   -0.00185621491364323671 , 0                      , 0                      , 0                      },
        { 0.00779757307228390317 , 0.0164334228037934342  , 0.0322459076354950844  ,-0.101300598654794835   ,   -0.0751466244203031764  , 0                      , 0                      , 0                      },
        { 0.0548656225356373706  ,-0.158779362482626252   , 0.106166146997968044   ,-0.060231493690279421   ,    0.0182818105425538273  , 0                      , 0                      , 0                      },
        {-0.246884328542613746   , 0.900065107488728922   ,-0.208805025991625925   ,-0.145529632238551504   ,    0                      , 0                      , 0                      , 0                      }
      },
      /*OD_INTRA_HU (3,1)*/
      {
        { 0.000164922254295106881,-0.00161849560624365441 , 0.00134887381048050302 ,-0.00295316342422327844 ,    0.000168086297023022812, 0.00327484857399141203 ,-0.000308981517456728347,-0.00275276953172790169 },
        { 0.000834669114517957848,-0.00983898159470374643 , 0.00970981449036965524 ,-0.00608095366033229237 ,   -0.00343602166491120253 ,-0.0380009050413935914  , 0.00939591744459646917 , 0.00808050468082916439 },
        {-0.00249893878905734033 , 0.0221730740983469322  ,-0.0172024520297103453  , 0.0093151585305188099  ,    0.00542166084601190638 , 0.0104546196327805763  ,-0.0226140902978308814  ,-0.00149194671247687726 },
        { 0.00606882545195204862 ,-0.0272574082456273001  , 0.0220214464808009928  ,-0.012183742884742145   ,   -0.00727143935068613224 ,-0.00339005488120066147 , 0.0284928672581482127  ,-0.00271899372880264872 },

        {-3.13054708085728996E-05, 0.000817091999088425639,-0.00177265215362879024 , 0.00146584557107880438 ,   -0.000266851706298881167, 0.00458080927800630366 , 0                      , 0                      },
        {-0.00509978180233718395 ,-0.00886911117001552493 , 0.0274716903617554034  ,-0.0353539031812852775  ,    0.00557539356034161479 ,-0.149258017670535842   , 0                      , 0                      },
        { 0.0184268896354229904  ,-0.0785945803121835956  , 0.0510979880521770999  ,-0.0401819136543213121  ,   -0.0101835532498485582  , 0.0447161974104389251  , 0                      , 0                      },
        {-0.0533355395854730185  , 0.0473468813296447771  , 0.131328310382729296   ,-0.187659853673970478   ,   -0.0183208899608434984  , 0                      , 0                      , 0                      }
      },
      /*OD_INTRA_HU (3,2)*/
      {
        { 7.04201763673808438E-05,-0.000236940275301437725,-0.0015623926640205702  , 0.000117173195074892977,   -9.05010424711595981E-05, 0.000403385596389741982, 0.00806948030880034507 ,-0.000165146311399836927},
        {-0.000722162172861348325,-0.00729363761049615315 , 0.0194960525280275694  ,-0.0152133932085128515  ,    0.00102307535516310512 ,-0.0117307391523547265  ,-0.0485906122929982212  ,-0.00738549790714695953 },
        {-0.00116292951744382633 , 0.00687622440950526759 ,-0.00904463353183311558 , 0.00667826520121316946 ,   -0.00179799713836359919 , 0.0119714804641664566  , 0.00855796032321275157 ,-0.00328531694183280352 },
        { 0.000315708421482901254,-0.00969578498987489282 , 0.0143462474364404145  ,-0.00552974650052185778 ,    0.000477463769107887314,-0.016045411138047503   , 0.0125400140317645601  , 0.0135448495832119851  },

        { 8.52850634272680163E-05, 0.00159081875084646023 ,-0.00272567101617967071 , 0.00281541861911484325 ,   -4.73415196928464956E-05, 0.00100573046912026697 , 0.00631296527034095473 , 0                      },
        {-0.000931463367535247566,-0.0223151335228407369  , 0.0419429881267717533  ,-0.0361471665096243233  ,    0.0021281183404199119  ,-0.00198166959129164209 ,-0.153531666591162907   , 0                      },
        { 0.00179899827853023274 ,-0.0167559000597793419  , 0.0061999335548751193  ,-0.00737787072073572969 ,    0.00073737491382721101 ,-0.0190237555168181367  , 0.0325476699864665764  , 0                      },
        {-0.00083764927413052968 ,-0.120948917744471654   , 0.19985770584963708    ,-0.175120590420093508   ,    0.00892490616542350457 ,-0.00630213621137811538 , 0                      , 0                      }
      },
      /*OD_INTRA_HU (3,3)*/
      {
        { 1.48194495148357799E-05,-7.43078452303957163E-05,-0.000573452850390573183, 0.000194837796946351147,    5.96175250342411016E-05, 0.000272488980381207894,-0.000423912834894562261, 0.00954745883640710502 },
        { 0.000166401005163138629,-0.00312541554007799262 , 0.00380794497066324613 ,-0.00197951279426971825 ,    0.000194126723589721105,-0.0029078663872387691  , 0.00135853499361371019 ,-0.0576317419195867611  },
        {-0.000697073072101943325, 0.00452620540457866153 ,-0.000728970190231774569, 0.00119705755632838816 ,   -0.000103366769245659941, 0.000571397260458895843,-0.00425058132312713336 , 0.0143592128335130412  },
        { 0.000276673933034309115,-0.00361926412342930808 , 0.00453379342296545557 , 0.0079541859292124751  ,   -0.000108453415103475193, 0.00153568752862244854 ,-0.00139916208918651041 , 0.00348452066326979983 },

        {-0.000188586182395000714, 0.00072337223079421318 ,-4.36932314468124565E-05, 0.000234965225785489762,    0.000119404268515667218, 0.000129803005561598034,-0.000505903807257506756, 0.00711403148709069139 },
        { 0.00105130237706876298 ,-0.0154759899286266347  , 0.011589858865915334   ,-0.00930520374083967407 ,    0.000432811862779992321,-0.0149574871544166741  ,-0.00337683442199327105 ,-0.153484475723503738   },
        { 0.000781701643838188806,-0.00307337335358229095 , 0.00555798040142830088 , 0.0028661567024141194  ,    8.14888330601186802E-05, 0.00313993726258084528 , 0.00169676242024773233 , 0.021570404028114637   },
        { 0.00421429079980432161 ,-0.0597751599694103311  , 0.0585357705923641239  ,-0.0481084551681461095  ,    0.00250690562999463483 ,-0.114061872768531858   ,-0.00750302737483184937 , 0                      }
      }
    }
  },
  {
    {
      /*OD_INTRA_HE (0,0)*/
      {
        { 0.201658224769295985   ,-0.896718650357663294   , 0.669471861920735045   ,-0.506708359753583415   ,   -0.125662488687771356   , 0.0665908182871258192  ,-0.0798433934015953806  ,-0.180679013568990188   },
        {-0.581179542424325901   , 1.88146447412896189    ,-1.46711026540997702    , 1.66106534647573811    ,    0.661405326419621908   , 0.163251670947586608   , 0.0171022162908530603  , 0.219043074460702147   },
        {-0.0647290648627338178  , 0.667903229880180027   ,-0.346995425776949418   , 0.622715472564328021   ,   -0.182080202173808325   ,-0.307413638167755854   ,-0.0145516076704275219  ,-0.227680180362337725   },
        { 0.309615826643780401   ,-1.51863064596408037    , 0.803298822445705385   ,-1.01584290511554598    ,   -0.282968176459101939   , 0.129498199929820951   , 0.154728630133945999   , 0.474652552597003285   },

        { 0.910011945024275404   ,-3.60269312691035148    , 2.68523211683401852    ,-3.14215211554783291    ,    0                      , 0                      , 0                      , 0                      },
        { 0.169669265266592373   ,-1.92668960424483982    , 1.66013417057058055    ,-0.939024551015875897   ,    0                      , 0                      , 0                      , 0                      },
        { 0.0229155931664943233  , 0.397967294398922589   ,-0.335868188949417057   , 0.325464064667779884   ,    0                      , 0                      , 0                      , 0                      },
        {-0.149516498915216539   , 0.450891843480629828   , 0.075308462494730069   , 0.136894569626783563   ,    0                      , 0                      , 0                      , 0                      }
      },
      /*OD_INTRA_HE (0,1)*/
      {
        {-0.00603420488227805751 , 0.0190439380630026481  ,-0.00532645886882197796 , 0.00193584370872456214 ,    0.00916084795470836592 ,-0.146814721058918324   ,-0.0077749268490829599  , 0.00561133875582885393 },
        { 0.0199224620328022177  ,-0.033694184682356812   ,-0.0421877950145312028  , 0.0866895249999904277  ,   -0.0188551604812049571  , 0.555121664498645528   ,-0.01475106932270147    ,-0.00516229542838741572 },
        { 0.00394167925356624267 ,-0.0276117386608571262  , 0.0217451048800215742  ,-0.0180045119209938723  ,   -0.000995752163705238306, 0.0057157655501517508  , 0.0183400055588686453  ,-0.0391026925386241814  },
        {-0.00586780598912110818 , 0.0487422414208862759  ,-0.0202816626342199567  ,-0.0297038225221336535  ,    0.00170760374736556551 ,-0.356951609965183325   ,-0.0170499197393159628  , 0.0113080510469465798  },

        {-0.0325601904569894907  , 0.0934717488540459662  , 0.0510590129646460375  ,-0.114555754148916999   ,    0.0278758960626212908  , 0                      , 0                      , 0                      },
        {-0.0148423309197851707  , 0.124688759408911859   ,-0.130383481654017475   , 0.150226660800719447   ,    0                      , 0                      , 0                      , 0                      },
        { 0.00313121411085837435 ,-0.0762497993832170762  , 0.08561268895532885    ,-0.0931789916991100642  ,    0                      , 0                      , 0                      , 0                      },
        {-0.005318498213721096   , 0.0512507578815638021  ,-0.0253822103785668711  , 0.0581467411581994761  ,    0                      , 0                      , 0                      , 0                      }
      },
      /*OD_INTRA_HE (0,2)*/
      {
        {-0.000820983224554297855,-0.0137686019695177995  , 0.000227976689255527071,-0.0344316559987610724  ,   -0.00066213585370974591 ,-0.0185309910515490291  ,-0.100417176729287336   ,-0.0151146119451043559  },
        { 0.00492832490448510529 , 0.0820174619020734852  ,-0.138673887729220707   , 0.156515620591974519   ,   -0.00433315663872749137 , 0.0556349496413220124  , 0.617799823245701818   , 0.0291698388553179241  },
        { 0.0010203079942377063  , 0.0342270965959602727  ,-0.0677857559138320825  , 0.027091786705567892   ,   -0.00669114707634840995 , 0.0176522584723854507  , 0.101725578415536394   ,-0.0373422199023367152  },
        { 0.00338567595203593825 ,-0.045727744966543811   , 0.08588419847204741    ,-0.110928871653979508   ,    0.00805019348859527945 ,-0.02685643509705005    ,-0.362870461342752415   , 0.0492146050544653088  },

        {-0.00879649728827751332 ,-0.121510195871879417   , 0.198788224889192872   ,-0.227459705309528193   ,    0.0109924924774560204  ,-0.0922373407115996552  , 0                      , 0                      },
        { 0.000160815040706095149,-0.0108585204027383565  ,-0.00244411557294938603 , 0.00777464651279682201 ,    0                      , 0                      , 0                      , 0                      },
        { 3.84163394050959602E-05, 0.00407609265015230864 , 0.0442059028710641913  ,-0.0443785272874428274  ,    0                      , 0                      , 0                      , 0                      },
        {-0.00695523240540318975 , 0.00203488607120412253 , 0.0034353205806135355  , 0.079275259774709686   ,    0                      , 0                      , 0                      , 0                      }
      },
      /*OD_INTRA_HE (0,3)*/
      {
        { 0.000892382339288132144,-0.0156364343896058244  , 0.0081032040536323513  ,-0.0819648252105060482  ,   -0.000852969768799494523,-0.0127725216575171486  ,-0.00997337960675538822 ,-0.115506252714832239   },
        {-0.00195049305009638622 , 0.046209789165674621   ,-0.0467498319981130839  , 0.082480556682782119   ,    0.00223584171483933109 , 0.0765756996843121041  , 0.0293604128151855638  , 0.666272613567608696   },
        { 0.000745735851241352663, 0.00554910258641890409 ,-0.0205434689245060711  ,-0.063126460517750102   ,   -0.000856167886666191983,-0.00348961966848519928 , 0.0236950359446936286  , 0.0594635913040369099  },
        {-0.000330346981213027521,-0.0299708647228611041  , 0.0250878187214163273  ,-0.0638063453834146616  ,   -0.00174153050239756802 ,-0.0361322464010924368  ,-0.0373382442351606822  ,-0.309531970471714768   },

        { 0.00340035007641663681 ,-0.0789519403249760998  , 0.0823118093611229645  ,-0.152133591045088196   ,   -0.00366031583595815288 ,-0.107162406640067764   ,-0.0581797230600678353  , 0                      },
        {-0.0009132381758416143  ,-0.00121746459100334384 , 0.00818245000926319521 ,-0.108675422735626886   ,    0                      , 0                      , 0                      , 0                      },
        { 0.00120395956022056883 ,-0.0120737060076909312  ,-0.0075669536486333332  , 0.045558328296071933   ,    0                      , 0                      , 0                      , 0                      },
        { 0.00114760844604327593 , 0.0134532446168758937  ,-0.0157053179994007704  , 0.00546056611604247687 ,    0                      , 0                      , 0                      , 0                      }
      }
    },
    {
      /*OD_INTRA_HE (1,0)*/
      {
        { 0.0389171491368149394  ,-0.172916846286288756   , 0.126404543987008622   ,-0.1362369708957826     ,   -0.0338189447890561781  , 0.0267405616078551858  ,-0.014397881224019313   ,-0.0301741616479989788  },
        {-0.139798862133024698   , 0.543614583457020628   ,-0.351135329905116866   , 0.366939608023819586   ,    0.0426590057750208668  ,-0.109974170784414571   , 0.015752018542295524   , 0.0614324750283154683  },
        { 0.0199949216755008138  ,-0.0857198046191319646  , 0.0357113657468696652  , 0.0497885465023769624  ,    0.122265237692784176   , 0.098887896678795148   , 0.0206489687181988756  ,-0.022400477296594716   },
        { 0.0398670991069740438  ,-0.0893044548888636269  , 0.193224170778317716   ,-0.239203804570748746   ,   -0.168432814320584767   ,-0.0795498678430409251  , 0.0739322273032323868  , 0.0542119639026643688  },

        { 0.0146317888852632739  ,-0.116561103097171756   , 0.109754548883872982   ,-0.0966752163566384215  ,   -0.019556704994810107   , 0                      , 0                      , 0                      },
        { 0.570397740144612531   ,-1.74815174104684878    , 1.46343726632375204    ,-2.00572400494192005    ,    0                      , 0                      , 0                      , 0                      },
        {-0.0183268847999786787  , 0.0110319853999956332  , 0.0112152565960909646  , 0.0126079023093300085  ,    0                      , 0                      , 0                      , 0                      },
        { 0.0827120851552177322  ,-0.192678118180683616   , 0.216254215327689098   ,-0.0708964956313212213  ,    0                      , 0                      , 0                      , 0                      }
      },
      /*OD_INTRA_HE (1,1)*/
      {
        {-0.00218661723368418059 , 0.00705392099997870139 , 2.24107991998027966E-05, 0.000837718461693688046,    0.00172925725436786281 ,-0.0476082512081215728  , 0.000974732540919922533, 0.00100677767575722442 },
        { 0.00669811917657314997 ,-0.0181652636455904605  ,-0.00727338847651367703 , 0.000930170920667330154,   -0.00455729938990775876 , 0.115456903879242623   ,-0.00966446706345968319 ,-0.0112304323391973371  },
        {-0.000597853559623660966, 0.00344338942535901997 ,-0.00420628268757134577 , 0.0154568136728372892  ,    0.000310352811893824156, 0.0667481357286364291  , 0.0143286849123214124  ,-0.000664680122638438209},
        {-0.0024414493638906464  , 0.00833254021197684866 , 0.0121780120247445348  ,-0.00566411827929662152 ,    0.000871860215936160138,-0.140862024231839467   , 0.00662820510555784358 ,-0.000776176919648634321},

        {-0.00123090530940936338 , 0.00552827864673795157 ,-0.0026118709583839942  , 0.00310572053852145114 ,    0.0016422250916426984  ,-0.0211253026486193859  , 0                      , 0                      },
        {-0.0283030889900853823  , 0.0902301464084235283  , 0.0751002587885517964  ,-0.132515497588161446   ,    0.0139295600111721887  , 0                      , 0                      , 0                      },
        {-0.00132867449519398734 , 0.023587059709533266   ,-0.0133806876307793806  , 0.00613991089499938813 ,    0                      , 0                      , 0                      , 0                      },
        {-0.00121291645176533529 ,-0.00845222967501164588 , 0.00674774119299123738 ,-0.015389905349441629   ,    0                      , 0                      , 0                      , 0                      }
      },
      /*OD_INTRA_HE (1,2)*/
      {
        {-0.00010073042884089741 ,-0.00813319852398452191 , 0.0113867087980722391  ,-0.00902533268486748787 ,    0.000127615286884269355,-0.00325941522658445247 ,-0.0432309106516417865  ,-0.00344097808479377348 },
        {-0.00070017036631775506 , 0.0220491287399031607  ,-0.0372946098514541496  , 0.0343907014997472463  ,   -0.000434821863102107583, 0.00660306834979078848 , 0.128896767308680826   ,-0.019369799450299173   },
        { 0.00135665263364499961 , 0.000349998345834039431,-0.000740825105647972327,-0.0049759281114001349  ,   -0.000561860050421588743,-0.00280678319690354748 , 0.0603948434501515516  , 0.00263245466479798381 },
        {-0.00149613514261762994 ,-0.0100656688181807383  , 0.0132254899604961514  ,-0.0106803991444132194  ,    0.00128468019033694332 ,-0.00469353878212376303 ,-0.12533051553473698    ,-0.00662464988908866882 },

        { 0.000108062059936383069,-0.0029552392612778402  ,-0.000628201810902986684,-0.000910200753170844925,   -7.77322352251446269E-05,-0.00126376544420417022 ,-0.0130894585432669557  , 0                      },
        {-0.00561128402401035557 ,-0.121199984649504239   , 0.207440999825645817   ,-0.182996898205025987   ,    0.0102131862013766471  ,-0.0499339835796266951  , 0                      , 0                      },
        {-0.000735609685825941093, 0.00646828942323674459 , 0.00706933920318595938 , 0.00596456848758027125 ,    0                      , 0                      , 0                      , 0                      },
        { 0.000667506167608460424,-0.00989193382309361616 , 0.0175351850350184309  ,-0.0214707985296865127  ,    0                      , 0                      , 0                      , 0                      }
      },
      /*OD_INTRA_HE (1,3)*/
      {
        { 8.25311882653577709E-05,-0.00324067295582991651 , 0.00465742245976637301 ,-0.00925091709543090709 ,   -8.37093079171850164E-05,-0.00550314412184265724 ,-0.00344276084848800946 ,-0.0486547142773793365  },
        { 0.000125437662560154472, 0.00683912046812810634 ,-0.0068243649701528377  , 0.0110351391327633934  ,   -0.00023652904742662049 , 0.0171485409718342488  , 0.0118947042809668269  , 0.136279880469174469   },
        { 5.62141533384893677E-05, 0.00263257393341574837 ,-0.00243541790198791236 , 0.00797262543867996963 ,    0.000798130529307183889, 0.00479237692564481697 , 0.00252629463047076295 , 0.0493296077968201283  },
        { 0.00105325235929780024 ,-0.00619494427838732879 , 0.00708077071644519669 ,-0.00759801449071036486 ,   -0.000530488116313152327,-0.00942898111419353951 ,-0.00475355409271255216 ,-0.121766119463655953   },

        { 0.000154767811180248939,-0.00153210015217505814 , 0.000569696747449051398,-0.00593868763821625741 ,   -0.00016668299407419205 ,-0.00103021960645594186 , 0.00105282250887121635 ,-0.0129432489793209864  },
        { 0.00215406419135842631 ,-0.0555113202646582149  , 0.0649063012172903381  ,-0.0537911595247923535  ,   -0.00241408691260728333 ,-0.114179019364973378   ,-0.0442467165353624611  , 0                      },
        {-0.00035119430558181342 , 0.000953370545905028364, 0.0047307722393880574  , 0.0016099810657329342  ,    0                      , 0                      , 0                      , 0                      },
        { 0.000157967417286225038,-0.000933825085302746093, 0.000586047763162463042, 0.00896466067287040279 ,    0                      , 0                      , 0                      , 0                      }
      }
    },
    {
      /*OD_INTRA_HE (2,0)*/
      {
        { 0.00972783376878581796 ,-0.0669754411229168539  , 0.0568812794200905802  ,-0.0567739092054723032  ,   -0.0132805957098982887  , 0.0029153608641699991  ,-0.0108107083069922602  ,-0.0211123056366395688  },
        {-0.0615987647228015758  , 0.380151170665932236   ,-0.271477078768697533   , 0.253811266042795358   ,   -0.0573555306392584813  ,-0.0879767617864982143  , 0.0581000929850582354  , 0.0931378014123038084  },
        { 0.0569178168460301448  ,-0.304536860899608908   , 0.133577270461324449   ,-0.146291389661341587   ,    0.0981867073735842727  , 0.0566558685830197209  , 0.020869229906325483   ,-0.0444431158511904914  },
        {-0.046489027437150901   , 0.294272620078723735   ,-0.175035723534189835   , 0.072632186387941472   ,   -0.0397230972708725871  ,-0.105153091897083259   , 0.0385778982326356393  , 0.152927615125554861   },

        {-0.000873687046932396716, 0.0181248704118342104  ,-0.0274230859215897384  , 0.0347159631910241087  ,    0.00520465831546621741 , 0                      , 0                      , 0                      },
