const int OD_PRED_MULTS_8x8[OD_INTRA_NMODES][8][8]={
/* Mode 0 */
  {
    {  48,   8,   2,   2,   3,   5,   5,   7   },
    {  19,   6,   2,   2,   2,   1,   4,   2   },
    {   7,   2,   0,   0,   1,   0,   0,   1   },
    {   5,   2,   0,   1,   1,   2,   2,   1   },
    {   4,   3,   4,  12,   2,   2,   2,   0   },
    {   8,   4,   3,   8,   4,   8,   6,   3   },
    {   6,   1,   0,   1,   3,   6,   5,   3   },
    {   7,   3,   1,   0,   0,   2,   2,   0   }
  },
/* Mode 1 */
  {
    {  45,  10,   8,   6,   5,   7,   7,   4   },
    {  17,   5,   2,   0,   1,   1,   2,   1   },
    {  11,   4,   4,   1,   1,   0,   1,   0   },
    {  11,   1,   0,   1,   0,   4,   4,   0   },
    {  11,   1,   0,   0,   0,   4,   5,   1   },
    {  10,   0,   0,   1,   3,   7,   5,   4   },
    {  10,   0,   0,   1,   3,   6,   5,   3   },
    {   6,   0,   0,   0,   1,   2,   2,   1   }
  },
/* Mode 2 */
  {
    {  35,   9,   4,   4,   3,   2,   2,   2   },
    {  25,  13,   4,   3,   2,   2,   2,   2   },
    {  17,  11,   3,   0,   0,   0,   0,   0   },
    {  14,  12,   5,   1,   0,   1,   1,   1   },
    {   9,  12,   4,   1,   1,   0,   0,   0   },
    {   7,   9,   2,   1,   3,   0,   0,   0   },
    {   3,   4,   4,   3,   3,   0,   0,   0   },
    {   2,   2,   2,   3,   1,   0,   0,   0   }
  },
/* Mode 3 */
  {
    {  25,  10,   7,   7,   7,   5,   3,   3   },
    {  24,   8,   7,   3,   6,   3,   3,   3   },
    {  20,   7,   6,   4,   3,   4,   3,   3   },
    {  10,   6,   4,   3,   1,   1,   2,   2   },
    {  10,   3,   1,   1,   1,   2,   0,   0   },
    {   5,   2,   0,   2,   2,   1,   2,   1   },
    {   7,   0,   0,   1,   0,   1,   0,   0   },
    {   7,   2,   1,   0,   1,   0,   0,   0   }
  },
/* Mode 4 */
  {
    {  22,   7,   6,   2,   2,   2,   2,   2   },
    {  25,  11,   3,   2,   2,   2,   2,   2   },
    {  20,  13,   0,   0,   0,   0,   0,   0   },
    {  18,  16,   3,   0,   0,   0,   0,   0   },
    {  11,  17,   5,   0,   0,   0,   0,   0   },
    {   2,  13,   5,   2,   1,   0,   0,   0   },
    {   2,   6,   8,   2,   0,   0,   0,   0   },
    {   2,   3,   7,   4,   2,   0,   0,   0   }
  },
/* Mode 5 */
  {
    {  30,  10,   4,   2,   2,   2,   2,   2   },
    {  17,  23,   9,   2,   2,   2,   2,   2   },
    {   6,  18,  12,   5,   2,   1,   1,   0   },
    {   2,   5,   8,   9,   2,   2,   0,   0   },
    {   2,   2,   6,   5,   7,   2,   1,   0   },
    {   2,   3,   2,   7,   7,   3,   0,   0   },
    {   2,   2,   2,   4,   4,   1,   1,   0   },
    {   2,   2,   0,   1,   0,   0,   0,   0   }
  },
/* Mode 6 */
  {
    {  35,  26,  22,  14,   4,   3,   2,   2   },
    {   9,  12,  15,  16,  11,   7,   4,   2   },
    {   4,   2,   4,   8,  11,   7,   4,   1   },
    {   2,   2,   0,   0,   1,   1,   2,   0   },
    {   2,   2,   0,   0,   0,   0,   0,   0   },
    {   2,   2,   0,   0,   0,   0,   0,   0   },
    {   6,   2,   1,   0,   1,   0,   0,   0   },
    {   2,   1,   2,   0,   0,   0,   0,   0   }
  },
/* Mode 7 */
  {
    {  32,  22,  19,  14,   5,   3,   4,   2   },
    {   8,   7,   7,   5,   4,   1,   0,   1   },
    {   9,   7,   4,   4,   3,   2,   0,   0   },
    {   8,   6,   5,   3,   1,   1,   0,   1   },
    {   7,   5,   2,   3,   0,   0,   0,   0   },
    {   3,   3,   2,   1,   0,   2,   1,   0   },
    {   6,   4,   1,   2,   0,   3,   2,   1   },
    {   8,   3,   5,   1,   1,   2,   0,   0   }
  },
/* Mode 8 */
  {
    {  23,  21,  21,  10,   6,   2,   2,   2   },
    {  10,   9,  12,  16,  17,  12,   9,   3   },
    {   5,   2,   0,   3,   7,  11,   9,   7   },
    {   2,   2,   0,   0,   0,   0,   5,   6   },
    {   2,   2,   0,   0,   0,   1,   2,   1   },
    {   2,   2,   0,   0,   0,   0,   0,   0   },
    {   2,   2,   0,   0,   0,   0,   0,   0   },
    {   3,   3,   0,   0,   0,   0,   0,   0   }
  },
/* Mode 9 */
  {
    {  24,  13,   4,   2,   2,   2,   2,   2   },
    {  14,  21,  13,   3,   2,   2,   2,   2   },
    {   6,  12,  13,   8,   6,   1,   0,   0   },
    {   2,   2,   9,   9,  12,   7,   1,   1   },
    {   2,   2,   2,   5,   5,  11,   1,   0   },
    {   2,   2,   0,   2,   6,   3,   3,   0   },
    {   2,   2,   0,   0,   1,   0,   0,   0   },
    {   3,   2,   0,   0,   1,   0,   0,   0   }
  }
};
const double OD_PRED_WEIGHTS_8x8[2560]={
/* Mode 0 (0 0) */
   0.150610688604701504   , 0.0754751235764171968  ,-0.356217756382760153   ,-0.599291517524100925   , 0.517670796228325569   , 0.33731920311629493    , 0.27739263683167581    ,-0.243524137055972811   ,
   0.243682019964237967   , 0.255583014374654083   ,-0.15694096195287649    , 0.356363871692311263   ,-0.326119566135300742   ,-0.719996341905079218   , 0.155088653189255687   ,-0.270727937365510374   ,
  -0.417883943662096913   , 0.533796146664575422   , 0.10485244148326793    ,-0.132232814899390233   ,-0.116420988076540208   ,-0.357888566765355076   ,-0.19655384500175857    ,-0.237007194302433055   ,
   0.21216076987426577    ,-0.226872817475985422   , 0.241813933419009974   ,-0.299599491395279138   ,-0.425780136643946427   , 0.181453695092475525   , 0.769583380518470972   , 0.175086663976474044   ,
  -0.55554806000937762    , 0.487242138958271287   , 0.324495051249005351   ,-0.499233982471143922   ,-0.352739213795883744   ,-0.594007819446624397   , 0.203762353219186038   , 0.195413242879001081   ,
   0.810688448407884787   ,-0.281544554422111459   , 0.267712274492316382   , 0.590309459993082375   ,-0.396627909436735426   ,-0.331366953287019983   ,-0.566239370948683485   , 0.441056760562868244   ,
/* Mode 0 (1 0) */
  -0.0644202959741164843  , 0.14475505672626901    , 0.152687034067370886   , 0.0570068665233477642  , 0.0870318651787038572  ,-0.135975616810914607   ,-0.355711456431435813   , 0.155382963000033847   ,
/* Mode 0 (2 0) */
  -0.0593565434740913056  , 0.151307655070190533   ,
/* Mode 0 (3 0) */
  -0.0744415931062927388  , 0.167861435982523732   ,
/* Mode 0 (4 0) */
  -0.0821669547557637853  , 0.17455312088359029    ,-0.0459726477063168507  ,
/* Mode 0 (5 0) */
   0.219734523509413637   , 0.0839328550301926962  , 0.198117028425756736   , 0.218165424260251567   , 0.257295952083213875   ,
/* Mode 0 (6 0) */
   0.200126193934048707   , 0.0600258305614955537  , 0.142746900250614039   , 0.243700903396566387   , 0.292215730332288481   ,
/* Mode 0 (7 0) */
  -0.048951618425322925   ,-0.0524026826641021404  ,-0.128830303515490657   , 0.159870545014939081   ,-0.0391311095900112454  ,-0.071476658722353606   , 0.0661016570220984562  ,
/* Mode 0 (0 1) */
  -0.0464657644778376858  , 0.103253724579658104   ,-0.149171867175333983   ,-0.135323046403700686   , 0.248484265595137088   , 0.122719127985803839   ,-0.256854474562022428   , 0.164891298083231663   ,
  -0.194777881890060456   , 0.0490556470813496015  ,-0.185348020147902359   , 0.109390486159462674   ,-0.173936903698859391   ,-0.0334047388179667046  ,-0.0760168858053624497  , 0.180620606038694537   ,
  -0.156651585903067964   , 0.129015091001395271   , 0.177906063334360098   ,
/* Mode 0 (1 1) */
   0.00740389073403572    ,-0.0505799270481021163  ,-0.040130852809831169   , 0.11016853645729241    , 0.0593684891134211301  ,-0.101318723727905111   ,
/* Mode 0 (2 1) */
  -0.061544718448495718   , 0.111013779794736867   ,
/* Mode 0 (3 1) */
  -0.0699975804648781952  , 0.13573783543384571    ,
/* Mode 0 (4 1) */
  -0.0969163396705523122  , 0.132873472729074432   ,
/* Mode 0 (5 1) */
   0.145053130830500643   ,
/* Mode 0 (6 1) */
   0.0506301744899195702  ,-0.0565667216118153626  , 0.162381405576356247   , 0.109024409853878415   ,
/* Mode 0 (7 1) */
  -0.096095854466032346   , 0.13591532498225331    ,
/* Mode 0 (0 2) */
   0.0895304863462881156  , 0.00993120116610757969 ,-0.156948790118420417   , 0.0545805063532837018  ,-0.123002796067472622   , 0.181715404789177942   ,-0.106373665205202111   ,
/* Mode 0 (1 2) */
  -0.0766124163789200924  , 0.0787320397598379601  ,
/* Mode 0 (2 2) */
/* Mode 0 (3 2) */
/* Mode 0 (4 2) */
  -0.0600179907633629495  ,
/* Mode 0 (5 2) */
/* Mode 0 (6 2) */
/* Mode 0 (7 2) */
   0.0721851267900683047  ,
/* Mode 0 (0 3) */
   0.0469889607259833669  , 0.0500725360576646655  ,-0.108715497251154758   , 0.193533879497004485   ,-0.086446640249403045   ,
/* Mode 0 (1 3) */
  -0.0892354307037774713  , 0.0982534060173246848  ,
/* Mode 0 (2 3) */
/* Mode 0 (3 3) */
  -0.0649166276608679899  ,
/* Mode 0 (4 3) */
   0.0313309254436040588  ,
/* Mode 0 (5 3) */
   0.100210781042324601   , 0.0616375810783678021  ,
/* Mode 0 (6 3) */
   0.0889476539109982367  , 0.0634082439088684141  ,
/* Mode 0 (7 3) */
   0.0369146218780370683  ,
/* Mode 0 (0 4) */
   0.109408942679682028   , 0.0609815794065131853  ,-0.111499856211728351   , 0.177481116383359838   ,
/* Mode 0 (1 4) */
  -0.0535764129143532289  ,-0.0920903214506213069  , 0.109502260043488994   ,
/* Mode 0 (2 4) */
  -0.0961460082325158866  ,-0.0842093929081675213  , 0.114349327701212422   , 0.120169106166164691   ,
/* Mode 0 (3 4) */
   0.188389917318035449   ,-0.116916332627612224   ,-0.111694123624792016   ,-0.0789870220242127746  ,-0.0651748533481541492  ,-0.121456669135866321   , 0.11969348224314702    , 0.0326298988880935684  ,
  -0.113725710659811741   , 0.0855448252819126925  ,-0.06203404518292846    , 0.166356528504998769   ,
/* Mode 0 (4 4) */
   0.067825580854265391   ,-0.067307996365600628   ,
/* Mode 0 (5 4) */
   0.081596769623898599   , 0.0728368973495421429  ,
/* Mode 0 (6 4) */
   0.0604762341455862967  , 0.0938980978327489529  ,
/* Mode 0 (7 4) */
/* Mode 0 (0 5) */
   0.168404301593464922   ,-0.0896138901901929325  , 0.284112244427946914   ,-0.111932074583771093   , 0.204628516887284978   , 0.187128001742931566   , 0.201168828969437163   ,-0.0697217648584821659  ,
/* Mode 0 (1 5) */
   0.0544513894821157182  , 0.0611395987416486417  ,-0.0501599018983518996  , 0.109209195951611146   ,
/* Mode 0 (2 5) */
   0.0656956718263598111  ,-0.0690504031603818291  , 0.0982277114397530071  ,
/* Mode 0 (3 5) */
   0.104792096086481656   , 0.0601332087317103872  , 0.0645210019897887732  ,-0.137665356456560944   , 0.117501765324820998   ,-0.112034142946208864   ,-0.0715064558200162043  ,-0.128896921401401243   ,
/* Mode 0 (4 5) */
   0.0476431658338636044  , 0.0916387479642904595  ,-0.0508005734029826558  , 0.0944248303437978109  ,
/* Mode 0 (5 5) */
   0.0265697809720299438  , 0.188318257275092826   , 0.208828385899703456   ,-0.0893943757460459315  , 0.18427865193887491    ,-0.060390366629468617   , 0.201569907348028265   ,-0.0872237157391645285  ,
/* Mode 0 (6 5) */
   0.165231091466891022   , 0.0395096570404378997  , 0.21735857937078612    , 0.212660008463929462   , 0.24103040469341297    , 0.0672005855025103321  ,
/* Mode 0 (7 5) */
  -0.0477887321143725466  ,-0.0400154242167743285  ,-0.0640492196251748885  ,
/* Mode 0 (0 6) */
   0.0888536401822533489  , 0.411067036463242663   ,-0.102308687684105101   , 0.294382456467078946   , 0.136036804480589801   , 0.183442951990770264   ,
/* Mode 0 (1 6) */
   0.120519657978293795   ,
/* Mode 0 (2 6) */
/* Mode 0 (3 6) */
   0.0683427591272377927  ,
/* Mode 0 (4 6) */
   0.0872834876961958162  ,-0.0748001908323251558  , 0.110840066081320993   ,
/* Mode 0 (5 6) */
   0.201322203596475874   , 0.0272230706505753768  , 0.20137406318955986    , 0.216360400778985551   , 0.188273672452600654   ,-0.0855639752292141759  ,
/* Mode 0 (6 6) */
  -0.0494205801635944908  , 0.182015644172840774   , 0.189705321542049943   , 0.208124896641860457   , 0.241264357448096323   ,
/* Mode 0 (7 6) */
  -0.0501642481519954594  ,-0.0411565326578449686  ,-0.0571844993875865459  ,
/* Mode 0 (0 7) */
  -0.0451459902731460791  ,-0.151096909172599492   ,-0.100383385954216878   , 0.0445698291231948415  ,-0.0434550353643226236  ,-0.226057628703207614   , 0.171405614147601026   ,
/* Mode 0 (1 7) */
  -0.0608751967831191176  ,-0.0622462971712103227  , 0.185357227243267669   ,
/* Mode 0 (2 7) */
  -0.0639325224673139153  ,
/* Mode 0 (3 7) */
/* Mode 0 (4 7) */
/* Mode 0 (5 7) */
  -0.0721996615931592978  ,-0.0658674150810080045  ,
/* Mode 0 (6 7) */
  -0.0538008180004429029  ,-0.068450992636870725   ,
/* Mode 0 (7 7) */
/* Mode 1 (0 0) */
  -0.567183941927231094   ,-0.151487469556567805   , 0.250861714567363003   , 0.352300483049796331   ,-0.245191911046270861   ,-0.143245155456818901   , 0.348891385235898299   , 0.326501752055316008   ,
   0.397180933809013093   ,-0.758931902232418798   , 1.0207508661483562     ,-0.54973522184926904    , 0.693538163509614947   ,-0.102829255303427805   , 0.265856359428216893   , 0.24881155861854401    ,
   0.126288215346365501   , 0.218010887986046287   ,-0.65292421344260565    , 0.711316495489279554   , 0.340031640596843432   ,-0.528007918035566903   , 0.806759329174685513   , 0.67768628530380226    ,
  -1.32365317533865712    , 0.705145324801870421   , 0.211511270845005095   , 0.176783889553069895   , 0.217684611749079604   ,-0.362502261112666702   ,-0.212140111495295908   , 0.60052628402844932    ,
   0.626380434161983635   ,-0.883844579566628763   , 0.756255639563234938   , 0.414228548813336539   ,-0.840152490160292587   , 0.173389171825410748   ,-0.46150343236812047    ,-0.312983403246926195   ,
   0.263143860763195292   , 0.293150986874133601   ,-0.369900489512981046   ,-0.172309485822645575   , 0.698939554351312831   ,
/* Mode 1 (1 0) */
   0.0369631817750000757  ,-0.0529890069058470969  , 0.577557414433527039   , 0.13450023333099359    , 0.329770920849979388   ,-0.428954065423535924   , 0.210964541956207868   , 0.0188761662378114717  ,
   0.186233488265675623   ,-0.354051203234212575   ,
/* Mode 1 (2 0) */
   0.111022449239292123   ,-0.0308993168328653214  , 0.427738726608091036   , 0.18793989126193697    ,-0.255515088731874951   ,-0.0669182430130090405  , 0.11460556331927195    ,-0.209834313773312436   ,
/* Mode 1 (3 0) */
   0.290676032377298277   , 0.150927867105915908   ,-0.176237542478586001   ,-0.0280691042292176528  , 0.0642941227369518281  ,-0.0803543211340243951  ,
/* Mode 1 (4 0) */
   0.258954415230890356   , 0.12865270035437848    ,-0.133169311884435954   ,-0.0691278057967860959  , 0.0711792511985005066  ,
/* Mode 1 (5 0) */
   0.156188867120492847   , 0.381657071456944053   ,-0.0930020691224891921  , 0.173437068685145163   ,-0.24264677702354992    , 0.195887185479516085   , 0.250800770479749413   ,
/* Mode 1 (6 0) */
   0.190384077328473511   , 0.25880347988109903    , 0.180904898991236879   ,-0.16135863801917219    , 0.183554814919625303   , 0.317042573609322975   ,-0.106916291675458144   ,
/* Mode 1 (7 0) */
  -0.048755845147781994   , 0.153398123680415582   , 0.227892373759589373   ,-0.0845357669908366333  ,
/* Mode 1 (0 1) */
   0.0323633372444335002  , 0.134763260111096406   ,-0.127830362772350353   , 0.0426775533522196632  , 0.165047702619966319   , 0.168210842853667331   ,-0.216789926357383117   ,-0.104965471639924854   ,
  -0.070259395678183581   ,-0.0587769195014473667  , 0.117094433142809276   , 0.735670235402677397   , 0.47825562367096458    ,-0.604518471653729295   , 0.129608723954186794   , 0.227013520039917677   ,
  -0.148549972468102254   ,
/* Mode 1 (1 1) */
   0.0407531074197542559  ,-0.165820754798034403   ,-0.138268695819338344   , 0.164754273589277245   ,-0.247989302625561625   ,
/* Mode 1 (2 1) */
  -0.0532790271939613813  ,-0.170304245467039428   ,
/* Mode 1 (3 1) */
/* Mode 1 (4 1) */
  -0.0605705137380374986  ,
/* Mode 1 (5 1) */
   0.0649322842305765924  ,
/* Mode 1 (6 1) */
   0.07278418895939541    , 0.0842499624656407736  ,
/* Mode 1 (7 1) */
   0.0768933435768497237  ,
/* Mode 1 (0 2) */
  -0.109317744525503399   , 0.132733631478745562   ,-0.0847951951149973626  , 0.116364782583109894   , 0.127791253226658297   ,-0.215879876872277388   ,-0.0802881803470895106  , 0.560941355343664627   ,
   0.24157922764867068    ,-0.384199306084669623   , 0.113929281033921623   ,
/* Mode 1 (1 2) */
  -0.0583871817419164552  , 0.0758891145193557187  , 0.0951918485484305466  ,-0.127721481762204353   ,
/* Mode 1 (2 2) */
  -0.0437110291807188342  ,-0.106760391999769569   ,-0.0420724033659374622  ,-0.129664274708089083   ,
/* Mode 1 (3 2) */
   0.0855826766972539871  ,
/* Mode 1 (4 2) */
   0.0689254731038288632  ,
/* Mode 1 (5 2) */
/* Mode 1 (6 2) */
   0.0658024399650248004  ,
/* Mode 1 (7 2) */
/* Mode 1 (0 3) */
  -0.108431332812333595   , 0.0930259460789317899  ,-0.0318125886190427018  , 0.0720768251497642121  , 0.086969343856654599   ,-0.103076773897329124   ,-0.0912218396819041988  , 0.409346578283907969   ,
   0.121872984158475153   ,-0.242569859696241202   , 0.167292489436202868   ,
/* Mode 1 (1 3) */
  -0.0368233782546820362  ,
/* Mode 1 (2 3) */
/* Mode 1 (3 3) */
  -0.0402870801699581893  ,
/* Mode 1 (4 3) */
/* Mode 1 (5 3) */
  -0.0462231883242145147  , 0.0964456390531542168  , 0.0825360095513067854  , 0.0818421021749973637  ,
/* Mode 1 (6 3) */
  -0.039600015453564355   , 0.106746017749515282   , 0.064583729202798465   , 0.133771462237697647   ,
/* Mode 1 (7 3) */
/* Mode 1 (0 4) */
   0.090160009502808211   ,-0.0810811251183374132  ,-0.0729741961564404212  , 0.0880762798780728995  , 0.0653632282271135179  ,-0.0734031523256141599  ,-0.0496561096144221004  , 0.308661211638255384   ,
   0.094095788064252936   ,-0.177352334625590496   , 0.0821450527355329085  ,
/* Mode 1 (1 4) */
  -0.0719839600476258751  ,
/* Mode 1 (2 4) */
/* Mode 1 (3 4) */
/* Mode 1 (4 4) */
/* Mode 1 (5 4) */
   0.0747491023096046592  , 0.0768885733759652468  , 0.0823320128459125167  , 0.106022018551674563   ,
/* Mode 1 (6 4) */
   0.0874011137957801526  , 0.0598532432647152918  ,-0.046819159244531533   , 0.0841132260577832497  , 0.142985811321504924   ,
/* Mode 1 (7 4) */
  -0.0460015367759556357  ,
/* Mode 1 (0 5) */
   0.114036366538515968   ,-0.0628742620703725968  , 0.0586910586750597346  , 0.203866635209636687   , 0.233050099709869007   , 0.161384239216504577   ,-0.0802692207857510359  , 0.349802823179605149   ,
  -0.171129233155938476   , 0.0889285134575425462  ,
/* Mode 1 (1 5) */
/* Mode 1 (2 5) */
/* Mode 1 (3 5) */
  -0.119732983141529387   ,
/* Mode 1 (4 5) */
  -0.0781042915239969771  , 0.0728074226709821554  , 0.0796366462104377282  ,
/* Mode 1 (5 5) */
   0.159682094777061828   , 0.0716834825293082845  , 0.276936236243114753   ,-0.0698204250819431799  , 0.210753996234631119   , 0.24101225376470356    , 0.0743701150633044733  ,
/* Mode 1 (6 5) */
   0.141744101002595324   , 0.120354181279085815   , 0.245890664649494162   , 0.199278060588651856   , 0.298088402025558363   ,
/* Mode 1 (7 5) */
  -0.0671578321891249663  , 0.0732382774491685679  ,-0.0632122847159387047  , 0.0340994212023660037  ,
/* Mode 1 (0 6) */
   0.173590357271554585   ,-0.115735292445938512   , 0.173939827495159849   , 0.0982928779716020495  , 0.115994451340824353   ,-0.0903018587397778627  , 0.406458448410903117   ,-0.198489086547909199   ,
   0.167797304758871724   , 0.0820228020589760937  ,
/* Mode 1 (1 6) */
/* Mode 1 (2 6) */
/* Mode 1 (3 6) */
   0.0831704377627974917  ,
/* Mode 1 (4 6) */
   0.0772723905527728933  , 0.050818650654121271   ,-0.0525851599704778433  ,
/* Mode 1 (5 6) */
   0.150436174914218068   ,-0.0742229516088948049  , 0.223727019435912416   , 0.246229051844259583   ,-0.0642447934870504084  , 0.262657876155502346   ,
/* Mode 1 (6 6) */
  -0.0656691596699576358  , 0.173990965403939796   , 0.232850701626904327   , 0.219650285432499426   , 0.260736117159713288   ,
/* Mode 1 (7 6) */
   0.0777447929821668271  ,-0.0508079609044376559  ,-0.0797343164606413857  ,
/* Mode 1 (0 7) */
   0.143019757054954094   , 0.278111510292778308   , 0.226530330997462864   , 0.381198368206170146   , 0.108090256949128757   ,-0.183982469450418989   ,
/* Mode 1 (1 7) */
/* Mode 1 (2 7) */
/* Mode 1 (3 7) */
/* Mode 1 (4 7) */
   0.0630033603861809705  ,
/* Mode 1 (5 7) */
  -0.100943458739920958   ,-0.0464394221923733683  ,
/* Mode 1 (6 7) */
  -0.0941275624235743819  ,-0.0602706800496910847  ,
/* Mode 1 (7 7) */
  -0.0541872175979634316  ,
/* Mode 2 (0 0) */
   0.280036651286100613   ,-0.418113374822718986   , 0.428517547023109013   ,-0.251997437905937705   , 0.522568414591189634   , 0.874686408114704994   , 1.37695720880150363    ,-0.355965243686897914   ,
  -0.216389806489807268   , 0.376170921743054165   ,-0.408930755267794599   , 0.740794005761633789   , 0.356694912726112812   ,-0.428785309573962103   , 0.452037707346880591   , 0.194691877261052665   ,
  -0.164286011698899309   ,-0.203933034594489415   ,-0.0914251359554994619  , 0.222055009594056219   ,-0.219668778956970318   ,-0.445515166632849735   , 0.87393974776433303    , 0.664524166354905854   ,
  -1.03930873337046559    , 0.854494246572018112   ,-0.353358583315729002   , 1.0340130772724887     ,-1.01240821505519274    , 0.638598459740024382   , 0.264602696147338057   ,-0.723266300103654447   ,
   0.552779641104087394   , 0.582887934780017103   ,-0.500939723730136732   ,
/* Mode 2 (1 0) */
   0.0503275846405968619  ,-0.174872274248334569   ,-0.0614979274877329521  , 0.256924972424727172   ,-0.033648595996030907   , 0.0255185144537055444  ,-0.222486846570028568   , 0.271236344206953583   ,
  -0.30499466539288711    ,
/* Mode 2 (2 0) */
  -0.143458804208562302   , 0.228580860475946279   ,-0.0635707003341930699  , 0.130908325194099756   ,
/* Mode 2 (3 0) */
  -0.193664861752577161   , 0.179427461443347036   , 0.057262636120709462   ,-0.0898294172479674607  ,
/* Mode 2 (4 0) */
  -0.135333056503641386   , 0.195517408149477184   , 0.0955321861447382403  ,
/* Mode 2 (5 0) */
  -0.177846903883844998   , 0.211564878775815396   ,
/* Mode 2 (6 0) */
  -0.127354945018262972   , 0.242797475531072116   ,
/* Mode 2 (7 0) */
  -0.15031681946759029    , 0.215014203176107671   ,
/* Mode 2 (0 1) */
  -0.0360769322658899064  , 0.0745611641142800152  ,-0.132466696788405336   ,-0.0402926610299012278  ,-0.107517979704254724   ,-0.157633235112457137   , 0.168970721568675625   , 0.14942185018814394    ,
  -0.306956995307537728   , 0.194325515735389004   ,-0.39629933480227314    , 0.552162593575689975   , 0.0827380890492459414  ,-0.231175061162414208   ,-0.233916606486098189   , 0.430935610662940616   ,
   0.110515565886352404   , 0.257925336375240011   ,-0.431119909838013959   ,-0.599274321593167958   , 0.843446402082546176   ,-0.373486531401730937   , 0.252527305815696712   ,-0.555811107655060033   ,
   0.404920965229635166   ,
/* Mode 2 (1 1) */
   0.0243854495103491102  ,-0.108762711210586352   ,-0.0683806590456330632  , 0.100681748396876422   , 0.0949802602583190297  ,-0.0322042077625402309  , 0.0495725912263550034  , 0.0437541200687284609  ,
  -0.13502797893656418    , 0.181926846029545036   ,-0.0945400251526170576  , 0.234294403459086226   ,-0.311797572539440626   ,
/* Mode 2 (2 1) */
  -0.116702258581960622   , 0.0979354576869074234  ,-0.062849745858953282   , 0.0878413011656094256  ,
/* Mode 2 (3 1) */
  -0.131090268101330398   , 0.144094216947491249   , 0.11449346970777427    ,
/* Mode 2 (4 1) */
  -0.138160510841756345   , 0.145261126022516923   ,
/* Mode 2 (5 1) */
  -0.138192238438002879   , 0.163949875474588724   ,
/* Mode 2 (6 1) */
  -0.158516073635106419   , 0.161381438988066311   ,
/* Mode 2 (7 1) */
  -0.12644907419349638    , 0.146440846028686983   ,
/* Mode 2 (0 2) */
   0.0611567695504271411  ,-0.140271335357214727   ,-0.0145200349119000757  ,-0.0780850733863337615  , 0.10563128946981068    , 0.14540995488988287    ,-0.295191042528249181   , 0.226812214604475371   ,
  -0.190995644773720774   , 0.172215861250830077   , 0.233944783901052389   ,-0.212544616829342781   , 0.089230240251711973   , 0.144119398204904298   ,-0.28458985724917113    , 0.361154272090229878   ,
  -0.189181830286223179   ,
/* Mode 2 (1 2) */
   0.0793147943056844301  , 0.089899333903376108   ,-0.129731326103179584   , 0.122615445726304187   , 0.0654804548228284794  ,-0.0788190938543359421  ,-0.120215386044954339   , 0.105315072798753837   ,
  -0.139667904560504708   , 0.25211070516211298    ,-0.221885410109955605   ,
/* Mode 2 (2 2) */
  -0.0563208354479528273  , 0.080240890483859309   ,-0.0997046968779422144  ,
/* Mode 2 (3 2) */
/* Mode 2 (4 2) */
/* Mode 2 (5 2) */
/* Mode 2 (6 2) */
/* Mode 2 (7 2) */
/* Mode 2 (0 3) */
   0.111435755143682036   , 0.0864779346508721958  ,-0.13493275752001313    , 0.213980756507328507   ,-0.187962836301983349   ,-0.121389619327208612   ,-0.124963493006512313   , 0.138330498007469049   ,
   0.134841285250794363   , 0.105833942195097577   ,-0.219275334658024873   , 0.216241063389990967   ,-0.166210256524107702   , 0.142870053540366415   ,
/* Mode 2 (1 3) */
   0.0676174579195879533  ,-0.0889424140498156768  , 0.175018932759996443   , 0.132750025023282009   ,-0.111432171242215425   , 0.0729732805906583709  , 0.108640494571007842   ,-0.0730206495361475222  ,
   0.112795587313052392   ,-0.152405395820934125   , 0.204800679660568141   ,-0.217791634319641131   ,
/* Mode 2 (2 3) */
  -0.0559578867801693025  , 0.0728159981275931928  ,-0.0509334811143096339  , 0.0731106863282304786  ,-0.102424227208494034   ,
/* Mode 2 (3 3) */
   0.091580338397465072   ,
/* Mode 2 (4 3) */
/* Mode 2 (5 3) */
   0.0466647722546551097  ,
/* Mode 2 (6 3) */
  -0.0586440978201747884  ,
/* Mode 2 (7 3) */
   0.0875852858744612522  ,
/* Mode 2 (0 4) */
  -0.0874438811628262258  , 0.131315761180620688   ,-0.172279545135427703   , 0.0870201223018308018  , 0.118985625626929686   , 0.06327176441097912    ,-0.284012466356300231   , 0.246244948509323963   ,
  -0.10761917833627492    ,
/* Mode 2 (1 4) */
  -0.052596072329817091   ,-0.0815349446482967755  , 0.104036778885995773   , 0.0872410658551192042  , 0.0816441651959635417  ,-0.154715403729325879   ,-0.105231692066802759   ,-0.0642173855115589498  ,
   0.11370719561764836    ,-0.0969190567068852621  ,-0.135070797028952305   , 0.13517037517011754    ,
/* Mode 2 (2 4) */
   0.0700547177761140644  ,-0.046863581774268942   , 0.0697341242002888356  , 0.0699491269117709646  ,
/* Mode 2 (3 4) */
   0.101199050351566552   ,
/* Mode 2 (4 4) */
   0.100865093172508594   ,
/* Mode 2 (5 4) */
/* Mode 2 (6 4) */
/* Mode 2 (7 4) */
/* Mode 2 (0 5) */
   0.0655643819009913975  ,-0.115254054914741805   , 0.104324326222932667   ,-0.098644332295981893   , 0.0690300573903104286  ,-0.310641078595213171   , 0.254849838524609018   ,
/* Mode 2 (1 5) */
  -0.0690720529297288444  , 0.12296846402199671    , 0.0991275458559777584  , 0.0570364862231014166  ,-0.0987628914416143755  ,-0.146569319771216511   , 0.129852201594629291   ,-0.0997708344767194166  ,
   0.131461057892290595   ,
/* Mode 2 (2 5) */
  -0.0665405401270910968  , 0.101601864380367779   ,
/* Mode 2 (3 5) */
   0.11875535664392621    ,
/* Mode 2 (4 5) */
  -0.0969515819182009547  , 0.120789864146674267   , 0.0759780020644130333  ,
/* Mode 2 (5 5) */
/* Mode 2 (6 5) */
/* Mode 2 (7 5) */
/* Mode 2 (0 6) */
  -0.0689375378374161574  ,-0.28670758810108965    , 0.24271323115013374    ,
/* Mode 2 (1 6) */
   0.0684300762767951348  ,-0.0875399551494755596  ,-0.195400499582642995   , 0.169985715077578065   ,
/* Mode 2 (2 6) */
  -0.112853271078120806   ,-0.0551876641536412638  , 0.0832799644831827002  ,-0.125211492380885359   ,
/* Mode 2 (3 6) */
  -0.153312773627593463   ,-0.115044959174267006   , 0.130570236857683458   ,
/* Mode 2 (4 6) */
   0.0915277280077142485  , 0.0984247826756155103  , 0.126799622073824753   ,
/* Mode 2 (5 6) */
/* Mode 2 (6 6) */
/* Mode 2 (7 6) */
/* Mode 2 (0 7) */
  -0.245066460881074893   , 0.249418076083122969   ,
/* Mode 2 (1 7) */
  -0.213465237528229046   , 0.199456317750905054   ,
/* Mode 2 (2 7) */
   0.0982864013557830096  , 0.0926866792093991032  ,
/* Mode 2 (3 7) */
   0.0803426891684502625  , 0.0886001741540216881  , 0.0517848700758424957  ,
/* Mode 2 (4 7) */
  -0.0625614141141706548  ,
/* Mode 2 (5 7) */
/* Mode 2 (6 7) */
/* Mode 2 (7 7) */
/* Mode 3 (0 0) */
   0.0691192585964481854  ,-0.133220393438484574   , 0.128613781866451837   ,-0.172579474189951121   ,-0.11505271415586428    , 0.280548280562493091   ,-0.249669573588128857   ,-0.395805615164002811   ,
   0.169690056421810453   ,-0.325432822567654045   , 0.276886864445188008   ,-0.086625930378171706   , 0.119288260630978513   ,-0.157342122743810264   , 1.01871550079410511    ,-1.66962911639746436    ,
   1.91037480681532101    ,-1.5710930788130697     , 0.750898133042823823   ,-0.790422233127533236   , 0.795690627866511679   ,-0.0905587733589796329  , 0.439398017007929798   ,-0.626445178605490316   ,
   0.275791027936903244   ,
/* Mode 3 (1 0) */
  -0.112640025074186204   , 0.0697346991469154354  , 0.0812341939687107745  ,-0.152066486301042914   , 0.0067546724654164057  ,-0.00778599140963948198 ,-0.12279137933573285    , 0.369283742998766595   ,
  -0.388150059326939134   , 0.148365225761511094   ,
/* Mode 3 (2 0) */
  -0.115165614955288154   , 0.109662089636415272   ,-0.140010356291042887   ,-0.0590925671400662419  , 0.154737656616189406   ,-0.168391831525731284   , 0.126476875332098393   ,
/* Mode 3 (3 0) */
  -0.125892396509330096   , 0.116030388932936268   ,-0.100707974668858405   , 0.0201740715567294594  ,-0.0339711737151519103  , 0.0927416383381327591  ,-0.0758786990423677837  ,
/* Mode 3 (4 0) */
  -0.155636735151870348   , 0.132176579047864035   ,-0.0832697454416264082  , 0.0232086502532253929  ,-0.0448257163137215572  , 0.0565475913379678008  ,-0.0672857179276988571  ,
/* Mode 3 (5 0) */
  -0.121641041664395877   , 0.134043619986377677   ,-0.0938287677693834948  , 0.0997918920902758771  ,-0.0639385917096703671  ,
/* Mode 3 (6 0) */
  -0.122827931823832351   , 0.156036628318262954   ,-0.0991549084470404185  ,
/* Mode 3 (7 0) */
  -0.123274560469069996   , 0.132915121541020503   ,-0.101250534693651154   ,
/* Mode 3 (0 1) */
   0.0693602681153933642  ,-0.0777923077171606137  , 0.0881677333079845804  ,-0.128578572388311912   , 0.186923204419881278   ,-0.194279730417659113   , 0.207461471489191224   ,-0.252756469929868999   ,
   0.165746285254495779   ,-0.0903612030704385449  , 0.0290254132858166168  , 0.12610354141499025    ,-0.180579938614872454   , 0.0226420852822123674  ,-0.0619675044280127083  , 0.864382093450430267   ,
  -0.905500526610163781   , 0.771990595658594958   ,-0.705966369227535306   , 0.30463912949125066    ,-0.37232632268684468    ,-0.145728362890122337   , 0.300599916355634766   ,-0.306717697888101437   ,
/* Mode 3 (1 1) */
  -0.104396345906024146   , 0.0591156743872768703  , 0.120265582509727909   ,-0.182982831215235869   , 0.0967454415578142407  ,-0.0645622332341333205  , 0.232221585105724548   ,-0.207699280794601482   ,
/* Mode 3 (2 1) */
  -0.113500996636130447   , 0.0932443637371004469  , 0.0683558121643331046  ,-0.127789481657158199   ,-0.0399343853272156046  , 0.0822655299100060605  ,-0.0826697088684277964  ,
/* Mode 3 (3 1) */
  -0.124583469171191757   , 0.0975264237926816158  ,-0.0905946987310118634  ,
/* Mode 3 (4 1) */
  -0.125035958403156372   , 0.103006902544468384   ,-0.0800939635767727448  , 0.0174794643794125015  ,-0.0302439531018016509  ,-0.0766598222234070731  ,
/* Mode 3 (5 1) */
  -0.10958641311173703    , 0.099193052335946108   ,-0.0739962721654298522  ,
/* Mode 3 (6 1) */
  -0.132226437518718182   , 0.130359254659933588   ,-0.0801990891574935888  ,
/* Mode 3 (7 1) */
  -0.140251376189453769   , 0.137113214737366096   ,-0.0820483116913984512  ,
/* Mode 3 (0 2) */
   0.0250837450460551399  ,-0.0421022919377255778  , 0.0974712408550307552  ,-0.109759352899502241   ,-0.0929883076753826865  , 0.128048165827289673   ,-0.0413011692684479223  , 0.0207639339268794951  ,
  -0.0712621516957095552  , 0.102617510997891709   , 0.0192363892321357026  ,-0.0456568323197770534  , 0.0257222163614417958  , 0.69058999072665983    ,-0.43580727942883829    , 0.230529327685022711   ,
  -0.367224425145092626   , 0.234248339969838348   ,-0.120919033195889078   , 0.139551935688740303   ,
/* Mode 3 (1 2) */
  -0.044245034601627882   , 0.0325325242979704818  ,-0.0801620129733852521  , 0.101853357482922541   ,-0.0750111818773227385  , 0.161700982612124011   ,-0.161003725478927967   ,
/* Mode 3 (2 2) */
  -0.0462992083952988645  , 0.043824119518667437   ,-0.0534422232176119186  , 0.0754029811201098604  ,-0.0807238645262874505  , 0.0624733560667316348  ,
/* Mode 3 (3 2) */
  -0.0578778898117098123  , 0.0535148272156399929  , 0.0722763064173059522  ,-0.086991168779895503   ,
/* Mode 3 (4 2) */
  -0.0484415808056188266  , 0.053064921824148667   ,-0.0673149126656805846  ,
/* Mode 3 (5 2) */
  -0.0309504635052607162  , 0.0405753052832167407  ,-0.0536329790023865327  , 0.0563265389449685641  ,
/* Mode 3 (6 2) */
  -0.0314053720729586955  , 0.0421595847745891913  ,-0.0518000761716052305  ,
/* Mode 3 (7 2) */
  -0.0460032764552071732  , 0.0423568837521693733  ,-0.0493735799053650684  ,
/* Mode 3 (0 3) */
   0.0531639797839374428  ,-0.104426819451372957   , 0.0195153147485427614  ,-0.0307121561014889292  , 0.0939066024498208668  , 0.0441370465462999559  , 0.570602392968136196   ,-0.282594486935228095   ,
  -0.19695841866299782    ,-0.139627811360635706   ,
/* Mode 3 (1 3) */
   0.0303287492971382605  ,-0.0438006587594112762  , 0.0872711775745789176  ,-0.0954017959324032216  , 0.111464262003238598   ,-0.105504410250833874   ,
/* Mode 3 (2 3) */
   0.0249346833978964996  ,-0.0456826985344620171  , 0.085280990905306997   ,-0.0969011952974479229  ,
/* Mode 3 (3 3) */
  -0.0609284502574991352  , 0.0552798061445602396  ,-0.0825236366659417575  ,
/* Mode 3 (4 3) */
  -0.0595832726852128375  ,
/* Mode 3 (5 3) */
  -0.0506552489735804662  ,
/* Mode 3 (6 3) */
  -0.0556082832712746847  , 0.0604635603455443496  ,
/* Mode 3 (7 3) */
  -0.0723435707171871945  , 0.0459619086249792863  ,
/* Mode 3 (0 4) */
  -0.0552572730212789118  , 0.0589468435971017349  , 0.0161654861521227135  ,-0.0333962459451819862  , 0.0440431792521755114  , 0.0490208365498497264  , 0.441467922828477577   ,-0.183437362595305326   ,
  -0.0986762258542308035  , 0.0988977615972453095  ,
/* Mode 3 (1 4) */
   0.0193842503783625969  ,-0.0400026076018883542  ,-0.066254787279395766   ,
/* Mode 3 (2 4) */
  -0.028246013784216345   ,
/* Mode 3 (3 4) */
   0.0798874866188042376  ,
/* Mode 3 (4 4) */
   0.0486554220545857632  ,
/* Mode 3 (5 4) */
  -0.0377993323492978595  ,-0.069083735559931983   ,
/* Mode 3 (6 4) */
/* Mode 3 (7 4) */
/* Mode 3 (0 5) */
  -0.0643457404039381314  , 0.0636391690685890049  , 0.378808821472956359   ,-0.112522349840997848   ,-0.0658307604474417801  ,
/* Mode 3 (1 5) */
   0.0906328681014000603  ,-0.115405965701595989   ,
/* Mode 3 (2 5) */
/* Mode 3 (3 5) */
  -0.0684856180696606365  , 0.126806226531788024   ,
/* Mode 3 (4 5) */
  -0.0476232159351000564  , 0.0723902158063865625  ,
/* Mode 3 (5 5) */
   0.0649826453024033579  ,
/* Mode 3 (6 5) */
  -0.0433607956614059306  ,-0.0511550728772661306  ,
/* Mode 3 (7 5) */
  -0.0448926308665483983  ,
/* Mode 3 (0 6) */
  -0.0535765082826978531  , 0.0504200289515981323  , 0.072666787195195634   , 0.0612940069796687956  , 0.38588211111993681    ,-0.0990042413992273662  ,-0.0555421455329973765  ,
/* Mode 3 (1 6) */
/* Mode 3 (2 6) */
/* Mode 3 (3 6) */
  -0.0383953262351566862  ,
/* Mode 3 (4 6) */
/* Mode 3 (5 6) */
  -0.0769618445237934129  ,
/* Mode 3 (6 6) */
/* Mode 3 (7 6) */
/* Mode 3 (0 7) */
  -0.0469759811347775919  ,-0.0586194027379031077  ,-0.0409447897107237738  ,-0.145317195423454282   , 0.0489456760356399012  , 0.509352334728471856   ,-0.152515663668459173   ,
/* Mode 3 (1 7) */
  -0.0839121956034665217  , 0.0777302348412037408  ,
/* Mode 3 (2 7) */
  -0.0388963309494675877  ,
/* Mode 3 (3 7) */
/* Mode 3 (4 7) */
  -0.0544516914138042513  ,
/* Mode 3 (5 7) */
/* Mode 3 (6 7) */
/* Mode 3 (7 7) */
/* Mode 4 (0 0) */
   0.302540644246945933   ,-0.289576555623705656   ,-0.311338422262575687   , 0.348684821403152989   ,-0.194761301915527013   ,-0.058801692463608321   , 0.124234450465122714   ,-0.375494500914948737   ,
   0.294066137150169271   , 0.0895792947200219902  , 0.757799823146390716   ,-0.820694878671854533   , 0.488212973855248811   ,-0.471887114321760837   , 0.319688075629231794   , 0.600468624620160707   ,
  -0.741058344705684213   , 0.408813988310867016   ,-0.471872724057866511   , 0.402527819741774984   ,-0.173017531002081698   , 0.189068736752829897   ,
/* Mode 4 (1 0) */
  -0.0228795307092666787  ,-0.179645732855613832   , 0.204504992536768404   , 0.0208391101147401489  ,-0.164814673552214186   , 0.318283357337850015   ,-0.25666735416731673    ,
/* Mode 4 (2 0) */
   0.012232452250820737   ,-0.143641686222541143   , 0.1744400889959421     ,-0.0120323342790418144  ,-0.0406803596779763618  , 0.0928562075586363556  ,
/* Mode 4 (3 0) */
  -0.141746153088914084   , 0.186178069732491208   ,
/* Mode 4 (4 0) */
  -0.156091619658011549   , 0.172011225062843193   ,
/* Mode 4 (5 0) */
  -0.162517166980660099   , 0.17161621099639926    ,
/* Mode 4 (6 0) */
  -0.127401358661473146   , 0.180603590202403436   ,
/* Mode 4 (7 0) */
  -0.161611986127484147   , 0.186217654777264791   ,
/* Mode 4 (0 1) */
   0.156780045672011509   ,-0.129908340594787369   ,-0.261751979154817904   , 0.260935683081559067   , 0.281935091423623552   ,-0.339991216512594285   , 0.242247253165058463   , 0.102759669153323518   ,
  -0.0911120464888221793  ,-0.343724682656953662   , 0.492689866932192744   ,-0.223506395564651045   , 0.109157063411102248   , 0.109483245154265635   ,-0.156316338558519147   ,-0.16932942846940105    ,
  -0.158751958223927014   , 0.248429069332877783   ,-0.19643024659034658    , 0.209690073173261438   ,-0.158200863447835766   , 0.751167466490815894   ,-0.631515661293228114   , 0.331789853385293931   ,
  -0.347183428672045269   ,
/* Mode 4 (1 1) */
   0.0222479068924317409  ,-0.0233850606975120612  ,-0.143129516170862892   , 0.0554609351090252292  , 0.148461100285444292   ,-0.0837963386800683468  , 0.173123560315259578   , 0.0683877338977110089  ,
  -0.164260541336742671   , 0.220139053344434676   ,-0.180740694871120711   ,
/* Mode 4 (2 1) */
  -0.135642074643760102   , 0.145887765577233153   , 0.0828932083419577498  ,
/* Mode 4 (3 1) */
  -0.147554524040993035   , 0.161796689303015773   ,
/* Mode 4 (4 1) */
  -0.140198732990199942   , 0.132460593886103761   ,
/* Mode 4 (5 1) */
  -0.158436658694065174   , 0.163024364190682336   ,
/* Mode 4 (6 1) */
  -0.135257160520968422   , 0.179156234991190294   ,
/* Mode 4 (7 1) */
  -0.143565861475980133   , 0.153355838090105251   ,
/* Mode 4 (0 2) */
  -0.0880016138900048817  , 0.0804516461483665984  , 0.254955937600616522   ,-0.24294466275786783    ,-0.283401548998856612   , 0.200937084648051628   ,-0.0649828969468734252  ,-0.151817190695864412   ,
   0.137647435698746795   , 0.303725563017749778   ,-0.281921615233968248   , 0.0415046873682468551  ,-0.0963961328084885355  , 0.118854437814857328   ,-0.135463639656321161   , 0.164054886969856706   ,
  -0.214834472375637159   , 0.231338025036164935   , 0.433085967256772564   ,-0.19774639142698644    ,
/* Mode 4 (1 2) */
  -0.0472741113168830759  , 0.0664790081622207707  , 0.0438179458450380852  ,-0.117925757224963984   , 0.1429292238968774     , 0.107610959957256364   ,-0.176125764071697277   , 0.0744592450709311848  ,
  -0.0360328909293559305  ,-0.158407714423513535   , 0.168209068087562585   , 0.0917698061332123255  ,-0.117293590493168051   ,
/* Mode 4 (2 2) */
/* Mode 4 (3 2) */
/* Mode 4 (4 2) */
/* Mode 4 (5 2) */
/* Mode 4 (6 2) */
/* Mode 4 (7 2) */
/* Mode 4 (0 3) */
   0.0659696980497753299  ,-0.149171838299387072   , 0.0877575513711888744  , 0.174890996270825605   ,-0.154167409823632529   , 0.0535152657508166374  , 0.100023671651342183   ,-0.0759861401139203391  ,
  -0.223910617534337997   , 0.198170404581702181   ,-0.0514348903227546325  , 0.0728616979365297179  , 0.107647481202163192   ,-0.0852322984338986234  , 0.127606369550766152   ,-0.321916122799718929   ,
   0.314373738322626051   , 0.254608813784995502   ,
/* Mode 4 (1 3) */
   0.0601461430682821221  ,-0.10962930309821417    ,-0.0768505160922013791  , 0.12813555524657419    ,-0.100959196534355394   ,-0.054029046264596238   , 0.101730678080444725   , 0.108695853354028815   ,
  -0.15634440592584975    ,-0.130530336063159946   , 0.208466961190383299   ,-0.0836916329272801851  ,-0.0819931274103334606  , 0.150032548142942757   , 0.169449467279296523   ,-0.202386943297449412   ,
/* Mode 4 (2 3) */
   0.0557694365624992333  ,-0.0529873245835296089  , 0.0929165174707412556  ,
/* Mode 4 (3 3) */
/* Mode 4 (4 3) */
/* Mode 4 (5 3) */
/* Mode 4 (6 3) */
/* Mode 4 (7 3) */
/* Mode 4 (0 4) */
   0.0959392916558100689  ,-0.0871453051345974783  ,-0.0846738123917255142  , 0.074818194958669107   , 0.166001006681939595   , 0.0569082272385517743  , 0.078071061524985691   ,-0.0950584899454268856  ,
  -0.346324188603346239   , 0.270390282137912108   , 0.144908924571082537   ,
/* Mode 4 (1 4) */
  -0.0480710403011386719  , 0.0739565820586979006  , 0.0713235962386155331  ,-0.0816121391355951881  , 0.0657061244246476273  ,-0.107338459491039623   ,-0.121782468480720482   , 0.125980667214232872   ,
   0.123380667341928887   ,-0.146000113428729733   ,-0.0835719800720904765  , 0.138622791293783049   ,-0.11368361570568726    ,-0.128378548876082799   , 0.118433031923433518   , 0.120771960850858576   ,
  -0.148998149586904521   ,
/* Mode 4 (2 4) */
   0.0437989979657758335  , 0.044062796416522533   ,-0.072067159419778315   , 0.0634244566134755106  , 0.0788102292767227375  ,
/* Mode 4 (3 4) */
/* Mode 4 (4 4) */
/* Mode 4 (5 4) */
/* Mode 4 (6 4) */
/* Mode 4 (7 4) */
/* Mode 4 (0 5) */
  -0.351119071874731847   , 0.241630914403711816   ,
/* Mode 4 (1 5) */
  -0.0636212153661289137  , 0.10627922594135332    ,-0.0552837851164545008  , 0.0727988279427740914  ,-0.130327670827865921   ,-0.0860323780472460747  , 0.124678717988422949   ,-0.0986366905594481813  ,
  -0.181588079215248083   , 0.194060846635958573   , 0.139875589821665897   ,-0.110687898057255804   , 0.115169417101744262   ,
/* Mode 4 (2 5) */
   0.0639496658310239746  ,-0.0693561740024865037  , 0.0581708724013886569  ,-0.102596885555537407   , 0.124948720021620691   ,
/* Mode 4 (3 5) */
   0.0830394429783748167  ,-0.092625860932127449   ,
/* Mode 4 (4 5) */
   0.0973994450289972918  ,
/* Mode 4 (5 5) */
/* Mode 4 (6 5) */
/* Mode 4 (7 5) */
/* Mode 4 (0 6) */
  -0.3011071109627807     , 0.218882172895300875   ,
/* Mode 4 (1 6) */
  -0.0763487118178947793  , 0.116000934060255648   ,-0.232071750656439729   , 0.282280469528128575   ,-0.115089908798175183   , 0.133234564159132041   ,
/* Mode 4 (2 6) */
  -0.0809135209985263198  ,-0.101059627693188783   ,-0.111335161350348502   ,-0.119633732974068055   , 0.0723578800114994536  ,-0.111597192011440624   ,-0.108080166788017948   , 0.169339408144207504   ,
/* Mode 4 (3 6) */
   0.102812412139645093   , 0.13596888004494817    ,
/* Mode 4 (4 6) */
/* Mode 4 (5 6) */
/* Mode 4 (6 6) */
/* Mode 4 (7 6) */
/* Mode 4 (0 7) */
  -0.358747580232250618   , 0.237309468641079935   ,
/* Mode 4 (1 7) */
  -0.28585815255010949    , 0.296872199199836595   ,-0.123692773732222983   ,
/* Mode 4 (2 7) */
   0.0877699356520537516  , 0.0671872475640564459  , 0.103216635587913191   , 0.0881190535285996251  ,-0.205910781369078977   , 0.0659938216480298462  ,-0.0912772529823054624  ,
/* Mode 4 (3 7) */
  -0.0659661099254123806  , 0.0662197203920968092  ,-0.115290946554073473   , 0.142152863274911084   ,
/* Mode 4 (4 7) */
  -0.0597955690673037804  , 0.116802147654934546   ,
/* Mode 4 (5 7) */
/* Mode 4 (6 7) */
/* Mode 4 (7 7) */
/* Mode 5 (0 0) */
   0.455429804204002808   ,-0.358907658750705016   , 0.357555703916144108   ,-0.346515188239359673   , 0.327365679198919013   , 0.461400124761858821   , 0.236349887617793103   , 0.36517710734082387    ,
  -0.533097810856680399   ,-0.240512865793786279   ,-1.2083958358981457     , 0.349862138915122356   , 0.836342533792633791   , 0.354953818570848789   , 0.0795442437535190672  , 0.23052432005694265    ,
   0.153962680600334745   ,-0.460453572228116059   ,-0.323677655120482577   , 0.278094780958201893   , 0.199570461933130494   , 0.403889346986593401   ,-1.39903744342592717    , 1.075290792620613      ,
   0.52474737548810535    ,-0.932721754350281484   , 1.11034020994695459    , 0.698245108207108611   ,-0.632438604145192595   , 0.287211403879608362   ,
/* Mode 5 (1 0) */
   0.033532401693147619   ,-0.0996402820439111908  ,-0.0915954145552825699  ,-0.402338055889929935   , 0.343657548454366968   , 0.0917328176585076177  ,-0.225166688824559147   , 0.588878621803535895   ,
  -1.05011330863760888    , 0.191966008206440164   ,
/* Mode 5 (2 0) */
  -0.196311049758381179   , 0.235246050233587162   ,-0.0660586628076590687  ,-0.288989964751678929   ,
/* Mode 5 (3 0) */
  -0.174903969743548243   , 0.213016112387146905   ,
/* Mode 5 (4 0) */
  -0.170822042107002525   , 0.237603808790943616   ,
/* Mode 5 (5 0) */
  -0.168206450379463524   , 0.207847837545778957   ,
/* Mode 5 (6 0) */
  -0.169750350746476625   , 0.198990400385850391   ,
/* Mode 5 (7 0) */
  -0.18552953958431323    , 0.211135927108450167   ,
/* Mode 5 (0 1) */
   0.0669715097240786011  ,-0.232149864681207352   , 0.110133210376517757   , 0.115773535503453595   , 0.137319042364737881   ,-0.198144346916385855   ,-0.26802495960187378    , 0.197594921036516602   ,
   0.372499375839800306   ,-0.227808447637828843   ,-0.609591649504847566   ,-0.134635061108708681   ,-0.456749814208032345   , 0.470728000463926322   ,-0.478369555195639673   , 0.45372917738546914    ,
  -0.275551110697921209   ,
/* Mode 5 (1 1) */
   0.086742126043696216   ,-0.0916438428097668401  ,-0.103612059114985347   , 0.15233617566821972    ,-0.166656222020328676   , 0.152605161325238436   ,-0.143975793099529403   , 0.209033909857067546   ,
  -0.0561228199318351134  ,-0.0850881499233850647  , 0.148871176161107538   , 0.0985122860766852182  , 0.112798170965653033   ,-0.340114612135556049   ,-0.120781724065896073   ,-0.257401213493393899   ,
  -0.0436362997360969368  , 0.106504362556313015   , 0.271279347594520603   ,-0.485406228142970464   , 0.182996161471964153   ,-0.303554081596941749   , 0.234240186994200933   ,
/* Mode 5 (2 1) */
  -0.1060804334408295     ,-0.179181057539909483   , 0.0558742344277920466  , 0.212157143328024544   ,-0.143801625773466973   ,-0.0902420643524310812  , 0.158607206811324758   ,-0.208910971354636099   ,
   0.166976220608797576   ,
/* Mode 5 (3 1) */
  -0.163645120742767464   , 0.216882190376780248   ,
/* Mode 5 (4 1) */
  -0.161024731990288272   , 0.182637535720238053   ,
/* Mode 5 (5 1) */
  -0.161731463534809383   , 0.15649870196639748    ,
/* Mode 5 (6 1) */
  -0.163454027608602032   , 0.174070259724103282   ,
/* Mode 5 (7 1) */
  -0.170051666701228454   , 0.167845826398761166   ,
/* Mode 5 (0 2) */
  -0.011583082683214509   ,-0.068757855282410546   , 0.15263260504862089    , 0.0509066382585563401  ,-0.315020646262234028   , 0.310067210601860321   ,
/* Mode 5 (1 2) */
  -0.0368413175215333843  , 0.0583552479702008561  , 0.0906485742147044027  ,-0.168180058677910554   , 0.0381662443494458839  ,-0.0926303472837946701  ,-0.0993373684793182055  ,-0.0822926633268424024  ,
   0.102354513500430622   , 0.212450914787345485   ,-0.215241440255804134   ,-0.174723018096205496   ,-0.0537632280528867815  , 0.102732353179814342   ,-0.110762561414087982   ,-0.193347688650556349   ,
   0.135902656994941001   ,-0.225671253972572317   ,
/* Mode 5 (2 2) */
   0.0493183016901907467  , 0.137539815404542021   ,-0.11026898397981709    , 0.0545715546964809367  ,-0.0817406404805289533  , 0.158173883318337288   , 0.105606073800670594   ,-0.152100693445450158   ,
  -0.0859949107785247802  ,-0.0919264562248928996  ,-0.0945731116273024058  , 0.16488700598686426    ,
/* Mode 5 (3 2) */
  -0.104733737431674676   , 0.140018683032983815   , 0.100804004153604937   , 0.0859815050287785348  , 0.0715798552306798064  ,
/* Mode 5 (4 2) */
  -0.0675393720536134889  , 0.1007645072435506     ,
/* Mode 5 (5 2) */
  -0.0982800042381018618  ,
/* Mode 5 (6 2) */
   0.10532301384435884    ,
/* Mode 5 (7 2) */
/* Mode 5 (0 3) */
  -0.205455021750229033   , 0.246669233482602973   ,
/* Mode 5 (1 3) */
   0.0691573053627048129  ,-0.141198562824247226   , 0.0787890756502038631  ,-0.187209788044328002   , 0.268596859684818168   ,
/* Mode 5 (2 3) */
  -0.0588624306267595612  ,-0.055511071516161449   ,-0.0559643854094896837  , 0.106683340117963335   , 0.0747852536505783094  ,-0.135106182549223131   , 0.0722288399522533903  ,-0.124889751547169053   ,
/* Mode 5 (3 3) */
   0.0627833453283614951  ,-0.0730170337733424824  ,-0.106879495006498307   , 0.129633793847537399   ,-0.0671289169108267719  , 0.0968777882959430126  ,-0.0602794122939036281  , 0.105803899573859952   ,
  -0.151844487998080674   ,
/* Mode 5 (4 3) */
  -0.0894537900766309152  ,-0.0735783724189384286  ,
/* Mode 5 (5 3) */
   0.0555794655727195122  , 0.0755619279292255586  ,
/* Mode 5 (6 3) */
/* Mode 5 (7 3) */
/* Mode 5 (0 4) */
  -0.163527313301050303   , 0.216563401995323396   ,
/* Mode 5 (1 4) */
  -0.167254926194814524   , 0.234418195139098035   ,
/* Mode 5 (2 4) */
  -0.0730663040654129514  , 0.113374072925377101   , 0.0706395725076000291  ,-0.0727845807483827184  , 0.0845004344699786664  , 0.103813726935936393   ,
/* Mode 5 (3 4) */
   0.0820193584909699874  ,-0.103053063662357045   , 0.145322710992795451   , 0.119339557569965116   ,-0.113433377630183699   ,
/* Mode 5 (4 4) */
  -0.0891249972236611288  ,-0.0804642375820693451  ,-0.127632726380128875   ,-0.0934836746529568025  , 0.116142966802364023   ,-0.122511503941826583   , 0.148702651600228997   ,
/* Mode 5 (5 4) */
   0.0891614675594323558  , 0.0749878232790430338  ,
/* Mode 5 (6 4) */
   0.0807161253015108576  ,
/* Mode 5 (7 4) */
/* Mode 5 (0 5) */
  -0.217486169311585792   , 0.251790662364734852   ,
/* Mode 5 (1 5) */
  -0.162517799295880477   , 0.235603788612820719   ,-0.118386874103773299   ,
/* Mode 5 (2 5) */
   0.115624065927594721   , 0.0962783239694446208  ,
/* Mode 5 (3 5) */
  -0.123082169282581533   ,-0.0733100581101875093  ,-0.114834244576028227   , 0.0999087902695921237  ,-0.101530615139831262   ,-0.0975285188277052739  , 0.134132757461817992   ,
/* Mode 5 (4 5) */
  -0.137684936765773785   , 0.10738602051928979    , 0.0838086138701211875  ,-0.10311645313174983    , 0.0777577366483155064  ,-0.127679342170734955   , 0.223643122983127912   ,
/* Mode 5 (5 5) */
   0.108615926871526561   ,-0.110510650617063222   ,-0.121912506054814768   ,
/* Mode 5 (6 5) */
/* Mode 5 (7 5) */
/* Mode 5 (0 6) */
  -0.199310877522257374   , 0.217944405251526446   ,
/* Mode 5 (1 6) */
  -0.160695188974700642   , 0.214727576595146658   ,
/* Mode 5 (2 6) */
  -0.127904312400022868   , 0.101651521900965658   ,
/* Mode 5 (3 6) */
  -0.115644991676171593   , 0.0925200002437588792  , 0.0621131935063462676  , 0.142578240653647575   ,
/* Mode 5 (4 6) */
   0.073411998053340935   , 0.0762361163312074708  ,-0.120276476176927966   ,-0.111555616156038623   ,
/* Mode 5 (5 6) */
   0.113222262374622892   ,
/* Mode 5 (6 6) */
   0.104245339167664916   ,
/* Mode 5 (7 6) */
/* Mode 5 (0 7) */
  -0.156925780121160457   , 0.210788318415752157   ,
/* Mode 5 (1 7) */
  -0.170184507716071798   , 0.240623284081646238   ,
/* Mode 5 (2 7) */
/* Mode 5 (3 7) */
   0.106786585376552182   ,
/* Mode 5 (4 7) */
/* Mode 5 (5 7) */
/* Mode 5 (6 7) */
/* Mode 5 (7 7) */
/* Mode 6 (0 0) */
   0.349859835193532698   ,-0.339049805466871856   ,-0.194131828581491472   ,-0.467018789413707947   , 0.435066918910010647   ,-0.239945736698114642   , 0.309576820676629116   ,-0.324458364595780813   ,
  -0.220585951910367006   , 0.326959495372965758   , 0.678547992419467949   , 0.624254475759376315   ,-0.735128254699814909   ,-0.937121405698820298   , 0.432010412123573162   , 0.683637712097439287   ,
  -0.548993772941953062   ,-0.391861083496613027   , 0.376715811798909839   ,-0.1226368414883688     ,-0.224456080551112352   , 0.0856140091439000633  , 0.12879663654419915    , 0.251641925808203715   ,
  -0.267912024281078687   ,-0.190518560906197204   , 0.227995289102772475   ,-0.0392922542484860707  ,-0.241263515117273675   , 0.267820978662816345   , 0.342913734583810692   ,-0.446586115562015717   ,
   0.277326466049472642   , 0.156575276666126195   ,-0.192286433893558206   ,
/* Mode 6 (1 0) */
   0.111158160753374896   ,-0.245655943197063936   , 0.339666070271190723   ,-0.251507460834796026   ,-0.132448919193433101   , 0.287828373888054656   ,-0.352311887668898038   , 0.268932600818079959   ,
  -0.17722929143489391    , 0.103238258434785748   , 0.624100042314963188   , 0.204928370753788253   , 0.121505376390047506   ,-0.548820046234696823   ,-0.134002026634508803   , 0.308082174070960446   ,
   0.0408272521864744137  , 0.108743253691020003   , 0.181982482724068168   , 0.0256026910760236912  ,-0.118958608632569837   , 0.211513480316062152   , 0.202517339794809598   ,-0.400198394724862461   ,
   0.403802803872630733   ,-0.335890458141376469   ,
/* Mode 6 (2 0) */
  -0.0688596983382777361  , 0.183427398375938661   ,-0.192656461440458421   ,-0.136965258867419476   , 0.164007987166984726   , 0.0202338064978793523  ,-0.107817940706121676   ,-0.238631638119070816   ,
   0.2506494092059664     , 0.066060297138975474   , 0.264471500450437602   ,-0.175072496059048593   ,-0.0199749528529933745  ,-0.0563377269812952858  ,-0.111129809231760329   , 0.113698027346758518   ,
  -0.0644270541351520953  , 0.159643713273106613   ,-0.143396436350927636   ,-0.122811829772282222   , 0.201239011780324106   ,-0.216014156611514074   ,
/* Mode 6 (3 0) */
  -0.0815610747805057962  , 0.102315772409988209   , 0.0891676692710988289  ,-0.122877391152827892   ,-0.0678932291863729581  ,-0.272332181935842577   , 0.110124959187635985   , 0.229111910546090924   ,
  -0.123688479543637805   , 0.050003943532194367   ,-0.11621061205663033    , 0.160266216789794885   ,-0.120367672780057833   , 0.138694557616957787   ,
/* Mode 6 (4 0) */
  -0.262047080060482551   , 0.235137105997373558   ,-0.051977569408517138   , 0.100433050431197074   ,
/* Mode 6 (5 0) */
  -0.250891513935816879   , 0.250813989650770452   , 0.0983545289615411489  ,
/* Mode 6 (6 0) */
  -0.191146776566667315   , 0.211696079722258235   ,
/* Mode 6 (7 0) */
  -0.201460251602983031   , 0.201859320710395473   ,
/* Mode 6 (0 1) */
  -0.0274466337478507724  , 0.0925695668663533283  , 0.15559057292695655    , 0.029158859993060969   ,-0.183618728893259892   , 0.348116815591402173   ,-0.225680172083517899   ,-0.244535251188052027   ,
   0.247360722672914868   ,
/* Mode 6 (1 1) */
   0.0398835954165896525  ,-0.0573493618577979869  ,-0.142083669920218175   , 0.194226064531266951   ,-0.161696247598456078   ,-0.0406151522747311006  , 0.0795445359813559821  ,-0.098190395211851314   ,
  -0.152845586336073841   , 0.196308037370092781   ,-0.114024248586694077   , 0.16785075041225328    ,
/* Mode 6 (2 1) */
  -0.0393352038803943746  , 0.0662082464189698988  , 0.0503015534885635357  ,-0.0816901167161706576  ,-0.0352976015109013677  , 0.119002272721286315   , 0.0838426426425230992  ,-0.132482355412920694   ,
  -0.10351237338643976    , 0.0392963644846174159  ,-0.108321579268138443   , 0.12106721226264229    ,-0.0808833662587529756  , 0.1533248102353654     ,-0.195452874362880807   ,
/* Mode 6 (3 1) */
   0.0426520146583539567  ,-0.0713443334734418233  , 0.0892496814450526865  ,-0.0615048500156234884  ,-0.0644010419939871487  ,-0.115478904109214978   , 0.0991784119430300926  , 0.106216320044915644   ,
  -0.130880863305541967   ,-0.108173828277910042   , 0.172344310918894628   ,-0.0461456970870857963  , 0.0902353962190435149  , 0.0883572093416575693  ,-0.180740381056372218   , 0.176946424686266895   ,
/* Mode 6 (4 1) */
   0.0948616134865172822  ,-0.0552392054664538126  ,-0.147938779047884855   , 0.0864000880380374481  , 0.060907363369988872   , 0.130554591818194565   ,-0.120900517658119877   , 0.0553038033632715781  ,
  -0.0690228626175009852  , 0.0803119390152741419  , 0.1292333820380549     ,
/* Mode 6 (5 1) */
   0.0925097635184357753  ,-0.0728048673430152504  ,-0.181215812757853617   , 0.0723386927925118578  , 0.201290415506144238   ,-0.106970620450734286   ,-0.0856018884057285073  ,
/* Mode 6 (6 1) */
  -0.0638092089182357713  ,-0.152978255263225754   , 0.0716666866072841607  , 0.224904462821253565   ,
/* Mode 6 (7 1) */
  -0.20720424255021952    , 0.229417344714022531   ,
/* Mode 6 (0 2) */
   0.0686090309072380777  ,-0.0947054602333133738  ,-0.137103204341200019   , 0.155260258910018961   ,
/* Mode 6 (1 2) */
  -0.142036721271127597   , 0.141309823088744901   ,
/* Mode 6 (2 2) */
  -0.0544287321299518345  , 0.0870483420326368385  , 0.104532154885902395   ,-0.0508417048457680126  ,
/* Mode 6 (3 2) */
   0.0597809628459796197  , 0.0408371226181262412  ,-0.0778075658460499198  ,-0.0425927701782219184  , 0.0705845067665407111  ,-0.0929973902840382366  ,-0.0995619512192505163  , 0.117864690004090861   ,
/* Mode 6 (4 2) */
  -0.061097770243574101   , 0.0981112894806720898  ,-0.0756902073784020135  ,-0.0815237813424169316  , 0.11404574139717942    ,-0.108123894478166227   , 0.0518536749000456237  ,-0.0757502821843231977  ,
   0.0698779397379417216  , 0.10879025316268312    ,-0.0995727835483674606  ,
/* Mode 6 (5 2) */
   0.0465456751714001873  ,-0.081790587830649672   ,-0.0649264083686918181  , 0.0908052310559751691  , 0.0806922601457524397  ,-0.105079691267048442   , 0.064282491621267257   ,
/* Mode 6 (6 2) */
   0.0539086871646995633  ,-0.0618848471047092341  ,-0.0753050089218380986  , 0.0905142755724418074  ,
/* Mode 6 (7 2) */
  -0.078371822654369136   ,
/* Mode 6 (0 3) */
  -0.18326954959244407    , 0.190450413165600851   ,
/* Mode 6 (1 3) */
  -0.146968231868283977   , 0.156016538444693847   ,
/* Mode 6 (2 3) */
/* Mode 6 (3 3) */
/* Mode 6 (4 3) */
  -0.0860334027609588187  ,
/* Mode 6 (5 3) */
  -0.0915080020068851918  ,
/* Mode 6 (6 3) */
  -0.0580267830067994761  , 0.0703064868480241245  ,
/* Mode 6 (7 3) */
/* Mode 6 (0 4) */
  -0.157344251995186424   , 0.215415846467226807   ,
/* Mode 6 (1 4) */
  -0.131890056331074507   , 0.163262827935058891   ,
/* Mode 6 (2 4) */
/* Mode 6 (3 4) */
/* Mode 6 (4 4) */
/* Mode 6 (5 4) */
/* Mode 6 (6 4) */
/* Mode 6 (7 4) */
/* Mode 6 (0 5) */
  -0.186434985908384449   , 0.215307212514073865   ,
/* Mode 6 (1 5) */
  -0.127557901887031089   , 0.176281464315226788   ,
/* Mode 6 (2 5) */
/* Mode 6 (3 5) */
/* Mode 6 (4 5) */
/* Mode 6 (5 5) */
/* Mode 6 (6 5) */
/* Mode 6 (7 5) */
/* Mode 6 (0 6) */
   0.0845124173373554693  ,-0.260658003873827204   , 0.0828585321632660798  ,-0.119888270171724029   ,-0.123873894426291611   , 0.154330200572013104   ,
/* Mode 6 (1 6) */
  -0.0925316254218891271  , 0.134667980611842791   ,
/* Mode 6 (2 6) */
  -0.0955971138434391077  ,
/* Mode 6 (3 6) */
/* Mode 6 (4 6) */
   0.0650316666952574923  ,
/* Mode 6 (5 6) */
/* Mode 6 (6 6) */
/* Mode 6 (7 6) */
/* Mode 6 (0 7) */
  -0.303059079008999088   , 0.194595230370966377   ,
/* Mode 6 (1 7) */
   0.164440216708353432   ,
/* Mode 6 (2 7) */
   0.059065152234758056   , 0.0991935180596530686  ,
/* Mode 6 (3 7) */
/* Mode 6 (4 7) */
/* Mode 6 (5 7) */
/* Mode 6 (6 7) */
/* Mode 6 (7 7) */
/* Mode 7 (0 0) */
   0.0590121618971292325  ,-0.0471682574673949404  ,-0.117738055082619669   , 0.173506866747139971   ,-0.124818725606468228   , 0.290085137169784513   ,-0.335829490006540166   , 0.155582818591319644   ,
  -0.309462280183402827   , 0.356644809217647019   ,-0.142591808140215881   , 0.192318161327072301   ,-0.351392482121997252   , 1.00287153749116964    ,-1.61954193259613355    , 0.332403328170255086   ,
   2.08099400389515088    ,-0.501524000907074718   ,-2.08382638809509801    , 0.307589026463045978   , 1.51617403093153857    ,-0.636637731874106216   , 0.445590836935954415   ,-0.0830065930829118892  ,
   0.249280381310416216   , 0.131263574108406805   ,-0.124097146670939282   ,-0.374374439712607809   ,-0.0650867728804639945  , 0.0499695186448174122  , 0.127765939999228445   ,-0.144920547895680263   ,
/* Mode 7 (1 0) */
   0.0661325965651376468  ,-0.0265405370303357334  ,-0.128224569268272165   , 0.178408751927539799   ,-0.0803862646363621564  , 0.160077208301825064   ,-0.261785381786620308   , 0.202708508238852947   ,
   0.104815055919907876   , 0.228342303768509003   ,-0.126399679867645082   ,-0.285079153301884936   , 0.914973730219025727   ,-0.0410189144831023811  ,-0.858590186846187264   , 0.81946671238603197    ,
  -0.882408612611393472   , 0.590508542577314555   ,-0.0382428860832876097  ,-0.0653652837175294626  , 0.124731424596129001   ,-0.192642944827451507   ,
/* Mode 7 (2 0) */
   0.0230329777815921205  ,-0.0170380285967704423  ,-0.0382713835813300318  , 0.0880866478385468887  ,-0.113464635353819385   , 0.09472046732025724    ,-0.119222799745748828   , 0.00676678958892066792 ,
   0.806400202922890386   ,-0.504847919925961897   , 0.302570156517852074   ,-0.358740717879774462   , 0.21433627131442809    , 0.0354703852164296382  ,-0.0286463142550210936  , 0.0447836859465993511  ,
  -0.0835563726287750497  , 0.107117599055418594   ,-0.0836685350503461323  ,
/* Mode 7 (3 0) */
  -0.0205013437395264765  , 0.0278260987322108723  ,-0.0737833809372345217  , 0.0862369867779748389  , 0.706643122475826946   ,-0.264671541202255889   ,-0.205343794233514232   , 0.00496525234084868941 ,
  -0.032448111992024388   ,-0.0431943326719397558  ,-0.00491141040201363305 , 0.0204848927447373458  , 0.0923496526551877278  ,-0.0917662132298182748  ,
/* Mode 7 (4 0) */
   0.60396762246302349    ,-0.175499069750204462   , 0.0132072918219067522  ,-0.0140357224123726556  , 0.0648216731747447289  ,
/* Mode 7 (5 0) */
   0.57993476246352671    ,-0.115943400524873008   ,-0.191907327394262001   ,
/* Mode 7 (6 0) */
   0.533255313700737199   ,-0.154847748020831788   ,-0.158007537263901571   , 0.063157381684712452   ,
/* Mode 7 (7 0) */
   0.506435906844583505   , 0.0502526131289386183  ,
/* Mode 7 (0 1) */
  -0.127408960134580668   , 0.389817073253831248   ,-0.399484226963731259   , 0.283548264675081929   ,-0.0772928350992908159  , 0.0631829156865888891  , 0.104669591127869319   ,-0.187309920940001096   ,
/* Mode 7 (1 1) */
  -0.10127165157065722    ,-0.0518183284871750818  , 0.171719370748008138   ,-0.182065624840614171   ,-0.0723589234991752484  , 0.1467237696203266     ,-0.173000592948918785   ,
/* Mode 7 (2 1) */
   0.133062492035394803   ,-0.117845228000029889   ,-0.0345384336057941096  , 0.0237844949143217153  , 0.0600015725086234658  ,-0.101596845008369227   , 0.108811760335651542   ,
/* Mode 7 (3 1) */
   0.0812787645966780853  ,-0.103569136726464561   , 0.0233314402852774321  , 0.110759692146371685   ,-0.0980220752275235002  ,
/* Mode 7 (4 1) */
   0.0181035456271194835  ,-0.0303238647896910199  , 0.0404791565161799066  ,-0.071602262068793901   ,
/* Mode 7 (5 1) */
   0.0549981577181483383  ,
/* Mode 7 (6 1) */
/* Mode 7 (7 1) */
   0.0694567937633576021  ,
/* Mode 7 (0 2) */
  -0.0452820609368085256  , 0.159014906222073593   ,-0.216536600904893323   , 0.226632304753549146   ,-0.13085815229641265    ,-0.0955644052870871369  , 0.0739953213663727127  , 0.075416989241016516   ,
  -0.145766043165010656   ,
/* Mode 7 (1 2) */
   0.070039756528833097   ,-0.106254575137330665   , 0.0829751920719214164  ,-0.0876413261386992382  , 0.0557324834692929788  , 0.097775613272152645   ,-0.131679325905942085   ,
/* Mode 7 (2 2) */
  -0.0409553894907006902  , 0.032987773399636669   ,-0.0741693808142045996  , 0.063877971153994989   ,
/* Mode 7 (3 2) */
   0.0247410136404314709  ,-0.0338181499187201404  , 0.0711376644334889702  ,-0.0800515880011331837  ,
/* Mode 7 (4 2) */
   0.0195128773694147606  ,-0.0304266616177292365  ,-0.0508011320764716889  ,
/* Mode 7 (5 2) */
   0.0749054816502451593  ,-0.0513590287507429549  ,
/* Mode 7 (6 2) */
/* Mode 7 (7 2) */
/* Mode 7 (0 3) */
   0.0187469488870643242  ,-0.0365029864127674394  ,-0.0566301436294765689  , 0.13526864051439616    ,-0.106715166703652373   ,-0.100183597923736684   , 0.129695064969899049   ,-0.0873510015418007685  ,
/* Mode 7 (1 3) */
   0.0979899544864673705  ,-0.0827262665966202737  ,-0.110318293473359516   , 0.0833595727585947494  , 0.0761881614963291209  ,-0.12348840515184005    ,
/* Mode 7 (2 3) */
   0.076786659579955549   ,-0.0667740687614625517  ,-0.0334063612745034016  , 0.0313579356676803173  , 0.0681972543835656919  ,
/* Mode 7 (3 3) */
  -0.0460029158461058296  , 0.063583511575234522   ,-0.0575836292274034961  ,
/* Mode 7 (4 3) */
  -0.0354907339103423258  ,
/* Mode 7 (5 3) */
  -0.0602691979617250642  ,
/* Mode 7 (6 3) */
/* Mode 7 (7 3) */
  -0.0548901059147353237  ,
/* Mode 7 (0 4) */
   0.0274965412652144227  ,-0.0455315287367751079  , 0.0502263394333910262  ,-0.0544805107845074271  ,-0.10504836628544019    , 0.150491039887484523   ,-0.0864622937654305618  ,
/* Mode 7 (1 4) */
   0.018739056963516857   ,-0.0357983120510676073  ,-0.127941574107662798   , 0.106733011584580192   ,-0.0845320043412451372  ,
/* Mode 7 (2 4) */
  -0.0310680686654626718  , 0.0406636940118702481  ,
/* Mode 7 (3 4) */
   0.022314627536972876   , 0.0547112746073513262  ,-0.0658841291230725795  ,
/* Mode 7 (4 4) */
/* Mode 7 (5 4) */
/* Mode 7 (6 4) */
/* Mode 7 (7 4) */
/* Mode 7 (0 5) */
  -0.0979413096308360959  , 0.137923351331282446   ,-0.105686627657762877   ,
/* Mode 7 (1 5) */
  -0.103311422817067622   , 0.142605212485094807   ,-0.0644242528794972541  ,
/* Mode 7 (2 5) */
  -0.0289081686286381673  , 0.037196320762253432   ,
/* Mode 7 (3 5) */
  -0.0522753521843378269  ,
/* Mode 7 (4 5) */
/* Mode 7 (5 5) */
   0.04938806878063072    , 0.0888885725331992477  ,
/* Mode 7 (6 5) */
   0.0637691393687805502  ,
/* Mode 7 (7 5) */
/* Mode 7 (0 6) */
   0.053023036235790251   , 0.114570814595725615   , 0.0526898775856828802  ,-0.0772211357077347699  , 0.146065378598898815   , 0.0618174168738322219  ,
/* Mode 7 (1 6) */
   0.0607263947176991392  ,-0.106649279327777333   , 0.161931695332383857   ,-0.0946499366037648338  ,
/* Mode 7 (2 6) */
   0.0434015306450752647  ,
/* Mode 7 (3 6) */
   0.0741212540675874609  ,-0.0545660358103179921  ,
/* Mode 7 (4 6) */
/* Mode 7 (5 6) */
   0.0495525814534337541  , 0.0458832539792322983  , 0.0577403100535808442  ,
/* Mode 7 (6 6) */
   0.047077930267440643   , 0.0477543888599412866  ,
/* Mode 7 (7 6) */
   0.0482692555538286189  ,
/* Mode 7 (0 7) */
   0.118609085510440415   ,-0.0936819964877868977  , 0.0428491538971841474  ,-0.064497446067371289   , 0.244582866576795593   , 0.105250238286890799   , 0.102280239558471958   ,-0.114775393690306468   ,
/* Mode 7 (1 7) */
   0.0392689424542276219  ,-0.0779775812632681059  , 0.129503936348252663   ,
/* Mode 7 (2 7) */
  -0.0720243584689751332  ,-0.0511496330582723868  , 0.0474984170330415914  ,-0.064612515753884131   ,-0.0635010714102273444  ,
/* Mode 7 (3 7) */
  -0.0563860530537479282  ,
/* Mode 7 (4 7) */
  -0.0425916801499635067  ,
/* Mode 7 (5 7) */
  -0.0403797680322714597  , 0.0506491306498032118  ,
/* Mode 7 (6 7) */
/* Mode 7 (7 7) */
/* Mode 8 (0 0) */
  -0.0488781112778548105  , 0.126071633960105789   ,-0.14058261255800622    ,-0.260847063808974711   , 0.731358074432532534   ,-0.572606520354329462   ,-0.136465262247925045   ,-0.744061229916440192   ,
   1.04840804106072283    ,-0.792281122723686226   , 0.395183638073368648   ,-0.346302014689294779   , 0.293939059700751626   , 0.4901018751479711     , 0.184877156680279792   ,-0.212524585422703111   ,
  -0.890607859222221632   , 0.36715004403484669    ,-0.112891658202359982   , 0.166728141819739606   ,-0.186463877662156552   , 0.357055107039022046   ,-0.332959241804669792   ,
/* Mode 8 (1 0) */
  -0.0455039579307091255  , 0.0781386342081722418  ,-0.107933542410696887   , 0.21657990541266392    ,-0.544833786535981135   ,-0.114810482284555371   , 0.157441165202646977   , 0.447355730375221472   ,
  -0.244452893105620683   ,-0.176730719813567638   ,-0.417703247569404079   ,-0.360267766213197727   , 0.140334832681859395   , 0.450880722431322878   , 0.315758369109681636   ,-0.245322375597436887   ,
   0.126137566828231795   , 0.384896645755869238   ,-0.0912839519907065466  , 0.14698398054373854    ,-0.197704534666556686   ,
/* Mode 8 (2 0) */
  -0.0157461459161388449  , 0.0531586440884280614  ,-0.0891087171122003363  , 0.153029244391578251   ,-0.364056477916641197   ,-0.138697913856478755   ,-0.097284135648765438   , 0.3831727931522248     ,
  -0.202614680403011976   , 0.0158258536080085679  , 0.142110006261259636   , 0.196434339540077024   , 0.119323568278668565   ,-0.148120241343082326   ,-0.178905345479994649   ,-0.123699041151130479   ,
  -0.0515983000773692635  , 0.108599907690427835   , 0.0795682776872087133  ,-0.197419698747193534   , 0.146467734076336537   ,
/* Mode 8 (3 0) */
  -0.0594332614354383393  , 0.0857215117404484112  , 0.113267474614882541   ,-0.318796074417551034   ,-0.0968686480761811325  , 0.352561311363253194   ,-0.0908260746239320099  ,-0.0867754786821547663  ,
   0.136037993842461263   ,-0.100939117616553706   ,
/* Mode 8 (4 0) */
  -0.273516338021401739   , 0.24568760620445132    , 0.081900408778911471   ,-0.0548021025383892413  , 0.107887105176692852   ,-0.0983639180274180902  ,
/* Mode 8 (5 0) */
  -0.258677636801331379   , 0.183225791468965921   ,
/* Mode 8 (6 0) */
  -0.218375394324486577   , 0.228831350510239034   ,
/* Mode 8 (7 0) */
  -0.214511265052273664   , 0.22579391788497824    ,
/* Mode 8 (0 1) */
   0.0244896288530793566  ,-0.118351560409714548   , 0.327573038119394477   ,-0.257351269714017894   , 0.328741946837522891   ,-0.0246796930467119841  , 0.0901543213889040018  ,-0.103428126192524297   ,
   0.139568548217286648   ,-0.108715900748597674   ,
/* Mode 8 (1 1) */
   0.0637320512240640152  ,-0.13422827144753427    ,-0.130978226266650843   , 0.129603351628662294   , 0.172389368243140939   ,-0.0426661037930543205  , 0.0857201555719381003  ,-0.060417328547105395   ,
   0.10562462759229016    ,
/* Mode 8 (2 1) */
  -0.157096158422775939   ,-0.108823763008977642   , 0.215774852211679941   , 0.144813601685250037   ,-0.189139142247985725   , 0.090520044089561269   , 0.101130830489862461   ,-0.114592595937561242   ,
  -0.0326241831933445567  , 0.0930759662001655191  ,-0.148977667151708237   , 0.105240643812511719   ,
/* Mode 8 (3 1) */
  -0.0227616244241562182  , 0.0896143068843935076  ,-0.148948659639476066   ,-0.117004490252366158   ,-0.0976678920889390567  , 0.253908804029156943   ,-0.13829618642222008    ,-0.0828653829561925848  ,
  -0.116132179578205166   , 0.178023459628142644   , 0.205905319405354753   ,-0.130345591196889016   , 0.046184324975541452   ,-0.126900453045491801   , 0.144649664035386399   , 0.138343921756690635   ,
/* Mode 8 (4 1) */
   0.0572939446004181382  ,-0.183756845579171796   ,-0.120409597882387601   ,-0.156166757776158877   , 0.216643433141612246   , 0.136384482076140012   , 0.127427606124991738   ,-0.152357048269355366   ,
  -0.118663390291474921   ,-0.240388811099501887   ,-0.105790978826705018   , 0.12181187986353513    ,-0.0596026665690898433  , 0.105303643754991003   , 0.112095895181302807   ,-0.168984122125995062   ,
   0.139674830956401597   ,
/* Mode 8 (5 1) */
   0.0829717749651825154  ,-0.227062901560430686   ,-0.139990711982345528   , 0.321348904927944767   , 0.175910821849096649   ,-0.117939829752502792   ,-0.115560520175519696   , 0.062183667594392332   ,
  -0.0985786652992603762  ,-0.152909977810668896   ,-0.114256676815357644   , 0.105389733248178477   ,
/* Mode 8 (6 1) */
   0.0595689577993499184  ,-0.238130701498765668   ,-0.0618375494828276376  , 0.271383735019657069   , 0.117465704049838679   ,-0.174872809515019323   ,-0.0577452114117850968  , 0.0801038153365296879  ,
  -0.0793462919917608672  ,
/* Mode 8 (7 1) */
  -0.231392014197077694   , 0.252934708413199649   ,-0.0994624010640665496  ,
/* Mode 8 (0 2) */
  -0.0388314907880305399  , 0.0954658005835556794  ,-0.100555157827979719   ,-0.0890202112508559351  , 0.173324239481212089   ,
/* Mode 8 (1 2) */
  -0.0769164546777939273  , 0.0916671954787998955  ,
/* Mode 8 (2 2) */
/* Mode 8 (3 2) */
   0.0788316370667983268  ,-0.0583760705997755647  , 0.0733318454156226124  ,
/* Mode 8 (4 2) */
  -0.0670190428399616844  , 0.13037750208213747    ,-0.107335449031258523   ,-0.0886058870853892178  , 0.0857256116322625827  ,-0.0943006047374914252  , 0.0783976585213510963  ,
/* Mode 8 (5 2) */
  -0.0752314495192642207  , 0.164706813948334335   , 0.071610120078128281   , 0.110393317248176165   ,-0.226108983135961922   , 0.0666825919011573842  , 0.107466009632582682   ,-0.139444045861141591   ,
  -0.105821325937341074   ,-0.0905494174222667009  , 0.102704910994061538   ,
/* Mode 8 (6 2) */
  -0.10295257352319713    , 0.0758781192360191703  , 0.144041255590398543   ,-0.262192048597813199   , 0.105942571585007486   , 0.234728708267957054   , 0.210274420575666587   ,-0.0513275205942234289  ,
   0.107389759523122824   ,
/* Mode 8 (7 2) */
  -0.0996793768434341004  , 0.0997001374856712613  , 0.267685328399439981   ,-0.349709739459803881   ,-0.0745825388098152603  ,-0.163047319181113815   ,-0.154163356542844743   ,
/* Mode 8 (0 3) */
  -0.147058353436298139   , 0.155662968001215513   ,
/* Mode 8 (1 3) */
  -0.114626735527309676   , 0.0791527909650474593  ,
/* Mode 8 (2 3) */
/* Mode 8 (3 3) */
/* Mode 8 (4 3) */
/* Mode 8 (5 3) */
/* Mode 8 (6 3) */
   0.0716009395201121779  ,-0.142906518117950826   , 0.164867566075700411   , 0.128120550766631647   , 0.1535300102387748     ,
/* Mode 8 (7 3) */
   0.0759070630633688487  , 0.142488754043368332   ,-0.288778951799644801   , 0.122850012933758815   ,-0.131120773515696815   ,-0.173827667436520006   ,
/* Mode 8 (0 4) */
  -0.149224838803633741   , 0.144641444016914922   ,
/* Mode 8 (1 4) */
  -0.129902508160156166   , 0.142197938246989092   ,
/* Mode 8 (2 4) */
/* Mode 8 (3 4) */
/* Mode 8 (4 4) */
/* Mode 8 (5 4) */
   0.090819189587524371   ,
/* Mode 8 (6 4) */
  -0.0820183768576402961  , 0.0774561137706180486  ,
/* Mode 8 (7 4) */
  -0.0720119578879381411  ,
/* Mode 8 (0 5) */
  -0.180121921377742439   , 0.176639198768740485   ,
/* Mode 8 (1 5) */
  -0.138405248098663558   , 0.145760045809165545   ,
/* Mode 8 (2 5) */
/* Mode 8 (3 5) */
/* Mode 8 (4 5) */
/* Mode 8 (5 5) */
/* Mode 8 (6 5) */
/* Mode 8 (7 5) */
/* Mode 8 (0 6) */
  -0.21306075563296939    , 0.192413021686252211   ,
/* Mode 8 (1 6) */
  -0.146023624622273668   , 0.13528627403960336    ,
/* Mode 8 (2 6) */
/* Mode 8 (3 6) */
/* Mode 8 (4 6) */
/* Mode 8 (5 6) */
/* Mode 8 (6 6) */
/* Mode 8 (7 6) */
/* Mode 8 (0 7) */
  -0.118693542208447841   ,-0.175861446295211582   , 0.18089197312028249    ,
/* Mode 8 (1 7) */
   0.0738846831427373563  ,-0.159306741756979314   , 0.148609994259311429   ,
/* Mode 8 (2 7) */
/* Mode 8 (3 7) */
/* Mode 8 (4 7) */
/* Mode 8 (5 7) */
/* Mode 8 (6 7) */
/* Mode 8 (7 7) */
/* Mode 9 (0 0) */
  -0.0710505484029466394  , 0.216333959119354075   , 0.0944105310049588309  ,-0.345671098671829657   , 0.103902640365075266   , 0.376672514553508253   ,-0.252368663927346693   , 0.347559162595975746   ,
   0.818471552198437036   , 0.565551533437643306   ,-1.11718319439388569    ,-0.337048727971084483   , 0.700874039262417647   ,-0.651937905563845677   ,-0.378496312040149385   , 0.444769848514809218   ,
   0.135656744679642061   ,-0.201754253722252197   , 0.290268588558829699   , 0.568427913460654799   ,-0.127470221024948649   , 0.308756949948584269   ,-0.206657925530649628   ,-0.397935556941094004   ,
/* Mode 9 (1 0) */
   0.109211545331734244   ,-0.316045320172496869   ,-0.135451431087802582   , 0.297543776809738869   ,-0.171169824761508355   ,-0.109134100584405591   , 0.113995145338284004   ,-0.109622765176498868   ,
   0.157422322539863296   ,-0.0829778859975780214  , 0.165945875063664039   ,-0.154374941690209905   , 0.224630407241770247   ,
/* Mode 9 (2 0) */
  -0.182546151283096175   , 0.223917295086296403   ,-0.0638413351277682811  , 0.112470950631784514   ,
/* Mode 9 (3 0) */
  -0.168290248021019745   , 0.192927746361695768   ,
/* Mode 9 (4 0) */
  -0.212271912882509212   , 0.212167060672956931   ,
/* Mode 9 (5 0) */
  -0.140469057722990065   , 0.220570927038138548   ,
/* Mode 9 (6 0) */
  -0.143448854466990516   , 0.201204977157026954   ,
/* Mode 9 (7 0) */
  -0.186093190677068865   , 0.225841570037436795   ,
/* Mode 9 (0 1) */
  -0.136946774805118326   ,-0.161037324107934338   , 0.187528557319133676   , 0.253674228418956149   ,-0.290615164033095175   ,-0.0738889622589080364  , 0.129324566372797434   , 0.111426300090745445   ,
  -0.263079409890108307   , 0.331465845220028477   , 0.0746814481036746497  ,-0.095645335478966198   ,-0.257208481325759408   , 0.137431052215852695   ,
/* Mode 9 (1 1) */
  -0.0693181130512123406  ,-0.122823551985512619   ,-0.0792747243290717052  , 0.266212512359787379   , 0.133790315746549676   ,-0.198059846572696957   ,-0.0366019435349919792  ,-0.217444429275250567   ,
  -0.13588787688016199    , 0.0660687597715290398  , 0.307423693292899591   , 0.257011042015726887   ,-0.116419846653206191   ,-0.291888133174373232   ,-0.228733145551605038   , 0.0372433749372843223  ,
  -0.119398546180684087   , 0.145355795463480014   ,-0.108478447544803583   , 0.177527831919264772   ,-0.258689635846138744   ,
/* Mode 9 (2 1) */
   0.0477129101199918401  ,-0.238249962889412942   ,-0.0829403283818342663  , 0.268786926938661797   , 0.115588290736944446   , 0.0525302150798176923  ,-0.0957739214463578653  ,-0.0382023188224611052  ,
  -0.0485296250074040286  , 0.11775474311325991    , 0.117282889432271151   ,-0.217465020995688152   , 0.179109515319563706   ,
/* Mode 9 (3 1) */
  -0.174559488419283343   , 0.26035242274502679    ,-0.0984838945246025027  ,
/* Mode 9 (4 1) */
  -0.160936547370061411   , 0.160785290276353632   ,
/* Mode 9 (5 1) */
  -0.153493184038277886   , 0.167204815705897708   ,
/* Mode 9 (6 1) */
  -0.133796590490596251   , 0.137564650366825025   ,
/* Mode 9 (7 1) */
  -0.173462174055839136   , 0.161441846904091135   ,
/* Mode 9 (0 2) */
  -0.0692318391406052114  , 0.056290584277240284   , 0.0987808197430282559  ,-0.0467686200815103509  ,-0.240728568933431086   , 0.190319733246140849   ,
/* Mode 9 (1 2) */
  -0.0363969687612056836  ,-0.0502933991612212958  , 0.134074159718705455   , 0.0672012391731642011  , 0.108412451029974835   ,-0.229146951720105352   , 0.226874012171835504   , 0.174280282329342756   ,
  -0.0682260730161807355  , 0.101427589799462162   ,-0.162800967988854267   , 0.143651213274911066   ,
/* Mode 9 (2 2) */
   0.12010453730703248    , 0.0730397524674380183  ,-0.201088888869761312   ,-0.110546683255041744   ,-0.0357827787426409361  ,-0.0974216652712708159  , 0.160369789796167589   , 0.172220413843767267   ,
  -0.112828905068199981   ,-0.0444385472976531887  , 0.102115523732248609   ,-0.113129485368785837   ,-0.116197199956776007   ,
/* Mode 9 (3 2) */
  -0.0531568683594265678  , 0.13001379338449337    ,-0.122636079103640022   ,-0.102555693108980356   ,-0.111293159883274817   ,-0.112091729082516911   , 0.171439268088588781   ,-0.13592637755603762    ,
/* Mode 9 (4 2) */
   0.0735831515469590469  ,-0.102256137943280007   ,-0.0853359950564611253  ,-0.0676255656817049827  , 0.0850195783917119807  ,-0.110428112710456494   ,
/* Mode 9 (5 2) */
  -0.103616831201606169   ,
/* Mode 9 (6 2) */
/* Mode 9 (7 2) */
/* Mode 9 (0 3) */
  -0.204396307211233863   , 0.203978321574634247   ,
/* Mode 9 (1 3) */
  -0.158360983154684498   , 0.196536313138488461   ,
/* Mode 9 (2 3) */
  -0.122882036511008846   ,-0.0640502556180861937  , 0.149332287117422885   ,-0.145870046666219805   ,-0.0864007341362371256  ,-0.0553394281725126391  , 0.0885443236978769588  ,-0.123367872350786029   ,
  -0.111957331910312125   ,
/* Mode 9 (3 3) */
  -0.162986744052369792   , 0.172762965450125872   , 0.116141494600930081   , 0.1309516525021448     ,-0.121344133515978544   , 0.0625391104208289222  ,-0.124029377417054554   , 0.118068035188666876   ,
   0.121019545774832996   ,
/* Mode 9 (4 3) */
  -0.123208341435970703   , 0.0950168895376033718  , 0.139604691620119681   , 0.113759049736003773   , 0.0880324639459246217  ,-0.0970593156203155699  ,-0.175911686391913041   ,-0.113616835418825876   ,
   0.0896172336492941507  , 0.103941437379209689   ,-0.110523161081945417   , 0.139657693497694274   ,
/* Mode 9 (5 3) */
   0.0737401612376594601  ,-0.116456757225935736   , 0.0892897686036379645  , 0.0962609055582634571  ,-0.125067959096407444   ,-0.103340310018125978   , 0.111735852116452261   ,
/* Mode 9 (6 3) */
   0.107898777916319674   ,
/* Mode 9 (7 3) */
   0.089396332218548466   ,
/* Mode 9 (0 4) */
  -0.146992955343155568   , 0.171171532511768781   ,
/* Mode 9 (1 4) */
  -0.155618030871655544   , 0.186203359655912226   ,
/* Mode 9 (2 4) */
  -0.0986148976343507455  , 0.127086982634140394   ,
/* Mode 9 (3 4) */
  -0.0640583080147023864  , 0.0822971252760856392  , 0.14349193600162205    ,-0.0804160726622098893  ,-0.155738244201585718   ,
/* Mode 9 (4 4) */
   0.110112317795811931   ,-0.174911523253991813   , 0.101172435288678142   , 0.120994201819800515   ,-0.0966928555147738983  ,
/* Mode 9 (5 4) */
  -0.0813594048501061623  , 0.116476194003447095   , 0.12256170221152364    ,-0.122544750244435244   ,-0.106213606496997792   , 0.116215842141411396   , 0.0827360723503483414  ,-0.0799931202804938929  ,
  -0.104126530151691626   ,-0.0849412458774248535  , 0.103862742081697629   ,
/* Mode 9 (6 4) */
   0.109140984304553601   ,
/* Mode 9 (7 4) */
/* Mode 9 (0 5) */
  -0.158468531284439773   , 0.16688731037042126    ,
/* Mode 9 (1 5) */
  -0.148323426303213518   , 0.153549900080512502   ,
/* Mode 9 (2 5) */
/* Mode 9 (3 5) */
   0.110001895113258613   ,-0.0924631889962396619  ,
/* Mode 9 (4 5) */
   0.0810950462934253019  ,-0.0875034117750724399  ,-0.143953359375079193   ,-0.0890200418011465738  , 0.0776396521411623908  ,-0.11138531009831848    ,
/* Mode 9 (5 5) */
  -0.106854191554127204   , 0.13053687880996595    ,-0.0955405641263709637  ,
/* Mode 9 (6 5) */
   0.0666027030360069605  ,-0.0808249685623743941  , 0.109367844006903497   ,
/* Mode 9 (7 5) */
/* Mode 9 (0 6) */
  -0.200051259871662473   , 0.200354068109147021   ,
/* Mode 9 (1 6) */
  -0.147573842859199417   , 0.167503118801924034   ,
/* Mode 9 (2 6) */
/* Mode 9 (3 6) */
/* Mode 9 (4 6) */
  -0.115586984146358276   ,
/* Mode 9 (5 6) */
/* Mode 9 (6 6) */
/* Mode 9 (7 6) */
/* Mode 9 (0 7) */
   0.0893263640594149505  ,-0.148210643035045442   , 0.196682008842773259   ,
/* Mode 9 (1 7) */
  -0.147370914726001695   , 0.15444961506783067    ,
/* Mode 9 (2 7) */
/* Mode 9 (3 7) */
/* Mode 9 (4 7) */
   0.0999797785983132653  ,
/* Mode 9 (5 7) */
/* Mode 9 (6 7) */
/* Mode 9 (7 7) */
};
const ogg_uint16_t OD_PRED_INDEX_8x8[2560]={
/* Mode 0 (0 0) */
  0x00,0x01,0x13,0x1d,0x1e,0x2a,0x40,0x43,0x44,0x48,0x4a,0x4e,0x50,0x57,0x58,0x59,
  0x5d,0x65,0x80,0x81,0x82,0x83,0x84,0x85,0x89,0x8a,0x8b,0x90,0x95,0x98,0x9d,0xb0,
  0xb2,0xc0,0xc1,0xc2,0xc5,0xc8,0xc9,0xca,0xcf,0xd1,0xd2,0xd6,0xda,0xdb,0xde,0xf3,
/* Mode 0 (1 0) */
  0x40,0x49,0x83,0xc0,0xc1,0xc2,0xc7,0xca,
/* Mode 0 (2 0) */
  0x42,0x4a,
/* Mode 0 (3 0) */
  0x43,0x4b,
/* Mode 0 (4 0) */
  0x44,0x4c,0xc3,
/* Mode 0 (5 0) */
  0x05,0x45,0x4d,0x85,0xc5,
/* Mode 0 (6 0) */
  0x06,0x46,0x4e,0x86,0xc6,
/* Mode 0 (7 0) */
  0x05,0x46,0x47,0x4f,0x85,0xc5,0xc6,
/* Mode 0 (0 1) */
  0x00,0x08,0x09,0x10,0x48,0x49,0x50,0x58,0x60,0x80,0x88,0x90,0xa0,0xc0,0xc1,0xc9,
  0xd0,0xd1,0xe0,
/* Mode 0 (1 1) */
  0x00,0x41,0x48,0x49,0x88,0xd0,
/* Mode 0 (2 1) */
  0x42,0x4a,
/* Mode 0 (3 1) */
  0x43,0x4b,
/* Mode 0 (4 1) */
  0x44,0x4c,
/* Mode 0 (5 1) */
  0x4d,
/* Mode 0 (6 1) */
  0x06,0x46,0x4e,0xce,
/* Mode 0 (7 1) */
  0x47,0x4f,
/* Mode 0 (0 2) */
  0x18,0x40,0x60,0xc8,0xd0,0xd1,0xd8,
/* Mode 0 (1 2) */
  0x91,0xd9,
/* Mode 0 (2 2) */
/* Mode 0 (3 2) */
/* Mode 0 (4 2) */
  0x54,
/* Mode 0 (5 2) */
/* Mode 0 (6 2) */
/* Mode 0 (7 2) */
  0x5f,
/* Mode 0 (0 3) */
  0x50,0xd0,0xd8,0xd9,0xe0,
/* Mode 0 (1 3) */
  0xd8,0xd9,
/* Mode 0 (2 3) */
/* Mode 0 (3 3) */
  0x63,
/* Mode 0 (4 3) */
  0x44,
/* Mode 0 (5 3) */
  0x5d,0xdd,
/* Mode 0 (6 3) */
  0x5e,0xde,
/* Mode 0 (7 3) */
  0x47,
/* Mode 0 (0 4) */
  0x60,0xa0,0xe0,0xe1,
/* Mode 0 (1 4) */
  0x59,0xe0,0xe1,
/* Mode 0 (2 4) */
  0x2b,0x63,0xa3,0xe3,
/* Mode 0 (3 4) */
  0x23,0x2b,0x63,0x64,0xa2,0xa3,0xab,0xe0,0xe2,0xe4,0xea,0xeb,
/* Mode 0 (4 4) */
  0x6c,0xe3,
/* Mode 0 (5 4) */
  0xa5,0xe5,
/* Mode 0 (6 4) */
  0x26,0xe6,
/* Mode 0 (7 4) */
/* Mode 0 (0 5) */
  0x28,0x29,0x68,0x78,0xa8,0xe9,0xed,0xf0,
/* Mode 0 (1 5) */
  0x28,0x69,0xe8,0xe9,
/* Mode 0 (2 5) */
  0x23,0x63,0xeb,
/* Mode 0 (3 5) */
  0x2b,0x62,0x63,0xa3,0xac,0xe3,0xea,0xf4,
/* Mode 0 (4 5) */
  0xa3,0xac,0xeb,0xec,
/* Mode 0 (5 5) */
  0x28,0x2d,0x6d,0x7d,0xad,0xae,0xed,0xef,
/* Mode 0 (6 5) */
  0x2e,0x6d,0x6e,0xae,0xee,0xf6,
/* Mode 0 (7 5) */
  0x6d,0xad,0xed,
/* Mode 0 (0 6) */
  0x30,0x70,0x71,0xb0,0xb1,0xf1,
/* Mode 0 (1 6) */
  0xf1,
/* Mode 0 (2 6) */
/* Mode 0 (3 6) */
  0x33,
/* Mode 0 (4 6) */
  0x74,0xac,0xf4,
/* Mode 0 (5 6) */
  0x35,0x70,0x75,0xb5,0xf5,0xf7,
/* Mode 0 (6 6) */
  0x2e,0x36,0x76,0xb6,0xf6,
/* Mode 0 (7 6) */
  0x35,0x75,0xf5,
/* Mode 0 (0 7) */
  0x28,0x38,0x68,0x70,0xa8,0xf8,0xf9,
/* Mode 0 (1 7) */
  0x69,0xf8,0xf9,
/* Mode 0 (2 7) */
  0xfa,
/* Mode 0 (3 7) */
/* Mode 0 (4 7) */
/* Mode 0 (5 7) */
  0x6d,0xed,
/* Mode 0 (6 7) */
  0x2e,0x6e,
/* Mode 0 (7 7) */
/* Mode 1 (0 0) */
  0x00,0x01,0x02,0x05,0x08,0x09,0x10,0x11,0x13,0x1b,0x1f,0x2d,0x40,0x41,0x45,0x48,
  0x49,0x4a,0x50,0x57,0x58,0x5a,0x5c,0x5e,0x5f,0x6b,0x86,0x88,0x8a,0x8b,0x91,0xad,
  0xb2,0xbd,0xc0,0xc1,0xc2,0xc3,0xc7,0xc9,0xca,0xd1,0xd2,0xd8,0xf2,
/* Mode 1 (1 0) */
  0x00,0x40,0x41,0x43,0x49,0x51,0x91,0xc0,0xc3,0xc4,
/* Mode 1 (2 0) */
  0x04,0x41,0x42,0x4a,0x52,0xc1,0xc2,0xc4,
/* Mode 1 (3 0) */
  0x43,0x4b,0x53,0xc1,0xc2,0xc6,
/* Mode 1 (4 0) */
  0x44,0x4c,0x54,0xc3,0xc4,
/* Mode 1 (5 0) */
  0x05,0x45,0x46,0x4d,0x55,0x85,0xc5,
/* Mode 1 (6 0) */
  0x06,0x46,0x4e,0x56,0x86,0xc6,0xc7,
/* Mode 1 (7 0) */
  0x45,0x47,0x4f,0xc5,
/* Mode 1 (0 1) */
  0x00,0x10,0x18,0x40,0x51,0x58,0x60,0x90,0xc0,0xc1,0xc2,0xc8,0xc9,0xca,0xd0,0xd2,
  0xe0,
/* Mode 1 (1 1) */
  0x41,0x61,0xca,0xcb,0xcc,
/* Mode 1 (2 1) */
  0xc9,0xcc,
/* Mode 1 (3 1) */
/* Mode 1 (4 1) */
  0xcb,
/* Mode 1 (5 1) */
  0x4d,
/* Mode 1 (6 1) */
  0x4e,0xce,
/* Mode 1 (7 1) */
  0x4f,
/* Mode 1 (0 2) */
  0x18,0x20,0x48,0x50,0x58,0x60,0xc8,0xd0,0xd1,0xd2,0xd8,
/* Mode 1 (1 2) */
  0x49,0x51,0x59,0x61,
/* Mode 1 (2 2) */
  0x4a,0x62,0xd1,0xd4,
/* Mode 1 (3 2) */
  0x5b,
/* Mode 1 (4 2) */
  0xd4,
/* Mode 1 (5 2) */
/* Mode 1 (6 2) */
  0xd6,
/* Mode 1 (7 2) */
/* Mode 1 (0 3) */
  0x18,0x20,0x48,0x50,0x78,0xa0,0xd0,0xd8,0xd9,0xda,0xe0,
/* Mode 1 (1 3) */
  0x49,
/* Mode 1 (2 3) */
/* Mode 1 (3 3) */
  0x4b,
/* Mode 1 (4 3) */
/* Mode 1 (5 3) */
  0x4d,0x5d,0x9d,0xdd,
/* Mode 1 (6 3) */
  0x4e,0x5e,0x9e,0xde,
/* Mode 1 (7 3) */
/* Mode 1 (0 4) */
  0x20,0x28,0x58,0x60,0x68,0x70,0xd8,0xe0,0xe1,0xe2,0xe8,
/* Mode 1 (1 4) */
  0x59,
/* Mode 1 (2 4) */
/* Mode 1 (3 4) */
/* Mode 1 (4 4) */
/* Mode 1 (5 4) */
  0x65,0x6d,0xa5,0xe5,
/* Mode 1 (6 4) */
  0x26,0x6e,0x76,0xa6,0xe6,
/* Mode 1 (7 4) */
  0xe5,
/* Mode 1 (0 5) */
  0x28,0x58,0x60,0x68,0xa8,0xad,0xe0,0xe8,0xea,0xf0,
/* Mode 1 (1 5) */
/* Mode 1 (2 5) */
/* Mode 1 (3 5) */
  0xf6,
/* Mode 1 (4 5) */
  0x35,0x6c,0xec,
/* Mode 1 (5 5) */
  0x2d,0x35,0x6d,0x6e,0xad,0xed,0xf5,
/* Mode 1 (6 5) */
  0x2e,0x36,0x6e,0xae,0xee,
/* Mode 1 (7 5) */
  0x6d,0x6f,0xed,0xee,
/* Mode 1 (0 6) */
  0x30,0x38,0x70,0x78,0xb0,0xe8,0xf0,0xf2,0xf5,0xf8,
/* Mode 1 (1 6) */
/* Mode 1 (2 6) */
/* Mode 1 (3 6) */
  0x2e,
/* Mode 1 (4 6) */
  0x74,0xed,0xf6,
/* Mode 1 (5 6) */
  0x35,0x6d,0x75,0xb5,0xf4,0xf5,
/* Mode 1 (6 6) */
  0x2e,0x36,0x76,0xb6,0xf6,
/* Mode 1 (7 6) */
  0x77,0xb5,0xf5,
/* Mode 1 (0 7) */
  0x38,0x78,0xb8,0xf8,0xf9,0xfa,
/* Mode 1 (1 7) */
/* Mode 1 (2 7) */
/* Mode 1 (3 7) */
/* Mode 1 (4 7) */
  0x7c,
/* Mode 1 (5 7) */
  0x6d,0xad,
/* Mode 1 (6 7) */
  0x6e,0xee,
/* Mode 1 (7 7) */
  0x6f,
/* Mode 2 (0 0) */
  0x01,0x02,0x04,0x09,0x0a,0x1d,0x35,0x40,0x41,0x43,0x44,0x48,0x49,0x50,0x60,0x80,
  0x81,0x82,0x88,0x89,0x90,0x91,0x95,0xc0,0xc2,0xc4,0xc8,0xc9,0xca,0xcb,0xd0,0xd1,
  0xd2,0xd9,0xda,
/* Mode 2 (1 0) */
  0x40,0x41,0x48,0x49,0x80,0xc0,0xc1,0xc2,0xca,
/* Mode 2 (2 0) */
  0x42,0x4a,0xc1,0xc2,
/* Mode 2 (3 0) */
  0x43,0x4b,0xc2,0xc3,
/* Mode 2 (4 0) */
  0x44,0x4c,0xc4,
/* Mode 2 (5 0) */
  0x45,0x4d,
/* Mode 2 (6 0) */
  0x46,0x4e,
/* Mode 2 (7 0) */
  0x47,0x4f,
/* Mode 2 (0 1) */
  0x00,0x08,0x10,0x40,0x41,0x48,0x49,0x50,0x51,0x58,0x60,0x70,0x80,0x88,0x89,0x90,
  0xc0,0xc8,0xca,0xd0,0xd1,0xd2,0xd8,0xd9,0xda,
/* Mode 2 (1 1) */
  0x40,0x41,0x48,0x49,0x50,0x80,0x88,0xc8,0xc9,0xca,0xd0,0xd1,0xd2,
/* Mode 2 (2 1) */
  0x42,0x4a,0xc9,0xca,
/* Mode 2 (3 1) */
  0x43,0x4b,0xcc,
/* Mode 2 (4 1) */
  0x44,0x4c,
/* Mode 2 (5 1) */
  0x45,0x4d,
/* Mode 2 (6 1) */
  0x46,0x4e,
/* Mode 2 (7 1) */
  0x47,0x4f,
/* Mode 2 (0 2) */
  0x08,0x10,0x40,0x48,0x49,0x50,0x51,0x59,0x60,0x90,0x91,0x98,0xc8,0xd1,0xd8,0xd9,
  0xe1,
/* Mode 2 (1 2) */
  0x50,0x51,0x58,0x60,0x89,0x90,0x91,0x99,0xd8,0xd9,0xda,
/* Mode 2 (2 2) */
  0xd1,0xd2,0xda,
/* Mode 2 (3 2) */
/* Mode 2 (4 2) */
/* Mode 2 (5 2) */
/* Mode 2 (6 2) */
/* Mode 2 (7 2) */
/* Mode 2 (0 3) */
  0x18,0x50,0x58,0x59,0x61,0x98,0x99,0xa0,0xa1,0xd0,0xd8,0xd9,0xe0,0xe1,
/* Mode 2 (1 3) */
  0x51,0x58,0x5a,0x60,0x91,0x98,0x99,0xd1,0xd2,0xe0,0xe1,0xe2,
/* Mode 2 (2 3) */
  0x59,0x61,0xd9,0xe1,0xe2,
/* Mode 2 (3 3) */
  0xe3,
/* Mode 2 (4 3) */
/* Mode 2 (5 3) */
  0x45,
/* Mode 2 (6 3) */
  0x4e,
/* Mode 2 (7 3) */
  0x5f,
/* Mode 2 (0 4) */
  0x58,0x60,0x61,0xa0,0xa1,0xd8,0xe0,0xe1,0xe8,
/* Mode 2 (1 4) */
  0x58,0x59,0x5a,0x60,0x61,0x62,0x68,0xd9,0xda,0xe0,0xe8,0xe9,
/* Mode 2 (2 4) */
  0x61,0xd9,0xda,0xe9,
/* Mode 2 (3 4) */
  0xeb,
/* Mode 2 (4 4) */
  0x6c,
/* Mode 2 (5 4) */
/* Mode 2 (6 4) */
/* Mode 2 (7 4) */
/* Mode 2 (0 5) */
  0x60,0x68,0x69,0xa9,0xe0,0xe8,0xe9,
/* Mode 2 (1 5) */
  0x68,0x6a,0xa9,0xe0,0xe1,0xe8,0xe9,0xf0,0xf1,
/* Mode 2 (2 5) */
  0xe1,0xe2,
/* Mode 2 (3 5) */
  0xf3,
/* Mode 2 (4 5) */
  0x74,0xec,0xf3,
/* Mode 2 (5 5) */
/* Mode 2 (6 5) */
/* Mode 2 (7 5) */
/* Mode 2 (0 6) */
  0x68,0xf0,0xf1,
/* Mode 2 (1 6) */
  0xe8,0xe9,0xf0,0xf1,
/* Mode 2 (2 6) */
  0x3b,0xe9,0xea,0xfa,
/* Mode 2 (3 6) */
  0x74,0xb4,0xec,
/* Mode 2 (4 6) */
  0xb3,0xb4,0xf4,
/* Mode 2 (5 6) */
/* Mode 2 (6 6) */
/* Mode 2 (7 6) */
/* Mode 2 (0 7) */
  0xf8,0xf9,
/* Mode 2 (1 7) */
  0xf8,0xf9,
/* Mode 2 (2 7) */
  0x3a,0xf2,
/* Mode 2 (3 7) */
  0x33,0xf2,0xf8,
/* Mode 2 (4 7) */
  0xf3,
/* Mode 2 (5 7) */
/* Mode 2 (6 7) */
/* Mode 2 (7 7) */
/* Mode 3 (0 0) */
  0x00,0x01,0x02,0x03,0x10,0x11,0x12,0x15,0x18,0x19,0x1a,0x40,0x50,0x58,0xc0,0xc1,
  0xc2,0xc3,0xc4,0xc6,0xc7,0xc8,0xd1,0xd2,0xd3,
/* Mode 3 (1 0) */
  0x41,0x49,0x51,0x59,0x80,0xc0,0xc1,0xc2,0xc3,0xc4,
/* Mode 3 (2 0) */
  0x42,0x4a,0x5a,0xc1,0xc2,0xc3,0xc4,
/* Mode 3 (3 0) */
  0x43,0x4b,0x5b,0xc1,0xc2,0xc4,0xc5,
/* Mode 3 (4 0) */
  0x44,0x4c,0x5c,0xc1,0xc2,0xc4,0xc5,
/* Mode 3 (5 0) */
  0x45,0x4d,0x5d,0xc6,0xc7,
/* Mode 3 (6 0) */
  0x46,0x4e,0x5e,
/* Mode 3 (7 0) */
  0x47,0x4f,0x5f,
/* Mode 3 (0 1) */
  0x00,0x01,0x02,0x10,0x11,0x12,0x18,0x19,0x21,0x40,0x48,0x50,0x58,0xc0,0xc1,0xc8,
  0xc9,0xca,0xcb,0xcc,0xce,0xd0,0xd9,0xda,
/* Mode 3 (1 1) */
  0x41,0x49,0x51,0x59,0x61,0xc9,0xca,0xcb,
/* Mode 3 (2 1) */
  0x42,0x4a,0x52,0x5a,0xc9,0xca,0xcb,
/* Mode 3 (3 1) */
  0x43,0x4b,0x5b,
/* Mode 3 (4 1) */
  0x44,0x4c,0x5c,0xc9,0xca,0xcd,
/* Mode 3 (5 1) */
  0x45,0x4d,0x5d,
/* Mode 3 (6 1) */
  0x46,0x4e,0x5e,
/* Mode 3 (7 1) */
  0x47,0x4f,0x5f,
/* Mode 3 (0 2) */
  0x00,0x10,0x18,0x19,0x20,0x21,0x40,0x48,0x58,0x60,0xc0,0xc1,0xc8,0xd0,0xd1,0xd2,
  0xd3,0xd4,0xd8,0xd9,
/* Mode 3 (1 2) */
  0x41,0x49,0x59,0x61,0x69,0xd2,0xd3,
/* Mode 3 (2 2) */
  0x42,0x4a,0x5a,0x62,0x6a,0xd2,
/* Mode 3 (3 2) */
  0x43,0x4b,0xd4,0xd5,
/* Mode 3 (4 2) */
  0x44,0x4c,0x6c,
/* Mode 3 (5 2) */
  0x45,0x4d,0x55,0x65,
/* Mode 3 (6 2) */
  0x46,0x4e,0x56,
/* Mode 3 (7 2) */
  0x47,0x4f,0x57,
/* Mode 3 (0 3) */
  0x18,0x20,0x48,0x50,0x60,0xd0,0xd8,0xd9,0xdb,0xe0,
/* Mode 3 (1 3) */
  0x49,0x51,0x61,0x69,0xda,0xdb,
/* Mode 3 (2 3) */
  0x4a,0x52,0x62,0x6a,
/* Mode 3 (3 3) */
  0x53,0x63,0x6b,
/* Mode 3 (4 3) */
  0x54,
/* Mode 3 (5 3) */
  0x55,
/* Mode 3 (6 3) */
  0x56,0x5e,
/* Mode 3 (7 3) */
  0x57,0x5f,
/* Mode 3 (0 4) */
  0x20,0x28,0x48,0x50,0xa0,0xd8,0xe0,0xe1,0xe8,0xe9,
/* Mode 3 (1 4) */
  0x49,0x51,0x69,
/* Mode 3 (2 4) */
  0x52,
/* Mode 3 (3 4) */
  0xe4,
/* Mode 3 (4 4) */
  0xe4,
/* Mode 3 (5 4) */
  0x55,0xe7,
/* Mode 3 (6 4) */
/* Mode 3 (7 4) */
/* Mode 3 (0 5) */
  0xa8,0xe0,0xe8,0xe9,0xf0,
/* Mode 3 (1 5) */
  0xea,0xeb,
/* Mode 3 (2 5) */
/* Mode 3 (3 5) */
  0x63,0xeb,
/* Mode 3 (4 5) */
  0x64,0xec,
/* Mode 3 (5 5) */
  0xee,
/* Mode 3 (6 5) */
  0x66,0x7e,
/* Mode 3 (7 5) */
  0x67,
/* Mode 3 (0 6) */
  0x30,0x38,0x78,0xe8,0xf0,0xf1,0xf8,
/* Mode 3 (1 6) */
/* Mode 3 (2 6) */
/* Mode 3 (3 6) */
  0x63,
/* Mode 3 (4 6) */
/* Mode 3 (5 6) */
  0xf7,
/* Mode 3 (6 6) */
/* Mode 3 (7 6) */
/* Mode 3 (0 7) */
  0x70,0x78,0xa8,0xb8,0xf0,0xf8,0xf9,
/* Mode 3 (1 7) */
  0xf9,0xfa,
/* Mode 3 (2 7) */
  0xf9,
/* Mode 3 (3 7) */
/* Mode 3 (4 7) */
  0x34,
/* Mode 3 (5 7) */
/* Mode 3 (6 7) */
/* Mode 3 (7 7) */
/* Mode 4 (0 0) */
  0x00,0x01,0x08,0x09,0x11,0x40,0x41,0x49,0x51,0x88,0xc0,0xc1,0xc2,0xc3,0xc4,0xc8,
  0xc9,0xca,0xcb,0xcc,0xd0,0xd8,
/* Mode 4 (1 0) */
  0x00,0x41,0x49,0xc0,0xc1,0xc2,0xc3,
/* Mode 4 (2 0) */
  0x00,0x42,0x4a,0x80,0xc1,0xc2,
/* Mode 4 (3 0) */
  0x43,0x4b,
/* Mode 4 (4 0) */
  0x44,0x4c,
/* Mode 4 (5 0) */
  0x45,0x4d,
/* Mode 4 (6 0) */
  0x46,0x4e,
/* Mode 4 (7 0) */
  0x47,0x4f,
/* Mode 4 (0 1) */
  0x00,0x01,0x08,0x09,0x10,0x11,0x19,0x41,0x48,0x49,0x51,0x59,0x88,0x89,0x90,0x91,
  0xc0,0xc1,0xc2,0xc8,0xc9,0xd0,0xd1,0xd2,0xd9,
/* Mode 4 (1 1) */
  0x00,0x40,0x41,0x48,0x49,0x50,0x52,0xc8,0xc9,0xca,0xcb,
/* Mode 4 (2 1) */
  0x42,0x4a,0xca,
/* Mode 4 (3 1) */
  0x43,0x4b,
/* Mode 4 (4 1) */
  0x44,0x4c,
/* Mode 4 (5 1) */
  0x45,0x4d,
/* Mode 4 (6 1) */
  0x46,0x4e,
/* Mode 4 (7 1) */
  0x47,0x4f,
/* Mode 4 (0 2) */
  0x08,0x09,0x10,0x11,0x18,0x19,0x48,0x49,0x50,0x51,0x59,0x88,0x90,0x98,0xc8,0xc9,
  0xd0,0xd1,0xd8,0xd9,
/* Mode 4 (1 2) */
  0x08,0x10,0x48,0x50,0x52,0x58,0x5a,0x91,0xc8,0xd1,0xd2,0xd8,0xd9,
/* Mode 4 (2 2) */
/* Mode 4 (3 2) */
/* Mode 4 (4 2) */
/* Mode 4 (5 2) */
/* Mode 4 (6 2) */
/* Mode 4 (7 2) */
/* Mode 4 (0 3) */
  0x10,0x18,0x19,0x20,0x21,0x50,0x51,0x58,0x59,0x61,0x90,0x98,0x99,0xd0,0xd1,0xd8,
  0xd9,0xe0,
/* Mode 4 (1 3) */
  0x10,0x11,0x18,0x19,0x21,0x50,0x52,0x58,0x5a,0x60,0x62,0x99,0xd0,0xd1,0xe0,0xe1,
/* Mode 4 (2 3) */
  0x59,0xd9,0xda,
/* Mode 4 (3 3) */
/* Mode 4 (4 3) */
/* Mode 4 (5 3) */
/* Mode 4 (6 3) */
/* Mode 4 (7 3) */
/* Mode 4 (0 4) */
  0x20,0x21,0x59,0x60,0x61,0x98,0x99,0xa1,0xe0,0xe1,0xe8,
/* Mode 4 (1 4) */
  0x18,0x19,0x20,0x21,0x58,0x5a,0x60,0x62,0x68,0x6a,0xd8,0xd9,0xda,0xe0,0xe1,0xe8,
  0xe9,
/* Mode 4 (2 4) */
  0x19,0x59,0x61,0x69,0xe2,
/* Mode 4 (3 4) */
/* Mode 4 (4 4) */
/* Mode 4 (5 4) */
/* Mode 4 (6 4) */
/* Mode 4 (7 4) */
/* Mode 4 (0 5) */
  0xe8,0xe9,
/* Mode 4 (1 5) */
  0x21,0x32,0x60,0x68,0x6a,0xe0,0xe1,0xe2,0xe8,0xe9,0xf0,0xf1,0xf2,
/* Mode 4 (2 5) */
  0x69,0x71,0xe1,0xf1,0xf2,
/* Mode 4 (3 5) */
  0x6b,0x73,
/* Mode 4 (4 5) */
  0x6c,
/* Mode 4 (5 5) */
/* Mode 4 (6 5) */
/* Mode 4 (7 5) */
/* Mode 4 (0 6) */
  0xf0,0xf1,
/* Mode 4 (1 6) */
  0xe8,0xe9,0xf0,0xf1,0xf2,0xf8,
/* Mode 4 (2 6) */
  0x2a,0x71,0x72,0xb3,0xe9,0xea,0xf9,0xfa,
/* Mode 4 (3 6) */
  0xb3,0xf4,
/* Mode 4 (4 6) */
/* Mode 4 (5 6) */
/* Mode 4 (6 6) */
/* Mode 4 (7 6) */
/* Mode 4 (0 7) */
  0xf8,0xf9,
/* Mode 4 (1 7) */
  0xf8,0xf9,0xfa,
/* Mode 4 (2 7) */
  0x32,0x79,0xba,0xf1,0xf2,0xf9,0xfa,
/* Mode 4 (3 7) */
  0x3a,0xf8,0xfb,0xfc,
/* Mode 4 (4 7) */
  0xfb,0xfc,
/* Mode 4 (5 7) */
/* Mode 4 (6 7) */
/* Mode 4 (7 7) */
/* Mode 5 (0 0) */
  0x00,0x01,0x03,0x08,0x09,0x41,0x42,0x48,0x49,0x4a,0x50,0x51,0x58,0x60,0x80,0x88,
  0x89,0x90,0x91,0x98,0xc0,0xc1,0xc2,0xc3,0xc5,0xc6,0xc7,0xc8,0xc9,0xca,
/* Mode 5 (1 0) */
  0x00,0x01,0x40,0x41,0x49,0xc0,0xc1,0xc3,0xc4,0xca,
/* Mode 5 (2 0) */
  0x42,0x4a,0xc1,0xc4,
/* Mode 5 (3 0) */
  0x43,0x4b,
/* Mode 5 (4 0) */
  0x44,0x4c,
/* Mode 5 (5 0) */
  0x45,0x4d,
/* Mode 5 (6 0) */
  0x46,0x4e,
/* Mode 5 (7 0) */
  0x47,0x4f,
/* Mode 5 (0 1) */
  0x00,0x08,0x09,0x40,0x41,0x48,0x49,0x51,0x58,0x59,0x60,0xc0,0xc8,0xc9,0xca,0xd0,
  0xd1,
/* Mode 5 (1 1) */
  0x00,0x01,0x08,0x09,0x0a,0x10,0x11,0x12,0x40,0x41,0x42,0x48,0x49,0x4a,0x50,0x61,
  0xc0,0xc1,0xcb,0xcc,0xd0,0xd1,0xd2,
/* Mode 5 (2 1) */
  0x0a,0x42,0x49,0x4a,0x4b,0xc9,0xca,0xcc,0xd2,
/* Mode 5 (3 1) */
  0x43,0x4b,
/* Mode 5 (4 1) */
  0x44,0x4c,
/* Mode 5 (5 1) */
  0x45,0x4d,
/* Mode 5 (6 1) */
  0x46,0x4e,
/* Mode 5 (7 1) */
  0x47,0x4f,
/* Mode 5 (0 2) */
  0x40,0x48,0x50,0xc8,0xd0,0xd1,
/* Mode 5 (1 2) */
  0x08,0x09,0x10,0x11,0x48,0x49,0x4a,0x50,0x51,0x52,0x5a,0x61,0xc8,0xc9,0xca,0xd0,
  0xd1,0xd9,
/* Mode 5 (2 2) */
  0x09,0x12,0x1a,0x49,0x51,0x53,0x59,0x5b,0xca,0xd1,0xd9,0xda,
/* Mode 5 (3 2) */
  0x52,0x54,0x5b,0xcb,0xd2,
/* Mode 5 (4 2) */
  0x53,0x5c,
/* Mode 5 (5 2) */
  0x55,
/* Mode 5 (6 2) */
  0x5e,
/* Mode 5 (7 2) */
/* Mode 5 (0 3) */
  0xd8,0xd9,
/* Mode 5 (1 3) */
  0x51,0x5a,0xd1,0xd8,0xd9,
/* Mode 5 (2 3) */
  0x11,0x4a,0x51,0x53,0x59,0x5b,0xd1,0xd2,
/* Mode 5 (3 3) */
  0x12,0x1a,0x23,0x5a,0xd2,0xd3,0xd9,0xe2,0xe3,
/* Mode 5 (4 3) */
  0x63,0xdb,
/* Mode 5 (5 3) */
  0x45,0x5c,
/* Mode 5 (6 3) */
/* Mode 5 (7 3) */
/* Mode 5 (0 4) */
  0xe0,0xe1,
/* Mode 5 (1 4) */
  0xe0,0xe1,
/* Mode 5 (2 4) */
  0x5a,0x63,0xd9,0xda,0xdb,0xea,
/* Mode 5 (3 4) */
  0x1b,0x5c,0x64,0xdb,0xdc,
/* Mode 5 (4 4) */
  0x2c,0x63,0x6d,0xa4,0xe4,0xeb,0xec,
/* Mode 5 (5 4) */
  0x5c,0x6c,
/* Mode 5 (6 4) */
  0x6d,
/* Mode 5 (7 4) */
/* Mode 5 (0 5) */
  0xe8,0xe9,
/* Mode 5 (1 5) */
  0xe8,0xe9,0xea,
/* Mode 5 (2 5) */
  0x73,0xeb,
/* Mode 5 (3 5) */
  0x6c,0xe2,0xe4,0xeb,0xec,0xf3,0xf4,
/* Mode 5 (4 5) */
  0x2c,0x34,0x6b,0x6d,0xe3,0xe4,0xf4,
/* Mode 5 (5 5) */
  0x6c,0x6e,0xf5,
/* Mode 5 (6 5) */
/* Mode 5 (7 5) */
/* Mode 5 (0 6) */
  0xf0,0xf1,
/* Mode 5 (1 6) */
  0xf0,0xf1,
/* Mode 5 (2 6) */
  0xf2,0xf3,
/* Mode 5 (3 6) */
  0x33,0xeb,0xf0,0xfc,
/* Mode 5 (4 6) */
  0x6b,0xeb,0xec,0xfd,
/* Mode 5 (5 6) */
  0x76,
/* Mode 5 (6 6) */
  0xf6,
/* Mode 5 (7 6) */
/* Mode 5 (0 7) */
  0xf8,0xf9,
/* Mode 5 (1 7) */
  0xf8,0xf9,
/* Mode 5 (2 7) */
/* Mode 5 (3 7) */
  0xf3,
/* Mode 5 (4 7) */
/* Mode 5 (5 7) */
/* Mode 5 (6 7) */
/* Mode 5 (7 7) */
/* Mode 6 (0 0) */
  0x00,0x01,0x03,0x08,0x09,0x0a,0x10,0x11,0x18,0x20,0x40,0x41,0x48,0x49,0x50,0x51,
  0x58,0x59,0x68,0x81,0x82,0x88,0x89,0x8b,0x90,0x91,0x98,0xc0,0xc3,0xc4,0xc8,0xc9,
  0xca,0xd0,0xd1,
/* Mode 6 (1 0) */
  0x00,0x01,0x02,0x03,0x08,0x09,0x0a,0x0b,0x40,0x41,0x42,0x48,0x49,0x4a,0x50,0x52,
  0x80,0x81,0x82,0xc0,0xc1,0xc2,0xc8,0xc9,0xca,0xcb,
/* Mode 6 (2 0) */
  0x01,0x02,0x03,0x0a,0x0b,0x40,0x41,0x42,0x43,0x49,0x4a,0x4b,0x80,0x81,0x82,0x8a,
  0xc1,0xc2,0xc3,0xc9,0xca,0xcb,
/* Mode 6 (3 0) */
  0x03,0x04,0x0b,0x0c,0x42,0x43,0x44,0x4b,0x4c,0x82,0xc3,0xc4,0xcb,0xcc,
/* Mode 6 (4 0) */
  0x44,0x4c,0xc3,0xc4,
/* Mode 6 (5 0) */
  0x45,0x4d,0xc6,
/* Mode 6 (6 0) */
  0x46,0x4e,
/* Mode 6 (7 0) */
  0x47,0x4f,
/* Mode 6 (0 1) */
  0x00,0x09,0x10,0x40,0x48,0x50,0x58,0xc8,0xc9,
/* Mode 6 (1 1) */
  0x00,0x01,0x49,0x51,0x59,0xc0,0xc1,0xc2,0xc8,0xc9,0xd1,0xd2,
/* Mode 6 (2 1) */
  0x01,0x02,0x09,0x0a,0x41,0x43,0x49,0x4b,0x51,0xc1,0xc2,0xc3,0xd1,0xd2,0xd3,
/* Mode 6 (3 1) */
  0x02,0x03,0x04,0x0a,0x42,0x43,0x44,0x4a,0x4c,0x52,0x54,0xc2,0xc3,0xd2,0xd3,0xd4,
/* Mode 6 (4 1) */
  0x0d,0x43,0x44,0x45,0x4b,0x4c,0x4d,0xc3,0xc4,0xcc,0xd4,
/* Mode 6 (5 1) */
  0x0d,0x44,0x45,0x4c,0x4d,0x4e,0x54,
/* Mode 6 (6 1) */
  0x45,0x46,0x4d,0x4e,
/* Mode 6 (7 1) */
  0x47,0x4f,
/* Mode 6 (0 2) */
  0x50,0x58,0xd0,0xd1,
/* Mode 6 (1 2) */
  0xd0,0xd1,
/* Mode 6 (2 2) */
  0x4a,0x52,0x53,0xca,
/* Mode 6 (3 2) */
  0x0b,0x4a,0x52,0xca,0xcb,0xcc,0xdb,0xdc,
/* Mode 6 (4 2) */
  0x13,0x14,0x4d,0x53,0x55,0x5d,0xcb,0xcc,0xcd,0xdc,0xdd,
/* Mode 6 (5 2) */
  0x4c,0x4e,0x54,0x56,0x5c,0x5e,0xcd,
/* Mode 6 (6 2) */
  0x4d,0x55,0x56,0x5d,
/* Mode 6 (7 2) */
  0x57,
/* Mode 6 (0 3) */
  0xd8,0xd9,
/* Mode 6 (1 3) */
  0xd8,0xd9,
/* Mode 6 (2 3) */
/* Mode 6 (3 3) */
