const int OD_PRED_MULTS_4x4[OD_INTRA_NMODES][4][4]={
/* Mode 0 */
  {
    {   7,   3,   3,   3   },
    {   6,   4,   3,   3   },
    {   6,   3,   6,   2   },
    {   4,   4,   4,   3   }
  },
/* Mode 1 */
  {
    {   3,   4,   6,   5   },
    {   7,   4,   3,   3   },
    {   7,   3,   6,   2   },
    {   1,   1,   5,   4   }
  },
/* Mode 2 */
  {
    {  12,   7,   0,   0   },
    {  16,   4,   1,   0   },
    {   8,   5,   2,   0   },
    {   3,   3,   3,   0   }
  },
/* Mode 3 */
  {
    {   7,   1,   3,   3   },
    {   8,   4,   3,   1   },
    {   8,   5,   5,   3   },
    {   3,   5,   3,   2   }
  },
/* Mode 4 */
  {
    {  10,   8,   1,   0   },
    {  12,   7,   1,   0   },
    {   8,   7,   1,   0   },
    {   4,   2,   3,   0   }
  },
/* Mode 5 */
  {
    {  16,   4,   3,   1   },
    {   5,   9,   5,   0   },
    {   3,   4,   6,   3   },
    {   0,   0,   3,   2   }
  },
/* Mode 6 */
  {
    {  14,  11,   7,   2   },
    {   8,   7,   6,   2   },
    {   0,   1,   3,   3   },
    {   0,   0,   0,   0   }
  },
/* Mode 7 */
  {
    {   4,   6,  10,   5   },
    {   1,   4,   4,   6   },
    {   3,   3,   5,   3   },
    {   3,   1,   4,   2   }
  },
/* Mode 8 */
  {
    {  17,  13,  10,   3   },
    {   5,   6,   4,   1   },
    {   0,   1,   1,   3   },
    {   0,   0,   0,   0   }
  },
/* Mode 9 */
  {
    {   9,   8,   5,   0   },
    {   9,   9,   4,   0   },
    {   5,   4,   5,   2   },
    {   0,   1,   2,   1   }
  }
};
const double OD_PRED_WEIGHTS_4x4[]={
/* Mode 0 (0 0) */
   0.354594199503702467   ,-0.197089638914245274   , 0.646268650107882703   , 0.714721875246764338   ,-0.666642021472386159   , 0.389378145297323786   ,-0.419172147770192127   ,
/* Mode 0 (1 0) */
  -0.0515633594604686663  , 0.0504743535061467768  ,-0.163147017748150269   ,
/* Mode 0 (2 0) */
  -0.17212329601464571    , 0.233693394885170103   ,-0.259027563851474851   ,
/* Mode 0 (3 0) */
  -0.0689488020970400878  , 0.170235770125609698   ,-0.193892710181172184   ,
/* Mode 0 (0 1) */
  -0.0472772240199171787  , 0.0917170996105658026  ,-0.255836379457169583   ,-0.0458908619765659026  ,-0.183131367986082233   ,-0.31996833805330932    ,
/* Mode 0 (1 1) */
   0.0934535091415783503  , 0.140761849766238178   ,-0.143548937210817074   , 0.288507872180975344   ,
/* Mode 0 (2 1) */
  -0.136767787954696241   , 0.230248727968849709   ,-0.283003066856245211   ,
/* Mode 0 (3 1) */
  -0.0636787117027333982  , 0.130591162018237811   ,-0.181261927077831897   ,
/* Mode 0 (0 2) */
   0.0400604391328939768  ,-0.138586801845396401   , 0.230121516048025831   ,-0.24442107027546367    ,-0.0391480160976588332  , 0.114419924134673057   ,
/* Mode 0 (1 2) */
  -0.126216534206791353   , 0.228114358744515522   ,-0.216109263383690242   ,
/* Mode 0 (2 2) */
  -0.0935394841141532069  , 0.164287090385488777   ,-0.18170949435692349    ,-0.109736935761954021   , 0.205483254434375151   ,-0.22090466299411074    ,
/* Mode 0 (3 2) */
   0.171491411860899029   , 0.135850932717857864   ,
/* Mode 0 (0 3) */
  -0.0766495155840567904  , 0.137425245959144765   ,-0.195575548210169203   ,-0.140085444498448175   ,
/* Mode 0 (1 3) */
  -0.0731310968392913929  , 0.13303525683607087    ,-0.181073193983966679   , 0.218184037284312737   ,
/* Mode 0 (2 3) */
   0.120500020632028859   ,-0.117002324694689033   , 0.211038837509635702   ,-0.235109639629511341   ,
/* Mode 0 (3 3) */
   0.125445846728869687   , 0.119042961328916744   ,-0.122185861064463122   ,
/* Mode 1 (0 0) */
  -0.80608643396104307    , 0.810157604181871438   , 0.981298971413285037   ,
/* Mode 1 (1 0) */
   0.0904471551294190601  ,-0.0887622583580447433  , 0.653786822912786891   ,-0.169961834353831498   ,
/* Mode 1 (2 0) */
  -0.164684083751080623   ,-0.0759416629746270111  , 0.506944924850396883   ,-0.115890299873728675   , 0.275485275421400555   ,-0.221695307272392339   ,
/* Mode 1 (3 0) */
  -0.0971028281854174197  , 0.372303128234243885   ,-0.0561082292923207049  , 0.126187059427627757   ,-0.25475714251283349    ,
/* Mode 1 (0 1) */
  -0.0595907667554108483  , 0.220122665140411511   ,-0.265741575792060092   , 0.0621700905265897066  ,-0.205533217495335485   , 0.239542020333393835   , 0.951255652012492514   ,
/* Mode 1 (1 1) */
   0.0808871642815508357  ,-0.191584641698180624   , 0.249758961928235768   ,-0.178657494685905499   ,
/* Mode 1 (2 1) */
  -0.141910587520419934   , 0.269801703659139858   ,-0.272773630235155939   ,
/* Mode 1 (3 1) */
   0.0995262073121385565  , 0.151311513287470528   ,-0.157488536186697448   ,
/* Mode 1 (0 2) */
   0.121396880778708097   ,-0.241265504007289799   , 0.226101200168195793   ,-0.139973862464196824   , 0.265282490146671213   ,-0.254066844549928672   , 0.857969480893957859   ,
/* Mode 1 (1 2) */
  -0.133835223862194486   , 0.263030826749954205   ,-0.248550263678160049   ,
/* Mode 1 (2 2) */
  -0.110456672518757668   , 0.168934196265483394   ,-0.209749730387299382   ,-0.11157331255340476    , 0.190646167197646654   ,-0.203826191046083433   ,
/* Mode 1 (3 2) */
   0.143838849025435034   ,-0.202024296920042257   ,
/* Mode 1 (0 3) */
   0.80612193323793857    ,
/* Mode 1 (1 3) */
   0.134655346695340711   ,
/* Mode 1 (2 3) */
   0.134228174064126848   ,-0.173301126305270364   ,-0.11182831063278606    , 0.173552405920907954   ,-0.188693617076666542   ,
/* Mode 1 (3 3) */
   0.131825113432712387   ,-0.190435422298626617   , 0.136795462776736154   ,-0.204002431652582278   ,
/* Mode 2 (0 0) */
   0.0979900431203876571  ,-0.247506797325203365   , 0.854938205535142881   ,-1.75634649525900155    , 2.00752493470300575    ,-1.4146595520303733     ,-0.696315267926005177   , 1.62366989961252761    ,
  -1.92174355008026376    , 1.71336362493812722    ,-0.627028748401759706   , 0.955720578463552184   ,
/* Mode 2 (1 0) */
  -0.0345247566448003973  , 0.0465860243902170637  ,-0.176666192474416672   , 0.496024899488280324   ,-0.608631057839614131   , 0.177452256606983494   ,-0.291733737721879827   ,
/* Mode 2 (2 0) */
/* Mode 2 (3 0) */
/* Mode 2 (0 1) */
   0.0994085250203194243  ,-0.226017492223819866   , 0.409087898016091578   ,-0.455061231299024982   ,-0.112266448907720834   , 0.238867489079729822   ,-0.36436180110711458    ,-0.0779413841014002379  ,
   0.508120808509309407   ,-0.707146197910119012   , 0.712208040822169153   ,-0.963181455595770841   , 1.4010139381897504     ,-1.41771242713445278    , 1.04135586589103935    ,-0.563856015572127722   ,
/* Mode 2 (1 1) */
   0.120843402745023157   ,-0.272439356452921277   , 0.460712963493638439   ,-0.538727265710750802   ,
/* Mode 2 (2 1) */
   0.181652290017494583   ,
/* Mode 2 (3 1) */
/* Mode 2 (0 2) */
   0.0514153349765703663  ,-0.169912331203708189   , 0.337893065476409682   ,-0.403465844886730374   ,-0.0531397607595176652  , 0.102038515849040126   ,-0.458681519290041639   , 0.407388666753897399   ,
/* Mode 2 (1 2) */
   0.180903975316108856   , 0.148679970531317263   ,-0.305356389056086308   , 0.457220570319640807   ,-0.415497244341921201   ,
/* Mode 2 (2 2) */
   0.173432778009272842   , 0.193042907156704913   ,
/* Mode 2 (3 2) */
/* Mode 2 (0 3) */
   0.118797455046679393   , 0.19053301336819406    ,-0.198046805579819685   ,
/* Mode 2 (1 3) */
   0.134581584775048196   ,-0.230186168257564716   , 0.420439218662595871   ,
/* Mode 2 (2 3) */
  -0.126982696095854775   , 0.239517323739501964   ,-0.250869122070683626   ,
/* Mode 2 (3 3) */
/* Mode 3 (0 0) */
   1.00410498232918677    ,-1.61777568508156255    , 1.64740214873999125    ,-1.1749223702707674     , 0.0737328241423602371  , 0.378544837619708086   ,-0.581711645105921549   ,
/* Mode 3 (1 0) */
   0.187604053248715097   ,
/* Mode 3 (2 0) */
  -0.0518314002248996888  , 0.137897799283299705   ,-0.169466077390705211   ,
/* Mode 3 (3 0) */
  -0.0302163968730461939  , 0.0878054099794510212  ,-0.101121760756890444   ,
/* Mode 3 (0 1) */
   0.0215593509458200834  , 0.108500203896976982   ,-0.0218386197305718878  , 0.863974647454103684   ,-1.30339085704458379    , 1.18837937689020023    ,-0.814211709557540075   , 0.316905194656690259   ,
/* Mode 3 (1 1) */
   0.144917628110318553   ,-0.110574323956695877   , 0.302117274395393098   ,-0.278990179623902879   ,
/* Mode 3 (2 1) */
   0.15764890002242285    , 0.136466253133083165   ,-0.16304632653578835    ,
/* Mode 3 (3 1) */
   0.0832029074289483972  ,
/* Mode 3 (0 2) */
  -0.0392624926314107392  , 0.106031237493888778   ,-0.120406102717937419   ,-0.0489541390259494863  , 0.673551950249998366   ,-0.96932757874788833    , 0.746169004592829754   ,-0.474488166102059628   ,
/* Mode 3 (1 2) */
   0.12361706057423287    , 0.0716617929377758173  ,-0.135243203948799046   , 0.278184382457360324   ,-0.266357126292524893   ,
/* Mode 3 (2 2) */
  -0.0716391149645472375  , 0.143144109885119664   ,-0.156650586335550929   , 0.142524463356720338   ,-0.144794453646637539   ,
/* Mode 3 (3 2) */
   0.139509887593430276   ,-0.136114757307251116   , 0.086608805302944486   ,
/* Mode 3 (0 3) */
   0.568290871428100419   ,-0.914980068503159605   , 0.623574913239419382   ,
/* Mode 3 (1 3) */
   0.0785158902267451692  , 0.104696825419261855   ,-0.181268915309010098   , 0.293689831758714714   ,-0.275448441438214231   ,
/* Mode 3 (2 3) */
   0.0874543087459805912  , 0.154842499087244623   ,-0.160180218362898752   ,
/* Mode 3 (3 3) */
   0.0906286325331684128  , 0.090899744297503221   ,
/* Mode 4 (0 0) */
   0.227179401436530648   ,-0.356415041980790437   ,-0.208598922979169349   , 0.407862661212586242   , 0.76394224479212447    ,-0.886129597136214198   , 0.802465178030907889   , 0.479247740520086951   ,
  -0.717797942644833098   , 0.611606334546718089   ,
/* Mode 4 (1 0) */
  -0.0645008597609209311  , 0.0963730765914072723  , 0.0661425756947633947  ,-0.277133126206195568   , 0.528949056796444106   ,-0.563816175818462106   ,-0.112644018019994477   , 0.192656644595499027   ,
/* Mode 4 (2 0) */
   0.169629561608067386   ,
/* Mode 4 (3 0) */
/* Mode 4 (0 1) */
   0.175600894650534745   ,-0.303331166172533251   ,-0.267288410569069879   , 0.381259030703015811   ,-0.402839301631888469   ,-0.177931836912804869   , 0.282342968513993653   , 0.33773800649669089    ,
  -0.312176746924359705   , 0.703478932983788163   ,-0.842816155966976677   , 0.763597492523981902   ,
/* Mode 4 (1 1) */
  -0.0538870379030355895  , 0.0935936131393714232  , 0.0537125206786888479  , 0.209309566594690022   ,-0.405674891343236754   , 0.533383331371315439   ,-0.515515647506356256   ,
/* Mode 4 (2 1) */
   0.201457698894573073   ,
/* Mode 4 (3 1) */
/* Mode 4 (0 2) */
   0.0418779465524880129  ,-0.15459787139749448    , 0.307742103830833946   ,-0.359116406237677877   ,-0.0410137291585566596  ,-0.179880985421638051   , 0.235196753560598826   , 0.300510756282554914   ,
/* Mode 4 (1 2) */
  -0.113097335263275714   , 0.196818323969146586   ,-0.222471404442522336   , 0.171818862098100572   ,-0.339992557610625468   , 0.473398998026137885   ,-0.411977809124871086   ,
/* Mode 4 (2 2) */
   0.215199616659638743   ,
/* Mode 4 (3 2) */
/* Mode 4 (0 3) */
   0.114134167154549854   ,-0.174580600938483821   , 0.187446139625824126   ,-0.207181934662013789   ,
/* Mode 4 (1 3) */
  -0.218051270607738823   , 0.385949292155559454   ,
/* Mode 4 (2 3) */
  -0.149050941786087882   , 0.252368715430217549   ,-0.259904416619239742   ,
/* Mode 4 (3 3) */
/* Mode 5 (0 0) */
   0.210508966653355556   , 0.179790905941732027   , 0.203559769483893926   ,-0.633228185574771674   ,-0.627042858378669021   , 0.732856186702070977   , 1.08465410869763956    ,-0.725151727873054375   ,
   0.197501869715354689   , 0.21487531739456614    ,-0.538160252922838978   , 1.27174699686280723    , 0.321219787463486006   ,-0.632523099300787761   , 0.774991794702522552   ,-0.761274657366354579   ,
/* Mode 5 (1 0) */
  -0.11491827795555265    , 0.250528621303223453   ,-0.484672229567463086   , 0.432045343108860225   ,
/* Mode 5 (2 0) */
  -0.121066077071263989   , 0.358406232488955812   ,-0.520943737758855274   ,
/* Mode 5 (3 0) */
   0.138508157666093562   ,
/* Mode 5 (0 1) */
   0.296041473017094547   ,-0.516248820253709995   , 0.421211542873717149   ,-0.122996017866614404   ,-0.189324970434486844   ,
/* Mode 5 (1 1) */
  -0.0491627717728552738  ,-0.271148343742524944   , 0.498193733893706914   ,-0.553107086227022982   , 0.147971738080374143   ,-0.341740818820215342   , 0.521626758585209127   ,-0.536137341672764611   ,
  -0.325682647730476116   ,
/* Mode 5 (2 1) */
   0.102514562405431858   , 0.0623656735728674097  ,-0.157766944824335786   , 0.321559301480565274   ,-0.409099761939868634   ,
/* Mode 5 (3 1) */
/* Mode 5 (0 2) */
  -0.126821752752222128   , 0.377315706690437735   ,-0.509345205109608123   ,
/* Mode 5 (1 2) */
   0.0720960326755747394  ,-0.174306596334296543   , 0.339377332538880361   ,-0.419158096291989302   ,
/* Mode 5 (2 2) */
  -0.160295650886768476   , 0.250742727818825339   ,-0.282972299345468636   ,-0.174776644820063859   , 0.267001263358563889   ,-0.308131021073905498   ,
/* Mode 5 (3 2) */
   0.234451915094865043   ,-0.231054248805690365   , 0.139494634588628624   ,
/* Mode 5 (0 3) */
/* Mode 5 (1 3) */
/* Mode 5 (2 3) */
   0.158101022735745694   , 0.271783911531030764   ,-0.264475258907739319   ,
/* Mode 5 (3 3) */
   0.165105138732940138   , 0.173378940187078695   ,
/* Mode 6 (0 0) */
   0.749989391985702358   , 0.530782649658124162   ,-1.05866305813918271    ,-0.93176746084967832    , 1.16449664175476642    , 0.942568200569937287   ,-0.874656330650258829   ,-0.849169096528523459   ,
   0.226598273777532      ,-0.327809699824250067   , 0.408008172911437816   , 0.239853910292214673   ,-0.43128775217135612    , 0.598776032335909481   ,
/* Mode 6 (1 0) */
  -0.184182515544963565   , 0.264393569617700885   , 0.608434110517374949   , 0.252318673538620808   ,-0.287412589627887127   ,-0.734337733164028172   , 0.796090509201748175   , 0.184877917232570299   ,
  -0.384355372022358144   , 0.576129419656736586   ,-0.567722051610997758   ,
/* Mode 6 (2 0) */
  -0.0309075849876326442  ,-0.169014838111087223   , 0.231983846806111116   , 0.0316819998675020101  ,-0.132129201950266478   , 0.294194237539561643   ,-0.371327551521482169   ,
/* Mode 6 (3 0) */
  -0.145075577963694496   , 0.197230827720082519   ,
/* Mode 6 (0 1) */
   0.0886407551749832101  ,-0.120531974116185978   ,-0.396864531545163823   , 0.193717268754000138   , 0.754103701727920184   ,-0.879373549146539757   ,-0.0841259680921294245  , 0.131632039779950222   ,
/* Mode 6 (1 1) */
   0.0578298957712003528  , 0.217444978118055715   ,-0.427415431451774019   , 0.556517849128222664   ,-0.57019413898582072    ,-0.0568421260734358891  , 0.0915327976965619877  ,
/* Mode 6 (2 1) */
   0.136234317321284409   ,-0.253211038061854632   , 0.42121766340222544    ,-0.153239137922756397   , 0.265899753757675106   ,-0.329423006639579408   ,
/* Mode 6 (3 1) */
   0.312252353926686543   , 0.145982160527742794   ,
/* Mode 6 (0 2) */
/* Mode 6 (1 2) */
   0.192259783479606372   ,
/* Mode 6 (2 2) */
  -0.107935267439026358   , 0.21617068010192747    , 0.205358079481889388   ,
/* Mode 6 (3 2) */
  -0.146208080428913978   , 0.247162119452198348   ,-0.255557286203555944   ,
/* Mode 6 (0 3) */
/* Mode 6 (1 3) */
/* Mode 6 (2 3) */
/* Mode 6 (3 3) */
/* Mode 7 (0 0) */
   0.995087479198650815   ,-1.55149093688817108    , 1.51217064060705941    ,-1.00438546930951933    ,
/* Mode 7 (1 0) */
  -0.136138776538003409   , 0.953060066367612646   ,-1.22542336889725334    , 1.07614063552661365    ,-0.685253376517939938   , 0.145290519839733068   ,
/* Mode 7 (2 0) */
   0.0565386614447666858  ,-0.121847517915001619   , 0.135500112943033102   , 0.84383186417122269    ,-0.858751693910667968   , 0.656096817769033946   ,-0.37659388613400363    ,-0.065997992379982745   ,
   0.149227355761735569   ,-0.175615279794940571   ,
/* Mode 7 (3 0) */
  -0.0749855533606730573  , 0.776247916210864086   ,-0.738867133929076547   , 0.484671523247623415   , 0.0981082645996545488  ,
/* Mode 7 (0 1) */
   0.156313310186110332   ,
/* Mode 7 (1 1) */
  -0.112349502049764127   , 0.252571429335134601   ,-0.238119747057696035   , 0.186392057322520843   ,
/* Mode 7 (2 1) */
   0.188947521189440748   ,-0.080736700569255096   , 0.164994254069138535   ,-0.188881097893865285   ,
/* Mode 7 (3 1) */
  -0.160113325898735309   , 0.232116140011214805   ,-0.235509004761732504   ,-0.0444758390407700779  , 0.093404691865438122   ,-0.106173707622284577   ,
/* Mode 7 (0 2) */
  -0.0582888891129273237  , 0.155468449710677747   ,-0.197449653287679439   ,
/* Mode 7 (1 2) */
   0.139237871072183578   ,-0.149913380385093387   , 0.177727835627044251   ,
/* Mode 7 (2 2) */
   0.13848667914575169    ,-0.141044915435976526   ,-0.074082728486663918   , 0.152525815593236219   ,-0.164694926999826297   ,
/* Mode 7 (3 2) */
   0.152430677769527234   ,-0.151275570581107438   , 0.088780792255398075   ,
/* Mode 7 (0 3) */
  -0.0355827688381614923  , 0.0904122614791960655  ,-0.13385892368143551    ,
/* Mode 7 (1 3) */
   0.0835854318868960444  ,
/* Mode 7 (2 3) */
   0.0861822553441407291  ,-0.0702653740601497795  , 0.141054917371580324   ,-0.162436526050695362   ,
/* Mode 7 (3 3) */
   0.098359836045138857   ,-0.108179496199752409   ,
/* Mode 8 (0 0) */
   0.70368055449561262    ,-0.638313585130616645   ,-1.08312150895165193    , 0.954417500060381063   , 1.21774157302902419    ,-1.0792703413283693     ,-0.914161729857718375   , 1.03059529313593035    ,
   0.21604604959466378    , 0.222897010188560285   ,-0.616377809254074482   ,-0.700057717505475519   , 0.666352475348340412   , 0.673853645304220761   , 0.081915790710652997   ,-0.171470488702055113   ,
   0.291514904628188409   ,
/* Mode 8 (1 0) */
   0.157521913754602921   ,-0.612966729302039437   ,-0.154862740789612735   , 0.581029221989779132   ,-0.670925489769457206   ,-0.238190195040617836   ,-0.269551822110195849   , 0.286493184965804171   ,
   0.343902911386493926   , 0.0818983541769588153  ,-0.23601441021423672    , 0.393948388954772188   ,-0.429504385403415512   ,
/* Mode 8 (2 0) */
  -0.104777034264807528   , 0.13371542063317382    , 0.101986314766275565   ,-0.171972593917197741   , 0.0671356915675078575  , 0.0855865893940260802  , 0.0376682958089758629  ,-0.126933899763732316   ,
   0.268611155321636874   ,-0.325053565560352642   ,
/* Mode 8 (3 0) */
   0.175515773928226898   ,-0.185670924547269411   , 0.121151962603469415   ,
/* Mode 8 (0 1) */
   0.0917270082590599667  ,-0.188010893899742765   , 0.416182139799949113   ,-0.504296219760615116   ,-0.092507610309822158   ,
/* Mode 8 (1 1) */
  -0.0434970755823905278  , 0.194479245262726752   ,-0.333352845642789442   , 0.479089527823740369   ,-0.478391575053251694   , 0.0436960949222773287  ,
/* Mode 8 (2 1) */
   0.128431896213380137   ,-0.252379096748096554   , 0.419231386903765435   , 0.179207581183833509   ,
/* Mode 8 (3 1) */
   0.342379744040831158   ,
/* Mode 8 (0 2) */
/* Mode 8 (1 2) */
   0.180844638751052528   ,
/* Mode 8 (2 2) */
   0.210892588731350666   ,
/* Mode 8 (3 2) */
  -0.14635073015637251    , 0.236754509978988892   ,-0.248048266956153812   ,
/* Mode 8 (0 3) */
/* Mode 8 (1 3) */
/* Mode 8 (2 3) */
/* Mode 8 (3 3) */
/* Mode 9 (0 0) */
  -0.211299780461168485   , 0.336051580452135346   , 0.695304863824090291   ,-0.776895117230083976   , 0.891121068451259379   , 0.188951472263588688   ,-0.459253491625998711   , 0.333398600679269352   ,
  -0.452581743995101649   ,
/* Mode 9 (1 0) */
  -0.149099220808090543   , 0.199739415178916746   , 0.229168327974562158   ,-0.304508694268128322   , 0.164613032917537039   ,-0.392957210926095313   , 0.715963764961370153   ,-0.77821075657365113    ,
/* Mode 9 (2 0) */
  -0.0419450838758808828  , 0.0481459990209964772  ,-0.138940676458412626   , 0.309850314146586425   ,-0.388797049976307707   ,
/* Mode 9 (3 0) */
/* Mode 9 (0 1) */
   0.156468145282019938   ,-0.35786228055526953    , 0.470393372999296011   ,-0.496791448277482339   ,-0.126447664748444571   , 0.285939207960300978   , 0.175157589487578647   ,-0.391497510650182234   ,
   0.354783138270477472   ,
/* Mode 9 (1 1) */
   0.0621923304477682917  ,-0.0606610432922470091  ,-0.1264385868415355     , 0.245902294410611538   ,-0.329033724107705206   ,-0.288211918284309088   , 0.391121439785686642   ,-0.541922628102149639   ,
   0.286611342744800546   ,
/* Mode 9 (2 1) */
   0.0546504350813422565  ,-0.164622654986902789   , 0.316640527961122076   ,-0.38726718852090819    ,
/* Mode 9 (3 1) */
/* Mode 9 (0 2) */
   0.0397114060392823459  ,-0.131455264464444332   , 0.281412508051308297   ,-0.350682701568626576   ,-0.0356667683576974426  ,
/* Mode 9 (1 2) */
  -0.14813238315193783    , 0.273637467591525296   ,-0.364709333906868605   , 0.293308308580698951   ,
/* Mode 9 (2 2) */
   0.212791998243266195   ,-0.225641425242246507   ,-0.143035148114312088   , 0.272296246142968323   ,-0.323885479310951685   ,
/* Mode 9 (3 2) */
   0.190991703634249138   ,-0.160188078159970965   ,
/* Mode 9 (0 3) */
/* Mode 9 (1 3) */
   0.154672018421692509   ,
/* Mode 9 (2 3) */
   0.15899726454099683    , 0.228374964281277737   ,
/* Mode 9 (3 3) */
   0.167546761484660883   ,
};
const ogg_uint16_t OD_PRED_INDEX_4x4[]={
/* Mode 0 (0 0) */
  0x20,0x21,0x30,0x31,0x34,0x38,0x39,
/* Mode 0 (1 0) */
  0x10,0x30,0x31,
/* Mode 0 (2 0) */
  0x31,0x32,0x33,
/* Mode 0 (3 0) */
  0x31,0x32,0x33,
/* Mode 0 (0 1) */
  0x00,0x20,0x24,0x30,0x31,0x38,
/* Mode 0 (1 1) */
  0x24,0x34,0x35,0x36,
/* Mode 0 (2 1) */
  0x35,0x36,0x37,
/* Mode 0 (3 1) */
  0x35,0x36,0x37,
/* Mode 0 (0 2) */
  0x10,0x14,0x18,0x1c,0x30,0x34,
/* Mode 0 (1 2) */
  0x15,0x19,0x1d,
/* Mode 0 (2 2) */
  0x16,0x1a,0x1e,0x39,0x3a,0x3b,
/* Mode 0 (3 2) */
  0x1b,0x3a,
/* Mode 0 (0 3) */
  0x14,0x18,0x1c,0x3c,
/* Mode 0 (1 3) */
  0x15,0x19,0x1d,0x3e,
/* Mode 0 (2 3) */
  0x1a,0x3d,0x3e,0x3f,
/* Mode 0 (3 3) */
  0x1b,0x3e,0x3f,
/* Mode 1 (0 0) */
  0x00,0x10,0x30,
/* Mode 1 (1 0) */
  0x00,0x10,0x11,0x31,
/* Mode 1 (2 0) */
  0x02,0x11,0x12,0x31,0x32,0x33,
/* Mode 1 (3 0) */
  0x12,0x13,0x31,0x32,0x33,
/* Mode 1 (0 1) */
  0x00,0x04,0x08,0x10,0x14,0x18,0x34,
/* Mode 1 (1 1) */
  0x11,0x15,0x19,0x35,
/* Mode 1 (2 1) */
  0x35,0x36,0x37,
/* Mode 1 (3 1) */
  0x13,0x36,0x37,
/* Mode 1 (0 2) */
  0x04,0x08,0x0c,0x14,0x18,0x1c,0x38,
/* Mode 1 (1 2) */
  0x15,0x19,0x1d,
/* Mode 1 (2 2) */
  0x16,0x1a,0x1e,0x39,0x3a,0x3b,
/* Mode 1 (3 2) */
  0x3a,0x3b,
/* Mode 1 (0 3) */
  0x3c,
/* Mode 1 (1 3) */
  0x19,
/* Mode 1 (2 3) */
  0x1a,0x1e,0x3d,0x3e,0x3f,
/* Mode 1 (3 3) */
  0x1b,0x1f,0x3e,0x3f,
/* Mode 2 (0 0) */
  0x20,0x24,0x30,0x31,0x32,0x33,0x34,0x35,0x36,0x37,0x39,0x3a,
/* Mode 2 (1 0) */
  0x20,0x30,0x31,0x32,0x33,0x34,0x35,
/* Mode 2 (2 0) */
/* Mode 2 (3 0) */
/* Mode 2 (0 1) */
  0x10,0x14,0x18,0x1c,0x24,0x28,0x2c,0x30,0x34,0x35,0x36,0x38,0x39,0x3a,0x3b,0x3d,
/* Mode 2 (1 1) */
  0x34,0x35,0x36,0x37,
/* Mode 2 (2 1) */
  0x36,
/* Mode 2 (3 1) */
/* Mode 2 (0 2) */
  0x10,0x14,0x18,0x1c,0x30,0x31,0x3c,0x3d,
/* Mode 2 (1 2) */
  0x19,0x38,0x39,0x3a,0x3b,
/* Mode 2 (2 2) */
  0x1a,0x3a,
/* Mode 2 (3 2) */
/* Mode 2 (0 3) */
  0x18,0x38,0x39,
/* Mode 2 (1 3) */
  0x3c,0x3d,0x3e,
/* Mode 2 (2 3) */
  0x3d,0x3e,0x3f,
/* Mode 2 (3 3) */
/* Mode 3 (0 0) */
  0x30,0x31,0x32,0x33,0x34,0x39,0x3a,
/* Mode 3 (1 0) */
  0x32,
/* Mode 3 (2 0) */
  0x31,0x32,0x33,
/* Mode 3 (3 0) */
  0x31,0x32,0x33,
/* Mode 3 (0 1) */
  0x00,0x18,0x30,0x34,0x35,0x36,0x37,0x3d,
/* Mode 3 (1 1) */
  0x19,0x35,0x36,0x37,
/* Mode 3 (2 1) */
  0x1a,0x36,0x37,
/* Mode 3 (3 1) */
  0x36,
/* Mode 3 (0 2) */
  0x14,0x18,0x1c,0x34,0x38,0x39,0x3a,0x3b,
/* Mode 3 (1 2) */
  0x19,0x38,0x39,0x3a,0x3b,
/* Mode 3 (2 2) */
  0x16,0x1a,0x1e,0x3a,0x3b,
/* Mode 3 (3 2) */
  0x1b,0x1f,0x3a,
/* Mode 3 (0 3) */
  0x3c,0x3d,0x3e,
/* Mode 3 (1 3) */
  0x19,0x3c,0x3d,0x3e,0x3f,
/* Mode 3 (2 3) */
  0x1a,0x3e,0x3f,
/* Mode 3 (3 3) */
  0x1b,0x3e,
/* Mode 4 (0 0) */
  0x00,0x01,0x04,0x05,0x30,0x31,0x32,0x34,0x35,0x36,
/* Mode 4 (1 0) */
  0x10,0x14,0x30,0x31,0x32,0x33,0x34,0x35,
/* Mode 4 (2 0) */
  0x32,
/* Mode 4 (3 0) */
/* Mode 4 (0 1) */
  0x10,0x14,0x15,0x18,0x1c,0x30,0x31,0x34,0x35,0x38,0x39,0x3a,
/* Mode 4 (1 1) */
  0x10,0x14,0x30,0x34,0x35,0x36,0x37,
/* Mode 4 (2 1) */
  0x36,
/* Mode 4 (3 1) */
/* Mode 4 (0 2) */
  0x10,0x14,0x18,0x1c,0x30,0x34,0x35,0x3c,
/* Mode 4 (1 2) */
  0x15,0x19,0x1d,0x38,0x39,0x3a,0x3b,
/* Mode 4 (2 2) */
  0x3a,
/* Mode 4 (3 2) */
/* Mode 4 (0 3) */
  0x18,0x38,0x39,0x3c,
/* Mode 4 (1 3) */
  0x3d,0x3e,
/* Mode 4 (2 3) */
  0x3d,0x3e,0x3f,
/* Mode 4 (3 3) */
/* Mode 5 (0 0) */
  0x00,0x10,0x11,0x15,0x18,0x19,0x1c,0x1d,0x24,0x30,0x32,0x33,0x34,0x35,0x36,0x37,
/* Mode 5 (1 0) */
  0x10,0x30,0x31,0x32,
/* Mode 5 (2 0) */
  0x31,0x32,0x33,
/* Mode 5 (3 0) */
  0x32,
/* Mode 5 (0 1) */
  0x10,0x14,0x18,0x30,0x34,
/* Mode 5 (1 1) */
  0x10,0x15,0x19,0x1d,0x34,0x35,0x36,0x37,0x39,
/* Mode 5 (2 1) */
  0x15,0x34,0x35,0x36,0x37,
/* Mode 5 (3 1) */
/* Mode 5 (0 2) */
  0x14,0x18,0x1c,
/* Mode 5 (1 2) */
  0x11,0x15,0x19,0x1d,
/* Mode 5 (2 2) */
  0x16,0x1a,0x1e,0x39,0x3a,0x3b,
/* Mode 5 (3 2) */
  0x1b,0x1f,0x3a,
/* Mode 5 (0 3) */
/* Mode 5 (1 3) */
/* Mode 5 (2 3) */
  0x1a,0x3e,0x3f,
/* Mode 5 (3 3) */
  0x1b,0x3e,
/* Mode 6 (0 0) */
  0x10,0x11,0x14,0x15,0x18,0x19,0x1c,0x1d,0x30,0x31,0x32,0x34,0x35,0x36,
/* Mode 6 (1 0) */
  0x10,0x11,0x12,0x14,0x15,0x16,0x1a,0x30,0x31,0x32,0x33,
/* Mode 6 (2 0) */
  0x10,0x11,0x15,0x30,0x31,0x32,0x33,
/* Mode 6 (3 0) */
  0x12,0x16,
/* Mode 6 (0 1) */
  0x10,0x11,0x14,0x15,0x18,0x1c,0x30,0x31,
/* Mode 6 (1 1) */
  0x10,0x11,0x15,0x19,0x1d,0x30,0x31,
/* Mode 6 (2 1) */
  0x12,0x16,0x1a,0x35,0x36,0x37,
/* Mode 6 (3 1) */
  0x1b,0x36,
/* Mode 6 (0 2) */
/* Mode 6 (1 2) */
  0x19,
/* Mode 6 (2 2) */
  0x16,0x1a,0x3a,
/* Mode 6 (3 2) */
  0x17,0x1b,0x1f,
/* Mode 6 (0 3) */
/* Mode 6 (1 3) */
/* Mode 6 (2 3) */
/* Mode 6 (3 3) */
/* Mode 7 (0 0) */
  0x10,0x14,0x18,0x1c,
/* Mode 7 (1 0) */
  0x02,0x11,0x15,0x19,0x1d,0x32,
/* Mode 7 (2 0) */
  0x01,0x02,0x03,0x12,0x16,0x1a,0x1e,0x31,0x32,0x33,
/* Mode 7 (3 0) */
  0x02,0x13,0x17,0x1b,0x32,
/* Mode 7 (0 1) */
  0x18,
/* Mode 7 (1 1) */
  0x15,0x19,0x1d,0x36,
/* Mode 7 (2 1) */
  0x1a,0x35,0x36,0x37,
/* Mode 7 (3 1) */
  0x17,0x1b,0x1f,0x35,0x36,0x37,
/* Mode 7 (0 2) */
  0x14,0x18,0x1c,
/* Mode 7 (1 2) */
  0x19,0x1d,0x3a,
/* Mode 7 (2 2) */
  0x1a,0x1e,0x39,0x3a,0x3b,
/* Mode 7 (3 2) */
  0x1b,0x1f,0x3a,
/* Mode 7 (0 3) */
  0x14,0x18,0x1c,
/* Mode 7 (1 3) */
  0x19,
/* Mode 7 (2 3) */
  0x1a,0x3d,0x3e,0x3f,
/* Mode 7 (3 3) */
  0x3e,0x3f,
/* Mode 8 (0 0) */
  0x10,0x11,0x14,0x15,0x18,0x19,0x1c,0x1d,0x20,0x21,0x24,0x25,0x28,0x29,0x30,0x31,
  0x32,
/* Mode 8 (1 0) */
  0x10,0x12,0x14,0x16,0x1a,0x20,0x21,0x24,0x25,0x30,0x31,0x32,0x33,
/* Mode 8 (2 0) */
  0x10,0x11,0x14,0x15,0x20,0x21,0x30,0x31,0x32,0x33,
/* Mode 8 (3 0) */
  0x12,0x16,0x32,
/* Mode 8 (0 1) */
  0x10,0x14,0x18,0x1c,0x20,
/* Mode 8 (1 1) */
  0x10,0x11,0x15,0x19,0x1d,0x20,
/* Mode 8 (2 1) */
  0x12,0x16,0x1a,0x36,
/* Mode 8 (3 1) */
  0x1b,
/* Mode 8 (0 2) */
/* Mode 8 (1 2) */
  0x19,
/* Mode 8 (2 2) */
  0x1a,
/* Mode 8 (3 2) */
  0x17,0x1b,0x1f,
/* Mode 8 (0 3) */
/* Mode 8 (1 3) */
/* Mode 8 (2 3) */
/* Mode 8 (3 3) */
/* Mode 9 (0 0) */
  0x11,0x15,0x20,0x24,0x28,0x30,0x31,0x35,0x36,
/* Mode 9 (1 0) */
  0x20,0x21,0x24,0x28,0x30,0x31,0x32,0x33,
/* Mode 9 (2 0) */
  0x20,0x30,0x31,0x32,0x33,
/* Mode 9 (3 0) */
/* Mode 9 (0 1) */
  0x10,0x14,0x18,0x1c,0x20,0x21,0x24,0x25,0x29,
/* Mode 9 (1 1) */
  0x10,0x20,0x21,0x25,0x29,0x35,0x36,0x37,0x39,
/* Mode 9 (2 1) */
  0x34,0x35,0x36,0x37,
/* Mode 9 (3 1) */
/* Mode 9 (0 2) */
  0x10,0x14,0x18,0x1c,0x20,
/* Mode 9 (1 2) */
  0x15,0x19,0x1d,0x3a,
/* Mode 9 (2 2) */
  0x1a,0x1e,0x39,0x3a,0x3b,
/* Mode 9 (3 2) */
  0x1b,0x3b,
/* Mode 9 (0 3) */
/* Mode 9 (1 3) */
  0x19,
/* Mode 9 (2 3) */
  0x1a,0x3e,
/* Mode 9 (3 3) */
  0x3e,
};
const int OD_PRED_OFFSETS_4x4[OD_INTRA_NMODES] = {
  0, 64, 128, 192, 256, 320, 384, 448, 512, 576
};
const ogg_int16_t OD_SATD_WEIGHTS_4x4[4*4] = {
   26,  34,  57,  76,
   33,  43,  73,  95,
   52,  69, 111, 140,
   68,  87, 135, 164
};
