const int OD_PRED_MULTS_4x4[OD_INTRA_NMODES][4][4]={
/* Mode 0 */
  {
    {  14,   4,   3,   2   },
    {  11,   6,   3,   2   },
    {   3,   6,   3,   0   },
    {   2,   2,   2,   1   }
  },
/* Mode 1 */
  {
    {  12,   6,   8,   4   },
    {   6,   1,   0,   2   },
    {   6,   1,   4,   4   },
    {   2,   0,   4,   4   }
  },
/* Mode 2 */
  {
    {  17,   6,   3,   0   },
    {  15,   3,   2,   0   },
    {   9,   2,   2,   0   },
    {   3,   1,   1,   0   }
  },
/* Mode 3 */
  {
    {  11,   4,   5,   0   },
    {  11,   6,   5,   2   },
    {   5,   5,   2,   0   },
    {   2,   4,   2,   0   }
  },
/* Mode 4 */
  {
    {  10,   6,   3,   0   },
    {  13,   4,   2,   1   },
    {  12,   2,   1,   0   },
    {   5,   3,   2,   0   }
  },
/* Mode 5 */
  {
    {  24,   5,   2,   0   },
    {  12,   7,   2,   0   },
    {   4,   4,   1,   0   },
    {   0,   2,   1,   0   }
  },
/* Mode 6 */
  {
    {  10,  17,  10,   5   },
    {   4,   8,   1,   1   },
    {   2,   2,   0,   1   },
    {   3,   0,   0,   0   }
  },
/* Mode 7 */
  {
    {   9,  11,   5,   4   },
    {   3,   5,   6,   3   },
    {   3,   5,   4,   0   },
    {   3,   2,   1,   0   }
  },
/* Mode 8 */
  {
    {  17,  11,  10,   5   },
    {   5,   3,   3,   5   },
    {   2,   0,   1,   2   },
    {   0,   0,   0,   0   }
  },
/* Mode 9 */
  {
    {  19,   8,   3,   0   },
    {   9,   9,   6,   1   },
    {   3,   3,   3,   0   },
    {   0,   0,   0,   0   }
  }
};
const double OD_PRED_WEIGHTS_4x4[640]={
/* Mode 0 (0 0) */
   0.225025529443031169   ,-0.202533512871819504   ,-0.158481441650031696   , 0.353063217163853305   ,-0.193180989374318296   ,-0.17987949754804225    , 0.279791096312423493   ,-0.177654472815679254   ,
   0.24108510561200247    ,-0.236041510686185035   , 0.497875247650155006   , 0.747370377139841779   ,-0.345799974008035194   ,-0.695973390160918748   ,
/* Mode 0 (1 0) */
  -0.0461562965884867379  ,-0.235560035451648192   , 0.234982615658595101   , 0.0447525423878388645  ,
/* Mode 0 (2 0) */
  -0.120697050839785311   , 0.149746411227501597   , 0.13163217197289559    ,
/* Mode 0 (3 0) */
  -0.127564081991581146   , 0.150119409041138019   ,
/* Mode 0 (0 1) */
  -0.104583443129038819   , 0.197164257743183302   ,-0.0696783504399080267  , 0.115551874005278513   ,-0.22067982295449462    ,-0.154190953339573555   , 0.0557815803922638367  ,-0.105300061794843705   ,
  -0.160716366058269444   , 0.214513964668317514   ,-0.314584295981331918   ,
/* Mode 0 (1 1) */
   0.107471318145965583   ,-0.143723839670547221   , 0.149156830808303026   ,-0.130265524694253676   , 0.0900833346646167654  , 0.200792154518063315   ,
/* Mode 0 (2 1) */
  -0.130177044924731061   , 0.130910904295359287   , 0.152189331586250198   ,
/* Mode 0 (3 1) */
  -0.115003649688243573   , 0.13450200346907154    ,
/* Mode 0 (0 2) */
   0.105625325809439105   ,-0.189350628006617033   , 0.201120669560732851   ,
/* Mode 0 (1 2) */
   0.0836257827470831966  ,-0.220119401896587658   ,-0.170301585369640351   ,-0.125826245089734223   , 0.161822725571090176   , 0.185320081388115898   ,
/* Mode 0 (2 2) */
  -0.12474485886006291    ,-0.0813850896540323776  , 0.311211340572573714   ,
/* Mode 0 (3 2) */
/* Mode 0 (0 3) */
  -0.290841885691623725   , 0.146406813969440691   ,
/* Mode 0 (1 3) */
  -0.212420282863029969   , 0.311808789908845363   ,
/* Mode 0 (2 3) */
  -0.106723747149083378   , 0.238599300515231399   ,
/* Mode 0 (3 3) */
   0.0875213422466287472  ,
/* Mode 1 (0 0) */
  -0.517915858413467656   ,-0.0999142988914508284  , 0.232636888539757086   , 0.234805489139305379   , 0.549581039568977525   , 0.117169979517738415   ,-0.293166488460759989   , 0.0869926335912242915  ,
   0.813593300289596422   , 0.278890253696914281   ,-0.32952330295916249    ,-0.161235937095884518   ,
/* Mode 1 (1 0) */
   0.0321321376452300758  , 0.485674414178239311   , 0.162610934591526812   ,-0.279517720191550634   ,-0.0569706113896266964  , 0.0301913175783032235  ,
/* Mode 1 (2 0) */
  -0.176017490931592302   ,-0.0215001592509316171  , 0.491932336765060985   ,-0.16781239407936277    , 0.0215583985482704736  ,-0.119546653676200279   ,-0.0630667977146237985  ,-0.141673610457908244   ,
/* Mode 1 (3 0) */
  -0.110897995921342432   , 0.334385349751772865   ,-0.13526478613931972    ,-0.334482484892691834   ,
/* Mode 1 (0 1) */
   0.0669956334499484246  ,-0.0556557900067975314  , 0.776774099491886139   , 0.36241338645233806    ,-0.471749659913980546   , 0.266808057954153188   ,
/* Mode 1 (1 1) */
   0.0632459213753969601  ,
/* Mode 1 (2 1) */
/* Mode 1 (3 1) */
   0.0646304425628347334  ,-0.156940685690848375   ,
/* Mode 1 (0 2) */
  -0.0698683987688632768  ,-0.0436483112879317015  ,-0.0869728406591364911  , 0.741362112333283307   , 0.12360416195722225    ,-0.219528499056726445   ,
/* Mode 1 (1 2) */
  -0.0563376670758632472  ,
/* Mode 1 (2 2) */
   0.171861814086909537   ,-0.178358206313912554   , 0.12482415619759292    ,-0.301158892633344111   ,
/* Mode 1 (3 2) */
   0.149241818850635005   ,-0.14638495004835822    , 0.147896902518080325   ,-0.38675275115464286    ,
/* Mode 1 (0 3) */
   0.887214608325574861   ,-0.222864943882266492   ,
/* Mode 1 (1 3) */
/* Mode 1 (2 3) */
   0.16158317382054202    ,-0.296091004791819712   , 0.178887582064076733   ,-0.180303112981659436   ,
/* Mode 1 (3 3) */
   0.197730643677485524   ,-0.181597442058860248   , 0.168993189525870058   ,-0.293452881237482088   ,
/* Mode 2 (0 0) */
   0.114016479439523283   ,-0.182075424513187784   , 0.214118740414025566   , 0.151771341055143866   ,-0.196824430386984189   ,-0.171384768916245323   , 0.851289666689637903   ,-1.10966303387462095    ,
   0.825245404285099293   ,-0.705214670514488939   , 1.90694115860363911    ,-1.75771622953913531    , 1.01996680753967883    ,-0.82504414592833264    , 0.890192823403672784   ,-0.821519435261991227   ,
   0.535687160716511013   ,
/* Mode 2 (1 0) */
   0.0277317237736461122  ,-0.248040908699023566   , 0.614936606094475535   ,-0.490795055385223999   , 0.0839510958986105504  , 0.322770725007477055   ,
/* Mode 2 (2 0) */
  -0.0846319275169200302  , 0.195440650729936466   ,-0.194117853317668981   ,
/* Mode 2 (3 0) */
/* Mode 2 (0 1) */
  -0.0392836284731688107  ,-0.122295095791062777   , 0.19465820431813935    , 0.230354584434186771   ,-0.261831595530036654   , 0.0514065270209330474  ,-0.148273044436455448   , 0.339226454029236735   ,
   0.463392925098035036   ,-0.438776855830724066   ,-0.8737520815319062     , 1.30585960804069301    ,-0.918741950658387263   ,-0.564830467813435266   , 0.621192803019545048   ,
/* Mode 2 (1 1) */
   0.0658154959371223258  ,-0.211299637845556915   , 0.36968930094658814    ,
/* Mode 2 (2 1) */
  -0.0782450984430980434  , 0.169950473642854094   ,
/* Mode 2 (3 1) */
/* Mode 2 (0 2) */
  -0.100214363198385656   , 0.237097469988842818   ,-0.184127458216728379   ,-0.165876156469260683   ,-0.0612675169942314274  , 0.177938920049392935   ,-0.165476089891341577   ,-0.377437605889489936   ,
   0.350355391990236908   ,
/* Mode 2 (1 2) */
  -0.175544486075666945   , 0.266638810511179269   ,
/* Mode 2 (2 2) */
  -0.0659635624941610488  , 0.146058613540925447   ,
/* Mode 2 (3 2) */
/* Mode 2 (0 3) */
   0.096643929374947285   , 0.103137037300390533   ,-0.204603105977324812   ,
/* Mode 2 (1 3) */
   0.225731739678453974   ,
/* Mode 2 (2 3) */
   0.15301840754509774    ,
/* Mode 2 (3 3) */
/* Mode 3 (0 0) */
   0.0410213675988663831  , 0.220317764165101293   ,-0.237661872061320834   ,-0.04127594741717832    , 1.01072306347660623    ,-1.77219172244031853    , 1.85313387967155685    ,-1.18789188736118589    ,
   0.351192167885795548   ,-0.644273438262658482   , 0.467656371218135303   ,
/* Mode 3 (1 0) */
  -0.0695316744613846544  ,-0.130215206200856443   , 0.377490720009133085   ,-0.367884458510723877   ,
/* Mode 3 (2 0) */
   0.0106966068032842542  ,-0.0104370779780425579  ,-0.0800302205061339395  , 0.173637428040780917   ,-0.147801260863925754   ,
/* Mode 3 (3 0) */
/* Mode 3 (0 1) */
   0.0430225240208939319  ,-0.110557534936673835   , 0.11764697793829533    ,-0.0462282288403815939  , 0.130657017735672454   ,-0.114779058319586125   , 0.873943115048149699   ,-1.07822023058758787    ,
   0.794524903256710546   ,-0.386203567739096809   , 0.240512947309089176   ,
/* Mode 3 (1 1) */
  -0.0569775807301369369  , 0.142620035364126485   ,-0.134813522977287936   ,-0.137344792172345992   , 0.292478128974102636   ,-0.24660273012284134    ,
/* Mode 3 (2 1) */
  -0.0740101153774529591  ,-0.11850732934446305    ,-0.0681912361580738619  , 0.156729676818015834   ,-0.111918612327908451   ,
/* Mode 3 (3 1) */
  -0.0823139135478665601  , 0.0719395023655500093  ,
/* Mode 3 (0 2) */
  -0.0142262370959384682  , 0.0165431740289912754  , 0.68929290160178236    ,-0.66488771044024142    , 0.264783059288984324   ,
/* Mode 3 (1 2) */
  -0.0347107432099024726  , 0.0733998057029716239  ,-0.11848262897726769    , 0.222188283029910311   ,-0.216993218757946055   ,
/* Mode 3 (2 2) */
  -0.055369777613931484   , 0.114745204347206364   ,
/* Mode 3 (3 2) */
/* Mode 3 (0 3) */
   0.566999353544085927   ,-0.667062823049080711   ,
/* Mode 3 (1 3) */
   0.0537600515125923606  ,-0.135247963978554181   , 0.179049533525899418   ,-0.17212158046508122    ,
/* Mode 3 (2 3) */
  -0.053232872550671502   , 0.0928741134521019751  ,
/* Mode 3 (3 3) */
/* Mode 4 (0 0) */
   0.336316055466275077   ,-0.2989636507759319     ,-0.329744139711672601   , 0.366982823003610958   ,-0.260066963447256994   ,-0.0959391747199160039  , 0.752854714829983895   ,-0.703584817342688629   ,
   0.555936783099149512   ,-0.568438787560014092   ,
/* Mode 4 (1 0) */
  -0.0422631609959609397  ,-0.170855396080447974   , 0.168068928836383163   , 0.0413626221318220688  ,-0.109785444904418286   , 0.193454209469658078   ,
/* Mode 4 (2 0) */
  -0.124625818712195913   ,-0.059229452990300302   , 0.111476000273601869   ,
/* Mode 4 (3 0) */
/* Mode 4 (0 1) */
   0.205580478555828061   ,-0.167266233418533528   ,-0.351713494432731699   , 0.308370336796142508   , 0.34582821928486196    ,-0.24342484182341681    , 0.131293147071790545   ,-0.285271983693150599   ,
  -0.20586178150858539    , 0.242653575938183624   , 0.174888048400280882   , 0.607940874245168406   ,-0.405195302188760209   ,
/* Mode 4 (1 1) */
  -0.127764173948112902   , 0.139083386794588676   , 0.119943299587869021   ,-0.227609229795103729   ,
/* Mode 4 (2 1) */
  -0.111648925390326892   , 0.122084814557127413   ,
/* Mode 4 (3 1) */
   0.134761969127505488   ,
/* Mode 4 (0 2) */
  -0.101278190165247278   , 0.24226983844654848    ,-0.173166280130676364   ,-0.196767745755560303   ,-0.0861127824018850657  , 0.164076827765109345   , 0.163095699447177889   ,-0.143286503623051564   ,
   0.12429922760204512    ,-0.312652437110920889   , 0.182270406971374727   , 0.213327935130955881   ,
/* Mode 4 (1 2) */
  -0.227821758329154744   , 0.272248237118239089   ,
/* Mode 4 (2 2) */
   0.127487352040954127   ,
/* Mode 4 (3 2) */
/* Mode 4 (0 3) */
  -0.0197815873096641795  , 0.0199513071294294617  ,-0.140411780148093135   ,-0.481603348655408214   , 0.316602551592230608   ,
/* Mode 4 (1 3) */
  -0.154761026192145518   ,-0.287436644401125652   , 0.418825252389670777   ,
/* Mode 4 (2 3) */
  -0.0997041129708472057  , 0.22592307448004198    ,
/* Mode 4 (3 3) */
/* Mode 5 (0 0) */
   0.260047204010728505   ,-0.253506189664931936   ,-0.237261132010756409   , 0.326682152978515772   , 0.122826563633927272   , 0.203457812166739194   , 0.266922810390837983   ,-0.56947136606776827    ,
  -1.08154195245695406    , 0.720505433503809245   , 1.68050934933159013    ,-0.585063489500529554   , 0.25851626409625339    ,-0.720060554818304999   ,-0.480485285147569552   , 0.87575608706049568    ,
   0.523334359770574853   , 0.235805534344801976   ,-1.9198219959001539     , 2.51416157583006683    , 0.461479124831579823   ,-0.757545525129931563   , 0.854161653871511772   , 0.738998539802246168   ,
/* Mode 5 (1 0) */
  -0.0820806924279793432  ,-0.200076362538211788   , 0.261188439486315649   , 0.161198797498842056   ,-0.387114805151412167   ,
/* Mode 5 (2 0) */
  -0.0802193404170510604  , 0.195218542292709907   ,
/* Mode 5 (3 0) */
/* Mode 5 (0 1) */
  -0.194970101553634922   , 0.268429264494329356   ,-0.319007031399369589   , 0.216345870341660668   ,-0.440174932675334918   ,-0.349170695013685584   ,-0.106364834055538607   ,-0.294784035698444802   ,
   0.255943866559303179   ,-0.555853376958602818   , 0.650994269265720571   , 0.548843689655447498   ,
/* Mode 5 (1 1) */
   0.0695021657894155376  ,-0.135715387115131952   , 0.228145157004916943   ,-0.049038224770778592   , 0.131661516530242301   ,-0.0430022089763568566  ,-0.190266619119216995   ,
/* Mode 5 (2 1) */
  -0.110162644125684897   , 0.257337048640743526   ,
/* Mode 5 (3 1) */
/* Mode 5 (0 2) */
  -0.0943720350168642669  , 0.211277624115440321   ,-0.197185851084200892   , 0.20357222371246958    ,
/* Mode 5 (1 2) */
  -0.109154479432501617   , 0.217845847799947784   , 0.326533992000001272   , 0.342270727122744089   ,
/* Mode 5 (2 2) */
   0.293708098666657424   ,
/* Mode 5 (3 2) */
/* Mode 5 (0 3) */
/* Mode 5 (1 3) */
  -0.158491861252144567   , 0.241269845042030501   ,
/* Mode 5 (2 3) */
   0.171912989240166014   ,
/* Mode 5 (3 3) */
/* Mode 6 (0 0) */
   0.317281262351602644   ,-0.332895033731705481   ,-0.479545185475016955   , 0.487630756360948492   , 0.67430198414287934    , 0.632420361592949454   ,-0.517365091085697171   ,-0.68423013046211667    ,
   0.346747268292974586   ,-0.337122158583787523   ,
/* Mode 6 (1 0) */
   0.134572876008516973   ,-0.242053587776115076   , 0.354601614980143809   ,-0.147084461106560954   , 0.21591624959358649    ,-0.296883081526857884   ,-0.241014049590019541   , 0.548008497176360132   ,
   0.231152031202595531   ,-0.364707115902489998   , 0.0445181130232877795  , 0.0611992995310584945  ,-0.173329508053547576   , 0.225783359000756856   , 0.144514283091273954   ,-0.327919289203809861   ,
   0.376469286466927677   ,
/* Mode 6 (2 0) */
  -0.0588408556475670391  , 0.154311905513418529   , 0.0305382860570496267  ,-0.11265020350065065    ,-0.314445356940171949   , 0.184378881559545516   ,-0.030871521138385441   ,-0.0907407655541452446  ,
   0.224927560950269972   ,-0.198981717805988667   ,
/* Mode 6 (3 0) */
  -0.288289088265361759   , 0.191775961377850052   , 0.0176247203806362517  ,-0.0176624390452205446  , 0.0848687369351388415  ,
/* Mode 6 (0 1) */
   0.0479271375509816439  ,-0.0465754182611915271  ,-0.313064459577730547   , 0.243920724472262901   ,
/* Mode 6 (1 1) */
   0.0431610122804975543  ,-0.0809198584590279102  ,-0.186068019227604908   , 0.230296377881734043   ,-0.0436168159493764002  , 0.0900827824790348675  ,-0.113963887033260783   , 0.160483993449539508   ,
/* Mode 6 (2 1) */
  -0.137219479508884273   ,
/* Mode 6 (3 1) */
  -0.113258991404579318   ,
/* Mode 6 (0 2) */
  -0.114276359381309187   , 0.146861866585916656   ,
/* Mode 6 (1 2) */
  -0.0989181099158371879  , 0.128550159969047562   ,
/* Mode 6 (2 2) */
/* Mode 6 (3 2) */
   0.139765666249319964   ,
/* Mode 6 (0 3) */
   0.199507299916617448   , 0.346789462231968548   , 0.16268211596563964    ,
/* Mode 6 (1 3) */
/* Mode 6 (2 3) */
/* Mode 6 (3 3) */
/* Mode 7 (0 0) */
   0.168333940621734568   , 0.994529958213899223   ,-1.35498899773391246    , 0.149635297218817132   , 1.16882686287308557    ,-0.592566369991132325   , 0.0534485715707000777  , 0.107346992299760899   ,
   0.189020948476754963   ,
/* Mode 7 (1 0) */
   0.0256263221866390375  ,-0.107797755056129554   , 0.109899395309178582   , 0.141867890812908737   , 0.930137044407200686   ,-0.900470818900576342   , 0.544370770933459203   ,-0.206080150130849848   ,
  -0.0238854053982520305  , 0.116044092235540089   ,-0.111882555008322976   ,
/* Mode 7 (2 0) */
   0.0198110186341751739  , 0.783122560252651145   ,-0.495041030474125288   ,-0.0204171812716321191  , 0.0638283504569589072  ,
/* Mode 7 (3 0) */
   0.0113038426171770869  , 0.735687398381410951   ,-0.443949211085624351   ,-0.0125576254904968005  ,
/* Mode 7 (0 1) */
  -0.176340878603312268   , 0.395544694157193788   ,-0.325858594977233129   ,
/* Mode 7 (1 1) */
  -0.124533668472382023   , 0.249930990670204578   ,-0.175708731079112862   , 0.125966172791675324   ,-0.115458555423895146   ,
/* Mode 7 (2 1) */
  -0.093153642183778515   , 0.181743555786962802   ,-0.153389422126362307   ,-0.024905201635069936   , 0.0760319643147401858  ,-0.074948663982228006   ,
/* Mode 7 (3 1) */
  -0.10681934419460519    , 0.120690711219925875   ,-0.12132597741891149    ,
/* Mode 7 (0 2) */
  -0.063594728235991313   , 0.164645237874420786   ,-0.142276369739730568   ,
/* Mode 7 (1 2) */
  -0.0621134141581265592  , 0.122967328349220278   ,-0.0933887453404700502  , 0.0887233623031030011  ,-0.107418908677925001   ,
/* Mode 7 (2 2) */
  -0.0400111623181958684  , 0.0704692709298109787  ,-0.023912532602668856   , 0.0577525712777615594  ,
/* Mode 7 (3 2) */
/* Mode 7 (0 3) */
  -0.0681964215549691749  ,-0.0899179497561285179  , 0.0695027928373859738  ,
/* Mode 7 (1 3) */
  -0.0451370046629224891  ,-0.109645110562921866   ,
/* Mode 7 (2 3) */
   0.057750347546434537   ,
/* Mode 7 (3 3) */
/* Mode 8 (0 0) */
   0.719794409626977605   ,-0.594505063206099194   ,-1.17516347932425758    , 0.924919319879095703   , 0.976228069862588699   ,-0.9201870810544861     ,-0.570113811989778618   , 0.645934822952541343   ,
   0.280308796319997056   , 0.401863320070100005   ,-0.663229598788400598   ,-0.832071609884450725   ,-0.319806155865776598   , 0.722457601082112877   , 0.674420827536050926   ,-0.175953451257955279   ,
   0.227479716734621473   ,
/* Mode 8 (1 0) */
   0.217464516088694576   ,-0.493372994841117074   ,-0.230616198124268867   , 0.360589004684724601   ,-0.214676109614414884   ,-0.433791933207726632   ,-0.323614567928565688   , 0.189767866463100454   ,
   0.388996082274627231   ,-0.130078130914995621   , 0.194014670164624314   ,
/* Mode 8 (2 0) */
  -0.0203326071351187     , 0.127813916970063834   ,-0.475888469050603558   , 0.223491514214609582   , 0.0209340144409366352  , 0.144257112669931437   , 0.169107216277334799   ,-0.121212057572286896   ,
  -0.0628432947220715493  , 0.165478010899876987   ,
/* Mode 8 (3 0) */
  -0.364019312196210809   ,-0.131913339009244512   , 0.307331498215918375   , 0.0175718318932329455  ,-0.0172132179468733326  ,
/* Mode 8 (0 1) */
   0.0429027768341374502  ,-0.149945536514081684   , 0.424088845807351122   ,-0.313425015725058209   ,-0.0460123249378090668  ,
/* Mode 8 (1 1) */
   0.0954969607232783457  ,-0.179115850388198744   , 0.274344613892853251   ,
/* Mode 8 (2 1) */
  -0.178771384339074829   ,-0.164745643878009357   , 0.12503693441618613    ,
/* Mode 8 (3 1) */
   0.147205593687169262   ,-0.307021166028820347   , 0.404760076548051351   ,-0.107347206680160442   ,-0.161481572131914553   ,
/* Mode 8 (0 2) */
  -0.0783684470849324022  , 0.155170750729437562   ,
/* Mode 8 (1 2) */
/* Mode 8 (2 2) */
   0.164957489235960625   ,
/* Mode 8 (3 2) */
  -0.113618074686353668   , 0.175665015934550556   ,
/* Mode 8 (0 3) */
/* Mode 8 (1 3) */
/* Mode 8 (2 3) */
/* Mode 8 (3 3) */
/* Mode 9 (0 0) */
  -0.101361375597156467   , 0.307748265328836257   ,-0.233441460948480756   , 0.138821029464297779   ,-0.375075626274708029   , 0.394854745893760573   , 0.467395791859594845   ,-1.30112605702687856    ,
   1.40551699864311397    , 0.745686943908407618   , 0.463751231342077574   ,-0.898623847129989328   , 0.387334379192136091   , 0.170078525636844169   , 0.410523760182775088   ,-0.141878285452604863   ,
   0.285914711534927146   ,-0.326211771289448782   , 0.414506798041105851   ,
/* Mode 9 (1 0) */
   0.0908381678724893005  ,-0.335321639117454995   , 0.341810501287421187   ,-0.148487384849531723   , 0.159342126875616247   , 0.0569133222961911989  ,-0.258957354431695375   , 0.49628203158333678    ,
/* Mode 9 (2 0) */
   0.203833160902380239   ,-0.0979461777868983891  , 0.251904526531339767   ,
/* Mode 9 (3 0) */
/* Mode 9 (0 1) */
   0.126520432543654388   ,-0.164350752053484067   ,-0.209739026590319289   , 0.252894442643520179   , 0.31063587011982452    ,-0.119752129489166415   , 0.147941715896699355   ,-0.289438408335217889   ,
  -0.137210365202191181   ,
/* Mode 9 (1 1) */
   0.0605630170437882753  ,-0.117866962225770103   , 0.293537346072667682   ,-0.0581828713647968149  ,-0.203259331829950401   , 0.30158966856180025    , 0.293468831448432166   ,-0.317081472038117207   ,
   0.238205926836245863   ,
/* Mode 9 (2 1) */
  -0.15825147021213945    , 0.288382615111286378   ,-0.105422669334889779   ,-0.0863293808779929811  , 0.214842595106331857   ,-0.214917116143689718   ,
/* Mode 9 (3 1) */
   0.21916022049183595    ,
/* Mode 9 (0 2) */
  -0.0866021310689422397  , 0.15029524579892159    , 0.174978054054380661   ,
/* Mode 9 (1 2) */
  -0.0884503203192512494  , 0.220272898173147824   , 0.16359501010415356    ,
/* Mode 9 (2 2) */
   0.158033830513316736   ,-0.116690236301621134   , 0.156820246031953769   ,
/* Mode 9 (3 2) */
/* Mode 9 (0 3) */
/* Mode 9 (1 3) */
/* Mode 9 (2 3) */
/* Mode 9 (3 3) */
};
const ogg_uint16_t OD_PRED_INDEX_4x4[640]={
/* Mode 0 (0 0) */
  0x00,0x02,0x08,0x14,0x15,0x18,0x20,0x21,0x25,0x28,0x30,0x31,0x32,0x34,
/* Mode 0 (1 0) */
  0x10,0x11,0x15,0x30,
/* Mode 0 (2 0) */
  0x12,0x16,0x32,
/* Mode 0 (3 0) */
  0x13,0x17,
/* Mode 0 (0 1) */
  0x00,0x04,0x10,0x20,0x24,0x25,0x30,0x31,0x34,0x35,0x38,
/* Mode 0 (1 1) */
  0x05,0x11,0x15,0x19,0x24,0x36,
/* Mode 0 (2 1) */
  0x12,0x16,0x36,
/* Mode 0 (3 1) */
  0x13,0x17,
/* Mode 0 (0 2) */
  0x18,0x38,0x39,
/* Mode 0 (1 2) */
  0x25,0x29,0x2a,0x38,0x39,0x3a,
/* Mode 0 (2 2) */
  0x2a,0x39,0x3a,
/* Mode 0 (3 2) */
/* Mode 0 (0 3) */
  0x3c,0x3d,
/* Mode 0 (1 3) */
  0x3c,0x3d,
/* Mode 0 (2 3) */
  0x2e,0x3e,
/* Mode 0 (3 3) */
  0x3e,
/* Mode 1 (0 0) */
  0x00,0x01,0x02,0x08,0x10,0x14,0x18,0x20,0x30,0x31,0x32,0x35,
/* Mode 1 (1 0) */
  0x00,0x11,0x15,0x19,0x20,0x30,
/* Mode 1 (2 0) */
  0x02,0x10,0x12,0x1a,0x20,0x22,0x31,0x32,
/* Mode 1 (3 0) */
  0x03,0x13,0x23,0x33,
/* Mode 1 (0 1) */
  0x10,0x30,0x34,0x35,0x36,0x37,
/* Mode 1 (1 1) */
  0x11,
/* Mode 1 (2 1) */
/* Mode 1 (3 1) */
  0x36,0x37,
/* Mode 1 (0 2) */
  0x08,0x14,0x28,0x38,0x39,0x3a,
/* Mode 1 (1 2) */
  0x15,
/* Mode 1 (2 2) */
  0x0a,0x1a,0x2a,0x3a,
/* Mode 1 (3 2) */
  0x0b,0x1b,0x2b,0x3b,
/* Mode 1 (0 3) */
  0x3c,0x3e,
/* Mode 1 (1 3) */
/* Mode 1 (2 3) */
  0x0e,0x1e,0x2e,0x3e,
/* Mode 1 (3 3) */
  0x0f,0x1f,0x2f,0x3f,
/* Mode 2 (0 0) */
  0x04,0x10,0x15,0x20,0x21,0x24,0x30,0x31,0x33,0x34,0x35,0x36,0x37,0x39,0x3a,0x3b,
  0x3d,
/* Mode 2 (1 0) */
  0x30,0x31,0x32,0x33,0x34,0x37,
/* Mode 2 (2 0) */
  0x31,0x32,0x33,
/* Mode 2 (3 0) */
/* Mode 2 (0 1) */
  0x00,0x14,0x15,0x18,0x19,0x20,0x24,0x28,0x34,0x35,0x38,0x39,0x3a,0x3d,0x3e,
/* Mode 2 (1 1) */
  0x34,0x35,0x36,
/* Mode 2 (2 1) */
  0x35,0x36,
/* Mode 2 (3 1) */
/* Mode 2 (0 2) */
  0x14,0x18,0x19,0x1c,0x24,0x28,0x2c,0x3c,0x3d,
/* Mode 2 (1 2) */
  0x39,0x3a,
/* Mode 2 (2 2) */
  0x39,0x3a,
/* Mode 2 (3 2) */
/* Mode 2 (0 3) */
  0x18,0x38,0x3c,
/* Mode 2 (1 3) */
  0x3e,
/* Mode 2 (2 3) */
  0x3e,
/* Mode 2 (3 3) */
/* Mode 3 (0 0) */
  0x00,0x09,0x0d,0x10,0x30,0x31,0x32,0x33,0x39,0x3a,0x3b,
/* Mode 3 (1 0) */
  0x11,0x31,0x32,0x33,
/* Mode 3 (2 0) */
  0x10,0x20,0x31,0x32,0x33,
/* Mode 3 (3 0) */
/* Mode 3 (0 1) */
  0x00,0x08,0x0c,0x10,0x18,0x1c,0x34,0x35,0x36,0x37,0x3d,
/* Mode 3 (1 1) */
  0x11,0x19,0x1d,0x35,0x36,0x37,
/* Mode 3 (2 1) */
  0x12,0x1e,0x35,0x36,0x37,
/* Mode 3 (3 1) */
  0x13,0x17,
/* Mode 3 (0 2) */
  0x10,0x30,0x38,0x39,0x3a,
/* Mode 3 (1 2) */
  0x11,0x19,0x39,0x3a,0x3b,
/* Mode 3 (2 2) */
  0x39,0x3a,
/* Mode 3 (3 2) */
/* Mode 3 (0 3) */
  0x3c,0x3d,
/* Mode 3 (1 3) */
  0x3c,0x3d,0x3e,0x3f,
/* Mode 3 (2 3) */
  0x3d,0x3e,
/* Mode 3 (3 3) */
/* Mode 4 (0 0) */
  0x00,0x01,0x04,0x05,0x09,0x10,0x30,0x31,0x34,0x35,
/* Mode 4 (1 0) */
  0x00,0x11,0x15,0x30,0x31,0x32,
/* Mode 4 (2 0) */
  0x12,0x31,0x32,
/* Mode 4 (3 0) */
/* Mode 4 (0 1) */
  0x00,0x01,0x04,0x05,0x08,0x09,0x11,0x15,0x30,0x31,0x34,0x38,0x39,
/* Mode 4 (1 1) */
  0x11,0x15,0x34,0x35,
/* Mode 4 (2 1) */
  0x12,0x36,
/* Mode 4 (3 1) */
  0x17,
/* Mode 4 (0 2) */
  0x04,0x08,0x09,0x0c,0x14,0x18,0x19,0x34,0x35,0x38,0x39,0x3c,
/* Mode 4 (1 2) */
  0x39,0x3a,
/* Mode 4 (2 2) */
  0x3a,
/* Mode 4 (3 2) */
/* Mode 4 (0 3) */
  0x00,0x30,0x38,0x3c,0x3d,
/* Mode 4 (1 3) */
  0x3c,0x3d,0x3e,
/* Mode 4 (2 3) */
  0x3d,0x3e,
/* Mode 4 (3 3) */
/* Mode 5 (0 0) */
  0x00,0x01,0x04,0x05,0x10,0x11,0x14,0x15,0x18,0x19,0x1c,0x1d,0x24,0x28,0x29,0x2c,
  0x2d,0x30,0x32,0x33,0x34,0x35,0x36,0x3a,
/* Mode 5 (1 0) */
  0x10,0x11,0x15,0x30,0x31,
/* Mode 5 (2 0) */
  0x31,0x32,
/* Mode 5 (3 0) */
/* Mode 5 (0 1) */
  0x04,0x05,0x09,0x10,0x14,0x15,0x30,0x34,0x35,0x36,0x37,0x38,
/* Mode 5 (1 1) */
  0x00,0x04,0x05,0x10,0x14,0x30,0x35,
/* Mode 5 (2 1) */
  0x35,0x36,
/* Mode 5 (3 1) */
/* Mode 5 (0 2) */
  0x14,0x18,0x38,0x39,
/* Mode 5 (1 2) */
  0x15,0x19,0x1a,0x3e,
/* Mode 5 (2 2) */
  0x3a,
/* Mode 5 (3 2) */
/* Mode 5 (0 3) */
/* Mode 5 (1 3) */
  0x3c,0x3d,
/* Mode 5 (2 3) */
  0x3e,
/* Mode 5 (3 3) */
/* Mode 6 (0 0) */
  0x00,0x01,0x04,0x05,0x10,0x11,0x14,0x15,0x34,0x35,
/* Mode 6 (1 0) */
  0x00,0x01,0x02,0x04,0x05,0x06,0x10,0x12,0x14,0x16,0x20,0x30,0x31,0x32,0x34,0x35,
  0x36,
/* Mode 6 (2 0) */
  0x01,0x02,0x10,0x11,0x12,0x16,0x20,0x31,0x32,0x33,
/* Mode 6 (3 0) */
  0x13,0x17,0x20,0x30,0x32,
/* Mode 6 (0 1) */
  0x10,0x30,0x34,0x35,
/* Mode 6 (1 1) */
  0x00,0x01,0x15,0x19,0x30,0x31,0x34,0x35,
/* Mode 6 (2 1) */
  0x06,
/* Mode 6 (3 1) */
  0x13,
/* Mode 6 (0 2) */
  0x38,0x39,
/* Mode 6 (1 2) */
  0x38,0x39,
/* Mode 6 (2 2) */
/* Mode 6 (3 2) */
  0x1b,
/* Mode 6 (0 3) */
  0x0c,0x1c,0x2c,
/* Mode 6 (1 3) */
/* Mode 6 (2 3) */
/* Mode 6 (3 3) */
/* Mode 7 (0 0) */
  0x06,0x10,0x14,0x16,0x18,0x1c,0x24,0x25,0x26,
/* Mode 7 (1 0) */
  0x00,0x02,0x03,0x06,0x11,0x15,0x19,0x1d,0x30,0x32,0x33,
/* Mode 7 (2 0) */
  0x00,0x12,0x16,0x30,0x32,
/* Mode 7 (3 0) */
  0x00,0x13,0x17,0x30,
/* Mode 7 (0 1) */
  0x14,0x18,0x1c,
/* Mode 7 (1 1) */
  0x15,0x19,0x1d,0x36,0x37,
/* Mode 7 (2 1) */
  0x16,0x1a,0x1e,0x34,0x36,0x37,
/* Mode 7 (3 1) */
  0x17,0x1b,0x1f,
/* Mode 7 (0 2) */
  0x14,0x18,0x1c,
/* Mode 7 (1 2) */
  0x15,0x19,0x1d,0x3a,0x3b,
/* Mode 7 (2 2) */
  0x16,0x1a,0x38,0x3a,
/* Mode 7 (3 2) */
/* Mode 7 (0 3) */
  0x0c,0x1c,0x3d,
/* Mode 7 (1 3) */
  0x3c,0x3f,
/* Mode 7 (2 3) */
  0x2e,
/* Mode 7 (3 3) */
/* Mode 8 (0 0) */
  0x10,0x11,0x14,0x15,0x18,0x19,0x1c,0x1d,0x20,0x21,0x24,0x25,0x26,0x28,0x29,0x34,
  0x35,
/* Mode 8 (1 0) */
  0x10,0x12,0x14,0x16,0x20,0x21,0x22,0x24,0x25,0x34,0x35,
/* Mode 8 (2 0) */
  0x00,0x11,0x12,0x16,0x20,0x21,0x22,0x25,0x31,0x32,
/* Mode 8 (3 0) */
  0x13,0x16,0x17,0x20,0x30,
/* Mode 8 (0 1) */
  0x10,0x14,0x18,0x1c,0x20,
/* Mode 8 (1 1) */
  0x11,0x15,0x19,
/* Mode 8 (2 1) */
  0x13,0x16,0x22,
/* Mode 8 (3 1) */
  0x12,0x13,0x1b,0x22,0x23,
/* Mode 8 (0 2) */
  0x14,0x18,
/* Mode 8 (1 2) */
/* Mode 8 (2 2) */
  0x1a,
/* Mode 8 (3 2) */
  0x17,0x1b,
/* Mode 8 (0 3) */
/* Mode 8 (1 3) */
/* Mode 8 (2 3) */
/* Mode 8 (3 3) */
/* Mode 9 (0 0) */
  0x00,0x04,0x05,0x10,0x11,0x14,0x15,0x18,0x1c,0x20,0x21,0x24,0x28,0x30,0x33,0x34,
  0x35,0x38,0x3c,
/* Mode 9 (1 0) */
  0x10,0x11,0x15,0x20,0x24,0x30,0x31,0x32,
/* Mode 9 (2 0) */
  0x16,0x31,0x32,
/* Mode 9 (3 0) */
/* Mode 9 (0 1) */
  0x10,0x11,0x14,0x15,0x18,0x20,0x21,0x25,0x31,
/* Mode 9 (1 1) */
  0x10,0x14,0x16,0x20,0x21,0x25,0x26,0x29,0x39,
/* Mode 9 (2 1) */
  0x12,0x16,0x25,0x35,0x36,0x37,
/* Mode 9 (3 1) */
  0x17,
/* Mode 9 (0 2) */
  0x14,0x18,0x39,
/* Mode 9 (1 2) */
  0x15,0x19,0x39,
/* Mode 9 (2 2) */
  0x1a,0x26,0x2a,
/* Mode 9 (3 2) */
/* Mode 9 (0 3) */
/* Mode 9 (1 3) */
/* Mode 9 (2 3) */
/* Mode 9 (3 3) */
};
const int OD_PRED_OFFSETS_4x4[OD_INTRA_NMODES]={
  0, 64, 128, 192, 256, 320, 384, 448, 512, 576
};
const ogg_int16_t OD_SATD_WEIGHTS_4x4[4*4]={
  20,  25,  40,  52,
  24,  31,  50,  64,
  36,  46,  69,  88,
  44,  55,  81, 101
};
