/* This file is generated automatically by init_intra_xform */
#include "intra.h"

const double OD_INTRA_PRED_WEIGHTS_4x4[OD_INTRA_NMODES][4][4][2*4][2*4]={
  {
    {
      /*OD_INTRA_DC (0,0)*/
      {
        {-0.100532175299346396   , 0.0858749418450759638  ,-0.128563161846451723   , 0.0861462739763155239  ,    0.570432998230761212   ,-0.530665220264548654   ,-0.0869587538589459835  , 0.0510726926172794249  },
        { 0.042880530482886578   ,-0.100724552062388284   , 0.132523459650978892   ,-0.104357589268687267   ,   -0.201378638178060815   , 0.0754694951377925666  , 0.113584699706083425   , 0.11563334690446446    },
        {-0.179379054228155643   , 0.105874857963888097   ,-0.0266042361486919544  , 0.0810099773889369351  ,   -0.225299595336669184   , 0.0753659842969552213  ,-0.0478411856870766677  ,-0.128922893029235069   },
        { 0.0796752830275219565  ,-0.0734467805553461611  ,-0.0065080681606743537  ,-0.0124260409166997675  ,    0.0750161750319607856  , 0.0591799078099353656  ,-0.0258625356038363098  , 0.0329812106238772107  },

        { 0.531463974895270086   ,-0.277381085332652544   ,-0.197525583841018731   , 0.225305936328828282   ,    0                      , 0                      , 0                      , 0                      },
        {-0.393142330628588998   , 0.312794739795830223   ,-0.0430541039928922162  ,-0.0202078549890685986  ,    0                      , 0                      , 0                      , 0                      },
        {-0.0610371987541938818  , 0.0772259457811486499  ,-0.121510290503361165   , 0.00247372544074792164 ,    0                      , 0                      , 0                      , 0                      },
        { 0.00815238116602962949 , 0.0253951812452986279  ,-0.0407620642453215901  , 0.0268832063098835769  ,    0                      , 0                      , 0                      , 0                      }
      },
      /*OD_INTRA_DC (0,1)*/
      {
        {-0.00624070430558881784 , 0.0298266133393869787  ,-0.0401583330643962566  , 0.00927879506231739544 ,   -0.0270938294146822085  ,-0.0534774789763641512  ,-0.144791779930702719   , 0.0769728303710689871  },
        { 0.0178511996682640325  ,-0.0183509621843021345  , 0.00416492894386275708 ,-0.00472861982805281109 ,   -0.0160056909249481211  , 0.184373449109300425   , 0.0561568342309485338  , 0.000999509650577484667},
        {-0.00369180103386251715 , 0.0282966586763257824  ,-0.00166025479292641279 ,-0.0104270342405020297  ,    0.0282518904732741785  ,-0.0780438581781170565  ,-0.0260395513164348481  , 0.00737371121495442386 },
        {-0.000416809748785443887, 0.0190137509144714043  , 0.000306631892441004965,-0.00624664403122282379 ,   -0.0135559391253793609  ,-0.0235810973667416844  , 0.0155343860570350441  ,-0.0256766802314159909  },

        { 0.031444667439197542   ,-0.096035962576332734   , 0.132936360382882507   ,-0.0742532929738670966  ,    0                      , 0                      , 0                      , 0                      },
        {-0.0377066476299887932  , 0.0749196981297524933  ,-0.0790872411915464757  , 0.0374663149644663684  ,    0                      , 0                      , 0                      , 0                      },
        {-0.00010537979699103943 ,-0.0269635504509193082  , 0.0275998537222568209  , 0.0046779096042264285  ,    0                      , 0                      , 0                      , 0                      },
        {-0.0182294658548499793  , 0.0300008456494887214  ,-0.00598523238449740706 , 0.0166137471690198726  ,    0                      , 0                      , 0                      , 0                      }
      },
      /*OD_INTRA_DC (0,2)*/
      {
        {-0.005171662653646188   , 0.00331362190213252894 ,-0.0119884556473472716  , 0.00224558690532390779 ,    0.00362925811842894092 , 7.75639949335035881E-05,-0.107094534413756937   ,-0.0734191106305396163  },
        { 0.00410053111781463579 , 0.000801917948220625147,-0.00125666862324145417 ,-0.0162225806167288038  ,    0.00180253181249318125 ,-0.0229117736803213512  , 0.162419681391545334   , 0.0313679063513308196  },
        {-0.00518278531028938672 , 0.00337313374177297285 ,-0.00897663660769898453 , 0.00202043871956182923 ,   -0.00440305196038697898 , 0.0186006577280615516  ,-0.0444233149315895817  , 0.00146708308459352088 },
        { 0.00172314769525093209 ,-0.00874918007574486574 , 0.0159633317469053404  ,-0.00674859529244327579 ,    0.00197754387501578987 , 0.00927835103224883447 ,-0.0348895162395824326  , 1.88480178227205128E-05},

        { 0.00122721793421605311 ,-0.0704346090135774816  , 0.140216012088527103   ,-0.0387470955505250583  ,    0                      , 0                      , 0                      , 0                      },
        {-0.0058532129314805741  , 0.0196304021948342997  ,-0.0424315160622059789  , 0.0184830164414119917  ,    0                      , 0                      , 0                      , 0                      },
        { 0.000968648286967810205, 0.0022830083756361229  ,-0.0146642197706536147  , 0.00352493497703263011 ,    0                      , 0                      , 0                      , 0                      },
        {-0.000273863052715550787, 0.00364232706630196294 , 0.00102327871068691413 ,-0.0140462029952278262  ,    0                      , 0                      , 0                      , 0                      }
      },
      /*OD_INTRA_DC (0,3)*/
      {
        {-0.000627712577099362218, 3.1321309972238558E-05 , 0.0061942238974461751  ,-0.000216007917709462317,    0.00451708574574541475 ,-0.00632374341241740811 , 0.00320787116216146367 ,-0.152703749735011024   },
        { 0.00369449434758361466 , 0.000268814216462483874, 0.00177629912275996545 ,-6.51741849377515919E-05,   -0.00424415672089221638 , 0.00165568768572650952 ,-0.00382514611002688232 , 0.163447854532322412   },
        {-0.00578341420121768635 , 0.0006349875588586545  , 0.00146642138255681856 , 0.00947563214133236714 ,   -0.00238880606759402743 ,-0.00404841171872935557 , 0.000663599923616409984,-0.0232615681313260401  },
        { 0.00370269244257808187 ,-0.00343473349229591598 ,-0.00318153333449361754 , 0.00187047529846204449 ,    0.00339480122236156256 , 0.00233904792069251953 ,-0.011739632205957121   ,-0.034456407008265813   },

        {-0.00264011703360014782 ,-0.0166114797297439859  , 0.0257913278242678894  , 0.0238524252637973659  ,    0                      , 0                      , 0                      , 0                      },
        { 0.00163779946506923953 ,-0.00159105947605652181 ,-0.00607441941717221535 ,-0.00709359506484560573 ,    0                      , 0                      , 0                      , 0                      },
        { 0.00101399500352704385 , 0.00291449203351767374 , 0.000191129358938350023,-0.00593332192504499208 ,    0                      , 0                      , 0                      , 0                      },
        { 0.00299693137853038714 ,-0.0019074409539183016  ,-0.00568673953093023262 , 0.00227852132036673307 ,    0                      , 0                      , 0                      , 0                      }
      }
    },
    {
      /*OD_INTRA_DC (1,0)*/
      {
        {-0.0101883113805358826  , 0.0182101653287043974  ,-0.0215637824322134179  , 0.00655842203238998084 ,    0.000346742461817179802,-0.0242668708714371927  , 0.0180362350215244951  , 0.00154858250490197327 },
        { 0.0414247399611838776  ,-0.0239676264523627815  , 0.0191409793080554447  ,-0.0198090059406173524  ,   -0.0353665489309342718  , 0.0555282082598142629  , 0.00955539399148554701 ,-0.00737310367671337868 },
        {-0.024698211757106122   , 0.0201500719570372848  , 0.00472718841166161821 , 0.0132568402959909737  ,    0.113255173548081747   ,-0.0347040856901789929  ,-0.00250598331958866438 , 0.0438400190202164267  },
        { 0.0110852814866357462  , 0.00976722463240652788 , 0.00202490504355738428 , 0.000846743099814279733,   -0.0676943215139512028  , 0.0239592083014641931  , 0.0359647405887770638  , 0.00623161052635899052 },

        { 0.00762140038531782318 ,-0.0483301403399321872  , 0.0598718387848787351  ,-0.0208599877833215291  ,    0                      , 0                      , 0                      , 0                      },
        {-0.0911829949318730681  , 0.156716773671333603   ,-0.124940914700956432   , 0.0320252710685748621  ,    0                      , 0                      , 0                      , 0                      },
        {-0.0434639108423723261  , 0.00134827861434210069 , 0.0285529209514703321  ,-0.0527517320518033003  ,    0                      , 0                      , 0                      , 0                      },
        {-0.00118130855336949958 , 0.0221892536173167419  ,-0.0117540824446325382  , 0.0286255112052578725  ,    0                      , 0                      , 0                      , 0                      }
      },
      /*OD_INTRA_DC (1,1)*/
      {
        {-0.00519461334455136817 , 0.00771433680418198361 ,-0.00257221934948660474 , 0.0148322390562797644  ,    0.00940071261557336169 ,-0.0445821149537808104  ,-0.0402657823983623223  ,-0.000975495548985684437},
        { 0.00520718088455431397 , 0.00747044521591959994 , 0.00280239714623567665 ,-0.00587417433909588442 ,   -0.0386232701817159491  , 0.0601558157919415068  , 0.0449561109208137522  ,-0.0157507015256395169  },
        {-0.0123647159511102306  ,-0.024922689269357378   ,-0.0602066138008687454  , 0.0137658366590934812  ,    0.0481249775427755044  ,-0.031204979402021514   ,-0.0273269007395034493  ,-0.0497822236114567399  },
        { 0.00480541472826540982 ,-0.0330331683004700602  , 0.0299221094477401112  ,-0.0270120939288124549  ,   -0.00609488438638883852 ,-0.0521827779674789369  , 0.00740081728571903488 , 0.0126411215318644587  },

        {-0.00421111268182739352 ,-0.0159326425853666478  , 0.0293459804086483485  ,-0.023289772181286101   ,    0                      , 0                      , 0                      , 0                      },
        { 0.00202056032404047611 ,-0.000894353116270824532, 0.101575099823144249   ,-0.0803249323192934545  ,    0                      , 0                      , 0                      , 0                      },
        {-0.0896672329855898315  , 0.15265976543253848    ,-0.13704759333777386    , 0.0519211465198234634  ,    0                      , 0                      , 0                      , 0                      },
        { 0.00580214633772696033 ,-0.0334985003506916984  , 0.0158135795870759342  ,-0.00512822758861266551 ,    0                      , 0                      , 0                      , 0                      }
      },
      /*OD_INTRA_DC (1,2)*/
      {
        {-0.00596058442426106259 , 0.0063666320121900594  ,-0.00486041751377071576 , 0.0115229981897063821  ,    0.00437215545094374585 , 0.00623914755775146265 ,-0.0814835405572859606  ,-0.0431181483902234527  },
        { 0.00670561980491845167 ,-0.00956282622488679318 , 0.0211316409960910917  ,-0.00538787148575785736 ,    0.000190627872203486264,-0.0178910637975041933  , 0.0956933395738525511  , 0.0360656687690147498  },
        {-0.00199827031367741425 , 0.0225128548402752787  ,-0.0161605592274120559  , 0.00654639822198629061 ,   -0.000822336796119751295, 0.0338108609698121176  ,-0.00752634723623861294 ,-0.0116349545435767959  },
        { 0.00405881913143329737 ,-0.0140917463772501153  , 0.0171009122548497795  , 0.00780563785503032934 ,   -0.00129768357397382203 ,-0.0135979166469987218  ,-0.0483294069311133306  ,-0.0088259811229011581  },

        { 0.00174606093546357663 ,-0.013708202212943936   , 0.0227255809619072192  ,-0.0203548324844295171  ,    0                      , 0                      , 0                      , 0                      },
        {-0.00881351112470299229 ,-0.0393466042802763441  , 0.102343967637884642   ,-0.0349868365254266123  ,    0                      , 0                      , 0                      , 0                      },
        {-0.0157641611181015655  , 0.0450078637836229742  ,-0.0364230973714517112  , 0.0230357845925220732  ,    0                      , 0                      , 0                      , 0                      },
        {-0.00112097596881071391 , 0.00139368165944909811 , 0.00366150937217753995 , 0.00694305689216160888 ,    0                      , 0                      , 0                      , 0                      }
      },
      /*OD_INTRA_DC (1,3)*/
      {
        {-0.00113707642769501969 , 0.00366469983503252229 ,-0.00527085287815719228 , 0.00860831087255782036 ,    0.00133591225329018817 ,-0.00089923503979192959 , 0.0073053380423794374  ,-0.0840434842726568015  },
        { 0.00202760267194775686 ,-0.00429504784599714449 , 0.00546183053998270784 ,-0.00658770381861516902 ,   -0.00140111201057525198 , 0.00183398188282371619 ,-0.0209461592421168082  , 0.118059305372032797   },
        { 0.00118679321255401021 , 0.00561367552277227972 ,-0.0127190196135327834  , 0.00625493770304177878 ,   -0.000371997877940518729, 0.00176327905108451203 , 0.0298732428534033978  ,-0.000209880179247638288},
        {-0.000935059210954242159, 0.00255701795261535766 , 0.00595502974338026677 , 0.00498376049006226188 ,   -0.0007351585947586994  , 0.00139736120043896812 ,-0.0111693188891687917  ,-0.0346054749806929823  },

        {-0.000160492628588129987,-0.00447950106793121999 , 0.0124460651734472783  ,-0.0127102125859423938  ,    0                      , 0                      , 0                      , 0                      },
        {-0.00484996470262981025 ,-0.0096991041179153737  , 0.00805964585079891986 , 0.0328335283499016986  ,    0                      , 0                      , 0                      , 0                      },
        {-0.00106563897301445681 ,-0.00166025022424150974 ,-0.0155765931745932614  , 0.00816414936320831487 ,    0                      , 0                      , 0                      , 0                      },
        { 0.0008742776289418615  , 0.00597418414641584516 ,-0.00811442370394698659 , 0.00159542079105066156 ,    0                      , 0                      , 0                      , 0                      }
      }
    },
    {
      /*OD_INTRA_DC (2,0)*/
      {
        {-0.0042013299706990144  , 0.00152128725418491104 , 0.00153922260538288686 ,-0.000889293181971965042,    0.00368711503237385179 ,-0.0128906026299824509  , 0.00160079677140594024 , 0.000790484966156479842},
        { 0.00164902325401408462 , 0.00236945035816258373 , 0.00315663713637602886 ,-0.00282628442067397231 ,   -0.0582937249570937635  , 0.013609779060404871   ,-0.0167603997322526392  , 0.0109224451377928217  },
        {-0.0196066971524086475  ,-0.0104081624886553769  ,-0.0127072793452913287  , 0.0113144690290051721  ,    0.0827871606846221214  ,-0.0401528114155016158  , 0.00593070607166512002 ,-0.0240684386356420435  },
        { 0.0223412953796585725  ,-0.00593143994897051517 , 0.021473142225048078   , 0.00202343938651659448 ,   -0.00850411919829835092 , 0.0406845037844361865  , 0.0208914467057785547  , 0.00604829738970922518 },

        {-0.000930174083348410071, 0.000611315227686082307,-0.00246095205686456967 , 0.0014373248912825248  ,    0                      , 0                      , 0                      , 0                      },
        { 0.0248870556008485809  ,-0.0252537101552622462  , 0.019987776689460543   ,-0.0157935872390262758  ,    0                      , 0                      , 0                      , 0                      },
        {-0.125036020970926171   , 0.204497640983859752   ,-0.0793665733923631794  ,-0.00282185304600830484 ,    0                      , 0                      , 0                      , 0                      },
        { 0.0190630446224460091  ,-0.0157772053088718507  ,-0.00511289630904117678 ,-0.0234177300452533023  ,    0                      , 0                      , 0                      , 0                      }
      },
      /*OD_INTRA_DC (2,1)*/
      {
        {-0.00554512188603578128 , 0.00593423278513984485 ,-0.00109506637134360735 ,-0.00291696157439523844 ,    0.000742015807739157844,-0.012996457580330514   ,-0.020889960596844899   ,-0.00585602264691690612 },
        { 0.0018462883115851177  ,-0.0115527034886528865  , 0.021565966146544456   ,-0.00847244702770338746 ,   -0.0178185712725216425  ,-0.00252409783621563829 , 0.0321347025988626758  ,-0.000168362592379542715},
        { 0.00644522166456733964 , 0.09930690106081215    ,-0.0468524231986471931  , 0.00477633029699843937 ,    0.0461866540218316343  , 0.0653299734863789505  ,-0.096754400816435146   , 0.00837738946024714493 },
        { 0.0106640089602912606  ,-0.0445579443323773916  ,-0.00657434561350732274 ,-0.00945315421762802852 ,   -0.0236931818659793028  ,-0.0197816728877486872  ,-0.00556284275351488344 ,-0.0035092482293869881  },

        { 0.00513869729870260455 ,-0.000429698449603124755,-0.00391794228458974131 , 0.00549774593631717403 ,    0                      , 0                      , 0                      , 0                      },
        { 0.00325793412504486908 ,-0.0352343667943695177  , 0.0335532456464760626  ,-0.0162529852464764549  ,    0                      , 0                      , 0                      , 0                      },
        {-0.0823375126163081311  , 0.0648111223342273668  , 0.0889502653559663958  ,-0.0549553311276682471  ,    0                      , 0                      , 0                      , 0                      },
        {-0.055178628536129419   , 0.103816334879666891   ,-0.0374611905667647724  , 0.0240114303107631412  ,    0                      , 0                      , 0                      , 0                      }
      },
      /*OD_INTRA_DC (2,2)*/
      {
        {-0.00127446014748829918 , 0.00264106475879816996 ,-0.00351088264901794171 , 0.00141513949740461353 ,    0.000864371180240824173, 0.000742565164512321452,-0.0183466024084772521  ,-0.0114268188788088226  },
        { 0.00273003691053643437 ,-0.0122705963633352559  , 0.0117833544347625985  ,-0.00993809107298342272 ,    0.00163736866365379635 ,-0.0162299203848435061  , 0.00710872717106822861 , 0.00949606576884500474 },
        {-0.00656488473938872125 , 0.0128332983930453896  , 0.00609967718656523154 , 0.00932018154164361394 ,   -0.00322261086359708956 , 0.0402006949150645679  , 0.0259861600590262191  ,-0.00950115487977442989 },
        { 0.00507766384449199158 ,-0.00466598242356540405 , 0.00801776981903713944 ,-0.0128643008571729476  ,   -0.000997124374593775327,-0.00358477737209760743 , 0.0181304052560318611  , 0.0117116414910302408  },

        { 0.000567476766967447911,-0.00354528944599074962 , 0.00298373101920029705 , 0.000314385305603777723,    0                      , 0                      , 0                      , 0                      },
        { 0.00208794687331385204 ,-0.00640217713208413291 , 0.00277811358420439972 ,-0.014913566336886246   ,    0                      , 0                      , 0                      , 0                      },
        {-0.00812709332600775915 ,-0.0538551960033400723  , 0.0976519186291533031  ,-0.0188694403996899698  ,    0                      , 0                      , 0                      , 0                      },
        {-0.0131316055454402808  , 0.0258876744056775118  ,-0.0117722163513912532  , 0.00705145179542339493 ,    0                      , 0                      , 0                      , 0                      }
      },
      /*OD_INTRA_DC (2,3)*/
      {
        {-0.000182738812577348206, 0.00095062022055892887 ,-0.00198959911502048174 , 0.00309478362235323951 ,    0.000697726964870817   ,-0.00115853666270005905 , 0.00311345851309123046 ,-0.0165586290447332814  },
        { 0.000321119409766411476,-0.00147154149683328809 , 0.00608173769303486326 ,-0.00641768741150339998 ,   -0.00143805602839856351 ,-0.000818061727995005017,-0.00323195444185651317 , 0.00341090264150610122 },
        {-0.00106829678720009552 , 0.000918279463048529677,-0.0014471314965932298  , 0.0129762153415523048  ,   -0.000811713946681026578,-0.00395952542127021422 , 0.0193355635493256718  ,-0.00445504602028452563 },
        { 0.000347397903768529247,-0.00132387491038044426 , 0.00713290542293505171 ,-0.00410114188609158031 ,   -0.00111563309299095954 ,-0.00386145088227418708 ,-0.0037254467153457157  , 0.0122079767691245684  },

        {-0.00063826321994771805 ,-0.00182413779771073577 , 0.0020737120827371172  ,-5.76088798129207409E-05,    0                      , 0                      , 0                      , 0                      },
        {-0.000646782117542078977,-0.00198346584471031451 , 0.00655239042723018868 ,-0.00984476522905114448 ,    0                      , 0                      , 0                      , 0                      },
        { 0.00268201281605035804 ,-0.0123924634242861299  , 0.0092786794326848044  , 0.0406302423775023874  ,    0                      , 0                      , 0                      , 0                      },
        {-0.000336679810444992956, 0.00327005320046646957 ,-0.0129567725699943556  , 0.00896865029730440667 ,    0                      , 0                      , 0                      , 0                      }
      }
    },
    {
      /*OD_INTRA_DC (3,0)*/
      {
        {-0.00199318767638105359 , 0.00487765069452777891 ,-0.0008084033811796811  , 0.00470542819999672686 ,    0.000122849861665285444, 0.0030235833730984543  ,-0.00880437469924936524 , 0.00478635864096402155 },
        {-0.00203168544804154146 , 0.000172346201514810297, 0.0083074938868945309  ,-0.00588836810300157748 ,   -0.0124903833201005406  , 0.000424801643898261195, 0.0053660000841122121  ,-0.000499993054473402143},
        {-0.00375179651013031858 , 0.00592907608932302134 ,-0.00408963892207166949 , 0.00278012596045560442 ,    0.00410502062900021999 ,-0.0202194650551017242  , 0.0052203547804241723  ,-0.0106286845852564781  },
        {-0.0145751289730580123  ,-0.0212792502421691246  ,-0.0112431673529721516  ,-0.00107651134493421232 ,    0.107826007964034729   ,-0.0221049175201862708  ,-0.0241560909894760131  , 0.00759146711307813818 },

        { 0.00436188627287300255 ,-0.00440110914844162818 ,-0.00300260114598287393 , 0.0087393931882097705  ,    0                      , 0                      , 0                      , 0                      },
        {-0.00887098726830062682 , 0.00626898726614266103 ,-0.00254795377849322338 ,-0.00131887338317158119 ,    0                      , 0                      , 0                      , 0                      },
        { 0.0235768195454982392  ,-0.0149710786182997053  , 0.000724169536149148825,-0.00759640256505507948 ,    0                      , 0                      , 0                      , 0                      },
        {-0.238704430780025428   , 0.227084116792724527   ,-0.0164979233063311109  ,-0.0169501144015984893  ,    0                      , 0                      , 0                      , 0                      }
      },
      /*OD_INTRA_DC (3,1)*/
      {
        {-0.00179652237173101538 , 0.00109146664637122599 ,-0.00253446256654750414 ,-0.00317631383478451067 ,    0.000328067400245375933, 0.00223904939644701791 ,-0.00203862230189080741 ,-0.00397375916703357219 },
        { 0.00216825721925741326 ,-0.0157157255341886376  , 0.0112033386489286957  ,-0.00228097392165776914 ,   -0.00832916805585379692 ,-0.0131285661571369349  , 0.0164217444125223239  , 0.00110783855981854405 },
        {-0.0100568937453710903  , 0.0285012852840091022  ,-0.00727602337774895403 , 0.00876083150346696794 ,    0.0245513776673135925  , 0.0033811952503487769  ,-0.0247278370452744152  , 0.00761095813132046158 },
        { 0.0398772824034390599  ,-0.0636864039958679601  , 0.0374587819029824631  ,-0.00666441967080130381 ,   -0.0597966540526902179  , 0.10445360847360724    , 0.0521010329214012524  ,-0.00100319152258837151 },

        { 0.00173815992110458862 ,-0.000318048923602906803,-0.000731960403303955585, 0.000660988272912387941,    0                      , 0                      , 0                      , 0                      },
        {-0.00230019665208853422 , 0.000217602480438474521,-0.00916636197036781522 , 0.000797006029352821991,    0                      , 0                      , 0                      , 0                      },
        { 0.018768522284512569   ,-0.0840876676999881278  , 0.056945524604601408   ,-0.0226655022641672858  ,    0                      , 0                      , 0                      , 0                      },
        {-0.0856548931236766481  , 0.0464264672999548794  , 0.0357580731421429168  ,-0.0527086735839579212  ,    0                      , 0                      , 0                      , 0                      }
      },
      /*OD_INTRA_DC (3,2)*/
      {
        { 1.48259508236129978E-05,-0.000335695908619457022,-0.000976599816875068543, 0.00114868034356608315 ,    0.000114649939885804039,-0.00174239438681579313 , 0.0132266211898027074  ,-0.000465870399893048264},
        { 0.0010905697606689857  ,-0.00474805303892399892 , 0.00195349361950699837 ,-0.00497750067773131653 ,   -0.000413396088533171094,-0.0065834802858965747  ,-0.0187584720432018848  , 0.00529282857849551393 },
        {-0.00226013863864340733 ,-0.00172303735022953392 , 0.0028457652432967522  , 0.00704131948561024287 ,   -0.00351915602171629744 , 0.010087602232342752   ,-0.00938691234618571971 ,-0.00675381405660999221 },
        { 0.00243796330262701245 , 0.00161199142974786805 , 0.0196015842565889671  ,-0.00242634988689550534 ,    0.00244425316735928915 ,-0.0123918883984236918  , 0.0680831313057188026  , 0.00819822737579006984 },

        {-0.000289457207881084976,-0.00144403932599510031 , 0.000838113521027061153, 0.002742074891364037   ,    0                      , 0                      , 0                      , 0                      },
        { 0.000828098454026575002, 0.00202062146642564312 ,-0.00380307787174818208 , 0.00445692365120623976 ,    0                      , 0                      , 0                      , 0                      },
        { 0.00213685578319518059 ,-0.00455399788223636009 , 0.00728137689521360636 ,-0.0133936231686374481  ,    0                      , 0                      , 0                      , 0                      },
        {-0.00593699481376771827 ,-0.0279275364456561641  , 0.0311310948234743215  ,-0.00494655674738065081 ,    0                      , 0                      , 0                      , 0                      }
      },
      /*OD_INTRA_DC (3,3)*/
      {
        { 0.000388166073260519406, 6.05409892354440276E-05,-0.00266684598231932283 , 0.000917363761028408727,   -0.000101274806448116829,-0.00028809200442466565 , 0.000427292286723944244, 0.0127938544042491727  },
        { 9.52760710358244129E-05,-0.000857401980641580241, 0.00219805912258468723 ,-0.00184872595062801929 ,   -0.000589642056066359268, 0.00136931308560980748 ,-0.00485047564120192568 ,-0.0207384319946764782  },
        {-0.000492627387629682189, 0.00412270510843488949 ,-0.00487693040305176104 , 0.00939159961743220306 ,   -0.00410718609839274759 , 0.00315805301662618401 , 0.0108528773901974823  ,-0.0122296269574872652  },
        { 0.00201450789337951405 ,-0.00261868510553795245 ,-0.000566663318128962754,-0.000571180535915078065,    0.0021202626118500662  , 3.86727283405544786E-05,-0.0163293086220954974  , 0.0411312691023785273  },

        {-0.000105774992480953508,-0.000100662288751011755,-0.000503479422445770567,-0.000417534502863622329,    0                      , 0                      , 0                      , 0                      },
        { 0.000671508310935316254,-0.00175695708560705179 , 0.000945473201184413047,-0.00153280195403036109 ,    0                      , 0                      , 0                      , 0                      },
        { 0.00114056210139925241 ,-0.00316057955144481836 , 0.00519627075098533144 ,-0.00512626659406483724 ,    0                      , 0                      , 0                      , 0                      },
        { 0.0033876985031603031  ,-0.0145000684719603541  , 0.014079052428624509   , 0.0358191564478295907  ,    0                      , 0                      , 0                      , 0                      }
      }
    }
  },
  {
    {
      /*OD_INTRA_TM (0,0)*/
      {
        {-0.324494954515469225   ,-0.0581870713068853504  , 0.125104140804498332   ,-0.0103422127777967193  ,    0.511350756488601066   ,-0.12534605655342676    ,-0.0393541862816554275  , 0.0584279077437463434  },
        {-0.04717269245423001    , 0.0457374325966204351  ,-0.013558885383061086   , 0.0918373299864262832  ,    0.233761257630067332   ,-0.028617511106652286   ,-0.106844852973972851   , 0.00661153515896491153 },
        { 0.18956486185982302    ,-0.081652458581568596   , 0.0227813209376915293  , 0.00860819381935828964 ,   -0.310801461634760245   , 0.0736200308984390345  , 0.0912275100593347155  , 0.0153457008471867967  },
        {-0.031197520110407672   , 0.111564824762061754   ,-0.0660622031764149936  ,-0.118472619261916878   ,    0.0412687409756438001  , 0.00954317615493589615 ,-0.0451165337210064563  ,-0.0350440786974197047  },

        { 0.667931570353490711   , 0.215241262285977758   ,-0.227421308045411275   , 0.069009320895682541   ,    0                      , 0                      , 0                      , 0                      },
        {-0.116677836582118361   ,-0.0652261687912519955  , 0.00151244425857548627 ,-0.0596025533336466823  ,    0                      , 0                      , 0                      , 0                      },
        {-0.0642323384648203211  ,-0.00583784039848138543 , 0.00236049674802238504 , 0.0220162823369213154  ,    0                      , 0                      , 0                      , 0                      },
        {-0.0182082471274360447  , 0.114901146866508222   ,-0.0438319818063818978  ,-0.028150650374262419   ,    0                      , 0                      , 0                      , 0                      }
      },
      /*OD_INTRA_TM (0,1)*/
      {
        { 0.0398685571795640084  , 0.018681930979389659   ,-0.00324692031756650991 ,-0.0563875533756133529  ,   -0.0572053694378064498  , 0.439345180628894605   ,-0.0578810061108439577  ,-0.00744301202584414165 },
        { 0.0117943258242082342  ,-0.0347470242215477468  ,-0.00347461065578169841 ,-0.0123255289352118946  ,   -0.0144041331278570543  , 0.199927962125895475   ,-0.0515310570486082406  ,-0.00659868221501113718 },
        { 0.0014470472090083212  , 0.0210420310611134746  , 0.0336908321282911663  ,-0.0444783462712374858  ,    0.000429150023233790267,-0.162579864451238371   , 0.0355768131405524296  ,-0.0208828200695950934  },
        {-0.00213440801917515318 ,-0.011931606632486309   , 0.0145691011555330752  , 0.00501653551126507793 ,   -0.0024144883308781155  , 0.0459624191241046615  , 0.0152225796424029555  , 0.0215215080734431942  },

        { 0.0266243673157489716  , 0.125131182518407824   ,-0.0653611673890929779  , 0.0782505075545900097  ,    0                      , 0                      , 0                      , 0                      },
        { 0.000366447586059942705, 0.0295915560935469807  , 0.0169667706496468805  , 0.00664211686759347362 ,    0                      , 0                      , 0                      , 0                      },
        { 0.00244259901536877889 , 0.00340460304769506662 ,-0.016554415798984673   ,-0.0368022753681817444  ,    0                      , 0                      , 0                      , 0                      },
        { 0.000766370609915216039,-0.00908650325299910529 , 0.00630850254162637798 ,-0.0198330972338650255  ,    0                      , 0                      , 0                      , 0                      }
      },
      /*OD_INTRA_TM (0,2)*/
      {
        { 0.00531885021720533962 , 0.0282062916850570472  ,-0.0494766567062753376  , 0.0102181002080825954  ,   -0.00584873303700601723 ,-0.0539631341654424335  , 0.583428831746044319   ,-0.0149298382374126268  },
        {-0.00586412822420439087 ,-0.0257379265750677308  , 0.0652002617208125856  ,-0.0092476790139380087  ,   -0.00157857468088978782 ,-0.0174097597771130409  , 0.165396756286210533   , 0.0267785831788782368  },
        {-0.0121927302676773045  , 0.0186293752237636258  ,-0.0461400478438654602  , 0.0530351377410872779  ,    0.0105338137359781252  , 0.0127188283681082363  ,-0.150942416938573104   , 0.0216281507460941297  },
        { 0.0153881530705067687  ,-0.011006500154410289   , 0.00552031238186376054 ,-0.0196659226431937541  ,   -0.0178102037857354248  , 0.0416012467889317894  ,-0.0051563759247939692  , 0.00188536935624651365 },

        { 0.00303809992167586177 ,-0.0219994250868981965  ,-0.37554255274310433    ,-0.0169409378358040784  ,    0                      , 0                      , 0                      , 0                      },
        { 0.000504180687003123349, 0.0171059521566837118  , 0.0623359025917933907  , 0.0456128555207548983  ,    0                      , 0                      , 0                      , 0                      },
        {-0.000387370587799761663, 0.03028950791463687    ,-0.0117354787098974851  , 0.0239939240443996886  ,    0                      , 0                      , 0                      , 0                      },
        { 0.00588735940213212794 , 0.0208648246341630143  , 0.0120771697357463948  ,-0.00594677449183868712 ,    0                      , 0                      , 0                      , 0                      }
      },
      /*OD_INTRA_TM (0,3)*/
      {
        {-0.00715949717224933276 , 0.00282183561234462983 ,-0.0489148303515262173  , 0.0351370357259583807  ,    0.00689275664346976867 , 0.00736434116891411788 ,-0.0117852436396608477  , 0.485891401522276833   },
        { 0.00189917414240112952 , 0.000578132080505053118,-0.0202325367558866091  , 0.127084515264357822   ,    0.00574644169664577636 ,-0.0107068691786019621  , 0.00151057582134404367 , 0.175429888500785724   },
        { 0.0098766768098616075  , 0.00228044432828666344 , 0.004198594365876363   ,-0.0518910999342388629  ,   -0.00952053162652012792 , 0.0159882299038175274  , 0.000518326018441017753,-0.127007620121916742   },
        { 0.00146393319082838559 ,-0.00846148081761559541 ,-0.0045290220430855288  ,-0.0191668816417714903  ,    1.76271117784909694E-05,-0.000933964650751510314, 0.01269503411062981    ,-0.0236783485299618922  },

        { 0.00266747401690771262 ,-0.0390929616933041665  , 0.0361387282171840366  ,-0.552482475290775321   ,    0                      , 0                      , 0                      , 0                      },
        {-0.00164083005120889934 ,-9.83915855033428989E-05, 0.00395082738121882437 , 0.0448163820630369802  ,    0                      , 0                      , 0                      , 0                      },
        { 0.00102205302643368617 ,-0.00176823760386595266 ,-0.000468924255933225417, 0.0106486044496304465  ,    0                      , 0                      , 0                      , 0                      },
        {-0.00152731007851826051 ,-0.0100428321032744097  ,-0.0169738057047766205  ,-0.00645363082150525371 ,    0                      , 0                      , 0                      , 0                      }
      }
    },
    {
      /*OD_INTRA_TM (1,0)*/
      {
        {-0.0105409245989774476  , 0.0197877161413151856  ,-0.0386300729637062412  ,-0.00250158254049546308 ,    0.0414295434711095395  , 0.00670278138507215179 ,-0.0218339095666367049  ,-0.00870525521845271454 },
        { 0.0301835265079426554  ,-0.032169436139806544   , 0.0295454452668242398  ,-0.0204080022220222944  ,    0.138092820433231539   , 0.0181577359805627676  ,-0.0197437319746281321  ,-0.0068246594404484601  },
        {-0.013937810430813569   , 0.0307271738074337171  ,-0.0110918433304024438  ,-7.84386812151486858E-05,   -0.0617638860105169524  , 0.0175525302459724128  , 0.0484004842212165734  , 0.0207513415879973552  },
        { 0.0265271992248876619  ,-0.0250823162813220805  , 0.00846299114331831685 , 0.0534147333992082557  ,   -0.0172608373860074632  , 0.0259969251103769582  , 0.00789349585108856631 , 0.01460568277887455    },

        {-0.0331336885114705687  ,-0.0258198986976738674  , 0.0284363223050168902  ,-0.00226780305737677356 ,    0                      , 0                      , 0                      , 0                      },
        { 0.641102345614626534   , 0.23627733240547899    ,-0.242012354820806103   , 0.0809338432723706314  ,    0                      , 0                      , 0                      , 0                      },
        {-0.0511865401008365778  , 0.0352078739157750398  ,-0.044350167131445746   , 0.00290206096120133221 ,    0                      , 0                      , 0                      , 0                      },
        {-0.022283337786059617   , 0.0230183704684135092  , 0.0313018182650359328  , 0.0251177405362416721  ,    0                      , 0                      , 0                      , 0                      }
      },
      /*OD_INTRA_TM (1,1)*/
      {
        { 0.00904787722611423428 ,-0.00145730422026289232 ,-0.0102659735611914174  ,-0.0246325324391298527  ,   -0.00162827203937998023 , 0.0301682948932977708  ,-0.0063963479573924233  ,-0.0233700085033948582  },
        { 0.00509368839652170335 ,-0.0122264079732786347  , 0.00231213268688811643 , 0.0291153261959399834  ,   -0.0126707410749498581  , 0.0760831848301697783  , 0.0170679825105568145  , 0.054930052472851966   },
        { 0.00451356861372658857 ,-0.0359018865517004848  , 0.0229409965529324064  , 0.0234671213870008138  ,    0.00150709073302809243 , 0.0351282123458417847  , 0.0361676707479850063  , 0.00720620355963652332 },
        {-0.0175643359933518907  , 0.0213162914645991658  ,-0.0476038918577531694  , 0.0381847294770045129  ,    0.0187944604954052297  ,-0.0134767817884102626  ,-0.0371657494133758176  , 0.0168446861473871556  },

        {-0.00541989939658781873 ,-0.0145906127363573876  , 0.0062313890565665964  ,-0.00267699367690028573 ,    0                      , 0                      , 0                      , 0                      },
        { 0.011421340068734959   , 0.0964719879543298187  ,-0.0584305403765085427  , 0.0738884104159832494  ,    0                      , 0                      , 0                      , 0                      },
        { 0.00892012464044301262 ,-0.04069547373219079    ,-0.0194579875012924168  , 0.00717976163151711356 ,    0                      , 0                      , 0                      , 0                      },
        {-0.0033780647398215344  , 0.0135213289779214652  ,-0.0222321488063164756  , 0.00152687421351055722 ,    0                      , 0                      , 0                      , 0                      }
      },
      /*OD_INTRA_TM (1,2)*/
      {
        {-0.000205281766657469824, 0.00421488852153635227 , 0.0017342614194748925  , 0.0174880664763917767  ,   -0.00028883029266347734 ,-0.00803299305782682882 , 0.039208147467081525   , 0.000239540086832120162},
        { 0.00338883370827080654 , 0.0116407205706372183  ,-0.104983894213410284   , 0.0349315907148940175  ,    0.00423021309838738507 ,-0.0105000221550355759  , 0.23528596474467614    ,-0.0124790674574703463  },
        {-0.0031879223336802264  ,-0.021453372028905366   , 0.0454676903869790996  ,-0.0138572964680584165  ,    0.00428621530280601931 , 0.0180129941081754591  ,-0.0570038963071474655  , 0.0133496925458637134  },
        {-0.00542200952659459712 , 0.00714023022218739957 , 0.0230984607908286156  , 0.026166943977485313   ,    0.00404658908484581501 , 0.0154294820312177415  , 0.0377414181001513027  , 0.00581350204164461822 },

        { 0.00184476556945308229 ,-0.00152631009743849338 , 0.0323530868506510944  ,-0.00034571170515232581 ,    0                      , 0                      , 0                      , 0                      },
        {-0.000384135995673219892,-0.0430184059313218209  ,-0.235402109235647944   ,-0.0363374926536706444  ,    0                      , 0                      , 0                      , 0                      },
        { 0.00165545912588023849 , 0.016223186211333715   , 0.06497746511888218    ,-0.0342095151481722204  ,    0                      , 0                      , 0                      , 0                      },
        { 0.000881562087575928077, 0.0144720231992011804  , 0.0324463084048200248  , 0.0222217565338726809  ,    0                      , 0                      , 0                      , 0                      }
      },
      /*OD_INTRA_TM (1,3)*/
      {
        { 0.00334394299923367923 ,-0.0027353322696298415  , 0.00226712510356619386 , 0.00512713492310301871 ,   -0.00351586124254472379 ,-0.00697970645859562634 , 0.0031734944816533767  , 0.0470000093726389845  },
        {-0.00141360478645373758 , 0.00373872287424191919 ,-0.00668802233176009515 ,-0.0885279017411337577  ,   -0.000860600867661024727, 0.0124667931594408619  ,-0.00771563508130039544 , 0.17446011514351692    },
        { 0.00143743329823283871 ,-0.00357244787912095688 ,-0.00154114175288071675 , 0.0191296343402106196  ,   -0.00267560064426891186 ,-0.00607755365357991097 ,-0.0121691934141729685  ,-0.0861674271161008976  },
        {-0.00271399857318872654 ,-0.0168462668046186412  , 0.00521598696556858574 ,-0.00724581434731214752 ,    0.00132093282996498273 ,-0.00663958094300514702 , 0.0065152398680547504  ,-0.005369210971918335   },

        { 0.00100873660503010055 ,-0.000987341070431564964,-0.000446208074502222718, 0.0399976483944131725  ,    0                      , 0                      , 0                      , 0                      },
        { 0.00844065884240026258 ,-0.0368176751820845291  , 0.0615916566654779452  ,-0.39490376087057355    ,    0                      , 0                      , 0                      , 0                      },
        {-0.00179904661635323483 , 0.00659130485173214584 , 0.0168610516048733616  , 0.0864556869042619885  ,    0                      , 0                      , 0                      , 0                      },
        {-0.000565576304126162981,-0.00258073519453108245 ,-0.000388526147420264567, 0.0293319728644838885  ,    0                      , 0                      , 0                      , 0                      }
      }
    },
    {
      /*OD_INTRA_TM (2,0)*/
      {
        { 0.00522510886842269574 ,-0.000898658751869706998,-0.0248919052833508313  ,-0.00583378906364255979 ,   -0.00191981935501337408 ,-0.0068732032038926168  ,-0.00613100751726171865 ,-0.00833476159458577948 },
        { 0.03354213669400085    ,-0.0175776904450462637  , 0.01167033792684442    , 0.0209137346906621453  ,   -0.0235693469496372696  , 0.00783596931699302203 , 0.028286568706443832   ,-0.0143160599707822106  },
        {-0.0807222554311602808  , 0.0339091342355579764  , 0.0134281000428974704  , 0.00802105649661026023 ,   -0.122853471450112411   , 0.0322491642370608053  ,-0.0149711023316859097  ,-0.0290015489321007076  },
        { 0.00577233500440563468 , 0.0375570907273220303  ,-0.00473562006895925178 , 0.00382409976504524338 ,   -0.0522828816713287528  ,-0.0348889055520855973  ,-0.0630763753882295775  , 0.0256709345156385174  },

        {-0.00677704860287284445 , 0.000602632262991462781, 0.0157311989964532203  , 0.00455884761004324724 ,    0                      , 0                      , 0                      , 0                      },
        { 0.0344039098658239229  , 0.00305303707491581333 , 0.022196333529566941   , 0.0165557081772129307  ,    0                      , 0                      , 0                      , 0                      },
        { 0.788618524724947978   , 0.107739494502664568   ,-0.129423728867748833   ,-0.0321106405817096971  ,    0                      , 0                      , 0                      , 0                      },
        { 0.0169827491231377206  , 0.0287703429039182536  , 0.00927288595584812442 , 0.0033580112353072014  ,    0                      , 0                      , 0                      , 0                      }
      },
      /*OD_INTRA_TM (2,1)*/
      {
        {-0.000982814837096259537,-0.00217436429612798869 ,-0.00536132338822745136 ,-0.000508873192750088315,    0.00191804041256529961 , 0.00470814118887723319 ,-0.0012947016487517898  ,-0.0093328977644362085  },
        {-0.00196076240216002144 , 0.0125248791038915161  ,-0.00858751645165449669 ,-0.026708202662617829   ,    0.00149191726327820148 ,-0.0578743765012813341  , 0.00131940125235043351 ,-0.0284562256006818844  },
        {-0.0160688682891149438  ,-0.102595499139051388   , 0.00887459386129272471 , 0.0258318317712557186  ,    0.00438256717371135734 ,-0.0867001793416087574  , 0.0488696635059838666  ,-0.006675626401233886   },
        { 0.00630858490939548849 , 0.0493699439555603942  ,-0.0153709290981366223  ,-0.00610464819641549743 ,   -0.0057235196885879339  ,-0.0779736375031127443  , 0.0126873018584248865  , 0.00642282347501548726 },

        {-0.00170705458877446772 ,-0.000410364854239646444, 0.00603959140867993231 ,-0.00725865544415206509 ,    0                      , 0                      , 0                      , 0                      },
        {-0.000456494905151418496,-0.0252787673727543315  , 0.0290271998098729292  , 0.0114986617272872689  ,    0                      , 0                      , 0                      , 0                      },
        { 0.0136578599802871445  , 0.175314022890828813   ,-0.0333430664255520634  , 0.0519338264199856181  ,    0                      , 0                      , 0                      , 0                      },
        {-6.04354868100697129E-05,-0.0197837372594149088  ,-0.0035242389285954738  ,-0.00427988851702326267 ,    0                      , 0                      , 0                      , 0                      }
      },
      /*OD_INTRA_TM (2,2)*/
      {
        { 0.00101680498576972632 , 0.000738939332588384222,-0.00940459010646541547 ,-0.0100768836734912055  ,   -0.00153980999320707437 , 0.00310564824227287008 , 0.0176487144502021111  , 0.00532161895223330628 },
        {-0.00247986520677069902 , 0.0101520780821818656  ,-0.0225886232478018124  , 0.0387227595437841243  ,    0.0025883417411841558  ,-0.00658855628355786704 , 0.00625605373685575276 , 0.00339485467718986678 },
        { 0.000783393029114120686,-0.00915835991446651947 ,-0.0467041282594867144  , 0.000578409072376985262,   -0.00244216514193553455 , 0.0325687162613059814  ,-0.401309646657363073   , 0.0199927602909500159  },
        { 0.00392847701674424801 ,-0.00416057262771712521 ,-0.0161859813374610646  , 0.0533987634497442853  ,    0.00894796176216962509 ,-0.0203616485124811161  ,-0.0851666318624977048  , 0.0247347973659998617  },

        {-0.000382245497533185194,-0.000908449222543773207, 0.00819139087914924104 , 0.0135335393146566261  ,    0                      , 0                      , 0                      , 0                      },
        { 0.00231152388200390069 ,-0.0175167374978982375  , 0.00332843920740157799 , 0.0173354059319626788  ,    0                      , 0                      , 0                      , 0                      },
        { 0.00159785109106623849 , 0.0388996627635854117  ,-0.586340762925212755   , 0.0055090182850371051  ,    0                      , 0                      , 0                      , 0                      },
        {-0.00739926738357474679 ,-0.0177106179763372416  ,-0.00155678792931774582 , 0.0216698443377773345  ,    0                      , 0                      , 0                      , 0                      }
      },
      /*OD_INTRA_TM (2,3)*/
      {
        { 0.000551604589454420522, 0.00432335300203413094 , 0.00452762329962604765 , 0.00296642298699939782 ,   -0.000391859918382314848,-0.000801986569476180705, 0.00438089353767844285 , 0.016717908519386239   },
        { 0.00120045393389631052 ,-0.00308202341326948258 ,-0.000647298570084277997,-0.0344154153310538488  ,   -0.00192821231163407586 ,-0.00566348734886059062 , 0.013298549686577928   , 0.0225711590786733737  },
        {-0.001227862270737945   , 0.00791119416009505166 , 0.0459319200401281935  ,-0.0139287309754143173  ,    0.00481670465046388826 ,-0.00389050638823944771 , 0.00934148518574110312 ,-0.306846542259104071   },
        { 0.0013838469065574168  , 0.00362084669751282142 ,-0.0117441995537350564  , 0.0799963096712633104  ,   -0.0024845257037545798  , 0.0109958941874189406  , 0.00967861004589617296 , 0.0065107249193057104  },

        { 0.000720916166874228568,-0.000801704886858043363,-0.0046061046346501152  , 0.00708307366518610114 ,    0                      , 0                      , 0                      , 0                      },
        {-1.82368847644781595E-05, 0.00175562686688219053 ,-0.0059759070082153979  , 0.00533400922951504132 ,    0                      , 0                      , 0                      , 0                      },
        { 0.00731295170873948793 ,-0.054869918639973092   , 0.0402038304356720083  ,-0.672317411319509284   ,    0                      , 0                      , 0                      , 0                      },
        { 0.000748648876351185283, 0.0139810733908411824  ,-0.0153809422771263946  ,-0.00548477776314198074 ,    0                      , 0                      , 0                      , 0                      }
      }
    },
    {
      /*OD_INTRA_TM (3,0)*/
      {
        { 0.00203492547514162606 ,-0.0121451017764689501  , 0.000303624467497610345,-0.00808385671677750231 ,   -0.00470636904423557285 ,-0.00181996848231426246 , 0.00167887781955131554 , 0.00347859950138939503 },
        { 0.0298914064994892197  , 0.00470973166414078315 , 0.00232164908875735548 ,-0.00942788489411924835 ,   -0.0359952274024808172  , 0.00452965733255632826 , 0.0100428153209597797  , 0.0117791511949095085  },
        {-0.0442825185432433738  , 0.030345577098722723   , 0.0065654036819134615  ,-0.00189647245184495833 ,    0.0785947722411683841  ,-0.00985911734688567701 ,-0.00462698769606005762 ,-0.0171688946198242272  },
        { 0.16117485568162962    ,-0.0339304920851096065  , 0.00532058077322520532 , 0.0235396567208716774  ,   -0.156119626925538491   , 0.067866743421778869   , 0.0479261760996476591  , 0.0102133342803816078  },

        { 0.00548926235416547816 , 0.0115857786578945163  ,-0.00899569230522443905 , 0.00538394924530978189 ,    0                      , 0                      , 0                      , 0                      },
        { 0.0265034314266265579  ,-0.00652966797604857645 , 0.00950836956721026402 ,-0.000773512747816913174,    0                      , 0                      , 0                      , 0                      },
        { 0.00997920988677165541 ,-0.0382437148398645024  , 0.0187699473273818182  ,-0.0225978935264559942  ,    0                      , 0                      , 0                      , 0                      },
        { 0.987772732961720856   , 0.0334207252873312682  ,-0.170647216366803578   ,-0.0357653377746756165  ,    0                      , 0                      , 0                      , 0                      }
      },
      /*OD_INTRA_TM (3,1)*/
      {
        {-0.00127507592931158675 ,-0.00184881596301252212 , 0.00446925573892891989 , 0.0126760292164156806  ,   -9.0604358105618552E-05 , 0.00159388391380506237 , 0.00106512353875304225 , 0.00273775843881270955 },
        {-0.00411258418976295694 ,-0.000407711278581881251, 0.00722004991639660972 ,-0.00820169196295589438 ,    0.00432945429452945025 ,-0.015893975003048795   , 0.000409504777727889076,-0.00388068619452345805 },
        { 0.00658060493401116907 ,-0.00634685569460195949 , 0.00120514863966982391 ,-0.0203639094610875565  ,   -0.00460808287651811969 , 0.0457705193466383595  , 0.00817110961969390488 ,-0.0052276751367138349  },
        {-0.0181746430788344571  ,-0.0621936991616739016  ,-0.0249485557875678242  ,-0.013666175929424932   ,    0.00929172000776540795 ,-0.228208586823412135   , 0.0310418595825974857  ,-0.00674059635069030726 },

        { 0.00136853278927778288 , 0.00114064034316776228 ,-0.00209690628178495252 ,-0.0106234978006797647  ,    0                      , 0                      , 0                      , 0                      },
        {-0.00142127789219220041 , 0.0102861551528622263  ,-0.00670861884073304521 ,-0.00319044960993375773 ,    0                      , 0                      , 0                      , 0                      },
        {-0.0067235206884745588  ,-0.00120191429065056102 ,-0.00584853975788672542 ,-0.00428040240371144621 ,    0                      , 0                      , 0                      , 0                      },
        { 0.00115371181977294893 , 0.150441355569568752   ,-0.0624971167210035261  , 0.0188498493121743715  ,    0                      , 0                      , 0                      , 0                      }
      },
      /*OD_INTRA_TM (3,2)*/
      {
        {-0.00211341599204766407 ,-0.000458046335329915513,-0.00126671895763814718 , 0.00762777013244637491 ,    0.000690323971563760932,-0.000688812292831830959,-0.000596122083738441564, 0.0030695755148966628  },
        { 0.00237178191147272618 ,-0.00332454391351912982 , 0.0257974769212854609  ,-0.0122555145153948122  ,   -0.00118628357695530384 ,-0.0023237665269343049  ,-0.0606737162035148048  , 0.00181160852117148523 },
        { 0.00482282227661135886 ,-0.0077055711232877867  , 0.0337414707174581788  ,-0.00932365660555663917 ,   -0.0119454518684702516  , 0.00571891896919714694 , 0.0362356775839227999  , 0.023849229403836672   },
        {-0.000203035998437701775,-0.0139673705135991196  , 0.0360388671932844393  , 0.0289626744821542166  ,    0.00638181954199308534 , 0.0331092055238697072  ,-0.552527120902701507   , 0.0247464099195003201  },

        { 0.000218446029153187014, 0.00037981378885709147 ,-0.00158405259271924268 ,-0.00176104405946851911 ,    0                      , 0                      , 0                      , 0                      },
        { 0.00146130811470350421 , 0.0105445920775550477  , 0.00254484229150256673 , 0.0125609854528177141  ,    0                      , 0                      , 0                      , 0                      },
        { 0.00840141259401239182 ,-0.00556406353354181246 , 0.0477242495042763462  ,-0.0177200920048102249  ,    0                      , 0                      , 0                      , 0                      },
        {-0.000575082216156084874, 0.032725325295838735   ,-0.379914221616188152   , 0.0102907697880031887  ,    0                      , 0                      , 0                      , 0                      }
      },
      /*OD_INTRA_TM (3,3)*/
      {
        {-0.000490879038397292453, 0.00132333469185049878 , 0.00389550427690221355 ,-0.000740667481208669566,    0.0001198016323784805  ,-0.00116875367818905008 ,-0.00171501373304636432 , 0.00495976521198023858 },
        { 0.00057394699685203417 ,-0.00690603880811079072 , 0.00342250698731002287 , 0.000941384666023883801,    0.000632532523978585233,-0.00436917255579596583 ,-0.00287096214504656147 ,-0.041331715495501492   },
        {-0.00616615700961090345 , 0.00541517360976213544 , 0.0100034905965844991  ,-0.0278303656754155006  ,    0.00838075060900083518 ,-0.0044410235991218976  , 0.000748100056115431553, 0.0129539220303574558  },
        { 0.00277008001556621223 , 0.006580441449610272   , 0.00255339413412761576 , 0.140839454533973618   ,   -0.00248563372806755644 ,-0.0040760846054286393  ,-0.00890125545219276441 ,-0.35515252664211916    },

        { 0.000136185969681275635, 0.000327168068475935394,-0.00605028191316261694 , 0.00341959535541991756 ,    0                      , 0                      , 0                      , 0                      },
        {-0.000276787980809531375,-0.0011735172894489364  ,-0.00633229739226351569 , 0.0300831215378386183  ,    0                      , 0                      , 0                      , 0                      },
        {-0.000355207044456749442,-0.00302537208724311347 , 0.00505095183707402352 , 0.00882557070105330702 ,    0                      , 0                      , 0                      , 0                      },
        { 0.00607792311252070266 ,-0.0568746912546104766  , 0.00424775453331653185 ,-0.475858041194729742   ,    0                      , 0                      , 0                      , 0                      }
      }
    }
  },
  {
    {
      /*OD_INTRA_HU (0,0)*/
      {
        { 0.00326698887425210145 , 0.0708302651441278103  ,-0.0947014920988566711  , 0.000794444966853845194,   -0.129829095972170572   ,-0.194903638356383774   , 0.0319172610203613746  , 0.218930383980857401   },
        { 0.0995948272063829215  ,-0.200151783386629367   , 0.0462097996652785226  ,-0.100594447508454005   ,    0.121782842286785264   , 0.568387773025231136   ,-0.0668955998342713187  ,-0.326259658614710346   },
        {-0.0716264714514227296  , 0.147450458459460393   , 0.0943538463840523089  , 0.0212349347216867837  ,   -0.148921533730579592   ,-0.398638927638213292   ,-0.118864493112137648   , 0.421988762821750019   },
        {-0.00267361773841450845 ,-0.0173378423921313578  ,-0.0657747369217908107  , 0.0773016903924979015  ,    0.0864265310754234878  ,-0.106932077967378553   ,-0.0313275720002474597  ,-0.342463210193767409   },

        { 0.957528505342690406   ,-1.4834568259907952     , 1.02307399000931687    ,-0.497280906302726033   ,    0                      , 0                      , 0                      , 0                      },
        {-0.741625156526851015   , 2.0972129382814888     ,-2.14055339266707678    , 1.07138053254358434    ,    0                      , 0                      , 0                      , 0                      },
        { 0.24823874171600252    ,-1.14927512673411281    , 1.19549764145849324    ,-0.716153866155093244   ,    0                      , 0                      , 0                      , 0                      },
        {-0.111082534528480936   , 0.624616044440130858   ,-0.577873951754811155   , 0.00499357873903228354 ,    0                      , 0                      , 0                      , 0                      }
      },
      /*OD_INTRA_HU (0,1)*/
      {
        { 0.0121848928749802368  ,-0.00986553916486935557 ,-0.00298438246471548554 , 0.0294111723739056037  ,    0.000781565074800257909,-0.0582211343256077152  ,-0.0308169660918070597  , 0.00888109769060598832 },
        {-0.0042665647407366062  , 0.023920405471979201   ,-0.0134819374822617074  , 0.0126604871305530473  ,   -0.0407764040918941334  , 0.086658110935672078   , 0.0972722339406277003  ,-0.0253939854428658317  },
        {-0.010151475944542486   , 0.0113940016188567375  ,-0.0698914548841364086  , 0.0462404354206464516  ,    0.0224228292724771433  , 0.0106167714456784253  ,-0.0500916114876780935  ,-0.0209073158808127345  },
        { 0.0338162204352127072  ,-0.0722595618078491209  ,-0.00643292083758339062 ,-0.0977954144339607534  ,   -0.0099974192698738442  ,-0.0335286062934037343  , 0.0635292067120017817  , 0.00998914809877383437 },

        {-0.0119171575460901014  ,-0.186544237209702202   , 0.549774896476107444   ,-0.468620730136505403   ,    0                      , 0                      , 0                      , 0                      },
        { 0.0947228088589195938  ,-0.171340196051356836   ,-0.0127602953067992957  , 0.139238300306484875   ,    0                      , 0                      , 0                      , 0                      },
        {-0.04135966683077269    , 0.195846574274543272   ,-0.151871359201143558   , 0.124664126327021813   ,    0                      , 0                      , 0                      , 0                      },
        { 0.0214913734538938785  ,-0.0555252675392124279  , 0.0681768389005133341  ,-0.0271927046541260188  ,    0                      , 0                      , 0                      , 0                      }
      },
      /*OD_INTRA_HU (0,2)*/
      {
        { 0.00421069628402302373 ,-0.0165189250364526641  , 0.0191446998516045346  ,-0.0375338005964235763  ,   -0.008202361716716065   ,-0.00552024308572200955 ,-0.0433807755005219398  , 0.00835425031354795379 },
        { 0.00125687647795284644 , 0.0048247680945854134  ,-0.0338364587660869021  , 0.0115310972575141529  ,    0.00542939197060006602 , 0.00169824291934159632 , 0.119168635457564495   ,-0.00054748573063358836 },
        {-0.00215013157748899977 , 0.00344623780360338045 , 0.0150766575392219278  , 0.00546117225253479627 ,    0.00407097525771229259 , 0.0123778613702517169  ,-0.00859026989614780634 ,-0.0448149529253972501  },
        {-0.00594597791290056663 ,-0.0079576568607383092  , 0.0292044954397845981  ,-0.0531668234887780963  ,    0.00898113385757051685 ,-0.000537003836855992254,-0.0599292522441418896  , 0.0379733452007441907  },

        { 0.00313087324804736059 ,-0.107584922583450857   , 0.278439623119488999   ,-0.224281553514542487   ,    0                      , 0                      , 0                      , 0                      },
        {-0.00344630789487222798 , 0.0150737846669217693  ,-0.0489548126937718042  , 0.0104515649266002097  ,    0                      , 0                      , 0                      , 0                      },
        { 0.00530250878422628465 ,-0.0221262402208796082  , 0.00267944396601766267 , 0.0300880717963130581  ,    0                      , 0                      , 0                      , 0                      },
        {-0.00263474175864894956 , 0.0133041013857347033  ,-0.0366330913581935855  , 0.041254686513492983   ,    0                      , 0                      , 0                      , 0                      }
      },
      /*OD_INTRA_HU (0,3)*/
      {
        { 0.00225053220586493444 ,-0.00472532494248479804 , 0.00297462191203959206 , 0.00357718498917311469 ,   -0.00452498129237551699 ,-0.0044878447358856462  , 0.00557740893614012707 ,-0.0439427536592986237  },
        {-0.00267753581384813687 , 0.0027749119927191041  ,-0.00843156418076928746 , 0.00262067892449260008 ,    0.00404286653838311066 , 0.0126163718827639187  ,-0.00904035198172764218 , 0.100835870760440899   },
        {-0.00197625657872523095 ,-0.00484363027141888544 , 0.00924092334729715095 , 0.00849246566271094454 ,   -0.00408468226080671917 ,-0.000477843836234448263, 0.0122791592088127149  , 0.0119409420112132209  },
        {-0.00394777630812773606 ,-0.00351943262018977266 , 0.00472581766892255645 , 0.0145529337073348111  ,   -0.000594429187923618775,-0.0114534156793733213  ,-0.0114444268276150812  ,-0.0231451620390709517  },

        {-0.000806105552167744573,-0.0184676675484242957  , 0.0520220856985040836  ,-0.0309459151794069624  ,    0                      , 0                      , 0                      , 0                      },
        {-0.0121942094780399888  , 0.018147840392120345   , 0.0102275260100517205  ,-0.0193509691315092783  ,    0                      , 0                      , 0                      , 0                      },
        { 0.0100972231871687031  ,-0.0351349210538272755  , 0.0320918231400074971  ,-0.0372148743635499699  ,    0                      , 0                      , 0                      , 0                      },
        {-0.00203973460723307467 , 0.0117945783777714495  ,-0.0104558367389113571  , 0.00563262300441443823 ,    0                      , 0                      , 0                      , 0                      }
      }
    },
    {
      /*OD_INTRA_HU (1,0)*/
      {
        {-0.0223844832956691837  , 0.0384048105080649835  , 0.0200153703689824602  , 0.0518076873908016183  ,   -0.0317441500329549639  ,-0.135232066336144985   ,-0.0802144815099480601  , 0.10000107454359046    },
        { 0.0669637995044641832  ,-0.0294045542553228109  ,-0.0054313519805152229  , 0.00416218894289879099 ,   -0.0234557284003418624  , 0.385080533048576312   ,-0.056071930671541044   ,-0.153793114688737298   },
        {-0.119394855268607131   , 0.100425973489446457   ,-0.0235970406956553143  ,-0.0500044721307272705  ,    0.0552996438956947778  ,-0.368791511681431816   , 0.073035067358043354   , 0.232408256790528289   },
        { 0.212807482829614897   ,-0.139567285822089743   , 0.0982492874438063851  , 0.102070360276684896   ,   -0.00509143538577527723 , 0.211150386832671261   ,-0.180735820183769075   ,-0.0858112798040861352  },

        { 0.0765203488799180154  ,-0.12081962218467443    , 0.124043305820098523   ,-0.0735329653465500305  ,    0                      , 0                      , 0                      , 0                      },
        { 0.579553496087144793   ,-0.541824295578763104   , 0.235930164748760274   ,-0.067358310841031277   ,    0                      , 0                      , 0                      , 0                      },
        {-0.869488586117563522   , 1.50409931785456696    ,-1.33217590827927479    , 0.72804464814306924    ,    0                      , 0                      , 0                      , 0                      },
        { 0.227386901032017447   ,-0.729337380147266456   , 0.878546028722618888   ,-0.751519297271483588   ,    0                      , 0                      , 0                      , 0                      }
      },
      /*OD_INTRA_HU (1,1)*/
      {
        { 0.00572929018893268607 ,-0.0178142594372003721  ,-0.0134314992492263249  ,-0.0301098819012643217  ,    0.00836736851802934341 ,-0.0631738809630395387  ,-0.0270950255175955723  ,-0.0281847834184262395  },
        { 0.00877605183724258948 , 0.0143113790428920813  , 0.0269094669587872717  ,-0.0311533579735374482  ,   -0.0482866826848116354  , 0.0479463079770964321  , 0.143762487299212122   , 0.078357558289353299   },
        {-0.0344264145631665922  , 0.0457974282443659939  ,-0.0269905798083521428  ,-0.0710625417646672947  ,    0.0763127822921418203  , 0.0285334049784667539  ,-0.194426339627928102   ,-0.0756678193990218545  },
        { 0.0243550738544391319  ,-0.0588061076261847115  , 0.0120771648756072287  ,-0.0464502735659757804  ,   -0.0449389214683051166  , 3.59354940354079884E-05, 0.0920706853202652165  , 0.016922841491414143   },

        {-0.0111716723397232397  ,-0.0182568076200436864  , 0.0356481530381136738  , 0.0226670181522821944  ,    0                      , 0                      , 0                      , 0                      },
        { 0.0719995470209812     ,-0.31177242507161762    , 0.560497344753287163   ,-0.361459987555212192   ,    0                      , 0                      , 0                      , 0                      },
        { 0.0212631296933912389  , 0.0768356175958407051  ,-0.268902726133301184   , 0.35028450511738074    ,    0                      , 0                      , 0                      , 0                      },
        {-0.0486266024627773422  , 0.119200675862204702   ,-0.168125299355224439   , 0.10585217480495332    ,    0                      , 0                      , 0                      , 0                      }
      },
      /*OD_INTRA_HU (1,2)*/
      {
        { 0.00425465379666357946 ,-0.0131578870001059448  , 0.0137254792676553133  ,-0.0377212113690405387  ,   -0.00659506883496760194 , 0.00276062759141313925 ,-0.0739009077099894024  , 0.00862577771062284122 },
        {-0.00185999009921974869 , 0.00342440215386159924 ,-0.0196296774638277105  , 0.0287962041651206278  ,    0.00194210737713611963 ,-0.0158342954047929058  , 0.0502848439739716491  , 0.0553672122872655298  },
        {-0.00200955808938120236 , 0.0116239972411737412  , 0.000689803003108312987, 0.0657965465122662685  ,    0.00275066964907501581 , 0.0218380842588578837  , 0.0166044242163828973  ,-0.0573363159817243603  },
        {-0.00243359865557801931 ,-0.0214029831639307062  , 0.0323120453051616852  ,-0.0243881000653300324  ,   -0.00634484047107442255 ,-0.00697495455772961532 ,-0.0317809297988253386  , 0.114054679030292275   },

        { 0.00433406274738582648 ,-0.0293393647181262734  , 0.055399995569400548   ,-0.0375195706445729457  ,    0                      , 0                      , 0                      , 0                      },
        { 0.00508584888687642605 ,-0.103598576581206275   , 0.253271858964930319   ,-0.1895749700814581     ,    0                      , 0                      , 0                      , 0                      },
        {-0.00428960461606976012 , 0.0181614934898064635  ,-0.0630042212100273835  , 0.0388458881246370943  ,    0                      , 0                      , 0                      , 0                      },
        {-0.00123187267774222254 ,-0.0113485831513253626  , 0.00588634840570085183 , 0.0162022879972208468  ,    0                      , 0                      , 0                      , 0                      }
      },
      /*OD_INTRA_HU (1,3)*/
      {
        { 0.000595128654447620118,-0.00210059296692461121 ,-0.00185451327423759478 ,-0.015651553468995702   ,   -0.00259333917933768712 ,-0.000780250671385509815, 0.00238794857161230608 ,-0.0434733094273112991  },
        {-0.00382259887242889515 , 0.00568558006291949077 ,-0.000320556979141787017, 0.022911008220677636   ,    0.00369540493165048094 ,-0.00227654358555872717 ,-0.0131625279119680343  , 0.0566410215950675505  },
        {-0.00326693640067520505 , 0.0103818876527247052  , 0.00505029338759544009 , 0.0255379149105476565  ,   -0.000472258680554286622,-0.0143120563495815183  , 0.0237466221178314479  ,-0.00267799791655663321 },
        {-0.00258579265288770826 ,-0.0117563729458393974  , 0.0112223132050608184  ,-0.0204170813099298458  ,    0.00245359572551555284 ,-0.00592572488814395535 ,-0.00915798737880613341 ,-0.0443312083059795928  },

        { 0.00180603147729462791 ,-0.00970465439818358339 , 0.0264363252239024002  ,-0.0279197036916553967  ,    0                      , 0                      , 0                      , 0                      },
        {-0.0102839843219201983  ,-0.0128734529802622885  , 0.0428872250943078473  ,-0.0185466746605308826  ,    0                      , 0                      , 0                      , 0                      },
        {-0.00127712693024132858 , 8.91642965315208368E-06,-0.0163366297509902128  , 0.0212851994117227473  ,    0                      , 0                      , 0                      , 0                      },
        { 0.00127943707094026519 ,-0.00860018972950014199 , 0.0168935526376152029  , 0.0144406848783038243  ,    0                      , 0                      , 0                      , 0                      }
      }
    },
    {
      /*OD_INTRA_HU (2,0)*/
      {
        {-0.019872118376631883   , 0.00984434289809117333 ,-0.0277820095588090302  ,-0.0063772850926768522  ,   -0.0204656571259926208  ,-0.0576116863605571905  ,-0.025292347459146023   , 0.0259749584995573532  },
        { 0.0686392990176641765  ,-0.0661740768946717933  ,-0.0249848166467211627  ,-0.0251193222773296622  ,   -0.0355646130489170875  , 0.152550387140009736   , 0.00218582097535445583 ,-0.019494017210877481   },
        {-0.103398697049131474   , 0.100588658538537545   ,-0.0577712737569364213  ,-0.06219853037352506    ,    0.0726986958630231467  ,-0.247943823219798049   , 0.0327535104784274708  , 0.0428451534517464011  },
        { 0.0647962157183808868  ,-0.0758933040520412966  , 0.0440434301519530974  , 0.0571955139600976506  ,   -0.000571021886531241979, 0.177631940648893399   ,-0.0418855445207862442  ,-0.0529701316940425285  },

        { 0.0432779178078092838  ,-0.0564195379924779111  , 0.0126988777699099734  , 0.00632524150365673752 ,    0                      , 0                      , 0                      , 0                      },
        { 0.15902582464520354    ,-0.0504006904761399657  , 0.0164704985679192915  ,-0.0308747072964616412  ,    0                      , 0                      , 0                      , 0                      },
        {-0.0126207701197773962  , 0.0587843823824699754  , 0.0433332167728247009  ,-0.037898047257736385   ,    0                      , 0                      , 0                      , 0                      },
        {-0.381709475757237515   , 0.396433782422568104   ,-0.404721828225425295   , 0.228937865025935383   ,    0                      , 0                      , 0                      , 0                      }
      },
      /*OD_INTRA_HU (2,1)*/
      {
        {-0.00124225304679913295 ,-0.00526778128812853842 , 0.00216595285341508216 ,-0.0054859222773850887  ,    0.0026533750540789487  , 0.000839006037963797684,-0.0107143758038328839  ,-0.017058289809833288   },
        { 0.0107995897161368339  ,-0.0179771123517587679  ,-0.0127860367099119927  , 0.0296289066161489756  ,   -0.0348270941662865915  ,-0.0628373061054188081  , 0.118604730427906882   , 0.047026003175146415   },
        {-0.0298810959873626082  , 0.024809855923317848   ,-0.0651769929776420121  , 0.0981695346535557262  ,    0.0807288585310458606  , 0.0590445721469390547  ,-0.167391550261727362   ,-0.0857238193995733394  },
        { 0.0164568725968638925  ,-0.0387441428184021608  , 0.0123422680982431515  ,-0.0851194542947790733  ,   -0.0730393160616379239  , 0.113946779697296371   , 0.174403490446040504   , 0.0425876134907937354  },

        {-0.00564450475221350226 ,-0.00525170630185258641 , 0.033094566689237076   ,-0.00324038224868869419 ,    0                      , 0                      , 0                      , 0                      },
        {-0.0102577480029940431  ,-0.0368778737945648291  , 0.115499269907101618   ,-0.0713640609348650395  ,    0                      , 0                      , 0                      , 0                      },
        { 0.131799343013361492   ,-0.287934176638071249   , 0.389138597864400804   ,-0.256967565631169792   ,    0                      , 0                      , 0                      , 0                      },
        {-0.0902622931834226733  , 0.221923097046454104   ,-0.225795887199488343   , 0.315088749248873867   ,    0                      , 0                      , 0                      , 0                      }
      },
      /*OD_INTRA_HU (2,2)*/
      {
        { 0.00190673617351853658 ,-0.00597094300042081295 ,-0.00199494984349519707 ,-0.0199844803798579253  ,   -0.0038808988154005377  , 0.00766368958634666784 ,-0.0263790019639263407  ,-0.00240406042725737745 },
        { 0.0016494752556948974  ,-0.0107951959758729212  , 0.00491781057492400673 ,-0.0120871659763596342  ,    0.00218343722743386676 ,-0.0337322133152755943  , 0.0142101135297661284  , 0.0169703016993090899  },
        {-0.00201241196040982022 , 0.0120865534035472563  ,-0.039076708848172062   , 0.0567554965476626538  ,   -0.00198810558372451663 , 0.0362371802116539313  ,-0.0323111578500682728  ,-0.0993529439893218735  },
        { 0.00418301185071210443 ,-0.0139047742166929691  , 0.065263595449870912   ,-0.0034278662513989532  ,   -0.00902633576712670929 ,-0.0297690821029640493  , 0.0424792809253729461  , 0.0630777810366624919  },

        { 0.0011547823167477175  ,-0.00474315622225850598 , 0.0104769222191014554  ,-0.0235456897675328687  ,    0                      , 0                      , 0                      , 0                      },
        { 0.00419917127602712111 ,-0.0380596552446578543  , 0.0722202573351771598  ,-0.0359461912200206499  ,    0                      , 0                      , 0                      , 0                      },
        {-0.00878096817981688198 ,-0.062501916315330322   , 0.170849890788281195   ,-0.169228511809218773   ,    0                      , 0                      , 0                      , 0                      },
        { 0.00901890188910340132 ,-0.0190956288211163623  , 0.0195404586542903443  , 0.0582589120070016314  ,    0                      , 0                      , 0                      , 0                      }
      },
      /*OD_INTRA_HU (2,3)*/
      {
        { 0.000431869252134672442,-0.00411831614648904085 ,-0.00473148339296134215 , 0.00352114850660474035 ,   -0.00223228724819135669 , 0.000190634048496743965, 0.00637266888668632653 ,-0.00945959450672343403 },
        {-0.000898547311529874354,-0.000501849028903925544,-0.0045021012600230002  ,-0.0146344939296111729  ,    0.00360840857498835339 ,-0.000126619036855621706,-0.002580792838064375   , 0.0115437273704514058  },
        {-0.00210092200049437003 , 0.00896709356404974678 ,-0.0297268863386795333  , 0.014369121571822489   ,   -0.000844898949801207153, 0.00307903814207124548 , 0.0192461426394703594  ,-0.0152013842660036168  },
        {-0.000714271537072633483,-0.012251515062230928   , 0.000761926403100854897,-0.0268259747432837183  ,    0.00612664716885181083 , 1.31550949033874543E-05,-0.0276516659844349075  , 0.0666709610968613947  },

        { 0.00155522477707240123 ,-0.000286452042877188102,-0.00186296603234105515 ,-0.0083142935786326682  ,    0                      , 0                      , 0                      , 0                      },
        { 0.00264318499005978874 ,-0.0127288087584169294  , 0.0307320266834879632  ,-0.027280377939518468   ,    0                      , 0                      , 0                      , 0                      },
        {-0.0116350594737261587  ,-0.00996907844078719248 , 0.04819135185003625    ,-0.0152565937514640391  ,    0                      , 0                      , 0                      , 0                      },
        { 0.0041026676002488497  , 0.00343477796613629463 , 0.00990921120497383588 , 0.0118139111686170924  ,    0                      , 0                      , 0                      , 0                      }
      }
    },
    {
      /*OD_INTRA_HU (3,0)*/
      {
        {-0.0105331139937738967  , 0.00248990728324786524 ,-0.0230320160833674681  ,-0.000459715176817990505,   -0.00620504973175719544 ,-0.00681016137887696139 , 0.00995635177160715361 ,-0.00551787649509202349 },
        { 0.0390716300482045406  ,-0.0300456972434578751  , 0.00393611371924184206 ,-0.00309446886833349881 ,   -0.0228930940592821167  , 0.0348651610028562972  , 0.0232930751490591018  ,-0.000820714510093297411},
        {-0.0723174484575790644  , 0.0458201831992123623  ,-0.0361244922975314728  , 0.00340049984316883333 ,    0.0253503019603231114  ,-0.107815736457917768   ,-0.00606761688749345943 ,-0.0233419150732309191  },
        { 0.0970118566571679386  ,-0.0512444027215589043  , 0.0826202102188329512  , 0.090498142257102232   ,    0.019728259678107516   , 0.214136954052212725   ,-0.0588343753629021193  , 0.0213113144233474383  },

        { 0.0134052850533479539  , 0.00429575267857012187 , 0.0027378192506594813  , 0.00898340345636335774 ,    0                      , 0                      , 0                      , 0                      },
        {-0.0124712922623361477  , 0.0163291410162753371  ,-0.0105429495212411815  ,-0.0420932293677846944  ,    0                      , 0                      , 0                      , 0                      },
        { 0.259948979299279459   ,-0.171827587982172514   , 0.162711989228822018   ,-0.0228669849561585203  ,    0                      , 0                      , 0                      , 0                      },
        {-0.390504846395480554   , 0.320759677649433417   ,-0.189788949862100237   , 0.112875467478550567   ,    0                      , 0                      , 0                      , 0                      }
      },
      /*OD_INTRA_HU (3,1)*/
      {
        { 0.000894810103466659075,-0.00866133362406026203 , 0.010403722046296561   ,-0.000111551880752106667,   -0.00145282509214032861 , 0.0122783006911850751  , 0.00151528389157016912 ,-0.0193003095973357137  },
        { 0.00706390099515169512 ,-0.0155410020324112195  , 0.0133755111294594879  , 0.00153816192967030658 ,   -0.0118431002114890872  ,-0.0606763289723209615  , 0.0623880328321982439  , 0.0250716914916005833  },
        {-0.0137371810202857065  , 0.0362517104384565275  ,-0.0187758060784478063  , 0.069812404906303957   ,    0.061299316277120347   , 0.0341277619845877719  ,-0.161133426448766687   ,-0.0335179197931654016  },
        { 0.0198147610470809886  , 0.0110662205690100109  , 0.00380313449090720866 ,-0.0419929424769252962  ,   -0.072637220319242371   ,-0.0557193766800755733  , 0.12082400855880418    , 0.0135179673308582996  },

        {-0.000211409529950427476, 0.00319102855834115223 , 0.00618824874936718065 ,-0.0391884485378689862  ,    0                      , 0                      , 0                      , 0                      },
        {-0.0211188277077742383  , 0.000836425490931065889, 0.0454590276638015822  ,-0.00602528793927156314 ,    0                      , 0                      , 0                      , 0                      },
        { 0.0348571429944908376  ,-0.0557880042814286256  , 0.0903658463020024089  ,-0.030418539719577229   ,    0                      , 0                      , 0                      , 0                      },
        { 0.00468856302464895711 ,-0.205037757038004503   , 0.378465127342181296   ,-0.168599343354841086   ,    0                      , 0                      , 0                      , 0                      }
      },
      /*OD_INTRA_HU (3,2)*/
      {
        { 0.000384632029747915272, 0.000213212069864924831,-0.00191563969200485512 , 0.00259952908850579574 ,   -0.00090109342407359563 , 0.00576617667360419632 , 0.0119606777328562022  ,-0.00587218039422279185 },
        {-0.00391350807692222163 ,-0.00324615147495583298 , 0.0221355299428660432  ,-0.0104870931108611686  ,    0.00328554266898451125 ,-0.0136221150249779249  ,-0.00305949996735541347 , 0.0162898041013986236  },
        {-0.00271122252704354347 , 0.00431327395700501978 ,-0.0461306253485540829  ,-0.00436168138728763866 ,   -0.00171543326840758255 , 0.0260789787572019462  ,-0.0451752391475031198  ,-0.0615924514214866298  },
        { 0.00776425958843282148 ,-0.021361846004432257   , 0.0214415634795066638  , 0.0203915714883694046  ,   -0.00615129032956929309 ,-0.0458081726039395662  , 0.0591039176958501958  , 0.088232921142419235   },

        { 0.00211980010077672271 , 0.00351212300230048296 ,-0.00301515677702450134 , 0.00483736427461178842 ,    0                      , 0                      , 0                      , 0                      },
        {-0.00146258968049458519 ,-0.0167222026192763509  , 0.0190633912932106735  ,-0.00762820914427087861 ,    0                      , 0                      , 0                      , 0                      },
        { 0.00343541321406258451 ,-0.00399446251220850548 , 0.0452195201202693145  ,-0.0395342211806767527  ,    0                      , 0                      , 0                      , 0                      },
        {-0.0120285802601328585  ,-0.0830392208399845927  , 0.243115757146108724   ,-0.135059379962384901   ,    0                      , 0                      , 0                      , 0                      }
      },
      /*OD_INTRA_HU (3,3)*/
      {
        {-0.00020380512362951547 ,-0.00325062789371024109 ,-0.0017809215181903231  ,-0.00153900593599347779 ,   -0.000694532664937919813,-0.00177864492773237271 , 0.00462098224558520673 , 0.0013423182122975798  },
        {-0.000138994852196046536,-0.000624208526957178208, 0.00185422126920835599 ,-0.00629631592342145933 ,    0.0035102920121699451  ,-0.000512025693472006535,-0.00884888740300433276 , 0.00275614230602641954 },
        {-0.000414426603471895088, 0.0016871334816912296  ,-0.0118202394811304113  ,-0.00286586562283085112 ,   -0.00100868019591905493 , 0.00365317754384664704 , 0.0138267286240971107  ,-0.0344131473651437189  },
        { 0.00151796369675294353 , 0.0037569249444193739  , 0.0132057896074726719  ,-0.00548404032839866495 ,    0.000734993313184407636, 0.00185776161443856479 ,-0.00501324314833399322 , 0.0773444987064717676  },

        { 0.000763040088085087278,-0.00107463188817093084 ,-0.00324409204137139509 , 0.00539278713531198429 ,    0                      , 0                      , 0                      , 0                      },
        { 0.00184196761177045473 ,-0.00536071400288379209 , 0.00256493187665047997 ,-0.0129627671100732526  ,    0                      , 0                      , 0                      , 0                      },
        { 0.00149735986427647328 ,-0.00661969516722274269 , 0.0338675806768823709  ,-0.0481094475990957518  ,    0                      , 0                      , 0                      , 0                      },
        {-0.0132115426474562845  ,-0.00706681853828013476 , 0.0322301054117581573  ,-0.00685709033926600042 ,    0                      , 0                      , 0                      , 0                      }
      }
    }
  },
  {
    {
      /*OD_INTRA_HE (0,0)*/
      {
        { 0.151523080970619284   ,-0.167191529862399768   , 0.180641329068077811   ,-0.151170349002669319   ,   -0.113936322113244781   , 0.0824378180019715717  ,-0.0188742448886393098  ,-0.0306068920643912772  },
        {-0.147108929144330852   , 0.103954726246787504   ,-0.151409484377513698   ,-0.0121049617151254042  ,    0.105191330748982501   , 0.00458042277568418421 , 0.0541742400588020936  ,-0.0289214803095294432  },
        { 0.00316217317530882985 , 0.109358925027080334   ,-0.0253796855771181613  , 0.0149942263669929927  ,    0.0515829373485119508  , 0.0228772561535647602  ,-0.0372062438509181692  , 0.0449023051908307783  },
        { 0.0468010805952037076  ,-0.123896144392454832   , 0.0932735657614496283  ,-0.0627255179901232696  ,   -0.0825374768578124862  ,-0.0834538578912403239  ,-0.00716571402584920743 , 0.0688158576307196651  },

        { 0.961951481744870884   ,-1.37496315354609355    , 1.2803436172408309     ,-0.623471853664629871   ,    0                      , 0                      , 0                      , 0                      },
        { 0.0659043964389115361  ,-0.263702203765155851   , 0.269486994837209171   ,-0.158106933529345295   ,    0                      , 0                      , 0                      , 0                      },
        { 0.030485564568974461   , 0.168463546420863447   ,-0.19489942829556467    , 0.0468013213254318688  ,    0                      , 0                      , 0                      , 0                      },
        { 0.017421094543257961   ,-0.197502699760837341   , 0.226288431132423556   ,-0.130155170563940215   ,    0                      , 0                      , 0                      , 0                      }
      },
      /*OD_INTRA_HE (0,1)*/
      {
        {-0.0082346921504891403  ,-0.0306278042643503591  , 0.0280278312937633466  ,-0.0135396191688511303  ,    0.000828024506212647984,-0.129215375806749966   , 0.0833429380227658084  ,-0.0264239458575179012  },
        { 0.00788968909366499424 , 0.0211853486955715618  ,-0.00765561480311208187 , 0.0881494053776747805  ,    0.00764225498997263102 , 0.0670865847892961747  ,-0.0769346887373596328  , 0.0442923640668585403  },
        {-0.00400139689383425569 ,-0.00193045649670864285 ,-0.0108489883902772033  ,-0.0408807311375906507  ,   -0.00708831517160652801 , 0.0504563116789028335  , 0.0610391276932292851  ,-0.0632522701213712596  },
        {-0.00653751742302800028 ,-0.0436780455638123913  , 0.0734085671881161417  ,-0.0241712195384300096  ,    0.00929289054959640815 ,-0.0938984227368806906  ,-0.0504116964467058587  , 0.105066190256884823   },

        {-0.00131259835262413443 ,-0.183788028137934628   , 0.420923101232362318   ,-0.374009483049769109   ,    0                      , 0                      , 0                      , 0                      },
        {-0.0104417270139337461  , 0.0317887412713206419  ,-0.0078267429405060613  , 0.0263065217963005631  ,    0                      , 0                      , 0                      , 0                      },
        {-0.000683509423961461537,-0.0644985231540337323  , 0.0182038333035904609  ,-0.0777420628892855209  ,    0                      , 0                      , 0                      , 0                      },
        { 0.00105097401283145366 , 0.0106299888318902441  ,-0.0131312762691123165  , 0.00587598306164516075 ,    0                      , 0                      , 0                      , 0                      }
      },
      /*OD_INTRA_HE (0,2)*/
      {
        { 0.00263884224147879418 , 0.00127901603036262496 , 0.00757887336667418567 ,-0.00880199412553799194 ,   -0.00353947692173927101 , 0.0145313274328396878  ,-0.110236869771306603   ,-0.00633580157089720999 },
        {-0.00506273991225878774 , 0.0118718465347555629  ,-0.0181308197306983034  , 0.0176279519375521672  ,    0.00403839473790332509 , 0.01606847886602163    , 0.0933999162980377884  ,-0.0119862573997149661  },
        { 0.00283615625156829945 , 0.000221039676735897378,-0.0113730900318996155  ,-0.00078590857201884677 ,   -0.00210399518742076424 ,-0.0159974038873607581  , 0.0476332841762398332  , 0.0606527047298186586  },
        { 0.00581584606031217838 ,-0.00369994966973799652 , 0.012151760065240734   ,-0.0112935096017122063  ,   -0.000657267414964294921,-0.00762482499202590466 ,-0.0693396230446074319  ,-0.0552403160831776707  },

        { 0.00172056640809631453 ,-0.054519178479401062   , 0.153576027315076191   ,-0.103974916021209493   ,    0                      , 0                      , 0                      , 0                      },
        {-0.00132212178658812221 ,-0.000400359312581243367, 0.0106692160428858169  , 0.0211101917384432097  ,    0                      , 0                      , 0                      , 0                      },
        { 0.00235180797454817092 ,-0.0015579265262198811  , 0.00489028378565461216 , 0.0196340969684457647  ,    0                      , 0                      , 0                      , 0                      },
        {-0.0036329697690071442  ,-0.00941011371121681754 ,-0.0308090194701596889  , 0.00754871415870784612 ,    0                      , 0                      , 0                      , 0                      }
      },
      /*OD_INTRA_HE (0,3)*/
      {
        {-0.000196288553555429605,-0.000169534653560134526, 0.00389332318394549487 ,-0.0205300369624953002  ,    0.00212360696090542608 ,-0.00615580044488529474 ,-0.00559209155093859378 ,-0.0752924779692506069  },
        {-0.000400241437567198368, 0.00273813261481293613 ,-0.00922385562372704006 ,-0.00974136161402758098 ,    0.000713648596149401757,-0.000302584676042303195, 0.0110462057379468667  , 0.0846830519822214245  },
        {-0.00065828059424207744 , 0.00639925919990685238 , 0.0123029598100472728  ,-0.0153069351632129994  ,    0.000778937005020393118,-0.00180438496135454894 ,-0.0166634960606591234  , 0.0281813515159887312  },
        {-0.000219877287937043561,-0.00353650951483667694 , 0.00132960789531306068 , 0.0126638518235801644  ,    0.000732248259937043149, 0.00855499089501760707 , 0.00972140370723723404 ,-0.0719253829110409609  },

        {-0.00234503284639862256 ,-0.00762112684782179344 , 0.0117054133573782776  , 0.0183776990692331547  ,    0                      , 0                      , 0                      , 0                      },
        { 0.00327789424518264236 ,-0.00150861353202318485 ,-0.00207616818809666691 ,-0.0283398824628515247  ,    0                      , 0                      , 0                      , 0                      },
        {-0.00361079907521617794 , 0.00788256874899937593 ,-0.0343860424107928636  , 0.0199540498853162974  ,    0                      , 0                      , 0                      , 0                      },
        { 0.000500318986897732619, 0.00847879084746670439 , 0.014268154039709777   ,-0.0181007995600831299  ,    0                      , 0                      , 0                      , 0                      }
      }
    },
    {
      /*OD_INTRA_HE (1,0)*/
      {
        { 0.120230795854563324   ,-0.150913184356239044   , 0.104550257592315621   ,-0.0844896755400691424  ,   -0.0592664243164811172  , 0.0154257212068103378  ,-0.0274590066300619134  ,-0.0104268098397713085  },
        {-0.149597535966126988   , 0.115616730995744793   ,-0.0860703027098462664  , 0.046834802518163958   ,    0.00118900452664934568 ,-0.072726832862115301   , 0.0324243960637151871  , 0.0321977063890522969  },
        { 0.0630829509766762109  ,-0.0413167551203006481  , 0.0237383513004375234  ,-0.0209223129079369255  ,    0.111391330452707424   , 0.136674916495267917   ,-0.0129005680614594515  ,-0.00543237764271140011 },
        {-0.0250501010461591546  ,-0.0481001055140186581  , 0.0527759895153513056  ,-0.0946233759524054835  ,   -0.0821291204221392956  ,-0.0766980888794648735  , 0.0369700317313476079  , 0.0418728987180007547  },

        {-0.0628412665764744166  , 0.0590151584736253801  ,-0.0900805025042671903  , 0.0294955566693293654  ,    0                      , 0                      , 0                      , 0                      },
        { 0.852937271432261057   ,-1.14327869495844703    , 0.770032382079042343   ,-0.285831423033396426   ,    0                      , 0                      , 0                      , 0                      },
        { 0.126789174272552929   ,-0.312056727773434406   , 0.318316053546324973   ,-0.184866293026341888   ,    0                      , 0                      , 0                      , 0                      },
        { 0.0411801329101678451  , 0.199863835986234417   ,-0.271950245909365895   , 0.171465644046822963   ,    0                      , 0                      , 0                      , 0                      }
      },
      /*OD_INTRA_HE (1,1)*/
      {
        {-0.00744431213378946629 ,-0.0160104010822222573  , 0.0506403023037744759  ,-0.0302201644694548889  ,   -0.00282347817753636748 ,-0.0868506621209888946  , 0.00298399139191678035 , 0.00871467719639553232 },
        { 0.0207254629883186561  ,-0.00727121068226278984 ,-0.0292289378957915243  , 0.0386331053849371664  ,    0.0051137370370661836  , 0.0102103884176886796  ,-0.0345178123637295831  ,-0.0129640525642163006  },
        {-0.0158730569476124989  , 0.0625999760796639715  ,-0.0229577179094002312  , 0.00558809623640338805 ,   -0.0154819939670473115  , 0.116817837538515309   , 0.0545858396170438506  , 0.020198288128883371   },
        { 0.018194102623943359   ,-0.0269714552036002045  , 0.0983196044846685324  , 0.0173680485090442691  ,    0.00122927184044432122 ,-0.0916635455896995244  ,-0.0602905113588450281  , 0.0282438133290507619  },

        { 0.0107960710983750468  ,-0.00815071346861165162 ,-0.000277451235436220172,-0.0479721126386008431  ,    0                      , 0                      , 0                      , 0                      },
        { 0.0190625645947618723  ,-0.179560876892987165   , 0.336724239268746783   ,-0.293156647274035731   ,    0                      , 0                      , 0                      , 0                      },
        {-0.0159208172805692348  , 0.0335653597496638617  , 0.0729834639668534568  ,-0.0726952306410153931  ,    0                      , 0                      , 0                      , 0                      },
        {-0.00694408190469532165 ,-0.0429651075646034566  , 0.0253719082543641394  ,-0.0626371867703156421  ,    0                      , 0                      , 0                      , 0                      }
      },
      /*OD_INTRA_HE (1,2)*/
      {
        { 0.00187911346286575719 ,-0.00907280649943130631 , 0.0242779112583399528  ,-0.0162437377947332318  ,   -0.00126364252513427649 ,-0.00988643591644972758 ,-0.0837419120384070292  ,-0.0157721459131032089  },
        {-0.00722872364327486333 , 0.00737846060233017607 ,-0.0270760525684204181  , 0.00513431808202288731 ,    0.00531337888923190046 , 0.0242273471266891971  , 0.0198438480546716325  ,-0.0379278870426865977  },
        { 0.00275135287585093246 ,-0.00155535657296773438 ,-0.0277861427095656734  ,-0.000910092725710718339,   -0.0032612876265599609  ,-0.0132876240998242006  , 0.11390666636325035    , 0.0243471255194232204  },
        {-0.00357071030394084249 , 0.00520008452499879249 ,-0.00338069799559942647 , 0.00191709737283015063 ,    0.00168924908320334383 , 0.0121234257506711574  ,-0.122656192079240764   ,-0.0424657362561017063  },

        {-0.000540434750972725963, 0.0026388908815946719  ,-0.0225115043022579703  , 0.00753580748650565114 ,    0                      , 0                      , 0                      , 0                      },
        { 0.00182187095983313676 ,-0.0650472676620520995  , 0.178031153328568309   ,-0.0937490770394336231  ,    0                      , 0                      , 0                      , 0                      },
        { 0.00423491025769304804 ,-0.0121497636840971635  , 0.0276015142285648031  ,-0.0135005135768007274  ,    0                      , 0                      , 0                      , 0                      },
        { 0.00372293613383979389 ,-0.0010420777663893144  , 0.0143839933393030243  ,-0.0372218346522241172  ,    0                      , 0                      , 0                      , 0                      }
      },
      /*OD_INTRA_HE (1,3)*/
      {
        { 5.64238064942606347E-05,-0.00294121217033464126 ,-0.00298871223270496698 ,-0.00645726642136741028 ,    0.00106749073368234246 , 0.000714867633561337723, 0.000538626496344294715,-0.0741505942537563356  },
        { 0.00105681743924194581 , 0.00120058898736158707 ,-0.0069979960722102762  , 0.00454743165501158338 ,   -0.00468383699892295675 , 0.00167471569148112693 , 0.0260543051485558584  , 0.0356196328103857568  },
        { 0.00250996546850660359 ,-0.0095266325282015174  , 0.00596266587985012485 ,-0.00463999859546292658 ,    0.00359068458791578834 , 0.00257195879106888016 ,-0.0196211909254360058  , 0.0862389207931122254  },
        { 0.0010346084952979537  , 0.0143283783679604686  ,-0.015401939184950305   ,-0.00470600942814402342 ,    0.000537352853162634996, 0.00847395677168832386 , 0.0173399826882510606  ,-0.0921546520321169516  },

        {-0.00117714551144910669 , 0.00703527386074495956 ,-0.00993364447174740345 , 0.0102458354957134842  ,    0                      , 0                      , 0                      , 0                      },
        {-0.00254482480217399975 , 0.000280322044798877719, 0.00859872742806983004 , 0.0238987178278432209  ,    0                      , 0                      , 0                      , 0                      },
        { 0.00120616180788406724 , 0.00522268700732005618 , 0.0147948183209363655  ,-0.00829367986970213147 ,    0                      , 0                      , 0                      , 0                      },
        { 0.000165099636533626548, 0.00319691890475252418 ,-0.00808099934215783348 , 0.000522915771909970612,    0                      , 0                      , 0                      , 0                      }
      }
    },
    {
      /*OD_INTRA_HE (2,0)*/
      {
        { 0.0446434882613614553  ,-0.0533338027415309751  , 0.0816376030893382343  ,-0.0147749577604088973  ,   -0.0239229146893705641  , 0.0257506964625606807  , 0.0180259438216448242  ,-0.00519367568685768707 },
        {-0.080941036392256957   , 0.0862129991599934059  ,-0.0816033254162599753  , 0.0258908985431143442  ,   -0.0249435404662278933  ,-0.0600864710630934495  , 0.0509655083284059063  ,-0.0116410265444116638  },
        { 0.186288626359798842   ,-0.1193622360725589     , 0.0653513260115051314  ,-0.0487867740977798031  ,    0.0758616692870214687  , 0.103032426099822411   , 0.0287594318197237492  , 0.00034726169169807243 },
        {-0.0844468870788584597  , 0.0363923107903948717  ,-0.123729450398201685   ,-0.048740727745612708   ,    0.121248940145072689   ,-0.111738361267338132   , 0.02339745867192888    , 0.00637457591121879351 },

        {-0.0159750621147911574  , 0.0323425068228840665  ,-0.0151224954610857491  , 0.0101159983031607458  ,    0                      , 0                      , 0                      , 0                      },
