const int OD_PRED_MULTS_8x8[OD_INTRA_NMODES][8][8]={
/* Mode 0 */
  {
    {  25,   6,   8,   4,   1,  10,  11,   1   },
    {   9,   5,   4,   2,   2,   2,   2,   2   },
    {   8,   5,   4,   4,   2,   1,   2,   1   },
    {   5,   3,   3,   3,   3,   4,   3,   1   },
    {   2,   1,   2,   8,   4,   2,   1,   0   },
    {   7,   1,   2,   6,   4,   9,   9,   0   },
    {   8,   3,   1,   2,   2,  11,  10,   2   },
    {   2,   1,   2,   2,   2,   2,   2,   0   }
  },
/* Mode 1 */
  {
    {  15,  12,   8,   5,   5,  10,   9,   5   },
    {  12,   5,   4,   4,   4,   2,   3,   2   },
    {  11,   4,   2,   1,   0,   0,   1,   0   },
    {   5,   4,   3,   4,   1,   0,   2,   0   },
    {   5,   2,   0,   0,   0,   4,   5,   0   },
    {   9,   0,   0,   0,   3,  15,  11,   2   },
    {   9,   2,   0,   2,   3,  12,  11,   4   },
    {   6,   2,   0,   0,   0,   2,   4,   0   }
  },
/* Mode 2 */
  {
    {  20,  13,   4,   1,   4,   4,   1,   2   },
    {  20,  15,   4,   3,   2,   2,   0,   2   },
    {  13,  10,   5,   2,   3,   2,   1,   0   },
    {  13,  12,   6,   3,   2,   1,   0,   0   },
    {   9,  10,   7,   3,   1,   2,   1,   0   },
    {   5,   6,   4,   2,   2,   2,   0,   0   },
    {   5,   4,   4,   2,   3,   2,   0,   0   },
    {   4,   2,   2,   1,   1,   2,   0,   0   }
  },
/* Mode 3 */
  {
    {  16,   7,   2,   5,   5,   6,   2,   3   },
    {  12,   6,   4,   4,   7,   4,   2,   0   },
    {   9,   6,   4,   6,   4,   6,   3,   2   },
    {  10,   8,   4,   7,   3,   2,   2,   0   },
    {   8,   6,   4,   4,   3,   2,   1,   0   },
    {   5,   6,   3,   3,   3,   3,   2,   0   },
    {   5,   4,   3,   3,   3,   6,   4,   0   },
    {   4,   5,   2,   0,   2,   0,   1,   0   }
  },
/* Mode 4 */
  {
    {  16,   8,   2,   2,   1,   3,   0,   2   },
    {  19,   8,   3,   2,   0,   1,   2,   0   },
    {  13,  10,   7,   1,   1,   1,   0,   0   },
    {  13,  19,   8,   2,   3,   0,   0,   0   },
    {   7,  12,   8,   4,   2,   2,   1,   0   },
    {   5,   7,   5,   3,   2,   2,   0,   0   },
    {   6,   7,   3,   6,   2,   2,   0,   0   },
    {   4,   3,   3,   6,   4,   2,   1,   0   }
  },
/* Mode 5 */
  {
    {  19,   9,   6,   1,   1,   2,   1,   3   },
    {  10,  16,  13,   4,   2,   1,   0,   0   },
    {   9,  15,   9,   5,   2,   2,   1,   0   },
    {   3,   6,   6,  14,   7,   2,   2,   0   },
    {   1,   2,   6,   6,   7,   4,   1,   2   },
    {   1,   0,   3,   5,   7,   8,   3,   2   },
    {   0,   0,   1,   3,   5,   3,   3,   1   },
    {   4,   0,   0,   2,   2,   2,   1,   0   }
  },
/* Mode 6 */
  {
    {  22,  19,  15,  11,   7,   6,   3,   3   },
    {   8,  12,  12,  14,   8,   5,   4,   1   },
    {   4,   5,   9,   9,   6,   4,   3,   2   },
    {   1,   2,   3,   3,   4,   4,   3,   2   },
    {   1,   2,   2,   1,   3,   1,   2,   1   },
    {   2,   0,   1,   2,   3,   2,   1,   2   },
    {   1,   2,   1,   1,   1,   1,   0,   0   },
    {   3,   0,   1,   4,   0,   1,   0,   0   }
  },
/* Mode 7 */
  {
    {  14,  12,   9,   9,   8,   5,   6,   6   },
    {   6,  10,   8,   8,   5,   4,   5,   4   },
    {   4,   5,   4,   7,   4,   4,   3,   1   },
    {   4,   6,   4,   7,   3,   5,   4,   1   },
    {   5,   4,   3,   3,   3,   2,   2,   1   },
    {   4,   4,   2,   2,   3,   0,   2,   0   },
    {   3,   0,   2,   1,   2,   2,   1,   1   },
    {   9,   2,   1,   2,   1,   2,   2,   0   }
  },
/* Mode 8 */
  {
    {  15,  16,  12,   6,   8,   6,   3,   5   },
    {   8,   8,  10,  17,  15,   9,   8,   5   },
    {   3,   6,   7,   6,   7,  15,   9,   5   },
    {   1,   1,   2,   2,   1,   1,   4,   5   },
    {   3,   2,   1,   1,   2,   3,   2,   2   },
    {   2,   0,   0,   1,   1,   1,   1,   1   },
    {   0,   0,   1,   1,   0,   0,   0,   0   },
    {   4,   0,   1,   0,   0,   0,   0,   0   }
  },
/* Mode 9 */
  {
    {  26,  14,  13,   4,   1,   0,   1,   2   },
    {  19,  17,  17,   6,   2,   2,   0,   0   },
    {  13,  11,  10,   7,   3,   1,   1,   0   },
    {   3,   3,   5,   6,   8,   2,   0,   0   },
    {   1,   3,   2,   2,   6,   5,   5,   1   },
    {   1,   2,   1,   1,   4,   2,   6,   3   },
    {   0,   0,   0,   2,   2,   3,   2,   2   },
    {   1,   0,   0,   0,   1,   1,   0,   0   }
  }
};
const double OD_PRED_WEIGHTS_8x8[]={
/* Mode 0 (0 0) */
  -0.138228454705785014   , 0.139192521495677735   , 0.167663313841293987   ,-0.0713770971033509671  , 0.286803186426573098   , 0.239542292835610376   , 0.478929730415048438   , 0.0726756201857784584  ,
  -0.783633530694874514   , 0.384238205402042898   ,-0.34986906799078632    ,-0.371344979233961592   , 0.331250742757201511   , 0.722777583734270257   , 0.161712761102641656   ,-0.407725760331136056   ,
   0.188848932353857246   , 0.431810388523348299   ,-0.852315215088804257   , 0.648110979239039597   , 0.351868127668487907   , 0.348240537595215227   , 0.503349047952524886   ,-0.141733395543429785   ,
  -0.865766292955741479   ,
/* Mode 0 (1 0) */
   0.0935618859969886835  ,-0.239354439225863191   ,-0.0697602145959177466  , 0.0920793258140412546  ,-0.078759673212728129   , 0.179946839669669761   ,
/* Mode 0 (2 0) */
  -0.122364927000513074   ,-0.103348099189366827   ,-0.028536882877619546   , 0.0643847339211492259  ,-0.146926420033582805   ,-0.0827463312226115327  , 0.0504606905540344111  ,-0.123412190290299165   ,
/* Mode 0 (3 0) */
  -0.0269260596953701629  , 0.0307995443841774554  ,-0.115364930558340198   ,-0.13420206880326005    ,
/* Mode 0 (4 0) */
   0.0959561413568084387  ,
/* Mode 0 (5 0) */
   0.10427113241405829    ,-0.111897216329991209   ,-0.0799922834209891714  , 0.134039400062987674   ,-0.129710309560995191   , 0.110978806496174545   ,-0.0963324879537604956  , 0.132061918747460816   ,
  -0.11127236791763688    , 0.0990391199267888073  ,
/* Mode 0 (6 0) */
   0.0895153613832996853  ,-0.102987988305771494   , 0.128640443949872979   ,-0.102161761385435548   , 0.0913794666607102707  ,-0.107340795908879516   , 0.125864434721716018   , 0.127691993497794171   ,
  -0.171684016457783833   , 0.106278878651509062   ,-0.188973398413179172   ,
/* Mode 0 (7 0) */
  -0.101140253382175929   ,
/* Mode 0 (0 1) */
  -0.0853819611364896452  , 0.076803666262419315   , 0.0617646383643245533  , 0.129654560442540645   ,-0.0647819639596963759  , 0.0712535721412848322  , 0.205452154299226974   ,-0.230743583930005131   ,
  -0.0669764569120634978  ,
/* Mode 0 (1 1) */
   0.0383877798951509641  ,-0.0318909494551544298  , 0.105989284099347214   ,-0.10125430106655374    , 0.118364827568770453   ,
/* Mode 0 (2 1) */
   0.0429066286706905123  ,-0.139425292493511543   ,-0.040626694334607874   , 0.109403142232666548   ,
/* Mode 0 (3 1) */
  -0.129232886598395547   , 0.0913756118089970315  ,
/* Mode 0 (4 1) */
   0.119544288086074937   ,-0.0783688079179573477  ,
/* Mode 0 (5 1) */
   0.0611214484515201356  ,-0.0939576728107865411  ,
/* Mode 0 (6 1) */
  -0.0855949189899661844  , 0.100702989681940663   ,
/* Mode 0 (7 1) */
  -0.0685335927231652819  , 0.0798792131425472979  ,
/* Mode 0 (0 2) */
  -0.0760843904386232506  , 0.0603935650684177261  , 0.0955809575624273211  ,-0.129388350809742037   ,-0.0413446394785537685  , 0.0581733680702932049  ,-0.0830870104989086256  ,-0.142671276116900364   ,
/* Mode 0 (1 2) */
   0.0435300783620045234  ,-0.0423941796529113055  ,-0.147718135228709996   , 0.0915261832854866314  ,-0.117248793216686548   ,
/* Mode 0 (2 2) */
  -0.104335543610191955   , 0.122739823586111574   ,-0.0767013947117750061  , 0.159195381205996522   ,
/* Mode 0 (3 2) */
  -0.0842411011221216588  ,-0.0733371989598063934  ,-0.0858174182128723512  , 0.0991103878262348803  ,
/* Mode 0 (4 2) */
  -0.102747455579599634   ,-0.129559132769524299   ,
/* Mode 0 (5 2) */
  -0.0991798843805648256  ,
/* Mode 0 (6 2) */
  -0.0857217527546959013  , 0.0910506730641486989  ,
/* Mode 0 (7 2) */
   0.0837866689543979304  ,
/* Mode 0 (0 3) */
  -0.0367406552890143442  , 0.0413860935478663414  ,-0.120288403195670843   ,-0.158568881870485956   , 0.0878732430584904661  ,
/* Mode 0 (1 3) */
  -0.113087836089357935   , 0.096080555763082276   , 0.0560217593953873036  ,
/* Mode 0 (2 3) */
   0.134616348670570846   ,-0.0995597789356621882  ,-0.0912310262206905698  ,
/* Mode 0 (3 3) */
  -0.0636529573932857473  ,-0.0792572900231282573  ,-0.0816097229578112565  ,
/* Mode 0 (4 3) */
  -0.0873127886203694248  , 0.0994036915006179522  , 0.0800977293333716839  ,
/* Mode 0 (5 3) */
  -0.0761053318949541646  , 0.0778118388626793944  , 0.0676767328963156778  , 0.0758711656036780147  ,
/* Mode 0 (6 3) */
  -0.0818605575605987762  ,-0.0758694994719251586  ,-0.0976596239239750086  ,
/* Mode 0 (7 3) */
  -0.0709429644059543368  ,
/* Mode 0 (0 4) */
  -0.0618566602810158295  , 0.0974795678107768515  ,
/* Mode 0 (1 4) */
   0.0702030230812805828  ,
/* Mode 0 (2 4) */
  -0.189199505064720136   , 0.103470660030016967   ,
/* Mode 0 (3 4) */
   0.150648104021670642   , 0.15972942144450028    ,-0.125026064098036405   ,-0.138607452943423609   ,-0.157592323167147441   , 0.157260744127898644   ,-0.184522324115667019   , 0.159652065688548422   ,
/* Mode 0 (4 4) */
   0.0608813023861851793  , 0.107077048279194495   ,-0.076455646968977331   , 0.122684841060668764   ,
/* Mode 0 (5 4) */
   0.0692271067287698189  , 0.0889825062690930702  ,
/* Mode 0 (6 4) */
  -0.114279536897856859   ,
/* Mode 0 (7 4) */
/* Mode 0 (0 5) */
  -0.11175537922032093    , 0.0908191882460972905  , 0.0845238933439155238  , 0.101776243756948506   ,-0.108601655446672399   , 0.14014412292073905    ,-0.115811902776078571   ,
/* Mode 0 (1 5) */
   0.0731199181744369847  ,
/* Mode 0 (2 5) */
  -0.135473452663064375   , 0.0978299110114574932  ,
/* Mode 0 (3 5) */
   0.173479925248323397   , 0.0904309916512820305  ,-0.100252569231143174   ,-0.102715782416149606   ,-0.080966051774321729   ,-0.154102617785916857   ,
/* Mode 0 (4 5) */
   0.112120410504942203   ,-0.0648761622391503673  , 0.132213593305705146   ,-0.140632586865963222   ,
/* Mode 0 (5 5) */
   0.0866330386992842233  ,-0.0981527783875181664  ,-0.0882602322740367456  , 0.0754985460123975965  ,-0.10460961273105604    ,-0.0823378968748812029  , 0.083000057642846764   ,-0.103394564787857232   ,
   0.07730861483879653    ,
/* Mode 0 (6 5) */
  -0.107029088268824082   ,-0.0782085803235179483  , 0.0902611874932066766  ,-0.0924331938723147312  , 0.0916242815057133897  , 0.106383107341863403   ,-0.186486526734677499   ,-0.11746374830301054    ,
   0.154356057185512069   ,
/* Mode 0 (7 5) */
/* Mode 0 (0 6) */
   0.15667348310195342    , 0.206530001605638641   ,-0.205609451290379913   ,-0.237705360517572573   , 0.150565942521832946   , 0.121693837084241377   ,-0.159567098535022545   ,-0.124254565100493986   ,
/* Mode 0 (1 6) */
   0.0912362773617010209  , 0.0737924255903665005  ,-0.0829133660214738805  ,
/* Mode 0 (2 6) */
   0.150662002371452608   ,
/* Mode 0 (3 6) */
  -0.0874592200792500551  , 0.0787418391944081919  ,
/* Mode 0 (4 6) */
  -0.107453621822173981   ,-0.117821054579255013   ,
/* Mode 0 (5 6) */
   0.0985289475608910198  ,-0.100808719782752118   ,-0.0997573291397244738  , 0.087471568254394047   , 0.111077758957304859   ,-0.110470360077177324   ,-0.15488557105060155    , 0.144055812976798231   ,
   0.10832862255270985    ,-0.0872346582621032346  , 0.0752319033582089791  ,
/* Mode 0 (6 6) */
   0.0983334099336744955  ,-0.101112261481940524   ,-0.159339243865757846   , 0.191125986038936491   , 0.109667258787126534   ,-0.105829914038488029   , 0.127960584830581647   ,-0.137405487029951839   ,
  -0.116716011227600169   , 0.164974440823591584   ,
/* Mode 0 (7 6) */
  -0.0933663407573017273  ,-0.0806693050953675161  ,
/* Mode 0 (0 7) */
  -0.0810774818782689644  ,-0.119303402014541246   ,
/* Mode 0 (1 7) */
   0.0845821646267965466  ,
/* Mode 0 (2 7) */
   0.0962788341985466173  ,-0.100704804808756251   ,
/* Mode 0 (3 7) */
  -0.156358332175813436   ,-0.100957269246396877   ,
/* Mode 0 (4 7) */
  -0.0795135004785531563  , 0.106115295583105382   ,
/* Mode 0 (5 7) */
   0.084370744865000763   , 0.0786550497100393237  ,
/* Mode 0 (6 7) */
  -0.0987444624460935005  ,-0.0944453096727997515  ,
/* Mode 0 (7 7) */
/* Mode 1 (0 0) */
  -0.21267173180394397    ,-0.189323062992768631   ,-0.72362076828487365    ,-0.394564991074976723   , 0.271933083846090717   , 0.105770329698576485   , 0.252190869218040625   , 0.567877580063104404   ,
   0.134499705477814285   , 0.80131313313710073    ,-0.330201629269325003   , 0.223745327764190705   , 0.472600228352010876   , 0.678656511491609438   , 0.363620654281536559   ,
/* Mode 1 (1 0) */
  -0.0939812054410787828  , 0.085331398641259909   , 0.225198411898758138   ,-0.179464881099838741   , 0.445919292025617309   ,-0.428903917922631106   , 0.171579978260908012   ,-0.126886411392197557   ,
   0.090638941388531763   ,-0.134016163039637926   , 0.244394246931750964   ,-0.261747979553528021   ,
/* Mode 1 (2 0) */
  -0.0360806054661743439  , 0.215970773244147873   ,-0.155170954531146404   , 0.219567373374966346   ,-0.425430633314622164   , 0.0314062878037147525  ,-0.141766402052621004   ,-0.262325684941992987   ,
/* Mode 1 (3 0) */
   0.166455447579019006   , 0.149872734874443747   , 0.284337437009845151   , 0.29068675468786892    ,-0.106238730311313784   ,
/* Mode 1 (4 0) */
   0.178698161334332001   , 0.150603209198919424   , 0.275979100255395959   , 0.246024239975464798   , 0.120819977711697127   ,
/* Mode 1 (5 0) */
   0.121569468859019203   ,-0.197056510485381281   , 0.204359094216298748   ,-0.23574274232821063    , 0.394929703649865071   ,-0.342406436079687182   , 0.130694593211305971   , 0.172634763061780772   ,
  -0.152568226075781993   , 0.11808917345447989    ,
/* Mode 1 (6 0) */
   0.216451775045446659   ,-0.192746494832941068   , 0.288885493882430955   ,-0.233960869038813524   , 0.123257190224574459   ,-0.155205355197340189   ,-0.251972056809169009   , 0.202795277594702394   ,
  -0.322711925190257432   ,
/* Mode 1 (7 0) */
   0.164751283228575351   , 0.158989236371169046   , 0.23277916935975923    , 0.231982122101266841   ,-0.0857037257450350559  ,
/* Mode 1 (0 1) */
  -0.157344534246378343   ,-0.0861634831563115877  , 0.260860400412195215   , 0.252939664992687774   ,-0.194917005728463183   ,-0.196171180799972644   ,-0.071639136725307126   , 0.391437093318018459   ,
   0.341111883535993032   ,-0.30326669958980057    ,-0.479887034499313303   ,-0.279738232158451006   ,
/* Mode 1 (1 1) */
   0.0871222806735245381  ,-0.190212055794562573   , 0.0647258334508932359  , 0.062764112416718143   ,-0.107139924886953924   ,
/* Mode 1 (2 1) */
   0.153703209094681853   ,-0.123700469569521812   ,-0.136023880740988756   , 0.211054309937931367   ,
/* Mode 1 (3 1) */
   0.116291501738168393   , 0.1548402159302949     ,-0.116851682343854485   , 0.0845660281649830842  ,
/* Mode 1 (4 1) */
   0.114082244493408411   , 0.124691917655025186   , 0.106348228446124543   ,-0.113481945206863971   ,
/* Mode 1 (5 1) */
  -0.0866652331452762714  , 0.0774551995027161627  ,
/* Mode 1 (6 1) */
   0.081423030471265978   ,-0.0870436312494845682  , 0.166955165348573242   ,
/* Mode 1 (7 1) */
   0.0808396358873620102  , 0.0918040031871765333  ,
/* Mode 1 (0 2) */
   0.0684668664154535339  , 0.197554451429337335   ,-0.0701460402554637402  ,-0.172488596208804967   ,-0.19723548150855616    ,-0.0672559925815526261  , 0.183564497050556857   , 0.560043274000124325   ,
   0.0383229497428812863  ,-0.277373080268739358   ,-0.334601781693472322   ,
/* Mode 1 (1 2) */
   0.016209277620546178   ,-0.128494356590433456   , 0.172920643545998287   ,-0.118821938408003966   ,
/* Mode 1 (2 2) */
   0.151764622333134924   , 0.149120522498533747   ,
/* Mode 1 (3 2) */
   0.117045995399539957   ,
/* Mode 1 (4 2) */
/* Mode 1 (5 2) */
/* Mode 1 (6 2) */
  -0.146485732013367287   ,
/* Mode 1 (7 2) */
/* Mode 1 (0 3) */
  -0.130003176509350227   , 0.161866211365033597   , 0.26418712500672209    , 0.206177538925715359   , 0.381895359560671721   ,
/* Mode 1 (1 3) */
  -0.088460977113986497   , 0.0998293398731285447  , 0.0962089849718227447  , 0.0761819281310367191  ,
/* Mode 1 (2 3) */
   0.136081325628426952   ,-0.113434054219907987   ,-0.139049138486962959   ,
/* Mode 1 (3 3) */
  -0.09783323772437863    ,-0.110536466467901745   ,-0.0997442219051641321  ,-0.0995898936595887296  ,
/* Mode 1 (4 3) */
  -0.129432974167470599   ,
/* Mode 1 (5 3) */
/* Mode 1 (6 3) */
  -0.148179605297202616   ,-0.164050434277817819   ,
/* Mode 1 (7 3) */
/* Mode 1 (0 4) */
   0.120750119287961602   , 0.175027997992139056   , 0.389972288648112231   , 0.150141841817617028   , 0.275923329177358456   ,
/* Mode 1 (1 4) */
   0.0799978943989284874  , 0.0906703928442359752  ,
/* Mode 1 (2 4) */
/* Mode 1 (3 4) */
/* Mode 1 (4 4) */
/* Mode 1 (5 4) */
   0.144924327751330767   ,-0.132723060120875758   ,-0.114432225020123013   , 0.10224632440073729    ,
/* Mode 1 (6 4) */
   0.120640505675919552   ,-0.11392048393963547    , 0.143896213981394738   ,-0.19788274556076707    ,-0.202674395906821042   ,
/* Mode 1 (7 4) */
/* Mode 1 (0 5) */
   0.155192407429685458   ,-0.178340910673116609   , 0.156893936094924302   ,-0.171772699814801005   , 0.233204267754377775   , 0.368693081859542526   , 0.103803704199436395   ,-0.201534011574673405   ,
  -0.402022483475764747   ,
/* Mode 1 (1 5) */
/* Mode 1 (2 5) */
/* Mode 1 (3 5) */
/* Mode 1 (4 5) */
   0.129402114364969123   ,-0.146868427929732898   ,-0.131630491765081681   ,
/* Mode 1 (5 5) */
  -0.118690409566624883   ,-0.118099259900932035   , 0.183385623425049965   , 0.154331164056325715   ,-0.131961384058692927   ,-0.148811810411444451   , 0.120187785016427809   , 0.132242665206584786   ,
  -0.116724778913524882   ,-0.114773931667600179   , 0.129099374600414013   , 0.124556988109683145   ,-0.124831289745102297   ,-0.154740865269415495   , 0.099002964179683392   ,
/* Mode 1 (6 5) */
   0.129752773039993746   ,-0.160576542317369952   , 0.139661401312957761   ,-0.140463439587079325   ,-0.146437378531558221   , 0.179489242762855467   , 0.162213341647025749   ,-0.311427235149752957   ,
  -0.182926584639933082   , 0.296300225789087657   , 0.114868045495162441   ,
/* Mode 1 (7 5) */
  -0.068100818095989793   , 0.0721645351061330209  ,
/* Mode 1 (0 6) */
  -0.0871894241427343258  , 0.211678307086831607   ,-0.175304333703782927   ,-0.218262333120570695   , 0.166056002394962487   , 0.210780461347155557   , 0.416014067039506719   ,-0.185591940663859561   ,
  -0.315222634647734756   ,
/* Mode 1 (1 6) */
   0.102380492024272143   ,-0.0884103764566632616  ,
/* Mode 1 (2 6) */
/* Mode 1 (3 6) */
  -0.122939385526941655   ,-0.141826132995388848   ,
/* Mode 1 (4 6) */
  -0.181903890945006336   ,-0.115458750016598721   , 0.146665226212909006   ,
/* Mode 1 (5 6) */
   0.142984609503245347   ,-0.161412182557641115   , 0.199113741439777947   ,-0.148733991498366719   ,-0.212711376231960653   , 0.27601291331616612    , 0.12145205811029583    ,-0.111860624311742929   ,
  -0.139871417384234531   ,-0.146570568390469891   , 0.122829326588768523   , 0.155243423122051416   ,
/* Mode 1 (6 6) */
   0.139987350970563168   ,-0.101216572379832961   , 0.150680133972596719   ,-0.195056412405638674   , 0.274626775923368205   , 0.141802066119599363   ,-0.131934117790959676   , 0.167995291701860949   ,
  -0.275492515285995831   ,-0.154324529944973615   , 0.247527899712618543   ,
/* Mode 1 (7 6) */
  -0.081161368386038546   ,-0.100873636882203951   ,-0.0930807992213168317  , 0.109900041150359437   ,
/* Mode 1 (0 7) */
   0.110970110184180681   , 0.278065556297099892   , 0.366199852542750781   , 0.417014238839194362   , 0.255776711974655901   , 0.387226790987737934   ,
/* Mode 1 (1 7) */
  -0.0881506495958177816  , 0.0829479922967142902  ,
/* Mode 1 (2 7) */
/* Mode 1 (3 7) */
/* Mode 1 (4 7) */
/* Mode 1 (5 7) */
  -0.0910994201109429219  , 0.0685745959590967347  ,
/* Mode 1 (6 7) */
   0.0885675673919620876  ,-0.093632167164439617   , 0.111418813260547866   ,-0.129460608641283254   ,
/* Mode 1 (7 7) */
/* Mode 2 (0 0) */
  -0.147751866257719383   , 0.114102469979207963   ,-0.120417280287084386   ,-0.0994529296880848346  , 0.0939282942774884444  , 0.189057001452105716   , 0.132117536024970283   , 0.232706223068589624   ,
  -0.285331863649673723   , 0.206011730517718206   ,-0.489259970227057028   , 0.516490050021377489   , 1.9988666725549058     ,-2.4149811197743678     , 1.79141166680245889    , 1.23713077527054627    ,
   0.474256438469096375   ,-0.532718147064969227   , 1.08963494407310324    ,-0.538811726349415099   ,
/* Mode 2 (1 0) */
   0.0880574198473379477  ,-0.16029587250820207    ,-0.115399993731666331   ,-0.105826174594253627   , 0.264784574809489082   ,-0.376708844160741019   ,-0.134843024458450728   ,-0.107382693218756764   ,
  -0.247974085289594109   ,-0.761582801042392066   ,-0.152651365979353248   , 0.220962111231398195   ,-0.303689064229129002   ,
/* Mode 2 (2 0) */
  -0.0321795894399905316  , 0.0577692233104634412  ,-0.183012810048903518   ,-0.0263561454130086907  ,
/* Mode 2 (3 0) */
  -0.073432340953905037   ,
/* Mode 2 (4 0) */
   0.140586914967883503   , 0.0169590327710473811  ,-0.0181588536800308155  , 0.128505836566444931   ,
/* Mode 2 (5 0) */
   0.105904412805682357   ,-0.110757939483130244   , 0.109474863261229849   ,-0.112501923017341451   ,
/* Mode 2 (6 0) */
  -0.0949957616964595963  ,
/* Mode 2 (7 0) */
   0.00597032453674360957 ,-0.00699080304104451791 ,
/* Mode 2 (0 1) */
  -0.0716148099614143663  , 0.140531391176674736   ,-0.27571790468545998    ,-0.352600154304230196   ,-0.105782347194184695   , 0.219536609590725657   ,-0.326880241281860273   ,-0.14155252262372231    ,
   0.484075601106506326   ,-0.401293165985453171   ,-0.555590515238786664   ,-0.641521113035265156   , 0.599916845256401321   ,-0.469440933603555044   ,-0.712344257427668714   ,-0.35709124358493427    ,
   1.24929293733291336    ,-1.44165017391481487    ,-0.260633495850123575   , 0.459716212462548957   ,
/* Mode 2 (1 1) */
   0.0711022722874876667  ,-0.139127749526370692   , 0.214578985673237937   , 0.181959972814096288   ,-0.0880323969399564865  , 0.13836346180807918    ,-0.0537362688045531917  , 0.16806634317628899    ,
  -0.287342742671323592   ,-0.173923841404478308   , 0.219880672541659966   , 0.052135484455180181   ,-0.154371117152573761   , 0.309090806101201654   ,-0.139120004139857451   ,
/* Mode 2 (2 1) */
   0.0556930509198364579  ,-0.14279584612528945    , 0.126592120416599202   ,-0.0749420365838882607  ,
/* Mode 2 (3 1) */
  -0.0833515294946082924  , 0.10392191879866966    , 0.0653909402668360895  ,
/* Mode 2 (4 1) */
   0.112686580449949156   ,-0.118337931587186154   ,
/* Mode 2 (5 1) */
   0.0853946755254733625  ,-0.0835126917392595286  ,
/* Mode 2 (6 1) */
/* Mode 2 (7 1) */
  -0.00667707547178336171 , 0.00667075568602268354 ,
/* Mode 2 (0 2) */
  -0.0890537381058494754  , 0.212966117442282166   , 0.0491008619234266502  , 0.160312154687160868   ,-0.394284922862051246   ,-0.263243087951496868   ,-0.188666949226729413   ,-0.265573377226244078   ,
  -0.119780158042109286   , 0.212704230062715188   ,-0.585853681945837645   , 0.438507995561290664   , 0.193565544142076551   ,
/* Mode 2 (1 2) */
  -0.0724695869170993434  , 0.0339510414223279794  ,-0.166835044129613808   , 0.21512736703026461    , 0.170032885686196428   ,-0.0384323121386565547  , 0.134361520079293056   , 0.0753261323089446516  ,
  -0.354719543800881831   , 0.461391288934845878   ,
/* Mode 2 (2 2) */
   0.0529011629312187912  , 0.130854445924612733   , 0.0693301344162469829  ,-0.199787592501626476   , 0.144596614896223941   ,
/* Mode 2 (3 2) */
  -0.077418052694864764   ,-0.0828803707693679809  ,
/* Mode 2 (4 2) */
  -0.0923273733542343128  , 0.106561748789730001   ,-0.114579335921495426   ,
/* Mode 2 (5 2) */
  -0.109565940434712683   , 0.109222860813701944   ,
/* Mode 2 (6 2) */
   0.110430878763257079   ,
/* Mode 2 (7 2) */
/* Mode 2 (0 3) */
  -0.11890130567880533    , 0.166686000031892934   , 0.0564974916721596512  ,-0.0876842410460737243  ,-0.263200326152832287   , 0.206291440743516158   ,-0.0220685341098108348  , 0.242723025906261353   ,
  -0.0331538122637884472  , 0.101517634808266019   ,-0.142248351026943776   ,-0.160662995705726008   ,-0.255554830572338521   ,
/* Mode 2 (1 3) */
   0.0694524562801402123  ,-0.144034935402539754   , 0.0856180505039765005  , 0.150022279982541917   , 0.0735872776197123157  ,-0.102621815247875128   , 0.165142601103638653   ,-0.170877741278791573   ,
  -0.171411587028786894   , 0.0935564240296441751  ,-0.180513171718839238   , 0.227654215132153781   ,
/* Mode 2 (2 3) */
   0.150833454004739131   ,-0.0702480461990546007  , 0.0635856283319060633  ,-0.191803493992794172   , 0.0635402633445427273  ,-0.164557642534399529   ,
/* Mode 2 (3 3) */
  -0.0741287045151215185  ,-0.0932203169143358962  ,-0.0691647238318352647  ,
/* Mode 2 (4 3) */
  -0.0879682731230634618  , 0.133315488162942641   ,
/* Mode 2 (5 3) */
   0.104494945191034361   ,
/* Mode 2 (6 3) */
/* Mode 2 (7 3) */
/* Mode 2 (0 4) */
  -0.0723205017015702695  , 0.0204130086099599747  ,-0.107505338835483036   , 0.27814265202715327    , 0.157065629644179999   , 0.0880464551215022623  ,-0.182869140286256726   ,-0.0208525985924570348  ,
   0.086631973132079626   ,
/* Mode 2 (1 4) */
  -0.0546518075751974142  ,-0.0943925777364479773  , 0.0476828824703161985  , 0.195382871638679401   ,-0.20734440561581266    , 0.139811010406964753   ,-0.101739472441955955   ,-0.0888547859591494738  ,
   0.18983215999699557    ,-0.184599345554249866   ,
/* Mode 2 (2 4) */
   0.0695440337810997178  , 0.0973199458249079247  , 0.0871903342248498692  ,-0.0932519931820273429  ,-0.15704356657057239    , 0.105656908543030975   ,-0.227321552333778876   ,
/* Mode 2 (3 4) */
   0.127755789178193219   ,-0.142278497046758184   , 0.11038086489949446    ,
/* Mode 2 (4 4) */
   0.108354300814694493   ,
/* Mode 2 (5 4) */
   0.0881099301632419091  ,-0.106245539439097175   ,
/* Mode 2 (6 4) */
  -0.104713411001936332   ,
/* Mode 2 (7 4) */
/* Mode 2 (0 5) */
   0.191620280144790101   ,-0.143196910975521813   , 0.0765351847058128032  ,-0.10818161140461495    , 0.154478023131263381   ,
/* Mode 2 (1 5) */
   0.138611014831664603   ,-0.13156038913984916    ,-0.090616562614494342   ,-0.103750295222354239   , 0.0701492698273194909  , 0.114897968199073067   ,
/* Mode 2 (2 5) */
  -0.0576377626096939502  ,-0.146229013299909033   , 0.0624579578353408812  ,-0.146725922927739311   ,
/* Mode 2 (3 5) */
   0.0816246333128355511  ,-0.0678507757622858476  ,
/* Mode 2 (4 5) */
   0.128633706269470349   ,-0.126462622462486823   ,
/* Mode 2 (5 5) */
   0.0882735462757338468  ,-0.103998787338998644   ,
/* Mode 2 (6 5) */
/* Mode 2 (7 5) */
/* Mode 2 (0 6) */
  -0.0109185059593799386  , 0.0883668941589758894  ,-0.138764626700451227   ,-0.19806561683913454    , 0.0118887112196148885  ,
/* Mode 2 (1 6) */
   0.0756794343314309281  ,-0.110427627834419922   ,-0.100655525428925419   ,-0.063687497051358552   ,
/* Mode 2 (2 6) */
  -0.0883183182043517367  , 0.173820684522567465   ,-0.0772808723745993659  , 0.143309467556048897   ,
/* Mode 2 (3 6) */
  -0.130587459343608187   , 0.0914247743209020136  ,
/* Mode 2 (4 6) */
  -0.190843112782571211   , 0.129364188773070626   ,-0.25490918819463243    ,
/* Mode 2 (5 6) */
  -0.138779608333459342   , 0.109254299739840563   ,
/* Mode 2 (6 6) */
/* Mode 2 (7 6) */
/* Mode 2 (0 7) */
  -0.0121277637108674237  ,-0.0897051764475695068  , 0.0103682358369379477  ,-0.13093575351622358    ,
/* Mode 2 (1 7) */
  -0.0946989231228187733  ,-0.107256185392672329   ,
/* Mode 2 (2 7) */
   0.116516865030735786   ,-0.11397224138805867    ,
/* Mode 2 (3 7) */
  -0.109870771969466138   ,
/* Mode 2 (4 7) */
   0.15119666777787763    ,
/* Mode 2 (5 7) */
   0.0816865767753664068  , 0.0923836157497162774  ,
/* Mode 2 (6 7) */
/* Mode 2 (7 7) */
/* Mode 3 (0 0) */
   0.110434949914112845   ,-0.115971979645913936   ,-0.231953374763098213   , 0.283040959276239124   , 1.21769547393232624    ,-1.55072366333967482    , 1.48297933242421065    ,-0.254998576841622249   ,
   0.574176395480252344   , 1.27081045839085127    ,-1.68833947177306865    , 1.70770331809219256    ,-1.02062391851130774    ,-0.136878955361606408   , 0.165163694637398384   ,-0.623312610824105495   ,
/* Mode 3 (1 0) */
  -0.0813810530676796484  , 0.0912321159649346347  ,-0.030056396505930779   , 0.028742318231085761   ,-0.144521062304164977   ,-0.150585901203363598   , 0.242500716935223876   ,
/* Mode 3 (2 0) */
  -0.0787561195819522497  ,-0.0803759647642127012  ,
/* Mode 3 (3 0) */
  -0.057491266508149709   , 0.159689709327199142   ,-0.0630378609165942183  ,-0.0599924482058819958  , 0.147931340220839869   ,
/* Mode 3 (4 0) */
   0.0175958928407335541  ,-0.0181751595011918586  , 0.0896172509717807764  ,-0.0425084641301540778  , 0.126213002159254434   ,
/* Mode 3 (5 0) */
   0.0100522309601409985  ,-0.0100364911647689084  , 0.0383528960211247452  , 0.0317256423177890365  , 0.0603893466729073791  ,-0.160640190088699203   ,
/* Mode 3 (6 0) */
   0.0614922830353213448  ,-0.120679055634287727   ,
/* Mode 3 (7 0) */
  -0.00930325166101957785 , 0.00875340621485071364 ,-0.0274997405679008704  ,
/* Mode 3 (0 1) */
   0.131545595299152385   ,-0.148275338187306399   ,-0.136977395188012552   , 1.05740642547980013    ,-1.01953150712682805    , 0.707294778603448249   , 0.151477123850377537   ,-1.07279143417748868    ,
   1.11003519019209729    ,-0.934095195202571671   , 0.408392481999572732   , 0.276239941000676115   ,
/* Mode 3 (1 1) */
  -0.116505275099740041   , 0.126897779529045296   , 0.0265583070058294478  ,-0.162974676022612092   ,-0.0259055867851193562  , 0.170806006782162428   ,
/* Mode 3 (2 1) */
  -0.100538585376800188   , 0.0948187605231226305  ,-0.088187678472613662   , 0.0836584350592894654  ,
/* Mode 3 (3 1) */
  -0.0537931708778749545  , 0.119689519453530194   , 0.0500879632046011686  ,-0.118357923646902063   ,
/* Mode 3 (4 1) */
  -0.0897330648678092285  , 0.0108935629135987078  ,-0.0124868921632370622  , 0.102702159987825878   ,-0.0113595595831842092  , 0.0129638268085405864  ,-0.116777062797534123   ,
/* Mode 3 (5 1) */
   0.075506139939379685   ,-0.0724500047606113362  ,-0.0786892732569309666  , 0.118049112001880521   ,
/* Mode 3 (6 1) */
  -0.0960116213629246679  , 0.0912324974332655997  ,
/* Mode 3 (7 1) */
/* Mode 3 (0 2) */
   0.110061335452604339   ,-0.145371618640457001   , 0.777895480277487561   ,-0.62490368899264892    , 0.4089578817120329     , 0.132439373619393924   ,-0.975690768690728016   , 0.718581323503544644   ,
  -0.455091293298249322   ,
/* Mode 3 (1 2) */
  -0.0822834329635004635  , 0.0956185717437367244  , 0.0705216713467796824  ,-0.171194607917966701   ,-0.0421595173472927853  , 0.18494775605090738    ,
/* Mode 3 (2 2) */
  -0.095629927486682198   , 0.082689952338589362   ,-0.100144694381983188   , 0.0798030202407038203  ,
/* Mode 3 (3 2) */
  -0.0812983434850783615  ,-0.110586801640670862   ,-0.0653221103158751759  , 0.056371191777883016   , 0.0721177065282148089  ,-0.131345586995874813   ,
/* Mode 3 (4 2) */
  -0.0716223494935421118  ,-0.0688787192878884541  , 0.092675641541840395   ,-0.0773003323600069681  ,
/* Mode 3 (5 2) */
  -0.0667107964494690758  , 0.0799447348246889317  , 0.0850108633036608247  ,-0.0896851035738269881  ,-0.0668544689420002836  , 0.0921671495473565389  ,
/* Mode 3 (6 2) */
  -0.064946031692681358   , 0.0721099040797653357  ,-0.082424314816056804   ,
/* Mode 3 (7 2) */
  -0.0701173349778084487  ,-0.0756117907793646127  ,
/* Mode 3 (0 3) */
   0.0524417636630803985  ,-0.118432721544415712   ,-0.0784861408343430489  , 0.129567066336728626   , 0.736882482563928298   ,-0.4740377116738137     , 0.277536821813294698   , 0.706722455979122866   ,
  -0.447898606956231182   , 0.282648978925806815   ,
/* Mode 3 (1 3) */
  -0.0480186884111793444  , 0.0571946233193150119  , 0.0737295077672647514  ,-0.0852249244328644462  , 0.0772938201739625658  ,-0.156621677430379858   , 0.0815544333648614561  ,-0.170131855201074766   ,
/* Mode 3 (2 3) */
   0.0732225630260341653  ,-0.11108175222891814    ,-0.0841722088454237433  ,-0.0947373313151498309  ,
/* Mode 3 (3 3) */
  -0.0510220978556183632  ,-0.0673921092530377075  , 0.0695387169430075891  , 0.0736672565082083508  ,-0.0627632733490882527  ,-0.0633230153332878798  , 0.0968156202511449848  ,
/* Mode 3 (4 3) */
  -0.0690945060690521251  , 0.0937565626697664245  , 0.088642962023362637   ,
/* Mode 3 (5 3) */
   0.0674078199246032628  ,-0.0863594672786868328  ,
/* Mode 3 (6 3) */
  -0.0807754935142803443  ,-0.0795253605938135988  ,
/* Mode 3 (7 3) */
/* Mode 3 (0 4) */
  -0.113041869984406601   ,-0.0407026536429187583  , 0.0910155000140075165  , 0.0950278508129305949  , 0.56291800744516618    ,-0.317992189270028869   , 0.643842897319135798   ,-0.353862541508266737   ,
/* Mode 3 (1 4) */
   0.0718297925328790915  ,-0.0841418905265381017  , 0.113736813963477942   ,-0.129455932758505809   , 0.0990252556612605667  ,-0.14509304544066276    ,
/* Mode 3 (2 4) */
   0.0922920933407617161  ,-0.0805616788776419984  ,-0.105481969542322515   ,-0.0854270624692702318  ,
/* Mode 3 (3 4) */
   0.0554696244293546165  , 0.084346060479766935   ,-0.0916116681923107024  ,-0.0673186124994424179  ,
/* Mode 3 (4 4) */
   0.0819755086718743226  , 0.0842178243310986868  , 0.0992995090949243403  ,
/* Mode 3 (5 4) */
  -0.0614850908812048097  , 0.0685497550068393108  ,
/* Mode 3 (6 4) */
  -0.0781524389132847164  ,
/* Mode 3 (7 4) */
/* Mode 3 (0 5) */
   0.0711776918210551696  , 0.540092808274352354   ,-0.262280958713904333   ,-0.505355987832366016   , 0.25083317035600905    ,
/* Mode 3 (1 5) */
   0.0284088074776220403  ,-0.0270679489023457551  , 0.114161701823912984   ,-0.16072399588496622    ,-0.118275463410132287   , 0.164716988393199065   ,
/* Mode 3 (2 5) */
  -0.0440259181057494342  ,-0.0796006051131527281  , 0.0935627387911165259  ,
/* Mode 3 (3 5) */
  -0.060552249877066186   ,-0.0692809652000572068  , 0.0653628399470698451  ,
/* Mode 3 (4 5) */
  -0.0712605973162525053  , 0.0710636269142024407  ,-0.0712322161318172525  ,
/* Mode 3 (5 5) */
  -0.0736764214764806663  , 0.0744563026378965154  ,-0.0770444227682486743  ,
/* Mode 3 (6 5) */
  -0.0713996385252814586  ,-0.0799196297972569886  ,
/* Mode 3 (7 5) */
/* Mode 3 (0 6) */
   0.0832642092428104441  , 0.529869737757165393   ,-0.313638131367531603   ,-0.58696217785583249    , 0.284552691062228635   ,
/* Mode 3 (1 6) */
   0.118188889471698824   ,-0.160207118238945456   ,-0.115216077048487922   , 0.161067467795980024   ,
/* Mode 3 (2 6) */
   0.0743800026298534617  ,-0.119847509039737787   , 0.126226426875010705   ,
/* Mode 3 (3 6) */
  -0.0578124174864728252  ,-0.0704430001832172664  ,-0.0896339708419429254  ,
/* Mode 3 (4 6) */
  -0.0843734837543341221  , 0.128674449791424561   ,-0.100582843129505578   ,
/* Mode 3 (5 6) */
  -0.0778230731164168826  , 0.0588079174667396412  , 0.0828411157778910917  ,-0.0938418372635400067  ,-0.0647274620249035509  , 0.097400449485530477   ,
/* Mode 3 (6 6) */
  -0.0764106687483217945  , 0.0620861410870029995  ,-0.0941607102085070535  , 0.100173747789176093   ,
/* Mode 3 (7 6) */
/* Mode 3 (0 7) */
   0.6215908991440664     ,-0.324415805376506106   , 0.628853951054939131   ,-0.278087006586582641   ,
/* Mode 3 (1 7) */
   0.123302930876373285   ,-0.151421264332243843   ,-0.0737963349446372208  , 0.158300011975851196   ,-0.147545302172806259   ,
/* Mode 3 (2 7) */
  -0.108476506912178056   ,-0.138265764233233085   ,
/* Mode 3 (3 7) */
/* Mode 3 (4 7) */
   0.0697921469993702803  , 0.107276297243238589   ,
/* Mode 3 (5 7) */
/* Mode 3 (6 7) */
  -0.0737217365624926457  ,
/* Mode 3 (7 7) */
/* Mode 4 (0 0) */
   0.189797850631253179   ,-0.103513822374441122   , 0.182624451783231029   ,-0.429723806946077314   , 0.213883168272016033   , 0.431436090807349126   , 0.0896410530276205986  , 0.504293600374170037   ,
  -0.251979042282157173   , 1.41550837352115599    ,-1.13756779187707791    , 0.404575600412169945   , 1.00118483684620796    , 0.419939243286080122   ,-0.466554098349482027   , 0.336485577950301706   ,
/* Mode 4 (1 0) */
   0.0590681064842398101  ,-0.152547065805468562   , 0.133149647752779404   ,-0.0404462488113634666  ,-0.265908718460786841   ,-0.127287284257285888   , 0.274205535151268998   ,-0.381664273022051526   ,
/* Mode 4 (2 0) */
  -0.122863743205958845   ,-0.129954296799314334   ,
/* Mode 4 (3 0) */
   0.136051501175765532   ,-0.0787916941932095549  ,
/* Mode 4 (4 0) */
   0.117403328687874273   ,
/* Mode 4 (5 0) */
   0.0863733575172393186  ,-0.146696549601616766   , 0.0789369502267547735  ,
/* Mode 4 (6 0) */
/* Mode 4 (7 0) */
   0.00625508101638203116 ,-0.00707011026594734325 ,
/* Mode 4 (0 1) */
   0.189963639144550001   ,-0.195643612940788664   ,-0.132847645411170528   , 0.350879091102254237   ,-0.521845928439159001   , 0.23642694998568925    ,-0.327110876373458981   , 0.0790154884617402659  ,
  -0.0721961120986325533  , 0.193230315013647153   ,-0.233780706446883063   ,-0.14483133841458759    , 0.586279049321296708   ,-0.581970881153413333   ,-0.603947259331588882   , 0.570983033194387368   ,
  -0.484321328124493355   ,-0.668465480002234158   , 0.357464820223726942   ,
/* Mode 4 (1 1) */
  -0.12150037397913685    , 0.132700697125147316   ,-0.0651519234512314832  , 0.334042857482631517   ,-0.308357676812630543   , 0.0835934264454604725  ,-0.230658940547020491   , 0.283109681353454434   ,
/* Mode 4 (2 1) */
  -0.0897622379511036628  , 0.106103781153513724   , 0.0732314652576677577  ,
/* Mode 4 (3 1) */
  -0.0780488578209549838  , 0.0705638597048685173  ,
/* Mode 4 (4 1) */
/* Mode 4 (5 1) */
  -0.0738763513245648817  ,
/* Mode 4 (6 1) */
  -0.0885865959992824803  , 0.0905258801368637317  ,
/* Mode 4 (7 1) */
/* Mode 4 (0 2) */
  -0.177276252471163992   ,-0.0797853381396767952  , 0.221076161082181644   , 0.211335152339011539   ,-0.439540825076641439   ,-0.371421484231841625   ,-0.315608014965350847   , 0.195134108094265152   ,
   0.418642523394424759   ,-0.424162013794938619   , 0.18083743600799454    , 0.333389424179987792   ,-0.243603346286815708   ,
/* Mode 4 (1 2) */
   0.052932349204140916   , 0.0287971672627235289  ,-0.0825852094929016983  ,-0.170339931359659524   , 0.191297663154588293   , 0.181841440628864398   ,-0.123357420548032559   , 0.424565891266011464   ,
  -0.452794483425732197   ,-0.18615597182449678    ,
/* Mode 4 (2 2) */
  -0.0375881626185994716  , 0.0243216187396101992  , 0.0809245216566854553  ,-0.0786521320805237401  , 0.0145382255047642826  ,-0.0911035149878449829  , 0.159450654631038469   ,
/* Mode 4 (3 2) */
   0.0973610726239528684  ,
/* Mode 4 (4 2) */
  -0.108207951262859287   ,
/* Mode 4 (5 2) */
   0.0998017575229813575  ,
/* Mode 4 (6 2) */
/* Mode 4 (7 2) */
/* Mode 4 (0 3) */
   0.236121693324894522   ,-0.114258654502652643   , 0.141533394579078348   , 0.0304002297235451864  ,-0.236972947934093986   ,-0.102772148645801253   , 0.237302363292782426   ,-0.133680536769466701   ,
  -0.0265995448870467999  ,-0.308154738998198563   , 0.180778154694485993   , 0.214218950055971608   , 0.193290018860011736   ,
/* Mode 4 (1 3) */
   0.0512490162211604802  ,-0.102931435749951769   , 0.0834539008851613306  ,-0.126506343705658109   ,-0.0214911945675511466  ,-0.0848775142599157845  ,-0.164554027857929497   , 0.199323784217642519   ,
   0.219788640931161766   ,-0.158563117263002651   ,-0.188217445656767818   , 0.136644703296936093   ,-0.0337996222830235504  ,-0.218849482013470847   , 0.148711855191473924   ,-0.168556197633115745   ,
   0.23944729493851491    ,-0.293118665003797907   , 0.161822824934196863   ,
/* Mode 4 (2 3) */
   0.0608703384525278307  ,-0.098807943124002498   ,-0.0429788106974897943  , 0.0908339801170694877  , 0.11800737507453668    ,-0.18600428032452096    , 0.0844092377529481463  ,-0.17505009358008991    ,
/* Mode 4 (3 3) */
  -0.0941745553456813239  ,-0.0793732895161652491  ,
/* Mode 4 (4 3) */
  -0.092121567282546904   , 0.0896341986972540861  , 0.135941520926209952   ,
/* Mode 4 (5 3) */
/* Mode 4 (6 3) */
/* Mode 4 (7 3) */
/* Mode 4 (0 4) */
   0.144712317095598869   ,-0.0872883494551380534  ,-0.102208379645866529   , 0.304643337147574245   ,-0.110268926645086238   ,-0.0586816027110785843  ,-0.251584898288851333   ,
/* Mode 4 (1 4) */
  -0.0539108808686018515  , 0.107904944843105421   , 0.065079732957830469   , 0.0981256075737134553  , 0.181420785640765386   ,-0.232085147996925062   ,-0.204562245539130466   ,-0.108544374675647204   ,
   0.145853348868742877   ,-0.236366438187861627   ,-0.102280607596471326   ,-0.104346616454321681   ,
/* Mode 4 (2 4) */
  -0.091745638613774938   ,-0.102823840593799565   , 0.132618297955788472   , 0.0820726325978870519  , 0.117717301349397646   ,-0.259954383497741692   , 0.079265400675989181   ,-0.187084311874476356   ,
/* Mode 4 (3 4) */
   0.115898981645042448   ,-0.0974936063518434259  , 0.121230668302726899   ,-0.0808338240359274263  ,
/* Mode 4 (4 4) */
   0.104952183726123      , 0.111204972120635556   ,
/* Mode 4 (5 4) */
   0.0874886858945489732  , 0.0971085119479589559  ,
/* Mode 4 (6 4) */
  -0.107775750670675852   ,
/* Mode 4 (7 4) */
/* Mode 4 (0 5) */
   0.154711404898090016   ,-0.122394488236974033   , 0.041796713679993179   ,-0.158573045758027581   , 0.104579762282445435   ,
/* Mode 4 (1 5) */
   0.115701266353271853   , 0.126340796194010063   ,-0.156148687473727177   ,-0.139058424989013774   ,-0.18634707283072674    , 0.125684959309766281   , 0.141624443111976944   ,
/* Mode 4 (2 5) */
  -0.0797737616118374127  , 0.110666256419172812   ,-0.162652351861530514   ,-0.0865704971659217726  , 0.217496519579285397   ,
/* Mode 4 (3 5) */
   0.0930344681016104652  ,-0.128880851904553312   , 0.12035013757555213    ,
/* Mode 4 (4 5) */
   0.135960919870160679   ,-0.158475044101094475   ,
/* Mode 4 (5 5) */
   0.0762680060592920289  ,-0.0813570911028558691  ,
/* Mode 4 (6 5) */
/* Mode 4 (7 5) */
/* Mode 4 (0 6) */
  -0.0105035830286088396  , 0.0635009298599236299  ,-0.0872960582609590557  , 0.0120622914264948717  ,-0.117892312072070876   , 0.170266040295590365   ,
/* Mode 4 (1 6) */
  -0.0747289161133100066  ,-0.132402605478702751   , 0.110002666696937687   ,-0.0811562369667805511  ,-0.0887649267350659882  , 0.0809938490104403219  , 0.201792109186747282   ,
/* Mode 4 (2 6) */
   0.100025920586748765   ,-0.114747354551407083   ,-0.298489967504273535   ,
/* Mode 4 (3 6) */
  -0.104185765032855884   ,-0.0870479631504481322  ,-0.17569205265872942    , 0.15004394602883761    ,-0.173323294550926987   , 0.143135616703347957   ,
/* Mode 4 (4 6) */
   0.202594690158908797   ,-0.12286791683041455    ,
/* Mode 4 (5 6) */
   0.088761628007174756   ,-0.0966884736899337183  ,
/* Mode 4 (6 6) */
/* Mode 4 (7 6) */
/* Mode 4 (0 7) */
  -0.0142526527567713567  ,-0.206766269067513053   , 0.0133952547407751848  ,-0.120135901787173593   ,
/* Mode 4 (1 7) */
   0.106853245084836665   ,-0.197819219888442199   ,-0.105435976622800992   ,
/* Mode 4 (2 7) */
   0.122551845088162303   ,-0.161349057794961726   ,-0.220107300038531822   ,
/* Mode 4 (3 7) */
  -0.108831746808716545   , 0.131949910964632267   ,-0.135125449005838921   , 0.133713707814480387   , 0.0680706236545016996  ,-0.20366968300369348    ,
/* Mode 4 (4 7) */
   0.150530473164609546   ,-0.0725550246898441081  ,-0.0655394806806394309  , 0.193855446768906564   ,
/* Mode 4 (5 7) */
   0.0833196171974865119  , 0.105964708718327846   ,
/* Mode 4 (6 7) */
  -0.109356143464780023   ,
/* Mode 4 (7 7) */
/* Mode 5 (0 0) */
   0.178699685906258787   ,-0.136571301060953443   , 0.655284000108612652   ,-0.508283701526897946   ,-0.244712227105077368   ,-0.109720046007666119   , 0.180390006380325707   , 0.716233438567357772   ,
  -0.198850939892541934   ,-0.380706550581634162   ,-0.306696386725359538   , 0.232621028132377422   , 0.435379096642680874   , 0.931071556196807926   ,-0.696447491977178479   ,-0.350579097619938274   ,
  -0.0771980685672285089  , 0.214455391975805543   , 0.845698411756189095   ,
/* Mode 5 (1 0) */
  -0.379651587704087801   , 0.274640572828369733   , 0.187904973573541773   ,-0.11228127437004691    , 0.323592285141484193   ,-0.414860228601904635   , 0.172293845407802904   ,-0.147927385186112259   ,
   0.221792923530211156   ,
/* Mode 5 (2 0) */
  -0.0581657189355003559  ,-0.164514435086101585   , 0.0349662910487879564  ,-0.0344790433797801041  , 0.058626589019999821   ,-0.200801421374660699   ,
/* Mode 5 (3 0) */
  -0.0911616343976080074  ,
/* Mode 5 (4 0) */
   0.14245196726254139    ,
/* Mode 5 (5 0) */
   0.112157595988994524   ,-0.126203053709396384   ,
/* Mode 5 (6 0) */
  -0.110641753425789635   ,
/* Mode 5 (7 0) */
   0.00960245955951364791 ,-0.00969423188646792097 ,-0.0963011016959906957  ,
/* Mode 5 (0 1) */
   0.135212752134554332   , 0.0607420141953569775  ,-0.114004246854504526   , 0.406240044161078062   , 0.132482049912918037   ,-0.419588572461691234   ,-0.422430121181765816   , 0.208739536081494065   ,
   0.329167555093858699   ,-0.0599709655371233122  ,
/* Mode 5 (1 1) */
   0.211736167719197621   ,-0.134344655431359761   ,-0.138716361744519928   , 0.256624316345407777   ,-0.13661470038680279    ,-0.168295829665386726   ,-0.141954796907629882   ,-0.375325437911467386   ,
   0.246758623435842872   , 0.0994104211153957751  ,-0.198805995479269138   , 0.283317997246247899   ,-0.342687953536861878   ,-0.17510623825624172    , 0.300100052996872368   ,-0.282610952299959362   ,
/* Mode 5 (2 1) */
   0.125730056249213767   ,-0.130781145415401256   , 0.07164401551420993    , 0.168841382407988599   , 0.1480853036220382     ,-0.106560404167757694   ,-0.047659018279739257   , 0.155556193460766379   ,
  -0.240449314402981174   , 0.0456660164878721839  ,-0.0945244388700897525  , 0.24320697402251884    , 0.125342875779812457   ,
/* Mode 5 (3 1) */
  -0.130566029494694424   , 0.130165228909766562   , 0.0775056470991151991  ,-0.112844343385976834   ,
/* Mode 5 (4 1) */
   0.107580548176666055   ,-0.138814193594870211   ,
/* Mode 5 (5 1) */
  -0.105228506456599702   ,
/* Mode 5 (6 1) */
/* Mode 5 (7 1) */
/* Mode 5 (0 2) */
  -0.0431798390706204724  ,-0.0438977392358510174  , 0.08227706945100699    ,-0.172372869536274287   ,-0.220359546896184644   ,-0.0495438947537421778  ,-0.13180665722647289    , 0.0541614091226052807  ,
   0.158224843287913919   ,
/* Mode 5 (1 2) */
   0.0536205005177263286  ,-0.104916474811356575   , 0.109245698948321174   ,-0.0772606703422512031  ,-0.108594643218966058   ,-0.220098208493793357   , 0.21870298459267834    , 0.157846316989242452   ,
  -0.158979772874377562   , 0.158528118884047164   ,-0.0835221901911323422  ,-0.207438569980923943   , 0.073717419927724695   ,-0.113447365773818906   , 0.131253530457646733   ,
/* Mode 5 (2 2) */
   0.0234144212752022164  ,-0.022844614517711765   , 0.13299599108976079    , 0.0636109479153761648  ,-0.335383396669213019   ,-0.0720768798046469844  , 0.215737716539620733   ,-0.384429235194158114   ,
   0.177334606418149299   ,
/* Mode 5 (3 2) */
  -0.0714190833396138175  ,-0.141297786325150138   , 0.0798791706536267215  ,-0.184994870207954409   , 0.239963182080700055   ,
/* Mode 5 (4 2) */
  -0.0603600136646188501  , 0.236696446778411423   ,
/* Mode 5 (5 2) */
   0.14538583787860726    ,-0.153305071109722219   ,
/* Mode 5 (6 2) */
  -0.105292776404610183   ,
/* Mode 5 (7 2) */
/* Mode 5 (0 3) */
  -0.1003084895145855     , 0.137151405495703177   ,-0.0688044834387070842  ,
/* Mode 5 (1 3) */
  -0.105764549380673464   ,-0.108270055486377872   , 0.0940996954514519285  ,-0.16708349566533881    , 0.104326743505491731   ,-0.110272511534579759   ,
/* Mode 5 (2 3) */
   0.0957867983928142042  ,-0.238877851097434812   , 0.188194422601734634   ,-0.126870523690900405   , 0.0868014315130940239  ,-0.196772763740154122   ,
/* Mode 5 (3 3) */
   0.0705074462106806271  , 0.0457909417897693558  ,-0.129595892272115265   ,-0.127928377042398567   , 0.155886909460099393   , 0.135385382486863298   , 0.0558978486055974472  ,-0.103614575769099854   ,
  -0.0966753570384707162  , 0.138755597700114419   , 0.0504411301820378091  ,-0.17722257054964255    , 0.165914138321452465   ,-0.102724843948966693   ,
/* Mode 5 (4 3) */
   0.0550080522234812561  ,-0.105855781380958594   , 0.0606069739623417911  , 0.104325671014760799   , 0.111126692134478136   ,-0.0579089925648288914  , 0.187905730513988733   ,
/* Mode 5 (5 3) */
   0.100573180731648532   , 0.119714035566533178   ,
/* Mode 5 (6 3) */
  -0.0967940654370493814  ,-0.132935533992489391   ,
/* Mode 5 (7 3) */
/* Mode 5 (0 4) */
   0.114419639537575349   ,
/* Mode 5 (1 4) */
   0.0864798072133356049  ,-0.115734814082271834   ,
/* Mode 5 (2 4) */
  -0.0787408727367092248  ,-0.106285430801201314   , 0.198524254582553378   , 0.0676245856677297197  ,-0.130739738128464816   , 0.0723179599881668828  ,
/* Mode 5 (3 4) */
  -0.0656300341019810801  , 0.162354983477669856   , 0.153042395422993499   , 0.134999196803345989   ,-0.134599003464696387   , 0.141778009048925568   ,
/* Mode 5 (4 4) */
  -0.0972867464984547708  ,-0.0767646350359246638  , 0.149648109081365416   ,-0.0908221945262323443  ,-0.103965081918709928   ,-0.0881823620990242335  , 0.303599635161873105   ,
/* Mode 5 (5 4) */
  -0.101194515035903446   ,-0.138502778850597502   , 0.170431429832147763   ,-0.136620408344531652   ,
/* Mode 5 (6 4) */
  -0.132024805578904364   ,
/* Mode 5 (7 4) */
   0.101466803011685036   ,-0.0920760586969263661  ,
/* Mode 5 (0 5) */
  -0.0872255560778975036  ,
/* Mode 5 (1 5) */
/* Mode 5 (2 5) */
   0.121002539662599565   ,-0.125300202963591678   , 0.086757021133634496   ,
/* Mode 5 (3 5) */
  -0.090886875493232766   , 0.122538453513511683   , 0.115747493486213826   , 0.0936668739128477951  ,-0.128528628556658142   ,
/* Mode 5 (4 5) */
   0.110699311312095552   , 0.164247227777723853   ,-0.129426245508821675   ,-0.0883873104927176689  , 0.153333849107874925   ,-0.184156138627958377   ,-0.117403901566062951   ,
/* Mode 5 (5 5) */
   0.0797827738121138774  , 0.131889200227370135   ,-0.179480857184686649   , 0.0929368414321988523  , 0.099689492456256204   , 0.0737275194382573107  ,-0.158083294438883804   , 0.145948204688824329   ,
/* Mode 5 (6 5) */
  -0.0895206097922585792  ,-0.0730280928332864704  , 0.137378161177680175   ,
/* Mode 5 (7 5) */
   0.0922654642318739004  , 0.0827375622226834001  ,
/* Mode 5 (0 6) */
/* Mode 5 (1 6) */
/* Mode 5 (2 6) */
  -0.105085989320273757   ,
/* Mode 5 (3 6) */
  -0.118782345347624094   ,-0.108106462668753317   ,-0.104707208243869046   ,
/* Mode 5 (4 6) */
   0.104246796896904748   ,-0.190605266146418373   ,-0.0841768786533043378  , 0.140786971971114089   , 0.0827884997445011983  ,
/* Mode 5 (5 6) */
   0.107535900416319205   ,-0.0755092848214772711  , 0.138578081725016872   ,
/* Mode 5 (6 6) */
  -0.0853119015097631578  , 0.0980342571942511842  ,-0.142795576475780117   ,
/* Mode 5 (7 6) */
  -0.0934850052358763423  ,
/* Mode 5 (0 7) */
  -0.0134436779186945018  ,-0.110948517021304455   ,-0.155883974610556725   , 0.0128102885747326967  ,
/* Mode 5 (1 7) */
/* Mode 5 (2 7) */
/* Mode 5 (3 7) */
  -0.130806498033486152   ,-0.0911796872451136192  ,
/* Mode 5 (4 7) */
  -0.10275926015740848    , 0.1369711993824623     ,
/* Mode 5 (5 7) */
   0.080130101301153972   ,-0.138291604258723971   ,
/* Mode 5 (6 7) */
  -0.107349273795934855   ,
/* Mode 5 (7 7) */
/* Mode 6 (0 0) */
   0.20708979893644025    ,-0.313200975523100333   , 0.0913904020517935234  ,-0.268251117050047783   , 0.190155315030957339   , 0.456441091636116292   , 1.41770856881146901    , 0.333508117662282444   ,
   0.423619347564666182   ,-1.71248366314949574    ,-0.452712524939528071   , 1.15818649433321252    ,-0.373808748917999867   , 0.61144677235919187    , 0.882898298586776153   ,-0.171897572139796756   ,
   0.235190717118614168   ,-0.372011526144705174   , 0.217440911942620024   , 0.127070554587045914   , 0.327296410438113528   , 0.932086593537447494   ,
/* Mode 6 (1 0) */
  -0.0812092169859396917  , 0.166777517421388188   ,-0.211434358743546574   , 0.119436556665150725   , 0.4645187607673254     ,-0.540790892742803342   ,-0.534924666494023149   ,-0.185458033858789395   ,
  -0.530976882326545829   , 0.367649963905527288   , 0.389715832769095882   ,-0.0838616081373508709  , 0.425312217440751705   ,-0.552252018947628098   ,-0.377087927871498529   ,-0.294437545636370257   ,
   0.173992497001317609   ,-0.446090046351167446   ,-0.183086400023908857   ,
/* Mode 6 (2 0) */
  -0.138269633462694774   , 0.0432881441775370274  ,-0.296698834563112412   , 0.31288468118400703    , 0.144037453683717898   , 0.247120119240250846   , 0.232496650836856694   ,-0.0850056551192002741  ,
   0.226142368538139321   , 0.141789509521481227   ,-0.393133862460445072   ,-0.298033404815428948   , 0.0525847240431409763  ,-0.313415223835867895   ,-0.268802956419602779   ,
/* Mode 6 (3 0) */
  -0.076619715646798342   ,-0.0239312322102030357  ,-0.232831809982127991   , 0.21144248856583478    , 0.072206102874250902   ,-0.0836549613110446622  , 0.152952275215752442   ,-0.177810627953065403   ,
   0.227015690201223697   , 0.0278182806882974927  ,-0.126041066476518887   ,
/* Mode 6 (4 0) */
  -0.0139774552961085836  ,-0.166434585217047321   , 0.0131841288067433941  ,-0.0626060251057420775  ,-0.0799208314088978022  , 0.228547947822624581   , 0.0983551519833344851  ,
/* Mode 6 (5 0) */
   0.0103783268267126933  ,-0.0994141246040733811  ,-0.0102764199836474553  , 0.137982478077104842   ,-0.131736673277530802   , 0.0848613608242076017  ,
/* Mode 6 (6 0) */
   0.0102654895096735456  ,-0.117316012276083417   ,-0.00932499262956935741 ,
/* Mode 6 (7 0) */
   0.0114687349000514461  ,-0.0123119897574939276  ,-0.0808681336193248362  ,
/* Mode 6 (0 1) */
  -0.0745868516702289236  ,-0.138708235897267579   , 0.298934611915384396   ,-0.395075562988273843   ,-0.539716351542299133   , 0.048077443092650593   ,-0.25608308298576643    ,-0.111470651545467175   ,
/* Mode 6 (1 1) */
  -0.0683948873419818054  , 0.080383215799942731   , 0.309438973360883163   ,-0.214476361399431742   ,-0.30432599218478984    , 0.321729578778262526   , 0.0380571652360122345  ,-0.0642441411187207878  ,
  -0.0771303779935986616  , 0.117240645105864211   , 0.227683937488598442   , 0.28454558488677395    ,
/* Mode 6 (2 1) */
   0.0296369236088285734  , 0.324040403276818822   ,-0.079812463793207486   ,-0.402949320319049287   , 0.0403998406865957518  ,-0.100153822663458694   ,-0.172164163345357113   ,-0.168965624028375755   ,
   0.245514006798631612   ,-0.0718040235916088121  , 0.238771034606794885   , 0.1766380855854984     ,
/* Mode 6 (3 1) */
  -0.0703808830387023104  , 0.136823126724613192   ,-0.0153065885292160767  , 0.172584275052752395   , 0.122727103446346589   ,-0.191743822147194265   , 0.047968972310741001   ,-0.120480324590360732   ,
  -0.14581141165360767    , 0.226009498424155603   , 0.0641872631205599037  ,-0.0359241041005616824  , 0.200963385760165009   ,-0.165542853567824888   ,
/* Mode 6 (4 1) */
  -0.0502876986137370183  , 0.119627555839719249   ,-0.0826001481003912352  ,-0.0727886654157302582  , 0.0646726841791256668  , 0.0832676617580132561  ,-0.210309212136848805   ,-0.175278677933776716   ,
/* Mode 6 (5 1) */
   0.0913070734566312769  ,-0.134967943369716376   , 0.108225683419259963   ,-0.156714976595219546   , 0.110649112287595497   ,
/* Mode 6 (6 1) */
  -0.09382658842531022    , 0.0627543064059301325  ,-0.0646865882642465306  , 0.145036358287608552   ,
/* Mode 6 (7 1) */
  -0.0857310591992979931  ,
/* Mode 6 (0 2) */
  -0.131721537066989081   ,-0.0363643234084461767  , 0.0970407754551490254  , 0.0367961005331906427  ,
/* Mode 6 (1 2) */
  -0.0727720522275891873  ,-0.128115148093876696   , 0.130865033683853105   ,-0.0389173944219224285  , 0.0389716159611080276  ,
/* Mode 6 (2 2) */
  -0.0971090604132087559  ,-0.154626921346855628   , 0.144182261792845517   ,-0.0279552280724437718  , 0.0842678158105038128  ,-0.118673119533120736   , 0.0268183186160385785  ,-0.0693651931216667933  ,
   0.144139428573337031   ,
/* Mode 6 (3 2) */
   0.0832933654028897436  , 0.0674724240011492088  ,-0.162893365999157852   ,-0.186888296753820488   , 0.042794104980828411   ,-0.098382177310657834   , 0.127215213118059167   ,-0.163241047532324907   ,
   0.1067332275822718     ,
/* Mode 6 (4 2) */
   0.0987699914345381291  ,-0.242263497851010867   ,-0.10767073194508564    ,-0.11903911707359055    , 0.230650096419645512   , 0.095475849086826034   ,
/* Mode 6 (5 2) */
  -0.0549742268867364145  , 0.130019587376461049   ,-0.0600470011529424877  , 0.182381749885243832   ,
/* Mode 6 (6 2) */
  -0.11183032606053693    , 0.0949653944436375935  ,-0.169294991592410071   ,
/* Mode 6 (7 2) */
  -0.109388716661944649   ,-0.0846628304443425433  ,
/* Mode 6 (0 3) */
  -0.0755486688442212201  ,
/* Mode 6 (1 3) */
  -0.0635486667097552721  , 0.0731882754426911725  ,
/* Mode 6 (2 3) */
   0.0937963604473630586  , 0.132262458071911226   ,-0.0953001583710625239  ,
/* Mode 6 (3 3) */
  -0.0777296481461525607  ,-0.0877834908036199124  ,-0.0984797064218540241  ,
/* Mode 6 (4 3) */
  -0.166041061657584171   , 0.122054352368051844   ,-0.0574502570841946558  , 0.162246561604689005   ,
/* Mode 6 (5 3) */
  -0.0813815086724143238  , 0.10422269298967414    , 0.118708821225117001   ,-0.105455995181018378   ,
/* Mode 6 (6 3) */
  -0.105934033295043001   , 0.072262563318808537   ,-0.110329909183393304   ,
/* Mode 6 (7 3) */
  -0.0817004170364294957  ,-0.0792043909367567134  ,
/* Mode 6 (0 4) */
   0.108362362972111076   ,
/* Mode 6 (1 4) */
   0.0807418889508758758  ,-0.105692131156893507   ,
/* Mode 6 (2 4) */
   0.141102370487803191   ,-0.0941746613691033102  ,
/* Mode 6 (3 4) */
  -0.0804402472993503148  ,
/* Mode 6 (4 4) */
   0.12051250420225193    , 0.096446676510660509   , 0.131567985917068225   ,
/* Mode 6 (5 4) */
  -0.106256237547910831   ,
/* Mode 6 (6 4) */
   0.132853477923987412   ,-0.0934339851286162537  ,
/* Mode 6 (7 4) */
   0.116100442074679802   ,
/* Mode 6 (0 5) */
   0.0841223041101688829  ,-0.105289655955280129   ,
/* Mode 6 (1 5) */
/* Mode 6 (2 5) */
   0.108458055078758109   ,
/* Mode 6 (3 5) */
   0.0701155397665067098  , 0.0855510951447708418  ,
/* Mode 6 (4 5) */
   0.0882632183749136046  , 0.0922817066092076477  ,-0.123217697859144798   ,
/* Mode 6 (5 5) */
  -0.0813749748964518183  ,-0.0761722756971222881  ,
/* Mode 6 (6 5) */
   0.099651028019703089   ,
/* Mode 6 (7 5) */
   0.0766555916415352367  , 0.113964069696800285   ,
/* Mode 6 (0 6) */
  -0.10412759387780568    ,
/* Mode 6 (1 6) */
  -0.0854932985923218258  , 0.0956460728710482738  ,
/* Mode 6 (2 6) */
  -0.11486602640215246    ,
/* Mode 6 (3 6) */
   0.0910319553712972407  ,
/* Mode 6 (4 6) */
  -0.105277899068036182   ,
/* Mode 6 (5 6) */
   0.0874847468282370783  ,
/* Mode 6 (6 6) */
/* Mode 6 (7 6) */
/* Mode 6 (0 7) */
  -0.00749620592511717181 ,-0.0943196167578913142  , 0.00652919265322268304 ,
/* Mode 6 (1 7) */
/* Mode 6 (2 7) */
  -0.0970381612394350668  ,
/* Mode 6 (3 7) */
  -0.0995475088341752634  ,-0.101766898056307342   ,-0.0955178943129797731  ,-0.122393067655991977   ,
/* Mode 6 (4 7) */
/* Mode 6 (5 7) */
   0.0772794874754186983  ,
/* Mode 6 (6 7) */
/* Mode 6 (7 7) */
/* Mode 7 (0 0) */
  -0.0857244040229543508  , 0.176858660027246595   ,-0.16469054842130057    ,-0.293353522007020917   , 0.334771614193063616   , 1.13952128446166623    , 1.30276847244161553    ,-1.25379706131568924    ,
  -1.69134261262170305    , 1.0749587403835652     , 1.40138407100832496    ,-0.412976932201352287   , 0.0903940653706905295  ,-0.192335765820098287   ,
/* Mode 7 (1 0) */
  -0.0639448307724415216  , 0.193865763087160609   ,-0.0728595221841960017  , 0.100442099999108483   , 1.00806373884049272    ,-1.043239635311213      ,-0.878834767404780948   , 1.04249187151761746    ,
   0.587956563276926802   ,-0.76881001184331621    , 0.0764890379602214676  ,-0.23679576384716719    ,
/* Mode 7 (2 0) */
  -0.0310094114069147039  , 0.169079629213408605   , 0.827846096344472482   ,-0.917700897966084561   ,-0.536081513448618541   , 0.604290795037751183   ,-0.443370307399797603   , 0.0337686778620043537  ,
  -0.201864686017863809   ,
/* Mode 7 (3 0) */
   0.0976166821559589226  ,-0.106308423309930053   , 0.767860220808484373   , 0.762980901695922586   ,-0.390745193803968549   ,-0.376541109248196226   ,-0.0726421010382585219  ,-0.0903520857310923936  ,
   0.121727187217177027   ,
/* Mode 7 (4 0) */
  -0.129542303794805053   , 0.0992868015828778511  , 0.57591683163933538    , 0.693878625843761143   ,-0.231708297571504601   ,-0.340453764116441682   , 0.0953576492075713378  , 0.0982553678179973189  ,
/* Mode 7 (5 0) */
   0.623004777909671681   ,-0.607843964918851398   ,-0.217702704277685594   , 0.23350050355042945    , 0.0759961219491747386  ,
/* Mode 7 (6 0) */
   0.605360808454459276   ,-0.607291406501395237   ,-0.228955762685174202   , 0.232316449983349826   , 0.0551129578901580833  ,-0.0935011111331145867  ,
/* Mode 7 (7 0) */
   0.106222282230895526   , 0.0996420032119915006  , 0.500963428792808529   , 0.513094791225049529   ,-0.200160134837034959   ,-0.183029049055128873   ,
/* Mode 7 (0 1) */
  -0.224285484962522264   , 0.304007251208758766   , 0.0735315827505598762  ,-0.131591347833135502   ,-0.0708353586542171398  , 0.137899236413368681   ,
/* Mode 7 (1 1) */
  -0.0337464302747106093  , 0.0324548035907506541  , 0.0553338070657239181  ,-0.0497827599508850679  ,-0.152916798519957903   , 0.178643209487535037   , 0.0477839099128646444  ,-0.143945109807023491   ,
  -0.0537865288038819334  , 0.165102615055281066   ,
/* Mode 7 (2 1) */
   0.0504983943563719409  ,-0.0428253449569137232  ,-0.141921210262830666   , 0.16173575556433345    , 0.0256244951193699173  ,-0.109012757782593839   ,-0.0267029903176284229  , 0.121460324739659106   ,
/* Mode 7 (3 1) */
   0.0685247391570485281  , 0.0650256719146622697  ,-0.141376563338599937   ,-0.145244221173338045   ,-0.0480653193120412076  , 0.0885664651534137926  , 0.0655706421505879294  ,-0.0988805888790124377  ,
/* Mode 7 (4 1) */
   0.0765205871796435233  , 0.0775802052540799786  ,-0.156671000804765204   , 0.0873743154044418907  ,-0.0951300341565687879  ,
/* Mode 7 (5 1) */
   0.0893884666134709682  ,-0.0903625684339543489  ,-0.104764955634606985   , 0.14753830038017926    ,
/* Mode 7 (6 1) */
   0.0805412137721189803  ,-0.103240193236742925   ,-0.123199280174493275   ,-0.0661239555043126453  , 0.0747049010000785801  ,
/* Mode 7 (7 1) */
   0.0923862428872501834  , 0.0913374890449417665  ,-0.116809250133581441   ,-0.132716657258156789   ,
/* Mode 7 (0 2) */
  -0.0891062483469225453  ,-0.0920115813399217802  , 0.0759203672202400925  ,-0.141390962247656127   ,
/* Mode 7 (1 2) */
  -0.0742675800220877896  , 0.0681737553990784673  ,-0.123329380678742967   ,-0.0570555259367535456  , 0.0983872885846609757  ,
/* Mode 7 (2 2) */
   0.100263640306299556   ,-0.110118166769238177   ,-0.0384642557906535593  , 0.0938066344117858691  ,
/* Mode 7 (3 2) */
  -0.0776116075718086135  ,-0.0994796698503558202  ,-0.0543654238930012107  ,-0.0739039699272495687  , 0.0935286001663591243  , 0.0607515033012503217  ,-0.0897603180928678579  ,
/* Mode 7 (4 2) */
  -0.0995330183484929992  ,-0.0907410727441712445  , 0.0939297080274434093  ,-0.0873459756475796767  ,
/* Mode 7 (5 2) */
  -0.0893058764895565821  , 0.0760302397146260245  , 0.0412682637222394552  , 0.0969761277998857779  ,
/* Mode 7 (6 2) */
  -0.0968135527104818788  , 0.0878414364642023937  , 0.0718755300244191958  ,
/* Mode 7 (7 2) */
  -0.0763724653248883528  ,
/* Mode 7 (0 3) */
  -0.0614225901564745269  ,-0.0750322583455794168  , 0.143508330319659871   , 0.109376786210020449   ,
/* Mode 7 (1 3) */
  -0.0523999816635632581  , 0.0605422475084187381  , 0.111802183295212021   ,-0.107239847353232359   ,-0.0915689701158776126  ,-0.104822647782549766   ,
/* Mode 7 (2 3) */
  -0.0798735237728273179  ,-0.0955567575711886996  ,-0.0769817350156306035  ,-0.0976183463925686529  ,
/* Mode 7 (3 3) */
  -0.0643218692187082358  ,-0.0632981481321486239  , 0.0874260495551403283  ,-0.0511216769833343493  , 0.0765316170975873927  ,-0.0742686000255865647  , 0.0857629193458640665  ,
/* Mode 7 (4 3) */
  -0.0875408803142118802  , 0.0826707787557243168  , 0.107896187068756297   ,
/* Mode 7 (5 3) */
  -0.093508717596704774   , 0.0632715607855188489  , 0.0804215239620938993  , 0.0649377895758747742  ,-0.0753838621719531976  ,
/* Mode 7 (6 3) */
  -0.0748897570219632241  , 0.0815424447890099185  ,-0.0822618210260301352  ,-0.0784577765602419985  ,
/* Mode 7 (7 3) */
  -0.0689012464112126188  ,
/* Mode 7 (0 4) */
   0.0177433433189698904  ,-0.0455657859585092695  ,-0.0190832047282554033  , 0.0971754476660126598  , 0.106540941732510677   ,
/* Mode 7 (1 4) */
   0.0838283782764926155  ,-0.0771060702338530191  ,-0.0956594719848969516  ,-0.0865144037995079773  ,
/* Mode 7 (2 4) */
   0.0834573723337719842  ,-0.0829808901889096395  ,-0.0958955848833318858  ,
/* Mode 7 (3 4) */
   0.0704802049652361595  ,-0.0831754523452816336  , 0.0896543745443618839  ,
/* Mode 7 (4 4) */
   0.10288988390937108    , 0.0945025498153806015  , 0.117223354991840514   ,
/* Mode 7 (5 4) */
  -0.0627975965013363724  , 0.0734134068485823021  ,
/* Mode 7 (6 4) */
  -0.102503024803723405   ,-0.0717342874135657865  ,
/* Mode 7 (7 4) */
   0.0874480423493455561  ,
/* Mode 7 (0 5) */
   0.0120901265167023993  ,-0.0121009791808473609  , 0.041463941983884145   , 0.0383772397860483103  ,
/* Mode 7 (1 5) */
   0.0686156739647585945  ,-0.0698991730419521035  ,-0.0730169299163552499  , 0.0900967194460630533  ,
/* Mode 7 (2 5) */
  -0.075797649327338984   , 0.0993444380147971845  ,
/* Mode 7 (3 5) */
   0.0784043179937709139  , 0.0732713035204796692  ,
/* Mode 7 (4 5) */
  -0.108712586423972121   , 0.0842744338885708377  ,-0.0994416049996282303  ,
/* Mode 7 (5 5) */
/* Mode 7 (6 5) */
  -0.104665043979018851   , 0.077465426850684263   ,
/* Mode 7 (7 5) */
/* Mode 7 (0 6) */
   0.0802011868794457738  , 0.108938225755881204   ,-0.0630341495736135571  ,
/* Mode 7 (1 6) */
/* Mode 7 (2 6) */
  -0.0884804552760941748  , 0.10050976353897631    ,
/* Mode 7 (3 6) */
   0.109837814186642499   ,
/* Mode 7 (4 6) */
  -0.0891305898127349727  , 0.0861191595418734773  ,
/* Mode 7 (5 6) */
  -0.0785923823910346098  , 0.101688913860478902   ,
/* Mode 7 (6 6) */
  -0.120275881563418341   ,
/* Mode 7 (7 6) */
  -0.0818902980750961101  ,
/* Mode 7 (0 7) */
   0.128071942715479059   , 0.146187618163231142   , 0.185685132329657832   ,-0.0648988065220777871  , 0.193423782169007658   , 0.197997562694090218   , 0.108273082794980727   , 0.167381856606484664   ,
   0.122710484446847123   ,
/* Mode 7 (1 7) */
   0.0621770915557748952  , 0.0930170617091511248  ,
/* Mode 7 (2 7) */
  -0.0954528731280657738  ,
/* Mode 7 (3 7) */
  -0.124851575493212893   ,-0.0715802154489742631  ,
/* Mode 7 (4 7) */
   0.0885324592428791968  ,
/* Mode 7 (5 7) */
   0.070723402014816264   ,-0.0768427547030269553  ,
/* Mode 7 (6 7) */
  -0.0763035797942709787  ,-0.0806936834838007794  ,
/* Mode 7 (7 7) */
/* Mode 8 (0 0) */
  -0.0954674022935048661  , 0.09848300883770017    ,-0.222790465462864767   , 0.171934142786888677   , 1.42519597068023196    , 0.226975891086736242   ,-1.55977705717730641    , 1.09382991097977689    ,
  -0.198626161589648242   , 0.745109618549458896   ,-0.192841976450107477   ,-0.764448811803225103   , 0.996548747154289649   , 0.246975738860460675   ,-0.346202812834802087   ,
/* Mode 8 (1 0) */
  -0.0497032430095396133  , 0.25445156465011326    ,-0.375991041122797909   , 0.11547332558762656    , 0.602710814246278703   ,-0.192984030241108911   ,-0.496889235206058044   , 0.060348078633915829   ,
  -0.627928513943773692   ,-0.255846800524719864   , 0.0625019042588127044  , 0.495616598329728431   ,-0.330686633872561142   ,-0.0635472002975869116  , 0.250805408711948397   ,-0.400974440480198258   ,
/* Mode 8 (2 0) */
   0.118686009149282151   ,-0.300437931908177858   ,-0.354269260264316266   , 0.220681575247820005   , 0.206700896024409331   , 0.205075539899056886   ,-0.0463764128393986327  ,-0.128393386853879771   ,
  -0.198865041086327271   ,-0.0581281622858273589  , 0.132789379021013537   ,-0.330125814674785079   ,
/* Mode 8 (3 0) */
  -0.371937160148500201   , 0.141800346357302376   ,-0.0218963760357996085  , 0.0233820926324026061  ,-0.193170065733641649   , 0.228022693760077527   ,
/* Mode 8 (4 0) */
   0.0476982323233732172  ,-0.132671374095929911   ,-0.0139852480877415836  ,-0.146077325131257735   , 0.0132532541845405971  ,-0.0578323543047087399  ,-0.0828346688595251873  , 0.235250565720770771   ,
/* Mode 8 (5 0) */
  -0.0908463686345904881  , 0.0414361033773315707  , 0.142167539725974457   ,-0.00830006719829038363 , 0.00866727324649282926 , 0.128252709785431573   ,
/* Mode 8 (6 0) */
  -0.165526507903780679   , 0.0108694830270890785  ,-0.0101906247703318631  ,
/* Mode 8 (7 0) */
  -0.0962037581536771963  ,-0.120506129199502904   ,-0.128193001865605977   , 0.0130162953392561134  ,-0.012930712574446758   ,
/* Mode 8 (0 1) */
  -0.0901543961366525204  , 0.154955020456473719   ,-0.16925261087419799    , 0.135529335879820328   ,-0.253969433679460899   ,-0.318347567804834475   ,-0.199431972398450896   ,-0.117822842073642242   ,
/* Mode 8 (1 1) */
   0.181425145314344144   ,-0.235059563910931801   ,-0.282864607534442314   ,-0.25750850471464054    , 0.32322055723388643    , 0.10050127146516144    ,-0.128021495845252159   , 0.21062695907918344    ,
/* Mode 8 (2 1) */
  -0.0370947225432395195  ,-0.386533690016331311   , 0.394522425241837782   , 0.0544395943804017526  , 0.150030023588351991   ,-0.0293555777579962603  ,-0.0275139523667919661  , 0.0400508502136371417  ,
  -0.149621335613061845   , 0.198800690190684304   ,
/* Mode 8 (3 1) */
   0.133133273599531893   , 0.131692275221197086   ,-0.210664422519265343   , 0.0520246057071491602  ,-0.118748665541231549   ,-0.173616845246545609   ,-0.165425982419033918   , 0.199339128185607867   ,
  -0.0516963505478100702  ,-0.188749037552815246   ,-0.138108119830253867   ,-0.072642010955986408   ,-0.140965517871192797   , 0.185673494299560538   , 0.141536335740727548   , 0.0814623687498546578  ,
   0.203513488943976972   ,
/* Mode 8 (4 1) */
   0.0855321040924535148  ,-0.228259229842850492   ,-0.0172152147158742795  , 0.131355392895346812   ,-0.226602776209643086   ,-0.111346205476229546   , 0.0169173097551870884  , 0.0784094228247077391  ,
   0.167712278603362352   ,-0.191705135920282627   ,-0.061241466488474873   ,-0.0788854781340050798  , 0.21349772375597123    ,-0.178860352359106162   , 0.189313872534469879   ,
/* Mode 8 (5 1) */
   0.227522217627061929   ,-0.144004026111045819   ,-0.119559573491250001   ,-0.147860201151577414   , 0.16343288330677247    , 0.153255961569980975   ,-0.155520388447851293   , 0.15122391313966807    ,
  -0.117619283705963792   ,
/* Mode 8 (6 1) */
   0.105089080809097513   ,-0.160858406009975891   , 0.169840215646594822   , 0.0895997761178308483  , 0.0698120319684547158  ,-0.157311810349666958   , 0.114578158872713817   ,-0.100659201590114031   ,
/* Mode 8 (7 1) */
  -0.0827515359600806688  ,-0.130917846190598847   , 0.0920296668172941867  ,-0.0799802503151213345  , 0.0787850650541413733  ,
/* Mode 8 (0 2) */
   0.027727275951697921   ,-0.0270828021221385627  ,-0.187746700018874751   ,
/* Mode 8 (1 2) */
   0.0244855181605413696  ,-0.0497581730692252741  ,-0.141233294686004179   , 0.114048300700707414   , 0.0260911230151056606  , 0.124788049379239777   ,
/* Mode 8 (2 2) */
   0.0207804553059419833  ,-0.0959868529650114433  ,-0.116895499371395095   , 0.152445929269607067   ,-0.0204698548932794183  , 0.0613755722737087256  , 0.132582093529455353   ,
/* Mode 8 (3 2) */
   0.0964671287305993164  , 0.117119630396409366   ,-0.18116519710200199    ,-0.122600975863224868   ,-0.0878347444697227669  , 0.121981333341505432   ,
/* Mode 8 (4 2) */
  -0.111097207788936059   , 0.191539682113051363   ,-0.247663389492504188   , 0.102806775952210036   ,-0.128051663732486332   , 0.073553828102374888   ,-0.133818525926108767   ,
/* Mode 8 (5 2) */
   0.0673702595632854201  ,-0.097556195802976961   , 0.122065932051098849   ,-0.179059504389646879   , 0.126556733962253837   , 0.165443035683849243   ,-0.104070117110842256   , 0.0712992596644963228  ,
  -0.110805400624432754   , 0.109317313761939816   , 0.0622515110871312213  ,-0.106471089287750259   ,-0.0845037807250891976  , 0.104998283571649476   ,-0.162571086373914486   ,
/* Mode 8 (6 2) */
  -0.122001680509974786   ,-0.0725203172372806681  ,-0.0932014350966638566  , 0.108497785421228454   , 0.243680821584799173   , 0.16015004465874727    ,-0.235756568335085265   , 0.0991968913785019751  ,
   0.120803019858590391   ,
/* Mode 8 (7 2) */
  -0.260780196206437997   ,-0.168485992656141115   , 0.200879376328085557   ,-0.102905983638799242   , 0.201101155110595953   ,
/* Mode 8 (0 3) */
  -0.0804794183685830083  ,
/* Mode 8 (1 3) */
  -0.0601862168408487455  ,
/* Mode 8 (2 3) */
   0.0951075735200789252  ,-0.0942415802639205713  ,
/* Mode 8 (3 3) */
  -0.0830337186234944152  ,-0.0835422996501626325  ,
/* Mode 8 (4 3) */
   0.109882129565164577   ,
/* Mode 8 (5 3) */
   0.117779052784891328   ,
/* Mode 8 (6 3) */
  -0.091955995628990303   ,-0.152294238833229484   , 0.15686483862971376    , 0.130145213352920536   ,
/* Mode 8 (7 3) */
  -0.255973545921104384   ,-0.122842371911753165   ,-0.294862767134788262   ,-0.196203567099502429   ,-0.13066366963590148    ,
/* Mode 8 (0 4) */
   0.0176137294332235975  ,-0.0185558707600218808  , 0.143052492667332415   ,
/* Mode 8 (1 4) */
   0.115117259488530826   ,-0.10467422602132842    ,
/* Mode 8 (2 4) */
  -0.128927852279105221   ,
/* Mode 8 (3 4) */
   0.0965646962063007458  ,
/* Mode 8 (4 4) */
   0.117527592404034945   , 0.137809941832165717   ,
/* Mode 8 (5 4) */
   0.161551612995984334   ,-0.113154166050499674   , 0.110177532550102208   ,
/* Mode 8 (6 4) */
  -0.171105708558932007   ,-0.125162639210129489   ,
/* Mode 8 (7 4) */
   0.128476490214813138   ,-0.0932661586581108176  ,
/* Mode 8 (0 5) */
   0.0910118774654425783  ,-0.12290486766539549    ,
/* Mode 8 (1 5) */
/* Mode 8 (2 5) */
/* Mode 8 (3 5) */
   0.096757102084630689   ,
/* Mode 8 (4 5) */
   0.0898995823772607699  ,
/* Mode 8 (5 5) */
   0.0843262547446755606  ,
/* Mode 8 (6 5) */
  -0.118723298212871545   ,
/* Mode 8 (7 5) */
   0.0806436640418169565  ,
/* Mode 8 (0 6) */
/* Mode 8 (1 6) */
/* Mode 8 (2 6) */
   0.117888191107619      ,
/* Mode 8 (3 6) */
  -0.0865769530661934655  ,
/* Mode 8 (4 6) */
/* Mode 8 (5 6) */
/* Mode 8 (6 6) */
/* Mode 8 (7 6) */
/* Mode 8 (0 7) */
  -0.0975426436795957252  ,-0.00906703431635580079 ,-0.095593668325841305   , 0.00875805648346656904 ,
/* Mode 8 (1 7) */
/* Mode 8 (2 7) */
  -0.117835982548363319   ,
/* Mode 8 (3 7) */
/* Mode 8 (4 7) */
/* Mode 8 (5 7) */
/* Mode 8 (6 7) */
/* Mode 8 (7 7) */
/* Mode 9 (0 0) */
   0.163624523820724926   ,-0.133923745694988161   , 0.16577204049165789    , 0.364355783191670335   , 2.76863806684490221    , 3.98993996787356542    , 0.525975901778492849   , 0.327858150526538661   ,
   0.351357407883741757   , 1.14267916831593142    ,-0.303240599652902454   ,-0.480994260997551104   , 2.12391014012889334    , 1.29773086121775938    ,-0.166442547019808734   , 0.415982336555891397   ,
   2.66980433482012458    , 0.109746451287937391   , 0.353175887140224132   , 0.297920643708114496   , 0.607216582350050715   , 4.61104940163324439    ,-0.375957042434280353   , 0.794114054662050317   ,
   1.27538817658496217    , 1.47670865209711644    ,
/* Mode 9 (1 0) */
   0.223210402485879922   ,-1.51826315394859535    ,-0.127039028203869864   ,-0.242791657183770687   , 0.227835030779052095   ,-1.16002728880582384    ,-0.747484293819292822   ,-0.147899969735525494   ,
  -1.0011309694972832     , 0.440590351159885929   ,-0.364713380584740787   ,-1.75611109748563621    ,-0.754364619107193879   ,-0.593361401188744697   ,
/* Mode 9 (2 0) */
   0.0631945915310080791  ,-0.123788653281648967   , 0.218320926310136443   ,-0.0551581532583064055  , 0.131087323287295526   ,-0.271439222151137916   ,-0.438785150246439049   ,-0.0633984366465921573  ,
   0.329865273437722539   , 0.090046060912556028   ,-0.302793505091357662   ,-0.547642499226303703   ,-0.498561930455443003   ,
/* Mode 9 (3 0) */
  -0.0300875364888462428  , 0.0360056081161220926  ,-0.164122308094549724   ,-0.181483256516601243   ,
/* Mode 9 (4 0) */
  -0.0721184396652952281  ,
/* Mode 9 (5 0) */
/* Mode 9 (6 0) */
   0.0948880428000362791  ,
/* Mode 9 (7 0) */
   0.0095128451683206116  ,-0.013784696915706161   ,
/* Mode 9 (0 1) */
  -0.168950487055633813   , 0.356324533279572364   , 0.0948106974469734853  , 0.425950835652466497   , 0.265580361241794516   ,-0.361565664146215937   ,-0.976146291255417076   ,-0.952609697999217686   ,
  -0.98417550236346496    , 0.139082606286447003   ,-0.299348384419853009   ,-0.248699687588700841   , 0.278201539906039352   ,-0.447783403418437531   ,-0.957035807856722043   ,-0.0715556498106294236  ,
   0.174712315332192336   ,-2.07781208382471672    ,-1.10351684040043496    ,
/* Mode 9 (1 1) */
   0.114837447603809109   , 0.307172399138653462   ,-0.181739323273509196   ,-0.398383078614821362   , 0.0598018338773779051  ,-0.323606372554329447   , 0.13854541568331688    , 0.227430726310882791   ,
   0.510763899788150844   ,-0.078741231220543953   , 0.19841462038795929    ,-0.294859121398523105   ,-0.457893936485814834   ,-0.154054120106805331   , 0.658301279624261215   , 0.442887307819413267   ,
  -0.471455401800762119   ,
/* Mode 9 (2 1) */
   0.0433223500495248381  ,-0.124881361760179194   ,-0.14055297277750417    , 0.152690720236681537   , 0.299810457086802318   , 0.0743886206664264721  ,-0.105068889363415671   ,-0.199233684810890432   ,
   0.0804349627838923803  ,-0.261964150129645745   , 0.0424715669313434838  , 0.340806701782486732   ,-0.125292359018339905   , 0.269675789458038828   , 0.410007249109287708   , 0.510491046502670076   ,
  -0.226039271044107953   ,
/* Mode 9 (3 1) */
  -0.131469047487363683   , 0.160630796349962135   , 0.0255513453335934962  ,-0.139829113220751228   ,-0.0284365650759799589  , 0.139947694335389006   ,
/* Mode 9 (4 1) */
   0.143555081457188399   , 0.0552498157859123082  ,
/* Mode 9 (5 1) */
   0.128205015178014747   ,-0.0986522750353946015  ,
/* Mode 9 (6 1) */
/* Mode 9 (7 1) */
/* Mode 9 (0 2) */
  -0.0793833973034255846  ,-0.455941705723745538   , 0.0827988511977816449  , 0.0891272186897671265  ,-0.264829035328760787   ,-0.307127479678514614   ,-0.385485881398730246   ,-0.524235187713204653   ,
  -0.515770568764570281   ,-0.0590446177828927235  , 0.076472111541815227   ,-0.120396540481265094   , 0.206240705442824551   ,
/* Mode 9 (1 2) */
   0.103627777354044423   ,-0.121095863434399278   ,-0.272589876074332327   , 0.268483373317253138   ,-0.197892237623978895   , 0.291709901715021924   , 0.428331890627798362   , 0.0510111313521554449  ,
  -0.354155724551043993   ,-0.0583634982270363756  , 0.134688952970874909   ,
/* Mode 9 (2 2) */
  -0.175067259986019685   , 0.333209785419158466   ,-0.236921424549894483   ,-0.20042592983079191    ,-0.336252603211931234   , 0.0896273288138808299  ,-0.252867306392473012   ,-0.179788208357181567   ,
   0.373817216700240096   , 0.276735319101317823   ,
/* Mode 9 (3 2) */
   0.064885303013297882   ,-0.158080331504524968   ,-0.208632783901212621   , 0.189383495537282232   ,-0.0736543277949705949  , 0.284243697231173986   ,-0.213872861573777329   ,
/* Mode 9 (4 2) */
  -0.0713758571394566971  , 0.0941816536841022095  ,-0.26576862317187655    ,
/* Mode 9 (5 2) */
  -0.164755962867604216   ,
/* Mode 9 (6 2) */
   0.12003678472301825    ,
/* Mode 9 (7 2) */
/* Mode 9 (0 3) */
  -0.131518298146092949   ,-0.122106739439188788   ,-0.0872107099125950525  ,
/* Mode 9 (1 3) */
  -0.133761234194597511   , 0.140792855452859772   ,-0.140337467440025593   ,
/* Mode 9 (2 3) */
  -0.0843405669479425496  , 0.20767140055521191    ,-0.209922419853607767   ,-0.176392731906010208   ,-0.214553105497055169   ,
/* Mode 9 (3 3) */
  -0.152023812319459328   , 0.197428992643313955   , 0.114145674640395892   ,-0.159692876666929329   , 0.183124538779978419   ,-0.0882129059944538746  ,
/* Mode 9 (4 3) */
  -0.0771241616544752762  ,-0.0652599351586456572  ,-0.153275117703539243   ,-0.079725415994100185   , 0.18066122632203141    ,-0.158151561931868384   ,-0.0679474667079293104  ,-0.169011322484022258   ,
/* Mode 9 (5 3) */
   0.179670610822858928   , 0.145785989584748893   ,
/* Mode 9 (6 3) */
/* Mode 9 (7 3) */
/* Mode 9 (0 4) */
   0.181140335828591847   ,
/* Mode 9 (1 4) */
  -0.0658815088667335513  ,-0.0803770491529813419  , 0.166950518012457666   ,
/* Mode 9 (2 4) */
   0.0811744357954435336  ,-0.249258372671615991   ,
/* Mode 9 (3 4) */
   0.212739991006578977   ,-0.116447561413323616   ,
/* Mode 9 (4 4) */
  -0.155070011615340786   ,-0.12803502327923813    , 0.226344345470884251   , 0.135518085774906843   , 0.151203825346216736   , 0.185483185262070083   ,
/* Mode 9 (5 4) */
   0.140746513008268959   , 0.137329747284692327   ,-0.168805926180763261   , 0.183655702410688404   ,-0.180660563162584026   ,
/* Mode 9 (6 4) */
   0.110611381466613742   ,-0.125311468446687502   , 0.0863830675007230819  , 0.107267497615420981   ,-0.187818986328074533   ,
/* Mode 9 (7 4) */
  -0.121290885902579637   ,
/* Mode 9 (0 5) */
   0.131720423668139075   ,
/* Mode 9 (1 5) */
   0.123631193619656771   ,-0.093700241171434287   ,
/* Mode 9 (2 5) */
  -0.148838908503979461   ,
/* Mode 9 (3 5) */
   0.128639933601042117   ,
/* Mode 9 (4 5) */
   0.155199362867267487   ,-0.135940263742696577   ,-0.154327625567958149   , 0.104775235276113335   ,
/* Mode 9 (5 5) */
   0.162237991778292623   , 0.124510539965855316   ,
/* Mode 9 (6 5) */
   0.126089940222583297   , 0.088594170259751262   ,-0.11608336295643927    ,-0.122550088607513166   , 0.107272770996463554   ,-0.191468013586934632   ,
/* Mode 9 (7 5) */
   0.117662697786694942   ,-0.109744145300902152   , 0.0973549087151445586  ,
/* Mode 9 (0 6) */
/* Mode 9 (1 6) */
/* Mode 9 (2 6) */
/* Mode 9 (3 6) */
  -0.119466477141400226   ,-0.125049025012397702   ,
/* Mode 9 (4 6) */
  -0.126436388355624513   ,-0.142197460375660584   ,
/* Mode 9 (5 6) */
   0.0822410674718837831  ,-0.161119521797131182   ,-0.133611663204328684   ,
/* Mode 9 (6 6) */
  -0.0939944098754674079  , 0.137189011103426267   ,
/* Mode 9 (7 6) */
   0.0959283806427643493  ,-0.117422129198772457   ,
/* Mode 9 (0 7) */
  -0.00902213675606462415 ,
/* Mode 9 (1 7) */
/* Mode 9 (2 7) */
/* Mode 9 (3 7) */
/* Mode 9 (4 7) */
   0.126839965004077404   ,
/* Mode 9 (5 7) */
   0.120136490702897225   ,
/* Mode 9 (6 7) */
/* Mode 9 (7 7) */
};
const ogg_uint16_t OD_PRED_INDEX_8x8[]={
/* Mode 0 (0 0) */
  0x04,0x0c,0x20,0x24,0x25,0x34,0x44,0x64,0x6b,0x6c,0x70,0x82,0xa4,0xab,0xac,0xae,
  0xc0,0xc5,0xd3,0xe0,0xe3,0xe4,0xe7,0xe8,0xff,
/* Mode 0 (1 0) */
  0x40,0x44,0xa4,0xc4,0xe0,0xe4,
/* Mode 0 (2 0) */
  0x45,0x65,0xa4,0xc4,0xc5,0xe0,0xe4,0xe5,
/* Mode 0 (3 0) */
  0xc0,0xc4,0xc5,0xe5,
/* Mode 0 (4 0) */
  0xe6,
/* Mode 0 (5 0) */
  0x02,0x06,0x26,0x42,0x46,0x62,0x66,0xa2,0xa6,0xe2,
/* Mode 0 (6 0) */
  0x23,0x27,0x43,0x47,0x83,0x87,0xa3,0xc3,0xc7,0xe3,0xe7,
/* Mode 0 (7 0) */
  0xe7,
/* Mode 0 (0 1) */
  0x24,0x40,0x64,0x68,0x80,0xa0,0xc4,0xe0,0xe4,
/* Mode 0 (1 1) */
  0x60,0xa0,0xc4,0xe4,0xec,
/* Mode 0 (2 1) */
  0xc4,0xc5,0xe4,0xe5,
/* Mode 0 (3 1) */
  0xc5,0xe5,
/* Mode 0 (4 1) */
  0xc6,0xe6,
/* Mode 0 (5 1) */
  0xc6,0xe6,
/* Mode 0 (6 1) */
  0xc7,0xe7,
/* Mode 0 (7 1) */
  0xc7,0xe7,
/* Mode 0 (0 2) */
  0x44,0x60,0x64,0x6c,0xc0,0xc4,0xe4,0xec,
/* Mode 0 (1 2) */
  0x60,0x64,0x68,0x6c,0xec,
/* Mode 0 (2 2) */
  0x69,0x6d,0xec,0xed,
/* Mode 0 (3 2) */
  0x69,0x6d,0xcd,0xed,
/* Mode 0 (4 2) */
  0x6a,0xee,
/* Mode 0 (5 2) */
  0xee,
/* Mode 0 (6 2) */
  0xcf,0xef,
/* Mode 0 (7 2) */
  0xef,
/* Mode 0 (0 3) */
  0x44,0x64,0x68,0x6c,0xcc,
/* Mode 0 (1 3) */
  0x68,0x6c,0xcc,
/* Mode 0 (2 3) */
  0x6d,0xcd,0xed,
/* Mode 0 (3 3) */
  0x69,0xcd,0xed,
/* Mode 0 (4 3) */
  0x6e,0xce,0xee,
/* Mode 0 (5 3) */
  0x6a,0x6e,0xce,0xee,
/* Mode 0 (6 3) */
  0x6b,0xcf,0xef,
/* Mode 0 (7 3) */
  0x6b,
/* Mode 0 (0 4) */
  0x6c,0x70,
/* Mode 0 (1 4) */
  0x70,
/* Mode 0 (2 4) */
  0x75,0xd1,
/* Mode 0 (3 4) */
  0x31,0x35,0x72,0xb1,0xf1,0xf2,0xf5,0xf6,
/* Mode 0 (4 4) */
  0x71,0xd6,0xf5,0xf6,
/* Mode 0 (5 4) */
  0x72,0xf6,
/* Mode 0 (6 4) */
  0xd7,
/* Mode 0 (7 4) */
/* Mode 0 (0 5) */
  0x34,0x50,0x54,0x90,0xb0,0xd4,0xf4,
/* Mode 0 (1 5) */
  0xd4,
/* Mode 0 (2 5) */
  0x75,0x7d,
/* Mode 0 (3 5) */
  0x71,0x75,0xb1,0xb5,0xd1,0xd5,
/* Mode 0 (4 5) */
  0x76,0xd5,0xd6,0xf6,
/* Mode 0 (5 5) */
  0x12,0x16,0x32,0x52,0x56,0x7a,0x92,0xb2,0xb6,
/* Mode 0 (6 5) */
  0x17,0x33,0x37,0x57,0xb7,0xd3,0xd7,0xf3,0xf7,
/* Mode 0 (7 5) */
/* Mode 0 (0 6) */
  0x58,0x5c,0x78,0x7c,0x98,0x9c,0xb8,0xfc,
/* Mode 0 (1 6) */
  0x7c,0xd8,0xfc,
/* Mode 0 (2 6) */
  0xfd,
/* Mode 0 (3 6) */
  0xdd,0xfd,
/* Mode 0 (4 6) */
  0x7a,0xfe,
/* Mode 0 (5 6) */
  0x1a,0x1e,0x3a,0x3e,0x5a,0x5e,0x7a,0x7e,0x9a,0x9e,0xbe,
/* Mode 0 (6 6) */
  0x1b,0x1f,0x7b,0x7f,0x9b,0x9f,0xdb,0xdf,0xfb,0xff,
/* Mode 0 (7 6) */
  0x7b,0x7f,
/* Mode 0 (0 7) */
  0x3c,0x78,
/* Mode 0 (1 7) */
  0x7c,
/* Mode 0 (2 7) */
  0x7d,0xdd,
/* Mode 0 (3 7) */
  0xdd,0xfd,
/* Mode 0 (4 7) */
  0x7a,0xde,
/* Mode 0 (5 7) */
  0xde,0xfe,
/* Mode 0 (6 7) */
  0xdf,0xff,
/* Mode 0 (7 7) */
/* Mode 1 (0 0) */
  0x04,0x20,0x24,0x26,0x40,0x44,0x60,0x64,0xa4,0xc4,0xc5,0xe0,0xe4,0xe5,0xe6,
/* Mode 1 (1 0) */
  0x04,0x20,0x40,0x44,0x60,0x64,0x65,0xa4,0xc4,0xe0,0xe4,0xe5,
/* Mode 1 (2 0) */
  0x40,0x41,0x45,0x61,0x65,0xa4,0xc5,0xe5,
/* Mode 1 (3 0) */
  0x41,0x45,0x61,0x65,0xc5,
/* Mode 1 (4 0) */
  0x42,0x46,0x62,0x66,0xe6,
/* Mode 1 (5 0) */
  0x22,0x26,0x42,0x46,0x62,0x66,0x87,0xa2,0xa6,0xe2,
/* Mode 1 (6 0) */
  0x43,0x47,0x63,0x67,0xa3,0xa7,0xc7,0xe3,0xe7,
/* Mode 1 (7 0) */
  0x43,0x47,0x63,0x67,0xc2,
/* Mode 1 (0 1) */
  0x20,0x44,0x60,0x64,0x68,0x74,0xa4,0xc0,0xc4,0xe0,0xe4,0xe5,
/* Mode 1 (1 1) */
  0x60,0x64,0xa4,0xc4,0xe4,
/* Mode 1 (2 1) */
  0x61,0x65,0xc5,0xe5,
/* Mode 1 (3 1) */
  0x61,0x65,0xc5,0xe5,
/* Mode 1 (4 1) */
  0x62,0x66,0xc6,0xe6,
/* Mode 1 (5 1) */
  0x66,0xc6,
/* Mode 1 (6 1) */
  0x63,0x67,0xe7,
/* Mode 1 (7 1) */
  0x63,0x67,
/* Mode 1 (0 2) */
  0x04,0x2c,0x40,0x68,0x6c,0xc4,0xc8,0xcc,0xe0,0xe8,0xec,
/* Mode 1 (1 2) */
  0x44,0x68,0x6c,0xec,
/* Mode 1 (2 2) */
  0x6d,0xed,
/* Mode 1 (3 2) */
  0xed,
/* Mode 1 (4 2) */
/* Mode 1 (5 2) */
/* Mode 1 (6 2) */
  0xcf,
/* Mode 1 (7 2) */
/* Mode 1 (0 3) */
  0x68,0xc8,0xcc,0xe8,0xec,
/* Mode 1 (1 3) */
  0x68,0x6c,0xcc,0xec,
/* Mode 1 (2 3) */
  0x6d,0xcd,0xed,
/* Mode 1 (3 3) */
  0x69,0x6d,0xcd,0xed,
/* Mode 1 (4 3) */
  0x6e,
/* Mode 1 (5 3) */
/* Mode 1 (6 3) */
  0xcf,0xef,
/* Mode 1 (7 3) */
/* Mode 1 (0 4) */
  0x70,0xd0,0xd4,0xf0,0xf4,
/* Mode 1 (1 4) */
  0xd4,0xf4,
/* Mode 1 (2 4) */
/* Mode 1 (3 4) */
/* Mode 1 (4 4) */
/* Mode 1 (5 4) */
  0x52,0x56,0x76,0xf2,
/* Mode 1 (6 4) */
  0x53,0x57,0x73,0xd7,0xf7,
/* Mode 1 (7 4) */
/* Mode 1 (0 5) */
  0x14,0x34,0x94,0xb4,0xd0,0xd4,0xdc,0xf0,0xf4,
/* Mode 1 (1 5) */
/* Mode 1 (2 5) */
/* Mode 1 (3 5) */
/* Mode 1 (4 5) */
  0xd6,0xf2,0xf6,
/* Mode 1 (5 5) */
  0x16,0x32,0x36,0x52,0x56,0x72,0x7e,0x92,0x96,0xb2,0xb6,0xd2,0xd6,0xf2,0xf6,
/* Mode 1 (6 5) */
  0x37,0x57,0x93,0x97,0xb3,0xb7,0xd3,0xd7,0xf3,0xf7,0xff,
/* Mode 1 (7 5) */
  0xd2,0xd6,
/* Mode 1 (0 6) */
  0x50,0x58,0x78,0x7c,0x9c,0xd8,0xdc,0xf8,0xfc,
/* Mode 1 (1 6) */
  0x7c,0xfc,
/* Mode 1 (2 6) */
/* Mode 1 (3 6) */
  0x79,0x7d,
/* Mode 1 (4 6) */
  0x7a,0x7e,0xde,
/* Mode 1 (5 6) */
  0x1a,0x1e,0x5a,0x5e,0x7a,0x7e,0x9a,0x9b,0x9e,0xba,0xbe,0xfe,
/* Mode 1 (6 6) */
  0x3f,0x53,0x5b,0x7b,0x7f,0x9b,0x9f,0xbf,0xdf,0xfb,0xff,
/* Mode 1 (7 6) */
  0x7e,0x7f,0xda,0xff,
/* Mode 1 (0 7) */
  0x18,0x38,0xd8,0xdc,0xf8,0xfc,
/* Mode 1 (1 7) */
  0x78,0xfc,
/* Mode 1 (2 7) */
/* Mode 1 (3 7) */
/* Mode 1 (4 7) */
/* Mode 1 (5 7) */
  0x52,0x56,
/* Mode 1 (6 7) */
  0x57,0x77,0x7f,0xff,
/* Mode 1 (7 7) */
/* Mode 2 (0 0) */
  0x24,0x40,0x44,0x60,0x64,0x68,0xa0,0xa4,0xac,0xc0,0xe0,0xe2,0xe4,0xe5,0xe6,0xe7,
  0xe8,0xec,0xed,0xf5,
/* Mode 2 (1 0) */
  0x60,0x6c,0xa4,0xc0,0xc4,0xc5,0xcc,0xe4,0xe5,0xe7,0xe8,0xec,0xed,
/* Mode 2 (2 0) */
  0xc0,0xc4,0xc5,0xe4,
/* Mode 2 (3 0) */
  0xc5,
/* Mode 2 (4 0) */
  0xc6,0xe0,0xe4,0xe6,
/* Mode 2 (5 0) */
  0xc6,0xc7,0xe6,0xe7,
/* Mode 2 (6 0) */
  0xe7,
/* Mode 2 (7 0) */
  0xa4,0xc4,
/* Mode 2 (0 1) */
  0x24,0x64,0x6c,0x74,0x80,0xa0,0xa8,0xac,0xc4,0xc5,0xcc,0xe4,0xe5,0xe6,0xe7,0xe8,
  0xec,0xed,0xf4,0xf5,
/* Mode 2 (1 1) */
  0x60,0x68,0x69,0x74,0xa0,0xa8,0xc0,0xc4,0xc5,0xcc,0xcd,0xe0,0xe4,0xe5,0xec,
/* Mode 2 (2 1) */
  0x6c,0xc5,0xe5,0xec,
/* Mode 2 (3 1) */
  0xc5,0xc6,0xe5,
/* Mode 2 (4 1) */
  0xc6,0xe6,
/* Mode 2 (5 1) */
  0xc6,0xe6,
/* Mode 2 (6 1) */
/* Mode 2 (7 1) */
  0xc0,0xe0,
/* Mode 2 (0 2) */
  0x44,0x54,0x60,0x64,0x6c,0x70,0xa8,0xcc,0xe4,0xe5,0xec,0xed,0xf4,
/* Mode 2 (1 2) */
  0x4c,0x60,0x68,0x69,0x74,0xa0,0xa8,0xe8,0xec,0xed,
/* Mode 2 (2 2) */
  0x6c,0x6d,0xcc,0xcd,0xed,
/* Mode 2 (3 2) */
  0x69,0xcd,
/* Mode 2 (4 2) */
  0x6e,0xce,0xee,
/* Mode 2 (5 2) */
  0xee,0xef,
/* Mode 2 (6 2) */
  0xef,
/* Mode 2 (7 2) */
/* Mode 2 (0 3) */
  0x4c,0x54,0x64,0x68,0x6c,0x74,0xa4,0xb0,0xc4,0xcc,0xd4,0xec,0xf4,
/* Mode 2 (1 3) */
  0x2c,0x68,0x6c,0x70,0xa8,0xb0,0xcc,0xcd,0xd4,0xec,0xf4,0xf5,
/* Mode 2 (2 3) */
  0x6d,0x74,0xcc,0xcd,0xec,0xed,
/* Mode 2 (3 3) */
  0x69,0xcd,0xed,
/* Mode 2 (4 3) */
  0x6e,0xce,
/* Mode 2 (5 3) */
  0xce,
/* Mode 2 (6 3) */
/* Mode 2 (7 3) */
/* Mode 2 (0 4) */
  0x4c,0x60,0x6c,0x74,0xb0,0xcc,0xd4,0xe4,0xec,
/* Mode 2 (1 4) */
  0x48,0x68,0x6c,0x70,0x71,0x75,0xb0,0xd4,0xf4,0xf5,
/* Mode 2 (2 4) */
  0x4d,0x6d,0x70,0x74,0x75,0xf4,0xf5,
/* Mode 2 (3 4) */
  0x71,0xf5,0xf6,
/* Mode 2 (4 4) */
  0xf6,
/* Mode 2 (5 4) */
  0xf6,0xf7,
/* Mode 2 (6 4) */
  0xf7,
/* Mode 2 (7 4) */
/* Mode 2 (0 5) */
  0x74,0x7c,0xb0,0xdc,0xf4,
/* Mode 2 (1 5) */
  0x70,0x71,0xb0,0xdc,0xf4,0xfc,
/* Mode 2 (2 5) */
  0x74,0x75,0xd4,0xd5,
/* Mode 2 (3 5) */
  0x71,0xd5,
/* Mode 2 (4 5) */
  0xd6,0xf6,
/* Mode 2 (5 5) */
  0xd6,0xd7,
/* Mode 2 (6 5) */
/* Mode 2 (7 5) */
/* Mode 2 (0 6) */
  0x44,0x74,0x7c,0xdc,0xe4,
/* Mode 2 (1 6) */
  0x70,0x78,0xdc,0xf4,
/* Mode 2 (2 6) */
  0x75,0x7d,0xfc,0xfd,
/* Mode 2 (3 6) */
  0x79,0xfd,
/* Mode 2 (4 6) */
  0x7e,0xde,0xfe,
/* Mode 2 (5 6) */
  0xfe,0xff,
/* Mode 2 (6 6) */
/* Mode 2 (7 6) */
/* Mode 2 (0 7) */
  0x40,0xdc,0xe4,0xfc,
/* Mode 2 (1 7) */
  0x78,0xfc,
/* Mode 2 (2 7) */
  0x7d,0xdd,
/* Mode 2 (3 7) */
  0xdd,
/* Mode 2 (4 7) */
  0xde,
/* Mode 2 (5 7) */
  0xde,0xfe,
/* Mode 2 (6 7) */
/* Mode 2 (7 7) */
/* Mode 3 (0 0) */
  0x2c,0x6c,0xc0,0xc2,0xc4,0xc5,0xc6,0xe0,0xe3,0xe4,0xe5,0xe6,0xe7,0xe8,0xec,0xed,
/* Mode 3 (1 0) */
  0x68,0x6c,0xc0,0xc4,0xc5,0xe5,0xe6,
/* Mode 3 (2 0) */
  0xc5,0xe5,
/* Mode 3 (3 0) */
  0xc5,0xc6,0xe1,0xe5,0xe6,
/* Mode 3 (4 0) */
  0xc0,0xc4,0xc6,0xe1,0xe6,
/* Mode 3 (5 0) */
  0xc0,0xc4,0xc5,0xe5,0xe6,0xe7,
/* Mode 3 (6 0) */
  0x43,0xc7,
/* Mode 3 (7 0) */
  0xe0,0xe4,0xe5,
/* Mode 3 (0 1) */
  0x2c,0x6c,0xc0,0xc4,0xc5,0xc6,0xe0,0xe4,0xe5,0xe6,0xe7,0xed,
/* Mode 3 (1 1) */
  0x68,0x6c,0xc4,0xc5,0xe4,0xe5,
/* Mode 3 (2 1) */
  0x69,0x6d,0xc5,0xe5,
/* Mode 3 (3 1) */
  0xc5,0xc6,0xe5,0xe6,
/* Mode 3 (4 1) */
  0x6a,0xc0,0xc4,0xc6,0xe0,0xe4,0xe6,
/* Mode 3 (5 1) */
  0xc6,0xc7,0xe6,0xe7,
/* Mode 3 (6 1) */
  0xc7,0xe7,
/* Mode 3 (7 1) */
/* Mode 3 (0 2) */
  0x2c,0x6c,0xcc,0xcd,0xce,0xe8,0xec,0xed,0xee,
/* Mode 3 (1 2) */
  0x68,0x6c,0xcc,0xcd,0xec,0xed,
/* Mode 3 (2 2) */
  0x69,0x6d,0xcd,0xed,
/* Mode 3 (3 2) */
  0x69,0x6d,0xcd,0xe9,0xed,0xee,
/* Mode 3 (4 2) */
  0x6a,0x6e,0xce,0xee,
/* Mode 3 (5 2) */
  0x6a,0x6e,0xce,0xcf,0xee,0xef,
/* Mode 3 (6 2) */
  0x6b,0x6f,0xcf,
/* Mode 3 (7 2) */
  0x6b,0x6f,
/* Mode 3 (0 3) */
  0x2c,0x34,0x6c,0x70,0xcc,0xcd,0xce,0xec,0xed,0xee,
/* Mode 3 (1 3) */
  0x68,0x6c,0x70,0x74,0xcc,0xcd,0xec,0xed,
/* Mode 3 (2 3) */
  0x6d,0x75,0xcd,0xed,
/* Mode 3 (3 3) */
  0x69,0x6d,0x71,0x75,0xcd,0xed,0xee,
/* Mode 3 (4 3) */
  0x6a,0xce,0xee,
/* Mode 3 (5 3) */
  0xce,0xcf,
/* Mode 3 (6 3) */
  0xcf,0xef,
/* Mode 3 (7 3) */
/* Mode 3 (0 4) */
  0x34,0x4c,0x70,0x74,0xd4,0xd5,0xf4,0xf5,
/* Mode 3 (1 4) */
  0x70,0x74,0xd4,0xd5,0xf4,0xf5,
/* Mode 3 (2 4) */
  0x71,0x75,0xd5,0xf5,
/* Mode 3 (3 4) */
  0x71,0x75,0xd5,0xf5,
/* Mode 3 (4 4) */
  0x76,0xd6,0xf6,
/* Mode 3 (5 4) */
  0x76,0xd6,
/* Mode 3 (6 4) */
  0xd7,
/* Mode 3 (7 4) */
/* Mode 3 (0 5) */
  0x70,0xd4,0xd5,0xf4,0xf5,
/* Mode 3 (1 5) */
  0x68,0x6c,0xd4,0xd5,0xf4,0xf5,
/* Mode 3 (2 5) */
  0x6d,0xd5,0xf5,
/* Mode 3 (3 5) */
  0x79,0xd5,0xf5,
/* Mode 3 (4 5) */
  0x7e,0xd6,0xf6,
/* Mode 3 (5 5) */
  0x7a,0x7e,0xd7,
/* Mode 3 (6 5) */
  0x7b,0xd7,
/* Mode 3 (7 5) */
/* Mode 3 (0 6) */
  0xb8,0xdc,0xdd,0xfc,0xfd,
/* Mode 3 (1 6) */
  0xdc,0xdd,0xfc,0xfd,
/* Mode 3 (2 6) */
  0x7d,0xdd,0xfd,
/* Mode 3 (3 6) */
  0x79,0x7d,0xfe,
/* Mode 3 (4 6) */
  0x7e,0xde,0xfe,
/* Mode 3 (5 6) */
  0x7a,0x7e,0xde,0xdf,0xfe,0xff,
/* Mode 3 (6 6) */
  0x7b,0x7f,0xdf,0xff,
/* Mode 3 (7 6) */
/* Mode 3 (0 7) */
  0xdc,0xdd,0xfc,0xfd,
/* Mode 3 (1 7) */
  0xdc,0xdd,0xf8,0xfc,0xfd,
/* Mode 3 (2 7) */
  0xdd,0xfd,
/* Mode 3 (3 7) */
/* Mode 3 (4 7) */
  0xde,0xfe,
/* Mode 3 (5 7) */
/* Mode 3 (6 7) */
  0xdf,
/* Mode 3 (7 7) */
/* Mode 4 (0 0) */
  0x24,0x40,0x60,0x68,0x6c,0x7c,0x80,0xb8,0xc0,0xc4,0xc5,0xc6,0xc7,0xe4,0xe5,0xec,
/* Mode 4 (1 0) */
  0x40,0x60,0x68,0x80,0xc5,0xe0,0xe4,0xe5,
/* Mode 4 (2 0) */
  0xc5,0xe5,
/* Mode 4 (3 0) */
  0xc6,0xe5,
/* Mode 4 (4 0) */
  0xc6,
/* Mode 4 (5 0) */
  0xc6,0xc7,0xe6,
/* Mode 4 (6 0) */
/* Mode 4 (7 0) */
  0xa4,0xe0,
/* Mode 4 (0 1) */
  0x24,0x2c,0x40,0x60,0x68,0x6c,0x74,0x80,0xa0,0xc4,0xc5,0xc8,0xcc,0xcd,0xe4,0xe5,
  0xe7,0xec,0xed,
/* Mode 4 (1 1) */
  0x60,0x68,0xc0,0xc4,0xc5,0xe0,0xe4,0xe5,
/* Mode 4 (2 1) */
  0xc5,0xe5,0xec,
/* Mode 4 (3 1) */
  0xc5,0xe5,
/* Mode 4 (4 1) */
/* Mode 4 (5 1) */
  0xe6,
/* Mode 4 (6 1) */
  0xc7,0xe7,
/* Mode 4 (7 1) */
/* Mode 4 (0 2) */
  0x2c,0x40,0x50,0x60,0x68,0x74,0xc4,0xc5,0xcc,0xcd,0xe4,0xec,0xed,
/* Mode 4 (1 2) */
  0x24,0x44,0x64,0x69,0x6c,0x6d,0xc8,0xcc,0xcd,0xec,
/* Mode 4 (2 2) */
  0x60,0x64,0x68,0x6c,0xc4,0xec,0xed,
/* Mode 4 (3 2) */
  0xed,
/* Mode 4 (4 2) */
  0xee,
/* Mode 4 (5 2) */
  0xce,
/* Mode 4 (6 2) */
/* Mode 4 (7 2) */
/* Mode 4 (0 3) */
  0x34,0x48,0x50,0x64,0x68,0x6c,0x70,0xb0,0xc4,0xcc,0xcd,0xd4,0xf4,
/* Mode 4 (1 3) */
  0x24,0x2c,0x4c,0x54,0x64,0x68,0x69,0x6c,0x71,0x74,0x75,0xb0,0xc4,0xcd,0xd4,0xd5,
  0xec,0xed,0xf4,
/* Mode 4 (2 3) */
  0x68,0x69,0x6c,0x74,0xcc,0xcd,0xec,0xed,
/* Mode 4 (3 3) */
  0x6d,0xed,
/* Mode 4 (4 3) */
  0x6a,0xce,0xee,
/* Mode 4 (5 3) */
/* Mode 4 (6 3) */
/* Mode 4 (7 3) */
/* Mode 4 (0 4) */
  0x34,0x48,0x68,0x70,0xb0,0xec,0xf4,
/* Mode 4 (1 4) */
  0x2c,0x34,0x4c,0x6c,0x71,0x74,0x75,0xcc,0xd4,0xd5,0xec,0xf4,
/* Mode 4 (2 4) */
  0x69,0x70,0x71,0x74,0xd4,0xd5,0xf4,0xf5,
/* Mode 4 (3 4) */
  0x75,0xd5,0xd6,0xf5,
/* Mode 4 (4 4) */
  0xd6,0xf6,
/* Mode 4 (5 4) */
  0xd6,0xf6,
/* Mode 4 (6 4) */
  0xd7,
/* Mode 4 (7 4) */
/* Mode 4 (0 5) */
  0x70,0x78,0xcc,0xd4,0xf4,
/* Mode 4 (1 5) */
  0x34,0x71,0x74,0x75,0xd4,0xdc,0xf5,
/* Mode 4 (2 5) */
  0x70,0x71,0xd5,0xf4,0xf5,
/* Mode 4 (3 5) */
  0x75,0xd5,0xf5,
/* Mode 4 (4 5) */
  0xd6,0xf6,
/* Mode 4 (5 5) */
  0xd6,0xf6,
/* Mode 4 (6 5) */
/* Mode 4 (7 5) */
/* Mode 4 (0 6) */
  0x64,0x70,0x78,0xc4,0xdc,0xfc,
/* Mode 4 (1 6) */
  0x74,0x79,0x7c,0xd4,0xdc,0xf4,0xfc,
/* Mode 4 (2 6) */
  0x71,0x79,0xdd,
/* Mode 4 (3 6) */
  0x7d,0xb9,0xdd,0xde,0xfa,0xfd,
/* Mode 4 (4 6) */
  0xde,0xfe,
/* Mode 4 (5 6) */
  0xde,0xfe,
/* Mode 4 (6 6) */
/* Mode 4 (7 6) */
/* Mode 4 (0 7) */
  0x44,0xdc,0xe4,0xfc,
/* Mode 4 (1 7) */
  0x7c,0xdc,0xfc,
/* Mode 4 (2 7) */
  0x3d,0x79,0xfd,
/* Mode 4 (3 7) */
  0x7d,0xda,0xdd,0xfa,0xfc,0xfd,
/* Mode 4 (4 7) */
  0xde,0xf9,0xfd,0xfe,
/* Mode 4 (5 7) */
  0xde,0xfe,
/* Mode 4 (6 7) */
  0xdf,
/* Mode 4 (7 7) */
/* Mode 5 (0 0) */
  0x0c,0x20,0x24,0x25,0x2c,0x40,0x48,0x60,0x65,0x68,0x69,0xc1,0xc2,0xc4,0xc5,0xcd,
  0xe4,0xe5,0xe7,
/* Mode 5 (1 0) */
  0x60,0x61,0x68,0xc0,0xc4,0xc5,0xe4,0xe5,0xec,
/* Mode 5 (2 0) */
  0x24,0x61,0x64,0xe0,0xe4,0xe5,
/* Mode 5 (3 0) */
  0xe5,
/* Mode 5 (4 0) */
  0xc6,
/* Mode 5 (5 0) */
  0xc6,0xc7,
/* Mode 5 (6 0) */
  0xc7,
/* Mode 5 (7 0) */
  0xa4,0xc0,0xc7,
/* Mode 5 (0 1) */
  0x0c,0x20,0x40,0x60,0x64,0x68,0xc4,0xc5,0xcc,0xe4,
/* Mode 5 (1 1) */
  0x24,0x25,0x2c,0x61,0x64,0x65,0x68,0x69,0x6c,0xc4,0xc5,0xcc,0xcd,0xe4,0xe5,0xec,
/* Mode 5 (2 1) */
  0x2d,0x60,0x64,0x65,0x68,0x6c,0xc0,0xc4,0xc5,0xe0,0xe4,0xe5,0xed,
/* Mode 5 (3 1) */
  0x61,0x69,0xe5,0xe6,
/* Mode 5 (4 1) */
  0xc6,0xe6,
/* Mode 5 (5 1) */
  0xe6,
/* Mode 5 (6 1) */
/* Mode 5 (7 1) */
/* Mode 5 (0 2) */
  0x24,0x44,0x64,0x68,0x6c,0xc4,0xcc,0xe4,0xec,
/* Mode 5 (1 2) */
  0x24,0x2c,0x60,0x64,0x65,0x68,0x6c,0x6d,0xc4,0xc5,0xc8,0xcd,0xe4,0xe5,0xec,
/* Mode 5 (2 2) */
  0x24,0x60,0x61,0x68,0x69,0xc8,0xcc,0xcd,0xee,
/* Mode 5 (3 2) */
  0x61,0x6d,0xcc,0xcd,0xce,
/* Mode 5 (4 2) */
  0xcd,0xce,
/* Mode 5 (5 2) */
  0xce,0xcf,
/* Mode 5 (6 2) */
  0xcf,
/* Mode 5 (7 2) */
/* Mode 5 (0 3) */
  0x6c,0x70,0xcc,
/* Mode 5 (1 3) */
  0x54,0x68,0x6c,0xcc,0xcd,0xed,
/* Mode 5 (2 3) */
  0x61,0x69,0x71,0xd5,0xec,0xed,
/* Mode 5 (3 3) */
  0x2d,0x65,0x6a,0x6d,0x72,0x75,0xcc,0xcd,0xd5,0xd6,0xec,0xed,0xee,0xf5,
/* Mode 5 (4 3) */
  0x69,0x6a,0x6d,0xce,0xd6,0xed,0xee,
/* Mode 5 (5 3) */
  0x6e,0xee,
/* Mode 5 (6 3) */
  0xcf,0xef,
/* Mode 5 (7 3) */
/* Mode 5 (0 4) */
  0x74,
/* Mode 5 (1 4) */
  0x70,0x74,
/* Mode 5 (2 4) */
  0x49,0x69,0x71,0xcd,0xd5,0xed,
/* Mode 5 (3 4) */
  0x6d,0x72,0x75,0x76,0xd5,0xd6,
/* Mode 5 (4 4) */
  0x6a,0x71,0x72,0x75,0x76,0xd5,0xd6,
/* Mode 5 (5 4) */
  0x76,0x77,0xd6,0xd7,
/* Mode 5 (6 4) */
  0xd7,
/* Mode 5 (7 4) */
  0x77,0xd7,
/* Mode 5 (0 5) */
  0xd4,
/* Mode 5 (1 5) */
/* Mode 5 (2 5) */
  0x71,0x79,0xf5,
/* Mode 5 (3 5) */
  0x35,0x72,0x75,0xf5,0xfe,
/* Mode 5 (4 5) */
  0x36,0x72,0x7a,0xb2,0xde,0xf6,0xfe,
/* Mode 5 (5 5) */
  0x36,0x73,0x76,0x7e,0xb2,0xd6,0xf6,0xf7,
/* Mode 5 (6 5) */
  0xd7,0xf6,0xf7,
/* Mode 5 (7 5) */
  0x77,0xf7,
/* Mode 5 (0 6) */
/* Mode 5 (1 6) */
/* Mode 5 (2 6) */
  0x79,
/* Mode 5 (3 6) */
  0x79,0x7d,0xdd,
/* Mode 5 (4 6) */
  0x72,0x7a,0xdd,0xde,0xf6,
/* Mode 5 (5 6) */
  0x7e,0xd6,0xde,
/* Mode 5 (6 6) */
  0xda,0xde,0xdf,
/* Mode 5 (7 6) */
  0xdf,
/* Mode 5 (0 7) */
  0x40,0x78,0x7c,0xc4,
/* Mode 5 (1 7) */
/* Mode 5 (2 7) */
/* Mode 5 (3 7) */
  0x7d,0xfd,
/* Mode 5 (4 7) */
  0x7a,0xfe,
/* Mode 5 (5 7) */
  0xfe,0xff,
/* Mode 5 (6 7) */
  0xff,
/* Mode 5 (7 7) */
/* Mode 6 (0 0) */
  0x24,0x40,0x44,0x48,0x4c,0x54,0x60,0x64,0x65,0x68,0x6d,0x70,0x74,0x78,0x7c,0xc0,
  0xc4,0xc5,0xcc,0xe0,0xe5,0xff,
/* Mode 6 (1 0) */
  0x20,0x24,0x25,0x60,0x61,0x64,0x65,0x68,0x69,0x6c,0x6d,0xc0,0xc4,0xc5,0xc6,0xcd,
  0xe5,0xe6,0xec,
/* Mode 6 (2 0) */
  0x25,0x40,0x60,0x61,0x64,0x65,0x68,0xc0,0xc2,0xc4,0xc5,0xe3,0xe4,0xe6,0xe7,
/* Mode 6 (3 0) */
  0x25,0x60,0x61,0x62,0x65,0xc1,0xc2,0xc5,0xc6,0xe4,0xe5,
/* Mode 6 (4 0) */
  0x60,0x66,0xc0,0xc1,0xc5,0xc6,0xe6,
/* Mode 6 (5 0) */
  0x24,0x62,0x64,0xc6,0xc7,0xe6,
/* Mode 6 (6 0) */
  0x60,0xc7,0xe4,
/* Mode 6 (7 0) */
  0xa4,0xc0,0xc7,
/* Mode 6 (0 1) */
  0x24,0x44,0x64,0x68,0x6c,0xc0,0xcd,0xe4,
/* Mode 6 (1 1) */
  0x40,0x44,0x60,0x64,0x68,0x6c,0xc0,0xc4,0xe4,0xe5,0xe6,0xed,
/* Mode 6 (2 1) */
  0x24,0x61,0x65,0x69,0xc4,0xc5,0xc6,0xcd,0xce,0xe4,0xe5,0xed,
/* Mode 6 (3 1) */
  0x25,0x26,0x60,0x65,0x66,0x6d,0xc4,0xc5,0xcd,0xce,0xe1,0xe4,0xe5,0xe6,
/* Mode 6 (4 1) */
  0x25,0x26,0x61,0x65,0xe1,0xe5,0xe6,0xee,
/* Mode 6 (5 1) */
  0x26,0x62,0x6e,0xe6,0xe7,
/* Mode 6 (6 1) */
  0xc7,0xe2,0xe6,0xe7,
/* Mode 6 (7 1) */
  0x63,
/* Mode 6 (0 2) */
  0x6c,0xc4,0xcc,0xe4,
/* Mode 6 (1 2) */
  0x61,0x68,0x6c,0xc4,0xe4,
/* Mode 6 (2 2) */
  0x65,0x69,0x6d,0xc4,0xc5,0xcd,0xe4,0xe5,0xee,
/* Mode 6 (3 2) */
  0x61,0x65,0x69,0x6d,0xc5,0xc6,0xca,0xcd,0xe6,
/* Mode 6 (4 2) */
  0x62,0x6a,0xc6,0xcd,0xce,0xe6,
/* Mode 6 (5 2) */
  0x66,0x6e,0xc6,0xce,
/* Mode 6 (6 2) */
  0x6b,0xce,0xcf,
/* Mode 6 (7 2) */
  0x6f,0xcf,
/* Mode 6 (0 3) */
  0x68,
/* Mode 6 (1 3) */
  0x68,0x6c,
/* Mode 6 (2 3) */
  0x6d,0x71,0xed,
/* Mode 6 (3 3) */
  0x69,0x6d,0xed,
